{"version":"0.5.4","metadata":{"date":{"year":2025,"month":2,"day":3,"hour":23,"minute":2,"second":14},"loudness":-11.916966438293457,"gain":0.740539846399953,"name":"Marshall 1959SLP ALE","modeled_by":"zanca_alessandro","gear_type":"amp_cab","gear_make":"tz-make","gear_model":"tz-model","tone_type":"overdrive","input_level_dbu":null,"output_level_dbu":null,"training":{"settings":{"ignore_checks":true},"data":{"latency":{"manual":null,"calibration":{"algorithm_version":1,"delays":[0],"safety_factor":1,"recommended":-1,"warnings":{"matches_lookahead":false,"disagreement_too_high":false}}},"checks":{"version":4,"passed":false}},"validation_esr":0.006172108272835163}},"architecture":"WaveNet","config":{"layers":[{"input_size":1,"condition_size":1,"head_size":8,"channels":16,"kernel_size":3,"dilations":[1,2,4,8,16,32,64,128,256,512],"activation":"Tanh","gated":false,"head_bias":false},{"input_size":16,"condition_size":1,"head_size":1,"channels":8,"kernel_size":3,"dilations":[1,2,4,8,16,32,64,128,256,512],"activation":"Tanh","gated":false,"head_bias":true}],"head":null,"head_scale":0.02},"weights":[-0.018949953839182854,0.49127253890037537,-0.9052037596702576,-0.8499225974082947,-0.33848196268081665,0.44296589493751526,-0.0002376621268922463,0.8691406846046448,-0.16257651150226593,0.27728766202926636,-0.4149070084095001,-0.2451995611190796,-1.0217559337615967,-0.7732047438621521,-0.42892345786094666,0.010185177437961102,0.0586240291595459,0.2344103306531906,-0.07004790008068085,-0.07968070358037949,-0.10506422817707062,0.0627417042851448,-0.013008898124098778,0.26693493127822876,0.03265190124511719,0.031881336122751236,0.2912733554840088,-0.0780627578496933,-0.07484301924705505,0.11759107559919357,0.0008040520478971303,0.11519616097211838,-0.2514425218105316,-0.1157994270324707,-0.09197855740785599,-0.017464395612478256,-0.0876317247748375,0.10653761029243469,-0.09483104199171066,0.012452607043087482,0.013775673694908619,0.07865312695503235,0.07094164937734604,-0.14698955416679382,-0.2586921751499176,-0.12588156759738922,0.10557734221220016,0.24277882277965546,-0.00823734886944294,0.006897715851664543,0.2485903650522232,0.19615387916564941,0.07496027648448944,0.17967481911182404,0.15383882820606232,-0.06840397417545319,0.18704168498516083,-0.05572733283042908,-0.08463072031736374,0.08138086646795273,0.12161757797002792,-0.028377661481499672,-0.15965481102466583,-0.03731497749686241,0.06381609290838242,0.011839642189443111,-0.0023362538777291775,0.027190890163183212,0.03799564018845558,0.1097513735294342,-0.10424841940402985,0.0000860599466250278,0.08627967536449432,0.1261836439371109,0.1787092238664627,0.15627162158489227,0.03389663249254227,-0.07603490352630615,0.041033707559108734,-0.09195771813392639,-0.18399910628795624,0.10418455302715302,0.10658516734838486,-0.09985716640949249,0.012541261501610279,-0.03144804388284683,-0.07653400301933289,-0.09591777622699738,0.05118469148874283,-0.04342275112867355,0.06921549886465073,0.07013780623674393,0.05472412332892418,0.029654787853360176,-0.13970546424388885,-0.04462842643260956,0.09783666580915451,0.030965531244874,-0.06587748229503632,-0.060530442744493484,0.14338195323944092,0.15086223185062408,-0.03288192301988602,-0.02969191037118435,-0.08459223061800003,0.02656768448650837,-0.10421821475028992,-0.06170967221260071,0.019503319635987282,-0.008193112909793854,-0.07818427681922913,0.06734861433506012,-0.06838435679674149,0.10458528250455856,0.15035177767276764,-0.10372276604175568,0.02251267433166504,0.006194419227540493,0.0013345609186217189,-0.026213090866804123,0.05619337037205696,-0.010070573538541794,-0.13037118315696716,0.06907027959823608,-0.154756560921669,-0.14186793565750122,-0.034667715430259705,-0.058749597519636154,0.002133430913090706,-0.12803088128566742,-0.025554919615387917,-0.022861557081341743,-0.054523102939128876,0.01215282641351223,0.16319258511066437,-0.014012514613568783,0.002490186830982566,-0.05563853308558464,0.04945031926035881,0.10414755344390869,0.19004283845424652,0.08375455439090729,0.12196093797683716,-0.06600163131952286,-0.12570856511592865,-0.07848069816827774,0.04733145236968994,0.008490385487675667,-0.09175939112901688,-0.17156794667243958,-0.1361103504896164,-0.1401822715997696,-0.0885530561208725,0.0799371674656868,0.06170859932899475,-0.19520623981952667,0.09211593866348267,-0.10990559309720993,-0.049545809626579285,-0.07914320379495621,-0.0766233578324318,0.0030020331032574177,-0.1130102351307869,-0.10920310020446777,-0.08580010384321213,-0.06620565056800842,-0.07994724810123444,0.11934658139944077,-0.06060316786170006,-0.025061583146452904,0.1915043592453003,0.009640594944357872,0.11409356445074081,0.11363626271486282,-0.06396715342998505,0.11420462280511856,-0.0746464729309082,-0.12688443064689636,0.08697988092899323,-0.07297395169734955,0.018919698894023895,-0.015904400497674942,0.038539573550224304,-0.029249291867017746,0.039039403200149536,0.10023320466279984,0.016774391755461693,-0.01001148670911789,-0.17766697704792023,0.016475895419716835,0.09557629376649857,0.15871642529964447,-0.03645622730255127,-0.01643332839012146,-0.04556887224316597,-0.019094258546829224,-0.09787719696760178,0.11494085937738419,-0.01620166189968586,-0.018679486587643623,0.07005082070827484,0.16173525154590607,-0.12621794641017914,-0.03802778199315071,-0.01700282283127308,0.096929170191288,-0.053894076496362686,0.11160901933908463,0.024108119308948517,-0.2208530753850937,0.11642247438430786,0.0017223272006958723,0.24128945171833038,-0.13734622299671173,-0.03039930947124958,-0.20659568905830383,-0.004654981661587954,-0.10571900755167007,-0.11153516918420792,-0.008627482689917088,-0.04020756110548973,-0.07657462358474731,0.15402181446552277,0.027755215764045715,0.10332823544740677,-0.04627201333642006,-0.10758563876152039,-0.20538856089115143,0.10225832462310791,0.00956935714930296,0.22684116661548615,0.013728916645050049,-0.005647298879921436,-0.09841224551200867,0.20296305418014526,-0.06496408581733704,0.2873902916908264,-0.21214038133621216,-0.09020237624645233,-0.18439382314682007,0.15553313493728638,0.08100169897079468,-0.2724079191684723,0.10920955240726471,0.043298959732055664,-0.36632129549980164,0.21073123812675476,-0.1498686820268631,-0.22588922083377838,0.08337783813476562,-0.10459736734628677,-0.20199814438819885,0.2248404175043106,0.04937911778688431,-0.019448058679699898,-0.007226054556667805,-0.10491689294576645,0.0396750308573246,-0.023374630138278008,-0.0953587144613266,-0.02109978348016739,0.09407128393650055,0.07448853552341461,0.04709913209080696,0.040876876562833786,-0.04908154159784317,-0.10346455872058868,0.03252575173974037,0.11897014826536179,-0.020751841366291046,-0.07831446826457977,-0.07481686025857925,-0.08058281987905502,0.03268149495124817,-0.06313583254814148,-0.17393945157527924,0.17489725351333618,-0.09188150614500046,0.046720221638679504,0.053206779062747955,0.02066653221845627,-0.14334453642368317,-0.10750598460435867,0.11019326001405716,0.0801941528916359,0.12300723046064377,-0.045310892164707184,-0.015873445197939873,-0.03973161801695824,0.0009849343914538622,-0.14222435653209686,0.04695961996912956,0.043238282203674316,-0.06719128787517548,-0.04442933201789856,-0.08969777077436447,0.037145089358091354,-0.1178727075457573,0.060264021158218384,-0.1080700233578682,-0.07901974022388458,0.025906091555953026,-0.09025077521800995,0.015248685143887997,0.09908122569322586,-0.14354434609413147,0.08542047441005707,0.03102494589984417,0.12438005954027176,-0.02380988746881485,-0.08920180052518845,-0.0915345847606659,0.05540896952152252,-0.022546036168932915,-0.01436393428593874,0.10278996080160141,-0.042661380022764206,-0.06278085708618164,0.06716758012771606,-0.027028925716876984,0.07399264723062515,0.0025016542058438063,-0.052320148795843124,-0.030382635071873665,0.1734141856431961,0.10094151645898819,0.15347504615783691,0.014599679969251156,0.11734198778867722,-0.1218390017747879,-0.09112732857465744,-0.1620006412267685,0.2048790156841278,0.0764126405119896,-0.0652993768453598,-0.00800613034516573,0.11888524889945984,0.18338318169116974,0.06577920913696289,0.12705180048942566,-0.00429557403549552,-0.12045412510633469,0.12354705482721329,0.1113353744149208,-0.1554165929555893,0.1363562047481537,0.10202780365943909,0.014013043604791164,-0.0833299458026886,-0.003497798228636384,-0.11485167592763901,0.06562605500221252,-0.12547726929187775,0.017442109063267708,0.11507310718297958,0.1938096582889557,0.011435052379965782,-0.024287134408950806,-0.2345743328332901,-0.02839183807373047,0.0006761168478988111,-0.2758764624595642,-0.1768130362033844,0.2125982940196991,-0.052077509462833405,0.076092429459095,0.20830190181732178,0.00570093235000968,-0.038109272718429565,-0.13035155832767487,-0.11957170069217682,0.07638274878263474,-0.04762544482946396,0.06327603757381439,-0.0782122015953064,-0.17966654896736145,-0.006804942153394222,0.0636478140950203,0.20525379478931427,0.24179470539093018,0.18762551248073578,-0.13259364664554596,-0.06844624876976013,0.06948202848434448,0.1493069976568222,0.014544306322932243,0.01666846312582493,0.18803979456424713,-0.18374863266944885,0.008306354284286499,0.1136159673333168,-0.1678059697151184,-0.1421336978673935,0.018303725868463516,-0.24383603036403656,0.03647715598344803,0.20016977190971375,-0.025570841506123543,-0.09719161689281464,0.08588199317455292,0.12360914051532745,-0.03240377455949783,-0.041424158960580826,0.13698481023311615,0.1358587145805359,-0.07931090891361237,0.13271431624889374,0.030749840661883354,-0.083509162068367,0.07665053755044937,-0.16063064336776733,-0.052159633487463,0.11976505070924759,-0.06813999265432358,-0.1310168355703354,-0.05142214149236679,0.032799072563648224,-0.0072554186917841434,0.027887262403964996,0.0692291259765625,0.03306334465742111,-0.08379726856946945,0.08564818650484085,0.10050947219133377,0.0840204581618309,-0.1934320628643036,-0.0350482277572155,-0.10865599662065506,0.010034346021711826,0.07409002631902695,-0.10317008197307587,-0.020351320505142212,0.0960274487733841,0.013467959128320217,-0.16556434333324432,-0.07220827043056488,0.02561519853770733,-0.18946588039398193,0.04031076654791832,-0.1352149248123169,-0.21671059727668762,-0.16990594565868378,-0.03135635703802109,0.022931285202503204,-0.1649516224861145,0.13648036122322083,-0.05327853932976723,0.05507642403244972,0.061781369149684906,-0.18692266941070557,0.13896791636943817,0.06146809831261635,0.23817779123783112,0.11136650294065475,-0.07938031852245331,0.024129433557391167,-0.03093341737985611,0.08531728386878967,-0.21170127391815186,-0.0791100561618805,-0.12494289129972458,-0.14893345534801483,-0.0065779909491539,-0.13891780376434326,0.135490283370018,0.10776527225971222,0.05614094436168671,-0.14451225101947784,-0.06112847104668617,-0.06030179560184479,0.15915176272392273,0.1815156787633896,0.11558011174201965,-0.09683112055063248,0.029217658564448357,-0.16315364837646484,-0.03328027203679085,0.099075548350811,-0.06114087998867035,-0.022218165919184685,-0.1372985690832138,-0.0472935326397419,-0.2068495899438858,0.04449770599603653,0.00042581313755363226,0.014174076728522778,0.05009625852108002,0.0969378799200058,-0.09067416191101074,-0.082476906478405,-0.013120790012180805,-0.07352148741483688,0.03411390259861946,-0.05287955701351166,0.17638255655765533,0.04681596904993057,-0.06656234711408615,-0.018499894067645073,0.11510095000267029,0.0765080600976944,-0.19273188710212708,0.10335232317447662,0.12857776880264282,0.14563798904418945,0.12013640999794006,-0.020810386165976524,0.10680388659238815,0.057511620223522186,0.009407229721546173,0.10317246615886688,-0.04478944092988968,0.035346150398254395,-0.09922139346599579,-0.04783732071518898,0.07491461932659149,0.10371574759483337,-0.11141115427017212,-0.04388400912284851,0.0234195739030838,-0.013380499556660652,0.09059513360261917,0.016323387622833252,0.040038999170064926,-0.15622645616531372,-0.14030982553958893,-0.0669412612915039,0.18783092498779297,0.02020239271223545,-0.002467190381139517,-0.018478378653526306,0.19951538741588593,0.13542917370796204,-0.051936887204647064,-0.05626165121793747,-0.11045236885547638,0.055666979402303696,0.02348591759800911,-0.09645011276006699,0.001673589926213026,0.08408524841070175,-0.07859183847904205,0.04862811788916588,0.024071473628282547,-0.0012309026205912232,-0.017668405547738075,0.22028414905071259,-0.14009259641170502,-0.002191578969359398,-0.18860702216625214,0.1273500770330429,-0.1260608732700348,-0.0005352715961635113,0.15679685771465302,-0.08123866468667984,0.16586259007453918,0.0014825835824012756,-0.02408815361559391,0.09939552843570709,0.10417395085096359,0.004498407244682312,-0.27217790484428406,-0.09089009463787079,-0.10041786730289459,0.1548071801662445,-0.1588425636291504,0.12525610625743866,-0.16921792924404144,-0.04130331426858902,0.10237044841051102,0.19315671920776367,0.11636172235012054,0.08193393051624298,-0.1732262372970581,-0.1012425646185875,-0.005053622182458639,0.252971351146698,-0.03694118186831474,-0.1330949366092682,0.18900270760059357,0.1475013792514801,-0.029893552884459496,0.018966734409332275,-0.1156276986002922,0.04589562118053436,0.1265750676393509,-0.05863812938332558,0.03655362129211426,0.18755602836608887,0.12767507135868073,0.16141246259212494,0.0596361942589283,-0.0649532750248909,-0.0743437334895134,0.3254682123661041,-0.061009328812360764,-0.0076996986754238605,-0.31428200006484985,0.22706086933612823,0.20745864510536194,0.3220544159412384,-0.21760059893131256,0.017041396349668503,0.09531489759683609,0.040470998734235764,0.006552192382514477,0.11859873682260513,-0.016306539997458458,-0.13502493500709534,-0.26786157488822937,0.09106965363025665,0.027278311550617218,0.03681633248925209,-0.01021888293325901,-0.13569489121437073,-0.14063890278339386,0.2186896800994873,0.1358748823404312,0.21117110550403595,0.017167890444397926,-0.0487644337117672,-0.2564631700515747,0.23441073298454285,0.10399734973907471,0.051559530198574066,-0.13782401382923126,-0.0307939350605011,0.3171805441379547,-0.12268974632024765,-0.059663958847522736,0.18396702408790588,-0.003628440899774432,0.10915666073560715,0.23975053429603577,-0.08257011324167252,0.12336181849241257,0.1524898260831833,-0.15118320286273956,-0.26267653703689575,-0.19819585978984833,-0.0009080285672098398,-0.1034967452287674,0.0506817102432251,0.04401303082704544,-0.0038912189193069935,-0.15587541460990906,0.09098248183727264,-0.06846679747104645,0.18297122418880463,-0.0666363462805748,-0.020030511543154716,0.14250712096691132,-0.011723245494067669,0.13356657326221466,-0.03971324488520622,-0.07583288848400116,-0.07365160435438156,-0.0352841317653656,0.09251425415277481,-0.05952905863523483,0.11707378923892975,-0.028498059138655663,-0.04665864631533623,0.042265668511390686,-0.16035576164722443,0.014497368596494198,0.18374648690223694,0.009552443400025368,0.10272197425365448,-0.1023273915052414,0.07540905475616455,-0.12879014015197754,0.03860313445329666,0.018365390598773956,0.05331358313560486,0.11182320863008499,0.14941288530826569,-0.005670455750077963,0.05900558456778526,0.1475430727005005,-0.024622207507491112,0.1900254786014557,-0.048806965351104736,-0.003334245877340436,0.05244294926524162,0.1099298819899559,0.05724256858229637,-0.057367291301488876,-0.16597799956798553,0.07977515459060669,-0.02787720412015915,0.06515303254127502,-0.06838557869195938,0.18819782137870789,0.1717231422662735,-0.010093255899846554,-0.23318514227867126,0.06491357088088989,-0.12884528934955597,-0.06508965790271759,-0.014500588178634644,-0.08671200275421143,-0.04235296696424484,-0.1634432077407837,0.047784630209207535,0.0006614204030483961,0.01074356958270073,0.027070926502346992,0.042681023478507996,-0.05652875453233719,0.11491626501083374,0.0792289525270462,-0.03177477791905403,-0.13198131322860718,-0.21510261297225952,0.12258003652095795,-0.02039168030023575,0.0981624573469162,0.0673687532544136,0.07940138131380081,0.02882174588739872,0.0835157111287117,-0.12023685872554779,-0.1118898019194603,-0.11237581074237823,-0.10542711615562439,-0.06451302766799927,0.09840785712003708,-0.13711486756801605,-0.010113577358424664,-0.11031435430049896,-0.046941954642534256,0.021688194945454597,-0.06579364091157913,0.011281738057732582,-0.12342528998851776,0.10560663044452667,0.12255477160215378,0.022780969738960266,-0.03902267664670944,-0.24482691287994385,-0.23914401233196259,0.09557292610406876,0.25941482186317444,0.08719635754823685,-0.019034020602703094,0.2699834704399109,0.22528313100337982,-0.16220782697200775,0.1228228360414505,0.0742621049284935,-0.20380496978759766,-0.14773420989513397,-0.02430141530930996,0.2117709070444107,0.10177014023065567,0.13091902434825897,-0.14972452819347382,-0.03660406544804573,-0.1881980448961258,-0.01450553722679615,0.16159789264202118,0.20955504477024078,-0.22270570695400238,-0.010748752392828465,-0.07225188612937927,-0.01258870493620634,0.11404766142368317,0.2532442808151245,-0.19818755984306335,0.10013458132743835,0.1727174073457718,-0.21514937281608582,0.22416190803050995,0.2031247615814209,0.0033585515338927507,0.05363013967871666,0.27255016565322876,-0.17282293736934662,0.28725841641426086,-0.013325111009180546,-0.21579943597316742,0.01951899565756321,-0.0018127025105059147,0.03354045748710632,-0.07696112245321274,-0.11099234968423843,-0.12831901013851166,-0.08678129315376282,0.045227568596601486,0.022571349516510963,-0.03765629604458809,-0.02055608481168747,0.07301348447799683,0.09155238419771194,-0.04597390815615654,0.002839495660737157,-0.03938775137066841,0.009328107349574566,-0.0900992602109909,0.07434134185314178,0.3855467438697815,-0.46049124002456665,0.802494466304779,-0.7751141786575317,-0.10077127814292908,0.9151781797409058,0.9944430589675903,-0.6755823493003845,0.2140507847070694,0.16076160967350006,-0.4697071313858032,-0.364810585975647,0.36151713132858276,-0.7480213046073914,0.20569796860218048,0.5165148973464966,-0.015763426199555397,0.32261109352111816,-0.1071745902299881,0.1838134229183197,0.12414372712373734,-0.21557830274105072,0.005778160411864519,0.05886247381567955,-0.12530748546123505,-0.1338379979133606,0.14609764516353607,0.043222881853580475,0.1177804097533226,0.10190649330615997,0.04361901059746742,-0.0034081866033375263,0.10785634815692902,-0.1087469533085823,-0.250727117061615,0.0896085798740387,-0.06664591282606125,-0.09107581526041031,-0.18023891746997833,0.0450771264731884,-0.08044938743114471,0.1284809708595276,-0.016018809750676155,0.21449989080429077,0.21467575430870056,-0.03902245685458183,0.006043051835149527,0.3258880078792572,0.19884684681892395,0.2478141337633133,-0.14748768508434296,0.35740527510643005,-0.298979789018631,-0.328676700592041,-0.09398047626018524,-0.13451221585273743,-0.1915585696697235,-0.3163813352584839,0.3457591235637665,0.024349749088287354,0.3046359121799469,0.43040138483047485,-0.1272144764661789,0.15517188608646393,0.336824893951416,0.0689653530716896,-0.2707425057888031,0.028663301840424538,-0.17246000468730927,-0.20414365828037262,-0.2669728696346283,0.16220271587371826,-0.40134599804878235,-0.16627180576324463,0.1491433084011078,0.2833361029624939,0.2405088245868683,0.4303768575191498,-0.456181138753891,0.03379201143980026,-0.27448150515556335,-0.33370572328567505,-0.21510864794254303,0.1538611501455307,0.3261304795742035,0.15079085528850555,0.17323333024978638,-0.05857900530099869,0.15814314782619476,0.3184904456138611,-0.2916979193687439,0.04194203391671181,-0.21214686334133148,0.1086597889661789,-0.09184453636407852,-0.10946927964687347,-0.2596178650856018,-0.16823984682559967,0.21731026470661163,-0.056296348571777344,0.278577595949173,0.4059567153453827,0.38870126008987427,-0.04240786284208298,0.29850372672080994,0.10366345196962357,-0.30790263414382935,-0.22431616485118866,-0.04093155264854431,-0.27821430563926697,0.26380473375320435,0.06658638268709183,0.11225020885467529,0.15830759704113007,0.19516785442829132,0.1860918253660202,-0.25872305035591125,-0.27467453479766846,0.024989429861307144,0.26032161712646484,-0.006738109048455954,-0.345053493976593,-0.11826573312282562,0.32655298709869385,0.14919479191303253,-0.13304118812084198,0.07825571298599243,-0.35761311650276184,0.23159922659397125,0.04752250388264656,0.35227662324905396,-0.2569902539253235,-0.24169506132602692,0.2551058530807495,0.3147336542606354,-0.0933757871389389,0.1838684380054474,-0.17831386625766754,0.12870316207408905,-0.2695651650428772,0.11613194644451141,-0.21007364988327026,-0.023906191810965538,0.08672173321247101,-0.0636502057313919,0.07089636474847794,-0.3103370666503906,-0.17593461275100708,0.015753669664263725,-0.1999770700931549,-0.2567446827888489,-0.05796206742525101,-0.26902785897254944,-0.2827424108982086,0.22391805052757263,0.18377652764320374,0.05951732024550438,-0.06420847773551941,-0.0038481452502310276,0.065899558365345,-0.15473395586013794,-0.04885110259056091,0.2058313488960266,-0.33081862330436707,-0.2879878580570221,0.15132711827754974,0.15634514391422272,-0.5123283863067627,0.12023095041513443,0.2539134919643402,0.06642542034387589,0.011626367457211018,0.3569003641605377,0.09966428577899933,-0.2130841761827469,0.4311408996582031,0.16803619265556335,0.30758732557296753,-0.36209988594055176,0.20469550788402557,-0.13467620313167572,-0.3634341061115265,-0.07363612204790115,0.060778841376304626,-0.04480297118425369,-0.2554827630519867,-0.07059125602245331,0.0688372328877449,-0.07139653712511063,0.2455703616142273,-0.08064284175634384,0.18693643808364868,-0.023966558277606964,-0.045592959970235825,0.10217244923114777,0.05356089398264885,0.1442064791917801,-0.20044948160648346,-0.06913655251264572,0.7001261711120605,-0.06382951885461807,-0.2357337474822998,0.07076547294855118,-0.13539958000183105,-0.2513551414012909,0.2192462831735611,-0.16882102191448212,-0.4083588719367981,0.019057782366871834,0.04982585087418556,-0.022816060110926628,0.10973156243562698,0.011325560510158539,-0.2578482925891876,-0.1505168229341507,0.06758908182382584,0.13175766170024872,-0.11065899580717087,-0.0790787935256958,0.16049884259700775,0.2261366993188858,-0.0836859941482544,-0.2692740559577942,0.15116406977176666,0.2551981508731842,0.05439217388629913,-0.5285497903823853,0.3594428300857544,-0.43132781982421875,-0.21186594665050507,-0.26947492361068726,0.04016996547579765,-0.31498828530311584,-0.39704951643943787,0.31010541319847107,0.4849451780319214,0.09701245278120041,0.289467453956604,-0.6723654866218567,0.5573350787162781,-0.14398030936717987,0.2621833086013794,-0.0736800953745842,-0.11808845400810242,0.12137547135353088,0.004122020676732063,0.16419436037540436,0.23715893924236298,-0.26010313630104065,0.1278255581855774,0.0022526015527546406,-0.09234488755464554,0.15637683868408203,0.20418161153793335,-0.2065436691045761,0.02853395603597164,0.24137671291828156,0.10227328538894653,0.11499085277318954,-0.050490427762269974,-0.18048129975795746,0.12781564891338348,-0.06197946518659592,0.3512705862522125,-0.15992534160614014,-0.21103087067604065,0.0005340404459275305,-0.08165639638900757,0.0799691453576088,0.24547399580478668,-0.044159792363643646,0.013088670559227467,0.09087923914194107,-0.10707754641771317,0.17029285430908203,-0.2152043581008911,-0.07559790462255478,-0.025613201782107353,0.10301125794649124,0.010189075022935867,0.016997847706079483,-0.11016064137220383,0.05303145945072174,-0.03836490586400032,0.026320092380046844,0.17359662055969238,0.03919397294521332,0.049133509397506714,-0.04560555890202522,-0.09465572237968445,0.061295680701732635,0.11081857234239578,-0.2067824751138687,0.14377987384796143,-0.041044093668460846,-0.07518485188484192,0.196502685546875,-0.13239268958568573,-0.05927501991391182,0.11798590421676636,-0.03392333164811134,0.14306387305259705,0.07109514623880386,0.10837866365909576,-0.04336195066571236,-0.11877483874559402,-0.14333850145339966,-0.19927841424942017,0.2187613695859909,0.03891162946820259,-0.11529578268527985,-0.35665276646614075,-0.07941757887601852,-0.0235377736389637,0.006815738044679165,-0.06294183433055878,-0.058148082345724106,-0.25455716252326965,-0.10896460711956024,-0.07191475480794907,0.18860773742198944,-0.25372302532196045,0.011757887899875641,0.23856006562709808,-0.12718825042247772,-0.02496487833559513,0.09584563970565796,-0.11374389380216599,-0.03098612278699875,0.022913064807653427,-0.17451199889183044,0.022969398647546768,0.10008950531482697,0.1598861664533615,-0.14831742644309998,0.029782606288790703,-0.025682127103209496,0.01772371679544449,0.21295884251594543,-0.2011415809392929,-0.06959575414657593,0.009090323932468891,-0.11815634369850159,-0.09549109637737274,0.128317728638649,-0.232285276055336,-0.03888743370771408,-0.11471802741289139,0.12869253754615784,-0.0791107714176178,0.14003849029541016,-0.019627775996923447,-0.020885614678263664,0.010130101814866066,0.009020387195050716,-0.12559735774993896,-0.011300456710159779,0.2612086832523346,0.0829898938536644,0.017428984865546227,-0.17811663448810577,-0.06910410523414612,-0.01854558475315571,0.2240571230649948,0.045593686401844025,-0.1882103979587555,-0.053825218230485916,-0.0653020367026329,-0.031184079125523567,-0.3324091136455536,-0.21182449162006378,0.1229763999581337,-0.13085149228572845,-0.12221074104309082,0.031014394015073776,0.00963989645242691,0.07157959789037704,0.10171103477478027,-0.07096733152866364,-0.11376531422138214,0.012460029684007168,-0.09606464207172394,0.12277912348508835,-0.12530818581581116,-0.08096720278263092,-0.10739652812480927,-0.013545033521950245,0.17167428135871887,0.27380189299583435,-0.10164949297904968,-0.008368594571948051,0.08413272351026535,-0.02814045548439026,0.17001178860664368,0.06349768489599228,-0.11127571016550064,0.10580990463495255,-0.12992994487285614,0.10499133169651031,-0.051392436027526855,0.049680426716804504,0.22074733674526215,0.17618191242218018,-0.04278458654880524,-0.09720294177532196,-0.062057048082351685,-0.04352053999900818,0.22353604435920715,-0.0006338232778944075,-0.08033666014671326,-0.12585784494876862,-0.00456978427246213,0.10481873154640198,-0.06517715752124786,-0.12208293378353119,-0.1403876096010208,-0.022395851090550423,0.1345118284225464,-0.05471296235918999,0.07480575144290924,0.09455420821905136,-0.006357762962579727,-0.12108085304498672,0.02261216565966606,0.015174681320786476,0.01954471506178379,-0.10851175338029861,0.0495876707136631,0.010495641268789768,-0.037718765437603,0.2475297749042511,0.1574392020702362,-0.01764264889061451,-0.06902924180030823,0.017311612144112587,-0.061660878360271454,0.0033558523282408714,-0.052588775753974915,0.1446353644132614,-0.15238748490810394,-0.1980554759502411,0.1447913497686386,0.03723076358437538,-0.17144255340099335,-0.08362793922424316,-0.04597489535808563,0.0038757910951972008,-0.17888106405735016,0.0972103700041771,0.00139029195997864,0.1583728939294815,0.043415606021881104,0.01116091012954712,-0.29216548800468445,-0.03308030590415001,0.03734251484274864,0.16199980676174164,-0.1694284975528717,0.022967785596847534,-0.004466134589165449,-0.12494485080242157,0.005472224671393633,0.2220594882965088,-0.08265233039855957,0.00961243361234665,0.30441850423812866,0.15984892845153809,0.1974923312664032,0.15256471931934357,0.0938132032752037,-0.09865061938762665,0.141411691904068,-0.20351676642894745,-0.181496262550354,0.009797860868275166,-0.05052245035767555,0.11184372007846832,0.1209973469376564,0.022035717964172363,0.022135097533464432,-0.14324472844600677,-0.06246894970536232,-0.025830620899796486,0.0880860760807991,0.22257494926452637,0.01088839303702116,-0.08201788365840912,0.11193016171455383,-0.1398232877254486,-0.08585146069526672,0.14563658833503723,0.08837415277957916,-0.023676570504903793,-0.12829908728599548,-0.11866065859794617,-0.11602775007486343,0.032040856778621674,0.008626659400761127,0.14124618470668793,-0.052106235176324844,-0.04671841114759445,0.003091770224273205,0.12448614090681076,0.20041324198246002,0.08200137317180634,0.07553575187921524,-0.1359618902206421,-0.09957743436098099,-0.048673927783966064,0.1117190420627594,0.12181339412927628,-0.029369238764047623,-0.09675746411085129,-0.007973767817020416,0.060138143599033356,0.11042781174182892,-0.19567230343818665,-0.15138520300388336,-0.007819882594048977,0.003044282551854849,0.0015406307065859437,-0.04759468138217926,-0.03524374961853027,-0.11201325058937073,-0.18185162544250488,0.11391345411539078,0.08490262925624847,-0.027851812541484833,-0.09304526448249817,-0.13311292231082916,-0.06709375232458115,-0.13460969924926758,-0.010203528217971325,0.07572010159492493,-0.09671098738908768,-0.11625370383262634,0.13027791678905487,-0.01889045350253582,0.030179055407643318,0.13905754685401917,-0.026612581685185432,0.23828139901161194,0.07005460560321808,0.15081292390823364,0.01556174736469984,-0.11041665077209473,0.020141644403338432,-0.30570361018180847,-0.014974844641983509,0.15389500558376312,-0.10372854024171829,0.041448820382356644,0.08155175298452377,0.04903515428304672,0.02188967540860176,0.08795397728681564,-0.07185044139623642,-0.10380066186189651,0.04848561808466911,-0.004406358581036329,0.17367464303970337,0.1322801262140274,-0.051617331802845,0.14479488134384155,0.03044731169939041,0.049175914376974106,0.13538718223571777,-0.10046081244945526,-0.21338985860347748,0.1485869586467743,-0.11839227378368378,0.04925007000565529,-0.12155326455831528,-0.02475486695766449,-0.10453768074512482,0.05512423813343048,0.04806128144264221,0.047709133476018906,0.003346963319927454,0.06635935604572296,0.2914256155490875,-0.1466967761516571,-0.008955874480307102,-0.043518614023923874,0.010895351879298687,0.13404926657676697,0.020856572315096855,-0.14817652106285095,-0.06457703560590744,0.000011521514352352824,0.07252757251262665,0.13269639015197754,0.08307509124279022,0.2676830589771271,0.19028998911380768,0.019775329157710075,0.04279652237892151,-0.057600170373916626,0.17640386521816254,0.0901881754398346,0.03414611890912056,-0.07478051632642746,-0.20492470264434814,0.06453870236873627,0.06650839000940323,0.009295797906816006,0.09233367443084717,-0.08059530705213547,-0.08742468059062958,-0.04377440735697746,-0.06352836638689041,-0.05570057034492493,0.08991021662950516,0.0929407849907875,0.018030257895588875,0.00960465893149376,0.11673470586538315,-0.23927834630012512,-0.10903635621070862,-0.0189606212079525,-0.08352235704660416,-0.05880202725529671,0.1036982536315918,-0.09128089994192123,-0.21484826505184174,0.039758410304784775,0.23674164712429047,0.07676214724779129,-0.07593172043561935,-0.00032408605329692364,-0.1980164796113968,-0.020645027980208397,0.27267077565193176,-0.13242964446544647,-0.08874111622571945,0.06906872242689133,0.01904507912695408,-0.07038180530071259,-0.21103104948997498,0.20153959095478058,-0.08845539391040802,-0.25155577063560486,-0.13404029607772827,-0.10694940388202667,0.14031411707401276,0.14258965849876404,-0.11998290568590164,-0.23757094144821167,-0.08109346777200699,-0.15721626579761505,0.25289109349250793,0.21220380067825317,-0.0013167231809347868,-0.18421025574207306,0.0261535681784153,-0.1059698760509491,0.18172532320022583,-0.24685296416282654,-0.000004814738076674985,0.23597104847431183,-0.18387338519096375,-0.05194913223385811,0.10397938638925552,-0.21958976984024048,-0.047840408980846405,0.04278057813644409,-0.024631420150399208,0.04342498257756233,0.22408615052700043,-0.10348566621541977,-0.0289757139980793,0.14981335401535034,0.2714942991733551,0.18318167328834534,-0.11472676694393158,-0.14537470042705536,-0.057772260159254074,-0.16153089702129364,0.1959257274866104,0.12527911365032196,0.03198718652129173,0.15056507289409637,0.038098085671663284,-0.2055252492427826,0.04723717272281647,-0.09071064740419388,0.037903837859630585,-0.175146222114563,0.01590544544160366,0.10791976749897003,0.214363694190979,0.15524296462535858,-0.002448269398882985,-0.24372121691703796,-0.06671362370252609,0.217351496219635,0.05719601735472679,-0.04764089733362198,0.04808009788393974,-0.13897570967674255,0.16053366661071777,-0.0597207210958004,0.11215636134147644,0.002278751926496625,-0.17926864326000214,0.21650974452495575,-0.03647072985768318,0.049543801695108414,0.054033029824495316,0.15771278738975525,-0.08201944082975388,0.04679805040359497,-0.011278615333139896,-0.2541131377220154,0.08453240245580673,-0.06480754911899567,-0.0664612203836441,-0.013592537492513657,0.024069523438811302,-0.2235279530286789,0.10236163437366486,0.05024801194667816,-0.015126981772482395,-0.08961765468120575,-0.005567431449890137,0.16699092090129852,-0.13516679406166077,-0.05378216877579689,0.07067115604877472,-0.07033944875001907,0.0756426751613617,0.04903831705451012,0.1212230920791626,0.07470952719449997,-0.07414834946393967,-0.09561876207590103,-0.04959902912378311,-0.0940769612789154,0.040809549391269684,-0.12446127831935883,0.18527795374393463,-0.13846434652805328,0.019031032919883728,0.00933279749006033,-0.02778036892414093,0.09157382696866989,0.07300975918769836,-0.19730646908283234,0.007694615982472897,0.0033400889951735735,-0.06482750922441483,0.026414383202791214,0.24792709946632385,0.05989556759595871,-0.05712198093533516,0.09594430774450302,-0.07056378573179245,-0.11408175528049469,-0.01997429132461548,-0.13272464275360107,-0.010962323285639286,0.10221684724092484,-0.045711617916822433,-0.14790083467960358,0.13423167169094086,-0.08906010538339615,-0.1249048113822937,-0.05680501461029053,-0.07407955080270767,0.02236712910234928,-0.169302299618721,-0.052204228937625885,-0.019381394609808922,-0.1581612229347229,0.04166838899254799,-0.04999168962240219,0.12008927017450333,-0.07928765565156937,-0.051904529333114624,0.03812316432595253,-0.11028406023979187,0.08983330428600311,-0.0938698947429657,0.038288965821266174,0.12713973224163055,-0.01419614627957344,-0.12839309871196747,0.003761230269446969,0.10130640119314194,0.027285294607281685,0.0912451446056366,0.03985408693552017,-0.0003426648036111146,-0.05612412467598915,0.14757362008094788,0.15927331149578094,-0.16024969518184662,-0.054056212306022644,0.11107010394334793,-0.10474450886249542,-0.07545904815196991,-0.1336546391248703,0.008737297728657722,-0.0740833729505539,0.11048198491334915,0.018203191459178925,0.11949741840362549,0.12471181154251099,-0.0966518297791481,0.06644739210605621,0.06537869572639465,0.03137190267443657,0.005795407108962536,0.0733552947640419,-0.20987528562545776,-0.0013811226235702634,0.09551376104354858,-0.0008865224663168192,-0.12397878617048264,0.04682144522666931,-0.055526167154312134,-0.22231516242027283,-0.03468034788966179,0.1322428584098816,0.05177564173936844,0.08259914070367813,0.06032687425613403,-0.01946406252682209,-0.05784651264548302,0.05692504346370697,-0.008484815247356892,-0.042768191546201706,0.13936340808868408,0.09274701029062271,-0.08700625598430634,-0.04251565784215927,0.022208834066987038,0.15112490952014923,0.13221070170402527,0.0778791680932045,0.13873915374279022,-0.14479456841945648,-0.15720245242118835,0.032098136842250824,-0.010356437414884567,-0.05440954491496086,-0.04033992066979408,0.010138235054910183,-0.15175950527191162,-0.37734317779541016,0.1294969916343689,0.025068512186408043,-0.024732543155550957,-0.06742815673351288,0.05460461974143982,0.20331360399723053,0.03293533995747566,-0.10149163752794266,0.08006514608860016,0.03584868088364601,-0.12311345338821411,-0.06352908909320831,0.01837392896413803,0.016745127737522125,-0.042052023112773895,0.10288151353597641,-0.14710095524787903,0.1004905253648758,0.014375665225088596,-0.02561362087726593,0.06844688951969147,0.07182346284389496,-0.026791589334607124,0.0020250645466148853,0.05210551247000694,-0.010384843684732914,0.16684265434741974,0.040850188583135605,-0.06931503117084503,-0.04948145151138306,-0.13183897733688354,0.08419802039861679,-0.11491579562425613,-0.1568433940410614,-0.08123204857110977,-0.10293936729431152,-0.15966275334358215,0.034654613584280014,-0.12348496913909912,0.0640973150730133,0.1224769577383995,-0.09464389830827713,-0.038430824875831604,-0.10148176550865173,0.11008189618587494,0.1632116436958313,0.08945587277412415,0.1352183073759079,-0.09403904527425766,-0.05146638676524162,0.04758945852518082,-0.0684255063533783,0.1309596747159958,-0.058419689536094666,-0.05219276621937752,-0.09364335983991623,0.0694253221154213,-0.05717473104596138,0.0015830427873879671,0.042771268635988235,0.05445732921361923,0.010216698981821537,-0.05420675873756409,-0.08689914643764496,0.038421597331762314,0.06455308943986893,0.01747361198067665,0.043166790157556534,0.1483917087316513,-0.15050412714481354,0.12822997570037842,-0.02374051883816719,-0.05906758829951286,0.031793996691703796,-0.07754899561405182,0.1399175226688385,0.14888636767864227,-0.11522666364908218,0.07226209342479706,-0.14345188438892365,-0.008675298653542995,0.011425564996898174,0.06850282847881317,0.10817938297986984,0.02480052225291729,-0.05081498995423317,0.04935387521982193,-0.10885880887508392,0.11131712049245834,0.17857153713703156,-0.1053045243024826,0.1012120172381401,0.03145899623632431,-0.018796106800436974,-0.007243447937071323,-0.1408533751964569,0.055957917124032974,-0.04437950626015663,-0.09636305272579193,-0.07307250052690506,-0.007707813289016485,0.1164567768573761,0.03051844611763954,-0.11025313287973404,-0.015908606350421906,-0.08165719360113144,-0.1075981855392456,0.012430321425199509,-0.14329470694065094,0.07342162728309631,-0.10282547026872635,0.0010757414856925607,-0.1828458458185196,-0.127030611038208,0.3323774039745331,0.01253369078040123,-0.12530221045017242,0.22618624567985535,-0.059296466410160065,-0.09946338087320328,0.047724686563014984,-0.0643763318657875,0.12258705496788025,-0.07238076627254486,-0.015222514048218727,0.1698731631040573,-0.21772870421409607,0.014781909994781017,0.05519193410873413,0.22956913709640503,0.09527797996997833,-0.07201842963695526,0.020495424047112465,0.05312134698033333,0.0008546762983314693,-0.0025637629441916943,-0.11138909310102463,-0.39338332414627075,-0.022605957463383675,0.17025792598724365,-0.0495583675801754,0.20474541187286377,0.02040155418217182,0.5039349794387817,-0.011622925288975239,-0.1167159453034401,-0.011981276795268059,0.10114740580320358,-0.07557357847690582,-0.14244042336940765,0.09714419394731522,-0.10870332270860672,-0.15883967280387878,0.04053416848182678,-0.210390105843544,0.015300082042813301,0.15041394531726837,0.022333666682243347,-0.12352868914604187,0.07447448372840881,-0.2126680314540863,0.03890858590602875,0.01101740077137947,0.1069473922252655,0.009621668606996536,0.05769403651356697,0.08977420628070831,0.014851502142846584,0.039804138243198395,-0.11113546788692474,-0.012030082754790783,0.08630012720823288,0.029111916199326515,-0.005485831294208765,-0.11380665004253387,-0.012289333157241344,-0.016369443386793137,0.028534535318613052,-0.22301754355430603,0.09098271280527115,-0.16106963157653809,-0.0627150610089302,-0.13970573246479034,-0.06151527911424637,-0.015893233940005302,-0.08148311078548431,0.16072452068328857,0.25666454434394836,-0.02662443369626999,0.10378587245941162,-0.08747150003910065,-0.09770916402339935,-0.029586652293801308,-0.11366591602563858,-0.09961366653442383,-0.09753035753965378,0.03698819503188133,0.006392058450728655,0.10292672365903854,-0.08620671927928925,0.0331336185336113,-0.07495665550231934,0.01101741660386324,-0.0017731981351971626,0.07786636054515839,0.10396254807710648,0.09113431721925735,0.13553690910339355,-0.04167047142982483,0.12448971718549728,-0.16271811723709106,0.08374515920877457,0.17598450183868408,0.1480029970407486,-0.06427498161792755,-0.06773368269205093,0.043512314558029175,0.07192984223365784,0.10319451242685318,0.019812384620308876,0.08512207120656967,-0.05884483456611633,-0.6218145489692688,0.24959677457809448,0.45163917541503906,-0.601097822189331,0.31736716628074646,-0.9542933702468872,-0.1469462811946869,-0.6032910943031311,1.0261999368667603,-1.0640639066696167,-0.7943207025527954,-1.0074851512908936,0.08624507486820221,-0.9089049696922302,0.5609753727912903,-0.7111201882362366,-0.036156605929136276,-0.13107414543628693,-0.041216932237148285,0.3619217872619629,0.09663565456867218,0.08400899916887283,-0.2659199833869934,-0.11177939176559448,-0.11388640850782394,-0.053674232214689255,0.18688786029815674,0.2640206217765808,0.20900455117225647,0.3006282150745392,-0.4299109876155853,0.12095019221305847,-0.07884573191404343,-0.041555218398571014,0.1401001513004303,0.01969931460916996,-0.16049613058567047,0.023413483053445816,0.18797510862350464,-0.26456424593925476,0.2734476923942566,-0.31428319215774536,0.07377950102090836,0.20867203176021576,-0.1589987426996231,-0.022830937057733536,-0.07678863406181335,0.10819738358259201,-0.04789574816823006,-0.23008498549461365,-0.130161315202713,0.2258359044790268,-0.019491830840706825,0.3067542612552643,-0.13707244396209717,-0.032698217779397964,-0.07985365390777588,0.1860833317041397,-0.12299968302249908,-0.2996041476726532,0.066470667719841,0.16061800718307495,0.056078799068927765,0.010848102159798145,0.02793862111866474,0.07000318169593811,-0.12674830853939056,-0.11479593813419342,-0.19822829961776733,-0.08969598263502121,0.004776996560394764,-0.09485471248626709,0.10980185121297836,-0.02141992561519146,0.07542623579502106,0.26961997151374817,0.11281393468379974,-0.13816064596176147,-0.029538936913013458,0.004961922764778137,0.3625566065311432,-0.06477056443691254,-0.18497025966644287,-0.2915703356266022,0.11483447253704071,0.02023250237107277,-0.28666260838508606,0.3540656268596649,-0.09106791764497757,0.17266345024108887,-0.10207822918891907,0.000030278677513706498,-0.0006058801664039493,-0.26758652925491333,0.40971314907073975,-0.15931843221187592,-0.15666981041431427,-0.058792486786842346,-0.23221026360988617,-0.12383799254894257,0.07369823008775711,-0.1665840446949005,-0.05814679339528084,-0.09538982063531876,0.047058314085006714,0.16147959232330322,-0.08092725276947021,-0.1153707355260849,-0.08398985862731934,-0.1437373012304306,0.1258212924003601,0.06675037741661072,0.2012564092874527,-0.04921210929751396,0.08058260381221771,-0.2716113328933716,0.08252909034490585,0.3714521527290344,-0.26652753353118896,-0.06682541221380234,-0.07278133183717728,0.06258264929056168,-0.158908411860466,0.07358512282371521,-0.05649915710091591,-0.024792978540062904,-0.04194522276520729,0.10781733691692352,0.10030059516429901,-0.03326210007071495,-0.007981691509485245,0.1229240894317627,0.19928757846355438,-0.07285126298666,-0.15803371369838715,0.023018494248390198,-0.06562084704637527,0.335898220539093,-0.17350135743618011,0.04454191401600838,-0.0706869587302208,0.128347709774971,-0.004823679104447365,0.11211985349655151,-0.04904291778802872,0.12639349699020386,-0.12929509580135345,-0.039669353514909744,-0.1997855305671692,-0.11638665199279785,0.07623007893562317,-0.16821728646755219,0.08036454021930695,-0.02640770748257637,0.14079107344150543,-0.06851737946271896,-0.08243881911039352,0.18460051715373993,0.06404657661914825,0.2161531001329422,-0.14205972850322723,0.01708444394171238,0.08155442774295807,0.15061955153942108,0.11744038015604019,-0.3723175823688507,0.3287670314311981,-0.1515510082244873,0.10198511183261871,-0.14472921192646027,0.14070239663124084,0.2061893343925476,0.17588235437870026,-0.13070613145828247,0.5579387545585632,-0.09846191853284836,-0.09049539268016815,-0.0815378725528717,-0.1451673060655594,0.15479114651679993,0.02347768470644951,-0.03543641045689583,-0.0493149608373642,-0.0075739407911896706,0.05930578336119652,0.2222704440355301,-0.15583927929401398,0.05907941237092018,0.060895539820194244,0.12894383072853088,-0.044918570667505264,0.06200540438294411,0.33983176946640015,0.2719483971595764,-0.31477904319763184,-0.1585351973772049,-0.19726260006427765,0.1314333975315094,0.08316248655319214,0.43343934416770935,-0.5553221702575684,0.17290936410427094,0.3060014843940735,-0.11689368635416031,-0.11079089343547821,-0.04993486404418945,-0.08204202353954315,-0.18710894882678986,-0.15736563503742218,-0.21237127482891083,-0.15895354747772217,0.21551787853240967,0.038858138024806976,0.019660480320453644,-0.04912648722529411,0.12700065970420837,-0.1255825310945511,-0.09658964723348618,-0.29573822021484375,-0.1915789395570755,0.2140602320432663,-0.27231067419052124,0.24037764966487885,0.04700769484043121,0.12015362828969955,0.0204878319054842,-0.3032330572605133,0.3235252797603607,-0.3530721366405487,0.12472829967737198,-0.043187230825424194,-0.07121341675519943,0.1529233306646347,0.24383127689361572,0.12241895496845245,0.028553426265716553,0.21033257246017456,0.3253292441368103,-0.2179669737815857,0.04346022754907608,0.040157418698072433,0.2667851448059082,0.05179504677653313,-0.06675103306770325,-0.15467961132526398,-0.10908570140600204,0.17881548404693604,0.06242336705327034,-0.11878152191638947,0.11696607619524002,-0.15256011486053467,-0.03041311353445053,-0.17058433592319489,0.07120659947395325,0.09524659067392349,0.12492230534553528,0.17369425296783447,-0.2110811024904251,-0.05062216520309448,0.08235868811607361,-0.20944485068321228,0.0661143958568573,-0.07424218952655792,0.11636075377464294,0.14658452570438385,-0.2736983001232147,0.2758445143699646,0.10210922360420227,-0.2535542845726013,0.31826654076576233,-0.4717579185962677,-0.1995108723640442,-0.13268747925758362,-0.010672901757061481,-0.04578080400824547,-0.09344473481178284,-0.06446912884712219,0.026578130200505257,0.0681881234049797,0.18225257098674774,0.06189841404557228,0.0720016360282898,-0.005073828157037497,-0.24750877916812897,-0.009567278437316418,-0.22664521634578705,-0.1579534411430359,-0.025933848693966866,0.15057885646820068,0.049369100481271744,-0.16367508471012115,-0.015478314831852913,-0.13985949754714966,-0.1285233199596405,0.21725966036319733,0.09982937574386597,-0.13935697078704834,0.1782110184431076,-0.058769382536411285,-0.17288435995578766,0.19766449928283691,0.03047032468020916,-0.022732645273208618,-0.014877493493258953,0.0462215319275856,0.08771734684705734,0.0190541073679924,0.030481062829494476,-0.039092209190130234,-0.1530809849500656,0.005387119948863983,-0.059694018214941025,-0.02098293974995613,0.13286106288433075,-0.044913217425346375,-0.1101304441690445,-0.08482635021209717,-0.008823281154036522,0.1194034069776535,0.13681772351264954,-0.1614842414855957,0.17057175934314728,0.24586987495422363,-0.032213348895311356,0.1449417769908905,-0.009175614453852177,-0.1361289769411087,0.10311637073755264,0.18852628767490387,-0.2242194563150406,0.3550160229206085,0.06799556314945221,-0.17887909710407257,0.20954746007919312,-0.024682583287358284,-0.08796730637550354,-0.07370977848768234,-0.16579505801200867,-0.025114642456173897,-0.18142162263393402,0.07863258570432663,-0.348563015460968,0.17135386168956757,0.03668401762843132,0.11435594409704208,0.002956801326945424,-0.17083190381526947,-0.15283603966236115,0.2652704417705536,-0.06691356748342514,0.18601836264133453,-0.002520289272069931,0.1581776887178421,-0.04680607095360756,0.22457651793956757,-0.20734073221683502,0.21989001333713531,-0.05322136729955673,0.046562910079956055,0.05578435957431793,0.037334028631448746,-0.10629598796367645,-0.18325412273406982,-0.056656207889318466,0.30715107917785645,-0.08603163808584213,0.18939247727394104,0.012075694277882576,-0.0072345370426774025,0.17701834440231323,-0.406008780002594,0.10799109190702438,0.010006922297179699,0.07951916754245758,-0.05194425955414772,0.01876848004758358,-0.08528817445039749,-0.1331043392419815,-0.12686285376548767,-0.3859153091907501,-0.19341610372066498,0.17794683575630188,0.009660306386649609,0.16873551905155182,0.11050503700971603,-0.014590696431696415,-0.09418730437755585,0.11108208447694778,-0.026854464784264565,-0.08245624601840973,0.1741480827331543,0.06407421082258224,0.03555510565638542,-0.0880047157406807,0.041428010910749435,0.02060024067759514,-0.0098264804109931,-0.05860746651887894,0.04946757107973099,0.024634458124637604,0.02024645358324051,0.11576996743679047,0.09117542952299118,0.18592531979084015,-0.0656782016158104,-0.12441781908273697,0.041711367666721344,0.11421149969100952,0.11969204246997833,0.03367825970053673,-0.02791041135787964,-0.07312600314617157,-0.04589837044477463,0.0303663220256567,-0.0778813511133194,0.09089329838752747,-0.11581676453351974,0.11184980720281601,0.31986725330352783,-0.11649245023727417,0.1269538253545761,0.04191089794039726,0.021687408909201622,0.034324705600738525,0.058828409761190414,-0.002462147967889905,0.37164801359176636,0.09003704786300659,-0.033778056502342224,-0.13110055029392242,-0.0578688345849514,0.004549864679574966,-0.06635627895593643,-0.08568606525659561,-0.04931759089231491,-0.011311622336506844,0.055074963718652725,-0.09232065826654434,0.10233508795499802,0.12533362209796906,-0.30218371748924255,0.14647935330867767,0.018053896725177765,-0.330539733171463,-0.0017211951781064272,0.007512317970395088,-0.015277869999408722,-0.0634404793381691,-0.06326613575220108,0.30109164118766785,0.1434139609336853,0.047251567244529724,-0.24496448040008545,-0.06727831810712814,0.015558743849396706,0.2889281213283539,0.06924504041671753,0.0862942710518837,-0.04727804288268089,-0.08930521458387375,-0.2133505791425705,0.020187491551041603,0.08680456876754761,0.05338625609874725,-0.17013277113437653,-0.0668378472328186,0.2533874809741974,-0.45302698016166687,0.09239334613084793,-0.02477780543267727,-0.14653591811656952,0.21506017446517944,0.020770475268363953,-0.047895994037389755,0.026024039834737778,-0.019540982320904732,-0.03274603560566902,-0.03141437843441963,0.07058890908956528,-0.06311299651861191,0.0383865050971508,-0.1675829142332077,0.05315203592181206,-0.06051960960030556,0.046261467039585114,0.14021296799182892,-0.0025553666055202484,0.08866872638463974,0.05900338664650917,-0.061431340873241425,0.13271395862102509,0.01731559820473194,-0.100587859749794,0.04843031242489815,-0.10648773610591888,0.06778687983751297,0.12061790376901627,-0.12370293587446213,-0.21083340048789978,-0.08262936770915985,0.13810352981090546,0.020946791395545006,-0.06683476269245148,-0.039953138679265976,-0.05972693860530853,-0.1683836579322815,0.14158225059509277,0.1154523640871048,0.14629565179347992,0.06096933037042618,-0.11740712821483612,-0.049659792333841324,0.15823599696159363,-0.10002458095550537,0.03590308129787445,-0.09215760231018066,-0.13155482709407806,0.05236858129501343,0.07348712533712387,-0.14106406271457672,-0.14110074937343597,0.18375574052333832,-0.23285995423793793,-0.12202679365873337,0.1847471296787262,0.06751210242509842,-0.11316234618425369,-0.0829448327422142,0.1722509264945984,-0.04578447714447975,-0.22341208159923553,0.11027368903160095,-0.13660059869289398,-0.135694220662117,0.03705710545182228,-0.08912660926580429,-0.17413382232189178,0.00659441901370883,-0.16198211908340454,-0.008226795122027397,-0.05081753432750702,-0.0023662019520998,0.12343236804008484,-0.22384725511074066,-0.08677979558706284,0.12460967153310776,-0.08313164114952087,0.1182844266295433,-0.042261116206645966,-0.20594745874404907,-0.11603056639432907,0.11237252503633499,0.17649559676647186,0.027703553438186646,-0.13377414643764496,-0.16961608827114105,-0.08818504214286804,0.004502918105572462,0.17212972044944763,0.06438140571117401,-0.06527233868837357,-0.023180048912763596,0.20671646296977997,0.0769953578710556,0.24523137509822845,-0.011037059128284454,-0.1219717487692833,0.08258453756570816,0.06659450381994247,-0.02376582846045494,0.1884690523147583,0.07006653398275375,0.09330517798662186,0.1659563183784485,-0.057365790009498596,-0.10268507152795792,-0.19123728573322296,-0.18786384165287018,0.049551188945770264,-0.1435668170452118,-0.08052358031272888,-0.04772472754120827,-0.0076989042572677135,-0.2073744833469391,-0.08685911446809769,-0.11228983104228973,0.031513676047325134,0.11164559423923492,0.1646164208650589,-0.08336161077022552,0.046806395053863525,0.01410648226737976,0.2032400369644165,-0.04536926746368408,0.055403850972652435,-0.08814673125743866,0.017582722008228302,0.23840798437595367,0.2135835886001587,-0.14114506542682648,-0.18061481416225433,-0.10747033357620239,0.16974295675754547,-0.11121278256177902,0.35741138458251953,-0.15669241547584534,-0.28866395354270935,-0.08226526528596878,-0.08968387544155121,0.2874036729335785,-0.5506705045700073,0.4875107705593109,-0.2248658686876297,-0.2081054300069809,0.12107992172241211,-0.12786684930324554,-0.22984914481639862,0.03737996518611908,-0.14237867295742035,-0.24741916358470917,0.03127015754580498,0.14699581265449524,-0.18022102117538452,0.12185023725032806,-0.06787155568599701,0.04977169260382652,-0.156110018491745,-0.010095338337123394,0.022466285154223442,0.07410116493701935,-0.12521108984947205,0.09433774650096893,-0.05370756983757019,-0.15501198172569275,-0.0705409049987793,0.04874441772699356,-0.016554715111851692,0.10159725695848465,-0.034008629620075226,0.04380671679973602,0.1218876838684082,0.04423147439956665,-0.0946362167596817,-0.032991036772727966,0.048190996050834656,-0.07147947698831558,0.14078505337238312,0.04517107829451561,0.01189664751291275,0.08655450493097305,-0.057996585965156555,-0.11519481986761093,0.09240216016769409,-0.11442530900239944,0.053570449352264404,-0.1519356518983841,-0.02000192552804947,0.20024937391281128,-0.00674048438668251,-0.14394791424274445,-0.005128365941345692,0.07032507658004761,0.15399181842803955,-0.11790547519922256,-0.07867878675460815,0.04082725942134857,0.26773542165756226,-0.0784703716635704,-0.11580147594213486,-0.14461499452590942,-0.08579003065824509,0.04630857706069946,-0.061476774513721466,-0.21384462714195251,0.019819315522909164,0.17875012755393982,-0.07983911782503128,-0.010620019398629665,0.013098197057843208,0.010340630076825619,-0.017060499638319016,0.02016102708876133,0.02993336133658886,0.18459853529930115,-0.28024592995643616,-0.06784738600254059,0.04069378972053528,-0.06260586529970169,-0.002738304901868105,-0.18084090948104858,0.06064026430249214,-0.16327469050884247,0.07482637465000153,0.007548870984464884,-0.03604748845100403,-0.11686587333679199,0.08805796504020691,-0.1792685091495514,0.0631990060210228,0.021954454481601715,0.30255866050720215,-0.057394739240407944,0.06577524542808533,-0.02239697054028511,-0.021663416177034378,-0.1636585295200348,-0.14423441886901855,0.13207846879959106,-0.1276085525751114,0.042609941214323044,0.003940025344491005,0.04002242162823677,-0.14888033270835876,0.1674942970275879,0.12627053260803223,0.0805889442563057,0.07652020454406738,0.0914870947599411,-0.1279982179403305,0.0029162107966840267,-0.05634906515479088,-0.10806673765182495,-0.1864282488822937,0.1455061137676239,0.1055733934044838,0.033175814896821976,0.08812221884727478,0.030825022608041763,0.18781697750091553,-0.04601939767599106,-0.07509472221136093,-0.04080231860280037,-0.09500936418771744,0.012812849134206772,0.08593619614839554,-0.12785999476909637,0.02220781147480011,-0.17932023108005524,-0.1520129144191742,-0.03329268470406532,-0.11238475888967514,-0.028908606618642807,-0.12996067106723785,-0.2589344382286072,-0.009327578358352184,-0.18077729642391205,0.15864822268486023,0.08568387478590012,0.016543185338377953,-0.05561380460858345,0.1522127091884613,0.07112596184015274,0.05978173017501831,-0.31317585706710815,0.05405072495341301,-0.015555454418063164,0.016645492985844612,0.003773643635213375,-0.023019352927803993,-0.004810534417629242,-0.15653587877750397,0.05960232764482498,-0.17625920474529266,0.06582716107368469,-0.003942523617297411,0.17781467735767365,-0.06212581694126129,-0.08077425509691238,0.05955624207854271,0.04989732801914215,-0.032532259821891785,0.027311652898788452,0.13232791423797607,-0.00324317067861557,0.12445331364870071,0.08266058564186096,-0.00047956628259271383,0.11482558399438858,0.08544903993606567,-0.017910653725266457,0.13697035610675812,-0.18138021230697632,0.16814668476581573,-0.04160415008664131,0.01009071059525013,0.08311204612255096,0.15578418970108032,0.1552043855190277,-0.13687555491924286,-0.010885851457715034,0.09021076560020447,0.09752897173166275,0.061239905655384064,0.11610893905162811,-0.07168667018413544,-0.06470745801925659,-0.02068142220377922,0.06694303452968597,0.17169292271137238,0.03570130094885826,-0.037880055606365204,0.04744236171245575,0.04837656393647194,0.2274521142244339,0.16968807578086853,0.022418823093175888,-0.11109635978937149,0.21302050352096558,-0.09809989482164383,-0.16800400614738464,0.05268557369709015,0.019073933362960815,-0.11450465768575668,0.029364317655563354,-0.12224463373422623,-0.08479040861129761,-0.05996688827872276,-0.09793057292699814,0.1810358166694641,-0.20096860826015472,-0.05894297733902931,0.06162242218852043,0.016071457415819168,-0.014780580066144466,0.22394298017024994,-0.20006926357746124,0.032722678035497665,0.18925601243972778,0.19939491152763367,-0.0648186132311821,0.03535977378487587,-0.061601076275110245,-0.1253684014081955,-0.1580633819103241,-0.01687576062977314,0.0515625886619091,0.1981246918439865,0.1532994955778122,-0.08434051275253296,-0.25069567561149597,-0.1732044517993927,0.04998243227601051,-0.05670085921883583,-0.2517024576663971,-0.061776284128427505,-0.3105102479457855,-0.11775142699480057,-0.08916036784648895,0.028821393847465515,0.4947790205478668,-0.0659777969121933,0.27809616923332214,-0.04225122928619385,-0.019303737208247185,0.04213810712099075,-0.1618024855852127,-0.121311254799366,0.23099470138549805,-0.0090662632137537,-0.13530267775058746,0.24273176491260529,-0.15062282979488373,-0.21209344267845154,-0.08941522240638733,0.018835460767149925,-0.08697782456874847,0.11536654084920883,0.2597643733024597,-0.11354432255029678,-0.15235574543476105,-0.035635557025671005,-0.13014788925647736,-0.03513895347714424,-0.026142830029129982,0.0065326932817697525,-0.07429587841033936,-0.038905948400497437,0.21858973801136017,0.05508992075920105,-0.012554895132780075,-0.020585188642144203,0.06750977039337158,-0.17881162464618683,0.25371378660202026,-0.09692534059286118,0.05310657247900963,-0.13568614423274994,-0.022147465497255325,0.03446175158023834,-0.12776869535446167,0.027007468044757843,-0.016419431194663048,-0.10541437566280365,0.045584503561258316,0.13378572463989258,0.1535675972700119,-0.030620727688074112,-0.29690858721733093,0.31888556480407715,0.12020406126976013,-0.09463366866111755,0.037298835813999176,-0.1305941790342331,0.10337186604738235,0.11851195991039276,0.015400856733322144,-0.20552590489387512,0.25633949041366577,-0.08067593723535538,0.19291391968727112,0.030159292742609978,0.044428564608097076,0.11935820430517197,0.023225681856274605,-0.10146132111549377,0.2746184468269348,-0.04648653790354729,-0.1290494203567505,0.1773560494184494,0.02671794407069683,-0.2177121639251709,0.008279554545879364,-0.05067243054509163,0.04174301400780678,-0.18311546742916107,0.13102731108665466,0.2287435531616211,-0.12230388075113297,-0.0055892858654260635,0.06159423291683197,0.0859069675207138,0.009060712531208992,-0.027226658537983894,-0.04022592306137085,0.08274006843566895,0.06308097392320633,0.04142181947827339,-0.012293257750570774,-0.10530385375022888,0.045852016657590866,-0.03462637960910797,0.19079065322875977,0.10775011777877808,-0.0018806211883202195,-0.21917232871055603,-0.25180506706237793,0.05741928517818451,0.08402162045240402,-0.0011887946166098118,0.06561443954706192,-0.12357582151889801,0.14771531522274017,0.11884288489818573,-0.1893661767244339,-0.01386995892971754,-0.12044534087181091,-0.03598300740122795,0.07954751700162888,0.033472031354904175,-0.0010909429984167218,0.02830500528216362,0.2616707980632782,0.14716921746730804,-0.037164684385061264,0.05442340299487114,0.08423332870006561,-0.05853474512696266,0.09341849386692047,0.0342668779194355,-0.13238945603370667,-0.015562853775918484,-0.0361105315387249,0.06120382249355316,-0.037709325551986694,-0.17302562296390533,0.1605471968650818,-0.10780296474695206,-0.026631642132997513,-0.0913819819688797,0.16317744553089142,-0.13380590081214905,0.0721595510840416,-0.07144035398960114,0.14175362884998322,-0.04367299750447273,-0.08863433450460434,-0.017597800120711327,0.1469966173171997,-0.23795650899410248,0.1357327550649643,-0.17485207319259644,0.057747118175029755,-0.05416179448366165,0.0860508382320404,0.27676594257354736,-0.3176012933254242,-0.13018186390399933,0.002196134766563773,-0.10643111914396286,-0.157504603266716,0.00897747091948986,-0.003686751937493682,-0.14402571320533752,-0.19940409064292908,-0.19138097763061523,-0.0217455942183733,0.2726101875305176,-0.10983218252658844,-0.12640047073364258,-0.03716791048645973,0.13696205615997314,-0.119893878698349,-0.018358824774622917,0.2346869707107544,-0.14969779551029205,0.05722024291753769,0.230167955160141,-0.20639118552207947,0.034869275987148285,0.2524136006832123,0.06677623093128204,0.11346005648374557,-0.03693343326449394,0.1913738250732422,0.01129553560167551,-0.23645135760307312,0.04229322820901871,-0.014311865903437138,0.1647513210773468,0.12719061970710754,0.09440334141254425,-0.04179595783352852,-0.07372582703828812,-0.09058859199285507,0.09175462275743484,-0.09152720123529434,0.06014377251267433,-0.12342854589223862,-0.1127285435795784,-0.16895142197608948,0.18628942966461182,0.09768958389759064,-0.034352634102106094,0.26321539282798767,-0.22223518788814545,0.1055653914809227,-0.006041717249900103,-0.14098134636878967,0.015393811278045177,0.06595250964164734,0.07204190641641617,-0.02662825956940651,0.06484756618738174,-0.14699330925941467,-0.10341092199087143,0.24912603199481964,0.08611597865819931,0.027255896478891373,0.034987758845090866,-0.08075818419456482,0.06498602777719498,0.03899436816573143,-0.02141653746366501,0.021494803950190544,0.08531708270311356,0.08568954467773438,0.06242981180548668,0.010500120930373669,-0.15049365162849426,-0.03743887320160866,-0.0418642982840538,0.008631360717117786,-0.1471615880727768,-0.5253059267997742,0.94699627161026,0.6171129941940308,-0.5943568348884583,0.10573946684598923,-0.3049720525741577,-0.055830880999565125,0.25460347533226013,-1.1747522354125977,1.0979712009429932,0.4883324205875397,0.09533601999282837,-0.24877318739891052,0.5423443913459778,-0.9105541110038757,0.301974356174469,-0.01996740885078907,0.14794541895389557,-0.18606464564800262,0.009295941330492496,0.2632560729980469,0.2302199751138687,-0.025580111891031265,0.17566506564617157,0.15686286985874176,0.24642083048820496,0.12388231605291367,-0.12033016234636307,0.018141647800803185,-0.234779953956604,-0.1101355329155922,0.23325315117835999,0.17946726083755493,0.0802374929189682,0.333016961812973,-0.014433702453970909,0.2623230516910553,-0.017935791984200478,-0.13617904484272003,-0.24975445866584778,0.04201646149158478,0.14513128995895386,-0.242899551987648,0.11664044857025146,0.3169165253639221,0.0819375067949295,-0.1666162759065628,-0.05906188488006592,-0.22419404983520508,0.03769678622484207,-0.17289188504219055,0.21632824838161469,-0.05129564553499222,-0.11581572890281677,-0.10006505250930786,-0.13789379596710205,-0.020368853583931923,-0.1887432336807251,0.3481862246990204,0.1782504916191101,-0.4152993857860565,0.01230788603425026,0.2950899004936218,0.2697020471096039,0.0004628028837032616,0.21408481895923615,0.08765225112438202,-0.24549564719200134,0.24957172572612762,-0.09177424013614655,0.21478304266929626,0.23512637615203857,0.021403802558779716,0.1142125055193901,0.1172804906964302,0.11704085767269135,0.1585938036441803,0.024355338886380196,-0.12352624535560608,0.031221825629472733,-0.26240015029907227,0.2856779992580414,-0.40218353271484375,0.09893979877233505,-0.27476248145103455,0.1022832989692688,0.05715586245059967,0.013940027914941311,-0.2297515571117401,-0.260560005903244,0.22887495160102844,-0.25388091802597046,-0.23065894842147827,0.27018752694129944,-0.003839453449472785,-0.16576598584651947,-0.027454165741801262,-0.025461504235863686,-0.1502130925655365,-0.026063989847898483,-0.20017731189727783,0.1536531299352646,0.018044983968138695,-0.09124259650707245,-0.2569960653781891,-0.002152260160073638,0.16179907321929932,-0.10388309508562088,0.09321404993534088,0.2771835923194885,0.05647996440529823,0.038606416434049606,0.009318927302956581,-0.11595049500465393,0.007541449274867773,0.15550756454467773,-0.1465999186038971,0.025676677003502846,-0.024721361696720123,-0.31343331933021545,0.1119190976023674,0.13076511025428772,-0.2586338520050049,0.17447179555892944,0.13696922361850739,0.19176806509494781,0.08461254090070724,0.25461259484291077,0.17444464564323425,-0.20108726620674133,-0.034686122089624405,0.09203191846609116,-0.14707869291305542,-0.07188615947961807,-0.15899212658405304,0.09774899482727051,0.06329583376646042,0.14617761969566345,0.2891719937324524,-0.04591802880167961,-0.01654910109937191,-0.009421303868293762,-0.22309045493602753,-0.19905339181423187,0.15714548528194427,-0.06381886452436447,0.0553610622882843,0.14014405012130737,-0.05547915771603584,-0.12630006670951843,0.1024634912610054,-0.2251405566930771,0.037695370614528656,-0.1891552060842514,0.2625023424625397,-0.2225629985332489,-0.1305686980485916,0.14190882444381714,0.260960191488266,0.32234692573547363,-0.08839757740497589,-0.14167310297489166,0.5150991678237915,-0.1956467479467392,0.2517687678337097,-0.381585031747818,-0.1034492626786232,-0.14287300407886505,-0.07711046934127808,0.06162373349070549,0.008946596644818783,-0.014829638414084911,-0.1205446869134903,0.1806993931531906,-0.18881069123744965,0.18310239911079407,-0.17828911542892456,-0.12510867416858673,-0.3317759037017822,0.1871630996465683,-0.19134125113487244,0.13031353056430817,-0.025323599576950073,0.19600819051265717,0.09147977828979492,-0.2811524569988251,0.08694282919168472,0.08260641992092133,-0.21320509910583496,0.06660179793834686,0.41503769159317017,0.028307931497693062,0.19112950563430786,-0.10552545636892319,0.01495340745896101,-0.18790209293365479,0.14136499166488647,0.25649622082710266,0.22232764959335327,-0.16201536357402802,-0.34043052792549133,-0.20699283480644226,0.18733683228492737,-0.3294593095779419,-0.1684967428445816,-0.00771350646391511,0.09234613180160522,-0.30770474672317505,-0.4377835690975189,-0.03874862566590309,-0.12653052806854248,0.19410794973373413,0.0829705148935318,-0.20124737918376923,-0.12269733101129532,0.07138055562973022,0.09868308156728745,-0.1946260929107666,0.07816291600465775,0.13654987514019012,0.06105589121580124,0.14541326463222504,0.030541840940713882,-0.14573520421981812,0.07304242998361588,-0.1195339486002922,-0.12641103565692902,0.00951928086578846,-0.1319332718849182,0.23568034172058105,-0.0844951793551445,-0.016234461218118668,0.09980781376361847,0.06181197240948677,-0.2634948492050171,0.07494816929101944,0.14303378760814667,-0.14729325473308563,0.19407057762145996,-0.19740089774131775,0.3496606647968292,-0.19029082357883453,-0.5742424726486206,-0.03425053134560585,-0.2477731853723526,0.07523073256015778,-0.09583666920661926,0.21225588023662567,0.05913243070244789,-0.0830567479133606,0.4089461863040924,-0.16309891641139984,-0.025962617248296738,-0.04307745397090912,0.18163210153579712,-0.09914739429950714,0.19933906197547913,0.035277143120765686,-0.17768223583698273,-0.25324031710624695,0.06092313304543495,0.06233534589409828,-0.1420697122812271,0.1372031569480896,0.22465050220489502,0.27920329570770264,0.1707366704940796,-0.2108127623796463,-0.05148249864578247,-0.3603917360305786,0.041432011872529984,0.015912523493170738,0.003110521472990513,0.07673119753599167,0.09598324447870255,0.0332045778632164,0.18338404595851898,0.06555936485528946,0.02522372268140316,-0.16547173261642456,-0.13770753145217896,0.03357056900858879,0.0634148120880127,0.11567528545856476,0.15339095890522003,0.038914524018764496,0.06250645965337753,0.0074110133573412895,-0.0752953290939331,0.18578557670116425,-0.1996566504240036,-0.04488624259829521,0.03852654993534088,0.03708948567509651,0.0004790887760464102,0.0809299424290657,-0.1649470329284668,0.10814819484949112,0.22610314190387726,0.1138000562787056,-0.20299917459487915,-0.17647762596607208,0.18289344012737274,-0.04604188725352287,-0.040448177605867386,0.1661013513803482,-0.10030487179756165,-0.06662983447313309,-0.015446382574737072,0.15029317140579224,0.1542203724384308,-0.01294519193470478,-0.09930364787578583,-0.017374249175190926,-0.006367311347275972,0.13209418952465057,-0.05862966179847717,-0.16567954421043396,-0.14638729393482208,0.15908929705619812,0.08232446014881134,-0.19136875867843628,-0.22706609964370728,-0.17976300418376923,0.046903952956199646,0.025444064289331436,-0.2038269191980362,-0.19618307054042816,-0.06689191609621048,-0.1371942162513733,-0.12494459003210068,-0.02950715459883213,-0.03260147199034691,-0.05973777547478676,0.12788866460323334,-0.18155820667743683,0.12034943699836731,0.02955949679017067,-0.02662658505141735,-0.1320042461156845,-0.10219183564186096,-0.03374365344643593,-0.10532232373952866,0.1868920773267746,-0.26605480909347534,0.06930825114250183,0.2482212781906128,0.13260892033576965,0.03630224987864494,0.11849654465913773,0.22044537961483002,-0.12663677334785461,-0.17488957941532135,-0.07239090651273727,0.006687103770673275,-0.01684759370982647,-0.02544141560792923,-0.19650514423847198,-0.337737113237381,-0.05603031441569328,0.06471627950668335,0.0008013842161744833,-0.006849511992186308,0.11332341283559799,-0.07940738648176193,-0.10845878720283508,0.11629395931959152,0.1880396455526352,0.21441225707530975,0.062028877437114716,-0.07691837847232819,-0.10942193865776062,-0.04195786640048027,0.08647483587265015,-0.28043919801712036,0.07271932810544968,0.0380605012178421,0.07242197543382645,0.059484682977199554,0.043964870274066925,-0.22945185005664825,-0.004353290889412165,0.031416673213243484,-0.1702026128768921,-0.26366835832595825,0.01678452454507351,0.20781004428863525,-0.1971522867679596,-0.07766910642385483,-0.2297857403755188,0.09823675453662872,0.03762054815888405,-0.17249062657356262,-0.015386569313704967,-0.1601407676935196,0.1243543028831482,0.07179130613803864,-0.01900945045053959,-0.17625835537910461,-0.12367776781320572,-0.00491289934143424,0.07056272029876709,0.12975525856018066,-0.1337844729423523,0.003350132144987583,-0.15308025479316711,0.1141393706202507,-0.22720728814601898,0.16357438266277313,-0.10234707593917847,0.056290823966264725,-0.15486358106136322,0.07437654584646225,-0.12469685822725296,0.22860607504844666,-0.17526821792125702,-0.04315090551972389,-0.07385075092315674,-0.11761543154716492,-0.13766996562480927,0.1360001266002655,-0.056072041392326355,-0.15535859763622284,0.04536047205328941,-0.15052984654903412,0.015699313953518867,-0.21723955869674683,0.02994568645954132,-0.12985897064208984,0.05682674050331116,0.010100110433995724,0.10693523287773132,0.14306150376796722,-0.2865567207336426,0.17906253039836884,-0.3044230341911316,0.7089427709579468,0.1589183658361435,0.2086089849472046,-0.22464798390865326,0.12565140426158905,0.09746740013360977,-0.10903459042310715,-0.022653840482234955,0.21386349201202393,-0.32775747776031494,-0.13530723750591278,-0.2088591307401657,0.1319572478532791,0.1001480370759964,0.10032828897237778,-0.048745568841695786,0.023966297507286072,-0.15582187473773956,0.26042404770851135,0.09036920964717865,0.05214889720082283,-0.39302361011505127,-0.10850503295660019,-0.2350820004940033,0.4569667875766754,0.03268461674451828,0.38866105675697327,-0.3620414435863495,0.05181434005498886,0.08221051841974258,-0.16572342813014984,-0.006756635382771492,0.3349401354789734,-0.1870938241481781,0.13178344070911407,0.25735339522361755,-0.4535163640975952,-0.26114949584007263,0.05207246169447899,-0.5057240128517151,-0.02809097245335579,0.16137617826461792,-0.2837026119232178,0.2402273714542389,-0.029764533042907715,-0.24927058815956116,0.30154088139533997,-0.2736615538597107,0.15901298820972443,-0.011888213455677032,0.30996838212013245,-0.13013511896133423,0.17166469991207123,0.01177223026752472,-0.010262355208396912,0.07688833028078079,0.059797439724206924,-0.11267353594303131,-0.17262618243694305,0.06751243770122528,0.2362627536058426,-0.05243651941418648,0.13388770818710327,-0.004207586869597435,0.04838569462299347,-0.13559336960315704,0.04427656531333923,-0.05491478368639946,0.3149486780166626,-0.23322798311710358,-0.07505817711353302,-0.3227437138557434,0.30075976252555847,0.14888277649879456,0.3129929304122925,-0.2514269948005676,0.0018039296846836805,-0.09166908264160156,-0.17563946545124054,-0.12119057029485703,0.21884939074516296,-0.0975840613245964,-0.0665525496006012,0.07537902146577835,-0.3818172216415405,-0.06433749943971634,-0.06566525995731354,-0.17608317732810974,0.12908928096294403,0.006887744180858135,-0.13157369196414948,0.060013916343450546,-0.17339712381362915,-0.17715419828891754,0.20128673315048218,-0.05393141880631447,-0.16239963471889496,0.05763121321797371,0.1682034134864807,0.08354571461677551,0.0607011616230011,0.03574809432029724,-0.2572617828845978,0.020873460918664932,-0.029678812250494957,0.019945837557315826,-0.2334364950656891,-0.10187780112028122,0.1568131297826767,-0.053916413336992264,0.12306343764066696,-0.03475667163729668,-0.07740721851587296,-0.1222958043217659,-0.10652092844247818,-0.15288420021533966,0.14623978734016418,-0.11156319081783295,0.02786286734044552,0.028857925906777382,-0.048902593553066254,0.010407138615846634,-0.026001932099461555,-0.1320396065711975,0.023404676467180252,-0.004240931943058968,0.1191842257976532,0.0299942996352911,0.030462495982646942,-0.16776248812675476,0.07742273062467575,0.009842615574598312,-0.1909010112285614,-0.020392395555973053,0.06243252754211426,-0.056490737944841385,0.06536097079515457,0.09784508496522903,-0.057905521243810654,0.3076901137828827,0.05319966748356819,-0.22095897793769836,0.07069877535104752,-0.0626165047287941,-0.13872410356998444,0.1096939668059349,0.14559173583984375,-0.11180146783590317,0.07176445424556732,-0.02877790294587612,-0.291337788105011,-0.11050187796354294,0.037774987518787384,0.04389069601893425,-0.25718069076538086,-0.11364740133285522,0.20461007952690125,-0.09821712970733643,-0.10516691207885742,-0.1431587189435959,0.04482981562614441,-0.03824242204427719,0.05289226025342941,0.004332789219915867,0.1721300482749939,-0.05180583521723747,0.0436788871884346,0.11087538301944733,0.041520413011312485,0.18920311331748962,0.025149349123239517,-0.12156679481267929,-0.04460865631699562,-0.18272577226161957,-0.02610109932720661,0.2146308571100235,-0.0411655455827713,-0.1446095108985901,-0.0016689359908923507,0.004421689081937075,-0.29927605390548706,-0.06552059203386307,0.11592470109462738,0.14551815390586853,0.20736795663833618,0.03201520815491676,-0.2277647852897644,0.05802144482731819,0.020318152382969856,-0.05957083776593208,0.26689183712005615,-0.06247471645474434,0.08463054150342941,-0.04333031550049782,-0.18063491582870483,0.04507835581898689,0.0064165592193603516,0.1770673394203186,0.0500040128827095,-0.1947595328092575,0.21132859587669373,0.11370301991701126,-0.13874869048595428,-0.0922178253531456,-0.04202111437916756,0.30334943532943726,-0.24788057804107666,0.007959356531500816,-0.17128033936023712,0.030168714001774788,-0.09812432527542114,0.09469477832317352,0.08060065656900406,0.17564840614795685,0.017464986070990562,-0.14495769143104553,0.07411456108093262,-0.009482759051024914,-0.10439781099557877,-0.2062811553478241,-0.08778481185436249,0.13688810169696808,0.2971559762954712,0.19149437546730042,-0.08886043727397919,0.052498310804367065,0.14284220337867737,-0.20653076469898224,-0.0792866200208664,-0.05512504279613495,0.12294775247573853,0.05080735683441162,-0.027687469497323036,-0.03581245616078377,-0.01056245993822813,-0.2612086236476898,0.2200665920972824,0.24215465784072876,-0.07245253771543503,0.15667279064655304,0.22448451817035675,-0.05257277563214302,-0.16641829907894135,0.1907535046339035,-0.20951148867607117,0.032474011182785034,0.15922001004219055,0.00019553776655811816,-0.052139732986688614,-0.09749715775251389,0.138577401638031,0.027301132678985596,-0.18901744484901428,-0.11481476575136185,-0.08912284672260284,0.06064819544553757,0.06127665564417839,0.034547656774520874,-0.13651901483535767,-0.04207748547196388,-0.08808547258377075,0.019481798633933067,0.13497599959373474,0.22973185777664185,-0.06184057518839836,-0.00019310275092720985,-0.1571662425994873,0.05708761513233185,0.14239846169948578,-0.02161562256515026,-0.289615660905838,0.04182291775941849,-0.13588285446166992,-0.010919029824435711,-0.28809115290641785,0.04555532708764076,0.09745154529809952,0.010534508153796196,0.0900857225060463,-0.0995866060256958,-0.04276077821850777,-0.037542279809713364,0.23439808189868927,-0.22360417246818542,-0.03780660778284073,0.12745191156864166,-0.0010678630787879229,-0.02573622576892376,0.07717727869749069,-0.06532745808362961,0.05254591256380081,0.07538682967424393,-0.04111463576555252,-0.06664522737264633,0.07145644724369049,0.00894014723598957,-0.016006967052817345,-0.010889990255236626,0.011867561377584934,-0.00045653129927814007,-0.19207371771335602,0.014846413396298885,-0.04015173763036728,0.038406986743211746,0.1463823914527893,0.041429553180933,0.10744363069534302,-0.14050403237342834,0.06405335664749146,-0.07333164662122726,-0.15757837891578674,0.26195448637008667,-0.07442212104797363,-0.3314181864261627,0.08339313417673111,-0.016449637711048126,-0.07198835909366608,-0.26902490854263306,-0.28254663944244385,-0.03810252249240875,0.016606327146291733,-0.01732991263270378,-0.24939340353012085,0.00453731557354331,-0.026220832020044327,0.032745786011219025,-0.011688292026519775,-0.07874353975057602,-0.020701877772808075,-0.12082938104867935,0.16954678297042847,0.17291446030139923,-0.17024126648902893,-0.010159477591514587,0.22853192687034607,-0.0022659078240394592,-0.12103372812271118,-0.14199014008045197,-0.09000633656978607,0.09514002501964569,0.2709586024284363,0.08223185688257217,-0.15584440529346466,-0.2122010588645935,-0.0526045598089695,0.10948663204908371,-0.017079558223485947,0.14346721768379211,0.10560838878154755,0.26960355043411255,0.09274570643901825,-0.15995511412620544,-0.0879458636045456,0.02992950566112995,0.09550275653600693,0.04069219529628754,0.12181312590837479,0.16139620542526245,-0.009388737380504608,0.16271647810935974,0.028237484395503998,0.07312683016061783,0.05567348003387451,-0.019617771729826927,-0.03543241322040558,0.11674629896879196,-0.06488902866840363,0.12170297652482986,-0.11074818670749664,0.092801533639431,0.15294380486011505,-0.06155138462781906,0.03726344555616379,0.13361452519893646,0.14380933344364166,0.0998540148139,0.06980172544717789,-0.0038954170886427164,-0.023041946813464165,0.1029791310429573,0.05086413398385048,0.061650604009628296,0.17064021527767181,0.15869678556919098,-0.08941574394702911,-0.09339681267738342,0.02719585970044136,-0.0802471786737442,-0.022063475102186203,0.007837533950805664,-0.03845257684588432,-0.3064414858818054,-0.13911019265651703,0.060712337493896484,-0.13403964042663574,-0.10976916551589966,-0.01332067046314478,0.13721375167369843,-0.23217113316059113,-0.22301480174064636,0.0743924081325531,0.035260241478681564,0.31949561834335327,-0.258391410112381,0.07542359828948975,-0.1173565685749054,-0.1177406758069992,0.39534980058670044,0.22857820987701416,0.04721885174512863,-0.14032891392707825,-0.2771552503108978,-0.06863606721162796,-0.06177679821848869,-0.01883496716618538,0.14615826308727264,0.11886341869831085,-0.24049988389015198,0.20453372597694397,-0.12373550981283188,-0.10996054112911224,-0.16112251579761505,-0.1529015451669693,-0.10431533306837082,0.16202270984649658,-0.0535552091896534,0.06708881258964539,0.19314704835414886,0.06483878940343857,-0.20013077557086945,0.04573467746376991,-0.13132448494434357,0.034572724252939224,0.24659378826618195,0.07873030006885529,-0.2221943587064743,-0.04240909963846207,0.024022672325372696,-0.2511785924434662,-0.017013877630233765,0.12025634199380875,-0.06802208721637726,0.02050873078405857,-0.08886950463056564,0.003650784259662032,-0.24334628880023956,0.22354911267757416,-0.13862451910972595,0.04825363680720329,0.006388038396835327,0.2730511724948883,0.04385283216834068,0.20886947214603424,-0.27282029390335083,-0.15406174957752228,-0.030072413384914398,0.16060353815555573,0.09133078157901764,0.13736921548843384,-0.3195178806781769,-0.05247080698609352,-0.05491756275296211,0.1553850620985031,0.1017356663942337,0.1965283304452896,-0.09926824271678925,0.29663586616516113,0.11409704387187958,-0.15499398112297058,-0.05164339765906334,-0.024967292323708534,-0.05679173767566681,0.3054136633872986,0.18632468581199646,-0.055971208959817886,-0.018752319738268852,0.006072865333408117,0.17238260805606842,-0.19285067915916443,0.08481214940547943,-0.0970492884516716,-0.20791831612586975,-0.06898589432239532,0.07958275079727173,-0.04421103373169899,-0.011766894720494747,0.09961938112974167,0.1584549993276596,-0.09013374149799347,0.11455593258142471,0.1578589826822281,0.11030364781618118,0.04630907624959946,-0.17098654806613922,0.0121680349111557,0.2003140151500702,0.010653052479028702,0.10467206686735153,-0.12560640275478363,-0.07742999494075775,-0.09704601019620895,0.10294174402952194,-0.15054181218147278,-0.3013450503349304,-0.1048857718706131,0.0412047915160656,-0.11834746599197388,0.17511914670467377,0.18872977793216705,0.04785685986280441,0.12505680322647095,-0.03291260078549385,-0.13103972375392914,-0.026168998330831528,-0.10374247282743454,-0.08184699714183807,0.23465417325496674,0.023116616532206535,0.045625269412994385,0.17402741312980652,-0.0051351324655115604,0.11059395223855972,0.22207379341125488,-0.14220081269741058,0.0045192730613052845,0.0670028030872345,-0.1443413496017456,-0.1580798178911209,0.01712752692401409,-0.02777213789522648,0.019141333177685738,0.07543238252401352,-0.15599015355110168,-0.07474642246961594,0.06604373455047607,0.04280553013086319,-0.0737309455871582,-0.07320530712604523,0.19418255984783173,-0.15469688177108765,-0.06714578717947006,-0.08928167074918747,0.01639614626765251,0.12633615732192993,-0.04769691824913025,-0.09938608855009079,-0.02835175395011902,0.10048498213291168,0.018883945420384407,0.08028050512075424,-0.11811491847038269,-0.2712629437446594,-0.012322786264121532,0.01858508586883545,0.0067689791321754456,0.08235712349414825,0.3478715419769287,-0.07374200224876404,-0.09049569815397263,-0.22411280870437622,0.09671034663915634,0.0005650820676237345,-0.048331186175346375,0.3300032317638397,-0.0018312096362933517,-0.061541471630334854,0.017658451572060585,-0.04011983051896095,-0.07077769190073013,0.11305882781744003,0.009930276311933994,-0.18566900491714478,0.12266205251216888,0.21543356776237488,-0.15496240556240082,-0.10525824129581451,0.2653071880340576,-0.18415522575378418,0.010116523131728172,-0.04400663822889328,-0.05204480141401291,0.0757584273815155,0.2291969507932663,-0.04973345249891281,0.1294599324464798,-0.16309578716754913,-0.09676531702280045,-0.11809489130973816,-0.13003383576869965,0.1930425763130188,-0.03217291459441185,-0.11067406833171844,-0.08283515274524689,-0.053418323397636414,-0.2094610631465912,-0.08294220268726349,-0.0007980908267199993,-0.042826417833566666,-0.20130135118961334,-0.09434203803539276,0.04131843149662018,-0.24094343185424805,0.1493472456932068,-0.10758707672357559,0.016022659838199615,-0.08888329565525055,-0.2032378911972046,-0.19174060225486755,-0.004648716654628515,0.04389796406030655,-0.33250176906585693,-0.012326235882937908,0.1299128383398056,0.03409915789961815,0.06333848088979721,0.10100388526916504,-0.14881736040115356,0.0191034022718668,0.22965116798877716,0.05479824170470238,-0.18939130008220673,0.08212306350469589,-0.11270729452371597,0.19691136479377747,0.09500879794359207,-0.06970151513814926,-0.15864825248718262,-0.0012428485788404942,0.07768122106790543,0.09781317412853241,-0.0721539705991745,0.19080595672130585,0.14730612933635712,0.022134335711598396,0.021758342161774635,0.7128446102142334,0.007821696810424328,0.7196686863899231,-0.6659711003303528,-0.29448169469833374,0.21635445952415466,0.5175337195396423,-0.1233062595129013,0.2896123230457306,0.3568851947784424,-0.9460964202880859,0.6069601774215698,0.11390242725610733,-0.8379462957382202,-0.09403391927480698,-0.29874593019485474,-0.040431100875139236,-0.2011464387178421,0.3064117133617401,-0.0463133379817009,0.10420887917280197,0.23850874602794647,-0.09785390645265579,-0.2532154321670532,-0.2805350124835968,0.4617910385131836,-0.12259648740291595,-0.008257399313151836,0.18181759119033813,0.03174684941768646,0.08688455075025558,-0.1411319077014923,-0.10767622292041779,-0.10879877954721451,0.25059589743614197,-0.06795068085193634,0.11118669807910919,0.0003355114022269845,0.10276727378368378,-0.23440995812416077,-0.03343093767762184,-0.23325689136981964,-0.1899353563785553,-0.09408606588840485,-0.072349913418293,0.08806374669075012,0.17460662126541138,-0.02263486385345459,-0.16035950183868408,0.3044210970401764,-0.20363958179950714,-0.2130776345729828,0.027084482833743095,-0.23367872834205627,-0.2624301016330719,0.12990905344486237,0.1989285945892334,-0.36774125695228577,-0.0830325037240982,-0.22131405770778656,0.0016450360417366028,0.21563556790351868,0.02909942902624607,0.06645318865776062,-0.48819810152053833,-0.09829670190811157,-0.3262139856815338,0.22549137473106384,0.10363985598087311,0.40987396240234375,0.3381277024745941,0.09059415757656097,-0.40076035261154175,-0.35055315494537354,0.17675034701824188,-0.16012682020664215,0.18480968475341797,0.09752283990383148,-0.005502829793840647,-0.4889819920063019,0.603472888469696,-0.05309169366955757,0.07109176367521286,0.007292370777577162,-0.0989084467291832,-0.13245965540409088,-0.0035688451025635004,-0.24870656430721283,0.2754833400249481,0.34264060854911804,0.13494199514389038,0.17560704052448273,-0.21185892820358276,-0.20406022667884827,-0.23107855021953583,0.16494996845722198,-0.07436377555131912,0.3395417332649231,0.05410284921526909,0.16160468757152557,-0.12318969517946243,-0.04195789992809296,0.007316175848245621,-0.03566642478108406,0.34450918436050415,-0.2141566276550293,-0.3382542133331299,0.09919224679470062,-0.07923039048910141,0.047099798917770386,-0.131134495139122,0.08072996139526367,-0.1682516485452652,-0.15156126022338867,-0.12323080748319626,0.010140758939087391,-0.08332827687263489,-0.06182805821299553,0.17704366147518158,0.19786405563354492,-0.3135046362876892,0.017334263771772385,0.15853296220302582,0.26497286558151245,0.06233571842312813,-0.13562040030956268,-0.012454217299818993,-0.08348552137613297,0.18981991708278656,0.45211872458457947,-0.03919432312250137,0.3433854281902313,0.1755308210849762,-0.34102746844291687,-0.19613158702850342,0.03908371925354004,0.17563296854496002,-0.08412539958953857,-0.023561647161841393,0.22522571682929993,-0.17950156331062317,0.030607037246227264,0.0666155070066452,0.13680288195610046,-0.17011506855487823,0.024965200573205948,-0.0070274523459374905,-0.1359909325838089,0.08825875073671341,0.10655788332223892,-0.43911561369895935,-0.12757763266563416,-0.07711299508810043,0.05080496519804001,-0.017716240137815475,-0.08391105383634567,0.11291280388832092,0.3033486306667328,0.059094224125146866,0.16766925156116486,0.19646860659122467,0.3643551468849182,0.45401957631111145,0.49917498230934143,0.26884976029396057,-0.17195385694503784,-0.29120150208473206,-0.14209234714508057,-0.007704314775764942,0.25333184003829956,-0.06224823370575905,-0.31290706992149353,0.21320660412311554,-0.07777030766010284,0.6220898628234863,0.3539218008518219,0.046541307121515274,0.26636645197868347,-0.20053619146347046,-0.19285538792610168,-0.14815916121006012,-0.029111972078680992,-0.2296021580696106,-0.1627647578716278,0.3378336727619171,0.0715227723121643,-0.21294794976711273,0.013231485150754452,-0.11813926696777344,0.22156044840812683,0.12806721031665802,-0.009601687081158161,0.30907851457595825,-0.14829835295677185,-0.15948456525802612,-0.09413598477840424,-0.2557786703109741,-0.27698007225990295,-0.09499827027320862,0.0006533564301207662,0.07503846287727356,-0.01616031676530838,0.20724831521511078,0.4289354979991913,-0.1016705185174942,0.15612287819385529,-0.2328081876039505,-0.01523568481206894,0.12108456343412399,0.21563966572284698,0.2203042060136795,0.10014010965824127,-0.12800800800323486,0.06400340795516968,-0.3645141124725342,0.11751426011323929,0.16203318536281586,0.16282133758068085,-0.2201315015554428,-0.05361776426434517,-0.3042075037956238,0.2771867513656616,-0.008221172727644444,-0.07458332926034927,-0.18551073968410492,0.1521502435207367,0.283578485250473,0.062137022614479065,-0.062171757221221924,0.17089125514030457,-0.0895308405160904,0.14265450835227966,-0.1688300520181656,0.4212557077407837,0.14581142365932465,0.04499038681387901,-0.32790321111679077,-0.20558537542819977,-0.279368132352829,0.16702993214130402,0.3952110707759857,-0.10189174860715866,0.2897540330886841,0.3711898922920227,-0.09562302380800247,-0.2105725258588791,-0.09786707162857056,0.03215320035815239,-0.18475933372974396,0.16729910671710968,-0.2491941750049591,0.11223632842302322,0.12894253432750702,-0.0027043232694268227,0.010985344648361206,0.20301924645900726,0.08100950717926025,0.23452128469944,0.034547414630651474,-0.1324795037508011,-0.12342716008424759,-0.12259665876626968,0.3556302785873413,-0.08167066425085068,-0.23415611684322357,0.21828415989875793,-0.244965597987175,0.08356918394565582,0.024647394195199013,-0.11681697517633438,-0.01917182095348835,0.06348250806331635,-0.22170360386371613,0.06693384796380997,0.05749146640300751,-0.06883716583251953,0.18686898052692413,0.0664154514670372,0.016436532139778137,0.20236767828464508,-0.1861453652381897,0.16498900949954987,0.06118340417742729,-0.010490231215953827,0.012962848879396915,-0.10766641795635223,0.0006271459860727191,0.10348063707351685,-0.1265869289636612,-0.0432540625333786,0.13710369169712067,-0.16474632918834686,-0.10388647019863129,-0.30960795283317566,-0.12391025573015213,0.2545744776725769,-0.13072018325328827,-0.3068601191043854,0.08267727494239807,0.08626940846443176,0.08637955784797668,0.14238891005516052,-0.10199805349111557,0.255969762802124,0.034087248146533966,0.08473873138427734,-0.06265779584646225,0.029878316447138786,-0.006955639459192753,0.16755184531211853,0.36427369713783264,0.24649764597415924,-0.13154320418834686,0.02631988935172558,0.04357513412833214,0.13471293449401855,-0.006610792130231857,0.10858552157878876,0.033302273601293564,0.26724714040756226,-0.20671240985393524,0.03706473484635353,0.030687976628541946,-0.30570733547210693,0.02898964285850525,0.22076959908008575,0.10530687868595123,-0.23505449295043945,0.16040648519992828,0.011562524363398552,0.08033476024866104,0.13262179493904114,0.24683494865894318,0.0332731157541275,0.1628279983997345,0.13142278790473938,-0.003490209113806486,-0.20820890367031097,-0.021196739748120308,-0.15606391429901123,-0.32184723019599915,-0.27419987320899963,-0.11266142129898071,-0.07149836421012878,0.06784044206142426,-0.15381455421447754,-0.08587329089641571,0.0063874563202261925,0.049754559993743896,0.02364690601825714,0.1015680804848671,0.05434316024184227,-0.02119174227118492,-0.09898737818002701,-0.17603367567062378,0.012067457661032677,0.16074848175048828,-0.15515735745429993,-0.04830470681190491,0.030395736917853355,0.02588665671646595,0.22213351726531982,0.13774177432060242,0.05413397401571274,0.08276259899139404,-0.016094870865345,0.13257260620594025,-0.05797205865383148,0.1566379964351654,-0.05683455988764763,0.003012796165421605,-0.00017150217900052667,-0.03450402244925499,-0.09357158839702606,0.0684950053691864,-0.19706320762634277,-0.2987852692604065,0.08812994509935379,0.069178506731987,-0.0024737592320889235,0.314613938331604,-0.21598780155181885,-0.2363169938325882,0.006339039653539658,-0.2570546865463257,-0.03273285925388336,0.1080593392252922,-0.06417009234428406,-0.020972779020667076,-0.08354657888412476,-0.3039143681526184,0.17350730299949646,0.024187974631786346,-0.49737340211868286,0.007061325013637543,0.03972186893224716,0.17380304634571075,-0.33933818340301514,-0.13415320217609406,0.300076425075531,0.08924835175275803,0.13960325717926025,-0.059434741735458374,-0.1536378711462021,-0.17815765738487244,0.033438339829444885,-0.16722843050956726,0.2139526903629303,-0.02250187285244465,0.18286339938640594,-0.049090515822172165,-0.037175003439188004,-0.3377102315425873,0.32342925667762756,-0.18759137392044067,0.4609912633895874,-0.0004778376896865666,0.14182358980178833,0.35109513998031616,-0.07406796514987946,-0.10679535567760468,0.10785883665084839,0.10744760185480118,0.27889588475227356,0.2673175632953644,0.22586815059185028,0.5237514972686768,-0.029089873656630516,0.049919161945581436,0.04633749648928642,0.06753180176019669,0.19968685507774353,-0.20553426444530487,0.29722288250923157,0.11729779094457626,-0.31510186195373535,0.1022900640964508,-0.30352866649627686,-0.02773040346801281,0.15149113535881042,-0.015308975242078304,-0.08656490594148636,-0.2867223918437958,0.06831134110689163,0.07180517911911011,-0.17670060694217682,0.024508625268936157,0.12459346652030945,0.04122958332300186,0.20722825825214386,0.017124896869063377,-0.398854523897171,0.05590454116463661,0.0976109430193901,0.2109607607126236,-0.0709444209933281,0.05262604355812073,0.08367649465799332,0.10353097319602966,-0.26490575075149536,0.4124811887741089,-0.002510298741981387,-0.09132012724876404,0.1277138590812683,-0.06445027142763138,0.05093654245138168,-0.30810555815696716,-0.03144906833767891,0.051955655217170715,0.14439642429351807,0.030946247279644012,-0.04071110486984253,0.015059281140565872,-0.07883130013942719,0.3944956362247467,0.13596667349338531,-0.0443667508661747,-0.05847503989934921,0.08700969070196152,0.0676611140370369,-0.1997915357351303,0.2212589532136917,0.2782273292541504,-0.050915177911520004,0.07093798369169235,0.2157951146364212,-0.08213357627391815,0.14708122611045837,0.00321789039298892,-0.3920837938785553,0.10983606427907944,0.17571701109409332,0.3451063930988312,-0.015107029117643833,0.07036536931991577,0.3125438988208771,-0.04561224207282066,-0.13836684823036194,0.07194563001394272,0.042182110249996185,-0.16712026298046112,0.0657416582107544,-0.030717866495251656,0.33185410499572754,-0.037414029240608215,0.17164447903633118,0.08776233345270157,0.1488407701253891,-0.15456882119178772,1.3683582544326782,-0.10722916573286057,0.15347129106521606,-0.42608875036239624,0.32991769909858704,0.1787528246641159,-0.6441829204559326,-0.20018063485622406,0.11981078237295151,-0.044115472584962845,-0.04220755398273468,0.03314341604709625,-0.15051764249801636,0.5713511109352112,-0.03460279107093811,-0.11803379654884338,-0.1513180136680603,0.06455592066049576,0.010054055601358414,-0.13851869106292725,0.08557120710611343,-0.2376498579978943,0.02254028432071209,0.00768267922103405,0.242646723985672,0.19197002053260803,-0.07127535343170166,0.046506136655807495,-0.05225574970245361,-0.21852315962314606,-0.061999402940273285,-0.15281617641448975,0.24297980964183807,-0.0006214027525857091,-0.11811009794473648,-0.03826015070080757,0.05504676327109337,0.136134535074234,-0.030336197465658188,-0.0639880821108818,-0.09877342730760574,0.12734606862068176,0.027347683906555176,-0.04725806415081024,-0.25845032930374146,-0.06097828224301338,-0.10624183714389801,-0.03208531066775322,-0.043748609721660614,0.1498422920703888,0.03624127432703972,0.07029115408658981,-0.09437613189220428,0.21891388297080994,-0.017058126628398895,0.14060531556606293,-0.08326280117034912,-0.09447259455919266,0.042599745094776154,0.0803128257393837,-0.037074632942676544,-0.1118096113204956,0.10343029350042343,-0.09531177580356598,0.27524858713150024,0.4919154644012451,0.07999300956726074,-0.15470477938652039,-0.16035480797290802,0.13669024407863617,-0.07517214864492416,-0.06540113687515259,0.0005434723570942879,-0.05673437565565109,-0.19797275960445404,0.2547554075717926,-0.14688442647457123,-0.2935163974761963,0.10448732227087021,0.15440216660499573,0.12842395901679993,-0.20920702815055847,0.18123973906040192,0.18716807663440704,-0.010198176838457584,0.0477641299366951,0.07845081388950348,0.04772450774908066,0.05605265498161316,-0.022593839094042778,0.06554273515939713,-0.09573201090097427,-0.14568835496902466,0.2721092700958252,0.04544059932231903,0.006517910398542881,0.11188316345214844,-0.0883905440568924,0.006457282230257988,0.2024076282978058,-0.032001793384552,-0.049991726875305176,-0.05137475207448006,-0.07339777052402496,0.05164273828268051,0.25349316000938416,0.09022869914770126,-0.047206565737724304,0.26350894570350647,0.24317988753318787,-0.21423383057117462,-0.16766557097434998,0.056752607226371765,-0.08379355818033218,0.13369211554527283,-0.0633455291390419,0.06707189977169037,0.11604166030883789,0.03145868331193924,0.026475531980395317,0.08548170328140259,-0.07500675320625305,-0.021806055679917336,-0.017731770873069763,0.09738064557313919,0.28275641798973083,-0.04935508593916893,0.156046524643898,-0.1634356677532196,0.014591546729207039,-0.1326053887605667,-0.18080087006092072,0.033888205885887146,0.05405664071440697,0.0997937023639679,-0.06085525453090668,0.13867954909801483,-0.18694162368774414,-0.10665570199489594,-0.09059827029705048,0.09496690332889557,0.010992051102221012,-0.06388667970895767,-0.04690178856253624,0.021097242832183838,-0.05403352901339531,0.036097463220357895,-0.06083838641643524,-0.06207135319709778,-0.04180697724223137,0.13131879270076752,0.014850298874080181,0.05101601779460907,-0.06340060383081436,0.09590716660022736,0.19389814138412476,-0.19926497340202332,0.11138033866882324,-0.17845706641674042,-0.06981910765171051,0.06463765352964401,-0.025144940242171288,0.05595902353525162,0.13529351353645325,-0.04629818722605705,0.24397395551204681,0.04797661304473877,-0.05326123535633087,0.13130734860897064,-0.0578351691365242,-0.07404997199773788,0.07076855003833771,-0.22810031473636627,-0.12664569914340973,-0.08505316823720932,0.2373027205467224,0.002526425290852785,0.15513543784618378,0.058585021644830704,-0.20944146811962128,0.013392516411840916,-0.041991472244262695,-0.0945422500371933,0.001435296842828393,-0.11615973711013794,0.023137260228395462,0.06675301492214203,0.1674882471561432,0.07192572206258774,0.011575189419090748,-0.013197066262364388,-0.012973752804100513,0.23551510274410248,-0.07533809542655945,0.07661481946706772,0.11542262136936188,-0.03368590399622917,0.09793970733880997,-0.18804271519184113,0.13332001864910126,0.1251332312822342,0.017069729045033455,-0.1882449835538864,0.009138014167547226,0.17025071382522583,-0.06941065937280655,0.2519127428531647,-0.5801107883453369,-0.26726794242858887,-0.1278352290391922,0.31072869896888733,0.11716799437999725,0.43768247961997986,0.08238880336284637,0.07833468168973923,0.27781927585601807,-0.09197183698415756,-0.02471861056983471,-0.0069357724860310555,-0.14896850287914276,-0.16173295676708221,-0.15052783489227295,-0.18762393295764923,0.00817286316305399,-0.15564967691898346,-0.0940229594707489,0.10055424273014069,-0.0016627016011625528,0.022577833384275436,-0.14442436397075653,-0.14505411684513092,-0.16192388534545898,0.24930673837661743,-0.030849426984786987,-0.027451079338788986,0.136188343167305,0.22790665924549103,0.18257363140583038,-0.05900021642446518,0.18738651275634766,-0.02132442221045494,0.08887331932783127,0.10659017413854599,-0.055653758347034454,0.19819816946983337,-0.017882175743579865,-0.1166902482509613,0.10600204020738602,0.0884891152381897,0.030947698280215263,-0.07054424285888672,0.14764732122421265,0.1720242202281952,0.3886229693889618,-0.30736714601516724,-0.2036868780851364,-0.1589805632829666,0.21265023946762085,-0.06628942489624023,-0.06479916721582413,-0.32277724146842957,0.022603124380111694,0.2010500729084015,0.056319691240787506,0.18545493483543396,0.08637216687202454,0.12894363701343536,-0.0641457661986351,0.04696078598499298,0.22457565367221832,-0.10140324383974075,-0.1115003228187561,-0.15798719227313995,0.2532653510570526,-0.20722778141498566,0.08077029138803482,0.07486855983734131,0.16046087443828583,0.1392498016357422,-0.09883828461170197,-0.136969193816185,-0.24462652206420898,-0.1248684898018837,0.09097681939601898,0.030103927478194237,-0.048916324973106384,-0.03681917116045952,0.08124972879886627,0.07033495604991913,0.2217976599931717,0.06284160912036896,0.04257512092590332,0.0032884154934436083,0.11713448911905289,0.02755250409245491,-0.12378580868244171,0.08695194870233536,0.08748732507228851,-0.17168942093849182,0.030568979680538177,0.11908823251724243,