{
  "model_data": {
    "model": "SimpleRNN",
    "input_size": 1,
    "skip": 1,
    "output_size": 1,
    "unit_type": "LSTM",
    "num_layers": 1,
    "hidden_size": 40,
    "bias_fl": true
  },
  "state_dict": {
    "rec.weight_ih_l0": [
      [
        -0.359243243932724
      ],
      [
        0.5265474319458008
      ],
      [
        3.158290147781372
      ],
      [
        2.6818997859954834
      ],
      [
        4.135035037994385
      ],
      [
        -2.8928475379943848
      ],
      [
        1.0546083450317383
      ],
      [
        1.293775200843811
      ],
      [
        -0.7343867421150208
      ],
      [
        -0.111776202917099
      ],
      [
        0.17755016684532166
      ],
      [
        0.8569155335426331
      ],
      [
        -1.8366330862045288
      ],
      [
        0.6357449889183044
      ],
      [
        -1.107660174369812
      ],
      [
        0.7239078283309937
      ],
      [
        3.0290238857269287
      ],
      [
        -0.527311384677887
      ],
      [
        0.3311428725719452
      ],
      [
        0.19045031070709229
      ],
      [
        -0.702133297920227
      ],
      [
        -0.554053544998169
      ],
      [
        4.999634742736816
      ],
      [
        0.9030966758728027
      ],
      [
        0.7783876061439514
      ],
      [
        -0.1790776401758194
      ],
      [
        0.06614309549331665
      ],
      [
        -2.6365065574645996
      ],
      [
        0.3762741982936859
      ],
      [
        0.36484506726264954
      ],
      [
        0.08330560475587845
      ],
      [
        0.0752016231417656
      ],
      [
        0.9658057689666748
      ],
      [
        1.1559767723083496
      ],
      [
        0.08049280196428299
      ],
      [
        -1.9671213626861572
      ],
      [
        -0.5189540386199951
      ],
      [
        -1.247098445892334
      ],
      [
        -0.6567813158035278
      ],
      [
        0.26567336916923523
      ],
      [
        -0.6736221313476562
      ],
      [
        0.44784408807754517
      ],
      [
        0.35289764404296875
      ],
      [
        1.2374144792556763
      ],
      [
        2.2889695167541504
      ],
      [
        -1.8454509973526
      ],
      [
        -1.2629045248031616
      ],
      [
        2.102491855621338
      ],
      [
        -1.4651215076446533
      ],
      [
        -0.5827537775039673
      ],
      [
        -0.6123205423355103
      ],
      [
        0.0652729794383049
      ],
      [
        -0.7286974191665649
      ],
      [
        0.029082374647259712
      ],
      [
        -0.892250657081604
      ],
      [
        0.15213924646377563
      ],
      [
        0.941241979598999
      ],
      [
        -1.364490032196045
      ],
      [
        0.780546247959137
      ],
      [
        -0.26698818802833557
      ],
      [
        -1.8410265445709229
      ],
      [
        2.5029165744781494
      ],
      [
        -1.5269438028335571
      ],
      [
        0.6152070164680481
      ],
      [
        0.5407662987709045
      ],
      [
        0.4321044087409973
      ],
      [
        1.272405743598938
      ],
      [
        1.0109339952468872
      ],
      [
        0.2878529727458954
      ],
      [
        -0.10989844799041748
      ],
      [
        0.43109121918678284
      ],
      [
        1.0548360347747803
      ],
      [
        -0.06878267228603363
      ],
      [
        -2.106827974319458
      ],
      [
        2.1229615211486816
      ],
      [
        -1.841221809387207
      ],
      [
        -0.20305906236171722
      ],
      [
        1.1802771091461182
      ],
      [
        0.7364853024482727
      ],
      [
        -0.6288922429084778
      ],
      [
        1.1797443628311157
      ],
      [
        -0.26990610361099243
      ],
      [
        -1.598214864730835
      ],
      [
        1.677596926689148
      ],
      [
        -0.9808123707771301
      ],
      [
        0.7548375129699707
      ],
      [
        -0.1435512751340866
      ],
      [
        0.0430891215801239
      ],
      [
        0.8300802111625671
      ],
      [
        -0.2278633713722229
      ],
      [
        -1.4619635343551636
      ],
      [
        -0.34746259450912476
      ],
      [
        0.45566800236701965
      ],
      [
        -0.14963503181934357
      ],
      [
        0.8490906357765198
      ],
      [
        0.8924320936203003
      ],
      [
        -2.708582878112793
      ],
      [
        -1.62103271484375
      ],
      [
        -1.2897636890411377
      ],
      [
        -0.9809423089027405
      ],
      [
        2.0202934741973877
      ],
      [
        -4.553864479064941
      ],
      [
        -12.273386001586914
      ],
      [
        -0.5069540739059448
      ],
      [
        -0.31487059593200684
      ],
      [
        -0.15391720831394196
      ],
      [
        -0.580522894859314
      ],
      [
        -1.0452430248260498
      ],
      [
        -7.830031871795654
      ],
      [
        -0.3225354552268982
      ],
      [
        -2.3772733211517334
      ],
      [
        -0.5853875875473022
      ],
      [
        -0.4924905300140381
      ],
      [
        8.076797485351562
      ],
      [
        -10.468647003173828
      ],
      [
        2.7795419692993164
      ],
      [
        0.3943513333797455
      ],
      [
        -1.380222201347351
      ],
      [
        -4.270489692687988
      ],
      [
        -0.07203131914138794
      ],
      [
        -1.0356143712997437
      ],
      [
        0.8812715411186218
      ],
      [
        0.6556734442710876
      ],
      [
        2.160738706588745
      ],
      [
        6.969593048095703
      ],
      [
        -1.646329402923584
      ],
      [
        -0.639746904373169
      ],
      [
        2.2132043838500977
      ],
      [
        -2.1635496616363525
      ],
      [
        -2.4481160640716553
      ],
      [
        0.7442238926887512
      ],
      [
        1.1540247201919556
      ],
      [
        -1.425453782081604
      ],
      [
        1.0375031232833862
      ],
      [
        -0.8982054591178894
      ],
      [
        -0.2301195114850998
      ],
      [
        3.983405113220215
      ],
      [
        -1.44352388381958
      ],
      [
        -0.8952994346618652
      ],
      [
        -1.0559499263763428
      ],
      [
        -2.1666817665100098
      ],
      [
        3.424611806869507
      ],
      [
        22.474517822265625
      ],
      [
        1.1615662574768066
      ],
      [
        1.4755759239196777
      ],
      [
        -0.37890714406967163
      ],
      [
        0.15932245552539825
      ],
      [
        -1.2942509651184082
      ],
      [
        -0.28318682312965393
      ],
      [
        -0.010124105028808117
      ],
      [
        2.255781650543213
      ],
      [
        0.8971638679504395
      ],
      [
        -0.13112570345401764
      ],
      [
        2.6646244525909424
      ],
      [
        0.9889957308769226
      ],
      [
        -2.7714412212371826
      ],
      [
        1.280206561088562
      ],
      [
        0.7638237476348877
      ],
      [
        0.46426334977149963
      ],
      [
        2.8849985599517822
      ]
    ],
    "rec.weight_hh_l0": [
      [
        -0.6847615242004395,
        -0.33285361528396606,
        -0.12489277869462967,
        -0.25724634528160095,
        -0.14114367961883545,
        0.9161569476127625,
        -0.15271128714084625,
        -0.6504946351051331,
        -0.34373483061790466,
        -0.7235159277915955,
        0.635672390460968,
        -0.6356616616249084,
        0.6568450927734375,
        -0.17619569599628448,
        0.48524805903434753,
        -0.530342698097229,
        0.807412326335907,
        -0.6721789240837097,
        -0.5427182912826538,
        0.0539613775908947,
        -0.9515733122825623,
        0.5623198747634888,
        0.2842482328414917,
        0.2531943619251251,
        -0.8556261658668518,
        -0.1069239154458046,
        0.331805944442749,
        -0.9153958559036255,
        -0.20035573840141296,
        0.15714459121227264,
        0.1345089077949524,
        0.40089794993400574,
        0.08548169583082199,
        -0.4225492477416992,
        0.1272246539592743,
        0.3682304322719574,
        0.0072268336080014706,
        -0.4920307993888855,
        0.015500056557357311,
        1.1170159578323364
      ],
      [
        -0.3577638566493988,
        -0.405512273311615,
        -0.03713688254356384,
        0.3189188539981842,
        -0.4662059545516968,
        0.28304293751716614,
        -0.15996353328227997,
        0.13095317780971527,
        -0.6157553791999817,
        0.5330597758293152,
        -0.07443759590387344,
        0.399178147315979,
        -0.3641880750656128,
        0.08787707984447479,
        0.02942764200270176,
        -0.2466590702533722,
        0.4574550688266754,
        -0.41913336515426636,
        0.013917399570345879,
        0.26890191435813904,
        -0.11740816384553909,
        0.34590810537338257,
        -0.9928387403488159,
        0.6627338528633118,
        -0.3641105592250824,
        0.20761342346668243,
        0.2729324996471405,
        -0.1926031857728958,
        -0.013516274280846119,
        -0.23682165145874023,
        0.029075423255562782,
        -0.09463930130004883,
        0.27795955538749695,
        0.04608725756406784,
        -0.7481153011322021,
        0.4810344874858856,
        -0.21059130132198334,
        -0.3699895441532135,
        0.5797101259231567,
        -0.10829748213291168
      ],
      [
        0.321637898683548,
        -0.4593614339828491,
        -1.032366394996643,
        1.0193616151809692,
        2.175800085067749,
        -0.005516147240996361,
        -0.34302595257759094,
        0.06339587271213531,
        -0.5219781398773193,
        0.18677332997322083,
        -0.23922476172447205,
        -0.3266221880912781,
        0.00581006845459342,
        0.27156415581703186,
        0.22248059511184692,
        -0.044917088001966476,
        2.4470205307006836,
        -0.052108775824308395,
        -0.6655833125114441,
        0.005104953423142433,
        0.795826256275177,
        0.548797070980072,
        -2.269181489944458,
        -0.43785127997398376,
        0.3820408284664154,
        0.1241895779967308,
        0.6927812695503235,
        0.4534623324871063,
        -1.670497179031372,
        0.44804367423057556,
        -1.3214166164398193,
        -0.8163148164749146,
        0.24588428437709808,
        0.6885510683059692,
        -1.3399182558059692,
        1.4807323217391968,
        1.2511028051376343,
        -0.46257293224334717,
        -0.5162107348442078,
        0.8446735143661499
      ],
      [
        0.549892783164978,
        -0.28389978408813477,
        -0.8615204691886902,
        -0.7993904948234558,
        1.0050766468048096,
        0.08938956260681152,
        0.08449972420930862,
        -0.04933115839958191,
        -0.25871542096138,
        0.1524503380060196,
        -0.5403793454170227,
        -0.18120597302913666,
        0.6028931736946106,
        -0.7707785367965698,
        0.24790720641613007,
        0.585438072681427,
        0.9533308744430542,
        0.4793718755245209,
        -0.29934871196746826,
        0.0918680801987648,
        -0.4921744763851166,
        -1.255879521369934,
        0.023695196956396103,
        -0.8981706500053406,
        -0.8665810823440552,
        0.0008830777369439602,
        0.8735247254371643,
        -0.037669211626052856,
        -0.15426702797412872,
        0.02837292104959488,
        -0.8300808072090149,
        -0.632695734500885,
        0.033176541328430176,
        0.3872016966342926,
        -0.4962051212787628,
        -0.5486717224121094,
        -0.0638592466711998,
        -1.0629189014434814,
        -0.008274532854557037,
        1.1412290334701538
      ],
      [
        0.47378259897232056,
        -0.6290908455848694,
        0.005419778171926737,
        0.3745104670524597,
        1.4271866083145142,
        0.1671302616596222,
        0.05436725541949272,
        -0.1172078400850296,
        0.265853613615036,
        0.5192619562149048,
        -0.44948646426200867,
        0.5339945554733276,
        -0.2732817232608795,
        -0.4866410791873932,
        0.13998925685882568,
        -0.0214663315564394,
        0.44566601514816284,
        0.10131119191646576,
        0.12336511164903641,
        0.24865391850471497,
        0.09147598594427109,
        0.9982512593269348,
        -0.45203933119773865,
        -0.7877969741821289,
        0.15068821609020233,
        -0.38767942786216736,
        1.0005433559417725,
        -1.0552254915237427,
        -4.233696937561035,
        0.44477564096450806,
        -0.8874191045761108,
        -0.29467374086380005,
        0.17508558928966522,
        0.5401033163070679,
        -3.0008111000061035,
        1.063019037246704,
        -0.6250746250152588,
        0.1280452162027359,
        -1.4195690155029297,
        0.3938465416431427
      ],
      [
        -0.22336828708648682,
        0.06119329109787941,
        0.13613830506801605,
        0.13405919075012207,
        -0.3837963044643402,
        -0.04540752246975899,
        0.09916477650403976,
        0.1758623719215393,
        -0.11954212933778763,
        0.3303357660770416,
        -0.14306262135505676,
        0.2674364745616913,
        -0.18216215074062347,
        -0.1997281312942505,
        0.6638357639312744,
        -0.03580465540289879,
        0.20586828887462616,
        0.15328349173069,
        0.1569148451089859,
        0.29128482937812805,
        -0.3018721342086792,
        -0.09779153764247894,
        -0.09027751535177231,
        0.291792094707489,
        0.09294500201940536,
        0.07434763759374619,
        0.8015069365501404,
        -0.3599904775619507,
        2.655871629714966,
        -0.3277219235897064,
        -0.46721068024635315,
        0.1633952111005783,
        -0.06797424703836441,
        -0.26039496064186096,
        -0.007651440799236298,
        0.3499744236469269,
        -0.09365308284759521,
        0.12004977464675903,
        0.27722692489624023,
        0.5817578434944153
      ],
      [
        -0.33430635929107666,
        -0.003996635787189007,
        -0.4831649959087372,
        0.6797885894775391,
        -0.5382615923881531,
        -0.5627212524414062,
        0.041887011379003525,
        -0.6493386030197144,
        0.12352896481752396,
        -0.40324053168296814,
        0.621816873550415,
        -0.3780864179134369,
        0.9755182862281799,
        0.7415726780891418,
        0.433721661567688,
        -0.28905943036079407,
        0.10067279636859894,
        -0.0411338210105896,
        0.37657174468040466,
        -0.03263029083609581,
        -0.24202565848827362,
        -1.1287204027175903,
        -0.6298556923866272,
        0.11492887884378433,
        -0.3244827389717102,
        -0.06535784155130386,
        0.10195216536521912,
        -0.9864550232887268,
        -1.4349008798599243,
        0.35524654388427734,
        -0.3253726661205292,
        0.6254585385322571,
        0.49405908584594727,
        1.0647495985031128,
        -0.9433810114860535,
        0.742843508720398,
        0.07452987134456635,
        0.3368069529533386,
        -0.5389676094055176,
        -0.07126995921134949
      ],
      [
        0.06775780767202377,
        0.3407403528690338,
        0.24465779960155487,
        -0.4935360848903656,
        2.0513925552368164,
        0.6379378437995911,
        0.04210549592971802,
        -0.3881085515022278,
        -0.5853937268257141,
        0.26240700483322144,
        -0.21482931077480316,
        0.7139788866043091,
        0.3179735243320465,
        -0.01195632666349411,
        0.020471474155783653,
        -0.19866126775741577,
        0.015453733503818512,
        -0.21743498742580414,
        -0.2676170766353607,
        -0.18996122479438782,
        0.10597243160009384,
        0.19115278124809265,
        1.0237139463424683,
        -0.29669901728630066,
        -0.7204425930976868,
        -0.2068091332912445,
        0.2304646223783493,
        0.5986820459365845,
        -1.3073704242706299,
        0.3222639560699463,
        -0.5278502106666565,
        0.6142210364341736,
        -0.03680914640426636,
        0.5721659660339355,
        -1.153403401374817,
        0.3775646686553955,
        -0.06116435304284096,
        -0.24829792976379395,
        -0.5832080245018005,
        0.45211008191108704
      ],
      [
        0.21338078379631042,
        -0.24400608241558075,
        0.3292984962463379,
        0.38813477754592896,
        -0.036404285579919815,
        -0.15208891034126282,
        -0.3272170424461365,
        -0.08063691854476929,
        0.10299912840127945,
        -0.2525365352630615,
        0.22022347152233124,
        -0.23087558150291443,
        0.3469875752925873,
        -0.7097084522247314,
        -0.25736773014068604,
        0.34976857900619507,
        0.46262872219085693,
        0.6141257882118225,
        -0.6791071891784668,
        -0.2996014952659607,
        -0.19637195765972137,
        -0.29798272252082825,
        0.06703673303127289,
        -0.4902961552143097,
        -0.32617446780204773,
        0.31351596117019653,
        0.5936083793640137,
        0.8508920073509216,
        1.946776270866394,
        0.7221726775169373,
        0.16090834140777588,
        0.07794293761253357,
        0.01695217378437519,
        -0.7564786076545715,
        0.27746695280075073,
        0.27067938446998596,
        0.11451531946659088,
        -0.8385425806045532,
        0.3957838714122772,
        0.1757172793149948
      ],
      [
        -0.2733618915081024,
        0.7555915713310242,
        0.4965594410896301,
        -0.3773498833179474,
        -0.34500569105148315,
        -0.28429293632507324,
        0.4252346456050873,
        -0.3204382061958313,
        -0.016866127029061317,
        0.8762533068656921,
        0.4671662747859955,
        -0.5018759369850159,
        0.7456727623939514,
        0.7292314767837524,
        -0.03546542301774025,
        -0.5834240317344666,
        -0.9247855544090271,
        0.46040740609169006,
        0.5811668038368225,
        0.6482971906661987,
        0.047753896564245224,
        0.9274386763572693,
        1.2070904970169067,
        -0.1165158823132515,
        0.1036764532327652,
        -0.1823616474866867,
        -0.20366913080215454,
        -0.3749801516532898,
        2.257891893386841,
        0.6006821393966675,
        0.6825757026672363,
        -0.04539228603243828,
        0.1166699230670929,
        -1.2811590433120728,
        0.7769507765769958,
        -0.5113658905029297,
        1.1821467876434326,
        -0.2666437327861786,
        0.6271719336509705,
        -0.21332162618637085
      ],
      [
        0.5058712363243103,
        0.4636501371860504,
        0.06261362135410309,
        -0.04109835997223854,
        0.6126644015312195,
        -0.39710256457328796,
        0.025790128856897354,
        0.3898065686225891,
        0.33481085300445557,
        0.2307354211807251,
        -0.2168835997581482,
        -1.1256279945373535,
        0.4939741790294647,
        -0.797005832195282,
        -0.4850466549396515,
        0.5552778244018555,
        -0.15560859441757202,
        0.4084113836288452,
        -0.5941783785820007,
        -0.859480619430542,
        0.18394751846790314,
        0.0280181672424078,
        0.20711387693881989,
        -0.4149898588657379,
        0.6044866442680359,
        0.4020020365715027,
        0.1770523637533188,
        -0.1698635220527649,
        0.30145347118377686,
        0.6995837688446045,
        -0.04980025440454483,
        -0.5068753957748413,
        -0.640480101108551,
        0.21907652914524078,
        -0.34698665142059326,
        -0.5750269293785095,
        1.0878652334213257,
        -0.156633660197258,
        0.3912014067173004,
        -1.3309648036956787
      ],
      [
        -0.25983142852783203,
        -0.2160664051771164,
        1.523802638053894,
        -0.0015261247754096985,
        0.3675505220890045,
        0.7781816720962524,
        0.24075114727020264,
        0.5799648761749268,
        -0.36181771755218506,
        -0.03207452967762947,
        -0.5477412343025208,
        0.31937548518180847,
        0.802416980266571,
        0.03322760388255119,
        -0.7314139008522034,
        -0.07190728187561035,
        0.094052255153656,
        1.0252076387405396,
        -0.2207953780889511,
        -0.2143537402153015,
        -0.7038922309875488,
        -1.3581547737121582,
        0.03678363934159279,
        -0.3018442988395691,
        -0.452779084444046,
        -0.24764741957187653,
        -0.0027756127528846264,
        -1.0452054738998413,
        0.22372199594974518,
        0.42703309655189514,
        0.5126664042472839,
        0.139018714427948,
        -0.23285220563411713,
        -0.7464035749435425,
        -0.8574234843254089,
        0.546565055847168,
        0.17488831281661987,
        0.0486629419028759,
        -0.09765323996543884,
        -0.0920243114233017
      ],
      [
        0.14185114204883575,
        0.2926118075847626,
        0.003648320445790887,
        0.3999982476234436,
        -0.007643577177077532,
        0.1336972862482071,
        -0.26942169666290283,
        -0.3413739502429962,
        -0.09885046631097794,
        -0.07753118127584457,
        0.003996983170509338,
        0.24407073855400085,
        0.2779795229434967,
        -0.024158954620361328,
        -0.29692864418029785,
        -0.12426909059286118,
        0.883069634437561,
        0.2150839865207672,
        -0.7577716708183289,
        -0.024523235857486725,
        -0.3242858350276947,
        0.41109201312065125,
        -0.6702006459236145,
        0.785004198551178,
        -1.0204719305038452,
        -0.380805104970932,
        0.681250274181366,
        0.9251764416694641,
        -0.04000828415155411,
        0.28106725215911865,
        -0.29189038276672363,
        1.063417673110962,
        -0.11248685419559479,
        -0.33290043473243713,
        -0.0072644432075321674,
        -0.30073365569114685,
        -0.35059380531311035,
        -0.027415109798312187,
        0.024578237906098366,
        0.7303771376609802
      ],
      [
        0.29400086402893066,
        0.13404633104801178,
        -0.045175161212682724,
        -0.2763729989528656,
        -0.025611361488699913,
        -0.3145833909511566,
        0.217144176363945,
        -0.38305938243865967,
        0.39819422364234924,
        -0.2662378251552582,
        -0.2807612121105194,
        -0.0205648485571146,
        0.3723772466182709,
        -0.03877084329724312,
        0.5006729960441589,
        0.29691073298454285,
        0.0437021404504776,
        -0.600623369216919,
        0.10363318026065826,
        -0.09423384815454483,
        0.008493570610880852,
        -0.0369521789252758,
        0.1713293194770813,
        0.398009717464447,
        -1.0062729120254517,
        -0.4587564766407013,
        0.41355112195014954,
        -0.18415606021881104,
        -0.9760733246803284,
        -0.46838682889938354,
        -0.024263817816972733,
        0.018795974552631378,
        0.05868418142199516,
        0.7590860724449158,
        -0.5227048993110657,
        -0.06849946081638336,
        0.661607563495636,
        0.34384551644325256,
        -0.862973153591156,
        -0.2380075305700302
      ],
      [
        0.12817217409610748,
        -0.2841779291629791,
        0.03194312006235123,
        0.40716326236724854,
        -0.2492092102766037,
        0.36681291460990906,
        -0.6734308004379272,
        -0.3284893333911896,
        -0.18195199966430664,
        0.09055406600236893,
        0.3291250467300415,
        0.036721158772706985,
        0.1713714748620987,
        0.5383068323135376,
        -0.39304274320602417,
        0.1480686515569687,
        -0.40544992685317993,
        0.29702407121658325,
        -0.5198169946670532,
        0.4073169529438019,
        -0.36563053727149963,
        0.17431217432022095,
        -0.9674564599990845,
        -0.2744816839694977,
        0.52869713306427,
        -0.09311667829751968,
        0.1971244066953659,
        1.2803360223770142,
        -0.6221092343330383,
        0.34300336241722107,
        -0.037371933460235596,
        0.1657230108976364,
        -0.022185184061527252,
        0.4527052342891693,
        0.5443547964096069,
        0.8202611207962036,
        0.8107799291610718,
        0.17164009809494019,
        -0.4337003529071808,
        -0.30253034830093384
      ],
      [
        -0.08610869199037552,
        -0.2241826206445694,
        0.2022857517004013,
        0.5138022899627686,
        -0.6737430691719055,
        -0.10437464714050293,
        -0.574149489402771,
        0.022553440183401108,
        0.29662612080574036,
        -0.2844352424144745,
        -0.5245317220687866,
        0.2225874811410904,
        -0.5578084588050842,
        -0.3390234112739563,
        0.25843751430511475,
        0.07101070880889893,
        -0.06840192526578903,
        0.41720789670944214,
        -0.6151578426361084,
        -0.20155151188373566,
        -1.0042619705200195,
        -0.07128671556711197,
        -1.0773290395736694,
        0.2557255029678345,
        -0.4074605405330658,
        0.44276055693626404,
        0.7161259651184082,
        0.046800822019577026,
        -0.30285388231277466,
        -0.21717867255210876,
        -0.2593853771686554,
        0.31961891055107117,
        -0.18687686324119568,
        0.29120707511901855,
        -0.47795090079307556,
        0.12368321418762207,
        0.2340453714132309,
        -0.3459123969078064,
        -0.7052941918373108,
        0.1996346265077591
      ],
      [
        0.6681196689605713,
        0.08355284482240677,
        0.40585896372795105,
        -0.12111301720142365,
        0.18698136508464813,
        -0.373411625623703,
        -0.2724250257015228,
        0.13468725979328156,
        -0.21539095044136047,
        0.22905974090099335,
        0.3268623650074005,
        -0.36473748087882996,
        0.6660119295120239,
        0.0944058746099472,
        -0.22274528443813324,
        0.0712047666311264,
        0.37044280767440796,
        0.2507787346839905,
        -0.2998764216899872,
        -0.13846690952777863,
        0.4214780628681183,
        -0.7468178272247314,
        0.053028568625450134,
        -1.0623937845230103,
        -0.22471307218074799,
        -0.23081205785274506,
        -0.262032151222229,
        -1.6194568872451782,
        -1.153398036956787,
        0.5507395267486572,
        -0.42500242590904236,
        -0.6553640365600586,
        -0.026747731491923332,
        1.4112356901168823,
        -0.6934375166893005,
        -0.11384262144565582,
        -0.0737595185637474,
        -0.16869762539863586,
        -0.5651873350143433,
        1.09536874294281
      ],
      [
        0.5336607098579407,
        0.35418593883514404,
        -0.9035629034042358,
        -0.34906262159347534,
        0.4084756374359131,
        -0.5989990234375,
        -0.3175697922706604,
        -0.11840476840734482,
        0.4867164194583893,
        -0.037684060633182526,
        -0.40641459822654724,
        -1.0246021747589111,
        0.09668592363595963,
        0.04314737021923065,
        -0.12182912230491638,
        0.19142888486385345,
        0.3449980616569519,
        0.37525060772895813,
        -0.4543021619319916,
        -0.12691737711429596,
        0.06961430609226227,
        0.5830234885215759,
        0.7794187068939209,
        -0.5438349843025208,
        0.25196489691734314,
        0.018690692260861397,
        0.30697107315063477,
        -0.37195029854774475,
        -0.48729702830314636,
        0.24913574755191803,
        -0.3151606321334839,
        0.19513513147830963,
        -0.1500864326953888,
        0.39247170090675354,
        0.0003350727492943406,
        -0.7806283235549927,
        0.18005505204200745,
        0.049000270664691925,
        0.0004453039146028459,
        -0.2749641239643097
      ],
      [
        -0.14281056821346283,
        0.10150432586669922,
        -0.9353815317153931,
        -0.015506083145737648,
        0.5126096606254578,
        -0.2519313395023346,
        -0.053965117782354355,
        -0.31945446133613586,
        1.45163094997406,
        -0.05160878598690033,
        -0.18265068531036377,
        -0.535950243473053,
        0.3626125156879425,
        0.16470810770988464,
        0.24490608274936676,
        -0.2852819859981537,
        0.1443444788455963,
        -0.11947647482156754,
        0.05164234712719917,
        0.01066832710057497,
        0.5926023721694946,
        1.4512349367141724,
        0.27182289958000183,
        -1.071365475654602,
        -0.03391435742378235,
        0.07263696938753128,
        0.21235404908657074,
        -0.14433331787586212,
        0.13859325647354126,
        0.07158586382865906,
        -0.7388206124305725,
        -0.6274043321609497,
        0.17462192475795746,
        -0.45223748683929443,
        0.7437265515327454,
        -0.3546585142612457,
        -0.11385124176740646,
        0.03718571364879608,
        1.0758583545684814,
        -0.5758093595504761
      ],
      [
        0.008552182465791702,
        -0.31629127264022827,
        0.4739828109741211,
        -0.07043693959712982,
        -0.6229153871536255,
        0.09344808757305145,
        -0.6396474242210388,
        0.47199150919914246,
        0.020354770123958588,
        -0.06860432773828506,
        -0.33385220170021057,
        -0.24551226198673248,
        -0.5875779986381531,
        -0.5024186968803406,
        -0.6160983443260193,
        -0.16042783856391907,
        0.06402257084846497,
        0.328705370426178,
        -0.3441013693809509,
        0.05216185003519058,
        -0.3989407420158386,
        -0.05333631858229637,
        -0.4287455081939697,
        -0.23196735978126526,
        0.03059966303408146,
        0.2200089693069458,
        -0.3941597640514374,
        0.09817477315664291,
        -0.38642778992652893,
        0.29303261637687683,
        -0.10213587433099747,
        0.37417224049568176,
        -0.6723262667655945,
        0.074434295296669,
        -0.3867723047733307,
        0.19685962796211243,
        0.7559396028518677,
        -0.29277127981185913,
        0.42326632142066956,
        0.7576385736465454
      ],
      [
        0.0019008911913260818,
        0.2797742187976837,
        -0.01159445196390152,
        -0.35291236639022827,
        1.3392740488052368,
        -0.3791760206222534,
        0.06631706655025482,
        0.2462841123342514,
        -0.1875152587890625,
        0.046347640454769135,
        0.20930008590221405,
        0.10043378919363022,
        -0.06619739532470703,
        -0.2149522602558136,
        -0.07940421998500824,
        0.08444024622440338,
        0.9922907948493958,
        -0.24883604049682617,
        -0.08221277594566345,
        -0.07082471996545792,
        0.230599045753479,
        0.2122165709733963,
        0.7320495247840881,
        0.37566012144088745,
        0.4929724931716919,
        0.18423229455947876,
        0.32026153802871704,
        -1.1831912994384766,
        0.8509225845336914,
        -0.47407373785972595,
        -0.8603772521018982,
        -0.2206725925207138,
        -0.20826002955436707,
        -0.7506833076477051,
        1.362115740776062,
        -0.5430687069892883,
        -0.14222227036952972,
        -0.1808241456747055,
        1.0832661390304565,
        -0.2645266652107239
      ],
      [
        0.528113603591919,
        0.19961710274219513,
        -1.4269851446151733,
        -0.6671357750892639,
        0.6456907391548157,
        0.44792571663856506,
        -0.18024636805057526,
        0.6583507657051086,
        0.1991894692182541,
        0.4631710350513458,
        -0.27837198972702026,
        -0.7581872940063477,
        0.26987364888191223,
        -0.13713625073432922,
        -0.5134953856468201,
        0.13700509071350098,
        0.6310016512870789,
        -0.21159537136554718,
        -0.585710346698761,
        0.6492601037025452,
        0.7723819017410278,
        0.15463344752788544,
        -0.30473533272743225,
        -0.962984025478363,
        -0.29266563057899475,
        -0.028428170830011368,
        0.0968303382396698,
        0.46305719017982483,
        1.2703337669372559,
        0.2576124966144562,
        -2.256655216217041,
        -0.5990213751792908,
        0.02066539227962494,
        -1.1225931644439697,
        0.9530832171440125,
        -0.6770966649055481,
        0.8979312777519226,
        0.5563958883285522,
        1.5868467092514038,
        -0.20022690296173096
      ],
      [
        0.8468614816665649,
        -0.760539174079895,
        1.3664512634277344,
        1.3931978940963745,
        2.5413455963134766,
        1.0353795289993286,
        0.4491097331047058,
        -0.553337574005127,
        -2.509347677230835,
        2.252859354019165,
        0.5985857248306274,
        0.46403059363365173,
        0.06726905703544617,
        -1.2889052629470825,
        0.2207392454147339,
        -0.6489275693893433,
        0.5146551132202148,
        -1.2578376531600952,
        -0.3736535310745239,
        0.6763709187507629,
        -2.8786792755126953,
        -2.8275606632232666,
        3.5356650352478027,
        0.4410034418106079,
        -1.682928442955017,
        -0.3091470003128052,
        0.7160544395446777,
        -0.6757451891899109,
        0.3474363386631012,
        1.0927625894546509,
        0.08533937484025955,
        0.8055068254470825,
        0.3187236487865448,
        -0.9699902534484863,
        0.9620192050933838,
        -0.05004216358065605,
        0.557348906993866,
        0.5742552280426025,
        1.0057488679885864,
        3.057543992996216
      ],
      [
        0.3967475891113281,
        -0.3411531150341034,
        -0.251260906457901,
        0.5686936974525452,
        0.46603095531463623,
        0.6537137627601624,
        -0.20201057195663452,
        0.08254006505012512,
        -0.08127065747976303,
        -0.25515666604042053,
        -0.04946446791291237,
        -0.41494080424308777,
        -0.030086014419794083,
        -0.10521723330020905,
        0.20379550755023956,
        -0.23739024996757507,
        1.410692811012268,
        0.21237456798553467,
        -0.2332574874162674,
        -0.10127100348472595,
        -0.3519880175590515,
        0.7031821012496948,
        -0.49350857734680176,
        0.002790763508528471,
        -0.07206220924854279,
        -0.330051064491272,
        0.28194695711135864,
        -0.16971340775489807,
        -1.3266124725341797,
        0.6611285209655762,
        -0.5158385038375854,
        -0.11392738670110703,
        -0.11433983594179153,
        0.5710272789001465,
        -0.4359430968761444,
        0.045400556176900864,
        0.26361051201820374,
        -0.4982898235321045,
        -0.09730248898267746,
        0.4961509108543396
      ],
      [
        -0.8701279759407043,
        0.7498336434364319,
        -0.9703149795532227,
        0.6098530292510986,
        0.49199721217155457,
        -0.5398538708686829,
        1.0918991565704346,
        -0.6779248118400574,
        -0.8201929330825806,
        1.0807989835739136,
        0.09822986274957657,
        0.16895851492881775,
        0.22448134422302246,
        0.6684701442718506,
        0.4794367253780365,
        -0.471761018037796,
        -0.2989570200443268,
        -0.6044517755508423,
        0.3703000247478485,
        0.6664401292800903,
        0.9433087706565857,
        0.17314979434013367,
        -0.28915223479270935,
        1.2691540718078613,
        -0.2588014006614685,
        -0.9103314876556396,
        -0.15759152173995972,
        0.007422885857522488,
        -0.09192784130573273,
        -1.0208321809768677,
        0.010868302546441555,
        1.5049034357070923,
        0.5931742787361145,
        0.9557140469551086,
        -0.35949504375457764,
        0.2530673146247864,
        -0.7043224573135376,
        1.265896201133728,
        -0.44975852966308594,
        0.09020470082759857
      ],
      [
        0.07108905166387558,
        -0.14359544217586517,
        0.1697193831205368,
        -0.14514724910259247,
        -0.4460125267505646,
        -0.11540444940328598,
        0.15272100269794464,
        0.5610554218292236,
        0.20738078653812408,
        -0.6167348623275757,
        0.24568381905555725,
        0.10737217962741852,
        -0.3691597580909729,
        0.19391007721424103,
        -0.058353912085294724,
        0.1636047065258026,
        -0.09262824803590775,
        0.16473408043384552,
        -0.19177290797233582,
        -0.09305527806282043,
        -0.4152129888534546,
        -0.4390191435813904,
        -0.5677672028541565,
        0.10167324542999268,
        0.4579654932022095,
        -0.5719004273414612,
        0.17088820040225983,
        0.3873145282268524,
        0.7387325763702393,
        -0.019690297544002533,
        -0.8325793147087097,
        -0.00951564684510231,
        0.3045811653137207,
        0.24906913936138153,
        -0.7458213567733765,
        -0.6251238584518433,
        0.14957818388938904,
        -0.0863560289144516,
        0.3843629062175751,
        -0.19750186800956726
      ],
      [
        -0.9685725569725037,
        0.650499165058136,
        -0.003972028847783804,
        0.4326377213001251,
        -0.29165133833885193,
        -0.9081007242202759,
        0.6253513693809509,
        0.10816624015569687,
        -0.851188600063324,
        1.646549105644226,
        -0.24584567546844482,
        -0.37899643182754517,
        -0.2675037682056427,
        0.4919881224632263,
        0.30723777413368225,
        -0.26235586404800415,
        -0.8786092400550842,
        -0.37986311316490173,
        0.8668791651725769,
        0.637090802192688,
        0.20808181166648865,
        -0.8868462443351746,
        0.20790553092956543,
        0.3206157386302948,
        0.1897246539592743,
        -0.1727551966905594,
        0.6188986301422119,
        -0.14186055958271027,
        -0.7149339318275452,
        -1.072088599205017,
        -0.5448123812675476,
        0.800355076789856,
        0.4857538640499115,
        0.7568526268005371,
        0.4774850010871887,
        -0.26655256748199463,
        -0.6994132995605469,
        0.47053053975105286,
        -1.0455694198608398,
        -0.2740400433540344
      ],
      [
        -0.26613572239875793,
        -0.5568572878837585,
        -0.9217005968093872,
        -0.3794333338737488,
        -0.7055124044418335,
        -0.03417930379509926,
        0.6008408665657043,
        -0.23178759217262268,
        -1.2099899053573608,
        0.48342165350914,
        0.8750314712524414,
        0.032752469182014465,
        0.41377687454223633,
        1.0060654878616333,
        0.1744827926158905,
        -0.18067379295825958,
        -0.04418995603919029,
        -0.173496812582016,
        0.25892841815948486,
        0.42835476994514465,
        0.5462721586227417,
        1.4979488849639893,
        0.11469443142414093,
        -0.18445421755313873,
        -0.14072628319263458,
        -0.44101014733314514,
        0.3931151032447815,
        0.007904586382210255,
        1.4119155406951904,
        -0.2507072985172272,
        0.5051605105400085,
        -0.19010329246520996,
        0.6354761719703674,
        -0.3375334143638611,
        -0.4812268018722534,
        0.9966892004013062,
        -0.7927794456481934,
        -0.23126235604286194,
        0.035019878298044205,
        -0.3032102584838867
      ],
      [
        -0.17227745056152344,
        -2.7722558975219727,
        -0.5475242733955383,
        4.887936592102051,
        2.19118332862854,
        2.601590633392334,
        -0.7302365303039551,
        -0.6950753927230835,
        -1.5095710754394531,
        1.2207285165786743,
        -0.9504708051681519,
        1.1779323816299438,
        -0.011034269817173481,
        1.3783479928970337,
        -2.6799399852752686,
        -0.453073650598526,
        1.710153579711914,
        0.8984668850898743,
        -2.7448174953460693,
        1.2471147775650024,
        -1.5629316568374634,
        0.32832980155944824,
        -2.085343599319458,
        -1.1702948808670044,
        -0.6490300893783569,
        -0.14608711004257202,
        0.22035428881645203,
        -2.0907795429229736,
        -0.26090627908706665,
        2.459404706954956,
        -1.7793081998825073,
        -0.16085831820964813,
        1.47708261013031,
        2.4370102882385254,
        -2.171243190765381,
        0.05069639906287193,
        0.39629095792770386,
        -2.8250293731689453,
        1.3054425716400146,
        1.554056167602539
      ],
      [
        -0.46680983901023865,
        0.7014762163162231,
        -0.5557408332824707,
        0.1308029592037201,
        -0.25129663944244385,
        -0.7032791376113892,
        0.4118026793003082,
        -1.352028727531433,
        0.037935469299554825,
        0.5824969410896301,
        0.8995326161384583,
        0.12484648078680038,
        1.1880944967269897,
        0.6161404252052307,
        0.7781442403793335,
        -0.2574212849140167,
        -0.2873053252696991,
        -0.4680078327655792,
        0.6988288164138794,
        1.0048729181289673,
        0.20199525356292725,
        0.8198996186256409,
        0.15674197673797607,
        0.7049268484115601,
        -0.5780717730522156,
        -0.6417689323425293,
        -0.8694491982460022,
        -0.4560665786266327,
        -0.3820328414440155,
        0.6857909560203552,
        0.26315996050834656,
        1.147681713104248,
        1.0745909214019775,
        0.45261475443840027,
        0.3368436396121979,
        0.13450093567371368,
        -0.21244730055332184,
        1.0601590871810913,
        -0.15034300088882446,
        -0.02993178740143776
      ],
      [
        0.25147441029548645,
        -0.4858338534832001,
        -2.2793736457824707,
        -0.6769703030586243,
        2.471266746520996,
        0.5962749719619751,
        0.11055336892604828,
        -0.5426639318466187,
        0.6514327526092529,
        1.9372284412384033,
        -1.0335365533828735,
        0.1670340895652771,
        -0.07286910712718964,
        0.4819301664829254,
        -1.280882716178894,
        -0.2897825539112091,
        1.7268916368484497,
        0.4752281904220581,
        -0.17106077075004578,
        0.47979801893234253,
        0.0446847639977932,
        1.8121974468231201,
        -0.1431667059659958,
        0.3513082265853882,
        -0.098695307970047,
        0.18402384221553802,
        0.21465088427066803,
        0.41224396228790283,
        1.379686951637268,
        0.6880427598953247,
        -0.5778464674949646,
        0.5234987735748291,
        -0.09281449764966965,
        -0.7638482451438904,
        0.1436610221862793,
        0.07690569013357162,
        1.4896440505981445,
        0.5731803178787231,
        0.7726114988327026,
        0.5177911520004272
      ],
      [
        0.03297312557697296,
        0.20882542431354523,
        -0.03984201326966286,
        -0.6077749133110046,
        0.974371612071991,
        -0.07196580618619919,
        0.3590187132358551,
        -0.21940258145332336,
        -1.5519062280654907,
        -0.5402772426605225,
        0.4727426767349243,
        0.6040693521499634,
        -0.14598383009433746,
        -0.3456159830093384,
        0.2518864572048187,
        0.16907012462615967,
        1.3389344215393066,
        0.19019265472888947,
        -0.13881859183311462,
        -0.13039962947368622,
        -0.545143187046051,
        -0.2818937599658966,
        0.2731981873512268,
        0.9932141900062561,
        -0.9724867939949036,
        -0.22701740264892578,
        0.6375368237495422,
        -0.05980406701564789,
        -0.17523625493049622,
        -0.5335975289344788,
        -1.142740249633789,
        0.6333227753639221,
        0.047169409692287445,
        -0.27611079812049866,
        0.13657401502132416,
        -0.5543985366821289,
        0.32153499126434326,
        0.09800135344266891,
        0.0020566757302731276,
        1.1591103076934814
      ],
      [
        0.44209015369415283,
        -0.1486610621213913,
        0.47923585772514343,
        1.118809461593628,
        -0.5459186434745789,
        0.26721739768981934,
        0.22714777290821075,
        -0.26012152433395386,
        -0.1322147250175476,
        -0.23585404455661774,
        0.3897629678249359,
        0.46866950392723083,
        -0.1112174540758133,
        -0.10007940977811813,
        0.7362170219421387,
        0.43393823504447937,
        -0.07144258171319962,
        0.0165266040712595,
        -0.6358886361122131,
        -0.00497372355312109,
        -0.19371111690998077,
        -0.13273444771766663,
        -0.8977109789848328,
        -0.06011195108294487,
        -0.46051278710365295,
        -0.020850645378232002,
        0.43635472655296326,
        0.5997199416160583,
        -0.6723958253860474,
        0.39458227157592773,
        0.16498330235481262,
        0.3114410638809204,
        -0.8704848289489746,
        0.689382791519165,
        -0.19015656411647797,
        0.14876367151737213,
        1.2756459712982178,
        -0.5772209763526917,
        -0.5041387677192688,
        0.6066819429397583
      ],
      [
        1.1470364332199097,
        -1.360052466392517,
        -0.2651955187320709,
        0.6958085894584656,
        1.537113070487976,
        0.6554705500602722,
        -1.2021912336349487,
        -0.9443167448043823,
        -1.9508113861083984,
        0.09141246974468231,
        -0.7573254704475403,
        -0.529200553894043,
        0.7327418923377991,
        -0.7166086435317993,
        -0.4170766770839691,
        -0.05076649412512779,
        0.5124911665916443,
        1.043257474899292,
        -0.8862671852111816,
        0.6239103078842163,
        -1.203855276107788,
        -2.4699723720550537,
        -0.7332233786582947,
        -0.6117990016937256,
        -1.735379934310913,
        -1.3185830116271973,
        -0.5464226007461548,
        0.05344502255320549,
        0.3173459768295288,
        1.8637723922729492,
        -0.3988814949989319,
        -0.2974148094654083,
        0.15114657580852509,
        -0.2871799170970917,
        0.05682932212948799,
        0.49233895540237427,
        0.8417708873748779,
        -0.7574179172515869,
        -0.5944021344184875,
        1.1763378381729126
      ],
      [
        0.7744032144546509,
        -1.0704009532928467,
        0.6461931467056274,
        -1.4062767028808594,
        3.541567087173462,
        1.0454174280166626,
        -0.48880189657211304,
        -0.42052263021469116,
        -1.2508867979049683,
        0.9705796837806702,
        -1.1819120645523071,
        -1.5799506902694702,
        0.7831064462661743,
        -1.4110885858535767,
        -0.8343419432640076,
        -0.3385738134384155,
        2.029181718826294,
        0.0895276665687561,
        -1.121140718460083,
        0.08087097853422165,
        -0.17689698934555054,
        -0.537211537361145,
        0.7343788743019104,
        -0.5714185833930969,
        -1.8573652505874634,
        -0.591066300868988,
        -1.954824686050415,
        -0.3467298150062561,
        -1.626562476158142,
        1.1325011253356934,
        -0.194191113114357,
        0.1391059011220932,
        0.34728774428367615,
        0.8993611335754395,
        -0.9862943887710571,
        0.4851437211036682,
        1.3554259538650513,
        0.19593261182308197,
        -0.8529163002967834,
        1.6444146633148193
      ],
      [
        0.5957584977149963,
        -0.28665220737457275,
        0.32825154066085815,
        1.3283711671829224,
        1.4684748649597168,
        0.5224769115447998,
        -0.07752054929733276,
        -0.7949130535125732,
        -0.773715078830719,
        0.5939023494720459,
        -0.2338937669992447,
        0.4563649594783783,
        0.5489305853843689,
        0.33853378891944885,
        0.09322497248649597,
        0.25523751974105835,
        0.8304462432861328,
        0.24787235260009766,
        0.13810043036937714,
        -0.285949170589447,
        -0.9731482267379761,
        -1.096397876739502,
        -5.634265899658203,
        0.6059023141860962,
        -1.4143095016479492,
        -0.2669650614261627,
        -0.011346940882503986,
        -0.29521501064300537,
        -1.3013803958892822,
        0.38944709300994873,
        -0.860731303691864,
        0.31138041615486145,
        0.0410623736679554,
        1.1790920495986938,
        -1.6957532167434692,
        2.380033016204834,
        1.2788572311401367,
        -0.18488270044326782,
        -0.6426408290863037,
        0.033202238380908966
      ],
      [
        1.3505182266235352,
        -0.7372669577598572,
        -0.5128632187843323,
        2.4919228553771973,
        1.3190479278564453,
        0.898419976234436,
        -0.4534461796283722,
        -0.605088472366333,
        0.11659859865903854,
        0.5186029672622681,
        -0.6083247065544128,
        0.8423387408256531,
        0.5017397999763489,
        -0.927351713180542,
        -1.0311024188995361,
        -0.0065053123980760574,
        0.543345034122467,
        0.5392739176750183,
        -0.5290713906288147,
        0.3139597475528717,
        -1.1942354440689087,
        -2.054279327392578,
        0.11641635000705719,
        -0.10145708173513412,
        -1.9110279083251953,
        -0.7302137613296509,
        -0.41151291131973267,
        0.38939368724823,
        -0.23650150001049042,
        1.0903369188308716,
        -0.6133366823196411,
        0.7771393060684204,
        0.034126970916986465,
        0.05519900843501091,
        -0.5188577175140381,
        -0.7344261407852173,
        0.7933159470558167,
        -0.8718075156211853,
        -0.7988508939743042,
        2.0989491939544678
      ],
      [
        -0.14477147161960602,
        0.2904801666736603,
        -1.0170365571975708,
        -0.9489091038703918,
        1.7796574831008911,
        -0.20196056365966797,
        0.006533861625939608,
        -0.03424902260303497,
        0.6097284555435181,
        0.20331928133964539,
        -0.2225838303565979,
        -0.3482378423213959,
        0.613824188709259,
        0.1277797520160675,
        -1.1174720525741577,
        0.15592797100543976,
        -0.29687175154685974,
        -0.686188817024231,
        0.03092377446591854,
        0.29532063007354736,
        0.22184939682483673,
        -0.03929995372891426,
        0.16679924726486206,
        -0.21118858456611633,
        -0.21506035327911377,
        -0.24421072006225586,
        0.08261507749557495,
        -0.1527239978313446,
        0.7533411383628845,
        1.6119754314422607,
        -0.4296843409538269,
        0.23842400312423706,
        0.18090780079364777,
        -0.6212408542633057,
        0.0806448757648468,
        -0.8073914647102356,
        -0.18210101127624512,
        0.13518106937408447,
        0.2794063091278076,
        -0.36424553394317627
      ],
      [
        0.09336276352405548,
        -1.3495322465896606,
        -0.3635232746601105,
        -0.15089385211467743,
        4.144153118133545,
        0.14963190257549286,
        -0.4033017158508301,
        -0.33788830041885376,
        0.4033019542694092,
        0.8420455455780029,
        -0.9485419392585754,
        -1.138965129852295,
        0.6896342039108276,
        -0.6850406527519226,
        -0.4974045753479004,
        -0.3307454288005829,
        0.781760573387146,
        1.0650932788848877,
        -0.8022273182868958,
        0.033330779522657394,
        -0.39243558049201965,
        -1.4656985998153687,
        -2.19272518157959,
        -0.46067872643470764,
        -0.7654795050621033,
        -0.24336647987365723,
        -0.7539198994636536,
        -0.25286030769348145,
        -1.047298550605774,
        0.48317408561706543,
        -0.7970318794250488,
        0.34430044889450073,
        0.3748626410961151,
        3.443718671798706,
        -2.757550001144409,
        -0.18542827665805817,
        1.208303689956665,
        -0.42635685205459595,
        -1.22642183303833,
        0.48204293847084045
      ],
      [
        -0.36077117919921875,
        -0.05898819491267204,
        -0.7655222415924072,
        0.08266891539096832,
        -0.7881988286972046,
        -0.14206387102603912,
        0.37526318430900574,
        0.2283344864845276,
        0.14477509260177612,
        0.3082435429096222,
        0.5885298252105713,
        -0.2044210284948349,
        -0.07051251828670502,
        0.6854463815689087,
        0.7409491539001465,
        -0.33123964071273804,
        -0.8580280542373657,
        -0.7951757311820984,
        0.3199377954006195,
        0.649504542350769,
        0.07998403906822205,
        0.4286364018917084,
        0.35709184408187866,
        -0.2665756344795227,
        0.6186164021492004,
        -0.34918540716171265,
        0.3764735162258148,
        -0.3244059383869171,
        -0.4164808392524719,
        -0.5124915242195129,
        -0.3783259987831116,
        0.5850241780281067,
        0.8335397243499756,
        0.14778929948806763,
        0.27047041058540344,
        -0.20197658240795135,
        -0.6851050853729248,
        0.6694223880767822,
        -0.0657866969704628,
        0.9302384853363037
      ],
      [
        -0.3160441517829895,
        -0.6825686097145081,
        0.06199846416711807,
        0.5330604314804077,
        -0.729885995388031,
        0.4930501878261566,
        -0.42992767691612244,
        -0.0985531434416771,
        -0.3580205738544464,
        -0.8412947654724121,
        0.13142703473567963,
        -0.65138179063797,
        0.40508389472961426,
        -0.12767963111400604,
        0.46777838468551636,
        0.014602391980588436,
        -0.5663583278656006,
        -0.1241007000207901,
        -0.6321406960487366,
        -0.3236043453216553,
        -0.909683346748352,
        0.8723946213722229,
        0.0548681914806366,
        -0.4048045873641968,
        -0.7065173387527466,
        0.3161133825778961,
        -0.3781985938549042,
        -0.29764872789382935,
        0.14732566475868225,
        0.41385388374328613,
        0.7738558650016785,
        0.6376829147338867,
        0.4058464765548706,
        -0.5247901082038879,
        0.3347419202327728,
        0.12354955077171326,
        0.4856775403022766,
        -0.6650513410568237,
        -0.46319305896759033,
        0.30792731046676636
      ],
      [
        -0.7145721912384033,
        0.5856600999832153,
        -0.3999779224395752,
        -0.3269769549369812,
        -0.10161923617124557,
        0.13173478841781616,
        0.7548646926879883,
        0.0807509571313858,
        -0.32774999737739563,
        0.275182843208313,
        0.18633940815925598,
        1.6250723600387573,
        -0.4999297559261322,
        -0.4030132591724396,
        0.5988715291023254,
        -0.3635818660259247,
        0.9788993000984192,
        -0.5629398822784424,
        -0.17637506127357483,
        0.10016404837369919,
        0.5928364396095276,
        -0.065533846616745,
        0.23297035694122314,
        0.5117323994636536,
        -0.13406914472579956,
        0.030924523249268532,
        -0.12569214403629303,
        -0.7961557507514954,
        -0.06713011860847473,
        -0.8070665001869202,
        0.2085145264863968,
        -0.4347691237926483,
        0.32651248574256897,
        0.2146955281496048,
        -0.08023801445960999,
        0.30697041749954224,
        0.6782312989234924,
        -0.2900528013706207,
        0.7967021465301514,
        0.29836004972457886
      ],
      [
        -0.8321176767349243,
        0.7049557566642761,
        -0.6312634348869324,
        -0.23269043862819672,
        -0.1156110167503357,
        -0.13584530353546143,
        0.7200144529342651,
        -0.16579633951187134,
        -0.4432861804962158,
        0.29970210790634155,
        0.6687349081039429,
        1.0801687240600586,
        0.7715692520141602,
        0.20817753672599792,
        -0.022719265893101692,
        -0.17142455279827118,
        -0.08035825192928314,
        -0.08946593850851059,
        -0.1375456154346466,
        -0.05160736292600632,
        0.8222149610519409,
        -0.6377520561218262,
        1.1876251697540283,
        0.24406826496124268,
        0.4962027072906494,
        -0.04653935134410858,
        0.3758604824542999,
        -1.3209844827651978,
        -0.16744111478328705,
        -0.14638572931289673,
        -1.477123737335205,
        -0.5306827425956726,
        0.006177892442792654,
        0.10547150671482086,
        -0.9335363507270813,
        0.9065535068511963,
        0.4923604130744934,
        -0.9638668298721313,
        1.2098125219345093,
        0.09181585162878036
      ],
      [
        0.3903046250343323,
        -0.5422248840332031,
        0.08539987355470657,
        -0.11419930309057236,
        0.7908813953399658,
        -0.37312057614326477,
        -0.06420233100652695,
        -0.5338135957717896,
        0.4782640039920807,
        0.03830432891845703,
        -0.7197513580322266,
        0.6387079358100891,
        0.6779553294181824,
        0.07459725439548492,
        0.21368706226348877,
        0.31109166145324707,
        2.0101571083068848,
        -0.16965076327323914,
        -0.1486206352710724,
        -0.3786362409591675,
        -0.029778923839330673,
        2.097233772277832,
        0.15677231550216675,
        0.6344627141952515,
        -0.739332377910614,
        0.7451077699661255,
        0.062661312520504,
        -0.010632120072841644,
        -1.4101319313049316,
        0.00010882524657063186,
        0.7988590002059937,
        -0.1771293431520462,
        -0.024881169199943542,
        -0.34450408816337585,
        0.43114057183265686,
        0.6972039341926575,
        -0.25517165660858154,
        0.346390038728714,
        0.8169912099838257,
        0.5059033632278442
      ],
      [
        0.009322562254965305,
        0.017524754628539085,
        0.42608657479286194,
        1.2724583148956299,
        0.03673373907804489,
        -0.7972663640975952,
        0.29165080189704895,
        -0.13082130253314972,
        -0.5843023061752319,
        -0.47330760955810547,
        -0.34140172600746155,
        0.2512449324131012,
        -0.9128780961036682,
        -0.016077978536486626,
        0.09130000323057175,
        0.06319602578878403,
        -0.26668986678123474,
        0.674415111541748,
        0.5879480242729187,
        -0.09395840764045715,
        0.6963043808937073,
        2.3982796669006348,
        0.8135422468185425,
        -0.34682807326316833,
        0.16884556412696838,
        0.18165181577205658,
        0.6015227437019348,
        0.6567453145980835,
        3.0105085372924805,
        0.3256095051765442,
        0.8049243092536926,
        0.043620094656944275,
        -0.2243792563676834,
        -0.4055655896663666,
        -0.033368051052093506,
        0.27936697006225586,
        0.07305865734815598,
        1.2797281742095947,
        -0.16952553391456604,
        -0.07149003446102142
      ],
      [
        -0.08336454629898071,
        -0.14031186699867249,
        0.6385767459869385,
        0.19910070300102234,
        -0.09901566058397293,
        -0.20665140450000763,
        -0.07123985886573792,
        -0.04144929721951485,
        0.04754876717925072,
        0.15012235939502716,
        -0.6882956027984619,
        0.34111666679382324,
        -0.5133150219917297,
        -0.8700142502784729,
        0.7194904088973999,
        0.20676247775554657,
        0.5925765037536621,
        0.43115314841270447,
        -0.2164890170097351,
        -0.24386349320411682,
        -0.33348870277404785,
        0.22425611317157745,
        -0.3629418909549713,
        0.3951590061187744,
        -0.06975429505109787,
        0.5264804363250732,
        0.6218293905258179,
        -0.05587633326649666,
        -0.3265804946422577,
        -0.321903258562088,
        -0.6383716464042664,
        -0.019353805109858513,
        -0.18929828703403473,
        0.037872955203056335,
        0.16482220590114594,
        0.22485099732875824,
        0.04820609092712402,
        -0.05068586766719818,
        -0.054694853723049164,
        1.0107091665267944
      ],
      [
        0.38199836015701294,
        -0.32372406125068665,
        -0.23350642621517181,
        -0.2659789025783539,
        -0.10615234822034836,
        -0.9791725873947144,
        -0.5232458114624023,
        -0.5906403064727783,
        1.4017071723937988,
        -0.9827197194099426,
        -0.05163033679127693,
        -0.5923125147819519,
        1.0728920698165894,
        0.24638700485229492,
        -0.08012358844280243,
        0.35281693935394287,
        0.19910873472690582,
        0.3069692552089691,
        -0.33227652311325073,
        -0.5758313536643982,
        -0.2061358094215393,
        -0.3557491898536682,
        0.12448561191558838,
        -0.20634344220161438,
        0.5950501561164856,
        0.29984310269355774,
        -1.2172073125839233,
        -0.015568439848721027,
        -0.8912999033927917,
        1.1556978225708008,
        0.11231327056884766,
        0.5333988070487976,
        -0.16957838833332062,
        -0.626315712928772,
        0.296468049287796,
        0.16504576802253723,
        0.660135805606842,
        0.6158922910690308,
        0.8522635102272034,
        -0.2958976626396179
      ],
      [
        -0.309858113527298,
        0.008143484592437744,
        -0.2042359709739685,
        -1.2054675817489624,
        2.7810158729553223,
        0.5372954607009888,
        0.25797712802886963,
        0.4116472601890564,
        -0.48499754071235657,
        0.27528414130210876,
        0.3380805552005768,
        0.6893473863601685,
        0.339921772480011,
        0.10140334069728851,
        -0.2713598906993866,
        -0.25272804498672485,
        0.2530544102191925,
        -0.4556422531604767,
        0.09418488293886185,
        0.1982039213180542,
        -0.13501840829849243,
        0.8337557911872864,
        0.9929102659225464,
        -0.32696643471717834,
        -0.5114054083824158,
        -0.5269675254821777,
        0.5289072394371033,
        0.0482313334941864,
        -1.374606966972351,
        -0.36859065294265747,
        -0.48777779936790466,
        0.4807029664516449,
        -0.041815031319856644,
        0.6244209408760071,
        -1.0833301544189453,
        0.435696542263031,
        -0.13068559765815735,
        -0.6420390605926514,
        0.2853226959705353,
        0.6636199951171875
      ],
      [
        -0.33072173595428467,
        -0.415033757686615,
        0.2463730424642563,
        0.15214750170707703,
        -0.2069411724805832,
        -0.018678277730941772,
        0.3484160900115967,
        -0.1555730402469635,
        -0.2705115079879761,
        -0.23443548381328583,
        0.989172637462616,
        -0.12396472692489624,
        -0.0916188657283783,
        -0.36060160398483276,
        0.7577544450759888,
        -0.1834261119365692,
        0.20050179958343506,
        -0.16794712841510773,
        -0.2607364356517792,
        -0.06763601303100586,
        -0.12605497241020203,
        0.33321258425712585,
        0.13718639314174652,
        -0.11395023763179779,
        -0.21057865023612976,
        -0.09871750324964523,
        0.4734314978122711,
        0.3336368799209595,
        0.09911110997200012,
        0.04106540232896805,
        0.5455350279808044,
        -0.06778257340192795,
        0.2948688566684723,
        0.5256810784339905,
        -0.01850023865699768,
        0.005357241258025169,
        -0.18265856802463531,
        0.4485560655593872,
        0.13082778453826904,
        0.7592698931694031
      ],
      [
        0.2957545220851898,
        0.14135637879371643,
        0.6113627552986145,
        0.8571000099182129,
        -0.2504171133041382,
        -0.14391891658306122,
        -0.07352755963802338,
        -0.0033810653258115053,
        0.5610291361808777,
        -0.33832043409347534,
        0.3572324216365814,
        -0.609794557094574,
        0.016103185713291168,
        -0.09446650743484497,
        -0.13432715833187103,
        -0.15276415646076202,
        -0.8901670575141907,
        0.43478283286094666,
        -0.11316709965467453,
        -0.1571793258190155,
        -0.0903957188129425,
        0.4210778772830963,
        -0.7227842807769775,
        -0.005430669989436865,
        -0.48920562863349915,
        0.09268928319215775,
        -0.2215249240398407,
        0.03494398295879364,
        -0.45671534538269043,
        0.8234140872955322,
        -0.19978173077106476,
        0.6686833500862122,
        0.15299862623214722,
        -0.19784995913505554,
        -0.2691095471382141,
        0.5672997236251831,
        0.22169822454452515,
        -0.5029347538948059,
        -1.4176534414291382,
        0.849049985408783
      ],
      [
        -0.6344605684280396,
        -0.6905604004859924,
        0.17810338735580444,
        -0.46966439485549927,
        0.37456005811691284,
        0.4621559679508209,
        -0.2328697144985199,
        0.12660853564739227,
        -0.9021382927894592,
        -0.48098212480545044,
        0.7818984389305115,
        -0.1635296791791916,
        -0.7320788502693176,
        -0.11086585372686386,
        0.5783729553222656,
        -0.5321277379989624,
        0.5141698718070984,
        -0.14806373417377472,
        -0.13246780633926392,
        0.40037280321121216,
        -0.49978697299957275,
        -0.467289000749588,
        0.03349063917994499,
        0.20875713229179382,
        0.3844137489795685,
        0.12388770282268524,
        -0.8202898502349854,
        0.09500621259212494,
        -1.005511999130249,
        -0.30863693356513977,
        -0.3012082576751709,
        0.25232040882110596,
        0.3495453894138336,
        -0.5301586389541626,
        0.5514580011367798,
        -0.35677453875541687,
        -0.4255671203136444,
        0.8688094615936279,
        0.1431807577610016,
        0.12722726166248322
      ],
      [
        -0.4396952688694,
        0.17503738403320312,
        0.487631618976593,
        -0.9238071441650391,
        1.3075872659683228,
        -0.0037115442100912333,
        0.44396358728408813,
        0.07886495441198349,
        -1.6881319284439087,
        1.044822096824646,
        -0.01813001185655594,
        -0.38066917657852173,
        0.027052324265241623,
        0.22151893377304077,
        -0.006489508785307407,
        -0.23248480260372162,
        0.3539309799671173,
        -1.0167555809020996,
        0.11611901968717575,
        -0.007504327222704887,
        0.5513100028038025,
        -0.6238340139389038,
        0.26226067543029785,
        0.106594018638134,
        -0.10317619144916534,
        -0.5034034848213196,
        -0.13675956428050995,
        -1.0076321363449097,
        -1.8950289487838745,
        0.4126691222190857,
        0.46986663341522217,
        -0.0862603634595871,
        0.5687176585197449,
        0.8075034022331238,
        -0.9715136885643005,
        -0.22641173005104065,
        0.03616759926080704,
        1.0905606746673584,
        0.4439011812210083,
        -0.6302374005317688
      ],
      [
        -0.15353748202323914,
        -0.1476937234401703,
        -0.04906003922224045,
        1.1007471084594727,
        -0.545120894908905,
        0.37275293469429016,
        -0.18532699346542358,
        -0.48343387246131897,
        -0.512274980545044,
        0.8156101107597351,
        0.02544504776597023,
        -0.07181445509195328,
        0.3493208885192871,
        -0.051345955580472946,
        0.21469220519065857,
        -0.3762528598308563,
        -0.03284609317779541,
        0.30408328771591187,
        -0.3263167142868042,
        0.1694803535938263,
        -0.5745536088943481,
        0.39928582310676575,
        -0.6068840026855469,
        0.8499550819396973,
        -0.5546595454216003,
        -0.16141876578330994,
        0.7024113535881042,
        0.8550392985343933,
        0.17324982583522797,
        -0.17046058177947998,
        -0.0009704762487672269,
        0.8407682180404663,
        0.20189467072486877,
        0.3144803047180176,
        -0.6475625038146973,
        -0.11343864351511002,
        -0.48521798849105835,
        0.07473226636648178,
        -0.40554744005203247,
        0.15985727310180664
      ],
      [
        0.519568920135498,
        -0.714564323425293,
        0.3600078523159027,
        -0.38863512873649597,
        -0.15680082142353058,
        0.15879257023334503,
        -0.21648220717906952,
        -0.018419837579131126,
        0.48463132977485657,
        -0.554193377494812,
        -0.9758325219154358,
        -0.14828304946422577,
        -0.021550659090280533,
        -0.37105509638786316,
        -0.5148025751113892,
        0.44072574377059937,
        0.16720984876155853,
        0.032647524029016495,
        -0.06761927902698517,
        -0.2719288468360901,
        -0.3476875126361847,
        -0.48218032717704773,
        -0.4295305907726288,
        -0.2613513469696045,
        -0.930870771408081,
        0.19561515748500824,
        0.02644514851272106,
        0.31981757283210754,
        0.2940201759338379,
        0.1170305460691452,
        0.33613693714141846,
        0.1740281879901886,
        -0.5536830425262451,
        -0.24418781697750092,
        0.004519964102655649,
        0.0004914309829473495,
        0.09159354120492935,
        0.45536401867866516,
        0.45527273416519165,
        -0.4892662763595581
      ],
      [
        -0.14942404627799988,
        -0.1997459977865219,
        0.1382349282503128,
        -0.29433301091194153,
        0.27188751101493835,
        0.4291180372238159,
        -0.25626012682914734,
        0.3923129737377167,
        -0.12103196233510971,
        -0.4202065169811249,
        0.39784368872642517,
        -0.28116196393966675,
        0.16536641120910645,
        0.4683443605899811,
        -0.300525426864624,
        -0.21408583223819733,
        -0.3877813518047333,
        -0.2221473902463913,
        0.24081158638000488,
        0.3926859498023987,
        0.26386910676956177,
        0.18890389800071716,
        0.28402864933013916,
        -0.24737457931041718,
        0.9067146182060242,
        0.19214953482151031,
        0.7420491576194763,
        0.2776133120059967,
        -0.11942370980978012,
        -0.027618248015642166,
        -0.5188690423965454,
        -0.05060150846838951,
        0.31904616951942444,
        -0.0014599243877455592,
        0.5210243463516235,
        -0.1016826406121254,
        0.6734587550163269,
        0.02022426947951317,
        0.1908748298883438,
        -1.1380751132965088
      ],
      [
        0.2647298574447632,
        -0.22708025574684143,
        0.7052417993545532,
        0.28298088908195496,
        -0.036571066826581955,
        0.47818484902381897,
        -0.8714366555213928,
        -0.00850482378154993,
        0.07857031375169754,
        0.13821959495544434,
        -1.1791577339172363,
        -0.0069671086966991425,
        -0.447274386882782,
        -0.17364932596683502,
        -0.3727993369102478,
        0.09316588193178177,
        0.4198964536190033,
        0.7357996702194214,
        -0.3078407049179077,
        -0.06091831997036934,
        -0.509909987449646,
        -0.24727988243103027,
        -0.23299111425876617,
        -0.14971216022968292,
        -0.3324666917324066,
        -0.18782712519168854,
        0.2736274003982544,
        -0.024245619773864746,
        -0.054217156022787094,
        0.0507584847509861,
        -0.07102695852518082,
        0.20022453367710114,
        -0.2813831865787506,
        0.13135288655757904,
        -0.46384379267692566,
        0.0637662261724472,
        0.6853684186935425,
        -0.1895056515932083,
        -0.03881246596574783,
        0.41371864080429077
      ],
      [
        0.05033984035253525,
        0.5689315795898438,
        -0.9053573608398438,
        -0.7289630770683289,
        -0.04386857524514198,
        -0.7836332321166992,
        1.0006476640701294,
        -0.0949900671839714,
        -1.4596363306045532,
        0.8558902144432068,
        -0.431245893239975,
        -0.6936362981796265,
        1.2056506872177124,
        -0.003786732442677021,
        -0.060130827128887177,
        0.14512622356414795,
        -0.5257710218429565,
        -0.6154908537864685,
        0.5097911953926086,
        0.1343318223953247,
        0.19780433177947998,
        -1.5342769622802734,
        -0.6084110736846924,
        0.7211961150169373,
        -0.17893604934215546,
        -0.8538365364074707,
        0.4023601710796356,
        -1.3068435192108154,
        -0.14463897049427032,
        -0.46518978476524353,
        -1.4625334739685059,
        -0.15587550401687622,
        0.3866586685180664,
        0.18345418572425842,
        -0.48075905442237854,
        0.36173704266548157,
        -0.0385289266705513,
        -1.0916796922683716,
        -0.17921406030654907,
        0.35051700472831726
      ],
      [
        0.28522202372550964,
        0.23544345796108246,
        -0.5744122266769409,
        -0.1528036743402481,
        -0.5838896036148071,
        -0.6431792974472046,
        0.044235821813344955,
        -0.18365849554538727,
        -0.014409807510674,
        0.21679648756980896,
        0.27369678020477295,
        -0.3263545036315918,
        -0.2907317578792572,
        0.6135189533233643,
        0.03105698525905609,
        -0.011204003356397152,
        -0.3277086019515991,
        -0.2754722237586975,
        -0.11330041289329529,
        -0.015744538977742195,
        0.4841298460960388,
        1.0316684246063232,
        0.09801962971687317,
        -0.3738228380680084,
        0.5409584641456604,
        -0.10945699363946915,
        0.08153998851776123,
        0.25821077823638916,
        0.020795196294784546,
        0.08608229458332062,
        0.38738617300987244,
        0.30374592542648315,
        0.29629766941070557,
        0.44141867756843567,
        -0.28106245398521423,
        -0.21704712510108948,
        -0.07005985081195831,
        0.26487404108047485,
        -0.4197984039783478,
        -0.06987875699996948
      ],
      [
        0.2756754457950592,
        -0.11519424617290497,
        -0.6419603824615479,
        0.15715910494327545,
        0.16172051429748535,
        0.10563172399997711,
        -0.23396047949790955,
        -0.08939909934997559,
        1.7587952613830566,
        0.14885470271110535,
        -0.8588564395904541,
        -0.6629628539085388,
        0.6669275760650635,
        0.09881250560283661,
        -0.2833794951438904,
        0.3277476131916046,
        0.15659721195697784,
        0.24950900673866272,
        -0.49935171008110046,
        -0.13446788489818573,
        0.5269215106964111,
        1.6044927835464478,
        0.35832345485687256,
        -1.2915973663330078,
        -0.05403413251042366,
        0.6193618178367615,
        -0.17210663855075836,
        0.15035098791122437,
        0.3525848388671875,
        0.4709555208683014,
        -0.51372891664505,
        -0.9403091669082642,
        -0.3473781645298004,
        0.21927276253700256,
        0.16975882649421692,
        0.23787972331047058,
        0.30674752593040466,
        -0.29664433002471924,
        1.3087949752807617,
        -0.5720776319503784
      ],
      [
        0.02377351000905037,
        -0.23846909403800964,
        0.7808510065078735,
        0.13673484325408936,
        -0.390112966299057,
        0.05843968316912651,
        -0.25946277379989624,
        0.633650004863739,
        -0.040366481989622116,
        -0.10740204155445099,
        -0.23421849310398102,
        -0.6389951705932617,
        -0.25433939695358276,
        -0.41746053099632263,
        -0.2236078977584839,
        -0.44060084223747253,
        0.49567174911499023,
        0.5570710897445679,
        -0.3639237582683563,
        -0.18962174654006958,
        -0.7142899036407471,
        0.5616569519042969,
        -0.46371984481811523,
        -0.5470665693283081,
        0.004210412502288818,
        0.5563675165176392,
        -0.4559478163719177,
        0.5355698466300964,
        0.13281424343585968,
        -0.1607649177312851,
        -0.12599927186965942,
        0.05859784036874771,
        -0.4607696235179901,
        0.053945571184158325,
        -0.39281630516052246,
        -0.3194732964038849,
        1.2923452854156494,
        -0.33951064944267273,
        0.003591698594391346,
        0.15002326667308807
      ],
      [
        -0.12547847628593445,
        0.009428801946341991,
        0.18804962933063507,
        0.07357310503721237,
        1.3856028318405151,
        -0.684105634689331,
        0.12876421213150024,
        0.008404120802879333,
        -0.6315165162086487,
        0.40965044498443604,
        -0.12342964112758636,
        0.40659621357917786,
        -0.006141525227576494,
        -0.13296213746070862,
        0.3604353666305542,
        0.4122183918952942,
        0.6496853828430176,
        -0.09608816355466843,
        0.0019976324401795864,
        0.04969517141580582,
        0.48143383860588074,
        0.19890527427196503,
        1.0872999429702759,
        0.20813553035259247,
        0.4199666380882263,
        0.03192639723420143,
        1.1391046047210693,
        -0.26266464591026306,
        0.6322975754737854,
        -0.5846191048622131,
        -0.29253798723220825,
        0.03785351291298866,
        -0.2638634443283081,
        0.27066290378570557,
        -0.08547283709049225,
        0.06281261146068573,
        -0.04167431220412254,
        -0.6832890510559082,
        0.025668079033493996,
        0.9610636234283447
      ],
      [
        -0.5429816842079163,
        -0.048873528838157654,
        0.4137263596057892,
        0.11302805691957474,
        0.9599350690841675,
        0.10361117124557495,
        0.8109870553016663,
        -0.7156150937080383,
        -1.5414891242980957,
        1.2996528148651123,
        -0.09466645866632462,
        1.3748438358306885,
        -0.1324213594198227,
        1.0775516033172607,
        0.7216206192970276,
        -0.8995080590248108,
        -0.2947595715522766,
        0.4846709668636322,
        0.3286757171154022,
        0.34317171573638916,
        -0.9887440204620361,
        0.35907188057899475,
        0.6807239055633545,
        1.325674295425415,
        -0.3516901731491089,
        -0.6835041046142578,
        0.5726274251937866,
        0.4057363271713257,
        -0.7052882313728333,
        -1.86013662815094,
        0.08843207359313965,
        1.1293768882751465,
        0.6562700867652893,
        0.43238312005996704,
        -0.5002034306526184,
        -0.5298782587051392,
        -0.22808416187763214,
        0.5527511239051819,
        0.2632153332233429,
        0.8331225514411926
      ],
      [
        -0.3910072445869446,
        1.4464871883392334,
        0.17518216371536255,
        0.35466012358665466,
        -0.3188347816467285,
        -0.24350488185882568,
        0.8059735894203186,
        0.5600426197052002,
        1.1392918825149536,
        -0.6496602892875671,
        1.1953843832015991,
        0.1328268051147461,
        -0.08078338950872421,
        1.6521155834197998,
        0.3399149775505066,
        -1.2574197053909302,
        -0.5035175085067749,
        0.5238321423530579,
        1.2646597623825073,
        0.3026624023914337,
        1.2672123908996582,
        -1.107523798942566,
        1.5347808599472046,
        -0.9143078923225403,
        -0.29240337014198303,
        0.08877087384462357,
        1.268136739730835,
        1.0206867456436157,
        2.206272840499878,
        -0.7134720087051392,
        -0.3409390151500702,
        -1.1308965682983398,
        -0.42241206765174866,
        -0.12364901602268219,
        0.2352386713027954,
        -0.5007596015930176,
        0.1877007782459259,
        0.12632063031196594,
        1.1115573644638062,
        0.15888099372386932
      ],
      [
        0.18797807395458221,
        -0.4621715545654297,
        -0.017712172120809555,
        0.7441452741622925,
        -0.27443796396255493,
        0.6124774813652039,
        -0.07461725920438766,
        -0.12084967643022537,
        -0.5404236316680908,
        0.45064353942871094,
        0.06512245535850525,
        -0.3243269622325897,
        0.1316179782152176,
        0.2425423264503479,
        0.08766885101795197,
        -0.19018442928791046,
        0.8189130425453186,
        -0.016794046387076378,
        -0.017549294978380203,
        -0.03652028739452362,
        -0.1844373196363449,
        1.1679168939590454,
        -0.675317645072937,
        -0.1035510003566742,
        0.08577831089496613,
        -0.5955419540405273,
        0.8536669611930847,
        -0.44917941093444824,
        0.08264054358005524,
        0.4130343198776245,
        0.24527491629123688,
        -0.1282590925693512,
        0.3758337199687958,
        0.4395362436771393,
        -0.4344739019870758,
        0.547766923904419,
        -0.12072926759719849,
        -0.3747486174106598,
        0.13480445742607117,
        0.489401251077652
      ],
      [
        0.8552557229995728,
        -0.18942999839782715,
        0.5794615745544434,
        0.17837755382061005,
        -0.06677541881799698,
        0.39428067207336426,
        -0.8936477303504944,
        0.8118128180503845,
        0.6361036896705627,
        -0.7263407707214355,
        -0.9703819751739502,
        -1.1228396892547607,
        -0.29289352893829346,
        -0.8129864931106567,
        -0.9434899687767029,
        1.1342427730560303,
        0.3766239285469055,
        0.7634066343307495,
        -1.1999033689498901,
        -1.1122832298278809,
        -0.49698910117149353,
        -0.45336347818374634,
        -0.25924304127693176,
        -0.995819628238678,
        0.4226142168045044,
        0.8386039733886719,
        0.25668442249298096,
        0.9078128337860107,
        0.5212661623954773,
        0.6377652287483215,
        -0.7243591547012329,
        -0.9907851219177246,
        -0.9428791403770447,
        -0.5612224340438843,
        -0.15512850880622864,
        -0.5949726700782776,
        1.358028531074524,
        -0.7094725370407104,
        0.5641402006149292,
        0.0057156584225595
      ],
      [
        0.10841935127973557,
        0.025546716526150703,
        -0.3747056722640991,
        -0.23336994647979736,
        -0.491760790348053,
        0.029658280313014984,
        -0.05586208775639534,
        0.5158216953277588,
        0.37048566341400146,
        -0.3842363953590393,
        -0.031932633370161057,
        -0.32065823674201965,
        -0.22413383424282074,
        0.08564876019954681,
        -0.5049883127212524,
        -0.05242736637592316,
        -0.5660398006439209,
        0.07920534908771515,
        -0.1955653429031372,
        0.08112984895706177,
        -0.27291572093963623,
        -0.8169447779655457,
        -0.4715735614299774,
        -0.10587187856435776,
        0.010314506478607655,
        -0.5757189393043518,
        -0.5612199902534485,
        -0.11678031086921692,
        1.1226367950439453,
        -0.03433063626289368,
        0.010344196110963821,
        -0.05103107541799545,
        -0.07058589905500412,
        -0.06429292261600494,
        -1.0416882038116455,
        -0.266817569732666,
        0.40361103415489197,
        0.213947132229805,
        0.6085533499717712,
        -0.053583819419145584
      ],
      [
        0.7566782236099243,
        -0.1546817272901535,
        -0.3055720329284668,
        -0.35223016142845154,
        0.7437981367111206,
        0.21922951936721802,
        -0.7378969788551331,
        0.7723310589790344,
        1.0674548149108887,
        -0.4853726327419281,
        -0.8756795525550842,
        -1.0324105024337769,
        -0.12824001908302307,
        0.028988076373934746,
        -0.7855287194252014,
        0.5936036705970764,
        -0.13543057441711426,
        0.4759730100631714,
        -0.46174606680870056,
        -0.5703191161155701,
        -0.7519668340682983,
        -0.4327707588672638,
        -0.18583263456821442,
        -0.8765093684196472,
        0.8522751927375793,
        0.5880302786827087,
        -0.1863153576850891,
        0.29139456152915955,
        -0.3411163091659546,
        0.9119539260864258,
        -1.1495202779769897,
        -0.2553365230560303,
        -0.3067677617073059,
        -0.17081014811992645,
        -0.31755393743515015,
        -0.4721398651599884,
        0.7333242893218994,
        -1.0584423542022705,
        1.0834927558898926,
        -0.3140122592449188
      ],
      [
        0.6787470579147339,
        -0.3493707478046417,
        0.4572675824165344,
        -0.24936486780643463,
        -0.6884489059448242,
        -0.19789324700832367,
        -0.4238870441913605,
        0.9322342872619629,
        -0.6135993003845215,
        -0.24248452484607697,
        -0.16880691051483154,
        0.21818770468235016,
        0.48754844069480896,
        -0.2814672589302063,
        -0.7135906219482422,
        0.5931752324104309,
        0.3836178779602051,
        0.6215352416038513,
        -0.7407283782958984,
        -0.6414362788200378,
        0.017352091148495674,
        2.843205690383911,
        -0.8569260239601135,
        -0.10155627131462097,
        0.04522665590047836,
        0.28453078866004944,
        -0.0365871898829937,
        -0.08156752586364746,
        -0.7172464728355408,
        0.43074968457221985,
        0.5723941326141357,
        -0.4633905589580536,
        -0.2928118109703064,
        -0.35937461256980896,
        0.33258599042892456,
        -1.1020479202270508,
        0.195087268948555,
        0.10004987567663193,
        0.050175171345472336,
        0.30481475591659546
      ],
      [
        -0.46650561690330505,
        -0.8082579374313354,
        -0.4280531406402588,
        -1.6683915853500366,
        0.3710075616836548,
        0.4758755564689636,
        0.8342175483703613,
        -0.0717395469546318,
        -1.5358688831329346,
        1.991430640220642,
        0.22924217581748962,
        0.6445878148078918,
        1.119937539100647,
        -2.666257619857788,
        -0.4337885081768036,
        0.9716006517410278,
        3.7746317386627197,
        -1.119214415550232,
        0.07774849981069565,
        0.22027796506881714,
        1.1959401369094849,
        -0.7022427916526794,
        -0.3233359158039093,
        0.6855267882347107,
        -0.5585459470748901,
        0.8053278923034668,
        0.6794745326042175,
        -1.2402470111846924,
        0.4299543499946594,
        0.13220509886741638,
        0.3354482650756836,
        -0.08205972611904144,
        -0.6634891629219055,
        -1.3577051162719727,
        0.2968705892562866,
        0.6483724117279053,
        -1.3837538957595825,
        -0.3077132999897003,
        -0.424249529838562,
        0.013890308327972889
      ],
      [
        1.0684521198272705,
        -0.9786381721496582,
        0.8039259910583496,
        -0.9338325262069702,
        1.0157928466796875,
        -0.030075224116444588,
        -1.2673462629318237,
        0.015089139342308044,
        1.3515149354934692,
        -1.2841973304748535,
        -0.7680239677429199,
        -0.11484286934137344,
        -0.30161696672439575,
        -0.9413256049156189,
        -1.1868969202041626,
        0.923832893371582,
        1.0823115110397339,
        1.3455885648727417,
        -1.322594165802002,
        -1.3167729377746582,
        -0.543718695640564,
        0.7952694296836853,
        0.37320566177368164,
        -0.5805100798606873,
        0.379000723361969,
        1.0408072471618652,
        1.2091739177703857,
        0.3919694125652313,
        0.086214080452919,
        1.3086302280426025,
        0.14049458503723145,
        -0.45496341586112976,
        -0.6886512637138367,
        -0.5408770442008972,
        0.05315705016255379,
        0.5894704461097717,
        2.226802349090576,
        -1.3797314167022705,
        1.2408716678619385,
        0.3411397933959961
      ],
      [
        0.08431461453437805,
        -0.2873980402946472,
        -0.4283778667449951,
        -0.5928817391395569,
        1.2910078763961792,
        0.07461103051900864,
        0.44882723689079285,
        0.22814515233039856,
        -0.687610387802124,
        1.8270305395126343,
        -0.11117599159479141,
        0.10463155806064606,
        0.19781707227230072,
        -0.3458901047706604,
        0.27220115065574646,
        -0.08342093229293823,
        0.7786988019943237,
        0.030270511284470558,
        -0.1550576090812683,
        -0.09155325591564178,
        -0.14379125833511353,
        1.1754993200302124,
        0.5328489542007446,
        1.051135778427124,
        0.1323584020137787,
        0.08729265630245209,
        0.05493980273604393,
        -0.8762516379356384,
        -0.6332541108131409,
        -0.13689573109149933,
        -0.2550502419471741,
        0.458281934261322,
        -0.1384550929069519,
        -0.1648911088705063,
        0.4215409755706787,
        -0.2613993287086487,
        0.8652656078338623,
        1.088282823562622,
        -0.20559857785701752,
        0.21348446607589722
      ],
      [
        0.0341726616024971,
        0.27433231472969055,
        0.027663271874189377,
        -0.23462998867034912,
        -0.07619272172451019,
        -0.3527139723300934,
        -0.1935732066631317,
        -0.321573942899704,
        -1.6687397956848145,
        0.11716210842132568,
        0.017858246341347694,
        0.7069212794303894,
        0.01108521968126297,
        -0.08557122200727463,
        0.09043540060520172,
        0.646190345287323,
        0.32240867614746094,
        0.17932797968387604,
        -0.16659265756607056,
        -0.42138901352882385,
        0.27567172050476074,
        0.03790418803691864,
        -0.6012706160545349,
        1.247279405593872,
        -0.07967624068260193,
        -0.06731995940208435,
        0.21748079359531403,
        0.4751053750514984,
        -1.2500666379928589,
        -0.492451548576355,
        -0.3842589259147644,
        0.7380359172821045,
        -0.20368902385234833,
        0.282521516084671,
        -0.778981626033783,
        0.42555323243141174,
        0.3022386431694031,
        -0.1403149664402008,
        -0.5430830121040344,
        0.9214213490486145
      ],
      [
        0.16852140426635742,
        -0.20423077046871185,
        0.5572080612182617,
        0.5322006344795227,
        -0.9204830527305603,
        0.22061103582382202,
        0.42355430126190186,
        0.22831641137599945,
        0.33203625679016113,
        -0.46597012877464294,
        0.3611704707145691,
        0.5997135639190674,
        -0.6648430228233337,
        -0.36899513006210327,
        0.04196492210030556,
        0.355450302362442,
        -0.10272309184074402,
        0.04745722934603691,
        -0.5432947874069214,
        -0.2943187355995178,
        -0.0882958471775055,
        0.16151361167430878,
        -0.3815072774887085,
        -0.40495243668556213,
        -0.27188244462013245,
        0.2524515688419342,
        0.0606776624917984,
        0.29723963141441345,
        0.554987370967865,
        -0.3224973678588867,
        -0.006413147784769535,
        0.015015880577266216,
        -0.23871806263923645,
        0.04574805498123169,
        0.18867376446723938,
        -0.29969388246536255,
        0.6373441815376282,
        0.10573528707027435,
        -0.09816542267799377,
        0.06513801962137222
      ],
      [
        -0.09918428957462311,
        -0.5446152091026306,
        0.10904421657323837,
        -0.5346513390541077,
        0.1861870437860489,
        -0.29293113946914673,
        0.2846187651157379,
        0.484180212020874,
        -0.28916165232658386,
        1.2449907064437866,
        0.4076002836227417,
        0.4488412141799927,
        0.27130287885665894,
        -0.3892599046230316,
        0.020584164187312126,
        0.2636270523071289,
        1.1922786235809326,
        0.5578076243400574,
        -0.13800148665905,
        -0.18840546905994415,
        0.06741192936897278,
        -0.03586705029010773,
        2.2951669692993164,
        0.029748838394880295,
        -1.0864547491073608,
        0.05152468383312225,
        2.0452895164489746,
        -0.8641676902770996,
        -0.30116337537765503,
        0.32456204295158386,
        0.3731909394264221,
        -0.8648818731307983,
        -0.40904223918914795,
        -0.10922838747501373,
        0.12809504568576813,
        0.4864107668399811,
        -0.2065736949443817,
        -0.7400692701339722,
        0.9680410027503967,
        1.0489028692245483
      ],
      [
        -0.4937385320663452,
        -1.625618577003479,
        -0.0525272861123085,
        -0.015747446566820145,
        1.215436577796936,
        0.5362898111343384,
        0.12315773218870163,
        -1.1837437152862549,
        -0.5332801342010498,
        1.749037742614746,
        -0.865248441696167,
        0.39853355288505554,
        -0.13758744299411774,
        0.3578575551509857,
        -0.5402395725250244,
        -0.1600501835346222,
        -0.0362684465944767,
        0.1517629623413086,
        0.22941984236240387,
        -0.0885186418890953,
        0.39788854122161865,
        0.8122440576553345,
        1.1656142473220825,
        1.0579737424850464,
        -0.29451635479927063,
        -0.21245549619197845,
        0.2575187683105469,
        -0.5145211815834045,
        -0.6393823027610779,
        -0.25856080651283264,
        -0.2850522994995117,
        1.0924460887908936,
        0.3241839110851288,
        -0.20846182107925415,
        -0.0412740595638752,
        1.3292534351348877,
        -1.1174840927124023,
        1.2980222702026367,
        -0.5223916172981262,
        -0.4680948555469513
      ],
      [
        0.005217175930738449,
        0.22877098619937897,
        -0.6084393858909607,
        -0.5500971078872681,
        0.7357715964317322,
        -0.2315414547920227,
        0.6764230132102966,
        -1.0057671070098877,
        1.6977806091308594,
        0.8875697255134583,
        0.6276612281799316,
        -0.16616763174533844,
        0.3915369212627411,
        -0.5327396988868713,
        0.2047126591205597,
        -0.07583869993686676,
        -0.05195961892604828,
        -0.4942532777786255,
        -0.15763644874095917,
        -0.27524811029434204,
        -0.11360897868871689,
        -0.017570996657013893,
        -0.0697358176112175,
        -0.0460675023496151,
        -0.2964666187763214,
        -0.729958176612854,
        1.3588787317276,
        -1.6145738363265991,
        -2.8884518146514893,
        0.0299124363809824,
        -2.20253849029541,
        -0.8964428901672363,
        -0.0009904846083372831,
        0.4826631247997284,
        0.28962209820747375,
        -0.2620207965373993,
        0.7939147353172302,
        0.46024608612060547,
        1.010928750038147,
        0.1543591320514679
      ],
      [
        -0.259809672832489,
        0.658139169216156,
        -1.2450244426727295,
        -0.46527528762817383,
        -0.516101062297821,
        -0.7121445536613464,
        1.1922751665115356,
        -0.3217580020427704,
        0.07170701026916504,
        1.0087311267852783,
        1.1248772144317627,
        -0.5162646770477295,
        0.010748535394668579,
        -0.8228307366371155,
        0.6291980743408203,
        -0.5279790759086609,
        0.009259900078177452,
        -0.47176676988601685,
        0.5395612716674805,
        0.10638265311717987,
        0.7530392408370972,
        -0.42721685767173767,
        -0.3881525993347168,
        -0.3837873339653015,
        0.414477676153183,
        -0.6175286173820496,
        1.4136959314346313,
        -0.8044244647026062,
        -0.16448311507701874,
        -0.42874571681022644,
        -0.60828697681427,
        -0.01005628053098917,
        0.09542585909366608,
        -0.3499879240989685,
        0.3125235438346863,
        -0.4642215073108673,
        0.24596020579338074,
        0.697181224822998,
        -0.5772021412849426,
        -0.08580006659030914
      ],
      [
        -0.5352429747581482,
        -0.23333893716335297,
        -0.1920996606349945,
        -0.20100946724414825,
        0.0016798977740108967,
        0.060264021158218384,
        0.7183449268341064,
        0.314570814371109,
        0.09943830966949463,
        0.3266048729419708,
        -0.7160124778747559,
        -0.5561729073524475,
        -1.1412431001663208,
        0.8044485449790955,
        0.05427762493491173,
        -0.4081517159938812,
        -0.5444079041481018,
        -0.7399987578392029,
        0.6548128128051758,
        0.45671913027763367,
        -0.3356197476387024,
        -0.22358407080173492,
        -0.36980748176574707,
        -0.12720532715320587,
        0.6122854351997375,
        -0.12328924983739853,
        -0.008300659246742725,
        -0.9126204252243042,
        -0.035252004861831665,
        -0.5094462037086487,
        -0.5379911065101624,
        0.7222720384597778,
        0.449698269367218,
        0.3139723837375641,
        -0.12133471667766571,
        0.15765245258808136,
        -0.3508571982383728,
        1.174972653388977,
        1.205757737159729,
        -0.9922716617584229
      ],
      [
        -0.009643461555242538,
        -0.4470355808734894,
        0.9412918090820312,
        0.5434885621070862,
        0.6849862933158875,
        0.09241464734077454,
        0.4875742197036743,
        -0.07074806839227676,
        0.1538851261138916,
        2.0069162845611572,
        -0.506979763507843,
        0.6567694544792175,
        -0.007571202702820301,
        -0.8787702322006226,
        0.06076221168041229,
        0.1101764440536499,
        0.2774326801300049,
        -0.14710749685764313,
        0.15357065200805664,
        0.017833523452281952,
        -0.10276830941438675,
        -0.5060861110687256,
        0.06284411251544952,
        0.6359353065490723,
        0.7794549465179443,
        0.680353045463562,
        0.20056051015853882,
        -0.5876693725585938,
        -0.43262779712677,
        -0.5350207686424255,
        0.6448754668235779,
        -0.9885203838348389,
        0.07752074301242828,
        1.439063549041748,
        -0.30586230754852295,
        0.8200413584709167,
        -0.43077871203422546,
        0.6457045674324036,
        0.7905941009521484,
        0.38730770349502563
      ],
      [
        0.7309607267379761,
