{
  "model_data": {
    "model": "SimpleRNN",
    "input_size": 1,
    "skip": 1,
    "output_size": 1,
    "unit_type": "LSTM",
    "num_layers": 1,
    "hidden_size": 40,
    "bias_fl": true
  },
  "state_dict": {
    "rec.weight_ih_l0": [
      [
        -0.33225321769714355
      ],
      [
        -1.694061040878296
      ],
      [
        -0.8437194228172302
      ],
      [
        -2.3166587352752686
      ],
      [
        -0.8917412161827087
      ],
      [
        0.08692187070846558
      ],
      [
        -2.126660108566284
      ],
      [
        1.6204460859298706
      ],
      [
        -0.391351580619812
      ],
      [
        0.13361568748950958
      ],
      [
        -0.49257656931877136
      ],
      [
        -0.028042729943990707
      ],
      [
        -3.7878308296203613
      ],
      [
        0.09316006302833557
      ],
      [
        0.14516681432724
      ],
      [
        0.21498656272888184
      ],
      [
        0.10807789117097855
      ],
      [
        -0.19464071094989777
      ],
      [
        0.8679133057594299
      ],
      [
        1.0173956155776978
      ],
      [
        -2.91007924079895
      ],
      [
        -0.5706420540809631
      ],
      [
        -1.8861085176467896
      ],
      [
        0.08881385624408722
      ],
      [
        0.8948387503623962
      ],
      [
        1.682384729385376
      ],
      [
        0.2887882888317108
      ],
      [
        -0.72565096616745
      ],
      [
        -0.29822269082069397
      ],
      [
        0.9947000741958618
      ],
      [
        -0.19871993362903595
      ],
      [
        -0.5620146989822388
      ],
      [
        1.1437569856643677
      ],
      [
        -0.07528233528137207
      ],
      [
        0.049524158239364624
      ],
      [
        2.7819929122924805
      ],
      [
        -1.63528573513031
      ],
      [
        -2.121934652328491
      ],
      [
        -0.9415011405944824
      ],
      [
        0.5587319731712341
      ],
      [
        0.09680721908807755
      ],
      [
        0.43722620606422424
      ],
      [
        -1.0136083364486694
      ],
      [
        -2.8040685653686523
      ],
      [
        -0.045885488390922546
      ],
      [
        0.045416466891765594
      ],
      [
        1.4138091802597046
      ],
      [
        1.9807324409484863
      ],
      [
        -0.2250506728887558
      ],
      [
        0.6151573061943054
      ],
      [
        -0.41008350253105164
      ],
      [
        -0.10906657576560974
      ],
      [
        -1.5618896484375
      ],
      [
        0.30889907479286194
      ],
      [
        -0.44503262639045715
      ],
      [
        0.18581126630306244
      ],
      [
        0.07787153124809265
      ],
      [
        -0.7436973452568054
      ],
      [
        0.33083343505859375
      ],
      [
        1.9141968488693237
      ],
      [
        -1.659360647201538
      ],
      [
        -0.35596713423728943
      ],
      [
        1.5109889507293701
      ],
      [
        0.19257090985774994
      ],
      [
        1.2680448293685913
      ],
      [
        0.954336941242218
      ],
      [
        1.4500175714492798
      ],
      [
        -0.4800795018672943
      ],
      [
        -0.31789630651474
      ],
      [
        1.2045657634735107
      ],
      [
        0.8241375684738159
      ],
      [
        -0.6834631562232971
      ],
      [
        1.8683825731277466
      ],
      [
        1.2810267210006714
      ],
      [
        0.5031274557113647
      ],
      [
        1.1622350215911865
      ],
      [
        0.20451785624027252
      ],
      [
        2.055492639541626
      ],
      [
        0.23466598987579346
      ],
      [
        0.6735966801643372
      ],
      [
        0.6473892331123352
      ],
      [
        2.0418291091918945
      ],
      [
        -1.1097491979599
      ],
      [
        2.1357204914093018
      ],
      [
        -1.0270880460739136
      ],
      [
        0.06487201154232025
      ],
      [
        2.8900935649871826
      ],
      [
        1.6617320775985718
      ],
      [
        -0.07400722056627274
      ],
      [
        -1.8380281925201416
      ],
      [
        0.30015644431114197
      ],
      [
        -0.07515445351600647
      ],
      [
        2.0335426330566406
      ],
      [
        -0.15908917784690857
      ],
      [
        0.8461782336235046
      ],
      [
        0.09484152495861053
      ],
      [
        1.228593349456787
      ],
      [
        0.16256994009017944
      ],
      [
        -0.29139846563339233
      ],
      [
        1.7350480556488037
      ],
      [
        2.428598403930664
      ],
      [
        1.2025716304779053
      ],
      [
        -3.6209468841552734
      ],
      [
        0.5992960333824158
      ],
      [
        0.9881136417388916
      ],
      [
        1.6418853998184204
      ],
      [
        -1.3339602947235107
      ],
      [
        1.068891167640686
      ],
      [
        -0.2801223695278168
      ],
      [
        -0.15155799686908722
      ],
      [
        -1.2045114040374756
      ],
      [
        -0.7519216537475586
      ],
      [
        -1.5539274215698242
      ],
      [
        1.7265444993972778
      ],
      [
        -0.45251643657684326
      ],
      [
        2.272953510284424
      ],
      [
        -2.573746919631958
      ],
      [
        2.758711099624634
      ],
      [
        0.5340766906738281
      ],
      [
        0.937602162361145
      ],
      [
        0.7887006998062134
      ],
      [
        -0.6339780688285828
      ],
      [
        -1.3864688873291016
      ],
      [
        -0.9655794501304626
      ],
      [
        0.7692831158638
      ],
      [
        -0.15899686515331268
      ],
      [
        -0.5790406465530396
      ],
      [
        1.8009675741195679
      ],
      [
        -0.49108776450157166
      ],
      [
        1.2238048315048218
      ],
      [
        -1.31764817237854
      ],
      [
        -0.3764001131057739
      ],
      [
        -3.576514482498169
      ],
      [
        -0.6227283477783203
      ],
      [
        -0.08443942666053772
      ],
      [
        0.6590187549591064
      ],
      [
        0.2320791780948639
      ],
      [
        -0.9481430053710938
      ],
      [
        0.5563239455223083
      ],
      [
        2.5760090351104736
      ],
      [
        -3.094407320022583
      ],
      [
        -0.5889825820922852
      ],
      [
        0.05957070365548134
      ],
      [
        0.5909883379936218
      ],
      [
        0.14745460450649261
      ],
      [
        1.8026039600372314
      ],
      [
        2.142030954360962
      ],
      [
        0.7926970720291138
      ],
      [
        -0.9373668432235718
      ],
      [
        -0.6964645981788635
      ],
      [
        0.4765334725379944
      ],
      [
        -1.140006422996521
      ],
      [
        1.570523977279663
      ],
      [
        0.51373690366745
      ],
      [
        0.8533065319061279
      ],
      [
        -0.3423040211200714
      ],
      [
        0.02809666469693184
      ],
      [
        -0.6937691569328308
      ],
      [
        -0.5736815929412842
      ],
      [
        1.4386855363845825
      ]
    ],
    "rec.weight_hh_l0": [
      [
        0.01922677829861641,
        -0.8621994853019714,
        0.07419794052839279,
        -0.03007555939257145,
        -0.6542395353317261,
        -0.4726237654685974,
        -0.9315717816352844,
        -1.0107948780059814,
        -1.2938997745513916,
        -0.4568537771701813,
        0.7696865797042847,
        -0.9063038229942322,
        -0.5883610844612122,
        -0.45928722620010376,
        -0.43742528557777405,
        0.3140738904476166,
        0.5682259798049927,
        0.4077380299568176,
        -0.7429419755935669,
        -1.3340325355529785,
        1.187132477760315,
        1.7257126569747925,
        0.19877979159355164,
        -0.24750927090644836,
        0.21548135578632355,
        -0.19710683822631836,
        -0.27234774827957153,
        0.20565126836299896,
        0.7872098684310913,
        1.316252589225769,
        0.5784658193588257,
        -1.0676393508911133,
        0.6325516104698181,
        0.26281797885894775,
        0.6005833148956299,
        0.31535544991493225,
        -0.2728762626647949,
        0.4267444312572479,
        0.14906778931617737,
        -0.9638025164604187
      ],
      [
        0.5495383143424988,
        0.4459150731563568,
        -0.3104582130908966,
        0.5156309008598328,
        0.339224636554718,
        0.1408015638589859,
        0.6824386119842529,
        -0.230274498462677,
        -0.49314993619918823,
        0.12809893488883972,
        0.16778472065925598,
        -1.941918969154358,
        -0.4106573164463043,
        1.2836127281188965,
        0.20585714280605316,
        0.4835970103740692,
        -0.38409122824668884,
        1.1264541149139404,
        0.16254115104675293,
        -0.0037772729992866516,
        0.3702099621295929,
        -0.4241977632045746,
        -0.20170561969280243,
        0.347928911447525,
        -0.07684177905321121,
        -0.8077160120010376,
        1.0500919818878174,
        -0.7060573101043701,
        -0.07871584594249725,
        0.26489704847335815,
        -0.10363494604825974,
        0.4969114065170288,
        -0.28354936838150024,
        -0.17177562415599823,
        -0.16602656245231628,
        -0.07719417661428452,
        -0.4685910940170288,
        -0.4076005518436432,
        1.1210483312606812,
        -0.0529225617647171
      ],
      [
        -1.0302773714065552,
        1.0996229648590088,
        -0.2459179013967514,
        -0.38452833890914917,
        -0.301410436630249,
        -0.6221086382865906,
        -0.3702327609062195,
        -0.24627237021923065,
        1.2087557315826416,
        0.2425917685031891,
        -0.3619855046272278,
        0.056045547127723694,
        -0.22451099753379822,
        -0.7413869500160217,
        0.6370267271995544,
        0.34237319231033325,
        0.12799754738807678,
        0.575827956199646,
        -0.7346421480178833,
        0.009337637573480606,
        0.0915461927652359,
        0.08138459920883179,
        -0.38671696186065674,
        -1.1514068841934204,
        -1.3859272003173828,
        -0.3112488090991974,
        0.16289298236370087,
        -0.020541714504361153,
        -0.1963779479265213,
        -0.7676777839660645,
        -0.4369412064552307,
        -0.6904405951499939,
        0.03588574007153511,
        -0.5432665944099426,
        0.08943892270326614,
        -0.027171729132533073,
        -0.24278825521469116,
        0.5857130289077759,
        -1.1490648984909058,
        -0.9526064395904541
      ],
      [
        0.14137789607048035,
        0.03183140978217125,
        -0.8542413711547852,
        0.5569504499435425,
        0.1131647601723671,
        0.2866283059120178,
        -0.3425648510456085,
        0.0670534074306488,
        0.11630696058273315,
        0.3512535095214844,
        0.1872754544019699,
        0.6066752672195435,
        0.09687148779630661,
        0.06571367383003235,
        -0.11574866622686386,
        -0.07608362287282944,
        0.14504577219486237,
        -0.08973734825849533,
        -0.46327534317970276,
        0.5307275056838989,
        -0.19559022784233093,
        0.3380839228630066,
        -0.18047575652599335,
        -0.1333056390285492,
        0.6632914543151855,
        1.821823239326477,
        -0.803059995174408,
        0.19553782045841217,
        0.2414408177137375,
        0.4108697175979614,
        -0.19319315254688263,
        0.11261146515607834,
        0.09298960119485855,
        0.28853145241737366,
        -0.12623561918735504,
        0.4105101525783539,
        0.04079877585172653,
        -0.952713131904602,
        -0.7177433371543884,
        0.3242470920085907
      ],
      [
        -0.8244250416755676,
        0.2664776146411896,
        0.3018758296966553,
        0.4092707931995392,
        0.051687903702259064,
        -0.43657857179641724,
        -0.3362000286579132,
        -0.15593139827251434,
        -0.07627046853303909,
        -0.23136603832244873,
        0.43683382868766785,
        -0.7134981155395508,
        0.6186670660972595,
        0.11796306073665619,
        -0.17028109729290009,
        0.25227487087249756,
        -0.0018911847146227956,
        -0.11623157560825348,
        -0.9721457362174988,
        -0.6423370242118835,
        1.1403623819351196,
        0.36641931533813477,
        -0.10171030461788177,
        -0.26293236017227173,
        -0.4743186831474304,
        0.3411197364330292,
        0.08001980185508728,
        0.36191698908805847,
        0.11495976895093918,
        0.8964954018592834,
        0.22335097193717957,
        0.5339997410774231,
        0.1756799966096878,
        -0.8509571552276611,
        0.4367240369319916,
        -0.3340025842189789,
        -0.22190608084201813,
        -0.024704495444893837,
        0.19758152961730957,
        -0.10346412658691406
      ],
      [
        -0.19025875627994537,
        0.42871183156967163,
        0.9010088443756104,
        0.5180279612541199,
        0.23328563570976257,
        0.048608459532260895,
        -0.27755850553512573,
        -0.35199201107025146,
        -0.2839492857456207,
        -0.3630698323249817,
        0.3724062144756317,
        0.7948763966560364,
        0.23729568719863892,
        0.19356971979141235,
        -0.12269657105207443,
        -0.11869266629219055,
        0.27016371488571167,
        -0.6000036001205444,
        -0.4026170074939728,
        -0.39697790145874023,
        0.27916666865348816,
        0.010278052650392056,
        0.416643351316452,
        -0.13743986189365387,
        0.3579128086566925,
        -0.43211591243743896,
        -0.04369113966822624,
        -0.08553460985422134,
        0.5957939624786377,
        0.2386288046836853,
        0.17551599442958832,
        0.4152299761772156,
        0.11604861170053482,
        -0.4769212603569031,
        0.8476046919822693,
        -0.2693112790584564,
        0.20444081723690033,
        -0.4414125680923462,
        -0.17611104249954224,
        -0.1674221009016037
      ],
      [
        0.25839459896087646,
        0.4573472738265991,
        0.18090328574180603,
        -0.4746556878089905,
        0.033327069133520126,
        -0.2693003714084625,
        1.6277987957000732,
        1.177453875541687,
        0.348849892616272,
        -0.036988046020269394,
        -0.10781563073396683,
        -1.1108758449554443,
        0.20759999752044678,
        -1.075692892074585,
        -0.08378729969263077,
        -0.07134125381708145,
        -0.25466400384902954,
        0.4275014102458954,
        0.5443071722984314,
        -0.35943368077278137,
        -1.0573416948318481,
        -0.2659532427787781,
        -0.9100149869918823,
        -0.2826385498046875,
        0.48766231536865234,
        0.747876763343811,
        -1.0172947645187378,
        1.446393609046936,
        -0.39417389035224915,
        -1.7669967412948608,
        -0.43103763461112976,
        -0.294502317905426,
        0.34301459789276123,
        1.4622130393981934,
        -0.3229411542415619,
        -0.10746919363737106,
        -0.3064650297164917,
        0.4058332145214081,
        -0.30212417244911194,
        0.5957594513893127
      ],
      [
        -0.473342627286911,
        -0.09289995580911636,
        0.0805618092417717,
        -0.019993383437395096,
        -0.315963476896286,
        -0.07204856723546982,
        0.02764851786196232,
        0.3862122893333435,
        -0.03816680982708931,
        0.3821192681789398,
        -0.07480955123901367,
        0.2977164089679718,
        -0.19119422137737274,
        -0.13971371948719025,
        0.29131019115448,
        -0.35249796509742737,
        0.3213132321834564,
        0.10947094857692719,
        -0.4518999457359314,
        0.32070448994636536,
        0.16543200612068176,
        0.02246672473847866,
        -0.22186139225959778,
        -0.5050153136253357,
        -0.13970808684825897,
        1.525490164756775,
        -0.23035256564617157,
        0.19754064083099365,
        0.2104206681251526,
        -0.09139325469732285,
        0.4005243182182312,
        -0.31738653779029846,
        0.28449755907058716,
        -0.22140495479106903,
        0.23129794001579285,
        0.26664721965789795,
        -0.1901199221611023,
        -0.13734428584575653,
        0.11385549604892731,
        -0.27407610416412354
      ],
      [
        -1.005573034286499,
        0.1022954061627388,
        -0.07159010320901871,
        0.26211610436439514,
        -0.41741055250167847,
        0.0023294491693377495,
        -0.39949551224708557,
        -0.3520544469356537,
        -0.28433939814567566,
        0.41557440161705017,
        0.4086857736110687,
        -1.01261568069458,
        0.3583551049232483,
        0.7105768322944641,
        0.329456627368927,
        0.023946769535541534,
        0.16972622275352478,
        1.0681078433990479,
        0.20497100055217743,
        -0.46381714940071106,
        0.6951032280921936,
        0.46855199337005615,
        0.12686863541603088,
        -0.5309569835662842,
        -0.3083653450012207,
        -0.16032564640045166,
        -0.3458324670791626,
        0.7972633838653564,
        0.5626271367073059,
        0.3925420939922333,
        0.2538423538208008,
        0.2041274458169937,
        0.12571272253990173,
        -0.3909042477607727,
        0.5259462594985962,
        -0.5840728878974915,
        -0.24226118624210358,
        -0.5468642711639404,
        0.32404041290283203,
        -0.6291744112968445
      ],
      [
        -0.7181812524795532,
        -0.13369852304458618,
        0.7805507779121399,
        0.18653883039951324,
        0.1501627266407013,
        0.32493987679481506,
        -0.72688889503479,
        -0.12124846875667572,
        -0.47320979833602905,
        0.35182756185531616,
        0.6591381430625916,
        -0.03905089944601059,
        -0.10501216351985931,
        0.06636200845241547,
        0.1617114394903183,
        -0.1306956261396408,
        0.6571774482727051,
        -0.7426196336746216,
        -0.3394691050052643,
        -0.41379714012145996,
        0.5058916807174683,
        -0.019743844866752625,
        -0.06346946954727173,
        -0.19974759221076965,
        -0.37420257925987244,
        0.5013598203659058,
        -0.3733593225479126,
        0.030396316200494766,
        0.6031590104103088,
        0.5590813755989075,
        0.31988954544067383,
        0.8952543139457703,
        0.3178116977214813,
        -0.17055951058864594,
        0.5755999684333801,
        -0.35178014636039734,
        0.23464883863925934,
        -0.12427279353141785,
        -0.14023764431476593,
        -0.26232701539993286
      ],
      [
        -0.6314965486526489,
        0.307789146900177,
        -0.2537228465080261,
        0.7486094236373901,
        0.08610967546701431,
        -0.42241981625556946,
        -0.6819621920585632,
        0.022386500611901283,
        -0.1109790951013565,
        0.22041819989681244,
        0.2750082314014435,
        -0.7990090847015381,
        0.17375317215919495,
        0.0034128765109926462,
        0.6621432900428772,
        0.47456684708595276,
        0.05716754496097565,
        0.32030805945396423,
        -0.38888972997665405,
        -0.08340350538492203,
        0.6586771011352539,
        0.5559607148170471,
        -0.10149762779474258,
        -0.5719592571258545,
        -0.1525052934885025,
        -0.2735697627067566,
        0.3458136320114136,
        -0.06368815153837204,
        -0.2944028079509735,
        -0.17718388140201569,
        -0.20918719470500946,
        -0.08497985452413559,
        0.2931002080440521,
        -0.7691290974617004,
        -0.14584195613861084,
        -0.21087321639060974,
        0.09995850175619125,
        -0.381720632314682,
        -0.43694332242012024,
        -0.576910138130188
      ],
      [
        -0.2037259191274643,
        0.08136937767267227,
        0.04401877894997597,
        0.2432117909193039,
        0.6605260968208313,
        -0.5805222392082214,
        -0.8872095942497253,
        -0.4115874767303467,
        0.14246544241905212,
        -0.6487747430801392,
        0.2335718721151352,
        0.24109593033790588,
        -0.03746279701590538,
        -0.022153742611408234,
        0.14755254983901978,
        0.980718731880188,
        -0.42449501156806946,
        -0.010904460214078426,
        -0.18607379496097565,
        -0.08034425228834152,
        0.4762364327907562,
        0.3486267924308777,
        -0.23057851195335388,
        0.19514238834381104,
        0.4047105610370636,
        -0.6330801248550415,
        0.7182855606079102,
        0.21993711590766907,
        0.24884319305419922,
        0.5946990847587585,
        -0.3033510744571686,
        -0.2017529159784317,
        -0.0889870673418045,
        -0.27430421113967896,
        0.11472402513027191,
        -0.1535218060016632,
        -0.6445213556289673,
        -0.3030953109264374,
        -0.9114166498184204,
        -0.735066294670105
      ],
      [
        -0.06588625907897949,
        -0.42325568199157715,
        2.08555006980896,
        -0.35960766673088074,
        0.25253093242645264,
        0.17871570587158203,
        -2.714465856552124,
        0.030339891090989113,
        0.5688126683235168,
        -0.6117416620254517,
        -0.38793858885765076,
        -0.6004397869110107,
        -4.027623653411865,
        -0.46144378185272217,
        0.16583527624607086,
        0.13431935012340546,
        -0.32521679997444153,
        0.5348991751670837,
        -0.7462543845176697,
        -0.6872164011001587,
        -0.5438175797462463,
        -0.7121983170509338,
        1.3404629230499268,
        0.006531469523906708,
        -1.0661299228668213,
        1.3290027379989624,
        1.3529059886932373,
        -1.1157039403915405,
        -0.35649406909942627,
        -0.4803057312965393,
        -0.11568085104227066,
        0.5690444707870483,
        -0.0639147087931633,
        -0.04838278517127037,
        0.011666707694530487,
        -1.3763593435287476,
        0.7660043239593506,
        -1.4979031085968018,
        -0.36827507615089417,
        -0.09688442945480347
      ],
      [
        -0.3194333612918854,
        -0.42152994871139526,
        1.0131738185882568,
        0.6468483209609985,
        -0.39371153712272644,
        0.1757652759552002,
        0.01564512401819229,
        -0.03510395810008049,
        -1.0620734691619873,
        -0.05150625482201576,
        0.7701271772384644,
        0.7200849056243896,
        0.7579085826873779,
        0.35156217217445374,
        -0.8168908357620239,
        0.42024874687194824,
        -0.4472237527370453,
        -0.18199436366558075,
        -0.45558953285217285,
        -0.12283222377300262,
        0.7988793849945068,
        0.3870689570903778,
        -0.04590801149606705,
        -0.0867123082280159,
        0.00909437146037817,
        -0.013244702480733395,
        -0.1046772375702858,
        0.09854290634393692,
        0.5811765193939209,
        0.7524292469024658,
        0.20741379261016846,
        -0.03852284327149391,
        0.13536682724952698,
        0.41360893845558167,
        0.30335816740989685,
        -0.09697619080543518,
        -0.12187010049819946,
        -0.2312549650669098,
        -0.20477557182312012,
        -1.267977237701416
      ],
      [
        -0.8429678082466125,
        0.4936133325099945,
        0.7666890025138855,
        0.2623956501483917,
        0.19363118708133698,
        -0.306519478559494,
        -0.6344529390335083,
        -0.6847026944160461,
        -0.4928208589553833,
        0.14551520347595215,
        1.0893871784210205,
        0.05103321000933647,
        -0.048986632376909256,
        0.46735769510269165,
        -0.2175959199666977,
        -0.014014527201652527,
        0.2518610954284668,
        -0.10404269397258759,
        -0.08880362659692764,
        -0.9875580072402954,
        0.7081058025360107,
        1.049882173538208,
        -0.23356054723262787,
        0.024477168917655945,
        -0.41137954592704773,
        -0.1179567351937294,
        0.19199144840240479,
        0.5815131068229675,
        0.8331493735313416,
        0.6190251708030701,
        0.411814421415329,
        -0.20626364648342133,
        0.6254193782806396,
        -0.24925893545150757,
        0.8584197163581848,
        -0.6528432369232178,
        0.217356339097023,
        -0.43643519282341003,
        -0.2982736825942993,
        -0.9971742630004883
      ],
      [
        -0.06369082629680634,
        0.6080307960510254,
        1.0649936199188232,
        0.48117172718048096,
        -0.2319193035364151,
        0.393838107585907,
        0.1334216594696045,
        -0.37910887598991394,
        -0.1417534351348877,
        0.4853997826576233,
        0.6829643249511719,
        0.2362167090177536,
        -0.11554519087076187,
        0.2761598825454712,
        -0.5012457370758057,
        0.021357763558626175,
        0.03784589469432831,
        -0.3904082477092743,
        0.12245386093854904,
        0.007944203913211823,
        0.3864559829235077,
        -0.02549652010202408,
        0.36327043175697327,
        -0.04532957449555397,
        -0.44079357385635376,
        0.48347988724708557,
        0.13654501736164093,
        0.3525950312614441,
        0.46383142471313477,
        0.123745858669281,
        0.5373349785804749,
        0.7564214468002319,
        -0.032715149223804474,
        -0.5351613759994507,
        0.41770511865615845,
        -0.1485692411661148,
        0.15633746981620789,
        -0.19362331926822662,
        0.5275586247444153,
        -0.5146823525428772
      ],
      [
        -0.21706551313400269,
        -0.010695535689592361,
        0.18568426370620728,
        0.6549986004829407,
        0.09478466212749481,
        -0.23607437312602997,
        0.2922970652580261,
        -0.2842004597187042,
        -0.5443205833435059,
        0.02715436927974224,
        0.19359683990478516,
        0.1772584319114685,
        -0.1961566060781479,
        0.40742045640945435,
        0.28279924392700195,
        0.10115446150302887,
        0.2438739836215973,
        -0.2090427577495575,
        -0.2328859120607376,
        0.05422748625278473,
        0.6951195001602173,
        0.17766930162906647,
        0.08088887482881546,
        -0.1438094824552536,
        -0.3658811151981354,
        0.06098927929997444,
        -1.0993871688842773,
        -0.4940563440322876,
        0.1389167457818985,
        0.12225478142499924,
        -0.09790854901075363,
        0.24679258465766907,
        0.4119943082332611,
        -0.4844568371772766,
        0.07457181066274643,
        -0.22989116609096527,
        0.4385954737663269,
        -0.5700035095214844,
        -0.45687228441238403,
        -1.025553822517395
      ],
      [
        -0.31900712847709656,
        0.5358367562294006,
        0.522388219833374,
        0.770939290523529,
        0.29910433292388916,
        -0.21118660271167755,
        -0.44521719217300415,
        -0.6656343340873718,
        -0.3923637568950653,
        -0.39142751693725586,
        0.42176613211631775,
        -0.1702241748571396,
        0.11896150559186935,
        -0.011547878384590149,
        0.027483055368065834,
        0.42722639441490173,
        0.07966804504394531,
        0.15171340107917786,
        -0.729063093662262,
        -0.1533539593219757,
        0.4297654628753662,
        0.4702039361000061,
        0.05177849903702736,
        -0.08523666113615036,
        0.2876269519329071,
        0.5338152647018433,
        0.40884771943092346,
        0.15066999197006226,
        0.5271956920623779,
        0.2986728250980377,
        -0.30939584970474243,
        0.10382390767335892,
        -0.33546414971351624,
        -0.5982791781425476,
        0.2818644046783447,
        -0.3688748776912689,
        -0.11495862901210785,
        -0.46860823035240173,
        -0.5522794127464294,
        -0.7563446760177612
      ],
      [
        0.4860830307006836,
        -0.5056204795837402,
        0.7340074777603149,
        -0.7881353497505188,
        2.8428213596343994,
        0.0869288295507431,
        -0.6651123762130737,
        -0.6212614178657532,
        -2.526202917098999,
        -0.5744054317474365,
        -0.029200799763202667,
        -0.6334790587425232,
        -0.9430713653564453,
        -0.44794395565986633,
        -0.7288376092910767,
        0.25408685207366943,
        -0.39913272857666016,
        -0.8535606265068054,
        1.6025162935256958,
        1.1048717498779297,
        -0.7262294292449951,
        -0.35527074337005615,
        1.0890816450119019,
        0.13085578382015228,
        0.18777525424957275,
        0.055079229176044464,
        2.1914336681365967,
        0.7462878227233887,
        0.5363054871559143,
        -0.9536682963371277,
        -0.9845930933952332,
        1.624192714691162,
        0.9586172103881836,
        -0.12397373467683792,
        -0.0748068243265152,
        -0.2947993576526642,
        -0.02757307142019272,
        -0.7334418296813965,
        0.42730021476745605,
        0.7320129871368408
      ],
      [
        -1.016006350517273,
        -0.18972402811050415,
        -0.21979212760925293,
        -0.2748781740665436,
        1.5672576427459717,
        0.08577810972929001,
        -1.1300078630447388,
        0.1675415337085724,
        -0.934516191482544,
        0.29543912410736084,
        -0.10814632475376129,
        -0.32611387968063354,
        0.34644007682800293,
        -0.18344178795814514,
        0.36849328875541687,
        0.2750096023082733,
        -0.8947204351425171,
        0.17962948977947235,
        -0.674858033657074,
        0.3756026327610016,
        -0.6981813907623291,
        -0.0392274335026741,
        0.01208239234983921,
        0.06791845709085464,
        -0.5040293335914612,
        -0.9359806180000305,
        1.14912748336792,
        0.19656749069690704,
        -0.43834739923477173,
        -0.6674945950508118,
        -0.40474751591682434,
        0.04627092927694321,
        0.13768766820430756,
        -0.3931160867214203,
        -0.1946389526128769,
        -0.6073065996170044,
        0.7626703977584839,
        -0.16410328447818756,
        -0.12024930119514465,
        -0.297016441822052
      ],
      [
        -0.15728597342967987,
        -0.41893693804740906,
        -0.6000708341598511,
        -0.4078036844730377,
        0.17413432896137238,
        0.09503668546676636,
        0.2747241258621216,
        0.018673798069357872,
        -0.2851402759552002,
        -0.08593377470970154,
        0.0024260797072201967,
        0.021214405074715614,
        0.20821599662303925,
        -0.21036390960216522,
        0.02655973471701145,
        -0.0640844777226448,
        -0.0692727193236351,
        -0.0971364751458168,
        0.405056357383728,
        0.2534772753715515,
        0.14487527310848236,
        0.2544691860675812,
        0.35393285751342773,
        0.32394281029701233,
        0.538947582244873,
        0.1975267082452774,
        -0.3838267922401428,
        0.7120891213417053,
        0.035597071051597595,
        0.10676305741071701,
        -0.3815884292125702,
        -0.2552817463874817,
        -0.20187807083129883,
        -0.02211497165262699,
        -0.4046781361103058,
        -0.5196267366409302,
        -0.4128582179546356,
        -0.10943201929330826,
        -0.2898114025592804,
        0.06408923864364624
      ],
      [
        0.4353867471218109,
        0.011192599311470985,
        0.4886009693145752,
        0.036463309079408646,
        -0.03982451558113098,
        -0.34901612997055054,
        -0.010660234838724136,
        -0.2842400074005127,
        0.6436029672622681,
        -0.3972248435020447,
        0.47476980090141296,
        -0.8796989917755127,
        0.13148383796215057,
        0.1382654309272766,
        0.15562942624092102,
        0.26098963618278503,
        0.28125977516174316,
        0.5567749738693237,
        0.4563864767551422,
        -0.1773252636194229,
        0.31319138407707214,
        0.3780360221862793,
        0.3134947419166565,
        0.2190229594707489,
        0.046863947063684464,
        0.1901303231716156,
        -0.3940625488758087,
        -0.2901109457015991,
        0.007292109541594982,
        0.48069101572036743,
        -0.27447861433029175,
        0.0970456600189209,
        0.09982042759656906,
        -0.35059913992881775,
        0.250662237405777,
        -0.4385194182395935,
        -0.05959326773881912,
        -0.01283265557140112,
        0.4686019718647003,
        -0.44901973009109497
      ],
      [
        0.6895645260810852,
        0.5379646420478821,
        1.1977214813232422,
        -1.6384532451629639,
        0.6508305668830872,
        0.11568960547447205,
        -0.5006817579269409,
        0.27871862053871155,
        0.7376828789710999,
        0.2082206755876541,
        -1.1279678344726562,
        -0.7203639149665833,
        -1.7039856910705566,
        -0.09604430198669434,
        -0.21960215270519257,
        0.24498789012432098,
        -1.229940414428711,
        0.41568171977996826,
        -0.5432993173599243,
        0.6135406494140625,
        -1.0085973739624023,
        -0.3212657570838928,
        0.4890720546245575,
        -0.017560606822371483,
        -1.1566002368927002,
        0.6474112272262573,
        1.2031546831130981,
        -0.574378490447998,
        -0.9353747963905334,
        -0.5354073643684387,
        -0.11354893445968628,
        0.009537814185023308,
        -0.5739197731018066,
        -0.29519370198249817,
        -0.6526347398757935,
        -0.29839152097702026,
        0.398014098405838,
        -0.7395338416099548,
        0.23509588837623596,
        0.34454992413520813
      ],
      [
        -0.36402323842048645,
        -0.301460325717926,
        -0.1173962652683258,
        0.10352618247270584,
        -0.03086862340569496,
        -0.34989532828330994,
        -0.6331350803375244,
        -0.24586281180381775,
        -0.28204771876335144,
        -0.38524678349494934,
        0.4576256573200226,
        -0.37636321783065796,
        -0.03978334739804268,
        0.14332957565784454,
        -0.4299130439758301,
        0.36559516191482544,
        0.2832406163215637,
        0.42860114574432373,
        0.2274368554353714,
        -0.8532569408416748,
        0.5192628502845764,
        0.3830103576183319,
        0.3554353415966034,
        0.09651461243629456,
        0.13274748623371124,
        -0.6448453068733215,
        -0.28799158334732056,
        0.6811937093734741,
        0.5661536455154419,
        0.5884355306625366,
        0.2353612184524536,
        -0.021267380565404892,
        0.19303400814533234,
        0.10700929909944534,
        0.684079647064209,
        -0.04035701975226402,
        -0.22560781240463257,
        -0.014734558761119843,
        0.1255432665348053,
        -0.36176204681396484
      ],
      [
        -0.4071263074874878,
        -1.0933582782745361,
        0.4944484829902649,
        1.0439467430114746,
        -0.19428208470344543,
        -0.6546266078948975,
        -1.6735743284225464,
        -0.9495882987976074,
        -1.258432388305664,
        -0.09333914518356323,
        0.7631577253341675,
        -0.2320694774389267,
        -0.17092947661876678,
        0.3444611430168152,
        -0.4994560182094574,
        -0.23868906497955322,
        0.2003849446773529,
        -0.002008766168728471,
        -0.29483652114868164,
        -0.2526799738407135,
        1.1029390096664429,
        0.8872259855270386,
        0.19943265616893768,
        -0.1934766322374344,
        -0.07978710532188416,
        0.09847326576709747,
        -1.0345629453659058,
        0.24478624761104584,
        0.8255813717842102,
        0.8200291395187378,
        0.07372606545686722,
        -0.6553183197975159,
        0.5105485320091248,
        0.17291519045829773,
        0.6680277585983276,
        -0.1044606864452362,
        0.1905687302350998,
        -0.4986923933029175,
        0.1711631864309311,
        -1.2020468711853027
      ],
      [
        0.0005951048224233091,
        0.7082226276397705,
        0.11869587749242783,
        0.689612090587616,
        -0.2889404594898224,
        -0.15686416625976562,
        0.9156676530838013,
        0.29616615176200867,
        -0.19024871289730072,
        -0.02042684331536293,
        0.1136414185166359,
        0.4709895849227905,
        -0.5258134603500366,
        0.19728240370750427,
        0.4434627294540405,
        -0.2532463073730469,
        -0.333882212638855,
        -0.20329353213310242,
        -0.6519520282745361,
        0.15264992415905,
        0.2991112172603607,
        -0.39010414481163025,
        -0.06315893679857254,
        -0.6815445423126221,
        -0.06244295835494995,
        -0.8298200964927673,
        -1.2551900148391724,
        -0.13515447080135345,
        0.1689220815896988,
        -0.07342495024204254,
        0.47692397236824036,
        0.30544722080230713,
        0.2618553340435028,
        0.1707368791103363,
        0.6113178133964539,
        -0.698533833026886,
        0.615435004234314,
        -0.3912320137023926,
        0.4544713497161865,
        -0.3150478005409241
      ],
      [
        0.10234402120113373,
        0.6751449704170227,
        -1.1558003425598145,
        0.015418448485434055,
        -0.47841677069664,
        -0.45229828357696533,
        0.8088545799255371,
        1.4223319292068481,
        1.0378388166427612,
        0.5754993557929993,
        -0.8899650573730469,
        0.40779420733451843,
        -0.3757639229297638,
        0.6444905996322632,
        0.7561207413673401,
        -0.42518022656440735,
        0.022552210837602615,
        0.20755259692668915,
        -0.3307124674320221,
        -0.38451889157295227,
        0.29704099893569946,
        -0.8629450798034668,
        -0.2387842833995819,
        -0.8618527054786682,
        -0.8257096409797668,
        -0.41755494475364685,
        -0.21307151019573212,
        -0.4567616879940033,
        0.08076829463243484,
        0.06649938225746155,
        -0.0725363940000534,
        0.8564206957817078,
        -0.833099365234375,
        -0.5465553998947144,
        0.01343401800841093,
        0.37762102484703064,
        1.0840847492218018,
        -0.37466222047805786,
        0.5999606847763062,
        -0.1311800181865692
      ],
      [
        -0.13261865079402924,
        -0.22091789543628693,
        0.4826814830303192,
        -0.5384520888328552,
        -0.09383319318294525,
        -0.1786252111196518,
        0.07241804897785187,
        0.3623444736003876,
        0.45887842774391174,
        -0.3450113534927368,
        0.23566842079162598,
        0.39750975370407104,
        -0.755524218082428,
        -0.1889805793762207,
        0.179286390542984,
        0.03890438377857208,
        -0.049497608095407486,
        0.15991176664829254,
        -0.5484898686408997,
        0.04684730991721153,
        -0.8450562953948975,
        0.19383493065834045,
        -0.09934153407812119,
        0.042885586619377136,
        0.5579236149787903,
        1.1693305969238281,
        0.4438016414642334,
        0.27237769961357117,
        -0.3913632035255432,
        0.14906546473503113,
        -0.62869793176651,
        0.02293427661061287,
        0.5946236848831177,
        -0.14552462100982666,
        -0.3184402883052826,
        -1.1144845485687256,
        0.35676705837249756,
        -0.37512579560279846,
        -0.5687685608863831,
        0.08195696026086807
      ],
      [
        -0.1980181187391281,
        0.4166342318058014,
        0.3999585211277008,
        0.3774923086166382,
        0.2948894798755646,
        -0.7268844246864319,
        -0.007230227813124657,
        -0.23731286823749542,
        0.16747121512889862,
        -1.162133812904358,
        0.12887176871299744,
        0.28954920172691345,
        0.19578465819358826,
        -0.1322764903306961,
        0.3634900152683258,
        0.33274611830711365,
        -0.41865846514701843,
        0.43606531620025635,
        0.04804811626672745,
        -0.5030848383903503,
        0.6357592940330505,
        0.13881538808345795,
        -0.16163642704486847,
        -0.00650724908336997,
        0.2606733739376068,
        0.004217059817165136,
        0.21143929660320282,
        -0.043358612805604935,
        0.19641786813735962,
        0.09391046315431595,
        -0.4255073666572571,
        -0.08682931214570999,
        -0.34718742966651917,
        -0.16600197553634644,
        0.07928571105003357,
        -0.29941877722740173,
        -0.06289989501237869,
        -0.08731139451265335,
        -1.186850905418396,
        -0.7740104794502258
      ],
      [
        -0.3000563979148865,
        0.17125429213047028,
        0.18097856640815735,
        0.059650395065546036,
        -0.3049011826515198,
        0.25877973437309265,
        0.5464370846748352,
        0.03553185611963272,
        0.3580944836139679,
        -0.1480572372674942,
        0.009625292383134365,
        -1.5276681184768677,
        0.889008641242981,
        0.4726516604423523,
        0.13716952502727509,
        -0.2955092787742615,
        0.302486777305603,
        -0.0218094103038311,
        -0.718202531337738,
        -0.25768357515335083,
        0.6004841327667236,
        0.7939890027046204,
        -0.14790748059749603,
        -0.4562024176120758,
        -0.08819784224033356,
        0.6738530993461609,
        -0.9244890213012695,
        0.6857277154922485,
        0.1778537482023239,
        0.7602115273475647,
        0.2505984306335449,
        0.22195926308631897,
        -0.0814017727971077,
        -0.3332136273384094,
        -0.0780629962682724,
        -0.4913666844367981,
        -0.6215546131134033,
        0.33814194798469543,
        0.7009450793266296,
        -0.9685662984848022
      ],
      [
        -0.7856629490852356,
        -0.87101811170578,
        0.7213535904884338,
        0.17627087235450745,
        0.0048833624459803104,
        -0.0950850248336792,
        -0.703644871711731,
        -0.6208120584487915,
        -1.063403844833374,
        -0.3701806664466858,
        0.5833226442337036,
        0.2866361141204834,
        0.23419535160064697,
        -0.18779870867729187,
        -0.36426404118537903,
        0.7316617965698242,
        -0.06375470757484436,
        -0.32408401370048523,
        -0.18369562923908234,
        -0.49943405389785767,
        0.011248329654335976,
        0.2730790674686432,
        -0.0023295721039175987,
        0.29572436213493347,
        -0.18174955248832703,
        0.4786500334739685,
        -0.08381211757659912,
        -0.2731161117553711,
        0.14239384233951569,
        0.1934097558259964,
        0.2709788680076599,
        0.08066681772470474,
        -0.21697214245796204,
        0.1138877421617508,
        0.3657017648220062,
        -0.1829882711172104,
        0.3134758770465851,
        -0.2688535153865814,
        -0.5692604780197144,
        -0.38159316778182983
      ],
      [
        0.00390507816337049,
        0.6639077067375183,
        -0.011403027921915054,
        -0.2203805148601532,
        -0.9461210370063782,
        -0.0008958187536336482,
        -0.4871889650821686,
        0.15457428991794586,
        -0.2811680734157562,
        -0.10384245216846466,
        -0.15232564508914948,
        -0.1749349683523178,
        0.04011031985282898,
        -0.5459607243537903,
        0.3743181526660919,
        -0.12259238213300705,
        0.13926972448825836,
        0.05465003475546837,
        -0.758821964263916,
        -0.6907364130020142,
        -0.14622953534126282,
        0.6995205283164978,
        -0.1486990749835968,
        -0.5595353245735168,
        0.4297732412815094,
        0.8609917759895325,
        0.27057209610939026,
        0.586627721786499,
        0.08430857211351395,
        0.19613116979599,
        0.06727132201194763,
        -0.15334287285804749,
        0.07162381708621979,
        0.5779097080230713,
        0.029162438586354256,
        -0.007716328836977482,
        -0.3165176808834076,
        0.20127126574516296,
        -0.2537796199321747,
        0.03260694816708565
      ],
      [
        0.16189001500606537,
        -1.0297452211380005,
        0.2462512105703354,
        0.04606008157134056,
        -0.5919666886329651,
        -0.23665310442447662,
        -0.9564434885978699,
        -0.6471842527389526,
        0.006581160239875317,
        -0.5375754237174988,
        0.19158484041690826,
        0.08908457309007645,
        0.18243561685085297,
        0.23078089952468872,
        0.006084809545427561,
        0.6166797876358032,
        -0.2970932722091675,
        0.2559798061847687,
        0.053522009402513504,
        -0.7351036071777344,
        0.2218330055475235,
        0.42624223232269287,
        0.11660420149564743,
        -0.1026768758893013,
        0.11087659746408463,
        -0.013509194366633892,
        0.034097570925951004,
        0.0952533707022667,
        0.19318287074565887,
        0.5356038212776184,
        -0.20469991862773895,
        -0.28705859184265137,
        0.6604059934616089,
        -0.3735668659210205,
        0.3801305294036865,
        -0.2585153877735138,
        0.2708122134208679,
        -0.6132160425186157,
        -0.3068091571331024,
        -0.10663070529699326
      ],
      [
        0.40612828731536865,
        -0.36394619941711426,
        0.6209192276000977,
        -0.35530221462249756,
        -0.19700387120246887,
        0.021424008533358574,
        -0.32665732502937317,
        0.2925093173980713,
        -0.0769004374742508,
        0.27249693870544434,
        0.07391322404146194,
        -0.5137938261032104,
        0.10348603874444962,
        0.0658387839794159,
        0.10826291888952255,
        -0.3639961779117584,
        0.28479206562042236,
        0.2576618790626526,
        0.32737088203430176,
        -0.4917438328266144,
        -0.012666149064898491,
        0.8018918037414551,
        0.13049453496932983,
        -0.2871641516685486,
        -0.8283826112747192,
        0.569778323173523,
        -0.04842734336853027,
        -0.053209129720926285,
        0.2873994708061218,
        0.16025041043758392,
        0.030303534120321274,
        -0.19888514280319214,
        0.3757985830307007,
        0.04578208178281784,
        0.2389512062072754,
        0.03836989402770996,
        0.13340818881988525,
        -0.04387485980987549,
        0.27005210518836975,
        0.048644181340932846
      ],
      [
        -0.23147551715373993,
        0.07946567237377167,
        0.32957038283348083,
        0.21743184328079224,
        0.3777865171432495,
        -0.508881151676178,
        -0.5611822009086609,
        -0.30408480763435364,
        -0.4879402220249176,
        -0.3376822769641876,
        0.019727466627955437,
        0.8130328059196472,
        -0.2139771431684494,
        0.16830499470233917,
        -0.20240160822868347,
        0.4060721695423126,
        -0.21808426082134247,
        -0.16259470582008362,
        -0.8016890287399292,
        -0.15043100714683533,
        0.10354265570640564,
        0.41521286964416504,
        -0.12664957344532013,
        0.6251060962677002,
        0.7170143723487854,
        0.452127069234848,
        0.3199903964996338,
        0.27829498052597046,
        -0.13053975999355316,
        -0.056711647659540176,
        -0.0695776715874672,
        -0.463925302028656,
        -0.20604389905929565,
        -0.14950552582740784,
        0.00399987306445837,
        0.11229470372200012,
        -0.29188668727874756,
        0.36395177245140076,
        -0.862456202507019,
        0.15992231667041779
      ],
      [
        -0.24723489582538605,
        -0.011856069788336754,
        -0.8861936330795288,
        -1.0333096981048584,
        -0.889803946018219,
        0.18641813099384308,
        0.8807672262191772,
        1.08188796043396,
        1.3324596881866455,
        -0.9077418446540833,
        -0.47169479727745056,
        0.5048691630363464,
        -1.4113765954971313,
        0.19566939771175385,
        -0.028666237369179726,
        -0.2940082848072052,
        0.6516023874282837,
        0.3577423393726349,
        1.8058702945709229,
        0.6616392731666565,
        -3.2814626693725586,
        -0.17720843851566315,
        0.7514750361442566,
        -1.2972601652145386,
        1.1840765476226807,
        2.4372034072875977,
        -2.897041082382202,
        0.3624895513057709,
        -0.3537849485874176,
        0.0930112898349762,
        -0.16424907743930817,
        -0.921359658241272,
        0.20140618085861206,
        1.1198368072509766,
        0.22847189009189606,
        -1.0131173133850098,
        0.9895815253257751,
        1.3390790224075317,
        0.1348433643579483,
        -0.5442712903022766
      ],
      [
        -0.3746310770511627,
        -0.5163754224777222,
        0.24005953967571259,
        -0.6490484476089478,
        0.0057657933793962,
        -0.1153850182890892,
        -0.4684324860572815,
        -0.18759779632091522,
        0.33902090787887573,
        0.3566523492336273,
        0.17246924340724945,
        -1.0068224668502808,
        -0.5619351267814636,
        -0.3739864230155945,
        0.3389674425125122,
        0.5226766467094421,
        0.10207322984933853,
        -0.03860069438815117,
        -0.19187352061271667,
        -0.3740310072898865,
        -0.1853637397289276,
        0.09324049204587936,
        0.1047377660870552,
        -0.04508742317557335,
        -0.13166235387325287,
        -0.024794472381472588,
        0.2409246861934662,
        0.18237052857875824,
        -0.038027793169021606,
        -0.2248193472623825,
        -0.295228511095047,
        0.2318134903907776,
        -0.052642419934272766,
        0.12132851034402847,
        0.26851963996887207,
        -0.11543375253677368,
        -0.33469825983047485,
        -0.25626546144485474,
        -0.49623727798461914,
        0.5269804000854492
      ],
      [
        0.27411526441574097,
        0.8780041337013245,
        -0.3982946276664734,
        -1.153464913368225,
        -0.40472766757011414,
        0.5368852615356445,
        -1.8717684745788574,
        0.6172547936439514,
        0.7389371991157532,
        0.43758106231689453,
        0.44258344173431396,
        -1.4800573587417603,
        -0.4343724548816681,
        -0.23508715629577637,
        0.24103008210659027,
        -0.4282415807247162,
        0.3096572160720825,
        -0.4535154700279236,
        -0.11808092147111893,
        -0.6378691792488098,
        -0.6963582038879395,
        0.5786383748054504,
        -1.020859718322754,
        1.053114414215088,
        0.7943949699401855,
        -1.5111171007156372,
        -6.039982795715332,
        -0.4087050259113312,
        -0.35985642671585083,
        -0.2210892289876938,
        0.6305315494537354,
        -0.8642999529838562,
        -0.011273601092398167,
        -0.01584945060312748,
        -0.18617947399616241,
        -0.49528563022613525,
        -0.5378993153572083,
        3.775078296661377,
        0.2070864737033844,
        0.6927434802055359
      ],
      [
        -0.31518059968948364,
        0.06827262789011002,
        0.21555861830711365,
        0.45211902260780334,
        -0.06933756917715073,
        -0.049302320927381516,
        -0.6372547149658203,
        -0.561155378818512,
        -0.08110629767179489,
        -0.01871362328529358,
        0.5807400941848755,
        0.6792302131652832,
        0.13906165957450867,
        0.23718750476837158,
        -0.1304132491350174,
        0.0642104372382164,
        0.22193126380443573,
        -0.9128129482269287,
        0.16319197416305542,
        -0.5055825114250183,
        0.50162273645401,
        0.14353296160697937,
        0.12968091666698456,
        -0.4445675313472748,
        0.19029542803764343,
        0.510158360004425,
        -0.11191410571336746,
        0.48529765009880066,
        0.6469070911407471,
        0.6240568161010742,
        0.3351946473121643,
        0.6819318532943726,
        -0.1638210564851761,
        -0.0008294939761981368,
        0.5701106786727905,
        -0.2549205422401428,
        0.327706515789032,
        -0.20841220021247864,
        0.1416662037372589,
        -0.3165481388568878
      ],
      [
        -0.395344078540802,
        0.16585785150527954,
        0.17629967629909515,
        0.9157088994979858,
        0.022345781326293945,
        0.3942686915397644,
        -0.2709706127643585,
        0.07816777378320694,
        -0.05010547116398811,
        0.12146169692277908,
        0.5710862874984741,
        0.6418057680130005,
        0.09825775772333145,
        0.5299355387687683,
        0.33970877528190613,
        -0.366672545671463,
        0.2862030267715454,
        -0.9424600005149841,
        0.06288240104913712,
        -0.20991823077201843,
        0.18485534191131592,
        0.21367496252059937,
        0.12229494750499725,
        -0.6333507299423218,
        0.039536621421575546,
        0.6633284687995911,
        -0.11464008688926697,
        -0.024790456518530846,
        0.7024638056755066,
        0.47928541898727417,
        0.7097213864326477,
        0.39061444997787476,
        0.6041906476020813,
        0.12096177041530609,
        0.49981555342674255,
        -0.363407701253891,
        0.40899020433425903,
        -0.06692075729370117,
        -0.15500226616859436,
        -0.31118640303611755
      ],
      [
        0.29497843980789185,
        -0.5244712233543396,
        0.03388020396232605,
        -0.5613188743591309,
        -0.41071388125419617,
        0.5235467553138733,
        1.0879744291305542,
        0.7585436105728149,
        0.31640976667404175,
        -0.24547253549098969,
        -0.9921416640281677,
        -0.2497633546590805,
        -0.35948631167411804,
        -0.7566720843315125,
        -0.09982040524482727,
        -0.512590765953064,
        -0.3468216061592102,
        -0.06602399051189423,
        0.3583037257194519,
        0.4093337953090668,
        -1.2475590705871582,
        -0.043169569224119186,
        -0.48545166850090027,
        -0.3128620386123657,
        -0.4635448157787323,
        0.31582000851631165,
        -0.6152553558349609,
        -0.36891210079193115,
        -0.9420501589775085,
        -0.6265773177146912,
        0.37679487466812134,
        -0.302869588136673,
        -0.6220917701721191,
        0.7025171518325806,
        -0.9223107695579529,
        0.08372768014669418,
        0.9712867736816406,
        0.4164237380027771,
        0.45977428555488586,
        0.3221244513988495
      ],
      [
        -0.09263461083173752,
        -0.25000759959220886,
        0.058271221816539764,
        -0.5583784580230713,
        -0.2098594307899475,
        -0.034622129052877426,
        -1.0798664093017578,
        -0.6870330572128296,
        -0.8355945944786072,
        0.23011651635169983,
        0.5748697519302368,
        -0.5456686019897461,
        -0.2790445387363434,
        0.38139545917510986,
        -0.6251699328422546,
        0.4824344515800476,
        -0.49530720710754395,
        0.723363995552063,
        1.280471920967102,
        -0.47384747862815857,
        0.20236527919769287,
        0.34951305389404297,
        0.3584654629230499,
        0.28035521507263184,
        -1.0223909616470337,
        0.11484420299530029,
        0.02928791381418705,
        0.8221394419670105,
        0.3598773181438446,
        0.8473103642463684,
        -0.3912709653377533,
        0.9287489652633667,
        0.27912580966949463,
        0.055035706609487534,
        0.47576504945755005,
        0.36215245723724365,
        -1.261173963546753,
        -0.19664934277534485,
        0.18375679850578308,
        0.8973580002784729
      ],
      [
        -0.32390663027763367,
        0.6368533968925476,
        0.7666919827461243,
        -0.5610136985778809,
        0.5346959829330444,
        0.2690470218658447,
        -0.1415761411190033,
        -0.9232475757598877,
        -0.7225190997123718,
        -0.4456363022327423,
        0.4992094337940216,
        0.1212831661105156,
        -0.7282744646072388,
        -1.2119799852371216,
        -0.8305339813232422,
        -0.2837386131286621,
        -0.011741415597498417,
        -0.8665775656700134,
        -1.733404517173767,
        -0.2581635117530823,
        -0.11735286563634872,
        -0.6213773488998413,
        0.36907896399497986,
        -0.15886157751083374,
        -0.7817544937133789,
        0.6576622724533081,
        -0.10307275503873825,
        -0.26572084426879883,
        0.3149688243865967,
        0.48005223274230957,
        -0.4025467038154602,
        -0.28387463092803955,
        0.7389653325080872,
        -0.3207818269729614,
        0.16667495667934418,
        -0.007604265585541725,
        0.5098055601119995,
        0.19300155341625214,
        -0.6039228439331055,
        -0.5464655756950378
      ],
      [
        -0.32310545444488525,
        0.028673337772488594,
        0.3230529725551605,
        0.3188057839870453,
        0.04461028799414635,
        0.1626444160938263,
        -1.637340784072876,
        0.10815469920635223,
        -0.004912128206342459,
        -0.7622148394584656,
        0.9671598076820374,
        -0.6083683371543884,
        0.4682411551475525,
        0.37854745984077454,
        -0.09392471611499786,
        0.49416211247444153,
        -0.7438757419586182,
        -0.057003799825906754,
        0.7055230140686035,
        0.0868191123008728,
        0.219239741563797,
        1.6085489988327026,
        -0.6440415382385254,
        0.02172793820500374,
        0.150727778673172,
        -0.0900542363524437,
        -0.09774601459503174,
        0.9110404253005981,
        0.14800940454006195,
        0.8023479580879211,
        -0.08920381218194962,
        -0.1524498611688614,
        -0.35728752613067627,
        0.6306394338607788,
        0.0669177770614624,
        0.6505195498466492,
        -0.1841513216495514,
        -1.3751518726348877,
        0.041742004454135895,
        -0.33063915371894836
      ],
      [
        1.2796493768692017,
        -0.19053377211093903,
        0.5207845568656921,
        -0.7570450901985168,
        0.7203670144081116,
        0.507431149482727,
        0.22097672522068024,
        -0.017464641481637955,
        0.18277163803577423,
        -0.21853284537792206,
        -0.34578853845596313,
        -0.8758585453033447,
        -0.4361167550086975,
        -0.4183836579322815,
        0.3316807746887207,
        0.46893617510795593,
        -0.007437204010784626,
        -0.24476061761379242,
        0.8851549029350281,
        -0.17189767956733704,
        -0.7451687455177307,
        -1.098044991493225,
        -0.46915632486343384,
        1.045061469078064,
        -0.865770697593689,
        1.0805047750473022,
        0.14260923862457275,
        -0.7763265371322632,
        -0.18866312503814697,
        0.9124428033828735,
        -0.018241222947835922,
        0.22740072011947632,
        0.41110727190971375,
        0.3963606655597687,
        -0.30875223875045776,
        0.3535868227481842,
        -0.4425898492336273,
        0.6035246849060059,
        0.221764475107193,
        0.06743854284286499
      ],
      [
        0.21157164871692657,
        -0.05701689422130585,
        0.02375691942870617,
        -0.2867453396320343,
        0.1454228162765503,
        0.23641107976436615,
        0.40873822569847107,
        0.25582629442214966,
        0.1608375906944275,
        -0.17891710996627808,
        -0.3904559314250946,
        0.10831549018621445,
        -0.0472160205245018,
        -0.1677447259426117,
        0.21205592155456543,
        -0.37694281339645386,
        0.5301278829574585,
        -0.6019785404205322,
        0.1472368836402893,
        0.42116814851760864,
        -0.5519686937332153,
        -0.540996253490448,
        0.029595118016004562,
        -0.0788918137550354,
        -0.09821198135614395,
        -0.09178227931261063,
        -0.5406976938247681,
        -0.3172013461589813,
        -0.5259283185005188,
        -0.23110894858837128,
        0.5768986940383911,
        0.11964467912912369,
        0.23488134145736694,
        0.19664713740348816,
        -0.5134732723236084,
        0.36242201924324036,
        0.008870885707437992,
        0.42172831296920776,
        -0.05051466450095177,
        0.45456528663635254
      ],
      [
        0.6474160552024841,
        -0.8233923316001892,
        -0.2131965607404709,
        -1.3154301643371582,
        0.151987224817276,
        -0.03409053385257721,
        -0.8069847822189331,
        0.4057212173938751,
        0.3093832731246948,
        -0.1247486099600792,
        -0.1837361603975296,
        0.30561205744743347,
        -0.5362929701805115,
        -0.17208154499530792,
        -0.03925503417849541,
        0.26014038920402527,
        -0.011940665543079376,
        -0.477495402097702,
        0.2904486060142517,
        -0.8586641550064087,
        -0.571427583694458,
        -0.12265595048666,
        1.2092591524124146,
        -0.15216051042079926,
        -1.0932353734970093,
        -0.3158488869667053,
        0.17454512417316437,
        0.15142133831977844,
        -0.17523491382598877,
        -1.3523634672164917,
        0.27682769298553467,
        0.1404118686914444,
        0.3545757532119751,
        -0.3170383870601654,
        0.04684210941195488,
        0.2567773163318634,
        0.5678587555885315,
        -0.6385365128517151,
        0.023763734847307205,
        0.3590335249900818
      ],
      [
        -0.08707641810178757,
        0.16192255914211273,
        0.2824581265449524,
        -0.01467128749936819,
        -0.11746339499950409,
        0.13919636607170105,
        -0.24833443760871887,
        0.08189525455236435,
        -0.09496501088142395,
        -0.02838946133852005,
        -0.3920755982398987,
        -0.11770577728748322,
        -0.24955496191978455,
        -0.29397472739219666,
        0.2928512394428253,
        -0.38245251774787903,
        -0.14711980521678925,
        0.19542540609836578,
        -0.33932533860206604,
        0.3788647949695587,
        -0.12835954129695892,
        -0.39523613452911377,
        0.3079652786254883,
        -0.36501529812812805,
        -0.21326974034309387,
        0.16452114284038544,
        -0.016154896467924118,
        -0.41960352659225464,
        -0.12835745513439178,
        -0.04758238047361374,
        0.07642077654600143,
        -0.13110843300819397,
        -0.13488304615020752,
        -0.5419085621833801,
        -0.444827675819397,
        0.2947389781475067,
        -0.13835930824279785,
        0.07123646140098572,
        0.4269203245639801,
        0.10696490854024887
      ],
      [
        0.619511067867279,
        -0.8114094734191895,
        -0.13672266900539398,
        -0.7450807690620422,
        -0.26125237345695496,
        0.9719423651695251,
        0.4750816226005554,
        -0.03844518959522247,
        -0.7023151516914368,
        -0.25973108410835266,
        -0.195565864443779,
        0.28449776768684387,
        -0.10954023152589798,
        -0.615261435508728,
        0.01216288935393095,
        0.2238120287656784,
        -0.5838680267333984,
        0.14664854109287262,
        0.26946234703063965,
        0.615131139755249,
        -1.0758860111236572,
        -0.5036298036575317,
        -0.42326194047927856,
        0.3544250726699829,
        0.2526652216911316,
        -0.1763656586408615,
        -0.5532932281494141,
        -0.2512063682079315,
        -0.527446985244751,
        -0.38735461235046387,
        -0.15295779705047607,
        -1.2596033811569214,
        -0.5961263179779053,
        0.7578019499778748,
        -0.5334568619728088,
        0.4690565764904022,
        -0.04704637825489044,
        0.5041918754577637,
        0.23582012951374054,
        0.23673351109027863
      ],
      [
        0.8179227709770203,
        0.6882026195526123,
        -0.6041952967643738,
        -0.8405789732933044,
        0.42062193155288696,
        -0.2258252501487732,
        0.5543234348297119,
        0.7186846733093262,
        0.08218280971050262,
        -0.09325513988733292,
        -1.1240272521972656,
        -0.3366018831729889,
        -0.6168596148490906,
        -0.5203823447227478,
        0.54900062084198,
        0.17737996578216553,
        -0.362405002117157,
        0.1773882508277893,
        -0.534948468208313,
        0.7573584914207458,
        -0.4482685625553131,
        -0.41360417008399963,
        -0.48254531621932983,
        0.10149684548377991,
        -0.32960811257362366,
        -0.5434303879737854,
        0.5248802304267883,
        -0.8239069581031799,
        -0.6310653686523438,
        -0.3265173137187958,
        -0.38024452328681946,
        -0.2965359687805176,
        -0.17642298340797424,
        -0.43672695755958557,
        -0.7480990886688232,
        0.29497429728507996,
        -0.195670023560524,
        0.4004382789134979,
        -0.05777868255972862,
        0.14466355741024017
      ],
      [
        -0.23804150521755219,
        -0.6973698139190674,
        -0.3569270670413971,
        -0.4915798306465149,
        0.010792490094900131,
        0.4076610803604126,
        0.10059543699026108,
        0.39326900243759155,
        -0.14525167644023895,
        0.29982611536979675,
        0.1039511114358902,
        -0.11899835616350174,
        -0.11920475214719772,
        0.34463319182395935,
        0.0839795470237732,
        -0.124045729637146,
        0.37124723196029663,
        -0.1697235405445099,
        0.25425103306770325,
        0.6673873662948608,
        -0.2949327528476715,
        -0.43093985319137573,
        0.28630271553993225,
        -0.5195486545562744,
        0.49122291803359985,
        0.3093932867050171,
        -0.5373049974441528,
        -0.19278623163700104,
        -0.5594288110733032,
        -0.18256428837776184,
        -0.01639447920024395,
        -0.08667057007551193,
        0.14381736516952515,
        0.332419753074646,
        -0.4815649390220642,
        0.09424535185098648,
        0.26355040073394775,
        0.3283423185348511,
        -0.31354111433029175,
        0.27077972888946533
      ],
      [
        0.20100536942481995,
        -1.1769437789916992,
        1.1773681640625,
        0.07300044596195221,
        -0.7090154886245728,
        0.732401967048645,
        0.1607043594121933,
        0.8052322864532471,
        0.17169497907161713,
        0.2271241843700409,
        -0.14454592764377594,
        0.9589365124702454,
        -0.2561742663383484,
        0.2802583575248718,
        -0.7077459692955017,
        -0.3170926570892334,
        0.9868611693382263,
        -1.037113904953003,
        1.2503894567489624,
        0.24089966714382172,
        -0.303676038980484,
        -0.744528591632843,
        0.4429420828819275,
        -0.24779072403907776,
        -0.20737747848033905,
        0.9451733827590942,
        -0.5885490775108337,
        1.1347923278808594,
        0.8154357075691223,
        -0.6639607548713684,
        0.4259754419326782,
        0.6758353114128113,
        1.4001781940460205,
        0.7054917812347412,
        0.49505487084388733,
        -0.2962861955165863,
        0.3459520936012268,
        0.15933847427368164,
        -0.3182374835014343,
        0.512977123260498
      ],
      [
        -0.362529456615448,
        0.21729974448680878,
        -0.667591392993927,
        0.19199363887310028,
        0.23941810429096222,
        0.2608834505081177,
        -0.19214889407157898,
        0.6908246278762817,
        0.14785493910312653,
        -0.5135791301727295,
        0.6320421695709229,
        -0.7405902147293091,
        -0.23200075328350067,
        -0.2255156934261322,
        -0.24567057192325592,
        0.70587557554245,
        -0.4010801613330841,
        -0.3912172317504883,
        0.22702312469482422,
        -0.3073381185531616,
        0.9376192092895508,
        0.34284934401512146,
        -0.7807385921478271,
        0.554289698600769,
        0.4868932366371155,
        1.462381362915039,
        -0.4492148756980896,
        0.08062651008367538,
        -0.1764765977859497,
        0.2309793084859848,
        -0.21338973939418793,
        -0.20529380440711975,
        -0.1574183702468872,
        0.32078802585601807,
        0.012834462337195873,
        0.6374549269676208,
        -0.766791045665741,
        0.4627353549003601,
        0.10449698567390442,
        0.3755831718444824
      ],
      [
        0.8011054396629333,
        -0.09502466022968292,
        -0.09585630893707275,
        -0.4680819809436798,
        0.059773605316877365,
        0.2913382053375244,
        0.48083099722862244,
        1.2367960214614868,
        -0.22096112370491028,
        -0.3694463074207306,
        -0.8440605998039246,
        0.43110719323158264,
        -0.10633212327957153,
        0.05423995479941368,
        0.624271035194397,
        0.2560572922229767,
        -0.5182753205299377,
        0.38161468505859375,
        -0.05650036036968231,
        0.49650701880455017,
        -0.554923951625824,
        -0.2916869521141052,
        -0.3961796164512634,
        0.037440225481987,
        -0.08222554624080658,
        -0.11905330419540405,
        0.4284026324748993,
        -0.2529681324958801,
        -0.6311722993850708,
        -0.6347164511680603,
        -0.09713714569807053,
        0.35228052735328674,
        -0.5187731981277466,
        -0.33725282549858093,
        -0.4534938335418701,
        0.08140059560537338,
        0.15624688565731049,
        -0.06309733539819717,
        -0.05101121589541435,
        -0.5432806611061096
      ],
      [
        0.5590371489524841,
        0.17176541686058044,
        0.21965505182743073,
        -0.748784065246582,
        -0.18494181334972382,
        0.36680692434310913,
        0.45647868514060974,
        0.930259108543396,
        0.7684434652328491,
        -0.35946205258369446,
        -0.759267270565033,
        0.4209171235561371,
        -0.9435794949531555,
        -0.4679577648639679,
        0.27551236748695374,
        -0.6425309777259827,
        -0.42974433302879333,
        -0.20678536593914032,
        -0.39621156454086304,
        0.322991281747818,
        -0.9981654286384583,
        -0.5079472064971924,
        -0.5119204521179199,
        0.1485692262649536,
        0.4460259974002838,
        0.3171689510345459,
        0.5925933718681335,
        -0.3832760453224182,
        -0.6695340871810913,
        -0.9130011200904846,
        -0.015728911384940147,
        0.5379021167755127,
        -0.4922224283218384,
        0.2543298900127411,
        -0.8026794195175171,
        0.5583393573760986,
        0.5457316637039185,
        0.8531354665756226,
        0.04976416379213333,
        0.3823767900466919
      ],
      [
        0.4426761567592621,
        0.2578486204147339,
        0.05985376238822937,
        -0.19446124136447906,
        0.2567032277584076,
        0.1411483883857727,
        0.6128441691398621,
        0.25603875517845154,
        -0.10336995124816895,
        0.15357927978038788,
        -0.5060703754425049,
        0.5472999215126038,
        -0.4211411476135254,
        -0.17389288544654846,
        0.12781906127929688,
        0.4531422257423401,
        -0.12733499705791473,
        -0.14710944890975952,
        -0.1975221186876297,
        0.641359806060791,
        -0.557996392250061,
        -0.4140847325325012,
        -0.47949910163879395,
        -0.25148245692253113,
        0.14801795780658722,
        0.3133443295955658,
        0.15452487766742706,
        -0.18374085426330566,
        -0.34574827551841736,
        -0.6874310970306396,
        0.08136752992868423,
        -0.217928946018219,
        -0.2893045246601105,
        0.3227880299091339,
        -0.4756472408771515,
        0.43940648436546326,
        0.10406897962093353,
        0.507470428943634,
        -0.015146184712648392,
        -0.18896976113319397
      ],
      [
        0.5223283171653748,
        -0.10965382307767868,
        -0.5666738748550415,
        -0.4547243118286133,
        0.3239891827106476,
        -0.07898686826229095,
        0.24101684987545013,
        0.27774161100387573,
        -0.4305365979671478,
        0.20795509219169617,
        -0.14366230368614197,
        0.51304692029953,
        0.0957479178905487,
        0.5363353490829468,
        0.22913259267807007,
        2.6274485207977705e-05,
        0.19683916866779327,
        -0.1599750965833664,
        0.21452338993549347,
        0.29282763600349426,
        0.08595269173383713,
        -0.5396299362182617,
        0.5310052633285522,
        0.3735206425189972,
        -0.778677225112915,
        0.13386939465999603,
        -0.6736865639686584,
        -0.3591344654560089,
        -0.12927789986133575,
        0.3360961377620697,
        -0.4339936673641205,
        0.5846268534660339,
        0.16958928108215332,
        -0.1465906798839569,
        -0.2255709171295166,
        -0.177937313914299,
        0.212565615773201,
        -0.2781263291835785,
        -0.4106757342815399,
        -0.46394363045692444
      ],
      [
        0.38476452231407166,
        -0.1215154305100441,
        -0.19260382652282715,
        -0.29107868671417236,
        -0.2619099020957947,
        0.8880575895309448,
        0.2642728388309479,
        0.5507901310920715,
        0.14064103364944458,
        0.4073437750339508,
        -0.32602396607398987,
        0.6175234317779541,
        -0.1249927207827568,
        0.22825637459754944,
        -0.13556908071041107,
        -0.29845184087753296,
        0.4664856791496277,
        -0.611892580986023,
        0.24667906761169434,
        0.14924314618110657,
        -0.5974466800689697,
        -0.5651547908782959,
        0.41610974073410034,
        -0.29515793919563293,
        0.01482002530246973,
        0.461353600025177,
        -0.3457219898700714,
        0.9293532967567444,
        0.37823957204818726,
        -0.1479169875383377,
        0.350905179977417,
        0.09771221876144409,
        0.5666232109069824,
        0.3247891068458557,
        0.14373397827148438,
        0.2437620908021927,
        0.289931058883667,
        0.44020020961761475,
        0.36785954236984253,
        0.5733299851417542
      ],
      [
        -0.2663296163082123,
        -0.09119187295436859,
        2.4707088470458984,
        -0.8738029599189758,
        1.6309818029403687,
        -0.10006304085254669,
        -0.03984449803829193,
        -0.7888894081115723,
        -0.6562328338623047,
        -0.2669568657875061,
        1.071893334388733,
        -2.7514188289642334,
        0.1535092294216156,
        0.32284989953041077,
        -0.3545220196247101,
        0.35258322954177856,
        -0.11892274022102356,
        -0.09349722415208817,
        -0.8801559209823608,
        -0.5836248993873596,
        0.04275762289762497,
        -0.652741014957428,
        -0.049329012632369995,
        0.5380896329879761,
        1.6340960264205933,
        0.2898605167865753,
        1.6517242193222046,
        -0.31004032492637634,
        0.2833993136882782,
        1.181559443473816,
        -0.1731746643781662,
        1.8863688707351685,
        0.6974949836730957,
        0.6739005446434021,
        0.26732972264289856,
        1.073203682899475,
        -0.3897923529148102,
        0.7532334327697754,
        -0.5494266748428345,
        0.259708970785141
      ],
      [
        0.26230359077453613,
        0.9888531565666199,
        1.3151894807815552,
        0.38930967450141907,
        0.637907087802887,
        -0.3051658868789673,
        0.022127017378807068,
        -0.5003636479377747,
        -0.5718169808387756,
        0.01981637440621853,
        0.3300405740737915,
        -0.2982436716556549,
        -0.6741456389427185,
        -0.40901273488998413,
        0.0746583640575409,
        0.1725127100944519,
        -0.01874161884188652,
        -0.8486063480377197,
        -0.6359076499938965,
        0.0912940502166748,
        0.5501362085342407,
        -0.6082533001899719,
        -0.06775905191898346,
        -0.4383547604084015,
        0.13094216585159302,
        0.23776713013648987,
        -0.3538542687892914,
        -0.3533588647842407,
        0.36304065585136414,
        -0.11184975504875183,
        0.10817908495664597,
        0.8096610903739929,
        0.4511783719062805,
        0.2687169015407562,
        0.23734711110591888,
        -0.15239045023918152,
        0.5141335725784302,
        -0.3898458182811737,
        0.247969850897789,
        -0.3509823679924011
      ],
      [
        -0.14593388140201569,
        -0.3702637255191803,
        -0.03113081306219101,
        0.02103046141564846,
        0.024636078625917435,
        0.062260325998067856,
        -0.32633209228515625,
        0.13263344764709473,
        0.11845238506793976,
        -0.0932416096329689,
        -0.24023990333080292,
        -0.2578052580356598,
        0.1605243682861328,
        -0.1128053367137909,
        0.1129225566983223,
        -0.0468912310898304,
        0.0126870796084404,
        -0.04307420924305916,
        0.049296870827674866,
        -0.3636595904827118,
        0.041098374873399734,
        0.1039838045835495,
        -0.055071812123060226,
        0.4190109372138977,
        0.26420632004737854,
        -0.4844375252723694,
        -0.44668495655059814,
        0.5375283360481262,
        -0.16026397049427032,
        0.02498556487262249,
        -0.19311180710792542,
        0.22736701369285583,
        -0.25303542613983154,
        -0.35719481110572815,
        -0.3879420757293701,
        -0.3594207465648651,
        -0.3562842905521393,
        -0.29983243346214294,
        0.24771054089069366,
        -0.29100942611694336
      ],
      [
        0.6962894201278687,
        -0.20587900280952454,
        1.1485421657562256,
        -0.29432404041290283,
        -0.5216421484947205,
        0.20781424641609192,
        0.14308375120162964,
        0.02646477334201336,
        0.39227625727653503,
        -0.29307252168655396,
        -0.0028569435235112906,
        0.2318638563156128,
        -0.11970846354961395,
        0.6573352217674255,
        -0.5554686188697815,
        -0.173091322183609,
        0.370454341173172,
        -0.10340539366006851,
        0.34322214126586914,
        -0.16654227674007416,
        -0.28758278489112854,
        0.13124017417430878,
        0.40487995743751526,
        -0.1330181360244751,
        0.4556180238723755,
        0.5666508674621582,
        0.04009943827986717,
        0.010580303147435188,
        0.015202567912638187,
        0.45904701948165894,
        0.055482953786849976,
        0.2647382616996765,
        -0.10463389754295349,
        0.1617552489042282,
        -0.33355817198753357,
        0.16269350051879883,
        0.32196590304374695,
        0.056104354560375214,
        0.8822741508483887,
        0.14332152903079987
      ],
      [
        0.012429507449269295,
        -0.09024307131767273,
        0.07245132327079773,
        -0.8260508179664612,
        0.27856457233428955,
        0.2848048806190491,
        0.028940530493855476,
        0.6328819394111633,
        -0.0018336736829951406,
        0.19805648922920227,
        0.03057054616510868,
        0.14803296327590942,
        -0.02608637884259224,
        0.15883073210716248,
        0.012739144265651703,
        0.15376077592372894,
        0.2643736004829407,
        0.5457454919815063,
        0.38028520345687866,
        -0.15996569395065308,
        -0.3630848526954651,
        -0.42494189739227295,
        1.0470340251922607,
        0.3341423571109772,
        0.031508371233940125,
        1.2260748147964478,
        0.24517977237701416,
        -0.1757027804851532,
        -0.07989775389432907,
        0.08263449370861053,
        -0.2228122353553772,
        0.4019080102443695,
        -0.0948222354054451,
        0.17785602807998657,
        -0.371352881193161,
        0.1742933839559555,
        0.11077036708593369,
        -0.18747581541538239,
        0.15173858404159546,
        0.7113908529281616
      ],
      [
        -0.040350187569856644,
        -0.2552328109741211,
        -0.3601168394088745,
        -0.0811251550912857,
        0.08967527002096176,
        0.45220693945884705,
        0.7481168508529663,
        0.802611231803894,
        0.14779989421367645,
        -0.2815112769603729,
        -0.9465236663818359,
        0.12357284873723984,
        0.14998365938663483,
        -0.13750101625919342,
        0.35463690757751465,
        0.037421345710754395,
        -0.21147246658802032,
        0.1747322678565979,
        0.04260103404521942,
        0.47319495677948,
        -0.8232334852218628,
        -0.7835718989372253,
        -1.5035072565078735,
        -0.09889595210552216,
        -0.08227306604385376,
        -0.16267894208431244,
        0.4599757492542267,
        -0.3406529724597931,
        -0.8391732573509216,
        -1.061141848564148,
        -0.33818864822387695,
        0.1879323273897171,
        -0.5088264346122742,
        -0.49726590514183044,
        -0.6900615096092224,
        0.13064256310462952,
        0.528612494468689,
        0.05286533012986183,
        0.44858452677726746,
        0.392676442861557
      ],
      [
        0.4584119915962219,
        1.030578374862671,
        0.08518224954605103,
        0.1525692343711853,
        -0.5397944450378418,
        1.038070559501648,
        1.9069464206695557,
        0.5790607333183289,
        0.4732084572315216,
        -0.5121824145317078,
        -1.3864870071411133,
        -0.28865960240364075,
        -0.13711589574813843,
        -0.4629051685333252,
        0.3127288520336151,
        0.042462315410375595,
        -1.0389704704284668,
        0.1862185299396515,
        0.9821897745132446,
        0.9395294785499573,
        -1.0602107048034668,
        -1.2447395324707031,
        -0.3361988961696625,
        0.1234661266207695,
        -0.22123856842517853,
        1.5021573305130005,
        0.355570524930954,
        -1.541062831878662,
        -0.9290593266487122,
        -1.1769540309906006,
        -0.2162640243768692,
        0.5766919851303101,
        0.027750277891755104,
        0.4691649079322815,
        -0.6380680203437805,
        0.8024683594703674,
        0.9705724120140076,
        0.846390426158905,
        0.9978622198104858,
        1.3783533573150635
      ],
      [
        -0.05465755984187126,
        0.5075808763504028,
        0.12124571204185486,
        -0.23517964780330658,
        0.7395370006561279,
        0.1687590479850769,
        0.363710880279541,
        -0.2301674783229828,
        0.1798640638589859,
        -0.44520479440689087,
        -0.22060626745224,
        0.8392142057418823,
        -0.8365642428398132,
        -0.19874319434165955,
        0.13426928222179413,
        0.6238669753074646,
        -0.16301070153713226,
        0.2338237315416336,
        -0.12005919218063354,
        0.4024638533592224,
        -0.4073847234249115,
        -0.6246969699859619,
        -0.009473004378378391,
        0.9154897928237915,
        1.488183617591858,
        -0.2249441295862198,
        -0.006374112796038389,
        0.0023549410980194807,
        -0.2380615770816803,
        -0.01691247522830963,
        0.04054614156484604,
        0.02925214171409607,
        -0.4199827313423157,
        0.9840980768203735,
        0.13991263508796692,
        0.3111476004123688,
        -0.24630644917488098,
        0.4314316213130951,
        0.0694832056760788,
        0.1676565557718277
      ],
      [
        -0.48917537927627563,
        0.41099587082862854,
        0.9322189092636108,
        -0.10447891801595688,
        -0.27286240458488464,
        0.041455380618572235,
        0.3670009970664978,
        -0.42671850323677063,
        -0.21786633133888245,
        0.4620996117591858,
        0.09126754850149155,
        0.7284038662910461,
        -0.815410315990448,
        0.3607082664966583,
        0.3848539888858795,
        0.12214923650026321,
        0.3379245400428772,
        -0.06550312787294388,
        -0.5818302631378174,
        -1.5044282674789429,
        -0.3108038604259491,
        0.1229643002152443,
        -0.41017600893974304,
        0.4172994792461395,
        -0.5310396552085876,
        -0.4939414858818054,
        -0.02842550538480282,
        -0.6386386156082153,
        0.2967422902584076,
        -0.8696901202201843,
        0.41798293590545654,
        0.570134162902832,
        -0.17888009548187256,
        -0.10626747459173203,
        0.19287005066871643,
        -0.42259833216667175,
        -0.18059249222278595,
        -0.17881008982658386,
        0.13959693908691406,
        0.06298176199197769
      ],
      [
        0.05231183022260666,
        -0.1865212619304657,
        -0.16090254485607147,
        -0.6253886222839355,
        -0.09544528275728226,
        0.4783577024936676,
        -0.2774007320404053,
        0.2685421407222748,
        0.3317106366157532,
        -0.06432529538869858,
        -0.08510590344667435,
        0.16836559772491455,
        -0.4079274833202362,
        0.020447975024580956,
        -0.2171432077884674,
        -0.14723798632621765,
        0.015950752422213554,
        -0.17818109691143036,
        -1.0534977912902832,
        -0.18191520869731903,
        -0.5072370767593384,
        -0.31177398562431335,
        0.444855272769928,
        0.22072955965995789,
        0.32521310448646545,
        1.183012843132019,
        0.6090752482414246,
        0.18730100989341736,
        -0.2017366737127304,
        0.758076012134552,
        -0.4265446662902832,
        0.09730865061283112,
        0.06765861064195633,
        -0.08010253310203552,
        -0.33455854654312134,
        -0.20474061369895935,
        0.2892623543739319,
        -0.07281183451414108,
        -0.3294517993927002,
        0.5077605247497559
      ],
      [
        0.07591845095157623,
        -0.472093790769577,
        -0.20951774716377258,
        -0.6411673426628113,
        0.08950614184141159,
        0.3496206998825073,
        0.38342952728271484,
        0.3468005955219269,
        0.20504304766654968,
        -0.8227125406265259,
        -0.3065403997898102,
        0.8333526253700256,
        -0.03788406401872635,
        -0.01199796050786972,
        0.004758454393595457,
        -0.2007731795310974,
        0.21161900460720062,
        -0.3994457423686981,
        0.24333351850509644,
        0.2843379080295563,
        -0.5190844535827637,
        -0.42527344822883606,
        -0.09852170199155807,
        -0.18960057199001312,
        -0.07551400363445282,
        0.18918970227241516,
        -0.3398307263851166,
        -0.3545655906200409,
        -0.11288011819124222,
        -0.24892142415046692,
        -0.0917399525642395,
        0.1694648563861847,
        -0.39310985803604126,
        0.4875517785549164,
        -0.2512431740760803,
        0.21882444620132446,
        0.2776351869106293,
        0.12688907980918884,
        -0.370677649974823,
        0.49610739946365356
      ],
      [
        0.641818106174469,
        0.18816359341144562,
        0.4719601571559906,
        -0.17555557191371918,
        0.2756495773792267,
        -0.2054613083600998,
        0.17868739366531372,
        -0.2095816433429718,
        -0.013195418752729893,
        0.08227518945932388,
        0.15903659164905548,
        -0.18672111630439758,
        0.7231432199478149,
        0.18891961872577667,
        -0.16861246526241302,
        0.23506440222263336,
        0.13099198043346405,
        -0.17750713229179382,
        -0.016642944887280464,
        -0.050530921667814255,
        -0.0681784600019455,
        -0.003537270240485668,
        -0.5696113705635071,
        -0.1387338787317276,
        -0.47957661747932434,
        1.0032325983047485,
        -0.4739648699760437,
        -0.3268134593963623,
        0.09289771318435669,
        0.6846089959144592,
        -0.010334283113479614,
        -0.22432276606559753,
        -0.41806748509407043,
        -0.2671104371547699,
        -0.3430576026439667,
        -0.5815402269363403,
        -0.20182852447032928,
        0.25246676802635193,
        0.31431180238723755,
        -0.6573016047477722
      ],
      [
        0.4040451943874359,
        0.2591950297355652,
        -0.6175982356071472,
        -0.595319390296936,
        -0.026805389672517776,
        0.3646824359893799,
        0.698754608631134,
        0.46715372800827026,
        0.4528716504573822,
        -0.26511693000793457,
        -0.7727062702178955,
        0.4937441349029541,
        -0.19138045608997345,
        0.010305368341505527,
        0.290426641702652,
        0.22567369043827057,
        -0.11241932213306427,
        -0.05525202304124832,
        0.568354606628418,
        0.33176085352897644,
        -0.6539760828018188,
        -0.21023042500019073,
        -0.14176180958747864,
        0.22705616056919098,
        -0.1945965439081192,
        0.15868525207042694,
        -0.36730721592903137,
        -0.31324607133865356,
        -0.23917190730571747,
        -0.2863294184207916,
        0.0340501070022583,
        0.10673016309738159,
        -0.31123021245002747,
        0.3898299038410187,
        -0.4148097038269043,
        0.3904883563518524,
        0.5182971954345703,
        0.48807665705680847,
        0.09444711357355118,
        0.410099059343338
      ],
      [
        -0.08771408349275589,
        -0.016337543725967407,
        0.3020814061164856,
        -0.12198866903781891,
        -0.5312445759773254,
        0.3370652198791504,
        -0.10235979408025742,
        0.169695645570755,
        0.1153566837310791,
        0.08856342732906342,
        -0.6087127327919006,
        0.4233081340789795,
        -0.288373202085495,
        -0.19736070930957794,
        0.6072183847427368,
        0.07187549769878387,
        0.38471487164497375,
        -0.06345565617084503,
        -0.6532028913497925,
        -0.1545165330171585,
        -0.48610612750053406,
        0.08525428920984268,
        0.16456317901611328,
        -0.615551233291626,
        0.9591659307479858,
        -0.6791638731956482,
        -0.11910257488489151,
        0.579206645488739,
        -0.11706766486167908,
        -0.32348284125328064,
        0.15365777909755707,
        0.25965583324432373,
        0.17142635583877563,
        0.9882923364639282,
        -0.25805920362472534,
        -0.15932509303092957,
        0.031677715480327606,
        0.2603653371334076,
        0.042025718837976456,
        0.042057834565639496
      ],
      [
        1.1732292175292969,
        0.786923885345459,
        -0.3488042950630188,
        0.19573380053043365,
        -0.19280250370502472,
        0.2494889795780182,
        0.21163232624530792,
        0.4995686709880829,
        1.1042143106460571,
        -0.5148792862892151,
        -0.6323148012161255,
        -0.5286148190498352,
        -0.5000206232070923,
        -0.03997918590903282,
        0.3443230390548706,
        0.25833791494369507,
        -0.610255777835846,
        0.12917105853557587,
        0.05329618230462074,
        0.13122142851352692,
        -0.1843072474002838,
        0.24335743486881256,
        -0.16801129281520844,
        0.36404451727867126,
        -0.47918400168418884,
        -0.509181022644043,
        -0.314882755279541,
        -0.583393931388855,
        -0.40081873536109924,
        -0.21610020101070404,
        -0.3816971480846405,
        -0.5805536508560181,
        0.6181650757789612,
        0.34005776047706604,
        -0.49515414237976074,
        0.4924306869506836,
        0.08382285386323929,
        0.4221387505531311,
        -0.3873569667339325,
        0.25651413202285767
      ],
      [
        0.49828776717185974,
        -0.24531786143779755,
        -0.9102903008460999,
        0.015328118577599525,
        0.2495274394750595,
        0.3499056100845337,
        0.5961245894432068,
        0.29539576172828674,
        0.16335801780223846,
        -0.29733434319496155,
        -0.1379639357328415,
        0.2483842819929123,
        -0.25594836473464966,
        -0.3146956264972687,
        -0.3263833820819855,
        0.06948045641183853,
        0.06907957792282104,
        0.0012338485103100538,
        -0.1689399927854538,
        0.20178663730621338,
        -0.1252780556678772,
        0.7397048473358154,
        -0.23395155370235443,
        0.3988635838031769,
        0.30330541729927063,
        -0.19710691273212433,
        -0.4312041997909546,
        -0.5366037487983704,
        -0.20642518997192383,
        -0.16681435704231262,
        -0.17209018766880035,
        -0.679293692111969,
        -0.102354995906353,
        0.2102651298046112,
        -0.2527603209018707,
        0.30401715636253357,
        -0.2944375276565552,
        0.3187718987464905,
        0.4058603048324585,
        0.11697384715080261
      ],
      [
        0.07297646254301071,
        -0.07309770584106445,
        0.05004435405135155,
        0.021816089749336243,
        0.2750861346721649,
        0.19673924148082733,
        0.5140942335128784,
        0.1669255644083023,
        -0.12067582458257675,
        -0.24021661281585693,
        -0.315669983625412,
        0.6131380200386047,
        -0.1570729911327362,
        -0.25645187497138977,
        0.06757740676403046,
        -0.09544852375984192,
        -0.18015770614147186,
        -0.33112969994544983,
        -0.27409598231315613,
        0.28312596678733826,
        -0.288712739944458,
        -0.2563515603542328,
        -0.13309437036514282,
        0.4315435588359833,
        0.2868168354034424,
        0.5929905772209167,
        -0.19361908733844757,
        -0.0892801508307457,
        -0.12743359804153442,
        -0.2853988707065582,
        -0.3281775414943695,
        0.09030958265066147,
        -0.03734609857201576,
        -0.20649217069149017,
        -0.10381458699703217,
        -0.2286585122346878,
        0.26517021656036377,
        0.13206490874290466,
        -0.631374180316925,
        0.6374563574790955
      ],
      [
        0.08134215325117111,
        -0.12550276517868042,
        0.10991209745407104,
        0.1329348236322403,
        -0.15957121551036835,
        0.25902828574180603,
        0.10622513294219971,
        -0.5067742466926575,
        -0.38382068276405334,
        -0.028164679184556007,
        0.3586846888065338,
        0.026171794161200523,
        -0.07673316448926926,
        -0.3055289387702942,
        -0.2404812127351761,
        0.08865997940301895,
        -0.10849284380674362,
        -0.4253828823566437,
        0.07030781358480453,
        0.04511304572224617,
        0.3449726700782776,
        -0.03696269914507866,
        0.26258742809295654,
        0.17473170161247253,
        -0.08410341292619705,
        0.4294382333755493,
        -0.3668343424797058,
        -0.495362788438797,
        -0.1308809220790863,
        0.5743271112442017,
        -0.2476966679096222,
        0.23469561338424683,
        -0.20781001448631287,
        0.6775185465812683,
        -0.3156563639640808,
        -0.4379783272743225,
        0.3639751076698303,
        -0.15770402550697327,
        -0.17503254115581512,
        0.6379924416542053
      ],
      [
        0.09174521267414093,
        -1.004589319229126,
        0.682819664478302,
        0.11770777404308319,
        -0.45054200291633606,
        0.23134809732437134,
        0.048861172050237656,
        0.2614217698574066,
        0.5584760904312134,
        0.5856528282165527,
        -0.3009970486164093,
        -0.0035571001935750246,
        -0.7836930155754089,
        0.04042745381593704,
        -0.07149877399206161,
        -0.12741243839263916,
        0.23296132683753967,
        -0.09151534736156464,
        0.10700567066669464,
        -0.34130552411079407,
        -0.09229568392038345,
        0.0787806361913681,
        -0.2986038327217102,
        0.20474715530872345,
        0.45785316824913025,
        0.41014572978019714,
        -0.09302321821451187,
        -0.08829431235790253,
        -0.3740278482437134,
        -0.3142368793487549,
        -0.20191003382205963,
        -0.30029788613319397,
        -0.4441499412059784,
        0.18554756045341492,
        -0.09250970184803009,
        0.019834797829389572,
        0.1300639659166336,
        0.4397152066230774,
        0.2945933938026428,
        0.8094862699508667
      ],
      [
        0.45349282026290894,
        0.36355867981910706,
        0.2509397566318512,
        -1.7633686065673828,
        -1.2466295957565308,
        0.5122913122177124,
        0.6074566841125488,
        0.27175867557525635,
        -0.36759862303733826,
        0.14617158472537994,
        0.9618090391159058,
        0.0677730143070221,
        -0.8459906578063965,
        0.35923439264297485,
        -0.7377210259437561,
        -0.056063927710056305,
        0.16942156851291656,
        -0.2454127073287964,
        1.4450455904006958,
        -0.046133942902088165,
        0.6365877985954285,
        0.5479164123535156,
        -0.06809774041175842,
        0.8157326579093933,
        0.9046740531921387,
        1.8415199518203735,
        -1.0052751302719116,
        1.0185487270355225,
        0.5092942714691162,
        1.3115290403366089,
        -0.07777920365333557,
        -0.567476212978363,
        -0.7878138422966003,
        0.6069825291633606,
        -0.0637509673833847,
        -0.27174654603004456,
        -0.7280448079109192,
        0.5091408491134644,
        -0.18757666647434235,
        1.3106669187545776
      ],
      [
        0.9019069075584412,
        0.1732790172100067,
        -0.9550597667694092,
        -0.29792046546936035,
        0.5743404626846313,
        0.09410279989242554,
        0.5968539714813232,
        0.4396643340587616,
        0.066970594227314,
        0.13662859797477722,
        -0.8607381582260132,
        -0.2735916078090668,
        -0.34869030117988586,
        -0.509310781955719,
        0.3084731698036194,
        0.25507354736328125,
        -0.49500763416290283,
        0.022384610027074814,
        0.4012938439846039,
        0.4021521508693695,
        -0.7260367274284363,
        -0.9287794828414917,
        -0.22949658334255219,
        0.2000207006931305,
        -0.01652003824710846,
        0.21887169778347015,
        0.13573643565177917,
        -0.6240052580833435,
        -0.7444639801979065,
        -0.7199723720550537,
        -0.307047575712204,
        -0.6792267560958862,
        -0.3283345103263855,
        0.09627431631088257,
        -0.9044546484947205,
        0.382066547870636,
