{"version": "0.5.4", "metadata": {"date": {"year": 2025, "month": 2, "day": 21, "hour": 17, "minute": 30, "second": 59}, "loudness": -10.20913314819336, "gain": 0.6552534266243092}, "architecture": "WaveNet", "config": {"layers": [{"input_size": 1, "condition_size": 1, "head_size": 8, "channels": 16, "kernel_size": 3, "dilations": [1, 2, 4, 8, 16, 32, 64, 128, 256, 512], "activation": "Tanh", "gated": false, "head_bias": false}, {"input_size": 16, "condition_size": 1, "head_size": 1, "channels": 8, "kernel_size": 3, "dilations": [1, 2, 4, 8, 16, 32, 64, 128, 256, 512], "activation": "Tanh", "gated": false, "head_bias": false}], "head": null, "head_scale": 0.02}, "weights": [5.141670771990903e-05, -1.0071041584014893, -0.7597543597221375, 0.44360244274139404, -0.8242658972740173, -0.3728315532207489, 0.4459010362625122, 0.7328123450279236, 0.1666993647813797, -0.9561072587966919, -0.06118520349264145, 0.6111299395561218, 0.6419655084609985, -0.9128919839859009, -0.3546839952468872, 0.73404860496521, 0.10584728419780731, 0.015949275344610214, 0.06824794411659241, 0.18953248858451843, 0.1792823076248169, -0.011427648365497589, -0.04380716383457184, -0.007226571906358004, 0.021686306223273277, 0.033443745225667953, -0.1449660360813141, -0.034428130835294724, 0.08243047446012497, -0.048682503402233124, 0.10218232870101929, 0.133636012673378, 0.1482875943183899, -0.13010862469673157, -0.1309283971786499, 0.02901117131114006, -0.04232655465602875, -0.11884497106075287, -0.11772332340478897, 0.04818686842918396, -0.18784891068935394, 0.05244006961584091, 0.06081607937812805, 0.10338651388883591, -0.10187270492315292, -0.16342490911483765, -0.032434653490781784, 0.163070946931839, -0.02049364149570465, -0.19460450112819672, -0.17601263523101807, -0.009445338509976864, -0.2048845738172531, 0.02799098752439022, 0.07195217907428741, -0.06630701571702957, 0.18342679738998413, 0.06569071859121323, -0.060987189412117004, 0.05559559911489487, 0.09807588905096054, -0.020537471398711205, -0.06180594861507416, -0.02249899134039879, 0.17968124151229858, -0.05079379677772522, 0.09653670340776443, 0.05000395327806473, 0.07907121628522873, -0.1211259737610817, 0.22579549252986908, -0.07942838221788406, -0.033110085874795914, -0.21611922979354858, -0.13532283902168274, -0.012019478715956211, 0.21430712938308716, 0.12946562469005585, 0.11344392597675323, -0.052850961685180664, 0.1126483902335167, -0.06518452614545822, -0.03823434188961983, -0.14987990260124207, 0.075868621468544, 0.0030148860532790422, 0.07060743868350983, -0.09145781397819519, 0.013130429200828075, 0.0685548409819603, 0.07322825491428375, 0.14430947601795197, -0.023589039221405983, 0.0473424568772316, 0.07719476521015167, 0.14788860082626343, 0.025298457592725754, -0.17649883031845093, -0.05458105728030205, 0.040706511586904526, -0.1409095674753189, 0.008254777640104294, -0.07472456991672516, -0.06091361492872238, 0.11534684896469116, 0.060065969824790955, 0.04229459911584854, 0.08188601583242416, 0.11899029463529587, -0.1450617015361786, -0.043483030050992966, -0.08544891327619553, -0.021686621010303497, 0.14712807536125183, -0.04719733074307442, -0.0973639115691185, 0.1603316217660904, -0.11306286603212357, 0.11067921668291092, 0.1542448103427887, -0.1069413349032402, -0.12630026042461395, -0.019731935113668442, 0.064376100897789, 0.03124680370092392, 0.13598310947418213, 0.047639720141887665, -0.0045752995647490025, -0.022779276594519615, -0.17987826466560364, 0.03411487862467766, -0.17673185467720032, -0.012857437133789062, 0.11148553341627121, -0.12538094818592072, 0.2193356305360794, -0.13230852782726288, -0.01600855588912964, 0.02048618532717228, -0.025244276970624924, 0.1218193769454956, -0.04266943782567978, -0.0918099507689476, 0.07931733131408691, -0.18406569957733154, -0.016140135005116463, -0.10551253706216812, 0.03376765921711922, 0.07607147097587585, -0.1056310161948204, 0.015813296660780907, -0.04464827850461006, -0.006553038954734802, -0.14020073413848877, 0.08838988840579987, 0.051470380276441574, -0.01636686362326145, -0.06203674525022507, -0.17275145649909973, 0.10790681838989258, 0.13908794522285461, -0.11993424594402313, 0.018542295321822166, -0.018284963443875313, -0.11930476874113083, 0.16149260103702545, 0.10344748198986053, -0.19468115270137787, -0.04466886445879936, -0.09154897928237915, 0.19538621604442596, 0.04975886642932892, 0.019670521840453148, -0.22421671450138092, -0.04941245913505554, -0.07823362946510315, -0.17044074833393097, 0.03534480556845665, -0.07847820222377777, 0.21570082008838654, 0.016344744712114334, 0.0826835185289383, 0.02568456530570984, -0.04633571207523346, -0.026863953098654747, 0.0798884928226471, -0.0893147811293602, 0.027472296729683876, -0.02328222244977951, 0.10240486264228821, -0.07875663787126541, -0.17429788410663605, -0.007421314716339111, 0.005542153492569923, 0.045401860028505325, 0.003897132119163871, -0.11385729163885117, 0.1499582678079605, 0.05863875895738602, 0.16902412474155426, -0.1726720780134201, 0.1449647694826126, -0.057603057473897934, -0.21737360954284668, 0.03655191883444786, 0.07122320681810379, 0.21333591639995575, -0.019209956750273705, -0.0739855021238327, 0.04499748721718788, -0.3164624273777008, -0.017337068915367126, -0.13579420745372772, -0.04450573772192001, 0.1712374985218048, 0.08571302145719528, -0.07652397453784943, -0.20125961303710938, 0.0928720012307167, 0.2525746524333954, -0.07136096060276031, -0.12360361218452454, -0.2350282371044159, 0.15481744706630707, -0.07609572261571884, -0.0044485735706985, -0.015520242974162102, 0.12906891107559204, 0.06214861944317818, -0.03025643154978752, -0.07064887136220932, 0.13432255387306213, -0.047417037189006805, 0.11530450731515884, 0.26037663221359253, 0.0819992944598198, -0.11275315284729004, -0.25735044479370117, -0.0034131084103137255, 0.058489859104156494, -0.22979600727558136, -0.07362300157546997, 0.0033227098174393177, 0.08763229846954346, -0.019254114478826523, -0.08326210826635361, 0.2207164764404297, -0.01092590019106865, 0.11235284060239792, -0.1690051555633545, 0.08176641911268234, 0.0590866319835186, -0.1977296769618988, 0.06396523863077164, 0.14269357919692993, 0.1819106489419937, -0.011445990763604641, -0.06325087696313858, 0.05969338119029999, -0.0657438263297081, -0.0985865518450737, -0.002841984387487173, 0.06937197595834732, 0.03296854346990585, 0.06743258237838745, 0.048096783459186554, -0.005605252925306559, -0.18367411196231842, 0.029670754447579384, 0.09096632897853851, 0.13446597754955292, -0.004128222819417715, -0.16292975842952728, 0.007237711921334267, 0.15547901391983032, 0.18826505541801453, -0.0756307914853096, 0.10676103085279465, 0.011793834157288074, -0.13442371785640717, -6.797979585826397e-05, 0.04767971485853195, -0.019298942759633064, -0.1271948218345642, -0.14998291432857513, 0.08368945866823196, -0.14516979455947876, -0.1527150422334671, -0.06677588075399399, 0.03992819786071777, 0.17236687242984772, -0.0705474391579628, 0.019610535353422165, 0.10082519054412842, -0.07096770405769348, -0.1840522438287735, -0.19471564888954163, -0.00013011576083954424, -0.07215014100074768, -0.10348165035247803, -0.08932165056467056, 0.03564663231372833, 0.10132356733083725, 0.07666483521461487, 0.1008603423833847, -0.07214837521314621, 0.09781850129365921, 0.17568066716194153, 0.022765718400478363, -0.15777912735939026, 0.009062808938324451, -0.026749957352876663, -0.16166265308856964, 0.027379043400287628, -0.11788718402385712, -0.024916689842939377, 0.13998018205165863, 0.03640402480959892, 0.00014174294483382255, 0.2107117921113968, 0.03465081751346588, -0.07420913875102997, -0.11027585715055466, -0.005671281833201647, -0.028707226738333702, -0.10449956357479095, -0.0763573944568634, 0.12463834136724472, -0.1126885786652565, 0.009967059828341007, 0.005990947596728802, 0.2094895988702774, -0.1320972889661789, -0.11336001753807068, 0.07202544808387756, -0.14373859763145447, -0.09326492995023727, -0.17808976769447327, 0.05234649032354355, 0.16385138034820557, -0.07343870401382446, -0.1172090694308281, -0.045870427042245865, 0.11258173733949661, 0.014153257012367249, -0.14116781949996948, 0.14819274842739105, -0.12801332771778107, -0.08100906014442444, -0.021433155983686447, -0.014300609938800335, -0.012862825766205788, 0.33233892917633057, 0.3488009572029114, 0.36822718381881714, 0.037726785987615585, 0.09633388370275497, -0.05790219455957413, 0.017112011089920998, 0.07656894624233246, 0.013963810168206692, -0.024987857788801193, -0.07743470370769501, 0.11494335532188416, -0.05901932343840599, 0.0101723438128829, -0.1428127884864807, 0.15306584537029266, -0.04832758754491806, -0.15251532196998596, -0.11234240233898163, 0.04350246489048004, 0.03556765615940094, 0.08821164816617966, 0.09929031133651733, -0.08994340151548386, -0.01212515588849783, -0.09103572368621826, -0.04952102154493332, -0.059688691049814224, -0.008212358690798283, -0.07491970807313919, 0.03122665174305439, 0.07012351602315903, -0.10573013126850128, -0.029485994949936867, -0.06854245811700821, 0.11136478930711746, -0.1728690266609192, 0.01962963119149208, -0.007973226718604565, 0.025953808799386024, -0.06683661043643951, -0.012047325260937214, 0.16873687505722046, -0.06115691363811493, -0.02025209367275238, 0.04429424926638603, 0.08290638774633408, 0.06576737761497498, -0.12976795434951782, 0.11293067038059235, 0.04768802970647812, -0.18601125478744507, 0.0026059835217893124, 0.12778739631175995, -0.057621169835329056, -0.2056095153093338, -0.06591259688138962, 0.03696272149682045, 0.22241619229316711, -0.174587681889534, 0.06575217843055725, -0.11141104996204376, 0.1356232762336731, -0.16121946275234222, -0.21437227725982666, 0.22023379802703857, 0.08082228153944016, -0.013802512548863888, -0.179408460855484, 0.11965997517108917, -0.0287321787327528, 0.0022806848865002394, 0.10139202326536179, -0.009209760464727879, -0.12147706001996994, -0.10674882680177689, -0.04502002149820328, 0.1743035465478897, -0.16230274736881256, -0.01667932979762554, 0.06844251602888107, -0.007044223602861166, 0.003983847796916962, -0.01050716731697321, -0.09128797799348831, 0.22666282951831818, -0.120455302298069, -0.1666014939546585, 0.02544502727687359, -0.0670551210641861, 0.07798533886671066, -0.00022033631103113294, 0.05837634950876236, 0.1567651629447937, 0.05114995688199997, -0.06598898023366928, 0.23496991395950317, 0.22865030169487, 0.14951607584953308, 0.09588486701250076, 0.11759500950574875, 0.06298653781414032, -0.03261793404817581, 0.19791868329048157, -0.07870896905660629, 0.016399938613176346, -0.19880856573581696, -0.053053371608257294, 0.057592008262872696, 0.20428328216075897, 0.0938052237033844, 0.08484501391649246, 0.1581786572933197, 0.11393368244171143, 0.14131152629852295, -0.3405032157897949, 0.04263422265648842, 0.08384042978286743, -0.15403832495212555, -0.07793951034545898, 0.11260705441236496, -0.3337935507297516, 0.03685002774000168, -0.01530050951987505, 0.10570935904979706, -0.00982245709747076, 0.13979090750217438, 0.2662372589111328, -0.004519768990576267, 0.10854537039995193, -0.21277835965156555, 0.008299926295876503, -0.04106827825307846, -0.1842462718486786, -0.00538621935993433, 0.09443291276693344, 0.17929969727993011, 0.08669175207614899, 0.017755387350916862, 0.2727231979370117, 0.07407300919294357, 0.12541517615318298, -0.12493332475423813, -0.15271969139575958, -0.12705659866333008, -0.010530451312661171, -0.0649571344256401, 0.08093190938234329, 0.08324918895959854, 0.10429109632968903, -0.07413723319768906, 0.0026519503444433212, -0.002540231915190816, -0.05016401782631874, 0.02520410716533661, 0.09011798352003098, 0.07958586513996124, 0.1587733030319214, -0.09866546094417572, -0.04238676652312279, 0.0015610127011314034, -0.026843562722206116, -0.049743276089429855, -0.16779258847236633, 0.03540043532848358, -0.1229805275797844, -0.07921995967626572, -0.01115171518176794, -0.1100376695394516, -0.04491712152957916, 0.02340303361415863, -0.044313475489616394, 0.05917096138000488, -0.1026444211602211, 0.10314520448446274, 0.13139347732067108, -0.0356450155377388, 0.011341415345668793, -0.0645516961812973, -0.059680670499801636, 0.05900830402970314, 0.03609815239906311, 0.0520644411444664, -0.11518679559230804, -0.058439917862415314, -0.06143670901656151, -0.003799361176788807, 0.12557896971702576, -0.13339075446128845, -0.12239187210798264, -0.16340021789073944, 0.1287805140018463, -0.18428340554237366, 0.038620706647634506, -0.12357853353023529, -0.06924030929803848, -0.025112206116318703, 0.09430984407663345, -0.054972030222415924, -0.13577838242053986, 0.09754829108715057, -0.011879345402121544, 0.021479876711964607, 0.026239493861794472, -0.17560584843158722, -0.051960062235593796, -0.02370641380548477, -0.07699752599000931, -0.17432525753974915, 0.10685410350561142, 0.21226505935192108, -0.07345037162303925, -0.12392035871744156, 0.19983501732349396, -0.002766981488093734, -0.1368011087179184, -8.122892904793844e-05, -0.0594358891248703, -0.08804109692573547, 8.5913430666551e-05, 0.078367680311203, -0.09522117674350739, -0.016272442415356636, -0.060593146830797195, 0.05911228805780411, 0.16612905263900757, 0.10664982348680496, -0.163042351603508, 0.04060705378651619, 0.12985259294509888, 0.027184773236513138, -0.023371607065200806, -0.18974821269512177, 0.000667485932353884, -0.11219117045402527, -0.06977056711912155, 0.1080738753080368, 0.016888786107301712, 0.1898057609796524, 0.08832764625549316, 0.08919036388397217, 0.06141884624958038, 0.09050048887729645, -0.05773940682411194, 0.005089277401566505, -0.0030460096895694733, -0.14743106067180634, 0.06182999908924103, 0.04440212622284889, 0.20586936175823212, 0.16576837003231049, -0.030744435265660286, -0.10922566056251526, -0.1676647961139679, -0.08205143362283707, -0.21612726151943207, -0.20302815735340118, 0.15904438495635986, 0.0862673670053482, 0.1141795963048935, -0.015511827543377876, 0.21144706010818481, 0.006525118835270405, 0.10699590295553207, 0.2192448079586029, -0.007237653713673353, 0.0805324912071228, -0.18317961692810059, -0.05343141406774521, -0.00527580501511693, -0.11007191985845566, 0.06212311238050461, -0.04057443514466286, 0.16338609158992767, 0.17360341548919678, -0.1251697838306427, 0.12039202451705933, 0.16258789598941803, -0.005520699080079794, -0.09951967746019363, 0.050454966723918915, -0.0399947389960289, 0.03014669008553028, -0.12093557417392731, 0.07661312818527222, -0.008681602776050568, 0.08459717035293579, 0.08414267003536224, -0.10547824949026108, -0.18949586153030396, -0.2079956978559494, 0.007426733151078224, -0.18008963763713837, 0.027521219104528427, 0.026582323014736176, -0.20730330049991608, 0.10043530911207199, 0.0016187072033062577, 0.1568707376718521, -0.04581360146403313, 0.08641976118087769, -0.26165688037872314, 0.14521798491477966, -0.02050556056201458, -0.16279244422912598, 0.11166374385356903, -0.10560263693332672, 0.05658698081970215, -0.05742853879928589, -0.07868602126836777, 0.32553520798683167, 0.02141379378736019, -0.12004068493843079, 0.06921171396970749, -0.022513899952173233, -0.06466320902109146, -0.0750446766614914, 0.11610874533653259, 0.027643173933029175, -0.2314271330833435, 0.07371170073747635, 0.0615832582116127, 0.054322633892297745, 0.0022718405816704035, -0.1804211586713791, 0.16618712246418, -0.15521405637264252, 0.17872369289398193, -0.13244697451591492, 0.0714893788099289, 0.07256068289279938, -0.3214450180530548, 0.009302723221480846, -0.16101960837841034, 0.3002452254295349, -0.08091587573289871, -0.15395136177539825, -0.10150067508220673, -0.05665745213627815, -0.054157473146915436, -0.030094942077994347, 0.1502721607685089, -0.07713912427425385, -0.09298902750015259, -0.005741831846535206, -0.003186793765053153, -0.024480003863573074, -0.14665435254573822, -0.17559652030467987, -0.1439826637506485, 0.17311283946037292, -0.11656451970338821, -0.1419588327407837, 0.20666314661502838, 0.0858120322227478, -0.03301839157938957, -0.13670022785663605, 0.04652063176035881, 0.07663202285766602, -0.0003922895120922476, -0.012357903644442558, 0.03584539145231247, -0.1515815556049347, -0.10340964049100876, 0.08057601004838943, -0.013892593793570995, 0.02137133479118347, 0.06834441423416138, -0.01497538760304451, 0.11108635365962982, 0.10816439241170883, 0.03361866623163223, -0.019138619303703308, -0.06611545383930206, -0.17334461212158203, -0.09206543117761612, 0.028567010536789894, 0.13721340894699097, -0.0494820699095726, 0.11112719774246216, 0.21937230229377747, 0.19463829696178436, 0.1022428646683693, -0.06322887539863586, -0.052504442632198334, 0.1589745432138443, -0.09663107991218567, -0.054591163992881775, 0.18109038472175598, 0.07071682810783386, 0.16396141052246094, 0.20006275177001953, -0.016976866871118546, -0.15639086067676544, -0.08538498729467392, -0.13778331875801086, -0.06079060584306717, 0.0018553867703303695, -0.047270290553569794, 0.10082754492759705, -0.0022304148878902197, -0.09542147070169449, 0.0767800509929657, -0.2125779092311859, 0.06847194582223892, -0.11776286363601685, -0.10170522332191467, -0.14204663038253784, -0.1007770523428917, 0.021394846960902214, 0.12209978699684143, -0.08862052857875824, 0.19768528640270233, -0.08055633306503296, 0.0037282872945070267, 0.19578611850738525, -0.09875880926847458, -0.10831005871295929, -0.045126769691705704, 0.10167502611875534, 0.010738702490925789, -0.17416521906852722, 0.09977076947689056, 0.1952369660139084, 0.07130441069602966, 0.0016864364733919501, 0.01824021525681019, 0.12050562351942062, -0.04500248283147812, 0.03298453986644745, -0.10497666150331497, -0.06861872225999832, -0.006923181004822254, -0.12203952670097351, -0.15790097415447235, -0.030410733073949814, -0.11090189963579178, 0.07315012812614441, -0.029027964919805527, 0.04195905849337578, 0.02533286064863205, -0.13919687271118164, -0.1075560450553894, 0.0970483049750328, 0.12533745169639587, 0.11048319190740585, 0.09565223753452301, -0.13423505425453186, 0.3512962758541107, 0.3121989965438843, -0.10988131910562515, -0.5760983228683472, 0.6652187705039978, 0.6844802498817444, -0.6771807670593262, -0.9197965860366821, 0.2919931709766388, -0.6567441821098328, -0.45358505845069885, 0.03920060396194458, -0.7400060892105103, -0.33585020899772644, -0.27772989869117737, 0.546818733215332, 0.06426282972097397, -0.22911503911018372, -0.24729853868484497, -0.027407556772232056, -0.025243498384952545, 0.09590854495763779, -0.15275637805461884, -0.16253472864627838, -0.03254534304141998, -0.14538531005382538, 0.16927440464496613, 0.22295641899108887, 0.16393591463565826, -0.02054673433303833, 0.13848234713077545, -0.24456703662872314, -0.04928791522979736, -0.13991175591945648, 0.16454796493053436, -0.19226296246051788, -0.07448342442512512, 0.24675309658050537, -0.27985841035842896, 0.1298583447933197, 0.05066251382231712, -0.14927180111408234, 0.1327989548444748, 0.20990152657032013, 0.1670619398355484, 0.055592309683561325, 0.235301211476326, 0.1848585158586502, 0.25206437706947327, -0.054653629660606384, 0.17548441886901855, -0.02848830632865429, 0.09015202522277832, 0.06481034308671951, -0.22689247131347656, 0.10693791508674622, 0.08230023086071014, -0.08137574791908264, 0.08632303774356842, -0.29643693566322327, 0.09271104633808136, -0.18170225620269775, 0.06382983922958374, 0.11600856482982635, -0.1255159229040146, -0.1558457463979721, -0.17818684875965118, 0.25664034485816956, -0.2134300172328949, 0.25711843371391296, -0.0930967703461647, 0.17369988560676575, 0.1252482682466507, 0.016753586009144783, -0.2755035161972046, 0.1780761480331421, 0.2971743643283844, 0.04509889334440231, 0.15967394411563873, -0.27799156308174133, 0.05888773873448372, 0.01998581737279892, 0.18728984892368317, -0.03438054025173187, -0.21520572900772095, -0.04856240376830101, -0.13957875967025757, -0.21532276272773743, 0.1391281932592392, -0.06414154171943665, 0.13682939112186432, 0.025348709896206856, -0.16913095116615295, 0.24329160153865814, 0.18159663677215576, 0.2252526581287384, 0.2634502649307251, 0.28861093521118164, 0.04082749783992767, 0.10037148743867874, 0.11044812202453613, -0.037113629281520844, 0.28224655985832214, -0.024545367807149887, -0.08545973896980286, -0.2565631866455078, -0.08497694879770279, -0.22822748124599457, -0.31779298186302185, -0.14092271029949188, -0.16358624398708344, -0.07824423909187317, 0.000750456121750176, 0.15230606496334076, 0.21707864105701447, 0.15557047724723816, -0.000853773788549006, -0.036675408482551575, -0.058694880455732346, -0.20830193161964417, 0.05730191245675087, -0.06828907132148743, -0.06349486112594604, 0.10314297676086426, -0.034136462956666946, -0.13845880329608917, -0.22064638137817383, -0.11450878530740738, -0.25827890634536743, 0.12459765374660492, 0.016511626541614532, 0.03646809235215187, 0.23138709366321564, 0.26516711711883545, -0.28205034136772156, 0.05036871135234833, -0.20283634960651398, -0.026007030159235, -0.06494424492120743, 0.04052506014704704, -0.18560132384300232, -0.08710543066263199, -0.07692601531744003, 0.004005547612905502, 0.23044975101947784, -0.10521608591079712, 0.3413892090320587, 0.10537203401327133, 0.05308947712182999, -0.015907566994428635, 0.19682183861732483, -0.025981249287724495, -0.156194269657135, 0.05863630399107933, 0.29823407530784607, -0.014811241999268532, -0.10872122645378113, -0.21821263432502747, -0.13704068958759308, 0.2787618041038513, -0.09268327802419662, 0.09409206360578537, -0.273383766412735, 0.30305778980255127, 0.11523859947919846, 0.05627685785293579, -0.16764883697032928, 0.18675251305103302, 0.18462690711021423, -0.2361128330230713, 0.018374916166067123, 0.03361361473798752, 0.06885901838541031, 0.25705981254577637, -0.21744129061698914, -0.002925036707893014, -0.031399406492710114, 0.10063094645738602, -0.19594340026378632, 0.06550880521535873, 0.21621902287006378, 0.0254200529307127, -0.006213332526385784, -0.013829821720719337, 0.04054621234536171, 0.06295200437307358, -0.1371590495109558, -0.157577782869339, -0.16122105717658997, 0.01378597877919674, -0.16087616980075836, -0.1298414021730423, 0.06230592355132103, -0.2289702594280243, 0.17083735764026642, 0.09301448613405228, -0.02594117447733879, 0.21342028677463531, -0.040811073035001755, 0.02615935355424881, -0.1273926943540573, -0.13741415739059448, -0.09853701293468475, 0.16720585525035858, -0.13942523300647736, -0.0350005067884922, -0.3169601559638977, -0.2873634994029999, -0.1028033122420311, -0.13030512630939484, -0.06440312415361404, 0.1364704966545105, 0.14003412425518036, 0.20130035281181335, -0.0778922438621521, -0.21952404081821442, 0.2681445777416229, 0.01982799917459488, 0.04144895449280739, -0.08604743331670761, -0.08731159567832947, 0.05873892828822136, -0.1156681627035141, 0.17479510605335236, -0.13043905794620514, -0.08874691277742386, -0.12662537395954132, 0.09645607322454453, -0.04962495341897011, -0.2079949826002121, 0.18945744633674622, 0.026434503495693207, -0.18095529079437256, 0.23741702735424042, 0.10905737429857254, 0.16501012444496155, -0.2563442885875702, 0.15411034226417542, -0.01441684365272522, -0.17609313130378723, -0.20843736827373505, 0.017538176849484444, -0.285677433013916, 0.2701980471611023, -0.07130032777786255, 0.23978248238563538, 0.2126750946044922, 0.15053679049015045, 0.13793304562568665, -0.08983556926250458, 0.17245517671108246, 0.07868730276823044, 0.05742434039711952, 0.2589426040649414, 0.1463329792022705, -0.11281924694776535, -0.21669188141822815, -0.2830507755279541, 0.11597680300474167, -0.12713930010795593, -0.07053140550851822, 0.022909769788384438, 0.06636406481266022, -0.12079890817403793, 0.24070434272289276, -0.17862863838672638, 0.12887442111968994, 0.15121203660964966, 0.3916236460208893, 0.10355078428983688, 0.1636533886194229, -0.14564156532287598, -0.13228678703308105, -0.24590353667736053, -0.2448422610759735, 0.06185023486614227, 0.2852311134338379, -0.011168309487402439, 0.0035323291085660458, -0.032780688256025314, -0.2651338577270508, -0.17458868026733398, 0.20711654424667358, -0.2630503475666046, -0.0025950195267796516, 0.08280952274799347, 0.16866277158260345, 0.2536613643169403, -0.1181781217455864, -0.1306278109550476, 0.037428103387355804, -0.15665195882320404, 0.006324214395135641, 0.013567010872066021, 0.13215646147727966, 0.034566882997751236, 0.0870734378695488, -0.03726581484079361, -0.09732470661401749, 0.14580203592777252, 0.09857352823019028, 0.09936794638633728, 0.06323269009590149, 0.25795623660087585, 0.08487138897180557, -0.0020354699809104204, -0.15749812126159668, 0.05851389467716217, -0.009034478105604649, 0.05080848187208176, -0.059143662452697754, 0.0820409432053566, 0.08351431787014008, -0.03139553964138031, -0.04555777087807655, 0.11977303773164749, 0.09708712249994278, 0.08482833206653595, -0.04483296349644661, 0.044189345091581345, -0.02251877449452877, -0.013681099750101566, 0.016616784036159515, 0.15610967576503754, 0.07920174300670624, -0.060305092483758926, 0.19654813408851624, 0.17179816961288452, 0.1277262568473816, 0.08541671931743622, 0.030370885506272316, -0.11512722074985504, 0.11329381912946701, 0.005530397407710552, -0.10074696689844131, 0.024616006761789322, 0.07377735525369644, -0.1070706844329834, -0.00022254740179050714, 0.04964115843176842, -0.12511874735355377, -0.11933350563049316, -0.0650155246257782, -0.0451686792075634, -0.11673762649297714, 0.17660921812057495, 0.010800342075526714, 0.013341346755623817, -0.029180606827139854, -0.049947988241910934, -0.08664285391569138, -0.24908901751041412, -0.056391481310129166, -0.049564797431230545, -0.10816629976034164, -0.07841780036687851, 0.030714215710759163, 0.09189251810312271, -0.004676198586821556, -0.09960418939590454, 0.05399367958307266, -0.05232755467295647, -0.13556604087352753, 0.0011503268033266068, 0.027185574173927307, -0.047190066426992416, -0.14009900391101837, -0.10112186521291733, -0.11450889706611633, -0.05402123183012009, 0.03536539524793625, -0.028804190456867218, -0.10097380727529526, -0.03537070378661156, 0.009748242795467377, -0.07581391930580139, -0.16255183517932892, 0.008790900930762291, 0.08671000599861145, 0.07170695811510086, 0.11909100413322449, 0.031107721850275993, -0.08153650164604187, -0.10036792606115341, 0.031568463891744614, 0.1579972803592682, -0.10421737283468246, 0.1290745884180069, -0.1418054699897766, 0.03723238781094551, 0.131837397813797, -0.10188999772071838, -0.048647940158843994, 0.07983580231666565, 0.14086860418319702, 0.010586793534457684, -0.09145819395780563, -0.15844129025936127, -0.11799156665802002, -0.25006160140037537, -0.032885994762182236, 0.11823034286499023, 0.03530614823102951, -0.08597387373447418, -0.1286378651857376, -0.07731519639492035, 0.06275813281536102, -0.04637521505355835, -0.0168575681746006, -0.07595976442098618, 0.07205662131309509, -0.10674111545085907, 0.0017642024904489517, 0.11042545735836029, -0.13718785345554352, -0.06388520449399948, 0.05985981598496437, -0.008221752941608429, -0.02479040063917637, 0.11713897436857224, -0.10418486595153809, 0.11443430930376053, 0.004382263869047165, -0.06390592455863953, 0.008671827614307404, 0.04856237396597862, -0.07215587049722672, 0.1307092308998108, 0.047769948840141296, 0.20870356261730194, 0.14564327895641327, -0.04921836405992508, 0.15511856973171234, -0.030456602573394775, -0.08427979052066803, 0.13701623678207397, 0.045615509152412415, 0.18590717017650604, -0.033631663769483566, -0.05298265442252159, -0.008050630800426006, 0.10869989544153214, 0.0809444934129715, 0.09282424300909042, -0.06397053599357605, -0.13103526830673218, -0.0687526986002922, -0.003058250527828932, -0.0014633287210017443, 0.05828654393553734, 0.02792368084192276, 0.05942170321941376, -0.06738580763339996, 0.1839580535888672, 0.13191430270671844, -0.07006453722715378, -0.0691971406340599, -0.02211708575487137, 0.04289603978395462, 0.07348192483186722, 0.10518626123666763, 0.018627384677529335, 0.006627093069255352, 0.010296802036464214, 0.034782323986291885, 0.1355813592672348, 0.05537340044975281, -0.04860252887010574, -0.0388224758207798, -0.12110088765621185, -0.14120610058307648, -0.1586819887161255, -0.14623573422431946, 0.1089881882071495, 0.027827205136418343, 0.006787600927054882, 0.06285712867975235, -0.08542701601982117, -0.038179390132427216, 0.03221748396754265, 0.008453970775008202, -0.1696750968694687, -0.004674111492931843, 0.3552336096763611, -0.03526005148887634, 0.1213834211230278, -0.07616981863975525, -0.01986905001103878, -0.03185750171542168, 0.07792907953262329, -0.08506257832050323, -0.12147638201713562, 0.09438309073448181, 0.05559462681412697, -0.0229962058365345, 0.007852074690163136, 0.1501639485359192, -0.19357721507549286, -0.14639361202716827, 0.13843220472335815, 0.026513416320085526, -0.00877813994884491, 0.08342745900154114, -0.1032981351017952, 0.11933372169733047, -0.005045064724981785, -0.1426001340150833, 0.1347794383764267, -0.0779571682214737, 0.12952329218387604, -0.13170573115348816, -0.08013800531625748, 0.02483547292649746, -0.18513208627700806, 0.013508760370314121, -0.023667950183153152, -0.01073420513421297, 0.11069349199533463, -0.0904025211930275, 0.16129465401172638, -0.03577513247728348, 0.03240790218114853, 0.043842148035764694, -0.16167208552360535, -0.06467683613300323, -0.049709029495716095, 0.011865795589983463, -0.09947753697633743, -0.09823650121688843, 0.07214835286140442, -0.04638258367776871, -0.11163248866796494, 0.08594264835119247, 0.048519957810640335, -0.15841718018054962, 0.16852764785289764, -0.1321607232093811, -0.10757216066122055, -0.06565658748149872, -0.04457567259669304, -0.10775414854288101, 0.03446793928742409, -0.10741989314556122, 0.34620073437690735, -0.09120621532201767, -0.10182491689920425, -0.024046100676059723, -0.06679647415876389, 0.19555532932281494, -0.12246919423341751, 0.023497449234128, 0.12824837863445282, 0.09889473766088486, 0.16100946068763733, -0.16240276396274567, 0.018329808488488197, -0.00587903568521142, 0.06843298673629761, 0.2266741245985031, -0.06044379994273186, 0.20759885013103485, 0.01186409592628479, -0.10068942606449127, 0.07205114513635635, -0.01929926872253418, 0.032163381576538086, 0.048088449984788895, -0.07341767847537994, 0.100432850420475, -0.04386082664132118, 0.08952166885137558, 0.0621030330657959, 0.06583436578512192, -0.10404624789953232, -0.11433939635753632, 0.05334855988621712, -0.23105835914611816, -0.059513676911592484, 0.047984350472688675, -0.07645083218812943, 0.19005651772022247, -0.059544842690229416, -0.14408688247203827, 0.031544290482997894, -0.016950922086834908, -0.1728038638830185, -0.1458917260169983, -0.06918983906507492, 0.11869338899850845, 0.09920205920934677, 0.11010121554136276, 0.22841502726078033, 0.009947760961949825, 0.03278305381536484, 0.005423062480986118, -0.1904105842113495, 0.009521284140646458, -0.21810966730117798, -0.05062252655625343, 0.06316395103931427, -0.059321578592061996, -0.041821081191301346, -0.00041645608143880963, -0.061861056834459305, -0.11988984048366547, -0.06316274404525757, 0.05840196833014488, -0.05901972949504852, 0.16255636513233185, -0.0029047848656773567, -0.23774957656860352, -0.09532243013381958, -0.16700102388858795, 0.0668012872338295, -0.1363382637500763, 0.07074124366044998, 0.09041429311037064, 0.2026725858449936, 0.15186938643455505, -0.012245986610651016, -0.060126788914203644, -0.16961100697517395, -0.08448868989944458, -0.07915480434894562, -0.040302909910678864, 0.08429893851280212, 0.1354139745235443, -0.03185790032148361, -0.08114779740571976, 0.04316581040620804, 0.07244682312011719, 0.12600073218345642, 0.15762415528297424, -0.0956190750002861, 0.09834576398134232, -0.0713111087679863, 0.11446350812911987, 0.09692446887493134, 0.022088615223765373, 0.16628962755203247, 0.03398556262254715, -0.20107252895832062, 0.13899140059947968, -0.0624692477285862, 0.03904249146580696, -0.11085895448923111, 0.02945489063858986, 0.04342483729124069, 0.048139315098524094, 0.02564837969839573, 0.17875052988529205, -0.07998920977115631, 0.05016765370965004, 0.014979757368564606, -0.17666079103946686, -0.06436413526535034, 0.02339053712785244, -0.13066673278808594, 0.017129790037870407, 0.013334712013602257, 0.06953715533018112, 0.16934740543365479, 0.1258954256772995, 0.08542919903993607, -0.07848413288593292, -0.03204731270670891, -0.11898139864206314, -0.07790827006101608, -0.17086301743984222, -0.287306010723114, -0.14060130715370178, -0.165514275431633, -0.15089620649814606, -0.02506726048886776, -0.0474407896399498, 0.06745247542858124, 0.20783859491348267, -0.02966458909213543, 0.1520635187625885, 0.17956838011741638, -0.003942997194826603, -0.1116023063659668, 0.0070159099996089935, -0.01667320728302002, 0.14996692538261414, 0.03711386024951935, 0.04531219229102135, 0.14763472974300385, 0.004886934533715248, 0.10116253793239594, -0.10207636654376984, 0.0860012024641037, 0.008237345144152641, 0.02931124158203602, -0.16500693559646606, 0.18070462346076965, -0.021905550733208656, 0.0987737849354744, 0.0015641089994460344, 0.13128729164600372, 0.07186448574066162, 0.02722860872745514, 0.002292631659656763, -0.0036892364732921124, 0.13917803764343262, -0.11580774188041687, 0.052790600806474686, -0.000981442048214376, -0.028402935713529587, -0.1551508605480194, -0.09298407286405563, 0.04100392013788223, -0.0333147756755352, -0.04977068305015564, -0.08117464184761047, 0.12613272666931152, 0.0837961956858635, -0.0926368460059166, -0.11690836399793625, 0.057128820568323135, -0.018703559413552284, -0.1461193561553955, -0.13252168893814087, 0.08397630602121353, -0.14100156724452972, -0.004118187353014946, -0.08765293657779694, -0.17965829372406006, 0.08580420166254044, 0.12950465083122253, 0.156304270029068, -0.05541592091321945, -0.0798586905002594, -0.04513979330658913, 0.08440197259187698, -0.23839448392391205, -0.04614265263080597, 0.21912068128585815, -0.1661759614944458, -0.16558976471424103, -0.17583273351192474, -0.14744733273983002, -0.16531695425510406, -0.10965041816234589, -0.1273287683725357, -0.10686948895454407, 0.01994423009455204, 0.16516554355621338, 0.20661433041095734, -0.15496030449867249, 0.046458639204502106, 0.07739435881376266, -0.045475322753190994, 0.0767570361495018, -0.09982387721538544, 0.04255262762308121, 0.08096221834421158, 0.026471469551324844, 0.07328509539365768, 0.0504433698952198, 0.090794138610363, 0.14691278338432312, 0.08404518663883209, 0.17543816566467285, -0.044111404567956924, 0.07035982608795166, -0.13919267058372498, -0.010575116612017155, -0.1315864473581314, -0.0175371952354908, -0.04945003613829613, -0.10856073349714279, -0.050842151045799255, 0.12199214845895767, 0.0869019404053688, 0.04978096857666969, -0.0017385343089699745, -0.22413316369056702, -0.10734910517930984, -0.035670820623636246, -0.07829883694648743, 0.07552026212215424, -0.06718036532402039, 0.18666136264801025, -0.016577325761318207, -0.18750523030757904, -0.008594895713031292, 0.00843884889036417, -0.04942617937922478, -0.16938664019107819, 0.006677639205008745, -0.05821799486875534, 0.0790865421295166, 0.030715012922883034, -0.13296468555927277, 0.02636534720659256, -0.1328708380460739, 0.05014171078801155, -0.1364947110414505, 0.08831536024808884, 0.011385899968445301, 0.08990108221769333, 0.08915858715772629, -0.03103952668607235, -0.08304966986179352, 0.06332418322563171, -0.07515208423137665, -0.03880121186375618, 0.08256480097770691, -0.10646282881498337, -0.013887088745832443, 0.1060686707496643, 0.09308333694934845, -0.07637572288513184, -0.13957440853118896, 0.14948676526546478, -0.04533293470740318, 0.09788931161165237, -0.08808057010173798, -0.1724829375743866, -0.1578768938779831, 0.04796736687421799, -0.067130446434021, -0.13209503889083862, -0.13760119676589966, -0.10883975028991699, 0.20543192327022552, 0.060803111642599106, -0.0540463849902153, -0.08039649575948715, -0.025862984359264374, -0.1557929813861847, -0.18589887022972107, -0.04757450520992279, -0.022012045606970787, 0.06209493428468704, -0.09856583923101425, 0.007657019887119532, -0.0027100814040750265, -0.09456604719161987, -0.0422392301261425, -0.2238806188106537, -0.14518289268016815, 0.0023615567479282618, 0.15175162255764008, -0.052752088755369186, 0.09353157877922058, 0.24220068752765656, -0.1169293075799942, 0.08749251067638397, 0.004840160254389048, -0.1021474152803421, -0.07596604526042938, 0.15115146338939667, -0.03360499069094658, -0.08316733688116074, -0.12032485753297806, 0.11749039590358734, 0.016020366922020912, 0.06613035500049591, 0.1667991727590561, 0.1394682675600052, 0.17521002888679504, -0.07593117654323578, -0.3138757050037384, 0.1152590662240982, -0.2009691298007965, -0.228725865483284, -0.03102981299161911, -0.1170339286327362, -0.1715087741613388, -0.12875518202781677, -0.167783722281456, 0.0679878517985344, 0.07157203555107117, -0.03114510327577591, 0.08060435950756073, 0.026957007125020027, 0.08134028315544128, 0.053776491433382034, -0.19560818374156952, 0.1389116495847702, 0.23647895455360413, -0.19366011023521423, 0.2506389021873474, -0.0863029733300209, 0.002031464595347643, 0.1673731505870819, 0.023558063432574272, 0.05827914550900459, -0.04720979183912277, -0.03476715087890625, -0.12111830711364746, -0.023769401013851166, 0.018067466095089912, 0.07656349986791611, 0.15059049427509308, -0.15508772432804108, -0.08604462444782257, 0.07307824492454529, 0.07158271223306656, 0.0013544101966544986, 0.0030022691935300827, 0.03432292491197586, 0.13596782088279724, -0.04073620215058327, 0.11573220789432526, -0.0025192243047058582, 0.07311215996742249, -0.028070833534002304, 0.18028658628463745, -0.04475582763552666, -0.038080669939517975, 0.22649820148944855, -0.15128381550312042, -0.25543972849845886, -0.21054920554161072, -0.0026272505056113005, -0.22322791814804077, -0.26314234733581543, 0.04807892441749573, 0.10863718390464783, 0.2024066150188446, 0.19001182913780212, 0.12291952222585678, -0.08942350000143051, 0.08634238690137863, -0.1086067408323288, -0.21770639717578888, -0.041818518191576004, 0.08332125097513199, 0.18272265791893005, -0.028808820992708206, 0.12649504840373993, -0.06330320984125137, 0.004510592669248581, 0.06804514676332474, -0.2954963445663452, -0.02320869080722332, -0.1383807212114334, 0.11217807233333588, 0.08389627933502197, -0.03469371050596237, 0.25081488490104675, -0.08076155930757523, -0.07007133215665817, -0.10022614151239395, -0.04727545008063316, 0.18635514378547668, 0.04315025731921196, -0.14608712494373322, -0.004543742630630732, -0.010908172465860844, -0.03947541117668152, -0.13088588416576385, 0.3884013891220093, 0.21841196715831757, 0.06493863463401794, 0.11842800676822662, 0.049365267157554626, -0.13333217799663544, 0.09817729145288467, 0.11037824302911758, -0.3928777873516083, -0.5330795049667358, -0.0661732405424118, -0.0788046196103096, -0.12023580074310303, -0.26724866032600403, -0.06439507007598877, -0.050888791680336, 0.32095715403556824, 0.08791012316942215, 0.12712040543556213, -0.07243092358112335, 0.005020522978156805, 0.030073387548327446, -0.03895856812596321, 0.014439991675317287, -0.03339833766222, -0.134276881814003, -0.06580165028572083, 0.13920347392559052, 0.02394932694733143, 0.125556081533432, 0.052130963653326035, -0.35529935359954834, -0.2871164083480835, -0.26636287569999695, -0.024282220751047134, 0.17571695148944855, 0.21869425475597382, -0.09465370327234268, -0.12133592367172241, 0.10400398075580597, -0.12379692494869232, -0.1011565625667572, 0.14250823855400085, 0.04432189464569092, 0.028361929580569267, -0.16413021087646484, 0.08269553631544113, 0.11052104830741882, -0.20024339854717255, 0.2305718958377838, -0.1317354291677475, 0.1909855455160141, 0.1110435277223587, 0.09055982530117035, -0.0822024792432785, 0.0570867620408535, 0.08705774694681168, 0.06733328849077225, -0.012353440746665001, -0.0037159626372158527, 0.09225085377693176, 0.10247355699539185, 0.06112208589911461, 0.06699486821889877, 0.004458266776055098, -0.2051369547843933, -0.08935372531414032, -0.18798938393592834, -0.21752074360847473, -0.11302012205123901, 0.013641444966197014, 0.12007276713848114, 0.030602118000388145, -0.1288321316242218, 0.2533223628997803, 0.023568470031023026, 0.11159879714250565, 0.13153527677059174, 0.21058334410190582, 0.17377136647701263, -0.14410772919654846, -0.08950662612915039, -0.032477378845214844, -0.16288749873638153, 0.08930344879627228, 0.0345878005027771, 0.07193587720394135, 0.018850047141313553, 0.18130458891391754, 0.18661554157733917, 0.1685028076171875, -0.1000174954533577, 0.01655677706003189, -0.11180946975946426, -0.11146965622901917, -0.07879303395748138, -0.2241075485944748, -0.18580161035060883, 0.15886010229587555, -0.10890175402164459, -0.10900551080703735, 0.014578037895262241, 0.06620126217603683, 0.022385433316230774, -0.15701203048229218, -0.15423420071601868, 0.017696142196655273, 0.18461667001247406, -0.030477847903966904, -0.0014083554269745946, -0.056149497628211975, 0.08038122206926346, 0.07059969007968903, -0.06705957651138306, -0.007073522079735994, 0.21266907453536987, -0.09920696914196014, -0.018461616709828377, 0.8369747996330261, -0.721989631652832, 0.5876314043998718, -0.30861589312553406, -0.7955784797668457, -0.8346843719482422, -1.0163384675979614, 0.45801088213920593, 0.6724041700363159, -0.34326791763305664, 0.44195622205734253, -0.07496040314435959, -0.7257124781608582, 1.0003993511199951, 0.7305996417999268, 0.029088487848639488, -0.127320796251297, -0.15331406891345978, -0.040580399334430695, -0.1631183624267578, 0.45889008045196533, -0.05808992311358452, 0.08277054131031036, 0.08060414344072342, -0.09176333248615265, 0.03749753162264824, -0.1609165221452713, 0.1194753646850586, -0.15087226033210754, 0.22165130078792572, -0.10306864231824875, -0.1261330544948578, -0.16563183069229126, 0.1498345583677292, -0.051005855202674866, -0.23165349662303925, 0.09978286176919937, -0.25767800211906433, 0.19741444289684296, -0.056696824729442596, 0.007423231843858957, -0.03208150342106819, 0.20514586567878723, -0.12356202304363251, -0.056597016751766205, 0.19563844799995422, 0.2256915271282196, 0.29854199290275574, -0.09017931669950485, -0.2957826256752014, 0.003076203865930438, -0.08306091278791428, 0.10204232484102249, 0.06401485949754715, -0.07456455379724503, 0.15915976464748383, 0.194418802857399, 0.03138648718595505, -0.08311869204044342, 0.15095417201519012, -0.11406818777322769, 0.11568444967269897, -0.05734977871179581, -0.23902548849582672, 0.1615515500307083, -0.0859607458114624, 0.08605299890041351, -0.18180623650550842, 0.10668788105249405, 0.06643813848495483, -0.12004708498716354, -0.09534291177988052, 0.019573595374822617, -0.2911810576915741, 0.14176292717456818, 0.04896813631057739, 0.16212086379528046, 0.24280188977718353, -0.22522364556789398, -0.09967009723186493, -0.08404906094074249, -0.26790693402290344, -0.0014357256004586816, 0.2155705839395523, 0.17327868938446045, -0.25419315695762634, 0.20675617456436157, -0.018632005900144577, 0.18252356350421906, 0.14376616477966309, 0.07514812052249908, -0.07067576795816422, 0.16534803807735443, -0.2351294755935669, -0.15161864459514618, 0.21641099452972412, 0.03621765226125717, -0.33733314275741577, 0.020434962585568428, -0.04594443365931511, -0.0434575155377388, -0.10180256515741348, -0.2631017565727234, -0.059437740594148636, 0.10282295942306519, 0.15586000680923462, -0.0028142970986664295, 0.022785700857639313, 0.006335182581096888, -0.22029614448547363, -0.20430801808834076, -0.21869567036628723, 0.304688423871994, 0.039898402988910675, 0.23625290393829346, 0.008966019377112389, -0.21904727816581726, 0.057661719620227814, -0.3223886787891388, -0.15745818614959717, -0.07915078103542328, -0.36022037267684937, 0.16413234174251556, -0.0651906430721283, 0.29091018438339233, 0.2207920253276825, -0.00887977983802557, 0.33067137002944946, 0.1652251034975052, -0.29043257236480713, 0.03649773821234703, -0.10473980009555817, -0.07936318963766098, 0.26026788353919983, -0.07979907095432281, -0.10625823587179184, -0.1986192762851715, 0.14610424637794495, -0.12315560132265091, 0.05599133297801018, 0.17315322160720825, -0.1978168934583664, -0.1003541424870491, 0.1278870850801468, 0.14255763590335846, -0.021897004917263985, -0.18703335523605347, 0.177559033036232, -0.09373857080936432, 0.18786156177520752, -0.0338449701666832, -0.22033999860286713, -0.30553263425827026, -0.046436112374067307, 0.15610083937644958, -0.2896624803543091, 0.08605662733316422, 0.09372371435165405, -0.3152422308921814, -0.12252949923276901, 0.14291171729564667, -0.222015380859375, 0.23729807138442993, -0.028638673946261406, 0.0012099810410290956, 0.13853822648525238, -0.19750109314918518, -0.029187340289354324, -0.36383894085884094, 0.2775624990463257, 0.20053717494010925, 0.04501865431666374, -0.04105355963110924, -0.03305702283978462, -0.19894728064537048, -0.05613945797085762, 0.21982862055301666, 0.05890002101659775, 0.13634760677814484, 0.11191661655902863, 0.01457411888986826, -0.25793904066085815, 0.13892461359500885, -0.034965213388204575, 0.018711375072598457, -0.0645623728632927, -0.0803489163517952, -0.0079567302018404, 0.08202382177114487, -0.13912925124168396, 0.26303213834762573, 0.1406709849834442, 0.25724703073501587, -0.11920274049043655, 0.19819194078445435, -0.11592227965593338, -0.18913453817367554, -0.13293543457984924, -0.018906189128756523, -0.21588458120822906, 0.2487499862909317, 0.22499817609786987, 0.23706774413585663, 0.08852826058864594, 0.2817821204662323, 0.2891574501991272, 0.029247431084513664, -0.06189500913023949, 0.03015393577516079, 0.18701718747615814, 0.2297128289937973, 0.07036322355270386, -0.14903078973293304, -0.2760688066482544, -0.17700977623462677, 0.04582586511969566, -0.16227154433727264, -0.25073349475860596, -0.11384883522987366, -0.1718350350856781, 0.24171553552150726, 0.28194108605384827, 0.12323825061321259, -0.16464582085609436, 0.046081677079200745, -0.12882576882839203, -0.3193739652633667, -0.019288018345832825, -0.23029950261116028, -0.03791007027029991, 0.121237613260746, 0.10301452875137329, -0.0590645894408226, -0.1117924302816391, -0.032188378274440765, 0.1549806296825409, -0.08640339970588684, 0.035601574927568436, 0.08962348848581314, 0.17663691937923431, -0.04524943605065346, 0.10439182072877884, -0.16864851117134094, 0.2573593556880951, 0.13682815432548523, 0.17415851354599, -0.01377725787460804, 0.08451321721076965, -0.1876334398984909, -0.06126337870955467, -0.058452147990465164, -0.015742875635623932, -0.2055962085723877, -0.12756501138210297, 0.12244167923927307, -0.0876513421535492, -0.028581593185663223, 0.2047104388475418, 0.27041739225387573, -0.004790710285305977, -0.12700195610523224, 0.0823718011379242, -0.11474983394145966, -0.2798316776752472, 0.10407461225986481, -0.12098776549100876, 0.11638542264699936, 0.15725019574165344, 0.21850953996181488, 0.0004268332268111408, 0.08518175780773163, 0.10883238911628723, 0.02649671956896782, 0.15610486268997192, -0.06801877170801163, 0.20393842458724976, -0.061660006642341614, -0.3097571134567261, -0.017597278580069542, -0.26092392206192017, -0.07640376687049866, 0.17903627455234528, 0.1343528777360916, 0.03131815418601036, -0.04094424843788147, -0.15819014608860016, -0.002236418193206191, -0.046037767082452774, 0.15635675191879272, 0.026668768376111984, -0.06008382514119148, 0.03945774585008621, 0.019340157508850098, 0.03871284797787666, -0.010946211405098438, 0.054296642541885376, 0.12255070358514786, -0.12703269720077515, 0.06498529016971588, 0.12595684826374054, 0.13734868168830872, 0.06022373586893082, 0.1676565706729889, -0.07132481783628464, 0.039257120341062546, -0.0925564169883728, -0.06542035937309265, -0.029580695554614067, -0.3094934821128845, -0.002938555320724845, -0.14830946922302246, -0.07900209724903107, -0.1663738191127777, -0.09079542011022568, -0.03159546107053757, 0.21121954917907715, -0.24123747646808624, 0.07269539684057236, 0.0466868095099926, 0.19383439421653748, -0.00287142232991755, -0.06588084995746613, -0.08043240755796432, 0.04168342798948288, 0.028780994936823845, -0.03917180001735687, 0.1616954654455185, 0.11484676599502563, -0.09760881215333939, 0.14240840077400208, 0.09989286214113235, -0.12079956382513046, -0.12357383221387863, -0.05655046924948692, 0.1274995058774948, 0.31663259863853455, 0.14280954003334045, -0.3359628915786743, -0.20162814855575562, -0.20569495856761932, -0.14545580744743347, 0.13420358300209045, -0.20605143904685974, 0.10476557910442352, 0.13976988196372986, 0.41111332178115845, 0.08142012357711792, 0.019214825704693794, -0.11916052550077438, 0.0759282186627388, -0.18661563098430634, -0.24043312668800354, -0.09873440861701965, -0.013580831699073315, -0.024899562820792198, 0.06005066633224487, -0.23192493617534637, -0.20539161562919617, -0.3338800072669983, 0.02741335518658161, 0.11391378939151764, -0.13075876235961914, -0.22811265289783478, -0.04374878481030464, -0.4585871398448944, -0.18853051960468292, -0.1211637482047081, -0.02719956263899803, 0.060673054307699203, 0.17834672331809998, 0.1299063265323639, -0.19422467052936554, 0.1014874055981636, -0.22089152038097382, -0.01517289038747549, 0.04811927676200867, 0.09912977367639542, -0.23922470211982727, -0.1496845930814743, -0.2979239225387573, 0.15454092621803284, 0.25070083141326904, 0.15455473959445953, -0.30952349305152893, 0.027356233447790146, 0.06457794457674026, 0.1993105709552765, 0.03315224125981331, 0.07208272814750671, -0.014307515695691109, -0.08808860927820206, 0.06938175112009048, 0.06890904903411865, 0.1530464142560959, 0.040633056312799454, -0.12220891565084457, -0.07931051403284073, 0.026160655543208122, -0.020066969096660614, -0.0948321744799614, 0.04407370090484619, 0.08142416924238205, -0.16397082805633545, -0.0006701172096654773, -0.025892755016684532, -0.025017911568284035, -0.026120543479919434, -0.09213727712631226, 0.09684816002845764, -0.13999755680561066, -0.15315426886081696, 0.04883124679327011, 0.004941933788359165, 0.035628754645586014, 0.10202492773532867, -0.027851033955812454, 0.0988684594631195, -0.023889979347586632, -0.11470399051904678, -0.00555516267195344, 0.025230055674910545, 0.0531754232943058, 0.04504429176449776, 0.046249061822891235, 0.03625277802348137, -0.14705049991607666, -0.07404915988445282, 0.010012161917984486, 0.11566350609064102, -0.09499037265777588, 0.09902285039424896, -0.35298916697502136, 0.1603727489709854, 0.1785295456647873, 0.016981177031993866, -0.005460804793983698, 0.07969798892736435, -0.0009959663730114698, 0.09459433704614639, 0.10143861174583435, 0.06535575538873672, -0.033526040613651276, 0.10031083226203918, -0.07364506274461746, -0.007976538501679897, -0.09705251455307007, -0.09114839881658554, 0.06882745027542114, 0.11906015872955322, 0.09247300773859024, -0.1043146401643753, 0.010436834767460823, -0.008766340091824532, -0.0017275991849601269, 0.00656872009858489, -0.1258387714624405, -0.11810872703790665, 0.19128039479255676, -0.027995198965072632, 0.2087482362985611, 0.18448595702648163, 0.04970832169055939, -0.051829226315021515, -0.1584021896123886, -0.006180752068758011, 0.16639040410518646, -0.07112379372119904, 0.0842437818646431, -0.03895010054111481, 0.02211282029747963, -0.12410017102956772, 0.12221089005470276, 0.09397807717323303, -0.019972382113337517, 0.12232448905706406, -0.035254690796136856, 0.19602055847644806, -0.03325483575463295, -0.06828955560922623, 0.13184328377246857, -0.06319324672222137, 0.10286468267440796, 0.07538317888975143, 0.018391240388154984, 0.004446475766599178, -0.07735021412372589, -0.07372260838747025, -0.07439467310905457, 0.01673075370490551, -0.06973254680633545, 0.05621615797281265, -0.11414376646280289, -0.1532367765903473, -0.009776633232831955, 0.1638449877500534, -0.04679892584681511, 0.004034468438476324, -0.15770454704761505, -0.05879838392138481, 0.1283654272556305, 0.00926472619175911, 0.20906150341033936, 0.02128595858812332, 0.05571771413087845, -0.045809078961610794, 0.04060850292444229, 0.10967082530260086, 0.24375315010547638, 0.11669173836708069, -0.0011096363887190819, -0.12086273729801178, 0.06039493530988693, 0.030388083308935165, -0.048354946076869965, 0.1383812129497528, 0.11202272027730942, 0.14506348967552185, -0.11638224124908447, -0.04261429235339165, -0.15189430117607117, -0.07989935576915741, 0.0060562388971447945, -0.10965924710035324, -0.15181076526641846, -0.08113602548837662, -0.018813984468579292, 0.036491021513938904, -0.14409682154655457, -0.038867294788360596, -0.22506748139858246, -0.12967193126678467, 0.09669805318117142, -0.15387409925460815, 0.17356671392917633, -0.04892774671316147, 0.0045644971542060375, 0.11427967250347137, -0.14495494961738586, -0.08691191673278809, 0.12842974066734314, -0.08177875727415085, 0.09712319076061249, 0.159331813454628, 0.09690910577774048, 0.12242640554904938, 0.09524979442358017, 0.15200354158878326, 0.13363485038280487, 0.11254888772964478, -0.11186086386442184, -0.03614728897809982, -0.03563998267054558, -0.10250668227672577, 0.14211122691631317, 0.08551406115293503, 0.11059746891260147, 0.1032814159989357, -0.2277933806180954, -0.06903064250946045, -0.016063889488577843, -0.18109212815761566, -0.1564556211233139, 0.09084673970937729, 0.03632809594273567, -0.11430669575929642, 0.032353296875953674, -0.06307286024093628, -0.09317080676555634, 0.07601770758628845, 0.15875262022018433, 0.1588352769613266, 0.09580754488706589, -0.21116366982460022, -0.08847038447856903, 0.04321505129337311, -0.12610457837581635, -0.08669602870941162, -0.028573188930749893, -0.03660185635089874, -0.0003758167731575668, -0.1388201117515564, -0.053860440850257874, 0.06898863613605499, 0.14148329198360443, 0.10234016925096512, 0.028090711683034897, 0.023901306092739105, 0.08661310374736786, -0.1466865986585617, -0.008441021665930748, -0.02186221443116665, 0.08682627975940704, 0.15808948874473572, 0.04443313926458359, 0.11071409285068512, 0.015582163818180561, -0.04679284244775772, 0.14380496740341187, -0.059878330677747726, 0.08177846670150757, 0.010226068086922169, 0.21040120720863342, -0.0005552148795686662, 0.11654913425445557, 0.04219645634293556, 0.02952265366911888, 0.06409812718629837, -0.11435636878013611, 0.03761362284421921, -0.19750097393989563, -0.10556626319885254, -0.14976826310157776, -0.1408887505531311, -0.06826836615800858, 0.10397788137197495, -0.027900781482458115, -0.05085384473204613, 0.013475420884788036, 0.0434005968272686, 0.052161458879709244, -0.057277780026197433, 0.045283567160367966, -0.08133691549301147, -0.014910813421010971, 0.07339826226234436, -0.006230756174772978, -0.14418579638004303, -0.12127263098955154, -0.0031233374029397964, 0.03737583011388779, -0.06063000485301018, -0.15137076377868652, -0.12821315228939056, -0.14084576070308685, -0.012366100214421749, 0.23261098563671112, -0.22152011096477509, -0.05987546965479851, -0.11650870740413666, 0.08267181366682053, -0.02887294441461563, 0.02379656955599785, 0.0736229419708252, -0.015856249257922173, -0.04210672900080681, 0.0589735209941864, 0.1333310455083847, -0.07499945908784866, 0.021982533857226372, 0.026903148740530014, -0.08831256628036499, -0.017349300906062126, 0.0883815810084343, 0.05661030486226082, 0.13693444430828094, -0.015355105511844158, -0.1612367033958435, -0.06416086852550507, -0.03076631762087345, -0.05211636424064636, -0.10862382501363754, 0.0657966360449791, 0.18225106596946716, -0.059630297124385834, 0.13567154109477997, -0.10578043758869171, 0.028622552752494812, -0.03560405969619751, -0.051645245403051376, -0.15733051300048828, 0.021730897948145866, 0.09374774992465973, -0.0763593390583992, -0.10004698485136032, -0.17497651278972626, -0.016150616109371185, -0.07089626789093018, 0.0341009795665741, 0.028179775923490524, -0.2691744267940521, 0.03869475796818733, 0.07448805123567581, -0.038732826709747314, 0.10401985794305801, -0.178753063082695, -0.12650169432163239, 0.010629856027662754, -0.004951978102326393, -0.04485379904508591, -0.2676346004009247, -0.14543743431568146, 0.002835444174706936, 0.227779358625412, 0.07189890742301941, -0.03211337700486183, -0.11143545061349869, -0.07555968314409256, 0.01822313852608204, -0.13243542611598969, -0.2288776934146881, 0.20776858925819397, -0.16467753052711487, -0.008273106068372726, 0.15346680581569672, -0.18082588911056519, -0.23495842516422272, 0.07883837074041367, -0.12833262979984283, 0.17440016567707062, 0.05048501119017601, -0.1255565881729126, 0.07260569930076599, -0.17507046461105347, 0.10434862226247787, 0.13866589963436127, -0.0009758020169101655, 0.05719958245754242, -0.059877317398786545, 0.002547886222600937, -0.05095880478620529, -0.08091478049755096, 0.05447442829608917, 0.17084164917469025, 0.1045088991522789, 0.09230231493711472, 0.07602031528949738, 0.014957990497350693, 0.12754075229167938, -0.06374816596508026, -0.11620642989873886, -0.09488039463758469, -0.14237076044082642, -0.19505411386489868, -0.09187477082014084, 0.0038149417378008366, -0.12050370126962662, -0.14832225441932678, 0.0017291698604822159, 0.13398003578186035, -0.10154277831315994, -0.07419577240943909, -0.07923313230276108, 0.06723731011152267, -0.08449697494506836, -0.013203179463744164, 0.08331680297851562, 0.1244983822107315, -0.14121857285499573, 0.11655247211456299, 0.012161057442426682, -0.1122264564037323, -0.08593960851430893, 0.06076005846261978, 0.10675378888845444, 0.02771693654358387, -0.00349748064763844, 0.13914135098457336, 0.08277503401041031, -0.13421297073364258, -0.11144033819437027, 0.015384632162749767, -0.11443733423948288, -0.07220874726772308, 0.09996333718299866, 0.1266787201166153, -0.13208851218223572, 0.050814852118492126, -0.26511350274086, 0.1432075798511505, -0.06933726370334625, -0.031044811010360718, -0.11550625413656235, -0.11510148644447327, -0.12493875622749329, 0.11299975216388702, -0.03553059324622154, 0.0028902601916342974, -0.10302119702100754, -0.20534305274486542, -0.13518722355365753, 0.23796507716178894, 0.16604553163051605, 0.028337597846984863, -0.06767833977937698, 0.17845767736434937, 0.041601940989494324, -0.03271213918924332, -0.10777870565652847, -0.05355709418654442, -0.08987443894147873, -0.06772210448980331, -0.09363681077957153, -0.011534273624420166, 0.10592712461948395, 0.09484682977199554, 0.033542100340127945, 0.1347447633743286, 0.24061107635498047, 0.19216981530189514, 0.3403889238834381, -0.01976599358022213, 0.01111785601824522, -0.11132881790399551, 0.13583193719387054, -0.02206042967736721, -0.03541720286011696, 0.15841180086135864, 0.17828549444675446, -0.07012562453746796, 0.05773640424013138, 0.16655059158802032, 0.08984888345003128, -0.03857456520199776, 0.13362880051136017, -0.15862257778644562, -0.18931326270103455, 0.03686588257551193, 0.055236686021089554, 0.005684223957359791, -0.061376187950372696, 0.1423083394765854, 0.012155337259173393, 0.06523286551237106, 0.15195593237876892, 0.07422436028718948, 0.00929423701018095, -0.0485636331140995, -0.11988795548677444, 0.020092152059078217, -0.06271205097436905, -0.11034248769283295, 0.05279580503702164, -0.004425324499607086, 0.1377246230840683, -0.09646301716566086, -0.08261162042617798, -0.037740424275398254, 0.16005189716815948, 0.010313238948583603, 0.015416160225868225, 0.12412327527999878, 0.24615132808685303, -0.13818535208702087, 0.005899389274418354, -0.08290515840053558, -0.010040916502475739, 0.04026949033141136, -0.07770247757434845, 0.02749590203166008, -0.0608074814081192, -0.028922151774168015, 0.0474034920334816, 0.10486281663179398, -2.8930846383445896e-05, -0.06635673344135284, -0.04664107784628868, 0.11776672303676605, -0.09713948518037796, -0.0027814460918307304, -0.00320046697743237, 0.1415722817182541, 0.07098144292831421, 0.02468043565750122, -0.17514963448047638, -0.10350926965475082, 0.07883031666278839, -0.12428414076566696, 0.03827294334769249, 0.05017930641770363, 0.05581638962030411, -0.02592664770781994, 0.2160678654909134, 0.18260519206523895, 0.05197826772928238, 0.021868236362934113, 0.015848668292164803, 0.10518527776002884, 0.0990939810872078, 0.03465166687965393, -0.04082971438765526, 0.2775958478450775, 0.03738068789243698, 0.1593172550201416, -0.22317959368228912, -0.0806431919336319, 0.13360902667045593, 0.1909867823123932, -0.05334167554974556, -0.0403020977973938, 0.16631603240966797, 0.18109408020973206, -0.3404386639595032, 0.05999906361103058, -0.02952292561531067, -0.01718677021563053, -0.1873762309551239, -0.0738520622253418, 0.22716723382472992, -0.033656757324934006, 0.140517920255661, -0.058819301426410675, -0.0797634869813919, 0.09923143684864044, 0.05252738669514656, 0.1456708014011383, -0.09495344012975693, -0.2070053368806839, -0.13175874948501587, 0.21871937811374664, 0.16401644051074982, -0.04550844058394432, 0.2501627206802368, -0.02866891771554947, -0.08766581863164902, -0.0009322691475972533, 0.044351667165756226, -0.06154432147741318, -0.09163733571767807, -0.05935182794928551, -0.1630028784275055, -0.05993623286485672, -0.028452344238758087, 0.007146766874939203, -0.03786412999033928, -0.011752123944461346, 0.05947220325469971, -0.060062240809202194, 0.01593209058046341, -0.04757200554013252, -0.1605711579322815, 0.018302079290151596, -0.013096368871629238, -0.17134495079517365, 0.04442767798900604, -0.24998514354228973, -0.0414668470621109, -0.27914857864379883, -0.14868688583374023, 0.07207023352384567, 0.04474768042564392, -0.19131267070770264, 0.20141741633415222, 0.1167784109711647, 0.03553080931305885, 0.056646693497896194, -0.20600223541259766, 0.04983723908662796, -0.06362415105104446, 0.02138102613389492, 0.07785459607839584, 0.2153266966342926, 0.14867715537548065, 0.07987499237060547, -0.021855676546692848, 0.04272501543164253, -0.04536048322916031, -0.100093312561512, 0.04171564429998398, -0.03130221739411354, 0.12963193655014038, -0.045021288096904755, -0.06109011173248291, 0.03315145522356033, 0.17573770880699158, 0.1696779876947403, 0.10278113186359406, -0.1645924299955368, -0.09047503769397736, -0.1677536517381668, -0.047964662313461304, -0.10356790572404861, -0.05825786292552948, -0.025714393705129623, 0.17450039088726044, 0.03786706551909447, -0.078519307076931, -0.1741773933172226, -0.15370331704616547, -0.16176584362983704, 0.11096314340829849, 0.036330170929431915, 0.0028166475240141153, -0.2244412750005722, -0.0787883922457695, -0.11859080195426941, -0.1591458022594452, -0.21851040422916412, -0.0305004995316267, -0.37279799580574036, -0.005512220319360495, 0.19894817471504211, 0.166769340634346, -0.0211468618363142, -0.055699460208415985, -0.015375619754195213, -0.01464134082198143, -0.09454701840877533, 0.10155196487903595, 0.0799855962395668, 0.05217837169766426, -0.09246277064085007, 0.1442049741744995, 0.02771022729575634, -0.1807813197374344, 0.09993770718574524, -0.13282346725463867, 0.16979894042015076, -0.019133426249027252, -0.10289869457483292, -0.15835905075073242, -0.05213715136051178, 0.04056007042527199, -0.017917439341545105, -0.09912628680467606, 0.028878923505544662, 0.028856514021754265, -0.11435070633888245, -0.044039785861968994, -0.03896700590848923, -0.14158734679222107, 0.12201191484928131, -0.119560606777668, 0.038730818778276443, -0.13136780261993408, 0.007410289719700813, 0.09348633885383606, -0.07886229455471039, 0.005539658013731241, 0.005285672843456268, 0.12098449468612671, 0.11862438172101974, 0.09708105772733688, -0.01697660982608795, 0.10088634490966797, 0.021163133904337883, 0.10417935252189636, -0.1137414500117302, -0.017146380618214607, 0.0915113091468811, 0.0654245913028717, -0.07773464173078537, 0.1969219148159027, -0.021970458328723907, -0.002817832864820957, 0.11827639490365982, -0.11426255106925964, 0.02091553620994091, -0.16519179940223694, 0.1713951975107193, -0.029308274388313293, -0.14503353834152222, 0.2174617201089859, -0.05278955027461052, 0.26411575078964233, -0.05525044724345207, 0.07407835870981216, 0.24808573722839355, -0.10459301620721817, 0.043514594435691833, 0.04962722584605217, 0.035968512296676636, -0.06702550500631332, 0.1843879371881485, 0.13273020088672638, 0.020576000213623047, 0.04458822309970856, -0.05147525668144226, 0.15028075873851776, -0.0084535488858819, 0.13162052631378174, 0.08398405462503433, -0.5010653734207153, -0.9947879314422607, 0.35786551237106323, -0.7774583697319031, -0.9709144830703735, 0.4447143077850342, -0.8514753580093384, 0.3319318890571594, -0.1922239363193512, 0.47515809535980225, 0.0982382670044899, 0.7585279941558838, 0.07704055309295654, 0.699687123298645, 0.5938670635223389, 0.5210121273994446, 0.33489710092544556, 0.17579086124897003, -0.172699436545372, -0.10161320120096207, -0.10944509506225586, 0.22046321630477905, 0.22738422453403473, 0.027356775477528572, 0.17192043364048004, -0.1359757035970688, -0.06761308014392853, -0.1468486785888672, -0.14352799952030182, 0.2149277627468109, 0.2785409688949585, -0.04846324026584625, 0.22360771894454956, 0.10696636140346527, -0.14327731728553772, -0.24216626584529877, 0.1306677907705307, -0.13387462496757507, -0.16599740087985992, -0.19930826127529144, -0.19515636563301086, 0.1519477367401123, -0.1680951565504074, 0.13409852981567383, -0.20626729726791382, -0.018153324723243713, -0.08827682584524155, -0.024450257420539856, 0.19953963160514832, 0.17641714215278625, -0.2555348575115204, -0.07524034380912781, -0.23542577028274536, -0.15485438704490662, 0.042788777500391006, 0.13806195557117462, 0.2843496799468994, -0.26413494348526, -0.19239367544651031, -0.28212910890579224, -0.23211218416690826, 0.023052463307976723, -0.11019666492938995, -0.28950804471969604, -0.017305251210927963, -0.018590373918414116, -0.09953363984823227, -0.144258514046669, -0.027150513604283333, 0.17656810581684113, 0.022830823436379433, 0.11257924139499664, 0.03862407058477402, -0.058772604912519455, -0.1512155830860138, -0.24544981122016907, 0.06494756042957306, -0.031165476888418198, 0.1421337127685547, 0.30915743112564087, -0.06678514182567596, -0.2299664318561554, -0.16717031598091125, -0.08706702291965485, 0.0818958505988121, 0.04307309165596962, 0.024265442043542862, 0.009873681701719761, -0.1577163189649582, 0.004563597496598959, -0.23319458961486816, -0.10247792303562164, -0.25669315457344055, 0.2222784161567688, 0.28879860043525696, -0.05388424172997475, 0.2128160297870636, 0.13684678077697754, 0.20447386801242828, 0.008423449471592903, -0.1579451858997345, -0.22663843631744385, -0.2828671932220459, -0.2882334887981415, -0.18137305974960327, -0.024687806144356728, 0.024127736687660217, -0.12733422219753265, 0.11675886809825897, 0.07801961898803711, 0.1002984419465065, -0.2378329187631607, -0.19857680797576904, 0.29072362184524536, 0.1371140033006668, 0.19670848548412323, -0.06322405487298965, -0.18087469041347504, -0.15386386215686798, -0.0771903395652771, -0.24364466965198517, 0.07258166372776031, -0.0418965108692646, 0.17495504021644592, 0.23442776501178741, -0.16224679350852966, -0.2245274782180786, 0.09280505031347275, 0.2949396073818207, 0.09131182730197906, -0.05428023263812065, -0.25054433941841125, -0.25283437967300415, 0.1814557909965515, 0.19095976650714874, 0.05314059928059578, 0.12853042781352997, -0.19018401205539703, -0.018260451033711433, -0.003153518307954073, 0.00644666189327836, -0.16087312996387482, 0.06465873122215271, -0.20643366873264313, 0.2017945647239685, 0.07317472994327545, 0.27142083644866943, 0.07790625840425491, 0.11183347553014755, -0.28487664461135864, -0.08121448010206223, -0.09345274418592453, 0.0860726535320282, -0.20719881355762482, -0.18350470066070557, -0.21598689258098602, 0.10716485232114792, -0.10838296264410019, -0.13266530632972717, 0.09133034944534302, 0.04451499134302139, 0.08797764778137207, -0.15993155539035797, -0.31586161255836487, 0.12600597739219666, -0.11978699266910553, -0.2828177511692047, 0.13330894708633423, 0.1553332656621933, -0.21036756038665771, -0.35306012630462646, -0.18739980459213257, -0.13829010725021362, 0.15988145768642426, 0.36768874526023865, -0.1125299483537674, -0.2963937819004059, -0.2577163577079773, -0.06086030974984169, 0.014163246378302574, -0.11507624387741089, 0.25596290826797485, 0.0818525031208992, -0.05217873677611351, -0.032997895032167435, 0.1918397843837738, -0.2876962125301361, -0.0986633375287056, -0.0855274647474289, -0.14938777685165405, 0.07856306433677673, 0.01268698088824749, -0.18998447060585022, 0.22623471915721893, 0.16231222450733185, -0.05366033688187599, 0.10656718164682388, 0.09484963119029999, 0.0006621149368584156, -0.0790175125002861, 0.17289519309997559, 0.0856313556432724, 0.2735362648963928, -0.046897321939468384, 0.16488760709762573, -0.03241739794611931, -0.15555500984191895, -0.16283853352069855, 0.03808058053255081, 0.15595874190330505, -0.17973445355892181, 0.054044149816036224, 0.34151166677474976, 0.14200539886951447, -0.04161553084850311, -0.29996898770332336, 0.017159059643745422, 0.01064420584589243, -0.2002020627260208, 0.30263036489486694, 0.20797079801559448, 0.11145581305027008, 0.027573222294449806, -0.13806428015232086, -0.1842600256204605, 0.14585813879966736, -0.15461944043636322, 0.15216800570487976, -0.10113853961229324, 0.17824751138687134, 0.010398664511740208, 0.031193789094686508, 0.2501707673072815, -0.10690563917160034, -0.1285196840763092, -0.21445053815841675, -0.16702473163604736, -0.09576411545276642, -0.07924401015043259, -0.07197791337966919, 0.06122806668281555, -0.14776788651943207, -0.2477794736623764, -0.22248056530952454, 0.17086994647979736, 0.091213658452034, 0.16806238889694214, 0.253302663564682, 0.07386347651481628, 0.08385629951953888, -0.21584224700927734, 0.06330614537000656, -0.21645841002464294, 0.03312151879072189, 0.18589504063129425, -0.2394823431968689, -0.02175653539597988, 0.009235013276338577, -0.036714497953653336, 0.11137528717517853, 0.0584450326859951, -0.016268229112029076, -0.20825304090976715, 0.2015562355518341, 0.169333353638649, 0.27744996547698975, -0.17442642152309418, 0.18242214620113373, -0.019376227632164955, 0.1349523961544037, 0.009019436314702034, -0.02805894799530506, 0.056730788201093674, -0.24054588377475739, 0.22270512580871582, 0.1563575267791748, -0.07572432607412338, -0.1459045559167862, -0.28431785106658936, -0.12221068143844604, 0.09586892277002335, -0.1646595448255539, -0.21547147631645203, 0.16211055219173431, -0.3622278571128845, -0.05081789940595627, 0.1617097109556198, -0.0981312245130539, 0.14817069470882416, -0.07464464008808136, -0.0503816157579422, 0.05507658049464226, 0.08508195728063583, 0.12223917245864868, -0.05951830744743347, 0.010412250645458698, -0.09854469448328018, -0.07892376184463501, -0.050528161227703094, 0.07378185540437698, 0.09241519868373871, -0.0617770291864872, -0.0670611560344696, 0.28612884879112244, 0.14178012311458588, -0.1322241574525833, 0.16402918100357056, 0.05728580802679062, -0.02736169658601284, 0.124791219830513, 0.1631644368171692, 0.1896764039993286, 0.1656731516122818, 0.33692631125450134, 0.12078014016151428, 0.34503865242004395, 0.006814808119088411, 0.11619560420513153, -0.18736225366592407, -0.004929968621581793, 0.05254743993282318, 0.08944380283355713, -0.08496816456317902, 0.04348761588335037, -0.03718855232000351, 0.01968717947602272, 0.06455589085817337, 0.029809007421135902, 0.008715706877410412, 0.15892617404460907, -0.043514933437108994, 0.09681227058172226, 0.003353915875777602, -0.009278664365410805, -0.09402471035718918, 0.10117877274751663, 0.12060976028442383, 0.13978160917758942, -0.13400356471538544, -0.27613356709480286, -0.04977405071258545, -0.23920130729675293, 0.2588893175125122, 0.10326524823904037, 0.009328237734735012, 0.1284555196762085, 0.04726110398769379, 0.19789843261241913, 0.04926344007253647, -0.012364892289042473, -0.2432071715593338, -0.20438894629478455, -0.28296512365341187, 0.19157180190086365, -0.1110369935631752, -0.0902014970779419, 0.15968690812587738, -0.012074912898242474, 0.023876316845417023, -0.007185992319136858, -0.07171408832073212, 0.03832853212952614, 0.08884096890687943, -0.052993789315223694, 0.024512920528650284, -0.11225960403680801, -0.07747543603181839, -0.09671998023986816, -0.16754941642284393, 0.1271778792142868, 0.1693388819694519, 0.14607229828834534, 0.0677071139216423, -0.09670177847146988, 0.0073134684935212135, 0.12093476206064224, -0.02031746506690979, -0.10114329308271408, 0.00919788982719183, 0.06605616956949234, -0.06723896414041519, 0.12629783153533936, 0.10452824085950851, 0.12059807032346725, -0.20814892649650574, -0.03968434780836105, 0.007302394602447748, 0.09369724988937378, 0.03494672104716301, -0.1142217144370079, -0.255541056394577, -0.08172011375427246, -0.032681725919246674, 0.03185942769050598, 0.14865796267986298, -0.11964257806539536, 0.11441909521818161, 0.18980014324188232, 0.011417301371693611, 0.11692053079605103, 0.1303069144487381, 0.06721336394548416, 0.05717860162258148, -0.08900277316570282, 0.018845416605472565, -0.15528254210948944, -0.10672388225793839, 0.12360291182994843, -0.014775368385016918, 0.010938914492726326, 0.17772917449474335, 0.05713621899485588, -0.11965581774711609, -0.004441133700311184, -0.11114723235368729, 0.13871681690216064, -0.0999210774898529, 0.010808893479406834, -0.09659061580896378, -0.10441115498542786, 0.18950439989566803, 0.16952583193778992, -0.09141474962234497, 0.004980240482836962, 0.08525529503822327, 0.1426255851984024, -0.17187975347042084, -0.16948823630809784, 0.09270863980054855, 0.13406604528427124, 0.048950325697660446, -0.18279387056827545, 0.06820953637361526, -0.07797566801309586, -0.02620752528309822, -0.0077392240054905415, -0.018419107422232628, -0.0006878128042444587, 0.04357583820819855, -0.057491667568683624, 0.033286482095718384, -0.014931107871234417, 0.06648612767457962, 0.12464423477649689, 0.04675524681806564, -0.11605031043291092, -0.024728849530220032, -0.20334844291210175, -0.18489159643650055, 0.08722727000713348, -0.09108968079090118, -0.12300620973110199, -0.15643033385276794, 0.20891150832176208, 0.09614192694425583, -0.023124489933252335, -0.08240725845098495, -0.027826910838484764, -0.06486838310956955, 0.1439676433801651, -0.4249434471130371, -0.04280737414956093, 0.06094072386622429, 0.09697362780570984, 0.049228377640247345, 0.08553119003772736, 0.009307020343840122, 0.11401496082544327, -0.1452556550502777, 0.03954450041055679, 0.019394680857658386, 0.1142035648226738, -0.11624336242675781, 0.042683374136686325, 0.09323878586292267, 0.11980759352445602, 0.11539299786090851, -0.06537412852048874, 0.07709722220897675, 0.06237982213497162, -0.09612543880939484, -0.06354978680610657, -0.09173404425382614, -0.018289020285010338, 0.12594662606716156, 0.22170212864875793, 0.042610052973032, -0.04501422867178917, -0.13802428543567657, -0.0697532594203949, -0.20928464829921722, -0.21306926012039185, -0.0642518624663353, 0.10196305811405182, 0.24641583859920502, -0.056411225348711014, 0.15923228859901428, 0.1464911550283432, 0.13088443875312805, 0.09231588244438171, -0.08796883374452591, 0.06345481425523758, 0.027473466470837593, 0.011276195757091045, 0.1515200436115265, 0.14057792723178864, 0.22768667340278625, -0.018304642289876938, 0.11930147558450699, 0.12608908116817474, -0.08380068093538284, -0.030823105946183205, 0.24083274602890015, -0.1352541446685791, -0.10887330770492554, -0.12887315452098846, -0.11317230015993118, 0.14720408618450165, -0.1149887889623642, -0.023659052327275276, 0.14721165597438812, -0.03634596988558769, 0.017692960798740387, 0.13810063898563385, 0.020793870091438293, 0.06114530190825462, 0.07208246737718582, -0.1668623387813568, -0.05993320420384407, 0.16204679012298584, 0.06875558942556381, 0.0540589913725853, 0.10457868129014969, 0.23290742933750153, 0.16002234816551208, -0.10437756031751633, -0.02581036649644375, -0.15645989775657654, -0.13084368407726288, 0.10833577066659927, 0.09255845844745636, 0.08513334393501282, -0.07393823564052582, -0.1473412662744522, -0.015116827562451363, -0.08980521559715271, -0.19783388078212738, -0.12689439952373505, -0.020869199186563492, 0.16841329634189606, 0.1373085379600525, -0.13901157677173615, -0.05484678968787193, -0.0770578533411026, -0.021240271627902985, -0.20279522240161896, -0.14113163948059082, 0.14067921042442322, 0.2192733883857727, 0.002652660943567753, 0.11259462684392929, -0.13747122883796692, 0.03500351309776306, 0.05247645825147629, 0.03356385603547096, 0.044400494545698166, 0.1512976884841919, 0.12594972550868988, -0.0013603067491203547, -0.065984807908535, 0.1336841583251953, 0.016609879210591316, -0.02970486506819725, -0.06039229407906532, -0.038989629596471786, -0.0494312159717083, 0.07303093373775482, 0.07745891064405441, -0.04873214662075043, -0.07442168146371841, 0.018434571102261543, -0.08701688796281815, -0.05911015719175339, 0.10709936171770096, -0.09501343965530396, -0.06149868294596672, -0.03766092658042908, -0.11214206367731094, 0.012157426215708256, 0.03832409530878067, -0.03492187708616257, 0.07500789314508438, -0.275848388671875, -0.20303118228912354, -0.019365673884749413, -0.12915438413619995, -0.05897344648838043, 0.03578755632042885, 0.11791276186704636, -0.11312112212181091, 0.19525186717510223, -0.05856124684214592, -0.22882841527462006, -0.14446720480918884, -0.18653087317943573, -0.14040669798851013, -0.06752252578735352, -0.01920672506093979, -0.07410581409931183, 0.02874821610748768, 0.01766612008213997, -0.1120213121175766, -0.07311192899942398, -0.03579855337738991, 0.12027397751808167, 0.10915088653564453, 0.1170625239610672, -0.1433953195810318, 0.05972748622298241, 0.07796963304281235, -0.05419714376330376, 0.02912185899913311, -0.007574016693979502, 0.1107836663722992, 0.0344260074198246, 0.10827372223138809, 0.05766080319881439, 0.07965706288814545, 0.16974583268165588, -0.027395149692893028, -0.03714023530483246, 0.007821326144039631, 0.029083942994475365, -0.09945416450500488, 0.03283555433154106, -0.17912818491458893, -0.15749511122703552, -0.09854436665773392, -0.06185702979564667, 0.0413372777402401, -0.14978556334972382, -0.04215614125132561, 0.14049650728702545, 0.060114774852991104, -0.08380048722028732, 0.0589340403676033, 0.14484840631484985, 0.14962618052959442, 0.0525360107421875, 0.06308493763208389, 0.12592759728431702, 0.050950802862644196, -0.0058784703724086285, -0.07087472081184387, -0.009365063160657883, -0.05530969798564911, 0.023160165175795555, -0.07365546375513077, -0.011606065556406975, 0.01670665852725506, 0.07520823925733566, 0.11352422833442688, -0.20349091291427612, -0.022808576002717018, 0.06600446999073029, 0.28013095259666443, -0.08824647963047028, 0.08045888692140579, 0.11850570142269135, -0.10305711627006531, 0.07125178724527359, 0.023432062938809395, -0.20064115524291992, 0.21298348903656006, -0.21364715695381165, 0.2007499635219574, 0.1422472894191742, 0.3208715617656708, -0.1292639672756195, -0.11405489593744278, -0.143177330493927, -0.13742662966251373, -0.2907608151435852, -0.05996956676244736, 0.22025668621063232, 0.13536173105239868, 0.014811878092586994, -0.11028318852186203, 0.4009968936443329, 0.06912107020616531, -0.10302523523569107, -0.14895474910736084, 0.16260196268558502, 0.06857118010520935, 0.12408632040023804, -0.05722847580909729, -0.021043088287115097, -0.28612035512924194, -0.18760371208190918, 0.05471039563417435, -0.06460777670145035, 0.34296610951423645, 0.30636152625083923, 0.18604722619056702, 0.46038711071014404, -0.05242559686303139, -0.2158062905073166, 0.0005328988772816956, -0.09129951149225235, -0.10101126879453659, 0.09037292748689651, 0.14386749267578125, 0.024579055607318878, -0.09087759256362915, 0.10050506144762039, 0.28160884976387024, 0.04644892364740372, -0.12904082238674164, -0.28898778557777405, 0.16215920448303223, -0.14525055885314941, 0.1125868409872055, -0.07414382696151733, 0.04723363742232323, -0.07302876561880112, 0.20956647396087646, -0.17049278318881989, 0.18474258482456207, 0.08836564421653748, -0.0026748385280370712, 0.11381588131189346, 0.047250423580408096, 0.021843018010258675, -0.0719652995467186, 0.064863421022892, 0.1698567420244217, -0.024518366903066635, 0.07221361249685287, 0.12674017250537872, 0.1297086775302887, -0.029033994302153587, 0.10439594835042953, -0.05787846818566322, 0.1356884390115738, 0.15477114915847778, 0.15078294277191162, -0.01319361012428999, 0.09477323293685913, 0.27928003668785095, 0.18508848547935486, -0.017345910891890526, -0.0051964339800179005, 0.04569439962506294, -0.0908372700214386, -0.10599227249622345, -0.05513295158743858, 0.0836414322257042, -0.054879285395145416, 0.10596839338541031, -0.1773378849029541, 0.2242768406867981, 0.19021794199943542, -0.16829505562782288, -0.10938608646392822, -0.06641410291194916, 0.04441884905099869, -0.09337929636240005, 0.06572216004133224, -0.011192322708666325, 0.09460289776325226, -0.018989043310284615, 0.10826028883457184, -0.10628031939268112, 0.08857015520334244, -0.0074988058768212795, -0.08179590851068497, 0.06801978498697281, -0.1043667271733284, -0.10093963891267776, -0.08286789059638977, -0.11152846366167068, 0.02600015141069889, 0.04400164633989334, 0.04985244199633598, -0.10071898996829987, 0.13598519563674927, 0.11549021303653717, -0.0964260920882225, -0.19769775867462158, -0.06376940757036209, -0.03922662138938904, -0.03997864946722984, 0.13400092720985413, 0.016972379758954048, 0.0044455635361373425, 0.02663554437458515, 0.04737437143921852, -0.003963456954807043, -0.21376435458660126, 0.08304295688867569, -0.14171192049980164, 0.0979631245136261, 0.02724423259496689, 0.027063937857747078, 0.12214203178882599, 0.00810649711638689, -0.16671273112297058, -0.11125937104225159, 0.20139780640602112, 0.20737382769584656, 0.06282401084899902, 0.1039310097694397, 0.04501788318157196, 0.1937836855649948, 0.13934409618377686, -0.06775903701782227, -0.10354828834533691, -0.07271470129489899, -0.035487961024045944, -0.025769231840968132, 0.0015601040795445442, 0.11547231674194336, -0.020619023591279984, 0.023339757695794106, 0.24125778675079346, -0.09579889476299286, -0.028882784768939018, -0.05535077676177025, -0.1213434562087059, -0.1782710701227188, 0.05106544494628906, -0.2257179468870163, 0.03728597238659859, -0.2987314462661743, 0.12589727342128754, 0.14672282338142395, -0.11044016480445862, 0.10572522133588791, -0.04918036237359047, 0.05493660271167755, 0.07208956778049469, 0.10856814682483673, 0.21284830570220947, 0.14188118278980255, 0.029540808871388435, -0.038535360246896744, -0.0158045906573534, 0.02675236016511917, 0.1165538802742958, 0.05591686815023422, 0.1355561912059784, -0.1089973971247673, 0.0854051411151886, -0.18922653794288635, -0.09973966330289841, -0.17115452885627747, 0.12261506170034409, 0.007576372940093279, -0.091875821352005, -0.10725247859954834, -0.0033680545166134834, -0.04490857571363449, -0.12360041588544846, 0.08931995928287506, -0.01856243424117565, 0.0006307464209385216, -0.15095750987529755, 0.02581886202096939, 0.04956519976258278, 0.06595410406589508, -0.1473485380411148, -0.08879484981298447, -0.04396756738424301, -0.13517767190933228, -0.10095272958278656, 0.05195963382720947, 0.05478639155626297, 0.05253700539469719, -0.14359329640865326, -0.19635136425495148, -0.1604858636856079, 0.021142177283763885, 0.16244862973690033, 0.030613575130701065, -0.13193006813526154, -0.1398855596780777, -0.04500862956047058, 0.10700765997171402, -0.03220705687999725, -0.10875106602907181, -0.03489374369382858, 0.041104964911937714, 0.011991551145911217, -0.055169589817523956, 0.04153590649366379, 0.21032468974590302, -0.06387146562337875, 0.05015573650598526, -0.06504763662815094, -0.13754795491695404, 0.18918831646442413, -0.07693751156330109, 0.013284623622894287, -0.09986767917871475, -0.15804339945316315, 0.025982778519392014, 0.03127848729491234, 0.13649311661720276, -0.07753689587116241, -0.007565424777567387, 0.08719538152217865, -0.10037266463041306, 0.028251273557543755, -0.028351884335279465, 0.07169334590435028, -0.06655126065015793, 0.07560677081346512, 0.10888917744159698, -0.044129710644483566, 0.1513068974018097, -0.03585083782672882, -0.11340778321027756, 0.07072038948535919, 0.06931009143590927, -0.12335773557424545, -0.002066162647679448, 0.08579020947217941, -0.09056143462657928, -0.08328074961900711, 0.0676594153046608, 0.23533566296100616, -0.09060806035995483, -0.12667842209339142, -0.12913043797016144, -0.03139004111289978, 0.0706329494714737, -0.1159030869603157, -0.11017073690891266, 0.05897548049688339, -0.2201223522424698, 0.04336189106106758, 0.07475446164608002, 0.04108121991157532, 0.12128465622663498, 0.0718989297747612, 0.09518549591302872, 0.08349239081144333, -0.12007193267345428, 0.030491553246974945, 0.06100035086274147, 0.07246607542037964, -0.0472053587436676, 0.13908915221691132, 0.2380140721797943, -0.09540479630231857, -0.1156664490699768, 0.09086807817220688, 0.04617476090788841, -0.002622143132612109, 0.06061627343297005, 0.10573083907365799, 0.09832264482975006, -0.035912659019231796, -0.11727184802293777, -0.20123480260372162, -0.09481249004602432, 0.22407746315002441, -0.003537157317623496, -0.02189059741795063, 0.15126745402812958, -0.0006378006655722857, 0.068926140666008, 0.10727744549512863, 0.04672917723655701, -0.17086000740528107, -0.15356408059597015, -0.13608208298683167, -0.11905577778816223, -0.16779769957065582, 0.037126120179891586, -0.11269986629486084, -0.00275606126524508, -0.050175707787275314, -0.17179986834526062, -0.18725283443927765, 0.1475725919008255, 0.019681822508573532, -0.07203637063503265, -0.05296909064054489, -0.1964510679244995, 0.15692345798015594, -0.1755174696445465, 0.06882945448160172, 0.014817641116678715, -0.035978205502033234, -0.026090463623404503, -0.06042531877756119, 0.036370959132909775, -0.1685675084590912, 0.14337487518787384, 0.06515011191368103, 0.011743311770260334, 0.036504101008176804, -0.027257317677140236, -0.11558045446872711, -0.05613427609205246, -0.049397021532058716, 0.17321057617664337, -0.0502501018345356, 0.22488516569137573, -0.11503800004720688, -0.005699486471712589, -0.1569250524044037, 0.018500562757253647, -0.13508018851280212, -0.13390862941741943, 0.11129861325025558, 0.060197290033102036, -0.130350723862648, -0.016212835907936096, -0.1150263324379921, 0.1440829485654831, -0.11451995372772217, -0.05068337544798851, 0.06644807010889053, -0.056920409202575684, -0.07974845916032791, -0.11489899456501007, 0.06427782028913498, 0.012575909495353699, 0.09334414452314377, 0.1008121520280838, 0.09713249653577805, -0.09110425412654877, 0.021065734326839447, -0.14892415702342987, -0.4074539542198181, 0.09953060746192932, -0.04384717345237732, -0.0018178295576944947, -0.0046221911907196045, 0.12144055217504501, 0.07268472760915756, 0.00658919895067811, 0.016682879999279976, -0.06540953367948532, -0.05775804817676544, -0.056534186005592346, -0.22453559935092926, -0.05017947778105736, -0.08196001499891281, 0.16468468308448792, -0.06375627219676971, 0.03775671869516373, 0.03082738257944584, 0.07262995839118958, -0.12303196638822556, -0.07323279976844788, 0.026830177754163742, 0.05601286143064499, -0.18462689220905304, -0.025047320872545242, 0.14843110740184784, -0.07717039436101913, -0.005236072465777397, -0.04277868568897247, 0.11342629790306091, 0.04457026720046997, -0.1805707961320877, -0.11594776809215546, -0.011439627036452293, -0.1505574733018875, -0.8790954947471619, 0.6716567277908325, -0.45159727334976196, -0.7319441437721252, -1.082521915435791, 0.21983088552951813, 0.45694562792778015, 0.7460998892784119, 0.2324412763118744, 0.4485335648059845, 0.37608668208122253, 0.7790889143943787, -0.23834477365016937, -0.8694843649864197, 0.18148738145828247, 0.8167104125022888, -0.17780376970767975, 0.02634502574801445, 0.2405252903699875, -0.2395457774400711, -0.10946143418550491, -0.27929359674453735, 0.03604871779680252, 0.15449295938014984, 0.2789060175418854, -0.07231631875038147, 0.10958902537822723, -0.08352541923522949, 0.16250936686992645, -0.11290628463029861, -0.22546857595443726, 0.16011720895767212, -0.30874308943748474, 0.11085637658834457, -0.26075464487075806, 0.2301958054304123, -0.2958866357803345, 0.07525676488876343, 0.11416822671890259, -0.22664858400821686, 0.13632406294345856, -0.32183021306991577, -0.23342886567115784, 0.05243352800607681, 0.19563405215740204, -0.32895851135253906, -0.04565616697072983, 0.010011537000536919, -0.0071746911853551865, -0.0722760334610939, -0.2770218253135681, 0.19080974161624908, 0.1748245805501938, 0.1945183128118515, 0.17694292962551117, -0.046996232122182846, 0.08715330809354782, -0.18019653856754303, -0.07200454920530319, -0.27224430441856384, -0.18961700797080994, -0.22024311125278473, 0.059679675847291946, -0.25970855355262756, -0.40201401710510254, 0.07571451365947723, 0.14636805653572083, 0.15914924442768097, 0.03849463164806366, 0.002854598220437765, 0.05418316274881363, -0.11613699048757553, -0.0033301948569715023, 0.08902179449796677, 0.0950300320982933, 0.25348109006881714, 0.22070911526679993, 0.2530548870563507, -0.21860022842884064, 0.2119680941104889, -0.10288665443658829, -0.20519627630710602, 0.061077941209077835, 0.268489271402359, 0.1795446276664734, 0.136422798037529, 0.3206692934036255, -0.2664531469345093, 0.1652596890926361, -0.32189780473709106, -0.03971834480762482, -0.2121797651052475, 0.06583351641893387, 0.048495762050151825, -0.11714375019073486, -0.09742027521133423, -0.04124041646718979, 0.060864754021167755, 0.14767304062843323, -0.17440655827522278, 0.1918148398399353, 0.12275265157222748, -0.19656263291835785, 0.04166173189878464, 0.2596351206302643, -0.09387388825416565, -0.05151420831680298, 0.05924725532531738, -0.08896859735250473, -0.04356169328093529, 0.19819073379039764, -0.1082654520869255, -0.01709653250873089, -0.029650475829839706, -0.2724267542362213, 0.07459836453199387, -0.30726245045661926, 0.23829735815525055, -0.11676225811243057, -0.0025377266574651003, 0.2767031788825989, -0.12493819743394852, -0.21504344046115875, -0.33819854259490967, 0.20154555141925812, -0.0037641418166458607, 0.2101721465587616, -0.033450521528720856, -0.5016685724258423, -0.01436614990234375, 0.09790036082267761, -0.1263597309589386, -0.14683663845062256, 0.11387556046247482, -0.19236955046653748, -0.23383815586566925, 0.018381623551249504, 0.057433031499385834, -0.04409012570977211, -0.13386940956115723, -0.1920987218618393, 0.1294114738702774, -0.22718845307826996, 0.15355949103832245, 0.4401565492153168, 0.061731982976198196, -0.11107450723648071, -0.31074047088623047, 0.057516518980264664, 0.17200616002082825, 0.0741918534040451, 0.021232595667243004, 0.3122463822364807, 0.178503155708313, -0.018250685185194016, -0.27646511793136597, -0.33431991934776306, 0.08942072093486786, -0.16273219883441925, 0.10677018761634827, 0.04683898761868477, -0.10283522307872772, 0.040761835873126984, 0.10369562357664108, -0.21245399117469788, 0.17860299348831177, 0.49246513843536377, 0.25073885917663574, 0.2062377780675888, -0.16303077340126038, 0.1516275852918625, -0.09862395375967026, -0.3459499776363373, -0.33264225721359253, 0.06184244900941849, 0.16187728941440582, -0.21385881304740906, -0.20862442255020142, -0.13926935195922852, 0.131787970662117, 0.09332782030105591, -0.09099986404180527, -0.19960367679595947, 0.10497505217790604, -0.004748651757836342, -0.013648586347699165, -0.10701890289783478, 0.07468868792057037, -0.14137890934944153, 0.2559838891029358, -0.017078733071684837, 0.051949355751276016, -0.1602872759103775, 0.18584883213043213, -0.07161597907543182, 0.24111641943454742, -0.3038657307624817, 0.17600017786026, -0.09974073618650436, -0.2144114375114441, 0.3538708984851837, -0.010238715447485447, -0.16134382784366608, 0.027006572112441063, -0.12090932577848434, -0.24486230313777924, 0.23024608194828033, -0.22569343447685242, 0.3781660795211792, 0.0009496156708337367, -0.13180257380008698, -0.17377178370952606, 0.07963836193084717, 0.08241624385118484, 0.02180640958249569, -0.09244640916585922, 0.2246798425912857, 0.2642989158630371, -0.23170827329158783, 0.31900453567504883, -0.1734916716814041, -0.017325369641184807, -0.18961508572101593, -0.07330980896949768, -0.08866618573665619, 0.07142560184001923, -0.1279706507921219, 0.04639224335551262, 0.2056816965341568, 0.296251505613327, 0.16114263236522675, -0.2241171896457672, 0.18174457550048828, 0.10688554495573044, -0.1599864959716797, -0.014853673987090588, -0.2650253176689148, -0.35694223642349243, 0.4103258550167084, -0.0038961698301136494, -0.35557663440704346, 0.047732386738061905, -0.2511226236820221, 0.21872012317180634, 0.1977086365222931, 0.007711985148489475, 0.16513369977474213, -0.2778637707233429, -0.0998459979891777, -0.2440180778503418, -0.43724000453948975, -0.2445492148399353, -0.38577866554260254, -0.28048446774482727, 0.2852881848812103, 0.028584623709321022, -0.20937010645866394, -0.03035915642976761, -0.14521415531635284, 0.10812927782535553, -0.17365282773971558, 0.23468030989170074, -0.1714923083782196, -0.04645286872982979, -0.025539496913552284, -0.2585192918777466, 0.13075445592403412, -0.20213858783245087, 0.1055719405412674, -0.03125665709376335, -0.07428310066461563, -0.013870741240680218, 0.1553860902786255, 0.04929076135158539, -0.02740529738366604, -0.05219065770506859, 0.22020527720451355, -0.17312628030776978, 0.14163349568843842, -0.046479903161525726, 0.05543794482946396, -0.17474579811096191, -0.032351624220609665, 0.16594481468200684, -0.0911535918712616, 0.1585734635591507, 0.18563492596149445, 0.023014135658740997, -0.09248774498701096, -0.27668049931526184, 0.0003210761642549187, 0.05564859136939049, 0.09530194848775864, 0.1958625614643097, -0.08375546336174011, 0.002605874789878726, -0.11208837479352951, -0.04431929066777229, 0.09616723656654358, 0.1812833696603775, -0.1501438170671463, -0.024057256057858467, -0.050352390855550766, -0.018438242375850677, 0.09201876074075699, 0.02017679251730442, 0.1736052930355072, 0.01113332249224186, -0.11367274075746536, -0.10019730031490326, 0.010528863407671452, -0.055962398648262024, -0.1229759231209755, 0.15731605887413025, -0.20346936583518982, 0.0008817685884423554, -0.053109586238861084, 0.12173064053058624, 0.06784821301698685, 0.08244387060403824, 0.06280610710382462, 0.10761939734220505, 0.022539455443620682, -0.042433228343725204, 0.19667784869670868, -0.047088515013456345, 0.16791628301143646, -0.06578920781612396, -0.062291428446769714, 0.07971467822790146, -0.07025481015443802, 0.03259117528796196, -0.03314909711480141, 0.08058910816907883, -0.10938619822263718, 0.13873086869716644, -0.28530487418174744, -0.07723013311624527, -0.19393032789230347, 0.1135895624756813, 0.07030536979436874, 0.09762196242809296, -0.03829813748598099, -0.133528470993042, -0.11229025572538376, -0.1321372240781784, -0.04439394548535347, -0.10231628268957138, -0.02544194459915161, 0.07370840013027191, -0.11292364448308945, 0.023719990625977516, 0.0145007548853755, 0.14739225804805756, 0.030776990577578545, 0.28840288519859314, -0.05570061504840851, 0.11331288516521454, 0.0872078463435173, -0.21363909542560577, 0.048598144203424454, -0.03777090087532997, -0.13213996589183807, 0.06477666646242142, 0.01531181950122118, -0.1987280547618866, 0.0509052500128746, 0.10338184237480164, 0.1065099760890007, 0.033482521772384644, 0.11925432831048965, 0.1458960771560669, -0.1629588007926941, 0.39310330152511597, -0.06552264839410782, 0.2916828393936157, 0.04271673038601875, 0.01583447866141796, 0.319730669260025, 0.17055438458919525, 0.04045111685991287, -0.08284582197666168, 0.2405398041009903, -0.15469704568386078, -0.04302729666233063, -0.2047482579946518, 0.3051050305366516, 0.08691172301769257, 0.07339246571063995, -0.13530698418617249, -0.23525212705135345, -0.0936252772808075, 0.2140650600194931, -0.0731368362903595, -0.11112198978662491, 0.025289518758654594, -0.05294632166624069, 0.03893854469060898, 0.21323749423027039, 0.0039804051630198956, 0.28381863236427307, 0.07016167044639587, 0.0791022777557373, 0.01118788868188858, -0.5812398195266724, -0.15937073528766632, -0.03950837627053261, 0.2913055717945099, -0.10856485366821289, 0.03609037399291992, -0.4482611119747162, 0.01877821423113346, 0.005261341575533152, -0.07755270600318909, 0.12802159786224365, 0.07697233557701111, 0.056472297757864, -0.09836077690124512, -0.1377130150794983, -0.20072761178016663, 0.32685911655426025, 0.05900464951992035, -0.4493747651576996, -0.45227688550949097, -0.2612796723842621, -0.07806629687547684, -0.29082825779914856, -0.2181282937526703, 0.3220958709716797, -0.088982954621315, 0.1121642142534256, -0.22610963881015778, -0.0028554960153996944, 0.0745515525341034, 0.10851655155420303, -0.08365490287542343, -0.03222931548953056, 0.15074342489242554, -0.10964065045118332, 0.18070322275161743, 0.2076595276594162, 0.0024538259021937847, 0.05033758282661438, -0.015898283571004868, -0.052785567939281464, 0.22148919105529785, 0.11168288439512253, 0.11397115886211395, 0.09420131146907806, -0.07473538815975189, -0.15943822264671326, -0.06090753152966499, -0.03231479600071907, 0.04191594570875168, -0.08331620693206787, 0.034429606050252914, -0.002121634315699339, 0.0024372434709221125, 0.11424525827169418, -0.08088269829750061, 0.21847282350063324, -0.008203436620533466, 0.039338383823633194, 0.042636092752218246, 0.0014635807601734996, 0.00968986190855503, -0.1709630936384201, 0.14680729806423187, 0.02151363715529442, -0.08454811573028564, 0.09046757966279984, -0.18738976120948792, 0.08370692282915115, 0.1264376938343048, -0.1175474002957344, -0.050150927156209946, 0.008218829520046711, 0.07055686414241791, -0.0813353955745697, 0.16281186044216156, -0.08831572532653809, -0.006269668694585562, -0.3401104211807251, -0.4116199314594269, -0.05962302163243294, -0.08304205536842346, -0.1893182098865509, 0.09812325239181519, 0.03612501174211502, 0.33788734674453735, 0.05771968886256218, 0.0914822369813919, -0.35120218992233276, -0.230549156665802, -0.04274062067270279, -0.19675491750240326, -0.2851303517818451, -0.23733505606651306, 0.007230253424495459, -0.12619136273860931, 0.18228933215141296, -0.17927366495132446, -0.0910876914858818, 0.18253254890441895, 0.4892245829105377, -0.262859970331192, -0.16196107864379883, -0.2284822314977646, -0.01714545674622059, -0.007735812105238438, -0.17044363915920258, -0.18535906076431274, -0.17017485201358795, 0.050040118396282196, 0.026468638330698013, -0.01639850251376629, -0.06506198644638062, -0.01202008593827486, -0.24429160356521606, -0.06038535386323929, 0.044119011610746384, 0.026961451396346092, -0.1014583557844162, 0.16433818638324738, -0.09809160977602005, 0.0538976676762104, 0.01714666374027729, 0.11648768931627274, -0.007861130870878696, 0.1218056008219719, -0.0029115984216332436, -0.027480147778987885, 0.10568337887525558, -0.3349502384662628, -0.18629702925682068, 0.01172981970012188, 0.057794056832790375, 0.27246183156967163, 0.1117006167769432, -0.030309196561574936, -0.09756527096033096, -0.023942776024341583, -0.05971309915184975, -0.018466033041477203, -0.038690149784088135, 0.021228335797786713, -0.10718280076980591, -0.08341770619153976, -0.23495832085609436, -0.054720643907785416, -0.01634746417403221, 0.19683916866779327, -0.00040849705692380667, 0.3510854244232178, -0.18702580034732819, -0.2620176374912262, -0.13148511946201324, 0.05746796354651451, 0.04529093950986862, -0.0890074074268341, -0.04676853120326996, 0.09584368020296097, -0.04512529820203781, -0.15228481590747833, 0.1272108256816864, -0.1609162986278534, -0.26668068766593933, -0.2812904119491577, -0.07624075561761856, 0.02724945731461048, -0.20462566614151, 0.09070031344890594, 0.006998725235462189, 0.09737628698348999, -0.11465968191623688, -0.17716462910175323, 0.11580432951450348, -0.10968143492937088, 0.21134160459041595, -0.02286718226969242, -0.11086995154619217, 0.11731662601232529, -0.10826817154884338, -0.09524812549352646, 0.09949000924825668, 0.24694988131523132, 0.13048094511032104, -0.019342120736837387, -0.25565966963768005, -0.25861436128616333, 0.020616931840777397, 0.007745456416159868, 0.05873096361756325, -0.09921728074550629, -0.12992478907108307, 0.06259144842624664, 0.008678879588842392, -0.004172943532466888, -0.08427722752094269, -0.0377504788339138, 