{"version": "0.5.4", "metadata": {"date": {"year": 2025, "month": 2, "day": 26, "hour": 10, "minute": 53, "second": 0}, "loudness": -13.048964500427246, "gain": 0.912198955920116}, "architecture": "WaveNet", "config": {"layers": [{"input_size": 1, "condition_size": 1, "head_size": 8, "channels": 16, "kernel_size": 3, "dilations": [1, 2, 4, 8, 16, 32, 64, 128, 256, 512], "activation": "Tanh", "gated": false, "head_bias": false}, {"input_size": 16, "condition_size": 1, "head_size": 1, "channels": 8, "kernel_size": 3, "dilations": [1, 2, 4, 8, 16, 32, 64, 128, 256, 512], "activation": "Tanh", "gated": false, "head_bias": false}], "head": null, "head_scale": 0.02}, "weights": [-0.4461217224597931, -0.5576597452163696, -0.04898100346326828, -0.9960716962814331, -0.39173275232315063, -0.005934326443821192, -0.22946670651435852, -0.49388691782951355, -1.076728105545044, -1.06071138381958, -0.15909133851528168, -0.7548671960830688, 0.5644989013671875, -0.8308760523796082, 0.2115423083305359, -0.3559790253639221, -0.006643414031714201, -0.21023344993591309, 0.04654525965452194, 0.16288147866725922, -0.0703980103135109, -0.05454191565513611, 0.15502245724201202, -0.11511663347482681, -0.07927525043487549, 0.1001284122467041, -0.17259611189365387, 0.11779008060693741, -0.018976449966430664, -0.03553589805960655, 0.14697913825511932, -0.04494912177324295, -0.16469649970531464, -0.12560395896434784, -0.07390446960926056, -0.04106792062520981, -0.054307810962200165, 0.19744668900966644, -0.08914147317409515, -0.0005024654092267156, 0.08993552625179291, -0.11938527226448059, -0.07840660959482193, -0.0755729079246521, -0.22970569133758545, 0.08956166356801987, 0.13915205001831055, -0.27381202578544617, 0.1070004478096962, 0.18122947216033936, -0.22208528220653534, 0.12390348315238953, -0.12636588513851166, 0.06709112972021103, -0.15825192630290985, 0.05563826113939285, -0.14707531034946442, 0.07578267902135849, -0.20604103803634644, 0.2794557213783264, -0.028938865289092064, 0.14715582132339478, -0.1558021754026413, 0.1797156184911728, 0.03724922239780426, 0.11704622954130173, 0.031033437699079514, 0.03419175371527672, -0.113312266767025, 0.04535738006234169, -0.06461170315742493, 0.008308317512273788, -0.029716648161411285, 0.016176944598555565, -0.01913929544389248, -0.055986128747463226, -0.03902510553598404, 0.06731528788805008, -0.0029460720252245665, 0.16268664598464966, -0.02544253319501877, -0.11379033327102661, 0.11814574897289276, 0.04449767246842384, 0.03788280487060547, -0.006850795354694128, -0.08566712588071823, -0.045432087033987045, 0.09044142812490463, 0.042268335819244385, 0.07155601680278778, 0.011275531724095345, 0.14199355244636536, 0.13849714398384094, 0.0965576171875, 0.10151412338018417, -0.0995720699429512, -0.14010697603225708, -0.05003933608531952, 0.09196589142084122, 0.11653527617454529, 0.09237516671419144, 0.062365178018808365, -0.10086569935083389, -0.09713315218687057, 0.11407863348722458, -0.11432245373725891, 0.0680738314986229, 0.01844763197004795, 0.0884755477309227, 0.0864747017621994, 0.006351166870445013, 0.01332495454698801, 0.26924875378608704, -0.2454168051481247, 0.06418713927268982, 0.26585447788238525, 0.02207668125629425, 0.0682898461818695, 0.024767963215708733, -0.09655638784170151, -0.05315669998526573, 0.24900703132152557, -0.18925827741622925, 0.20564256608486176, 0.07792482525110245, -0.1615487039089203, -0.09684494882822037, -0.04879949241876602, -0.02730208821594715, -0.044415269047021866, 0.2365531474351883, -0.13017268478870392, 0.040118735283613205, 0.22059646248817444, -0.16683314740657806, 0.047247517853975296, 0.10167663544416428, -0.15974146127700806, 0.15409012138843536, 0.20511369407176971, -0.09164411574602127, 0.14004701375961304, 0.24866437911987305, -0.053339410573244095, 0.1581537425518036, 0.16521482169628143, 0.03344294801354408, -0.058589786291122437, -0.24906663596630096, 0.2154935747385025, -0.06285566836595535, 0.04271702840924263, -0.16626772284507751, 0.057912226766347885, -0.05036487802863121, 0.21654543280601501, 0.17169630527496338, 0.2964624762535095, -0.1960490494966507, 0.06358315050601959, 0.10589174181222916, 0.17591577768325806, -0.03972324728965759, 0.2594773471355438, 0.1378379464149475, 0.14325545728206635, 0.08018065243959427, 0.17953716218471527, 0.14865924417972565, 0.181139275431633, 0.18730157613754272, 0.07217703759670258, 0.1830611228942871, 0.31729742884635925, 0.12387678027153015, 0.01130772102624178, -0.04109799489378929, -0.09076369553804398, 0.20410758256912231, 0.1181710734963417, 0.008970043621957302, 0.08943147957324982, 0.1292451024055481, -0.06329379975795746, 0.2268567979335785, 0.29235899448394775, 0.11995414644479752, 0.2549929916858673, 0.18132489919662476, -0.10534004122018814, 0.2693001627922058, 0.05234552547335625, 0.04661437124013901, 0.10750191658735275, 0.2234739363193512, 0.10456632077693939, -0.25522205233573914, -0.25718164443969727, -0.05884919315576553, 0.21595752239227295, 0.07640931010246277, 0.07162749022245407, -0.12466809898614883, -0.2680228352546692, 0.01147421170026064, 0.1682751625776291, 0.08661502599716187, 0.08372151106595993, -0.12416458129882812, 0.07009979337453842, 0.07369940727949142, 0.05050627514719963, -0.01618330366909504, 0.1725628525018692, 0.008964074775576591, 0.12024617940187454, 0.061037879437208176, 0.05946395546197891, -0.03952888026833534, 0.12055572122335434, 0.1124190166592598, 0.04146157205104828, 0.038343820720911026, -0.12582778930664062, 0.007810818962752819, 0.02915244922041893, 0.12314346432685852, 0.07508859783411026, 0.06264636665582657, -0.05666369944810867, 0.04598434269428253, 0.14807038009166718, -0.1259434074163437, 0.15993048250675201, -0.04453517869114876, 0.026740696281194687, 0.11813762038946152, 0.05926845222711563, -0.08496381342411041, 0.13073670864105225, 0.15447998046875, 0.11429107934236526, -0.04381575435400009, -0.18083293735980988, -0.15243887901306152, -0.005551050417125225, 0.14644251763820648, -0.0029682889580726624, -0.04163448140025139, -0.03424834832549095, -0.08716809004545212, -0.10033969581127167, 0.08115243911743164, 0.09988903999328613, 0.036369625478982925, 0.050759702920913696, -0.087877057492733, -0.07875001430511475, 0.1647130846977234, -0.003940539434552193, 0.05395890399813652, -0.07436294108629227, 0.01823485642671585, 0.0663168877363205, -0.0732688456773758, -0.09280816465616226, -0.128649041056633, 0.13991104066371918, -0.009341116063296795, -0.0977698415517807, 0.10242891311645508, 0.010890078730881214, 0.035486187785863876, 0.08564620465040207, -0.04173940792679787, 0.09544907510280609, 0.04806527867913246, -0.22453884780406952, -0.0008897869847714901, 0.08993388712406158, -0.2382989376783371, 0.09580623358488083, -0.04507394880056381, -0.05172959715127945, -0.1489723175764084, 0.09341631084680557, -0.08119691908359528, -0.13065549731254578, -0.09690611064434052, -0.13108384609222412, -0.15929509699344635, -0.0713200494647026, 0.22520095109939575, 0.16774211823940277, 0.07044903188943863, -0.09688932448625565, 0.008026986382901669, -0.08686292916536331, 0.2053535282611847, -0.041920099407434464, 0.14073647558689117, -0.0057875909842550755, 0.0816330537199974, 0.17037901282310486, -0.06946688145399094, -0.03326861187815666, 0.05200903117656708, -0.142265185713768, -0.04792187735438347, 0.19031478464603424, 0.009901318699121475, -0.1042565256357193, 0.09204661101102829, -0.149062842130661, -0.06521029025316238, 0.1082800105214119, -0.0004267728654667735, 0.04787741228938103, -0.15486933290958405, -0.04360580816864967, -0.07389701157808304, -0.05613269656896591, -0.07940902560949326, -0.029811717569828033, 0.08944720774888992, 0.032595500349998474, -0.02662632241845131, 0.020550165325403214, -0.02947402186691761, -0.10526706278324127, 0.011388658545911312, 0.023232191801071167, -0.13404972851276398, 0.1600566953420639, -0.17843130230903625, -0.16960714757442474, -0.015447713434696198, -0.04554686322808266, -0.07696469873189926, -0.048705555498600006, 0.13010229170322418, -0.06378226727247238, 0.17272059619426727, -0.09057201445102692, 0.05442899465560913, -0.11726710200309753, -0.04739753529429436, 0.12288013100624084, 0.19455701112747192, -0.06914744526147842, 0.05591787397861481, 0.17671364545822144, 0.39982840418815613, 0.11288536339998245, 0.18696476519107819, 0.24091869592666626, 0.03037247434258461, 0.24426399171352386, 0.3767399787902832, 0.05156764015555382, 0.007380378432571888, 0.20006176829338074, 0.16459397971630096, 0.16642078757286072, 0.40264207124710083, 0.13275933265686035, -0.011679057031869888, -0.0431048721075058, 0.05803551897406578, 0.03274786099791527, 0.14535486698150635, 0.1528189778327942, 0.21298842132091522, 0.31685835123062134, -0.049201615154743195, -0.0005364057142287493, 0.31819289922714233, 0.07132548093795776, 0.14780907332897186, 0.21646538376808167, -0.05307956412434578, 0.08378409594297409, 0.18932269513607025, 0.13576523959636688, 0.006371498107910156, 0.18445438146591187, -0.048680879175662994, -0.12521864473819733, -0.40918824076652527, -0.1897205114364624, 0.023104866966605186, 0.42517462372779846, 0.09888345003128052, -0.19894112646579742, -0.12933015823364258, -0.08949635922908783, 0.1188216581940651, 0.2551257908344269, 0.04398530721664429, 0.03531384840607643, -0.23237992823123932, -0.14266450703144073, 0.09228358417749405, -0.07119328528642654, -0.16496406495571136, 0.06304971873760223, -0.1983821988105774, -0.09250425547361374, 0.05577493831515312, -0.0013033589348196983, 0.01824823208153248, 0.08248525112867355, -0.10726305097341537, -0.018720198422670364, 0.10272184014320374, -0.06920211762189865, -0.1520470529794693, 0.07000357657670975, -0.11116430908441544, 0.07862910628318787, 0.07803332805633545, -0.011265644803643227, 0.055655814707279205, 0.11594173312187195, -0.13772495090961456, -0.17866559326648712, 0.05036631599068642, -0.05365897715091705, 0.08293548971414566, 0.03659768030047417, -0.10263471305370331, 0.07583998888731003, 0.004280621185898781, -0.0269184410572052, 0.00934374425560236, -0.1982680857181549, 0.16396379470825195, 0.014298472553491592, -0.006426434963941574, -0.20456431806087494, -0.07938104122877121, -0.12349659204483032, 0.20396028459072113, 0.16762569546699524, -0.042644012719392776, -0.14537636935710907, 0.10302649438381195, 0.06769570708274841, 0.08735168725252151, 0.006530468352138996, 0.08209392428398132, -0.10974463820457458, -0.15442700684070587, -0.09955263137817383, 0.03254413604736328, 0.01364045962691307, -0.015790138393640518, 0.11148438602685928, -0.13745222985744476, 0.12390632927417755, -0.0038438597694039345, 0.11599070578813553, 0.10505416244268417, -0.02206932194530964, -0.025353243574500084, -0.11100300401449203, 0.016996150836348534, -0.039977557957172394, -0.035956285893917084, 0.09508979320526123, -0.07161418348550797, 0.1251371055841446, -0.1176881417632103, -0.09304796904325485, 0.13326546549797058, -0.030772453173995018, -0.03051154874265194, -0.08559440821409225, -0.03883804380893707, 0.09068917483091354, -0.07763069123029709, 0.06970107555389404, -0.09652906656265259, -0.057691629976034164, -0.07302168756723404, -0.05566703900694847, 0.06683474034070969, 0.02648613043129444, 0.08561919629573822, -0.11765164136886597, 0.00756363570690155, -0.07848425209522247, -0.044595807790756226, -0.07003716379404068, 0.09567900002002716, -0.1731991171836853, -0.19192463159561157, 0.10716019570827484, 0.04919806867837906, -0.09371311217546463, 0.07952990382909775, 0.0434114933013916, 0.07545817643404007, -0.010662718676030636, -0.14986489713191986, 0.01116346288472414, 0.08786845207214355, -0.1237693503499031, -0.20128734409809113, 0.07148180156946182, -0.18652082979679108, -0.17022068798542023, 0.0027660722844302654, 0.045028217136859894, -0.16108347475528717, 0.09841549396514893, -0.17544038593769073, -0.20621925592422485, 0.10254433006048203, -0.03523172438144684, 0.04283105954527855, 0.04632842540740967, -0.13348539173603058, 0.035109397023916245, 0.15234754979610443, -0.0959639772772789, 0.007586146239191294, 0.14348196983337402, 0.044688571244478226, -0.13882145285606384, 0.19731244444847107, 0.0009238551137968898, 0.18161718547344208, -0.059751883149147034, -0.10400068759918213, -0.0716225653886795, 0.21098369359970093, 0.11416871100664139, 0.08913104981184006, -0.22972990572452545, -0.09317950904369354, -0.16030967235565186, 0.2532362937927246, -0.05871041864156723, -0.03908797726035118, 0.022592825815081596, 0.18245071172714233, -0.04742379114031792, 0.15595868229866028, 0.16642142832279205, -0.005094190128147602, 0.0682462751865387, 0.20817559957504272, -0.0018864491721615195, 0.13785184919834137, 0.09313451498746872, 0.008387499488890171, -0.04294535890221596, -0.03561628609895706, -0.052006110548973083, -0.08549745380878448, -0.007943898439407349, 0.1239820346236229, 0.163314551115036, 0.0504128634929657, -0.1140490248799324, 0.050781648606061935, -0.02488010562956333, -0.0005480716354213655, -0.0670667514204979, -0.04427938535809517, -0.05205423757433891, -0.011801691725850105, 0.05362384766340256, -0.06165618821978569, 0.14552158117294312, 0.12385036796331406, -0.025813886895775795, 0.1670687049627304, 0.07268193364143372, 0.021257450804114342, -0.15091538429260254, -0.007833541370928288, 0.002720123389735818, 0.133779376745224, -0.082659512758255, 0.06895866245031357, -0.053982678800821304, 0.19631214439868927, 0.008503969758749008, 0.08535290509462357, 0.10026764869689941, -0.14275288581848145, 0.14463478326797485, 0.05875733122229576, -0.043937429785728455, 0.08753103017807007, -0.009134906344115734, -0.06194716691970825, 0.15971502661705017, 0.12997783720493317, -0.13915738463401794, -0.09642261266708374, -0.0052798837423324585, 0.08165323734283447, 0.124315045773983, -0.055643871426582336, -0.0596831738948822, 0.06509539484977722, -0.07510405033826828, -0.1007881760597229, 0.05330854281783104, 0.12416060268878937, 0.02414468489587307, 0.09801497310400009, -0.14019764959812164, -0.012973339296877384, 0.10715411603450775, -0.058651309460401535, 0.07254698127508163, 0.015762517228722572, -0.16568955779075623, 0.028184302151203156, 0.07855404913425446, 0.09976930171251297, 0.038267213851213455, -0.056874144822359085, -0.08299612253904343, -0.05379047989845276, 0.000632129202131182, 0.019261499866843224, -0.13714814186096191, 0.1118176132440567, 0.08898154646158218, 0.05209895968437195, 0.004289791453629732, -0.06874652951955795, -9.008948836708441e-05, -0.02334173582494259, -0.13883420825004578, -0.18238085508346558, 0.12065272033214569, -0.06764307618141174, 0.036335963755846024, -0.09382593631744385, 0.023831037804484367, 0.02489464171230793, 0.056610025465488434, -0.09854426234960556, -0.08737500011920929, -0.03387413173913956, 0.09851974248886108, -0.05400409549474716, 0.07134140282869339, 0.032693516463041306, -0.14837932586669922, -0.07097449898719788, 0.04793284833431244, -0.21482886373996735, 0.021835558116436005, -0.036146361380815506, -0.03272949159145355, -0.045333150774240494, 0.026598386466503143, -0.17779777944087982, 0.022438080981373787, -0.024653874337673187, -0.23353229463100433, -0.09580370038747787, -0.11867523193359375, -0.16457250714302063, 0.1541474610567093, -0.031806740909814835, 0.03917813301086426, 0.10645805299282074, 0.0038687612395733595, 0.06607479602098465, -0.0062806387431919575, 0.12355820089578629, -0.18418745696544647, 0.1622590869665146, 0.02658700756728649, 0.05808962509036064, 0.09897665679454803, 0.12774381041526794, -0.16055886447429657, -0.04658634960651398, -0.10449161380529404, 0.11345568299293518, 0.1451461762189865, 0.13950225710868835, 0.10855431109666824, 0.21182329952716827, 0.09685268253087997, -0.0060998681001365185, 0.22255024313926697, -0.05081787705421448, 0.08155794441699982, 0.23185847699642181, 0.09161433577537537, -0.0409151166677475, 0.07355988770723343, -0.12347789853811264, -0.0032531386241316795, 0.0022099120542407036, 0.10879494994878769, 0.01884527876973152, 0.1749866008758545, 0.008735409006476402, 0.12535543739795685, 0.13757352530956268, -0.03990081325173378, -0.127378448843956, 0.03941773250699043, 0.16616404056549072, 0.007713528349995613, 0.014976450242102146, 0.14699092507362366, 0.008725141175091267, 0.02883213385939598, 0.1239905133843422, 0.0032030141446739435, 0.23112735152244568, -0.10259828716516495, 0.026200972497463226, 0.005501254461705685, -0.05021778121590614, -0.011874177493155003, -0.022488225251436234, -0.09367936104536057, 0.1295396089553833, 0.02992425113916397, 0.1692419797182083, 0.009228290058672428, 0.05904635414481163, -0.11536771059036255, 0.041475165635347366, 0.031234486028552055, 0.14605967700481415, 0.21362870931625366, -0.01880342699587345, 0.04791788011789322, 0.053208768367767334, -0.0818273052573204, -0.0274160448461771, 0.18231210112571716, -0.08996684104204178, 0.04641669988632202, 0.18111789226531982, -0.03712491691112518, -0.024744413793087006, 0.13759998977184296, 0.1917836219072342, -0.09727061539888382, 0.07373146712779999, -0.08206851035356522, -0.001281512319110334, 0.09395840018987656, -0.1546795517206192, 0.08762498944997787, 0.22071529924869537, -0.181295245885849, 0.04547518119215965, 0.22836320102214813, -0.06577839702367783, -0.0840483233332634, 0.08886373043060303, -0.16027818620204926, -0.023126324638724327, 0.12280689924955368, -0.22344554960727692, -0.1439582109451294, -0.041262902319431305, 0.04010249674320221, 0.12353649735450745, 0.11511910706758499, -0.20691238343715668, 0.10994376987218857, -0.17668886482715607, 0.005742205772548914, 0.07247158139944077, 0.2061673402786255, -0.17444323003292084, -0.08293252438306808, -0.005756177473813295, 0.08734727650880814, -0.1817823350429535, 0.16197766363620758, -0.07821201533079147, -0.1601075381040573, -0.29700782895088196, -0.09812663495540619, -0.03079473227262497, 0.08671136200428009, 0.08852295577526093, 0.15997156500816345, -0.019969644024968147, 0.1508054882287979, -0.11015596985816956, 0.02114388346672058, 0.3464711010456085, 0.4852135181427002, 0.2598724365234375, -0.5306569933891296, -0.7565363049507141, -0.048969071358442307, 0.6609000563621521, -0.3846518099308014, 0.7802934050559998, -0.6506491899490356, 0.2567561864852905, -0.8277369141578674, -0.7223397493362427, -0.2964772582054138, 0.7319411039352417, 0.12618465721607208, -0.07956350594758987, -0.20446377992630005, 0.024974774569272995, 0.24906527996063232, 0.14049683511257172, 0.30947014689445496, 0.14135436713695526, 0.2448798269033432, -0.09657616913318634, -0.27506759762763977, 0.11750416457653046, -0.2595081925392151, 0.0948738232254982, 0.15903857350349426, 0.051591694355010986, 0.03307992219924927, 0.012305056676268578, -0.30414655804634094, 0.014358269050717354, 0.08156940340995789, 0.22870349884033203, -0.0647297352552414, 0.07370111346244812, 0.3185419738292694, 0.039631959050893784, -0.17989331483840942, 0.2911198139190674, -0.06109101325273514, 0.06527809798717499, 0.2879471480846405, -0.17892509698867798, -0.2145315408706665, -0.056217558681964874, -0.0014667995274066925, 0.09249182790517807, -0.291959285736084, -0.1617426872253418, -0.14469365775585175, 0.18025773763656616, -0.1180880218744278, 0.1554773449897766, -0.17168381810188293, -0.10634398460388184, 0.024051621556282043, -0.1894850730895996, -0.2551336884498596, -0.1746682971715927, 0.08896468579769135, 0.1453506499528885, -0.05885165184736252, -0.06747236102819443, 0.22191616892814636, -0.09985017031431198, -0.1683875322341919, -0.3503992557525635, -0.05811313912272453, -0.5138616561889648, 0.5557978749275208, 0.2789424955844879, 0.40372729301452637, 0.0681363195180893, 0.3920865058898926, -0.2304300218820572, 0.0780649483203888, 0.1293022632598877, 0.21396753191947937, 0.23840487003326416, 0.1693016141653061, 0.18434374034404755, -0.11710218340158463, -0.13497644662857056, -0.06605464965105057, 0.03995335474610329, 0.17195701599121094, 0.23459024727344513, 0.32216525077819824, 0.21817415952682495, -0.03202575817704201, -0.17230650782585144, 0.3292854130268097, -0.07407065480947495, -0.1005236878991127, -0.08639757335186005, -0.04921899735927582, 0.0893520638346672, 0.08164960891008377, 0.08579771220684052, 0.3140104413032532, -0.19761265814304352, 0.21100592613220215, 0.10898323357105255, 0.005584465805441141, -0.024581801146268845, 0.03546245023608208, -0.2796837389469147, -0.07617004215717316, -0.06321447342634201, 0.15396620333194733, -0.13357889652252197, -0.2394988238811493, -0.22213420271873474, -0.3348378539085388, 0.26183879375457764, -0.35207024216651917, -0.0387960784137249, -0.15267010033130646, 0.0453268326818943, -0.14865601062774658, -0.2958395183086395, -0.26668787002563477, -0.003282760037109256, 0.2129402756690979, -0.13952605426311493, 0.08212883770465851, -0.3156512677669525, 0.1799287348985672, 0.047515857964754105, -0.20716550946235657, -0.3058793842792511, 0.1480340212583542, 0.26223620772361755, 0.2323206514120102, -0.14048364758491516, -0.13928619027137756, -0.06573330610990524, -0.0809217169880867, -0.1045031026005745, -0.1263761967420578, -0.044797223061323166, -0.0719074234366417, -0.2943801283836365, 0.028487296774983406, -0.01953708939254284, -0.06336402148008347, -0.16401754319667816, -0.13673502206802368, 0.030650688335299492, -0.01540399994701147, 0.04221336171030998, -0.0797523781657219, 0.018847493454813957, -0.12695404887199402, 0.002183007774874568, -0.25148001313209534, -0.043725162744522095, 0.32974115014076233, -0.07234111428260803, 0.1514258235692978, 0.1432248204946518, -0.18970602750778198, 0.13509100675582886, 0.019765160977840424, -0.11445797979831696, 0.12765975296497345, 0.12368524819612503, 0.09658446162939072, -0.21152131259441376, 0.013673816807568073, 0.1890268176794052, 0.020930856466293335, -0.10392969101667404, 0.02771065942943096, 0.046257056295871735, -0.24586108326911926, 0.10560973733663559, -0.15344516932964325, 0.09424463659524918, -0.25681084394454956, 0.1791643351316452, 0.03559624031186104, 0.05195365473628044, -0.171212300658226, -0.05402030050754547, -0.3172587752342224, 0.13667424023151398, 0.011261705309152603, -0.06596405059099197, -0.28224945068359375, 0.15151356160640717, -0.15294399857521057, 0.12017929553985596, 0.09559605270624161, -0.06330624967813492, 0.15810859203338623, 0.15201805531978607, 0.2217860221862793, 0.04770515114068985, 0.18849213421344757, -0.0005756319151259959, 0.15013043582439423, -0.038166314363479614, 0.06455336511135101, 0.09924957901239395, -0.2557653486728668, 0.044124189764261246, -0.2666065990924835, 0.16445444524288177, 0.06482399255037308, -0.2550109028816223, 0.21848845481872559, 0.17354410886764526, 0.21341940760612488, -0.2646297514438629, -0.27262231707572937, -0.018810002133250237, -0.2779657542705536, -0.13195526599884033, 0.21839937567710876, 0.1363871693611145, -0.15064047276973724, -0.10896836966276169, -0.01135168131440878, -0.1615668684244156, 0.19785098731517792, -0.2803216874599457, -0.14293362200260162, 0.1646350920200348, -0.11310555785894394, -0.10388495028018951, -0.07327849417924881, -0.1930222511291504, -0.053791385143995285, -0.21053935587406158, -0.2058706283569336, 0.1585417240858078, 0.13114815950393677, 0.029797933995723724, -0.05822312831878662, 0.15424370765686035, 0.24507126212120056, -0.1433992087841034, 0.24705839157104492, -0.23014676570892334, 0.11848581582307816, -0.007071357220411301, 0.17507332563400269, 0.2569267451763153, 0.2518284022808075, 0.023517202585935593, -0.2678273022174835, -0.1424454152584076, -0.09131819009780884, -0.16340439021587372, 0.054236169904470444, -0.2249152958393097, -0.25389522314071655, -0.13594739139080048, -0.16905885934829712, 0.11915046721696854, 0.07297263294458389, -0.2089829295873642, 0.10871009528636932, 0.19356878101825714, 0.005060411524027586, -0.00303497351706028, -0.19803231954574585, -0.0828210636973381, 0.06742985546588898, -0.11614033579826355, -0.000629061833024025, 0.08859153091907501, -0.08981525152921677, -0.23980800807476044, 0.12858116626739502, 0.08246124535799026, 0.17797839641571045, 0.010293342173099518, -0.17405571043491364, -0.055650483816862106, 0.24224640429019928, 0.12556591629981995, -0.050208620727062225, 0.05308046564459801, 0.14596356451511383, 0.028440343216061592, -0.08790609985589981, 0.018018238246440887, 0.18103531002998352, 0.15542131662368774, -0.09971509128808975, -0.252528578042984, -0.3058450222015381, 0.21205927431583405, -0.4073846638202667, -0.1461460292339325, 0.16240955889225006, 0.012900317087769508, -0.0008572069928050041, 0.004313854034990072, 0.05961766839027405, -0.0328860729932785, -0.20589783787727356, -0.10326944291591644, 0.10962176322937012, 0.12036789208650589, -0.07512158155441284, 0.0045457142405211926, 0.16291411221027374, -0.0026622521691024303, -0.07766072452068329, -0.05015230551362038, 0.11149255931377411, 0.0055523947812616825, -0.07930450141429901, -0.10502009838819504, -0.12078368663787842, 0.21922099590301514, -0.005271327216178179, 0.06892560422420502, -0.08942250907421112, 0.06744474172592163, 0.098764568567276, 0.0044487337581813335, 0.06813498586416245, -0.09831735491752625, -0.05498887598514557, -0.0769260823726654, -0.056615740060806274, -0.05017576366662979, 0.20600298047065735, 0.22042766213417053, 0.2711351811885834, -0.17298740148544312, 0.17734764516353607, 0.35064029693603516, -0.003080920549109578, -0.20224815607070923, -0.4601871073246002, 0.0337136872112751, -0.007725382223725319, 0.3679235577583313, -0.182074636220932, -0.11885075271129608, 0.32841169834136963, -0.17273956537246704, -0.22974570095539093, 0.1756405532360077, 0.010463052429258823, 0.21248304843902588, -0.17291104793548584, 0.06276880949735641, 0.030118608847260475, 0.12425469607114792, -0.1275101900100708, -0.12488831579685211, -0.14335615932941437, -0.0863945335149765, -0.04650465026497841, -0.0006115170544944704, 0.16850461065769196, -0.13099601864814758, -0.030966563150286674, -0.1404818892478943, 0.09124291688203812, 0.5190520882606506, 0.03271793946623802, -0.011719866655766964, -0.013446064665913582, 0.03002275712788105, 0.07967229932546616, -0.07212736457586288, -0.0626106932759285, -0.203982874751091, -0.1358451098203659, -0.25780871510505676, -0.13196946680545807, -0.08443442732095718, -0.13979025185108185, -0.14909613132476807, 0.14944735169410706, -0.17979344725608826, 0.07765211910009384, -0.07725546509027481, 0.13217586278915405, 0.030936531722545624, -0.09055566042661667, 0.0863235741853714, -0.11130261421203613, -0.018371528014540672, -0.045455485582351685, -0.09833642095327377, 0.1869485080242157, 0.1589362621307373, -0.07747608423233032, 0.17533592879772186, 0.06296616792678833, 0.041668783873319626, -0.03434845060110092, 0.16565532982349396, 0.10107573866844177, -0.07629209011793137, 0.17982624471187592, 0.02484818361699581, 0.0951223373413086, -0.16242454946041107, -0.020251033827662468, 0.14567099511623383, 0.05609983205795288, 0.13395927846431732, 0.05756450071930885, 0.062493696808815, -0.0819787010550499, -0.022159259766340256, 0.06865563243627548, 0.09558922797441483, 0.07417140901088715, 0.2325378656387329, -0.034077949821949005, 0.031341683119535446, -0.04954499006271362, 0.1281161904335022, 0.13887730240821838, -0.040265507996082306, 0.1472160816192627, 0.015488848090171814, 0.07622147351503372, 0.07993516325950623, -0.1470833718776703, 0.09747679531574249, 0.02538456581532955, -0.03642302379012108, 0.0845249742269516, 0.09197276085615158, 0.15975281596183777, 0.14438997209072113, -0.09033965319395065, 0.05848594754934311, 0.19009628891944885, 0.024709688499569893, 0.046683456748723984, 0.16530317068099976, 0.04451794922351837, 0.045739006251096725, -0.05020014941692352, -0.08399611711502075, -0.004987763240933418, 0.05279330909252167, -0.14371252059936523, -0.018330827355384827, -0.07529725879430771, -0.04614541307091713, 0.0747058242559433, 0.13254070281982422, -0.09377998113632202, -0.05188547819852829, 0.09784166514873505, 0.1046714261174202, -0.08187296241521835, -0.04129444807767868, 0.1154167652130127, -0.2288864254951477, 0.06589790433645248, 0.07250391691923141, -0.037307191640138626, -0.09906595945358276, -0.11741067469120026, -0.045687515288591385, 0.10000267624855042, 0.13494262099266052, -0.10868147760629654, 0.0392894446849823, 0.028229713439941406, 0.020587271079421043, 0.06540480256080627, 0.08745604753494263, 0.04704391583800316, 0.039456818252801895, -0.10748381167650223, 0.0031856796704232693, -0.15609005093574524, 0.03438953310251236, -0.10671645402908325, -0.09477255493402481, -0.231191948056221, 0.0900406688451767, 0.005701827816665173, -0.0501144602894783, 0.01595078967511654, 0.05708202347159386, 0.17617180943489075, -0.0016498661134392023, -0.003182590939104557, 0.0625738799571991, 0.0451396219432354, 0.006931122392416, 0.049355171620845795, 0.07581575214862823, -0.17968663573265076, -0.22271673381328583, -0.14613641798496246, -0.07086912542581558, -0.1629115790128708, 0.057424698024988174, -0.10527171194553375, 0.0047189025208354, -0.045294273644685745, -0.03417398780584335, -0.021668391302227974, -0.00011859796359203756, 0.14806100726127625, -0.025656823068857193, 0.17065593600273132, -0.2919401228427887, -0.1477254182100296, -0.1976570039987564, -0.19508196413516998, -0.034465450793504715, -0.130467027425766, -0.15825197100639343, -0.0008433898910880089, 0.05206677317619324, 0.15389524400234222, 0.029755422845482826, -0.08356121182441711, -0.058748699724674225, -0.11372680217027664, -0.029754258692264557, -0.10651692003011703, 0.1628400832414627, -0.001965891569852829, 0.059154704213142395, -0.03511989489197731, 0.14621618390083313, -0.13093255460262299, -0.19351771473884583, -0.16012579202651978, 0.0024827609304338694, -0.29194390773773193, 0.19961631298065186, 0.043688833713531494, 0.14626134932041168, -0.16110791265964508, 0.10201064497232437, 0.20335032045841217, 0.10184898227453232, 0.25714099407196045, 0.03209894150495529, 0.01164811197668314, 0.16424912214279175, 0.07130090147256851, -0.05328520014882088, -0.11129926145076752, -0.09670805931091309, -0.17499521374702454, 0.16843223571777344, 0.024542804807424545, -0.011869709007441998, 0.012433190830051899, 0.04187939688563347, 0.16636060178279877, 0.09418456256389618, 0.14755284786224365, 0.29192525148391724, 0.13604073226451874, -0.08977530151605606, 0.12341132760047913, 0.10257334262132645, -0.0638226568698883, 0.07583776116371155, 0.15790371596813202, 0.07452716678380966, -0.12677307426929474, 0.14237892627716064, -0.09313075244426727, 0.07687811553478241, -0.06542880833148956, 0.09059685468673706, 0.0716375857591629, 0.004128933418542147, -0.2400612235069275, -0.13156859576702118, 0.11021749675273895, -0.09826095402240753, 0.09710925072431564, -0.06083330884575844, -0.11410356312990189, 0.029743751510977745, -0.053893718868494034, 0.07455825805664062, -0.04535285383462906, -0.19610531628131866, 0.0014860557857900858, -0.1647787094116211, -0.20417575538158417, -0.28338783979415894, -0.11740446090698242, -0.08910590410232544, -0.16895724833011627, -0.0933426022529602, -0.12233207374811172, 0.12257786840200424, -0.10005513578653336, -0.017725784331560135, -0.13119719922542572, -0.03050263412296772, 0.029324078932404518, 0.07153869420289993, 0.13150791823863983, -0.10195203125476837, -0.05124306306242943, -0.16572114825248718, 0.11864534765481949, -0.1468493491411209, -0.04910852760076523, -0.13221877813339233, -0.06744636595249176, 0.02032558061182499, 0.027345631271600723, 0.1520870327949524, -0.08167412132024765, -0.05834925174713135, 0.25158873200416565, 0.1478462815284729, 0.16782869398593903, -0.37318530678749084, 0.1309247612953186, -0.07231234014034271, 0.287882924079895, 0.09893964231014252, 0.01731577143073082, 0.35611721873283386, 0.29047495126724243, -0.10795445740222931, 0.17760026454925537, 0.10020997375249863, -0.06493207812309265, -0.2606789171695709, 0.006398072931915522, 0.13374580442905426, -0.13472650945186615, -0.03227141126990318, 0.009270032867789268, 0.0020024017430841923, 0.07798592001199722, -0.1501239687204361, 0.1328861564397812, 0.2657262980937958, 0.16360822319984436, -0.10977540910243988, -0.08302392810583115, 0.10432333499193192, 0.3005715012550354, 0.1253342479467392, 0.11826229095458984, -0.2194230705499649, -0.01018592994660139, 0.051314570009708405, -0.11609354615211487, -0.12170173227787018, -0.06855084747076035, 0.059023384004831314, -0.06908568739891052, 0.03880586102604866, -0.013561503030359745, 0.10668762773275375, -0.007278769742697477, 0.05260728672146797, 0.0667080208659172, -0.10192567110061646, -0.02536776289343834, -0.08637917041778564, -0.0615207776427269, -0.07241863012313843, 0.013250913470983505, 0.10742352157831192, 0.28680187463760376, -0.07169295102357864, 0.05129440501332283, -0.03323325887322426, -0.00422307662665844, -0.12556374073028564, 0.06276252865791321, 0.12064434587955475, 0.009807856753468513, 0.05005517974495888, 0.08530829846858978, 0.1615489423274994, 0.17241720855236053, 0.2420797497034073, 0.11331303417682648, 0.11515942215919495, 0.05515897274017334, 0.08218882232904434, 0.050702739506959915, -0.04792052134871483, 0.0014630169607698917, 0.06576550006866455, 0.010595087893307209, -0.009193828329443932, 0.18554504215717316, -0.007863315753638744, -0.02325005829334259, -0.027075285091996193, -0.1226821094751358, 0.14958281815052032, 0.2590121030807495, 0.19733567535877228, 0.023035919293761253, -0.013534978963434696, -0.15690279006958008, -0.06491492688655853, -0.04201457276940346, -0.0035379931796342134, 0.0015270465519279242, 0.02151956781744957, 0.11582533270120621, -0.21348553895950317, -0.08958673477172852, 0.1714102178812027, 0.12349395453929901, -0.15435442328453064, -0.00989532470703125, -0.1345624029636383, -0.018173135817050934, 0.249746635556221, -0.14450372755527496, -0.010818014852702618, 0.050527945160865784, -0.03497771918773651, 0.19722574949264526, 0.23283325135707855, 0.2723681926727295, -0.1932249367237091, 0.06706763058900833, 0.03422050178050995, 0.08768574893474579, -0.2423769235610962, 0.09632216393947601, 0.2464759796857834, 0.20182867348194122, -0.03779090568423271, 0.2055688500404358, 0.18543310463428497, 0.13757771253585815, 0.10971502959728241, 0.05336044728755951, -0.0748995989561081, -0.04760417714715004, 0.2600664794445038, 0.015561752021312714, -0.21262410283088684, -0.2884053885936737, 0.02373390644788742, 0.21414650976657867, -0.063748799264431, 0.16440269351005554, 0.07480532675981522, -0.03809712082147598, 0.20059816539287567, 0.04281839728355408, 0.0013589361915364861, -0.0525272898375988, 0.11424326151609421, 0.13531652092933655, -0.07923227548599243, -0.13212688267230988, 0.08888808637857437, 0.09380298107862473, 0.12994223833084106, -0.3924379050731659, -0.2659211754798889, 0.1252191960811615, 0.22015245258808136, -0.2812965512275696, -0.17653681337833405, 0.011590932495892048, -0.05529019981622696, -0.11129803955554962, 0.16125153005123138, 0.24850746989250183, 0.118463434278965, -0.3656359612941742, 0.10636507719755173, -0.17122110724449158, 0.18402314186096191, 0.04367740824818611, -0.02830439805984497, 0.1983843594789505, -0.007108659949153662, 0.005638290662318468, -0.06373274326324463, -0.005080454051494598, -0.0741497054696083, -0.08027145266532898, -0.059632472693920135, -0.15218394994735718, 0.11883065104484558, 0.048175062984228134, -0.171266108751297, -0.12176871299743652, 0.2580750584602356, -0.08867470920085907, 0.1879122257232666, -0.001631121733225882, 0.020968947559595108, 0.14778897166252136, 0.10007038712501526, -0.06451886147260666, -0.08364406228065491, -0.045861631631851196, 0.025214865803718567, 0.29477983713150024, 0.19246570765972137, 0.06497178226709366, 0.07720264792442322, -0.14258983731269836, -0.051616158336400986, -0.2677156329154968, 0.13569019734859467, 0.09098005294799805, 0.3068109452724457, -0.03880772739648819, 0.026378285139799118, 0.35344719886779785, -0.1791582703590393, 0.10970863699913025, 0.13366027176380157, -0.13009555637836456, -0.09669913351535797, -0.2559344470500946, 0.06911411136388779, 0.18006320297718048, -0.025086767971515656, -0.006757098715752363, -0.1444462090730667, -0.029447363689541817, 0.007327231112867594, 0.12445219606161118, 0.15875807404518127, -0.14519959688186646, 0.07277153432369232, -0.005276508163660765, 0.17072543501853943, 0.19502393901348114, 0.23472978174686432, -0.13630622625350952, 0.07971470803022385, -0.08463104814291, -0.12327718734741211, 0.16534146666526794, -0.057243768125772476, -0.01705452799797058, 0.04041408747434616, 0.1289299875497818, 0.06075422838330269, -0.030208388343453407, -0.040329787880182266, 0.04304024204611778, 0.05257287248969078, 0.045257989317178726, -0.1484437882900238, 0.03451092541217804, -0.05825198069214821, -0.06778580695390701, 0.010622314177453518, -0.0845688059926033, -0.1108754575252533, -0.2649729549884796, 0.18742862343788147, -0.18815025687217712, -0.10176119208335876, -0.18257741630077362, -0.1056865006685257, -0.3040701746940613, -0.0061874063685536385, 0.15618722140789032, 0.08467630296945572, 0.020987646654248238, 0.002813569037243724, -0.10104431211948395, 0.10941819846630096, -0.11723073571920395, -0.24690568447113037, -0.056482914835214615, -0.04451882466673851, -0.26640447974205017, -0.01608649082481861, 0.07943110913038254, -0.03585365042090416, -0.1343166083097458, -0.1640203595161438, -0.09890428930521011, 0.10680761188268661, -0.138734832406044, 0.293652206659317, 0.011732690036296844, -0.22730544209480286, -0.15506039559841156, -0.10968820005655289, -0.15541920065879822, -0.10178887099027634, -0.016903715208172798, -0.07081139832735062, -0.11632233113050461, 0.02083074487745762, 0.021210674196481705, 0.17229025065898895, 0.05919841304421425, 0.194046288728714, 0.0816357284784317, -0.037851255387067795, 0.04448842629790306, -0.040535829961299896, 0.20433294773101807, 0.138104647397995, 0.2925351858139038, -0.10712892562150955, 0.24952685832977295, 0.07021861523389816, 0.018277661874890327, -0.008213420398533344, 0.005132395774126053, 0.1002490445971489, 0.04640958085656166, -0.004576359409838915, 0.1623087227344513, -0.024176184087991714, 0.06089254096150398, 0.042751409113407135, 0.11168210953474045, -0.08283862471580505, -0.021421179175376892, 0.23271840810775757, 0.0487561859190464, -0.033662084490060806, -0.19840183854103088, 0.02731926739215851, -0.191533625125885, 0.15380707383155823, 0.08402928709983826, -0.030131781473755836, -0.22007165849208832, -0.19922465085983276, 0.00190703512635082, -0.19113965332508087, -0.02758132480084896, 0.05397559702396393, 0.014904692769050598, -0.03861656039953232, 0.1499997228384018, -0.14921075105667114, 0.13592852652072906, -0.0010096533223986626, 0.025879546999931335, 0.0583968386054039, 0.044374894350767136, -0.13248619437217712, 0.058609817177057266, -0.04077475890517235, 0.0781472697854042, 0.10998121649026871, 0.01699419878423214, 0.04872997850179672, 0.13901595771312714, -0.0003908312937710434, -0.10377759486436844, 0.13213777542114258, -0.09600482136011124, 0.2731547951698303, 0.21352533996105194, -0.21219879388809204, -0.12278285622596741, -0.1724126785993576, 0.2801673710346222, 0.09553862363100052, -0.1722060739994049, -0.33293402194976807, -0.19408518075942993, 0.03020242042839527, 0.029255341738462448, -0.09877382963895798, -0.0840890109539032, 0.09039178490638733, 0.05400838702917099, -0.1512613445520401, -0.09810669720172882, -0.06768235564231873, -0.0872812494635582, -0.1563946008682251, 0.004936599172651768, 0.021154724061489105, -0.09217806905508041, 0.037998028099536896, 0.016912203282117844, -0.3003212511539459, 0.05621137097477913, 0.052950404584407806, -0.12279752641916275, -0.09507467597723007, -0.1193152591586113, 0.00958317331969738, -0.08759919553995132, -0.15371261537075043, -0.1286371499300003, 0.023506302386522293, 0.043082818388938904, -0.0709480419754982, 0.17720432579517365, -0.06813659518957138, -0.04905300959944725, 0.04533892124891281, -0.01194409653544426, 0.2227456122636795, 0.09237892180681229, 0.026602594181895256, 0.02876277081668377, 0.08844242990016937, 0.03591839224100113, 0.08483287692070007, 0.060340672731399536, -0.0996694266796112, -0.19866977632045746, -0.16884362697601318, 0.07658608257770538, -0.0858825072646141, 0.15230683982372284, 0.15932287275791168, 0.27833038568496704, -0.03332829102873802, -0.017559869214892387, 0.23624739050865173, 0.1441226750612259, 0.14249177277088165, 0.03586667776107788, 0.04885371774435043, 0.0068017118610441685, 0.2585373520851135, -0.03513077646493912, 0.01827823743224144, 0.031246226280927658, -0.1799989640712738, 0.23365329205989838, 0.22008685767650604, 0.139805868268013, 0.05722331628203392, 0.1984201818704605, 0.136018306016922, 0.12495263665914536, 0.2320399135351181, -0.0595761314034462, -0.03968779370188713, 0.05030974745750427, -0.024349642917513847, -0.13776728510856628, 0.041334476321935654, -0.08557844161987305, 0.16653800010681152, -0.0025954025331884623, 0.23132814466953278, -0.00454114330932498, -0.08505290746688843, -0.11198092252016068, 0.14626458287239075, -0.16351719200611115, 0.0693303793668747, -0.5779057145118713, -0.2546555995941162, -0.33042070269584656, 0.7790483832359314, 0.9478035569190979, -0.9639391303062439, 1.0411055088043213, -0.36409857869148254, 0.059805624186992645, -0.7353522777557373, -0.4415680468082428, 0.7931745052337646, 1.0152318477630615, -0.03127330169081688, 1.0870274305343628, -1.0043096542358398, -0.16999906301498413, -0.2452835589647293, -0.1635083109140396, 0.1692657172679901, -0.18549545109272003, -0.002769772196188569, -0.30646035075187683, 0.2928294837474823, 0.24741075932979584, 0.028328195214271545, -0.029708392918109894, -0.165209099650383, -0.20302367210388184, 0.13383343815803528, -0.08243662863969803, 0.18972483277320862, 0.17379333078861237, 0.14655978977680206, -0.06363028287887573, 0.2228575050830841, -0.26408758759498596, 0.2580258548259735, 0.0401739701628685, -0.1859314888715744, -0.031476542353630066, 0.016069283708930016, -0.05235815420746803, -0.03927946835756302, 0.19328221678733826, -0.07151445001363754, -0.23444411158561707, 0.19207966327667236, 0.09835756570100784, 0.1296449452638626, -0.02111298032104969, 0.2455223649740219, 0.22935354709625244, -0.041278522461652756, 0.2828981876373291, 0.03112371638417244, -0.1509874016046524, -0.2935677170753479, -0.2804451584815979, 0.04915328696370125, 0.22929883003234863, -0.1724235564470291, 0.10628318041563034, 0.19319769740104675, 0.06345454603433609, 0.06507552415132523, -0.03838619217276573, 0.05784451588988304, 0.12739187479019165, 0.10105372220277786, -0.25831329822540283, 0.09962718188762665, 0.006491785403341055, 0.03132668882608414, 0.1254095882177353, -0.022298716008663177, 0.06754496693611145, 0.06407879292964935, -0.10415126383304596, 0.09802352637052536, 0.16843709349632263, -0.07583934813737869, -0.09913189709186554, 0.16614043712615967, 0.0501566119492054, -0.06971842795610428, -0.3028508722782135, 0.06347623467445374, 0.1646665334701538, 0.061500295996665955, 0.1769391894340515, -0.05885336920619011, -0.029820213094353676, -0.13098005950450897, -0.14520840346813202, 0.02343538962304592, 0.23523986339569092, -0.2586992084980011, -0.08191409707069397, -0.24354395270347595, -0.2472166121006012, -0.015845777466893196, -0.2556627690792084, 0.2553354501724243, 0.12110686302185059, -0.1780320256948471, 0.15183939039707184, -0.11542314291000366, 0.18348076939582825, 0.1318509578704834, -0.08977778255939484, -0.17943058907985687, -0.03677010163664818, 0.16116821765899658, 0.18313758075237274, -0.13801905512809753, -0.14206424355506897, -0.10922010242938995, 0.01018164586275816, -0.048199817538261414, -0.05945290997624397, -0.2692244350910187, -0.1263464391231537, -0.06924966722726822, 0.24120213091373444, -0.17755725979804993, -0.13581255078315735, -0.17592351138591766, 0.08895950764417648, 0.07405011355876923, 0.4003777801990509, 0.03435280919075012, -0.23048484325408936, 0.1642358899116516, 0.034579791128635406, 0.13987679779529572, 0.07800814509391785, 0.3263801038265228, 0.03659844771027565, -0.19173187017440796, 0.0956232100725174, -0.3775603473186493, -0.08138024061918259, 0.17657439410686493, -0.01586417481303215, -0.22800765931606293, 0.25088775157928467, -0.19986674189567566, 0.06126675754785538, 0.1457746922969818, 0.13506770133972168, 0.03424341231584549, -0.24057796597480774, 0.2841219902038574, 0.019904725253582, -0.09078218042850494, -0.15016430616378784, -0.22203940153121948, -0.06135714054107666, -0.01528779324144125, -0.23793622851371765, 0.08866558223962784, -0.37837931513786316, -0.014120050705969334, -0.20216043293476105, -0.010046111419796944, 0.21222542226314545, 0.1683259904384613, -0.18978667259216309, -0.13655434548854828, -0.22999896109104156, -0.02901431731879711, 0.04384060949087143, 0.061170730739831924, 0.06573403626680374, 0.02712835744023323, -0.3763718903064728, -0.18285517394542694, -0.346545547246933, -0.01823682337999344, 0.15297538042068481, -0.37561243772506714, 0.03286774456501007, 0.22582225501537323, -0.11860916763544083, 0.003411979414522648, -0.29918086528778076, -0.08646940439939499, -0.06789389252662659, -0.028623558580875397, -0.011132843792438507, -0.08996880054473877, -0.11209682375192642, 0.007819085381925106, -0.16937203705310822, -0.016434626653790474, -0.05829015001654625, 0.08883056044578552, 0.00807653646916151, -0.10133405774831772, 0.1849079430103302, -0.24188528954982758, 0.03394578397274017, -0.22864557802677155, -0.06891046464443207, 0.16398222744464874, -0.21408790349960327, -0.12035165727138519, 0.12178264558315277, -0.08287979662418365, -0.23762625455856323, -0.01549618411809206, 0.21297399699687958, -0.13853785395622253, -0.1509334146976471, 0.27050796151161194, -0.22133782505989075, 0.23858071863651276, -0.05924341082572937, 0.0163602065294981, -0.30755817890167236, 0.2705593705177307, -0.2039507031440735, 0.16975688934326172, 0.03275047242641449, -0.25259941816329956, -0.15492792427539825, 0.0438893623650074, -0.12575763463974, 0.21810537576675415, -0.02670230157673359, 0.09055598080158234, -0.025958916172385216, -0.022606294602155685, -0.030136071145534515, -0.2750825583934784, -0.1684689223766327, -0.02140713855624199, 0.17976464331150055, 0.15811268985271454, -0.1489299088716507, -0.2504420578479767, 0.00319269928149879, -0.13611453771591187, 0.16643136739730835, 0.08923576027154922, 0.06963162869215012, 0.06850404292345047, 0.10075944662094116, -0.05607384443283081, 0.04252224415540695, -0.04012242704629898, 0.01988733559846878, -0.0207207128405571, -0.04698720946907997, 0.23231665790081024, 0.05747173726558685, -0.10805504024028778, 0.3778893053531647, -0.16544786095619202, 0.006081208121031523, -0.40897703170776367, -0.13384567201137543, -0.163059800863266, -0.21139314770698547, 0.054273005574941635, -0.24909061193466187, -0.007057767361402512, 0.3671236038208008, -0.32143667340278625, -0.001097752247005701, -0.167307049036026, -0.24703125655651093, 0.22362804412841797, 0.22589701414108276, -0.22212018072605133, -0.18519216775894165, 0.10885386914014816, 0.3214535713195801, -0.2842995822429657, -0.261982798576355, 0.00020227076311130077, -0.0953230932354927, -0.004393367562443018, -0.06954474002122879, 0.056937724351882935, -0.28229427337646484, -0.007681998424232006, -0.13614916801452637, -0.06943226605653763, 0.05368519946932793, 0.16438376903533936, 0.04172384738922119, 0.01191981416195631, 0.11040032655000687, -0.020442167297005653, 0.0034885064233094454, -0.10424984991550446, -0.023565571755170822, 0.01442690659314394, -0.07018017023801804, 0.021479539573192596, -0.0001689892669674009, 0.0971033126115799, 0.04957180470228195, 0.04844031110405922, 0.06046630069613457, -0.019945960491895676, -0.2038833051919937, -0.1813252717256546, -0.11133292317390442, -0.03497261181473732, -0.047314584255218506, -0.1867760568857193, -0.0303824283182621, 0.05842546373605728, -0.09110239893198013, 0.06692872196435928, -0.11650434881448746, -0.1318521946668625, -0.13101784884929657, -0.1124541386961937, 0.05766190588474274, -0.005953947082161903, -0.31247958540916443, -0.069887176156044, -0.007358522620052099, -0.07634630054235458, -0.032720789313316345, 0.12648482620716095, -0.19237865507602692, -0.08938661217689514, -0.10771051794290543, 0.03319794684648514, 0.028120100498199463, -0.028895391151309013, 0.12706710398197174, -0.010774393565952778, -0.4443669021129608, -0.06575702130794525, 0.1168326660990715, 0.13613174855709076, -0.1483108550310135, -0.2124965488910675, 0.10168063640594482, 0.06771907955408096, 0.022962801158428192, -0.1254410594701767, 0.1354258805513382, 0.23304758965969086, -0.37768349051475525, 0.1543164849281311, 0.25828656554222107, -0.17902274429798126, 0.005059842020273209, -0.19072559475898743, 0.17368951439857483, -0.13505150377750397, 0.0465833954513073, -0.33286598324775696, -0.09503031522035599, 0.003773440606892109, -0.06426730006933212, -0.05680793896317482, 0.1601254940032959, 0.05326112359762192, -0.013100971467792988, -0.119232676923275, 0.17169909179210663, -0.029456760734319687, -0.05716975778341293, -0.03538879007101059, -0.14889994263648987, -0.007386163808405399, -0.20514658093452454, 0.2001766413450241, 0.08429741114377975, 0.008972791023552418, 0.0682099461555481, 0.1529465615749359, 0.039483409374952316, -0.01577724888920784, -0.2495855689048767, 0.08389530330896378, 0.13422441482543945, 0.09432533383369446, -0.11181387305259705, 0.13637520372867584, -0.0949009358882904, -0.11888448894023895, -0.016920460388064384, -0.1451992690563202, 0.06061204895377159, 0.0429241843521595, -0.13020741939544678, 0.03486684337258339, -0.00984451174736023, 0.15199080109596252, -0.10843449085950851, 0.07387411594390869, -0.004727879539132118, -0.06192714720964432, -0.14591000974178314, -0.03261115401983261, 0.23846349120140076, -0.052076056599617004, -0.12610457837581635, 0.0434102788567543, 0.1456495076417923, 0.013459932059049606, 0.08874903619289398, -0.023617923259735107, 0.008177189156413078, -0.12200043350458145, -0.09068968147039413, -0.04588988795876503, 0.13340142369270325, -0.05263660475611687, -0.11301669478416443, 0.23416349291801453, 0.06363502144813538, -0.014449064619839191, -0.08819472044706345, 0.07592196762561798, 0.007056804373860359, -0.011524242348968983, -0.08800233155488968, -0.03676341846585274, -0.09650557488203049, -0.19209133088588715, -0.1322704404592514, 0.21580541133880615, 0.15752013027668, 0.18192075192928314, 0.05632251873612404, -0.16128981113433838, -0.06278432905673981, -0.016576049849390984, -0.0709027349948883, 0.09258361905813217, 0.009452247060835361, -0.08035334199666977, 0.06516453623771667, -0.03871500492095947, 0.0164993517100811, 0.06317861378192902, 0.03235558420419693, -0.13874836266040802, -0.13586384057998657, -0.1389789879322052, -0.06396929919719696, -0.06266013532876968, -0.015493031591176987, 0.08955542743206024, 0.12401891499757767, 0.1342771202325821, 0.10816808044910431, 0.12184931337833405, 0.24217648804187775, 0.002580844098702073, -0.19159521162509918, -0.15680570900440216, 0.0158890001475811, 0.03138349950313568, 0.027768785133957863, 0.0009615920134820044, -0.12093755602836609, -0.026343166828155518, 0.18139158189296722, 0.19301073253154755, 0.3258955478668213, 0.09831313788890839, 0.059322286397218704, 0.061988845467567444, 0.13022984564304352, 0.18591023981571198, 0.14916391670703888, -0.06128530576825142, -0.11092264950275421, 0.16539035737514496, -0.11804524064064026, 0.14421424269676208, 0.13192006945610046, 0.11293524503707886, 0.18520216643810272, 0.18002434074878693, -0.0881778746843338, -0.1968277245759964, -0.06535350531339645, 0.03485022112727165, -0.044652439653873444, -0.026825442910194397, 0.06476400792598724, -0.04560019075870514, -0.008572112768888474, 0.1757216602563858, 0.05839139595627785, 0.21662043035030365, 0.12227634340524673, -0.09190990775823593, -0.03993044048547745, 0.19366814196109772, -0.0566636323928833, 0.01240310538560152, 0.15697358548641205, 0.08632618188858032, 0.08208637684583664, -0.18291284143924713, 0.15214242041110992, -0.12926311790943146, 0.06701879948377609, -0.02146797440946102, 0.026990162208676338, 0.081448033452034, -0.021018674597144127, 0.19379982352256775, -0.0314333401620388, -0.21056358516216278, 0.07404011487960815, 0.14804381132125854, 0.1845255047082901, 0.0869864746928215, 0.016722390428185463, -0.06158844009041786, -0.013719429261982441, 0.21715675294399261, 0.08324778825044632, -0.018837181851267815, 0.1044212207198143, 0.1328216940164566, -0.19664473831653595, 0.007622511126101017, -0.20040586590766907, 0.04206404462456703, 0.08839166909456253, -0.14227144420146942, -0.0628068596124649, 0.05050027742981911, 0.15573617815971375, -0.10243874788284302, -0.03071647137403488, 0.06645942479372025, 0.09175135940313339, 0.11747120320796967, 0.056103821843862534, 0.03269471973180771, -0.0534532330930233, -0.003356250701472163, -0.011784304864704609, -0.061475325375795364, 0.11040356010198593, 0.16609111428260803, -0.07510412484407425, 0.059604961425065994, 0.16756018996238708, 0.12230908870697021, -0.008929047733545303, -0.2200281172990799, 0.014838634990155697, 0.07828303426504135, -0.0033221265766769648, 0.17125210165977478, -0.2643500566482544, -0.020638518035411835, 0.028049396350979805, 0.12042161822319031, 0.20350129902362823, -0.002125323051586747, 0.03922385349869728, 0.09037541598081589, 0.20624111592769623, 0.16056124866008759, 0.02081112004816532, -0.0031977309845387936, -0.23632849752902985, 0.05122385919094086, -0.06631992012262344, -0.11123140901327133, 0.20888257026672363, 0.0031113496515899897, 0.004921299405395985, 0.0018476343248039484, 0.1571834832429886, -0.12169495970010757, -0.08078509569168091, -0.0480429045855999, 0.06111929565668106, -0.052870091050863266, 0.09736454486846924, 0.11613866686820984, 0.1236463412642479, -0.04335906729102135, 0.13395552337169647, -0.05669469013810158, 0.17891201376914978, 0.04339970648288727, -0.028513891622424126, 0.06369617581367493, 0.08225764334201813, -0.12526404857635498, 0.1393875777721405, 0.032345499843358994, 0.021499309688806534, -0.015410556457936764, 0.18384034931659698, 0.11734025925397873, -0.20036852359771729, 0.13685505092144012, 0.17641310393810272, -0.12882673740386963, 0.07349034398794174, 0.13724906742572784, -0.3062436878681183, -0.23923160135746002, 0.1810196042060852, 0.0033731525763869286, 0.13867734372615814, 0.20594824850559235, -0.17983990907669067, -0.10997593402862549, -0.1333911120891571, 0.2112448364496231, -0.07964003086090088, -0.2105533927679062, 0.14102475345134735, 0.0911431536078453, 0.030954431742429733, 0.06459302455186844, -0.03585321083664894, -0.12818197906017303, -0.02827823907136917, -0.026324080303311348, -0.18021921813488007, 0.0002581695734988898, -0.05322268232703209, 0.0942368134856224, 0.03759872540831566, 0.1400221586227417, -0.005992900114506483, -0.0022605396807193756, 0.0430757962167263, 0.012258995324373245, -0.11143402755260468, -0.14970356225967407, -0.21369010210037231, 0.13547013700008392, 0.13333363831043243, -0.09614089876413345, 0.23991595208644867, 0.05141926556825638, 0.11709710955619812, 0.11912011355161667, 0.014303578995168209, -0.12376298010349274, 0.1386307179927826, 0.05907401069998741, -0.21536169946193695, 0.11378350853919983, 0.16449205577373505, 0.08274877071380615, 0.09375202655792236, -0.13296271860599518, -0.11743149161338806, 0.07218927145004272, -0.1415962278842926, -0.18286971747875214, 0.06308301538228989, 0.11411634087562561, 0.1521662175655365, 0.016758345067501068, 0.03009483963251114, -0.08826084434986115, -0.05886474624276161, 0.0014200001023709774, -0.0007141006062738597, 0.12772738933563232, -0.03913703188300133, -0.2348724901676178, -0.13081461191177368, -0.14014309644699097, 0.05894580855965614, -0.06295568495988846, 0.07000472396612167, -0.15571865439414978, -0.031688448041677475, 0.1350770890712738, 0.03791841119527817, -0.06251564621925354, 0.0749283879995346, -0.11080983281135559, -0.24304445087909698, -0.10116813331842422, 0.15497536957263947, -0.015793196856975555, 0.06870846450328827, -0.19789625704288483, 0.06882556527853012, 0.0568200945854187, -0.10049501061439514, -0.1752689927816391, 0.04716578498482704, 0.05897717922925949, -0.10940646380186081, 0.01900537498295307, -0.011003049090504646, -0.06314010173082352, -0.00428161583840847, -0.14101718366146088, 0.09907735884189606, -0.07419247925281525, -0.07298991829156876, -0.061059631407260895, -0.09714167565107346, 0.06005137413740158, 0.0925995260477066, -0.09330397099256516, -0.0032160452101379633, -0.1096627488732338, -0.04746081680059433, 0.06992311775684357, 0.10220880806446075, -0.012437138706445694, -0.16935589909553528, -0.04401557147502899, -0.2246835082769394, 0.1136058047413826, -0.05817946419119835, -0.06199629604816437, 0.1831631362438202, -0.017308544367551804, -0.12876799702644348, -0.0021348220761865377, -0.05617620423436165, -0.05172232165932655, -0.06258237361907959, -0.048222970217466354, -0.006321659777313471, -0.16044369339942932, -0.13818387687206268, 0.08768334984779358, 0.13990353047847748, 0.10550503432750702, -0.13380002975463867, 0.310661643743515, -0.049449220299720764, -0.13317592442035675, 0.10623627156019211, 0.056459419429302216, -0.2222178727388382, -0.2828449010848999, -0.015915006399154663, 0.1925073117017746, -0.04204019159078598, 0.036679476499557495, 0.17792922258377075, 0.16113173961639404, 0.1293489933013916, 0.024050824344158173, -0.17506124079227448, 0.1237684115767479, 0.03342438116669655, -0.03835631161928177, -0.08652456849813461, 0.07667391747236252, -0.06559942662715912, -0.07000979036092758, -0.011731463484466076, -0.12139087170362473, 0.014375635422766209, 0.07445520162582397, -0.0400431826710701, 0.052041999995708466, -0.0351419635117054, 0.11476688832044601, -0.00020702005713246763, -0.09297832101583481, -0.009862803854048252, 0.10405173897743225, 0.08525159955024719, -0.06950730085372925, 0.05467360094189644, 0.21568170189857483, 0.08060123026371002, -0.03979772329330444, 0.09703835844993591, -0.01631334237754345, -0.2709150016307831, -0.13496629893779755, 0.17470987141132355, -0.05004100129008293, 0.08862988650798798, 0.07542122155427933, 0.16684682667255402, 0.08158133178949356, 0.3373487591743469, 0.12181437760591507, 0.1414221078157425, 0.08490876853466034, 0.06395207345485687, 0.020661167800426483, -0.06733015179634094, 0.1088797003030777, -0.27363553643226624, -0.10780500620603561, 0.17106223106384277, 0.08121015131473541, -0.06379905343055725, 0.03338684141635895, -0.028353609144687653, -0.007455404382199049, 0.0658593624830246, -0.07256429642438889, 0.11463478952646255, -0.18681208789348602, 0.06847526133060455, 0.29658231139183044, 0.08096359670162201, 0.02151012234389782, 0.18861991167068481, 0.05434183031320572, -0.15436550974845886, 0.027365190908312798, 0.030389277264475822, 0.026929449290037155, -0.0046467892825603485, -0.012128921225667, -0.09422389417886734, 0.14775386452674866, 0.15528005361557007, -0.11991109699010849, -0.12444508820772171, 0.026812590658664703, -0.0815311148762703, 0.03496209532022476, -0.037999387830495834, -0.13114303350448608, -0.12630094587802887, 0.09661097824573517, -0.015837205573916435, 0.21560044586658478, 0.05724237114191055, 0.15865936875343323, 0.45660510659217834, -0.04629617556929588, -0.07656951248645782, 0.0005825720145367086, 0.0987589880824089, 0.053764309734106064, 0.24859927594661713, 0.045976582914590836, -0.07013889402151108, -0.040451470762491226, -0.04680967703461647, -0.13117501139640808, 0.17882974445819855, 0.08192885667085648, 0.13423505425453186, 0.1459011733531952, 0.1476580947637558, -0.12947331368923187, -0.08902455866336823, -0.1456872671842575, -0.08299436420202255, 0.24819262325763702, 0.10594626516103745, -0.08807604759931564, -0.23096297681331635, 0.1347305029630661, 0.044043637812137604, -0.19189777970314026, 0.08575219660997391, -0.06572401523590088, 0.12010625749826431, 0.03937143087387085, 0.115306556224823, -0.060319725424051285, -0.09080751985311508, 0.004983091726899147, -0.07476036250591278, 0.1520376056432724, -0.023371964693069458, -0.22902074456214905, -0.0452532097697258, -0.07273944467306137, -0.037551261484622955, 0.19697648286819458, 0.044489286839962006, -0.31639978289604187, -0.006616439204663038, 0.08516987413167953, -0.07266952097415924, -0.04536975175142288, -0.1426544189453125, 0.06424162536859512, -0.08325469493865967, 0.027378402650356293, 0.05480721592903137, 0.1635076105594635, 0.021316636353731155, -0.10130809992551804, 0.15695735812187195, 0.13204239308834076, -0.28716281056404114, 0.031238986179232597, 0.033898528665304184, -0.0001659626141190529, -0.04461488872766495, -0.025188365951180458, 0.07305128872394562, 0.02248934656381607, -0.17330557107925415, -0.13639436662197113, 0.0751492977142334, -0.04365985468029976, -0.027055980637669563, 0.1280926764011383, -0.13266997039318085, -0.12785948812961578, 0.04100888967514038, 0.007294946815818548, 0.037363696843385696, -0.005303849931806326, -0.11631511896848679, -0.0824468657374382, -0.10644415020942688, -0.18701952695846558, 0.17931048572063446, -0.013224269263446331, 0.04216335341334343, 0.08460996299982071, -0.017325101420283318, -0.09589976817369461, -0.027564099058508873, -0.011581048369407654, -0.09351342171430588, -0.058476753532886505, -0.13178402185440063, -0.17439182102680206, -0.09218495339155197, -0.020015032961964607, 0.005322144832462072, 0.024588992819190025, 0.07720029354095459, -0.0320482961833477, -0.02536863461136818, -0.007090815808624029, -0.09016144275665283, -0.2635304927825928, 0.26673948764801025, 0.1927994340658188, -0.13406053185462952, 0.17694757878780365, -0.1285609006881714, -0.15397419035434723, -0.13487957417964935, 0.0481017604470253, 0.14119911193847656, -0.14484472572803497, 0.03356504812836647, -0.06184041127562523, 0.06896669417619705, 0.13671138882637024, 0.1927107572555542, -0.008561390452086926, -0.06231248006224632, -0.1377881020307541, 0.06022056192159653, -0.0912894532084465, 0.08298549056053162, 0.0822257250547409, -0.002270950237289071, -0.04782257229089737, -0.02088131010532379, 0.045787617564201355, 0.040998585522174835, 0.059640686959028244, -0.16178299486637115, -0.11433114856481552, 0.013300464488565922, -0.09052883833646774, -0.03619445487856865, 0.09669965505599976, 0.030940158292651176, -0.16462038457393646, -0.31375548243522644, -0.30164089798927307, -0.2535555064678192, 0.09325665980577469, 0.19047226011753082, -0.06703232228755951, -0.15501649677753448, -0.1094607412815094, 0.12096201628446579, 0.08225363492965698, 0.08902882784605026, 0.05961693823337555, -0.0692494586110115, -0.06591491401195526, 0.0906728059053421, -0.20484010875225067, -0.019345512613654137, -0.036016691476106644, -0.1865391582250595, -0.261499285697937, -0.16371238231658936, -0.18925639986991882, 0.09266651421785355, -0.06770624220371246, -0.09608917683362961, 0.12359622120857239, 0.18660065531730652, 0.024183792993426323, 0.01673760451376438, -0.13469655811786652, 0.03511928394436836, -0.05724981799721718, -0.12875297665596008, -0.06882479041814804, -0.0749070793390274, -0.030093131586909294, -0.11417010426521301, 0.1204659640789032, -0.05499217286705971, -0.030336380004882812, 0.021309325471520424, 0.17697671055793762, 0.02977580763399601, -0.07057219743728638, -0.04932611808180809, 0.14882686734199524, 0.006589827593415976, 0.06497503817081451, -0.19069331884384155, -0.0170908123254776, -0.13333874940872192, -0.07241343706846237, 0.042615123093128204, 0.10605684667825699, -0.07758163660764694, -0.014283453114330769, 0.05993012711405754, 0.06533735990524292, -0.016769373789429665, 0.03966454043984413, -0.0517132468521595, -0.10540422052145004, 0.13080564141273499, -0.11500019580125809, -0.13238775730133057, -0.06367393583059311, 0.05959474295377731, 0.048090800642967224, -0.05468602478504181, -0.0681784525513649, 0.053068242967128754, 0.018641389906406403, -0.02854052372276783, 0.15957020223140717, 0.10040844976902008, -0.03848747909069061, 0.060949862003326416, -0.13260477781295776, -0.012898373417556286, -0.1623816341161728, -0.049124035984277725, -0.07206404954195023, -0.149153470993042, -0.09468808770179749, -0.06439439952373505, -0.03187980502843857, 0.042924508452415466, 0.08556050062179565, 0.3565090000629425, 0.7204446196556091, 0.879798948764801, 0.4048958122730255, -0.960149347782135, 0.1326577365398407, 0.15602260828018188, -0.37697815895080566, 0.5906027555465698, 0.4917968213558197, 0.5478981733322144, -0.8094116449356079, 0.9338120818138123, 0.036156464368104935, 0.2252664566040039, -0.47680598497390747, -0.2236587554216385, -0.01433277316391468, -0.08936715126037598, 0.3069475591182709, 0.25835397839546204, 0.1225418820977211, 0.0387464202940464, -0.10830957442522049, -0.09518884867429733, -0.04024482145905495, 0.36039435863494873, 0.2911025583744049, -0.2855166494846344, -0.08893948793411255, 0.18271474540233612, 0.1696515828371048, -0.07337228208780289, -0.017482921481132507, -0.08715686202049255, -0.024036234244704247, -0.014948878437280655, 0.17238903045654297, 0.18073800206184387, -0.20879927277565002, -0.051250312477350235, 0.05690319836139679, -0.3263651430606842, 0.32981255650520325, -0.15511955320835114, -0.21192075312137604, 0.24988707900047302, -0.15077266097068787, 0.05258111283183098, -0.030657928436994553, -0.13312281668186188, -0.2679242193698883, -0.16921578347682953, -0.058620553463697433, 0.024376947432756424, 0.1440991908311844, -0.2424074113368988, 0.23699302971363068, -0.19473496079444885, -0.049014732241630554, -0.10267236828804016, 0.14371947944164276, -0.12043564766645432, -0.1519189476966858, -0.046957820653915405, 0.03994108363986015, -0.2762632668018341, 0.1823602169752121, -0.13546068966388702, -0.062254589051008224, 0.048231691122055054, 0.06644299626350403, -0.06650693714618683, -0.2244081050157547, -0.08048457652330399, -0.16109246015548706, -0.06401289254426956, -0.08344665914773941, 0.15655021369457245, 0.23426736891269684, 0.08017557114362717, -0.2919923961162567, 0.012732131406664848, -0.09569231420755386, 0.08621430397033691, 0.16627834737300873, 0.17272478342056274, -0.12827661633491516, -0.006646329071372747, -0.12231507152318954, -0.13449814915657043, -0.2247946858406067, -0.24524487555027008, 0.14600808918476105, 0.21968871355056763, -0.1666286140680313, 0.10136424750089645, -0.13586416840553284, -0.11574127525091171, -0.13075537979602814, 0.13555169105529785, 0.0049855890683829784, -0.06786976009607315, 0.057533103972673416, -0.23456425964832306, -0.29459354281425476, 0.148176372051239, -0.08550747483968735, -0.04568386822938919, -0.07060260325670242, 0.23498126864433289, 0.1700751632452011, 0.19027262926101685, 0.2281535565853119, 0.26777949929237366, -0.0887853130698204, 0.02572208270430565, -0.19902664422988892, -0.14271403849124908, -0.08037012815475464, 0.25289982557296753, -0.06478960812091827, 0.2563028335571289, -0.22726309299468994, 0.008399005979299545, -0.11231473833322525, -0.0796462744474411, -0.0556144155561924, 0.15853095054626465, -0.2932242155075073, -0.10161446779966354, 0.06165888532996178, 0.07410664856433868, -0.007394557353109121, 0.2698233723640442, -0.06425692141056061, 0.12266769260168076, -0.17695023119449615, -0.2653166949748993, 0.12073148041963577, 0.015613696537911892, -0.14829012751579285, -0.2807542681694031, 0.17845459282398224, 0.15902231633663177, -0.1413569301366806, -0.17760223150253296, -0.003712532576173544, -0.1273169219493866, -0.2131606638431549, -0.06748878210783005, -0.08144575357437134, -0.045131146907806396, 0.1259598433971405, -0.1647067666053772, -0.015125748701393604, -0.04219542071223259, -0.07861119508743286, 0.17703525722026825, 0.20671352744102478, -0.11347696185112, -0.06468792259693146, 0.03289281576871872, 0.24937033653259277, 0.05980467423796654, 0.1848168969154358, 0.06950513273477554, -0.11864878982305527, -0.09415104240179062, -0.07235087454319, -0.25140824913978577, -0.1804569512605667, 0.10559598356485367, -0.17235322296619415, 0.10336481779813766, 0.19231313467025757, 0.12453354895114899, -0.07165279984474182, 0.23103751242160797, -0.09179465472698212, 0.005801745690405369, 0.05798374488949776, -0.0637720376253128, 0.1733180433511734, 0.30056697130203247, -0.16725602746009827, -0.21855373680591583, -0.3782094419002533, 0.08825470507144928, -0.0018404637230560184, -0.06274549663066864, -0.06805188208818436, 0.11392603069543839, -0.058556750416755676, -0.06127961724996567, -0.11947803944349289, 0.25671976804733276, 0.08718889951705933, 0.1967039853334427, 0.19642099738121033, -0.10712698847055435, -0.21392761170864105, 0.188283771276474, -0.033859752118587494, -0.2662036418914795, 0.16765201091766357, 0.22884714603424072, 0.1014978438615799, -0.19749116897583008, -0.05859522894024849, 0.01597149297595024, 0.21695047616958618, -0.07320262491703033, 0.15788932144641876, 0.09705483913421631, -0.10416173189878464, -0.1568056046962738, -0.08326682448387146, -0.19742314517498016, 0.18136881291866302, -0.024691475555300713, -0.012646755203604698, -0.02894776687026024, -0.15671730041503906, 0.03922833129763603, 0.07230689376592636, 0.060688164085149765, -0.2279314249753952, 0.10034541040658951, -0.10485243797302246, 0.23806428909301758, -0.2127515971660614, 0.1344050168991089, -0.09983336180448532, -0.06630226969718933, 0.2877923250198364, -0.015260332264006138, 0.15623696148395538, 0.08674166351556778, 0.23891307413578033, 0.16008946299552917, -0.03888513892889023, 0.02831006795167923, -0.1916271150112152, 0.05385831743478775, -0.29391226172447205, 0.26829883456230164, 0.07211141288280487, -0.21761006116867065, 0.12014159560203552, -0.30191218852996826, -0.06071382388472557, -0.07369694858789444, -0.10700095444917679, -0.13963904976844788, -0.20247256755828857, 0.07931700348854065, -0.20960523188114166, -0.2673496901988983, -0.48522672057151794, -0.034887950867414474, -0.0742327943444252, 0.19122470915317535, -0.32399776577949524, -0.1241309717297554, 0.2135867327451706, -0.29812178015708923, -0.7131089568138123, 0.4018818438053131, 0.30732986330986023, -0.28891023993492126, -0.1661147028207779, -0.24831151962280273, 0.13390491902828217, -0.1963694840669632, 0.1345982849597931, 0.22526782751083374, -0.22184160351753235, 0.24084728956222534, -0.18627025187015533, 0.23433725535869598, 0.20385602116584778, -0.0795256718993187, 0.1621599942445755, 0.019680047407746315, 0.08856790512800217, 0.1502516120672226, 0.2863333225250244, 0.048123203217983246, 0.0550178624689579, -0.06356945633888245, 0.1215737909078598, 0.20936153829097748, 0.174276664853096, -0.07725895196199417, -0.21827296912670135, -0.033126093447208405, -0.0004379875317681581, 0.1720067858695984, -0.1625065803527832, 0.18922308087348938, 0.3258376121520996, 0.009377369657158852, 0.10648119449615479, 0.1207660585641861, 0.046000659465789795, 0.1259329468011856, 0.001800007768906653, -0.03085014782845974, -0.2602306008338928, -0.2265782356262207, -0.2859390676021576, -0.07878313213586807, 0.05671411752700806, 0.0007481689099222422, 0.22947779297828674, 0.2158561795949936, -0.03795161098241806, -0.14888709783554077, 0.0489012785255909, 0.0016912122955545783, 0.2633434534072876, 0.15105199813842773, -0.06759356707334518, 0.05286232382059097, 0.06312110275030136, -0.16598926484584808, 0.07264718413352966, 0.14107413589954376, -0.002882875967770815, -0.046484652906656265, 0.0883476585149765, 0.05995290353894234, 0.029844367876648903, -0.07072225958108902, 0.11962929368019104, -0.16739018261432648, -0.12196536362171173, -0.28351497650146484, 0.06185824051499367, -0.002673042705282569, -0.03976207599043846, 0.012296033091843128, 0.043371833860874176, -0.1544671356678009, -0.06300607323646545, -0.0018737295176833868, -0.2566179931163788, -0.006847391836345196, -0.11057288944721222, 0.046899911016225815, -0.08972464501857758, -0.08452187478542328, -0.03130606189370155, 0.10074622929096222, 0.193674236536026, -0.03261197358369827, 0.11097168177366257, -0.16120736300945282, -0.19511307775974274, 0.2572346329689026, 0.11094600707292557, 0.12575659155845642, 0.15530548989772797, -0.13520470261573792, 0.10054417699575424, 0.062496334314346313, -0.03242422640323639, 0.13269606232643127, -0.05937540903687477, -0.07715506851673126, 0.08457241207361221, 0.21025532484054565, 0.026654327288269997, 0.19831359386444092, 0.023275652900338173, 0.1151917576789856, 0.15832851827144623, 0.28187400102615356, -0.023851897567510605, 0.18060994148254395, 0.24093978106975555, 0.20536379516124725, 0.11989091336727142, -0.004619155079126358, 0.1801386922597885, -0.002666523912921548, 0.005952171050012112, 0.13726717233657837, 0.10133751481771469, -0.12061575800180435, -0.014989162795245647, -0.08591707050800323, -0.02700723148882389, 0.11235015094280243, -0.14829272031784058, 0.014692939817905426, -0.09395014494657516, -0.2299501597881317, -0.06696894019842148, -0.05757002905011177, -0.056135211139917374, 0.014429003931581974, -0.13702887296676636, 0.15368032455444336, 0.09067882597446442, -0.02742220275104046, 0.05723161995410919, 0.03639407083392143, 0.06702776253223419, 0.09917870163917542, -0.04563708230853081, 0.06974498182535172, 0.11596451699733734, 0.024678191170096397, -0.02672291174530983, 0.20618899166584015, 0.11122503876686096, 0.1065424457192421, 0.006280875764787197, 0.08889292925596237, -0.1768372356891632, 0.18210944533348083, 0.027504000812768936, -0.05889264866709709, 0.04862116277217865, -0.06357109546661377, 0.2198561131954193, -0.03027329221367836, -0.36448943614959717, 0.024996209889650345, 0.18881113827228546, 0.013131579384207726, -0.19621340930461884, 0.145758256316185, 0.04866158217191696, 0.030325712636113167, 0.07254698872566223, 0.12419602274894714, 0.013568764552474022, 0.1581849306821823, -0.007635470945388079, -0.17679063975811005, 0.09973170608282089, 0.14646388590335846, -0.2754462659358978, 0.11954118311405182, 0.07376007735729218, -0.07898972928524017, 0.11242342740297318, 0.005623681005090475, 0.15925472974777222, -0.07184808701276779, 0.11686863005161285, 0.0848035141825676, -0.03679821640253067, 0.02670149877667427, -0.05800306424498558, -0.04574491083621979, -0.1457834243774414, -0.1583307981491089, -0.10516948997974396, 0.09245771914720535, -0.1292143315076828, 0.012010304257273674, -0.11152470856904984, 0.013211218640208244, -0.11201944202184677, 0.06404106318950653, -0.06325826793909073, -0.022753112018108368, 0.04551240801811218, -0.1453915685415268, -0.11050127446651459, -0.06652139127254486, -0.03629576042294502, 0.024557720869779587, 0.04024291783571243, 0.21775522828102112, -0.2420424520969391, 0.052856460213661194, 0.11057077348232269, -0.1678370088338852, -0.19258438050746918, -0.11202125251293182, -0.013340442441403866, 0.08784028142690659, -0.0059363022446632385, 0.21921919286251068, 0.05067438259720802, -0.012780265882611275, 0.06857816874980927, -0.020799359306693077, -0.08259310573339462, -0.24563908576965332, -0.014174836687743664, -0.04316537082195282, -0.01286828238517046, 0.08924131840467453, -0.16724027693271637, 0.010234732180833817, 0.061407625675201416, 0.09132895618677139, 0.04474491998553276, -0.19609206914901733, -0.09291750192642212, -0.155624121427536, -0.04616384208202362, 0.07953216135501862, 0.021413221955299377, 0.1497180312871933, -0.21287737786769867, 0.061621371656656265, 0.049790605902671814, 0.05664534121751785, -0.18902669847011566, 0.08310351520776749, 0.1129104420542717, 0.010489868931472301, 0.09507720917463303, 0.0018565031932666898, -0.15902124345302582, -0.17951150238513947, 0.11192160844802856, -0.007541200611740351, -0.15499868988990784, 0.035121850669384, -0.08717314898967743, 0.02917223796248436, 0.1938004344701767, -0.07831256091594696, 0.023907572031021118, 0.2880028486251831, 0.19583530724048615, -0.009701463393867016, -0.0513463169336319, -0.19629870355129242, 0.08514190465211868, 0.15961594879627228, -0.18497394025325775, 0.09215546399354935, 0.18271169066429138, -0.16005033254623413, -0.1077868789434433, -0.01200499851256609, 0.0950232595205307, 0.15522462129592896, -0.00954153947532177, 0.1124333068728447, 0.07534131407737732, 0.08872295916080475, 0.08576253056526184, -0.029127998277544975, 0.06439344584941864, 0.08524049818515778, -0.12590903043746948, 0.10272137075662613, 0.08224472403526306, -0.00547222001478076, -0.2918752133846283, 0.10226192325353622, 0.09752745926380157, 0.2026144117116928, -0.07946354895830154, -0.16278932988643646, 0.12145945429801941, -0.04826975613832474, 0.21462811529636383, 0.15098048746585846, 0.23286855220794678, 0.006901905406266451, 0.11886574327945709, -0.05327555537223816, 0.09030911326408386, -0.19775564968585968, 0.2302607297897339, 0.17771460115909576, 0.2078825682401657, -0.07277532666921616, -0.141915425658226, 0.05422161519527435, -0.10381735116243362, 0.022418243810534477, -0.04437446594238281, 0.11083703488111496, 0.03192409127950668, 0.14380405843257904, -0.041156742721796036, -0.03836705535650253, 0.03222579136490822, 0.07734169065952301, -0.12217980623245239, 0.021705778315663338, -0.10718012601137161, -0.07811849564313889, 0.03908617049455643, 0.11149682849645615, -0.10146626830101013, 0.08922341465950012, 0.07986558228731155, -0.10805193334817886, 0.0626889169216156, -0.05628529563546181, -0.12831926345825195, -0.07942033559083939, 0.07038349658250809, 0.07752931863069534, 0.018885677680373192, 0.04557076469063759, 0.018423980101943016, -0.038145195692777634, -0.16725850105285645, 0.019527088850736618, -0.012232117354869843, -0.14235945045948029, -0.10005409270524979, -0.012200861237943172, -0.01833605207502842, 0.06932233273983002, -0.04664291441440582, 0.13024359941482544, -0.15598341822624207, -8.697934390511364e-05, 0.19656921923160553, -0.09163060039281845, 0.06906277686357498, 0.06220431253314018, 0.07308822125196457, 0.1807411015033722, 0.5405897498130798, -0.16245430707931519, -0.2269519567489624, -0.3512845039367676, -0.023974591866135597, 0.06485331803560257, -0.005408287979662418, 0.0049409097991883755, 0.022092973813414574, 0.19284720718860626, -0.06948810815811157, 0.00013178010703995824, 0.3773968815803528, 0.1673162281513214, 0.22265371680259705, 0.1682261973619461, -0.0012915098341181874, -0.05575895681977272, -0.047818977385759354, 0.13990984857082367, 0.13767960667610168, 0.43053138256073, 0.28671666979789734, 0.31443530321121216, -0.0017970142653211951, -0.016339711844921112, -0.0015869572525843978, -0.174955353140831, -0.03349779173731804, 0.26106858253479004, 0.39327272772789, -0.03384266793727875, -0.23288752138614655, -0.10575352609157562, 0.03741614148020744, 0.2718747854232788, 0.3869445323944092, 0.37388336658477783, 0.3786216974258423, 0.4349198639392853, 0.18346543610095978, 0.034410253167152405, 0.049785781651735306, 0.06982579827308655, -0.08129524439573288, -0.23409521579742432, -0.09779608249664307, 0.15612447261810303, -0.1324160397052765, 0.004320877604186535, -0.06663183867931366, 0.07099799811840057, 0.0859246701002121, -0.09180305898189545, 0.01241872925311327, -0.10231112688779831, -0.1608317792415619, -0.036417920142412186, 0.08051222562789917, -0.1606266051530838, -0.12110644578933716, 0.17100155353546143, 0.15773199498653412, 0.2542448043823242, -0.09072551131248474, -0.1397336721420288, -0.04115960747003555, 0.16575120389461517, 0.14128437638282776, 0.018635181710124016, 0.05136730521917343, 0.04403231665492058, 0.12624819576740265, -0.1621321737766266, 0.1259012371301651, 0.03161239996552467, 0.06359748542308807, 0.0885525569319725, -0.13947033882141113, 0.20072491466999054, 0.23042616248130798, 0.3365623652935028, 0.0625452995300293, 0.163880854845047, 0.021233661100268364, -0.00996366422623396, 0.20461885631084442, 0.16639837622642517, -0.2067594975233078, 0.13894277811050415, 0.1984446942806244, -0.20574595034122467, -0.0003883828467223793, -0.09447623044252396, 0.159065842628479, 0.21274204552173615, 0.13798166811466217, 0.04066113755106926, -0.12939418852329254, -0.03168236464262009, 0.05382935702800751, -0.10295721888542175, 0.02841798961162567, 0.05037646368145943, -0.11530762910842896, -0.11460979282855988, -0.10307543724775314, 0.07924367487430573, -0.08633787930011749, 0.08171036094427109, -0.05313653498888016, 0.02708394080400467, -0.06732165068387985, -0.10973677784204483, -0.15781863033771515, 0.06822274625301361, 0.19669237732887268, -0.1064411923289299, 0.08347833156585693, -0.07354279607534409, 0.13295568525791168, -0.02813180908560753, -0.06775419414043427, -0.07364192605018616, 0.0005560212302953005, 0.07328618317842484, -0.03464455157518387, -0.18647362291812897, -0.2574259042739868, -0.6375492811203003, 0.1745562106370926, 0.18395696580410004, 0.05997062847018242, 0.01204019133001566, 0.1262533813714981, 0.04654567688703537, 0.2040722370147705, 0.20403245091438293, -0.04162319377064705, -0.08551022410392761, -0.1841403841972351, 0.188565194606781, 0.04496932774782181, 0.00456387922167778, 0.10188086330890656, 0.02901279740035534, 0.05662010610103607, -0.09953003376722336, -0.14781326055526733, -0.062097661197185516, 0.23427556455135345, 0.1488993614912033, 0.10848459601402283, 0.21125638484954834, 0.11209578067064285, 0.003400943474844098, -0.08789315819740295, -0.19632770121097565, -0.10161085426807404, -0.06433313339948654, -0.011524544097483158, -0.00798317976295948, -0.08113498240709305, 0.13010700047016144, -0.04736186936497688, -0.12604184448719025, 0.026844153180718422, 0.026296740397810936, 0.04857815057039261, 0.08388203382492065, -0.0004873811558354646, -0.26001349091529846, -0.009778467006981373, -0.08282430469989777, -0.06555554270744324, -0.14834818243980408, -0.07800561189651489, -0.07519013434648514, -0.1952570229768753, 0.019325794652104378, -0.06866350769996643, -0.0004158901865594089, 0.03716317564249039, 0.035789355635643005, 0.14590993523597717, 0.036581575870513916, 0.07932285964488983, -0.22303809225559235, -0.14146345853805542, -0.11659853905439377, -0.14131008088588715, 0.039439134299755096, 0.044281043112277985, 0.0012395675294101238, -0.048203468322753906, 0.14851529896259308, -0.07901744544506073, -0.09286849200725555, -0.1130586564540863, -0.04119357466697693, 0.15945369005203247, 0.028594184666872025, -0.00841495767235756, -0.05181402713060379, -0.10725857317447662, 0.0877610296010971, 0.012346931733191013, -0.01333180908113718, 0.06525477021932602, 0.13471268117427826, 0.008289236575365067, 0.15174677968025208, -0.09882468730211258, 0.020288432016968727, 0.07087365537881851, 0.10056988894939423, -0.12194173783063889, 0.07315521687269211, 0.0698675736784935, 0.06944087147712708, -0.014918897300958633, -0.04368751868605614, -0.18305358290672302, -0.2024107128381729, -0.11969359964132309, -0.06400777399539948, -0.16019053757190704, 0.12336724996566772, -0.04887523874640465, 0.16835671663284302, 0.06321563571691513, 0.055385611951351166, 0.07923541218042374, 0.05063169449567795, 0.21206721663475037, 0.1413707137107849, 0.01934320107102394, 0.11895732581615448, 0.0598500519990921, 0.1877865344285965, 0.21809832751750946, 0.13120253384113312, 0.05935025215148926, -0.1421070247888565, 0.035910166800022125, 0.013992431573569775, 0.06639540940523148, 0.1502767652273178, 0.1557375192642212, -0.11130505800247192, 0.2147333323955536, -0.025562049821019173, -0.032956790179014206, -0.2028638869524002, -0.05324919894337654, -0.01184506993740797, -0.1532592624425888, -0.15693719685077667, 0.012999425642192364, -0.12224831432104111, 0.02576361782848835, 0.053356073796749115, 0.12563760578632355, -0.01907631941139698, -0.020253613591194153, -0.14526329934597015, -0.055816251784563065, -0.04387585446238518, 0.04544970765709877, -0.04508782923221588, -0.012245498597621918, -0.18034511804580688, -0.09523558616638184, -0.27983275055885315, -0.158476322889328, 0.07724189013242722, -0.038632314652204514, 0.12104398012161255, 0.023931806907057762, 0.05492957681417465, 0.11479798704385757, -0.025979584082961082, -0.09673265367746353, -0.18520665168762207, 0.13412755727767944, 0.2920231819152832, -0.09330794960260391, 0.05342572554945946, 0.0391942523419857, -0.09333346784114838, 0.12578041851520538, -0.08131878823041916, -0.10558954626321793, -0.02444714866578579, 0.024249199777841568, -0.09754938632249832, 0.025197958573698997, 0.04374425485730171, -0.03882792592048645, 0.007598553784191608, 0.20606635510921478, -0.12625852227210999, -0.10961403697729111, 0.05970269814133644, -0.018951913341879845, -0.12791414558887482, 0.09282566606998444, -0.028826700523495674, -0.013030033558607101, -0.09246651083230972, -0.13634942471981049, -0.04137390851974487, 0.02684151381254196, 0.0007586144492961466, 0.09312683343887329, -0.14898544549942017, -0.17491590976715088, 0.009918303228914738, 0.012142393738031387, 0.07922322303056717, -0.0440041720867157, 0.004206877201795578, 0.028273222967982292, 0.044220417737960815, 0.013208749704062939, -0.017922163009643555, 0.05589345470070839, -0.0022333217784762383, 0.31382909417152405, 0.20491772890090942, 0.04550504311919212, -0.05410164222121239, -0.13501006364822388, 0.021407796069979668, -0.0094777662307024, -0.14073583483695984, 0.22320330142974854, 0.01601690798997879, 0.06950819492340088, -0.09023537486791611, 0.10458200424909592, 0.09934122860431671, -0.01768908090889454, -0.09083467721939087, -0.04129692167043686, 0.08570701628923416, 0.09144383668899536, 0.15487967431545258, -0.05588693916797638, 0.1458032876253128, -0.06085466593503952, 0.017147641628980637, 0.045777611434459686, -0.022137021645903587, 0.02461046539247036, -0.01287828478962183, 0.05922149121761322, 0.1172051727771759, -0.01417438592761755, -0.08883918821811676, 0.22934262454509735, 0.11712831258773804, -0.03652074560523033, -0.024656232446432114, 0.09734442085027695, -0.03992319479584694, 0.014678820967674255, -0.17182007431983948, -0.013180959038436413, -0.20603007078170776, -0.1274610012769699, 0.03228360414505005, -0.0431583933532238, 0.02417907863855362, 0.10487094521522522, 0.013521051965653896, 0.21101020276546478, 0.15361900627613068, -0.22784467041492462, -0.17389045655727386, -0.11171949654817581, 0.30781084299087524, -0.04032931849360466, 0.1257496178150177, -0.11076400429010391, 0.16453871130943298, -0.0018308053258806467, 0.07927538454532623, 0.005938638933002949, 0.025103630498051643, 0.08576666563749313, -0.05965113639831543, -0.022179730236530304, 0.10945665091276169, -0.037043843418359756, 0.021453186869621277, 0.17094458639621735, -0.009554697200655937, -0.022025395184755325, -0.11914341896772385, 0.08553402125835419, 0.061574678868055344, 0.0049300966784358025, 0.13244616985321045, 0.015492322854697704, -0.10014183074235916, 0.0026399604976177216, -0.06860368698835373, 0.09080826491117477, 0.06630098074674606, -0.20736698806285858, -0.05082036182284355, 0.024595120921730995, -0.04545006901025772, 0.06555985659360886, -0.11897503584623337, 0.06463119387626648, -0.14429108798503876, -0.01793433539569378, -0.07414044439792633, -0.06069894880056381, -0.005553601309657097, -0.09928948432207108, -0.13251885771751404, 0.24078065156936646, 0.0751703605055809, -0.1164851039648056, -0.05697496235370636, 0.06282270699739456, 0.04873914271593094, -0.0771704763174057, 0.06884025782346725, -0.055595703423023224, 0.0811358317732811, 0.33256781101226807, 0.17337536811828613, 0.14657478034496307, -0.029032036662101746, -0.06583873927593231, -0.12111108750104904, 0.03075171820819378, -0.04893314093351364, 0.09711973369121552, 0.2840978503227234, -0.1599423885345459, 0.30982428789138794, -0.28732651472091675, 1.0204105377197266, 0.4386723041534424, 0.4420873820781708, -0.4214380979537964, 0.8067587018013, 0.0843055322766304, -0.061067935079336166, 0.3664695620536804, 0.8277747631072998, -0.13865910470485687, 0.09208386391401291, -1.064170241355896, -0.1290263533592224, -0.28114819526672363, 0.0966261550784111, -0.02963831275701523, 0.022449705749750137, 0.1416112184524536, 0.15931981801986694, 0.07029076665639877, 0.1326829195022583, -0.2274661362171173, 0.18416966497898102, 0.13961324095726013, -0.13291922211647034, 0.03728170320391655, -0.16935041546821594, -0.11271356046199799, -0.23544718325138092, -0.02106538601219654, -0.08538475632667542, -0.22335131466388702, -0.05586908385157585, -0.097103551030159, 0.08647415786981583, -0.04010234773159027, 0.04053648188710213, -0.14806155860424042, 0.166245698928833, -0.11901608109474182, 0.11405663937330246, 0.11604498326778412, -0.24803560972213745, 0.11521877348423004, -0.16841012239456177, -0.053176458925008774, 0.1298801153898239, 0.16750143468379974, 0.18451976776123047, -0.15575817227363586, 0.10529593378305435, -0.19303271174430847, -0.16905885934829712, 0.051542017608881, 0.06581748276948929, -0.1046702191233635, 0.1113334447145462, -0.07890541851520538, 0.16809989511966705, 0.08795733749866486, -0.07583014667034149, -0.1659117192029953, 0.0027645565569400787, 0.17010413110256195, 0.03128531575202942, -0.061250194907188416, -0.0035580259282141924, -0.01645198091864586, -0.08637560904026031, -0.00510774552822113, -0.3352471590042114, 0.2533889412879944, 0.07774506509304047, -0.1653072088956833, -0.025490188971161842, 0.11837587505578995, -0.214150533080101, -0.09625959396362305, 0.029940903186798096, 0.20871810615062714, -0.17291110754013062, -0.11492792516946793, -0.18261589109897614, -0.07416457682847977, 0.09921436011791229, -0.2822028696537018, 0.11518112570047379, -0.15699350833892822, 0.22385820746421814, -0.17275871336460114, 0.028060611337423325, -0.07007133960723877, 0.04858997464179993, -0.1380123645067215, 0.13949799537658691, -0.16114190220832825, -0.1378435492515564, 0.05272176116704941, -0.12272872775793076, 0.13325266540050507, 0.16077864170074463, -0.0004940526559948921, 0.04579658806324005, 0.21913257241249084, -0.14676141738891602, -0.1799573302268982, 0.1435086727142334, 0.12973672151565552, 0.06365691125392914, 0.21312472224235535, -0.0037518299650400877, 0.11663796752691269, -0.27029287815093994, -0.09779984503984451, 0.22019240260124207, -0.18365690112113953, -0.1531154364347458, 0.3009723424911499, 0.05214286968111992, 0.28648075461387634, 0.034010149538517, 0.27430498600006104, -0.050992414355278015, 0.06244781240820885, 0.042995698750019073, 0.29917481541633606, 0.06043214350938797, -0.005029584746807814, -0.002371636452153325, -0.2015448957681656, -0.19635462760925293, 0.03422845900058746, 0.2345350831747055, -0.08777415752410889, -0.01224502082914114, -0.34062784910202026, -0.09368674457073212, 0.06532896310091019, -0.07593128830194473, 0.155691459774971, -0.09911318868398666, -0.04682685434818268, 0.01704564318060875, 0.04853763431310654, 0.05495067685842514, -0.1564851999282837, -0.26176348328590393, -0.16737748682498932, -0.08357860147953033, -0.044225648045539856, 0.11520170420408249, -0.053174059838056564, -0.042756762355566025, 0.07718860357999802, 0.07570363581180573, 0.15030507743358612, 0.05533677712082863, 0.033996935933828354, 0.03679320961236954, 0.0685947984457016, 0.06006082519888878, 0.13600701093673706, 0.0719989612698555, -0.14019574224948883, -0.03435661643743515, 0.1103377416729927, -0.2533828318119049, 0.1303376853466034, -0.1611202210187912, -0.034726448357105255, -0.30452024936676025, -0.16015300154685974, 0.09110189974308014, 0.04168156534433365, -0.018122047185897827, 0.12503190338611603, 0.17138276994228363, -0.17156894505023956, -0.21431034803390503, -0.10815664380788803, -0.2190926969051361, 0.16578266024589539, 0.04198230803012848, 0.19487649202346802, -0.02628813497722149, -0.13553106784820557, 0.33412879705429077, -0.046295274049043655, 0.23296283185482025, 0.1329045444726944, -0.053448062390089035, 0.08436623215675354, -0.09619545936584473, 0.025488195940852165, 0.12604409456253052, 0.16130658984184265, 0.20427796244621277, 0.055538520216941833, -0.05633086338639259, 0.21151986718177795, 0.15449456870555878, -0.28049689531326294, -0.2128201276063919, -0.031199926510453224, -0.10489111393690109, -0.14757227897644043, -0.1462412327528, 0.06245026737451553, 0.03355809673666954, -0.12682072818279266, 0.13995243608951569, 0.15705370903015137, -0.2769947350025177, 0.047753188759088516, -0.1869659423828125, -0.18644341826438904, 0.06197747960686684, -0.051443442702293396, 0.04275880008935928, 0.09521547704935074, 0.10080136358737946, 0.007975412532687187, 0.015063539147377014, 0.1949993520975113, -0.03954673931002617, -0.25406649708747864, 0.013795637525618076, -0.22293171286582947, -0.08090053498744965, -0.15058347582817078, 0.10605724900960922, 0.1121378019452095, -0.06924997270107269, 0.1775054782629013, 0.05580352246761322, 0.05343054234981537, -0.3048022985458374, 0.13310714066028595, -0.14001420140266418, 0.17281441390514374, -0.26880112290382385, -0.13689878582954407, -0.10021921992301941, 0.2707117795944214, -0.1701434701681137, 0.13655808568000793, 0.12901677191257477, -0.025814108550548553, -0.004304851870983839, 0.11396979540586472, 0.1259382665157318, 0.2618572413921356, 0.07474002987146378, -0.3045642673969269, -0.20204150676727295, 0.05713241174817085, 0.10148005932569504, -0.02476355992257595, -0.029331186786293983, 0.0669560432434082, 0.18590191006660461, 0.15330560505390167, 0.10400856286287308, 0.0545806922018528, 0.13033060729503632, -0.14021168649196625, -0.21312861144542694, -0.03839653357863426, -0.10462256520986557, -0.038450438529253006, -0.09791553020477295, 0.16092687845230103, 0.16463488340377808, 0.17542091012001038, -0.15845993161201477, -0.009508594870567322, 0.25579896569252014, -0.01634945534169674, 0.25184792280197144, -0.06226489320397377, 0.007335643284022808, 0.23424910008907318, -0.020956866443157196, 0.006086170673370361, -0.012925542891025543, -0.13096371293067932, 0.04245532304048538, 0.02671368233859539, 0.17397865653038025, -0.13379418849945068, 0.03837127611041069, 0.3010382652282715, -0.0792049914598465, 0.2482759803533554, -0.01630435511469841, 0.008254073560237885, 0.20287851989269257, 0.01682073436677456, -0.121738962829113, -0.006368319503962994, -0.047266799956560135, -0.10916357487440109, -0.06310147792100906, 0.149656742811203, -0.11181811988353729, -0.00562653411179781, 0.08508565276861191, 0.09745687246322632, -0.039840392768383026, 0.20450177788734436, -0.2246616631746292, -0.09555432200431824, 0.10701175034046173, -0.03148004412651062, 0.1365402340888977, 0.11057909578084946, 0.04252108559012413, 0.03904208540916443, -0.1354706883430481, -0.05709134042263031, 0.13500633835792542, -0.03988402336835861, -0.12223604321479797, 0.09557755291461945, -0.001403279136866331, 0.010872540064156055, -0.1142679750919342, -0.005827339366078377, -0.12168597429990768, -0.07065612077713013, 0.1114921122789383, -0.2292918860912323, 0.03467787057161331, -0.08415111899375916, 0.051978521049022675, -0.026904240250587463, 0.08664968609809875, -0.05919554829597473, 0.09705035388469696, 0.1721419394016266, 0.09866145253181458, -0.03189261630177498, 0.11062799394130707, 0.04515441879630089, -0.02210107445716858, 0.03953837603330612, 0.024416135624051094, 0.11843404173851013, -0.09593119472265244, 0.002695118309929967, 0.20259477198123932, 0.15109048783779144, 0.041023146361112595, -0.04596446081995964, 0.23474259674549103, 0.23355115950107574, -0.17244836688041687, 0.09176100045442581, -0.10521721839904785, 0.02873886190354824, -0.0036732074804604053, -0.012418157421052456, 0.1368253529071808, -0.05581583082675934, -0.19461332261562347, -0.1173437312245369, -0.07566278427839279, 0.18236763775348663, 0.03827880695462227, 0.10526847839355469, 0.08425301313400269, 0.01946881040930748, -0.05134710669517517, -0.012595481239259243, 0.026430325582623482, -0.05072258040308952, -0.22758474946022034, 0.08995403349399567, 0.024794602766633034, 0.010347607545554638, -0.004364009480923414, 0.10342571139335632, -0.1353779435157776, -0.03855486214160919, 0.15109652280807495, 0.10950245708227158, 0.08415642380714417, -0.07250268012285233, 0.1320084035396576, -0.04791492968797684, -0.040779899805784225, -0.10228027403354645, -0.035921163856983185, 0.06674730032682419, 0.07828263193368912, 0.1662202924489975, -0.015084807761013508, 0.10088863968849182, 0.005093001294881105, -0.09195073693990707, -0.025534613057971, -0.009423009119927883, -0.14674532413482666, 0.024920538067817688, -0.06214584410190582, -0.20841076970100403, 0.09074946492910385, 0.021399250254034996, 0.1034369245171547, -0.0486232228577137, -0.004965654574334621, 0.13623134791851044, 0.13148841261863708, 0.13191713392734528, 0.062285393476486206, -0.03984150290489197, 0.08315306901931763, 0.05398762226104736, 0.05888403579592705, 0.13498398661613464, -0.030706215649843216, -0.0912913903594017, -0.09562388062477112, -0.1557270735502243, 0.1374233365058899, -0.07286731898784637, -0.02885419689118862, -0.00549805723130703, 0.2062559425830841, 0.13511532545089722, -0.017243821173906326, 0.03999693691730499, 0.11931994557380676, 0.21809646487236023, 0.12028373777866364, 0.1881374567747116, -0.08560921996831894, 0.047215647995471954, 0.09233484417200089, 0.12915809452533722, 0.17138326168060303, 0.05016238987445831, 0.08159710466861725, -0.019424911588430405, -0.014443655498325825, 0.06132092699408531, -0.13266386091709137, -0.017411231994628906, 0.14130280911922455, -0.025247223675251007, -0.06776969879865646, 0.023170998319983482, -0.26960182189941406, 0.04520556703209877, 0.11549896001815796, 0.16824743151664734, 0.07304144650697708, 0.0600334033370018, -0.04360152408480644, 0.05145220458507538, 0.0759420245885849, 0.20383739471435547, -0.10862946510314941, 0.19345055520534515, -0.006115972530096769, 0.08450134843587875, 0.030010974034667015, -0.10170882195234299, -0.13905224204063416, 0.12086844444274902, -0.17608767747879028, 0.11249127984046936, 0.030096903443336487, -0.14868047833442688, -0.14689727127552032, 0.24248817563056946, 0.0680772140622139, -0.16592943668365479, 0.236137256026268, -0.005685720592737198, -0.16544106602668762, 0.20219841599464417, 0.20988503098487854, 0.1604693979024887, -0.10721978545188904, -0.015324301086366177, -0.07381454855203629, 0.03538789600133896, 0.020974112674593925, -0.056290846318006516, -0.0904671922326088, -0.17206759750843048, -0.1346157342195511, 0.12373820692300797, -0.0183901134878397, 0.19515812397003174, -0.18535499274730682, -0.0475132018327713, 0.10239120572805405, -0.08929033577442169, 0.02844812162220478, -0.006636441219598055, -0.05604187399148941, -0.11246487498283386, -0.03157150372862816, 0.10871921479701996, 0.11970244348049164, 0.25310376286506653, -0.015030290931463242, 0.009973213076591492, -0.1953466683626175, -0.053890593349933624, -0.07655569911003113, -0.09529121220111847, 0.11242140829563141, -0.04597299546003342, -0.047367360442876816, -0.08122920989990234, 0.057091232389211655, -0.14943327009677887, -0.3390313684940338, 0.039912402629852295, 0.2264767587184906, -0.13677434623241425, -0.1174059510231018, -0.027607111260294914, -0.23420560359954834, -0.07489115744829178, -0.0027442488353699446, 0.07508870959281921, -0.07337602972984314, -0.11631881445646286, -0.011508312076330185, -0.1624041646718979, 0.02532454952597618, -0.19135013222694397, 0.06353666633367538, -0.012983107939362526, 0.003858809359371662, -0.12899592518806458, -0.10454177111387253, -0.01593305729329586, -0.10121068358421326, -0.11918304860591888, -0.14289215207099915, -0.0847715437412262, 0.13798290491104126, 0.09925666451454163, 0.05515747889876366, -0.01804599165916443, -0.04561827331781387, -0.10090329498052597, -0.023217428475618362, -0.049624811857938766, 0.2163095325231552, 0.12260863184928894, 0.061780624091625214, -0.027106959372758865, 0.07848531007766724, 0.13506601750850677, 0.010240255855023861, 0.20743252336978912, -0.397919237613678, -0.030667724087834358, -0.04136853665113449, 0.033123839646577835, 0.16104751825332642, 0.1130310595035553, -0.15425752103328705, -0.02547588385641575, -0.18413640558719635, 0.04844728112220764, -0.11633238196372986, -0.21704301238059998, 0.08488403260707855, 0.10830602794885635, -0.08864233642816544, 0.11010349541902542, -0.08944454789161682, 0.1482986956834793, -0.06751994043588638, -0.0933394730091095, 0.04372818022966385, -0.04939815774559975, -0.040308628231287, 0.020766519010066986, -0.057526323944330215, 0.015850823372602463, 0.07699845731258392, 0.10121633112430573, 0.08925305306911469, -0.12462180107831955, -0.0449613593518734, -0.05285076051950455, -0.06900860369205475, 0.11963753402233124, 0.06202198192477226, 0.13408218324184418, 0.10233525931835175, -0.05123812332749367, 0.029904061928391457, 0.021776534616947174, -0.0667303055524826, 