{
  "model_data": {
    "model": "SimpleRNN",
    "input_size": 1,
    "skip": 1,
    "output_size": 1,
    "unit_type": "LSTM",
    "num_layers": 1,
    "hidden_size": 40,
    "bias_fl": true
  },
  "state_dict": {
    "rec.weight_ih_l0": [
      [
        -0.4561382978115553
      ],
      [
        0.18800561709243038
      ],
      [
        3.507978797124916
      ],
      [
        2.6710482919929164
      ],
      [
        4.147892092631941
      ],
      [
        -2.7199322871502765
      ],
      [
        1.1299467805540075
      ],
      [
        1.223177226674352
      ],
      [
        -0.8328482289900714
      ],
      [
        -0.17329378380776264
      ],
      [
        0.18143511248322763
      ],
      [
        0.7565490833154113
      ],
      [
        -2.003206442520995
      ],
      [
        0.6576088187711066
      ],
      [
        -1.1137849760528802
      ],
      [
        1.01835679003357
      ],
      [
        3.001050195947517
      ],
      [
        -1.1491907850437197
      ],
      [
        0.402503018855483
      ],
      [
        0.20707927985281954
      ],
      [
        -0.809126768681382
      ],
      [
        -0.573051902949867
      ],
      [
        4.789551966031628
      ],
      [
        0.9465745006948126
      ],
      [
        0.7232123541607959
      ],
      [
        -0.15845774790093062
      ],
      [
        0.1266623665842374
      ],
      [
        -3.0139285306037844
      ],
      [
        -0.3106081580049796
      ],
      [
        0.34005602481616376
      ],
      [
        -0.013894513330699793
      ],
      [
        0.020073163098577217
      ],
      [
        0.859472358514721
      ],
      [
        1.0219014193647618
      ],
      [
        -0.009778350857248541
      ],
      [
        -2.104519421236064
      ],
      [
        -0.5882468125842593
      ],
      [
        -1.0223294361182333
      ],
      [
        -0.44714668882571085
      ],
      [
        0.26933925317025514
      ],
      [
        -0.6422348197283105
      ],
      [
        0.4725442916502952
      ],
      [
        0.010482229063542918
      ],
      [
        1.1451465995000834
      ],
      [
        2.289296020102221
      ],
      [
        -1.5891704469643828
      ],
      [
        -1.340294051551696
      ],
      [
        1.9798114456457965
      ],
      [
        -1.509948057278374
      ],
      [
        -0.6807797690020612
      ],
      [
        -0.578614384721989
      ],
      [
        0.13676494867475436
      ],
      [
        -0.6751379896328308
      ],
      [
        0.07480005680478474
      ],
      [
        -0.9720817947330778
      ],
      [
        -0.025501629316644927
      ],
      [
        0.9568300918256127
      ],
      [
        -1.4916754225109101
      ],
      [
        0.6949473193176134
      ],
      [
        -0.31984644529270767
      ],
      [
        -1.7659759441505922
      ],
      [
        2.3705451579172845
      ],
      [
        -0.9489147295005449
      ],
      [
        0.6533738925363788
      ],
      [
        0.30870042555917265
      ],
      [
        0.35334234621472577
      ],
      [
        1.1819199267267348
      ],
      [
        1.057642922567727
      ],
      [
        0.1796877442949576
      ],
      [
        -0.06049620643594544
      ],
      [
        0.4469566425807872
      ],
      [
        1.184552746873013
      ],
      [
        -0.22718429389163405
      ],
      [
        -2.113127223460716
      ],
      [
        2.1152957671403505
      ],
      [
        -2.3449828078711863
      ],
      [
        -0.37817989107408906
      ],
      [
        1.2313940189608108
      ],
      [
        0.6525157842198016
      ],
      [
        -0.6406736721973142
      ],
      [
        1.1933090600599876
      ],
      [
        0.2279460737237087
      ],
      [
        -1.4039084829999624
      ],
      [
        1.6428435199253923
      ],
      [
        -1.0467291424015759
      ],
      [
        0.6123297940973004
      ],
      [
        -0.18306972615703954
      ],
      [
        -0.16800105091569514
      ],
      [
        0.778969878840228
      ],
      [
        -0.1519190299481095
      ],
      [
        -1.5166123281801451
      ],
      [
        -0.3702201571681185
      ],
      [
        0.4655234028549593
      ],
      [
        -0.005850868170854038
      ],
      [
        0.8575217515096072
      ],
      [
        0.8307416392671809
      ],
      [
        -2.6593976294650354
      ],
      [
        -1.4689780490707838
      ],
      [
        -1.3341935399207372
      ],
      [
        -0.9423634104504872
      ],
      [
        2.124411224350536
      ],
      [
        -4.601416179593761
      ],
      [
        -12.274955171497854
      ],
      [
        -0.4069000750838367
      ],
      [
        -0.18845888508799208
      ],
      [
        -0.21674528974010787
      ],
      [
        -0.7885188308853266
      ],
      [
        -1.9337410088730962
      ],
      [
        -7.563057368187234
      ],
      [
        -0.35438509698882653
      ],
      [
        -2.0996086761610036
      ],
      [
        -0.7316851815364257
      ],
      [
        -0.6233905139018107
      ],
      [
        8.024029213990822
      ],
      [
        -10.3048023224513
      ],
      [
        2.9407036441636465
      ],
      [
        0.22486632884305172
      ],
      [
        -1.330061851703947
      ],
      [
        -4.225168029960448
      ],
      [
        -0.039523537042682244
      ],
      [
        -1.0841085157735315
      ],
      [
        0.680826950198572
      ],
      [
        0.5922226747191348
      ],
      [
        2.107711039423321
      ],
      [
        6.85836715102549
      ],
      [
        -1.9830122507152796
      ],
      [
        -0.5834387285789299
      ],
      [
        2.137283731298489
      ],
      [
        -2.1174143032167634
      ],
      [
        -2.455698211500033
      ],
      [
        0.7848673054918481
      ],
      [
        1.2262593217545343
      ],
      [
        -1.5664097387460931
      ],
      [
        0.9673493060893761
      ],
      [
        -0.9218179823923052
      ],
      [
        -0.24080580585602362
      ],
      [
        4.0237139741241865
      ],
      [
        -1.5892600816752418
      ],
      [
        -0.944110766007217
      ],
      [
        -1.0536181527652724
      ],
      [
        -2.4583555333918237
      ],
      [
        3.496025531152366
      ],
      [
        22.47875344397031
      ],
      [
        1.2862708733476358
      ],
      [
        1.2241351215919498
      ],
      [
        -0.3791993072927503
      ],
      [
        0.04053584811384777
      ],
      [
        -1.0635698076805478
      ],
      [
        -0.5592743344771068
      ],
      [
        0.11514645591041651
      ],
      [
        2.3373623910617076
      ],
      [
        1.0162649144395746
      ],
      [
        -0.1807372809906115
      ],
      [
        2.5736589771429887
      ],
      [
        1.037081905253681
      ],
      [
        -3.627057448668307
      ],
      [
        1.1860052513302772
      ],
      [
        0.6504771172300274
      ],
      [
        0.4246972207014827
      ],
      [
        2.7274434959750673
      ]
    ],
    "rec.weight_hh_l0": [
      [
        -0.7291597870840153,
        -0.28515288625027385,
        -0.2767609852752731,
        -0.6646234665309175,
        -0.13629569028615607,
        0.8522315527594133,
        -0.20013734220466367,
        -0.5288051161178027,
        -0.42304588771167667,
        -0.6846494501714704,
        0.6762271918006354,
        -0.480103841227916,
        0.6965535230709892,
        -0.23629816635891807,
        0.42355928709925533,
        -0.6296258090764242,
        0.8438126683296437,
        -0.47088852991609265,
        -0.7327934380761008,
        -0.07517745872501715,
        -0.8733875483783619,
        0.5885280925300623,
        0.21122999854455646,
        0.09093828212590042,
        -0.6885046593168687,
        -0.1087956031075258,
        0.3996613682543403,
        -0.8622709599694641,
        -0.2530440517826106,
        0.19274439638594948,
        0.12312206408731051,
        0.5006960709415798,
        0.08123684168772165,
        -0.3270862604618942,
        0.06684951143930937,
        0.33115264531474076,
        0.06396269802806892,
        -0.5944193221491894,
        0.3058031432792463,
        1.0795982476435744
      ],
      [
        -0.3397001412721131,
        -0.2207304970916657,
        -0.12226271337541264,
        0.2155750958764409,
        -0.4463684916510205,
        0.14527406459265543,
        -0.20356959525960877,
        0.31806153780215163,
        -0.8310285002847626,
        0.30566815553106996,
        -0.005944724331368882,
        0.4283794282962394,
        -0.030363304018648955,
        0.11393302706535827,
        0.05095250848272535,
        -0.13297937156579312,
        0.44888637545559096,
        -0.6260031965325341,
        0.012052175340225414,
        0.4269665498832176,
        -1.5724360730721951,
        0.9268266515772076,
        -0.32422001904773545,
        0.6621416248679588,
        -0.35252165262865237,
        0.2312449364894703,
        0.3387713631397468,
        -0.12137638609729304,
        0.22453820530717422,
        -0.17142310211874645,
        -0.4023743518590035,
        -0.2711532975511538,
        0.4952711790969137,
        0.07530259159274649,
        -1.1366205638393845,
        0.8620182104483207,
        -0.17280193019438952,
        -0.4813219023998017,
        0.43748759628441775,
        -0.07044023842236737
      ],
      [
        0.3166353995587283,
        -0.5067742001937469,
        -0.6607230280275787,
        1.0706813597893248,
        1.7791959027425321,
        0.04932978051540681,
        -0.31094384986082413,
        -0.3548922570269815,
        -0.530103153300846,
        0.19958096774302433,
        -0.16160073818377363,
        -0.15083374479420417,
        0.08349464335090895,
        0.31586437774002174,
        0.2292301283106075,
        0.020660595443824124,
        2.5502298835508723,
        -0.07458669955786382,
        -0.6723789491597281,
        0.019772482396569556,
        0.8817441414250211,
        1.224894137752749,
        -2.667080239956623,
        -0.30488984349383,
        0.3743712376292523,
        0.2510078562609039,
        0.5968868756091065,
        0.4330891054107643,
        -1.9229354413254054,
        0.40212839993310123,
        -1.4105267140307616,
        -0.579772589924156,
        0.2998017634096733,
        1.021146403564235,
        -1.207051144609195,
        1.3537316398457704,
        1.1759713159099208,
        -0.46963762755317473,
        -0.5217289179109122,
        0.7857631653879577
      ],
      [
        0.5374158846068248,
        -0.18526531803994342,
        -0.6870470955394258,
        -0.5122726107140457,
        1.0174487913706245,
        -0.1507844120961117,
        0.05732865096535637,
        -0.12835820261226338,
        -0.31411319517718617,
        0.13251331466328042,
        -0.5328766640586367,
        -0.23325867766112712,
        0.5508234077454723,
        -0.7379980295631732,
        0.26240857986885924,
        0.4589276777185211,
        1.07508867263569,
        0.46623120797497,
        -0.21688427811107264,
        0.17027720145940115,
        -0.38700673527792107,
        -1.0570215777616137,
        0.4969033033860786,
        -0.8463279989653882,
        -0.8802165875933758,
        0.055515598446998014,
        0.840949346097656,
        0.0927163693432036,
        0.1824236974813232,
        0.0673946579129742,
        -0.8108347326058154,
        -0.46289309245308646,
        0.08742219067900486,
        0.6751305206586314,
        -0.46271077998957777,
        -0.45686330341346126,
        -0.13477976155423177,
        -0.8199983639351581,
        -0.08407045849175517,
        1.0949322582903613
      ],
      [
        0.43400084178805926,
        -0.6423348448249563,
        0.20226571306574442,
        0.5939762038440153,
        1.4938346996501575,
        0.26955469846147123,
        -0.022389383751635066,
        -0.17656464700712804,
        0.21660985078640346,
        0.5680663706639998,
        -0.3498591236628713,
        0.5474125623367488,
        -0.4283354243492998,
        -0.42410731887342745,
        0.1561508618153486,
        -0.05762591031297684,
        0.46978143108007886,
        0.12263848333665563,
        0.15822134474426364,
        0.26312247340452044,
        -0.0786790095291436,
        0.8652235225472839,
        -0.37741160799347784,
        -0.7571753428325285,
        0.15503932508012483,
        -0.3906829888336994,
        1.0817879928257408,
        -1.2795842298133557,
        -3.977624537647575,
        0.4807242700386982,
        -0.7940646559596549,
        -0.02578486053379601,
        0.25197017092259916,
        0.5321155636171878,
        -2.7255226560756762,
        1.1179237623430227,
        -0.6012419788174962,
        0.15478878114299877,
        -1.3827888453307042,
        0.3091003316139751
      ],
      [
        -0.4045396811097931,
        -0.6622823899831712,
        0.33411214366516556,
        0.3556871840830835,
        -0.43602409135777087,
        -0.2960074062956572,
        0.10430445350042618,
        0.09674738270152804,
        -0.11604131670895078,
        0.2737372578313569,
        -0.35960869787546434,
        0.07715981187621831,
        -0.3625256500999826,
        -0.11431968964384909,
        0.6336199681928987,
        -0.13897096197158168,
        0.18606532261931832,
        0.5474140421913539,
        0.2672025361446237,
        0.35427368196755443,
        -0.06367054524926433,
        -0.27429344223360913,
        -0.12589404558679493,
        0.4130079658266259,
        0.13741755417641713,
        0.16609813680949528,
        0.8341636001200482,
        -0.13541084578093057,
        2.7177451545069697,
        -0.2885788675411052,
        -0.33338980220061154,
        0.40138169762807485,
        -0.006567918468195312,
        -0.18430599471987277,
        -0.020775647296176415,
        0.3237980998207278,
        -0.17617312634352705,
        0.2672404955062647,
        0.302022926129275,
        0.2943122499814209
      ],
      [
        -0.43780532414557916,
        0.08875663016224325,
        0.04428410038588044,
        1.0898438694484867,
        -0.5508008314988335,
        -0.32753540681563637,
        -0.022420216386040352,
        -0.7048714422516001,
        0.06593531232880963,
        0.3554870715307485,
        0.5742690199770356,
        -0.5474336291327548,
        1.0453360640157714,
        0.7785163638560095,
        0.5038397138677658,
        -0.4779452059419004,
        0.2143395124877142,
        -0.20333163645191848,
        0.780889631746889,
        0.45149103228718696,
        0.48735113149409126,
        -0.15794128290917814,
        -0.019468237926138103,
        0.16654672931386078,
        -0.4695482415940812,
        -0.13614419889238003,
        0.11264746298659177,
        -0.7843655822867667,
        -1.3756662004726747,
        0.4218351439668879,
        -0.7613880629393945,
        1.1405994072336822,
        1.0144017670159837,
        0.5020726734727609,
        -0.5258737354987998,
        0.7696085246305364,
        -0.3151692275620771,
        0.7016376499924076,
        -0.8975758620749363,
        -0.37794108125011383
      ],
      [
        -0.06577485211831753,
        0.5757041455228568,
        0.2158039794491027,
        -0.5960559377699407,
        1.9234224735032472,
        0.8048089188301408,
        0.017629354452095135,
        -0.3841853741617421,
        -0.7912405351219918,
        0.364490491392391,
        -0.2641847385923883,
        0.638206635537957,
        0.6200754335911082,
        -0.028714434029207963,
        0.031798834433617786,
        -0.24152180171090193,
        -0.036952800468805086,
        -0.34831723920886865,
        -0.2002560568983242,
        -0.0693853920461363,
        0.17002563871708912,
        0.14888540427774377,
        0.6325035716388849,
        -0.29903950198970836,
        -0.7821045452460286,
        -0.11174789716354082,
        0.1940197176641819,
        0.7955830486922224,
        -1.2027470209009377,
        0.32901013291088305,
        -0.4653495939115672,
        0.7817657484554305,
        0.07265752800672144,
        0.9154623451540453,
        -1.2439792245757118,
        0.824464648813864,
        -0.14335806060799483,
        -0.20901304408804713,
        -0.8128426592710374,
        0.3642663170237445
      ],
      [
        0.05289045180187185,
        -0.19736929672949413,
        0.06388460242048032,
        0.04994517593552333,
        -0.08086472200883199,
        -0.2597267185068644,
        -0.2814946304778235,
        -0.04708286182258591,
        0.05746615881105886,
        -0.412180483293902,
        0.14376094902983896,
        -0.16480216847480697,
        0.2763432404951175,
        -0.7010602112214959,
        -0.2942675268320677,
        0.2768401455338434,
        0.43717590804318096,
        0.705038309860929,
        -0.5142190105935174,
        -0.17933360047867064,
        -0.31901077047793386,
        -0.37616776687786246,
        -0.2252515033359328,
        -0.40059744014496945,
        -0.3679520816933914,
        0.36984852982838123,
        0.4521700065408639,
        1.04458896712426,
        2.333522695310942,
        0.7865830822403831,
        0.04862549192680712,
        0.3259464694374607,
        0.024925691037013187,
        -0.8381146319993554,
        0.39927595176854547,
        0.056663614847228094,
        -0.034766248785994956,
        -0.6834202334066672,
        0.39614687274942034,
        0.07607279068521398
      ],
      [
        -0.28251354360725306,
        0.8390102869813112,
        0.5272003029432771,
        -0.15287386148906468,
        -0.408962281018783,
        -0.5618569685247089,
        0.41321349589410933,
        -0.2858234346550013,
        -0.02466948157848452,
        0.8464944852685988,
        0.45880935036629245,
        -0.46678066667389245,
        0.5842101593554648,
        0.7367765140366201,
        -0.043233078962059496,
        -0.5417149339486014,
        -0.8912698223194796,
        0.39890306045186263,
        0.5726774084298764,
        0.6338649148189017,
        0.032562270558188194,
        1.021056612802613,
        1.159490056960235,
        -0.0875921902593212,
        0.1089441696883566,
        -0.12758995191267988,
        -0.2822944260920622,
        -0.2252023316379733,
        2.3459397752807374,
        0.578335293211341,
        0.5639524939309855,
        -0.04848261041139231,
        0.11513266658941057,
        -1.30538894959056,
        0.8266759535134146,
        -0.4611768496899595,
        1.1752442451605394,
        -0.24963898175817753,
        0.6100637855693612,
        -0.23012982130123483
      ],
      [
        0.5003993406658463,
        0.449605260090583,
        -0.02964362160534207,
        0.2268825171522049,
        0.638066885879298,
        -0.3811699648223405,
        0.02144082905708796,
        0.5835069986619672,
        0.23973841139590707,
        0.23388042205258386,
        -0.21002255024731417,
        -1.1275146657952777,
        0.3485706539165696,
        -0.8130799636982189,
        -0.47315424343628404,
        0.6075265675886489,
        -0.1805420655782488,
        0.4644853620989552,
        -0.633075974675097,
        -0.8510171421972377,
        0.14184424068496837,
        -0.023812819720111993,
        -0.05332446202919082,
        -0.42222939144323895,
        0.5865875536253161,
        0.38458418511979847,
        0.18252373535621302,
        -0.2247599260217617,
        0.23489895050093793,
        0.6923282398631293,
        -0.06255686139552849,
        -0.5082490439535782,
        -0.7654879039253315,
        0.2716577427327473,
        -0.37981176683511186,
        -0.5552945350088997,
        1.0823348223999194,
        -0.060461520071818126,
        0.31231455460072816,
        -1.3127440184175698
      ],
      [
        -0.5445213628587395,
        0.02707388435615254,
        1.3689202017142845,
        0.17551311578200468,
        0.5001357741128744,
        0.5227189901285314,
        0.24113027901953188,
        0.609649827532243,
        -0.5039042253490539,
        -0.019626489307750697,
        -0.4170504293488682,
        0.3422918991370592,
        0.7136101867588273,
        0.08479739070726429,
        -0.6745969763200587,
        -0.06551145000414269,
        0.14214435564274033,
        1.3156104998814846,
        -0.25419816042586285,
        -0.29583010190191816,
        -0.5533312172029883,
        -1.173879110161038,
        0.12636332163244876,
        -0.1974658713051735,
        -0.44359015177202604,
        -0.17969664904335167,
        0.13890711066956607,
        -0.863033312391704,
        0.6681091547576107,
        0.2550198787958714,
        0.3820171704008578,
        0.00223799923884958,
        -0.16879333416204179,
        -0.7326676568816749,
        -0.8847492631813482,
        0.2486633670519634,
        0.08642139236829663,
        -0.13314529063411756,
        0.14820699695176817,
        -0.06039395086079635
      ],
      [
        0.09626952127924311,
        -0.27628708695006393,
        0.12456086629483763,
        0.6000540900619473,
        0.22226189495531584,
        0.0845441577033863,
        -0.3108832296338706,
        -0.18991117190505347,
        -0.1217533264626302,
        -0.09573504068024688,
        -0.011528320464907546,
        0.19338288490315345,
        0.22071571874570178,
        0.025466967092562798,
        -0.27186572463563763,
        -0.20097845509025175,
        0.766341067535864,
        0.3658926751995872,
        -0.6925241692826745,
        -0.010738733209933364,
        -0.34929584268768304,
        0.19977660039143233,
        -0.7458889048782612,
        0.8462225856958927,
        -1.0960775080821357,
        -0.4505785808469691,
        0.8626380855809965,
        0.8890545464656039,
        -0.03184932552717467,
        0.2656873415416385,
        -0.32972895769716515,
        1.2172246827072746,
        -0.0778183308155291,
        -0.3704319481110426,
        0.12153613477383464,
        -0.21939790034164605,
        -0.36894952684149196,
        -0.034330628357997654,
        0.029999599862407193,
        0.5801036061163828
      ],
      [
        0.24340200366910783,
        0.33705721540954503,
        0.2024594766393287,
        -0.1711004614213465,
        -0.0710298504929325,
        -0.2687445652168521,
        0.1539576402631199,
        -0.29712631522775296,
        0.46116481375699314,
        -0.2670330749895501,
        -0.27536097808165283,
        0.11915503116987235,
        0.43178954487020565,
        0.027514717226518298,
        0.5159414087669184,
        0.9048205004683951,
        0.03019007413965684,
        -0.6101861074287489,
        -0.06129291876354434,
        -0.2365037962128075,
        0.016977412171312805,
        0.2900415564882965,
        0.004270829436741527,
        0.40488186130016085,
        -0.9140014758928019,
        -0.5002945133131868,
        0.19502376781878786,
        -0.2582270772364155,
        -1.021820175309152,
        -0.5555060936624237,
        0.1213613051699196,
        0.023907977970795753,
        -0.05287089532133324,
        0.7180107657543605,
        -0.5593906905416267,
        -0.11234203131835177,
        0.7406447237601261,
        0.3114615203472665,
        -0.8562535248946689,
        -0.061502066293085605
      ],
      [
        0.2392399989621185,
        -0.23535436488116268,
        0.06790597878482396,
        0.30613672988171753,
        -0.2393328286558382,
        0.24296492683058415,
        -0.6419018660967745,
        -0.3128932106857179,
        -0.14231630758057812,
        -0.048506516535578706,
        0.2928481212527551,
        -0.017961941789713234,
        -0.056638394728134644,
        0.49649681522280487,
        -0.4198514199282183,
        0.2177814980438752,
        -0.43936678594010664,
        0.2854962831034951,
        -0.5891520960839746,
        0.32822081608603604,
        -0.35718911749935084,
        0.12017486642326355,
        -0.8777250391176517,
        -0.1755836339917004,
        0.5494669566633029,
        -0.0385763664992986,
        0.19245694247137188,
        1.3389146508828065,
        -0.6358207684393294,
        0.3650868047044331,
        -0.02120848007005987,
        0.2013131629683482,
        -0.09356036890888199,
        0.31475078616813107,
        0.6813264160721086,
        0.8995729727276975,
        0.8426801788639575,
        0.20347775498368484,
        -0.26458212443771506,
        -0.31055105871776323
      ],
      [
        -0.3204489867246371,
        -0.3604817443648307,
        0.38033518347295125,
        0.5498909693210273,
        -1.0043656150263156,
        0.12387509396958188,
        -0.2395952533921968,
        -0.1973424903824493,
        -0.020540742201669612,
        -0.10451683691111473,
        -0.44527151585695385,
        0.27172172024354896,
        -0.3670171179928614,
        -0.15640064498540387,
        0.43847836984634175,
        -0.07755031409244686,
        -0.28270146561193793,
        0.3080984442910693,
        -0.1595131135679117,
        0.0339188017575811,
        -0.6927695029587486,
        -0.17966372277569728,
        -1.1242365638013794,
        0.43403364702674624,
        -0.635505306641378,
        0.3039160239723565,
        0.7972194130492208,
        -0.10330187114872606,
        -0.5897128096603417,
        -0.467556308115051,
        -0.4067858550983984,
        0.4864553848949244,
        0.03624483078347773,
        0.3925776980234799,
        -0.6091831451370365,
        0.2210163190197518,
        0.02022837273209222,
        -0.39633338776901367,
        -0.7200767210156697,
        0.1834270433001063
      ],
      [
        0.625131691099268,
        0.13387579166907587,
        0.46025259436960847,
        -0.4433008477026161,
        0.23756051399006617,
        -0.5328949390076299,
        -0.16876946307128826,
        -0.04337677314814541,
        -0.09109470246383072,
        0.11333817149944557,
        0.411059276328371,
        -0.21759742424288653,
        0.5019884587683532,
        0.15176532988740843,
        -0.19045620913493216,
        0.0484305018771507,
        0.40448849156330285,
        0.14832633104277929,
        -0.2711767181281464,
        -0.15899871644561495,
        0.45071550108148595,
        -0.49155889515320145,
        0.2775190282405528,
        -0.9837191719225746,
        -0.2196946703971869,
        -0.2866961196333041,
        -0.17354417876763245,
        -1.1962856482825985,
        -0.895028356123763,
        0.48682752702999554,
        -0.49118912844901147,
        -0.6558359315964934,
        0.10304189263422502,
        0.9496465191790041,
        -0.6690250061040937,
        0.24624143058819134,
        -0.18336979876573745,
        -0.2144756446600562,
        -0.3723888521952743,
        1.144948861764465
      ],
      [
        0.3705684438894846,
        0.0823593661026174,
        -1.4559686294564589,
        -1.0676283445553862,
        0.3914392153358135,
        -0.7479453372943888,
        -0.4053347389463479,
        -0.5085159111061975,
        0.5459089828705758,
        -0.07219413876407495,
        -0.33276462946300767,
        -0.8903899041093336,
        0.01350389104000824,
        0.1529569968436293,
        -0.11944487260064755,
        -0.18496328643155208,
        0.5094597929814989,
        0.5999958464654045,
        -0.4648854473240167,
        -0.09787193873705478,
        0.7384549213778874,
        -0.08989580102700434,
        0.5294512301121842,
        -0.4720024927285803,
        0.3280365204458158,
        0.08511902372149031,
        0.4055307475163785,
        -0.3854724302183918,
        -0.4626936141194498,
        0.19554359043036493,
        -0.2157457892605251,
        -0.13365946410021512,
        -0.08514328412294266,
        0.5289344302727615,
        -0.09004931118453206,
        -0.9610830375724805,
        0.2142715852356576,
        -0.0327017421214918,
        0.42511312172712973,
        -0.28411128445560935
      ],
      [
        -0.16569527865559566,
        0.4140980170829863,
        -0.42485476206755635,
        0.23936835207868531,
        0.16392412434809994,
        -0.17815119201000842,
        0.5685867712341824,
        -0.12178158578753073,
        1.5352961084447072,
        -0.07028124444083012,
        -0.0854676985347482,
        -0.6429312046954103,
        0.4423773189052886,
        0.19069771758720092,
        0.20535695471377266,
        -0.44686468457261336,
        -0.08812794603130367,
        -0.11379108107173092,
        0.5539235474257566,
        0.07299979195878355,
        0.6773183125594557,
        1.610102807035827,
        0.4418383501042936,
        -1.3868312758767651,
        0.12308632706427339,
        0.05341278766240379,
        -0.1378995667797747,
        -0.14841371318951288,
        -0.16179343302082133,
        0.413315031682126,
        -1.0215347633256406,
        -0.7545686955217193,
        0.24188012623990715,
        -0.35962827283943904,
        0.7583565882033868,
        -0.3202718153779736,
        -0.11849479693184282,
        -0.39141168209247873,
        0.5463071195942446,
        -0.4134014560813167
      ],
      [
        -0.036480195183874686,
        -0.3598271445894759,
        0.37290332519235114,
        -0.02776958083142001,
        -0.5475652563295422,
        0.14334513845761904,
        -0.6316263951108976,
        0.3589498787570774,
        0.025789415109041022,
        -0.09847477139601955,
        -0.2412783779804124,
        -0.22289793234049626,
        -0.45561198260606617,
        -0.4084202201256251,
        -0.48820104402564257,
        -0.2369780564708104,
        0.038035908704182504,
        0.24086124400759218,
        -0.23573084337758532,
        0.1541661310561972,
        -0.2755917049686837,
        -0.10549187774716175,
        -0.36987577810699523,
        -0.33628424978371807,
        -0.01602892423101626,
        0.2027576515446604,
        -0.31142960694376703,
        -0.012551130421786664,
        -0.5527014957850134,
        0.3231900342395988,
        -0.16560808192653942,
        0.20905341366400484,
        -0.5885178111231251,
        0.1962753473090286,
        -0.5035832728035301,
        0.34415564973140583,
        0.6073872175040167,
        -0.28876015053563175,
        0.2697165257231494,
        0.7697642743162665
      ],
      [
        -0.05364251679074766,
        -0.8337181032232996,
        0.11593259388765735,
        -0.27919365225000226,
        1.661752366844884,
        -0.15102759694369036,
        -0.013248583499592988,
        -0.05510484619622176,
        -0.03490392242601698,
        -0.14371060803630167,
        0.2728270185593141,
        0.0008387893271524667,
        -0.02675724099320778,
        -0.1538962588114076,
        0.0009896443884965733,
        0.03981212251422178,
        1.422057658462664,
        -0.36539707435614177,
        0.07045871048807355,
        0.0899763384929935,
        0.41860358506553214,
        0.7909849440462037,
        0.1985288554608088,
        0.5169534160274664,
        0.2943126151908576,
        0.12551058263641518,
        0.06707677873138763,
        -1.4399250527358196,
        0.5551389854404027,
        -0.33694113790974434,
        -0.8445455706522619,
        -0.08154489515215912,
        -0.1568706805950573,
        -1.0126344260318678,
        1.579241422481748,
        -0.5601959976418313,
        -0.2096300467732317,
        0.03353892403659113,
        1.073712906731423,
        -0.3693025388223063
      ],
      [
        0.539728510005838,
        -0.1459278735572629,
        -1.867206877356897,
        -0.6432193501646923,
        0.8892496134008443,
        1.5298922251250482,
        -0.03391012285864779,
        0.620197773412118,
        0.07123948011578649,
        0.7200679626419946,
        -0.3515031981572584,
        -0.529098747094494,
        0.970094370019907,
        -0.07508787131799499,
        -0.3803779819579061,
        -0.014877425636106957,
        0.7614561821541341,
        -0.28013791807547966,
        -0.472358173484282,
        0.8694258477170468,
        1.2863423305139843,
        0.7959012887163036,
        -0.4313891152437706,
        -0.9666440054439189,
        -0.2659492285615134,
        -0.48996667696656115,
        -0.03201379618566311,
        -0.13199640558863396,
        0.9296164238142565,
        0.13795091317907252,
        -2.13097915388096,
        -0.8093589834784579,
        -0.027719280141240223,
        -0.5715886179385998,
        0.7028112664097749,
        -0.41973616152506965,
        0.6472149925346079,
        0.5868648024391676,
        1.4851416527410641,
        0.1125825751480448
      ],
      [
        0.7887185997289997,
        -0.512185831378328,
        1.0394132033608279,
        1.2188958215011338,
        2.7144926123729345,
        2.774906945756003,
        0.5739577005831721,
        -0.5782710237428201,
        -2.9291589924141923,
        2.622543111597388,
        0.6391270284804171,
        0.47775987069672954,
        1.1558804360339392,
        -1.247632736666175,
        0.3334782095231698,
        -0.7726909435343573,
        0.34236562726019654,
        -1.4394429882013573,
        -0.333209275168948,
        0.7490703953508966,
        -2.373162033336011,
        -3.143202468624022,
        3.408997483738318,
        0.30144976274980584,
        -1.7263206402756373,
        -0.64546204621629,
        0.8556228766997644,
        -1.171655425953111,
        -0.018260518925692037,
        0.9772231638313233,
        0.031173347102531352,
        0.866018522835779,
        0.4797595105333864,
        0.01669439007624889,
        0.3062830813366503,
        -0.015509934475966857,
        0.5458126891847419,
        0.38835895755669586,
        1.2318744563124278,
        3.176905793776691
      ],
      [
        0.6283833264321012,
        -0.5115219258121835,
        -0.467997616378032,
        0.46674305495166774,
        0.29741159503145476,
        0.7907719241481523,
        -0.37417550105100184,
        0.24721011858444714,
        -0.22694856535143773,
        -0.1335694584565896,
        -0.10929875783860982,
        -0.4806277368526066,
        -0.0004706670701273952,
        -0.1472452783481446,
        0.1395862960485944,
        -0.235516651568479,
        1.37845798435244,
        -0.4081961306836342,
        -0.3609468508662014,
        -0.24053090987935294,
        -0.02188032895875499,
        0.9695486147585137,
        -0.6042708937151982,
        -0.052404365470995716,
        0.005635766060345951,
        -0.3449219271002014,
        0.4735574650652453,
        -0.24026815379218777,
        -1.3123428664321555,
        0.7527804989449485,
        -0.6493653545100972,
        -0.09491429363454369,
        -0.23553694528442465,
        0.6879834654644179,
        -0.38762416574592784,
        0.12345303638862987,
        0.44840037695217233,
        -0.4133331990089728,
        -0.13532736505949647,
        0.4846921146885524
      ],
      [
        -0.8271020499839886,
        0.6584105452681687,
        -0.9979199766783553,
        0.6895289940511261,
        0.524381714352894,
        -0.6239419551442817,
        1.0880554808487335,
        -0.7148147819861483,
        -0.6626691393889895,
        0.9438203538599153,
        0.12241940156903286,
        0.16659290166600693,
        0.19830513975213268,
        0.680081612689472,
        0.48369392048046544,
        -0.4989646904424576,
        -0.2801241091911307,
        -0.42536907462569545,
        0.37850174078031645,
        0.6737923051146754,
        0.9256623969895444,
        0.14773114035592097,
        -0.2026521465876638,
        1.2760827247680449,
        -0.2610524609863947,
        -0.8844894487815921,
        -0.1267515586989251,
        0.11955988720800301,
        -0.04025568793496501,
        -1.0016542464850675,
        0.09010118268305574,
        1.3733006191356716,
        0.6038081088291551,
        0.9244176343099957,
        -0.3530714620460372,
        0.04770116125922303,
        -0.7132522923930125,
        1.241670486418421,
        -0.5080774834396388,
        0.11892747592546252
      ],
      [
        -0.012872600360694644,
        -0.20889946260189954,
        0.04629479889477822,
        -0.280291793141278,
        -0.47595076316140206,
        -0.10986539794480986,
        0.09931119435681308,
        0.6241166953501083,
        0.1462132315286952,
        -0.5633401743875647,
        0.2365272402178147,
        0.10515636858491853,
        -0.36599571152892146,
        0.19002675393065122,
        -0.07768814818957955,
        0.15362950926548063,
        -0.14701717200418007,
        0.19903324143033996,
        -0.19296100378374403,
        -0.08481550216245586,
        -0.17417347770473354,
        -0.6544652119666599,
        -0.04603918585319833,
        0.11017748522046711,
        0.4956140173595881,
        -0.5240979337345466,
        0.2105217746865711,
        0.2632644877632344,
        0.7568027324585777,
        -0.001702422812265933,
        -0.8357013100596409,
        0.20069173211094923,
        0.35841029301809374,
        0.29589119022938,
        -0.7893826383055187,
        -0.6375216011085058,
        0.14575973392342534,
        -0.06605344687849055,
        0.3980946695103077,
        -0.2521404875230964
      ],
      [
        -0.8885153803663496,
        0.7383844439621401,
        -0.21331956694808712,
        0.23356397545844962,
        -0.3352498436811322,
        -0.8478968292313314,
        0.6195279147142831,
        0.16330241489365818,
        -1.067839158657059,
        1.639675663949163,
        -0.2377215489786378,
        -0.3757036796799435,
        -0.1736941667908918,
        0.46157028962850555,
        0.29961410349330186,
        -0.1735703607408465,
        -0.9307176743435244,
        -0.42055564923585886,
        0.773350244288496,
        0.4861440532948111,
        0.263934108576795,
        -1.0370164315333703,
        0.17280043155232067,
        0.32296660818418427,
        0.21756637346397562,
        -0.19694623051441823,
        0.6384258852004141,
        -0.4007613474155845,
        -0.6832188250576045,
        -1.0898517374130132,
        -1.2546211223584898,
        1.012527556062471,
        0.34103089919144447,
        0.7371621471952994,
        0.35943482457275133,
        -0.24438622708865723,
        -0.6124909999701335,
        0.3592879644127105,
        -0.8485453462390217,
        -0.2623063143465994
      ],
      [
        -0.3591041517812811,
        -0.7130698980932486,
        -0.5824696562916001,
        -0.14991315003789207,
        -0.6094379738459114,
        -0.1428651293821484,
        0.6772779604783153,
        -0.16366636690797365,
        -1.3578275257744807,
        0.4229804947325519,
        0.8818455965366744,
        0.19029760789686243,
        0.29481555869447984,
        0.9594798631875181,
        0.2050674901518133,
        -0.32846638104559184,
        -0.22658579799327172,
        0.03555962591515117,
        0.25646291388837583,
        0.43310030587294285,
        0.40212391715719764,
        1.2758954796332302,
        -0.4221352873212755,
        -0.012255040020791379,
        -0.17134541200089592,
        -0.5189032992421709,
        0.5728740943739866,
        0.12306385360085394,
        1.199266487994567,
        -0.33192322314005934,
        0.29802483891851367,
        0.043563314128262434,
        0.635725065043184,
        -0.41559586957036687,
        -0.24747927441496806,
        0.48103376132367404,
        -0.7864167890561006,
        -0.3865513298141971,
        -0.00013941067982445985,
        -0.3474524998965558
      ],
      [
        0.2629227309550643,
        -2.5550773688493433,
        -0.4903729794356016,
        5.036246796478891,
        1.6177846001909424,
        2.4325409208774498,
        -0.645635104974607,
        -0.26398977087738323,
        -1.343610974793937,
        1.0936581398052283,
        -1.070882284016539,
        1.1870833593795538,
        -0.1478419137792955,
        1.297457967969785,
        -2.7192217189281127,
        -0.4021224038266974,
        1.5242510800520326,
        0.7075630533528604,
        -2.6841480537959503,
        1.2401311287311743,
        -1.6236250593799606,
        0.6598233793639788,
        -1.9411905901511814,
        -1.3914884357217518,
        -0.5622485483571024,
        -0.2020811475832553,
        -0.2255456776008477,
        -1.908362220255772,
        -1.0610704121819305,
        2.4969217918658586,
        -1.8693240643107818,
        -0.21571758032087257,
        1.1335894757172542,
        2.664866170967495,
        -2.0962731910143466,
        0.8665174433882391,
        0.3838564342115467,
        -2.8233350464073967,
        0.8491802998844458,
        1.665477952549106
      ],
      [
        -0.24595615582955152,
        0.8189659789059973,
        -0.24112452492761458,
        0.14172098180048906,
        -0.17880207696626182,
        -0.8488990233761737,
        0.535136092606399,
        -1.3465451913229685,
        0.0984296873546758,
        0.5270255057481401,
        0.9807637864979707,
        0.11148825678754867,
        1.0555201861777033,
        0.6566747345916057,
        0.7718801144898474,
        -0.37563586623044387,
        -0.28671975989491755,
        -0.38533143939278297,
        0.7229220158074583,
        0.9101428886955795,
        -0.174744313833076,
        0.6648900504716015,
        0.17876731511634955,
        0.7123912562799408,
        -0.6078483974233385,
        -0.6290366505127045,
        -0.8433195254890776,
        -0.4145342971190877,
        -0.3780279770365396,
        0.6495729143362723,
        0.2736899434038488,
        1.2846623648667208,
        0.8724873111635328,
        0.10345310415348612,
        0.3151528274619637,
        -0.00875242580687215,
        -0.12060682293445839,
        0.9884731155025407,
        -0.12218906030609425,
        0.05979278452563145
      ],
      [
        0.37828645279228196,
        -0.355648833949443,
        -2.308132665458238,
        -0.5407848600810622,
        2.348922646883384,
        1.180656613606857,
        0.04973717143781116,
        -0.5641563475295559,
        0.22252826678511728,
        1.7077659866734336,
        -1.0201285881086872,
        0.17966509534795852,
        0.39359269770469857,
        0.4119404552910176,
        -1.3378777982856582,
        -0.3299436441668642,
        1.6941455226074826,
        0.7776571615634672,
        -0.26631681044613403,
        0.4802881754709824,
        -0.16332919184508132,
        1.7801724671881665,
        -0.27469423490646455,
        0.17903461486635755,
        -0.03228880301662065,
        0.0914168173669383,
        0.326837883573501,
        0.4340218698871427,
        1.5079569442564753,
        0.8140053099290533,
        -0.7054253513223225,
        0.6231588133432191,
        -0.19732410314268062,
        -0.6833111852215937,
        0.23534461838683454,
        -0.34410289705294644,
        1.6394223564183295,
        0.5035226760682041,
        0.5576479470387016,
        0.5482778788989046
      ],
      [
        0.05275764344930832,
        0.04545301775100542,
        -0.09873241628714793,
        -0.6170255388202651,
        1.06455599561948,
        -0.025096413437440658,
        0.34116971697099263,
        -0.2592251812465082,
        -1.528323083257918,
        -0.6736483091677941,
        0.42619610806770963,
        0.7148637515740881,
        -0.21829518055861669,
        -0.31900737456797906,
        0.2118386515545114,
        0.12965404765993674,
        1.3774506510683031,
        0.24331035798526096,
        -0.1749363367310459,
        -0.1424193746949277,
        -0.42739600574577435,
        -0.30086866294224196,
        0.27259915873112617,
        0.9509289266360059,
        -0.918913868495012,
        -0.1351161926588783,
        0.6856621898225659,
        0.13272087063570923,
        -0.07956796418038459,
        -0.5369079395225596,
        -1.072140004394055,
        0.7033439620022027,
        0.02504802896487332,
        -0.36904699314358996,
        0.20710391995755084,
        -0.6330099592280831,
        0.3211925518281882,
        0.16180412688455692,
        0.3013947593843883,
        1.2196724436309954
      ],
      [
        0.2073420013140277,
        -0.2595728083292497,
        0.5749739253897485,
        1.518100736677025,
        -0.43546861511838514,
        0.18501391071132667,
        0.20929522251399485,
        -0.451868347776758,
        -0.013427140658549592,
        -0.30748400945078896,
        0.4823911087030763,
        0.623562556409805,
        -0.19888266260522752,
        0.08409486976667759,
        0.7985344764797052,
        0.3552321927971306,
        0.03715518605024206,
        0.04800959005809241,
        -0.5402140732773162,
        0.0805148151081392,
        -0.3375161103755488,
        0.005876795805410726,
        -0.6735820579452604,
        0.2692460585079402,
        -0.5264529644588755,
        0.07323816243308905,
        0.4807009200448095,
        0.6630358935349777,
        -0.4521470208366365,
        0.3241880667529151,
        0.12024183441367811,
        0.39125709787520396,
        -0.6279749069369955,
        0.5974331854790734,
        -0.11934341296249784,
        0.11900070068724998,
        1.0319077494806148,
        -0.4777133355998571,
        -0.6020965636062343,
        0.630540199955587
      ],
      [
        1.0270977845134428,
        -1.5282137165230119,
        -0.18475636268470083,
        0.6010808033043306,
        1.5282750650919232,
        0.7223672909433608,
        -1.24381240479509,
        -0.917186185384156,
        -1.7190720954210612,
        0.08410258891213568,
        -0.704475234763248,
        -0.5316873117972196,
        0.7948774113488459,
        -0.6793853035925128,
        -0.37204212796843156,
        -0.1794135292666468,
        0.5360746490126665,
        0.9890659007942835,
        -0.7657421800117181,
        0.6770777983572113,
        -1.0474310273059968,
        -2.531954770071431,
        -0.5873317756691548,
        -0.6164130208266396,
        -1.7743305198450696,
        -1.3378616561430912,
        -0.4526400688164212,
        -0.058301102386100916,
        0.055179032638095364,
        1.940431224550006,
        -0.4504475829934728,
        -0.2258430513284409,
        0.3135133815059442,
        -0.3997441572779233,
        0.10290993474413128,
        1.0027683279406916,
        0.7941565866988975,
        -0.6570538913230012,
        -0.6251687320498002,
        1.173840929606579
      ],
      [
        0.7691696815301011,
        -1.1855652656375977,
        0.6696236466883713,
        -1.6089112846755125,
        3.6282439767500163,
        1.186163390516201,
        -0.39652067440384575,
        -0.39696543245412763,
        -1.290931965892171,
        1.0505521795111565,
        -0.9634452210897164,
        -1.3802878819717765,
        0.8332853359184786,
        -1.2660128677090512,
        -0.7413830683145143,
        -0.4141003353531552,
        2.065196553520002,
        0.023070153715354768,
        -1.0792003091112359,
        0.1392289871649558,
        -0.2591032942679354,
        -0.72766989364666,
        0.6162695574774205,
        -0.6992915603644407,
        -1.9544081185526245,
        -0.7334665897158618,
        -1.6478168527579051,
        -0.4731616098331318,
        -1.5875557298184275,
        1.0407979795948514,
        -0.1586362823553737,
        -0.00602024922922898,
        0.39279901935423933,
        0.7911556492517978,
        -0.921415511388463,
        0.7067529583516737,
        1.328214077697832,
        0.1164974814414767,
        -0.6717342540558766,
        1.8185073645014544
      ],
      [
        0.3781721548221466,
        -1.0918700707197753,
        0.3506262824456763,
        1.2485315193368534,
        1.0232032774234323,
        0.4019363417696918,
        0.055585293328274436,
        -0.7185318334021018,
        -0.8200732236916939,
        0.6770309945629966,
        -0.44135144214423677,
        0.40601821296109564,
        0.40026546311571054,
        0.38990940784256917,
        0.14289198108192086,
        0.12067962616133568,
        0.874557178303377,
        0.3010683284451052,
        0.24828417560257912,
        -0.21738952665701405,
        -0.9482628568337194,
        -1.4419888127627194,
        -5.7027583886694675,
        0.6522774903110395,
        -1.4209845338250389,
        -0.29691570029269787,
        0.21002293617359252,
        -0.32521542504543627,
        -1.278598233260974,
        0.31323586527163316,
        -0.8727626761145648,
        0.42714727745816006,
        0.1235945015722968,
        1.3978989129392516,
        -1.4469707235517884,
        2.112281032265323,
        1.1076394714738804,
        -0.13697477890896198,
        -0.6471274424003369,
        -0.26082203971748014
      ],
      [
        1.5164788784048868,
        -0.5413368495556591,
        -0.03754590554751552,
        2.226705928086359,
        1.357089955781324,
        1.0330847677519346,
        -0.39995974714609794,
        -0.5644931904033413,
        0.1397911804066713,
        0.6179392591569743,
        -0.5893542903334795,
        0.8544962777659655,
        0.6704970891349035,
        -0.9329032554159169,
        -1.0027443393186315,
        -0.05294976751949709,
        0.5326800242931736,
        0.5445709528057151,
        -0.45348158105340075,
        0.38475033830568345,
        -1.1967346373191246,
        -1.8014455902289541,
        0.02929304124274286,
        -0.17447521653980508,
        -1.9449743013458147,
        -0.7881909821507306,
        -0.3546646603740338,
        0.1741940381682687,
        -0.377557071944754,
        1.0787787084186047,
        -0.5951794614919065,
        0.8905314767534502,
        0.10723735070757713,
        0.11915817889163459,
        -0.5243557680772786,
        -0.4527378109348159,
        0.755771103954957,
        -0.9094092073797505,
        -0.8014790823346903,
        2.1200717132023623
      ],
      [
        -0.21558773395735903,
        0.4656011015177705,
        -0.8161562704752786,
        -1.1788730001774939,
        1.6065610395231211,
        0.04938592116870056,
        0.14025494078374515,
        -0.354208476520656,
        0.45687940608528643,
        0.33426310603619497,
        -0.23492845503717547,
        -0.3738197104214239,
        0.6878051012673081,
        0.2088337879855161,
        -1.0452642339182319,
        0.02176793988042542,
        -0.29578472828022906,
        -0.9687363141907422,
        0.1241725824783518,
        0.4554333115615555,
        0.26664066755031185,
        0.034634731384222496,
        0.19362345897446168,
        -0.16671469308556663,
        -0.23302301233115846,
        -0.3513127769042175,
        0.033103127425778235,
        -0.3896781288969075,
        0.7145432737152219,
        1.5508015242843414,
        -0.415188289190575,
        0.537876659682451,
        0.34411195375088705,
        -0.6236453166968046,
        0.2854098498892656,
        -0.5482344046184168,
        -0.22832744083987253,
        0.09206227743765988,
        0.484350203431597,
        -0.3756634086866183
      ],
      [
        -0.04659337183943218,
        -1.2913116256700585,
        -0.47361096934412483,
        -0.21092085118708034,
        3.8176359152535166,
        0.3727243276907223,
        -0.397449376747646,
        -0.15959321757165124,
        0.38133542719552227,
        1.0892571318844557,
        -1.1008436844541156,
        -1.1888375697093874,
        0.9649329211429998,
        -0.7599444185548363,
        -0.5286427211348299,
        -0.28811628372993825,
        0.5052758533318642,
        0.987932101525563,
        -0.7405043396444134,
        0.15181996575644613,
        -0.08741097773771876,
        -1.5693269132927488,
        -2.2855241215239146,
        -0.5390575987979908,
        -0.595441158515104,
        -0.2522301133977026,
        -1.014361677765629,
        -0.5072403191779995,
        -1.460877216740397,
        0.5074433723328392,
        -0.7562453860058929,
        0.5055407907761374,
        0.5441742640473294,
        3.5677070553624666,
        -2.8134016696589303,
        0.38879016335955807,
        1.0826728635449137,
        -0.3794055981365629,
        -1.1552752187801563,
        0.3503682670992941
      ],
      [
        -0.42629891838577344,
        -0.03592641862385637,
        -0.6792826589040585,
        0.7601300369771236,
        -0.8467653001008387,
        -0.13740616291936456,
        0.27648389537824886,
        0.2799838504459281,
        0.10719156830334135,
        0.35403967215612675,
        0.6126914862116442,
        -0.24671852413771478,
        -0.049735114700998395,
        0.6925719046636781,
        0.7658945521634879,
        -0.3310477582166635,
        -0.898219243907677,
        -0.7992092282991694,
        0.4557329107212081,
        0.697382940964265,
        0.05724407712375863,
        0.36638450272206885,
        0.2748359701949237,
        -0.27684351681638836,
        0.5840018520359409,
        -0.32321121379380774,
        0.3543386383185478,
        -0.3385066692809508,
        -0.4383476079409905,
        -0.5352940776471221,
        -0.4531218551053737,
        0.7434924431783152,
        0.9478362074502164,
        0.21253590817505746,
        0.2340407378235036,
        -0.15994991686433602,
        -0.7330748601443946,
        0.6289349740355209,
        -0.1930519756284184,
        0.8838075739302939
      ],
      [
        -0.3488820421603439,
        -0.6704651456424612,
        -0.11533573080257584,
        0.14109065671566495,
        -0.731760293639237,
        0.45866337834968973,
        -0.39848011330492517,
        0.0028782754115224767,
        -0.418677115393654,
        -0.7368494174639096,
        0.2285696286959181,
        -0.4714314634903825,
        0.4432709151730922,
        -0.158966988294302,
        0.47396253389711585,
        -0.06809407576387279,
        -0.5496323314676099,
        -0.016426614373580367,
        -0.7638965158289928,
        -0.4563999830328567,
        -0.8388238053869623,
        0.8708031028366809,
        0.04495166443555388,
        -0.5373188162927268,
        -0.5900196098346968,
        0.25109954069068874,
        -0.22298495427474524,
        -0.32448701581480416,
        0.070968354765143,
        0.38486847018051706,
        0.7612351101576164,
        0.7163255802888241,
        0.3789770945078631,
        -0.43297457370340986,
        0.2698756469493459,
        0.09493312898662967,
        0.5154701284244547,
        -0.8008645530816632,
        -0.2902975904306145,
        0.35394844011711607
      ],
      [
        -0.7923376836477369,
        0.5247071698577166,
        -0.2719174456280977,
        -0.6070027980362936,
        -0.24740919974693765,
        -0.4890903491077073,
        0.5340883386968173,
        0.07116102916636799,
        0.6993368432763394,
        0.34657806292948645,
        0.07174693147157396,
        1.625015207348038,
        -1.341500588488716,
        -0.48452991809804796,
        0.3708069976890815,
        -0.15130962785817287,
        0.9101298524262734,
        -0.4151916605440915,
        -0.25389998231919914,
        -0.03768080777630959,
        -0.4275139972723902,
        -0.46736532102917666,
        0.29660779121136954,
        0.5761471829855664,
        0.07300661717608226,
        0.33514317505666635,
        -0.33332803966020697,
        0.19612069492865059,
        -0.5883448727956052,
        -0.9307372689115264,
        0.5188739642636051,
        -0.612671158100568,
        0.6127708954346585,
        0.5288367139095383,
        0.17973544067749525,
        0.04423152220051876,
        0.6508613363397787,
        -0.3099817234937659,
        0.8417174475447471,
        0.04075055661513584
      ],
      [
        -0.8280093281025956,
        0.8530120708179764,
        -0.6084701399036714,
        -0.17205230381014727,
        -0.5780058451217801,
        -0.17673097442205274,
        0.8979942645574945,
        0.5192539230138211,
        -0.22909695150690906,
        0.41474361449205627,
        0.8831910750763311,
        1.0363154176024292,
        0.404551943785572,
        0.23690513502680677,
        0.01647678696350195,
        -0.1387365560600781,
        -0.14737079425669578,
        -0.3087217576269217,
        -0.11598404444430468,
        -0.0716336475404258,
        1.0674291182448408,
        -0.5340462887895063,
        0.9736264156232883,
        0.30667371676545374,
        0.4510025592259059,
        -0.1488730272533736,
        0.6233744877148171,
        -1.446486347646975,
        -0.6157661979727059,
        -0.2244752126241719,
        -1.7956542878155564,
        -0.38562982347758823,
        -0.07696223075108395,
        0.42250843501935287,
        -1.121558822346844,
        1.2606204666617271,
        0.4571313430452506,
        -2.050650345145761,
        1.0529048465720763,
        0.41155207406113187
      ],
      [
        0.3626303668504224,
        -0.6759671067751779,
        -0.045670008581570054,
        -0.07090450268135984,
        0.844023556181591,
        -0.24273774078621502,
        0.03375409120814841,
        -0.42346202278933964,
        0.38373133229693435,
        0.10186652568413923,
        -0.6642919100420337,
        0.7492595309662518,
        0.7291653734015902,
        0.11801815941338492,
        0.2678131444138049,
        0.25287448486297054,
        2.110784919401379,
        -0.20607540512580938,
        -0.09291670917010135,
        -0.3252967533529699,
        0.38970030111126014,
        1.991698893924498,
        0.04185938780460124,
        0.6552408179970657,
        -0.8004250374995375,
        0.6184079044808681,
        -0.03554701473205879,
        -0.13329674235574732,
        -1.2801457440139195,
        -0.04411816490701621,
        0.7689566138822022,
        -0.16230990307293153,
        -0.0003759904713433822,
        -0.19593058782224793,
        0.27288741467697014,
        0.7388119820045003,
        -0.2919627892332216,
        0.3147256290994106,
        0.7480349466896556,
        0.5263787921919467
      ],
      [
        0.053638277060124716,
        -0.11354587067383155,
        0.2748814453581001,
        1.465921514508725,
        -0.06248915135270456,
        -1.349250323945113,
        0.2749631852026824,
        -0.006626899247979165,
        -0.6543072832508436,
        -0.3346502080481905,
        -0.3061200657175607,
        0.3444947642905243,
        -1.4560083601708418,
        -0.018693796895304562,
        0.057312253857761945,
        0.07389610247309478,
        -0.28668159428962725,
        0.8441470443676612,
        0.5350122280849835,
        -0.1943916853536222,
        0.16678665587294972,
        1.955381807515044,
        0.4200337104670091,
        -0.39216446295177865,
        0.21801174438066553,
        0.16947464882443652,
        0.6437235168583946,
        0.8130416142254684,
        3.047291453886671,
        0.2587062102032481,
        1.0422972641368764,
        0.11011032886081337,
        -0.2560883519426227,
        -0.3283885724858102,
        -0.11262436820668166,
        0.46792794316084946,
        0.1764727456500284,
        1.139414648684193,
        -0.14690092975736538,
        -0.03483296459352065
      ],
      [
        -0.10165731836655538,
        -0.5043083758968795,
        1.0062766836227124,
        0.3688919382991124,
        -0.09153536031763554,
        0.0381028386164087,
        -0.18176335045720587,
        -0.10124127845160244,
        0.06594589462313506,
        0.09602129306147407,
        -0.8738074004755073,
        0.008395783676175297,
        -0.43687717375163765,
        -0.8812959638125177,
        0.6629923942163806,
        0.1713165371412514,
        0.5923494870829414,
        0.43322706572333036,
        -0.19039637694921077,
        -0.20434971539545974,
        -0.0827360167962746,
        0.102812551394806,
        -0.3009118070997408,
        0.3839042529030646,
        0.013361339691949558,
        0.5717327906099885,
        0.6425741961239968,
        -0.1599659439859767,
        -0.31175274549736315,
        -0.2037534256773847,
        -0.5404858779272338,
        0.13508071446945183,
        -0.17991166589052243,
        0.006824830511585469,
        0.1906509055881778,
        0.3734488559612074,
        0.04952720225383087,
        0.18797159942409195,
        0.07169889647031237,
        0.7655747956088862
      ],
      [
        0.5525346973507648,
        -0.40528960663180374,
        -0.6837463656817294,
        -0.05602757504139553,
        -0.10957573747384933,
        -1.7017086013785019,
        -0.7853130072582654,
        -0.6959511779544201,
        1.6543248245791637,
        -1.0740732199129825,
        -0.12772846129873042,
        -0.6850746101648103,
        0.17269226764420612,
        0.2000358026092208,
        -0.16792346876928044,
        0.25286368150445065,
        0.28162788701678204,
        1.0606286823863258,
        -0.2321173894320014,
        -0.4088110865737638,
        -1.4477593541292528,
        0.42828719167830903,
        0.7371192457108047,
        -0.4914519405443155,
        0.5943283063095516,
        0.3915378893974916,
        -1.2289143027407903,
        0.6875676823673144,
        0.09976597145520924,
        1.7180980463509097,
        0.7967788461544802,
        1.1022607531533049,
        -0.1640806195685201,
        -1.2249292426878582,
        0.3331402824871367,
        -0.6766890378476426,
        0.5797842602693809,
        1.4172448817294567,
        0.8845752282292225,
        -0.5129403132184696
      ],
      [
        -0.34000229725072867,
        0.088122720585684,
        0.016723080060515427,
        -1.1900698384239747,
        2.7852569937815046,
        0.23252810137384874,
        0.34984376486683605,
        0.42968191441855724,
        -0.40307050061621896,
        0.29231156768206573,
        0.47540024030846717,
        0.8260930644420594,
        -0.013662511857704746,
        0.10764444394823551,
        -0.25560971092440127,
        -0.2912336675897478,
        0.29259697095615234,
        -0.5108791848938798,
        0.0932201433256058,
        0.18927574944681252,
        -0.19447894921123945,
        1.3351457783364207,
        0.5401807819124399,
        -0.42987132096657416,
        -0.6045180026850676,
        -0.5311848166764948,
        0.5547735286624192,
        0.495257822163731,
        -1.576953178400892,
        -0.3678466904862119,
        -0.5838270063399652,
        0.6222303853693126,
        -0.028649382785769336,
        0.6642990022227817,
        -1.0778653799287234,
        0.5912140193340333,
        -0.1411240699098646,
        -0.5863448732822136,
        0.4312078304681165,
        0.6840201975170709
      ],
      [
        -0.3306005203196712,
        -0.3224789332358357,
        -0.06996954625795779,
        -0.03497472283699087,
        -0.5594650556879764,
        -0.02507300957301351,
        0.47631667765643926,
        0.10489734894553628,
        -0.24854834258814557,
        -0.23527363923456926,
        1.2527070819246013,
        -0.028336108108915722,
        -0.019060751036121662,
        -0.26167224460676214,
        0.8129177410993109,
        -0.3034134231402203,
        0.016161715106178483,
        -0.1775790774575096,
        -0.08011107750480853,
        -0.04376768749115814,
        -0.23324666174789527,
        0.4795596346964196,
        -0.23205197078646264,
        -0.1799480838516656,
        -0.2866587472741547,
        -0.15965154434301118,
        0.37548277946633957,
        0.2752588994224546,
        0.03506293036858588,
        0.014600484158032733,
        0.4277321516161331,
        0.11819084288802606,
        0.27634326101760026,
        0.5777680868981612,
        -0.33499689080372264,
        0.08949405886766658,
        -0.19402143968050298,
        0.41300762460587415,
        0.0056538403622587935,
        0.9945454096945464
      ],
      [
        0.3050946949543979,
        0.24589584384987592,
        0.5013851394633544,
        0.7559549679191231,
        -0.2381870496017381,
        -0.2976461954236906,
        -0.07691149846358411,
        0.0021131459711221596,
        0.5549080444759509,
        -0.36216785622436415,
        0.38683730461757193,
        -0.5314252591199319,
        0.025868405822740716,
        -0.08074717550088936,
        -0.12819095318243118,
        -0.1353418130053997,
        -0.7907621621557553,
        0.4401642867315046,
        -0.13125114031217167,
        -0.17358057599664548,
        -0.13993046648096616,
        0.5039822955852384,
        -0.7445061925864606,
        0.003327297105559926,
        -0.5124111797170566,
        0.10240038125252084,
        -0.2524420775541715,
        0.12110320373418142,
        -0.3639093297967894,
        0.7980464743249416,
        -0.27517143098289326,
        0.5784143707030635,
        0.1314348703716605,
        -0.26283112968091876,
        -0.24026046752572744,
        0.5039695832096258,
        0.22195906787246553,
        -0.5699554757790662,
        -1.464448508974089,
        0.8934097853074358
      ],
      [
        -0.7048003526090181,
        -0.542655976996041,
        0.17331574930932353,
        -0.4562398479495666,
        0.3721398511231293,
        0.004044469796012499,
        -0.19600858226958667,
        0.22686379031266538,
        -1.0139894735579176,
        -0.41097732566185013,
        0.7617391922829438,
        -0.18219412759189726,
        -0.9405150453746751,
        -0.1134306646268311,
        0.5914099479247542,
        -0.44779335652674934,
        0.4445271612035749,
        -0.2912933682522726,
        -0.09754533351334017,
        0.5012466531482814,
        -0.8047690931880436,
        -0.6237434763049173,
        -0.11934919861590794,
        0.24157738513399513,
        0.3458346495279006,
        0.12975681559293448,
        -0.9056390407075795,
        0.12136434930033797,
        -0.8906761565616432,
        -0.3453960012183805,
        -0.45605987599394004,
        0.3130859505422103,
        0.38349230589497285,
        -0.2942494790666852,
        0.3918297206282127,
        -0.42251652814679447,
        -0.5146760712582191,
        0.8650327176240716,
        -0.06373671909353479,
        0.1157592488251346
      ],
      [
        -0.4437581298155687,
        0.5428966517284481,
        0.7693028603722664,
        -0.7986058416323888,
        1.3194734861407125,
        -0.5404381269070552,
        0.4143337905738821,
        0.08112470604563495,
        -1.5919836728147836,
        1.1962263951078023,
        0.0884938733790581,
        -0.4293378934882302,
        -0.3250561965143941,
        0.18794438429443638,
        0.036032873811291825,
        -0.45796734488455065,
        0.2931935933466692,
        -0.7029788639180321,
        0.11870162196946828,
        -0.07495394865319834,
        0.48136486963627023,
        -0.3221679931081349,
        0.25881518941654624,
        -0.03329193853383689,
        -0.15769252935103883,
        -0.5434597020355493,
        0.020178975277705322,
        -0.7922029365479657,
        -2.231808988338859,
        0.396059095388487,
        0.5541043098378488,
        -0.3936633288145621,
        0.5038739262684906,
        0.8236859643942996,
        -0.9319839712875375,
        -0.10423939974512966,
        -0.13294920767157287,
        0.9989137962427619,
        0.14678482960111197,
        -0.571665826910113
      ],
      [
        -0.13954733614789566,
        -0.5616979409797662,
        0.29707659066723546,
        1.294133558180628,
        0.008519842053389634,
        0.42262570018775364,
        -0.25771044089631917,
        -0.40555897588587997,
        -0.5655068996231917,
        0.7679536123899122,
        0.011976810108585883,
        -0.18304295835081508,
        0.37132417568265125,
        -0.017588713084161278,
        0.21109183003023266,
        -0.31623522273932353,
        0.24894611240424722,
        0.3195450887273068,
        -0.3353116101760545,
        0.14607336277197397,
        -0.5450000393673152,
        0.7126254708566836,
        -0.46456094385419655,
        0.8623843100816799,
        -0.5953135369144441,
        -0.18267039522887416,
        0.7534447015631728,
        0.8031652356637896,
        0.31244888407664034,
        -0.17351507853129672,
        0.019400231537714217,
        0.9100691440681553,
        0.25043608713615667,
        0.25855641008093194,
        -0.31639162118042535,
        -0.14500215512035203,
        -0.4773486433240852,
        0.17592317719039546,
        -0.29393167339382165,
        -0.016413315991378106
      ],
      [
        0.496957383455948,
        -0.4880438952062145,
        0.8346015313409519,
        -0.14504787061292523,
        -0.18865107734342892,
        0.25342585407962326,
        -0.2284155480991254,
        0.09797865947375528,
        0.34793185341355726,
        -0.5070168763813963,
        -1.0054124629033308,
        -0.06969590352496724,
        0.08617924947614876,
        -0.34403683356244275,
        -0.49387670515715065,
        0.9932292545456292,
        0.12232141924754714,
        0.0016961001933229426,
        -0.18512108571529873,
        -0.32345880430565077,
        -0.1947750411508084,
        -0.2077767843462915,
        -0.7271307371970245,
        -0.23311643368538948,
        -0.8987253400799021,
        0.1333565263109476,
        -0.15153597089972168,
        0.2294649611708274,
        0.1079401323312137,
        0.014031285990531465,
        0.41622532733910567,
        0.12347188360573748,
        -0.5199325403404651,
        -0.33189686782441485,
        -0.08437392226166969,
        0.023311626531427543,
        0.14463604591420967,
        0.39079192478890185,
        0.41661475145972193,
        -0.38708807182612276
      ],
      [
        -0.06013060689245855,
        -0.19967309933427815,
        0.2269942237071903,
        -0.30902083880131576,
        0.3676792868346873,
        0.006069836052256581,
        -0.3045680449049774,
        0.32662418543262756,
        -0.040435319282685886,
        -0.5271046013196123,
        0.43309942103126065,
        -0.2931568919929562,
        -0.12307584170881454,
        0.4802779496639224,
        -0.28514259026084376,
        -0.21083207482119967,
        -0.36063950458279204,
        -0.23360416219438168,
        0.2076469530956357,
        0.33614750119296827,
        -0.004881025263119693,
        0.20614176657675315,
        0.5131223480804569,
        -0.17524621318897393,
        0.8835624283572718,
        0.20425283737186986,
        0.8028307865243355,
        0.40796663472262046,
        -0.07067680554448601,
        0.03697130632270671,
        -0.5251964859895921,
        -0.08859634574586513,
        0.24237145929407702,
        -0.12425315622701164,
        0.6538256735667902,
        0.048892488301132075,
        0.6919225587654986,
        0.10595550497205537,
        0.3192846458123033,
        -1.0497236040974625
      ],
      [
        -0.20365383042642807,
        -0.24143739323590188,
        1.1741240323258955,
        0.5993936143673194,
        -0.24758672743970697,
        0.25621662266019696,
        -0.7716846464173198,
        -0.15087270486143015,
        0.05579515069257455,
        0.202055365981632,
        -1.2414080395311926,
        0.08910124289547541,
        -0.5695543151985965,
        -0.037113572616905004,
        -0.44857023091901643,
        -0.19200320607727472,
        0.2761874919272688,
        0.9364461772402447,
        -0.070432085889101,
        -0.0939168408308298,
        -0.5049736738944646,
        -0.4514441284364433,
        -0.24918001685480232,
        0.170853096069805,
        -0.18581335060855292,
        -0.054573797844781155,
        0.15910105789344153,
        0.24962081391377616,
        0.11031021016499774,
        -0.19766277516616318,
        -0.1694057449764346,
        0.49316880136849484,
        -0.03184571341738107,
        0.41457691958381854,
        -0.690826773538577,
        -0.012451390287553177,
        0.45274595339808077,
        -0.08175818428750621,
        0.13424496074649125,
        0.2527558187783904
      ],
      [
        0.060771011828696465,
        0.5384702106372742,
        -1.508781397387453,
        -0.8034733803557369,
        -0.05823782969345669,
        -0.7574686478376564,
        1.0531051440547965,
        -0.10550715194311874,
        -1.3957497556925778,
        0.862568300197585,
        -0.4156473055271661,
        -0.5904844081531878,
        1.292424185329734,
        -0.0021340525613023956,
        -0.08404301267311967,
        0.19096717478427014,
        -0.5309300337083646,
        -0.5832189411444058,
        0.43427723982614896,
        0.021404563307001273,
        -0.010504035945369,
        -1.6502038752336678,
        -0.6093594428946145,
        0.7262446594816592,
        -0.15611764285641624,
        -0.8322276535859237,
        0.3898826792817501,
        -1.0889846630243505,
        -0.2316716596490083,
        -0.7030566281018708,
        -1.8452714552417024,
        -0.23359758402096745,
        0.37484620270472085,
        0.03726523048642773,
        -0.5018075236352804,
        0.3094672347496099,
        0.05449895953244385,
        -1.4147769836707051,
        0.22554640135943735,
        0.3553097610507695
      ],
      [
        0.23851721130932627,
        -0.24794431675841674,
        -0.6555491041447314,
        -0.14822344477720065,
        -0.3080570426220486,
        -0.5983244102922265,
        -0.0436200504261769,
        -0.69969417831719,
        0.07984631118064375,
        0.11597345470700779,
        0.3707769350986084,
        -0.44025559342267245,
        -0.35715851231472084,
        0.6753090989220076,
        -0.0035901016353531074,
        -0.4689440144142392,
        0.06650545102250743,
        -0.032544323648507664,
        -0.16831029886329454,
        -0.10897204980618934,
        0.7887672393227178,
        1.4098360248208432,
        -0.6974042647747105,
        -0.500383542487922,
        0.4980694886818695,
        -0.12153293582616873,
        0.3850305786224408,
        0.14582681420913052,
        -0.18589498240626237,
        0.18869410457550537,
        0.582639530632064,
        0.019776777229842786,
        0.23144599271279218,
        0.5897173175913614,
        -0.18134227600025835,
        -0.3353947902930107,
        0.09101150140784459,
        0.2924060096276779,
        -0.19765755294483933,
        -0.045185226508666965
      ],
      [
        0.13717245554173846,
        0.22647309325931567,
        0.7729442744365742,
        0.4751009682838378,
        -0.0018380615285711786,
        0.03198743538504864,
        -0.2539698441136779,
        -0.007382570497135816,
        1.5559956514142106,
        0.22425187963606458,
        -0.7681135178439833,
        -0.5329166872595987,
        0.5896947824223729,
        0.11511314854021051,
        -0.34682951506655213,
        0.3561627769754997,
        0.08131993581088438,
        0.35296787674570085,
        -0.4195882683346451,
        -0.17097066412636017,
        0.4396876649871273,
        1.8787784087207986,
        0.5290900791847523,
        -1.3603446547870157,
        0.0038538488308564518,
        0.6686793109763396,
        -0.19578597290010602,
        0.26083930469750244,
        0.382904862179199,
        0.2663136565045435,
        -0.647634600279115,
        -0.8036956661331295,
        -0.31136113963101947,
        0.18560417751827937,
        0.44779927211685,
        0.10660660258693283,
        0.31047532959592444,
        -0.46030119874130454,
        1.2397546473926315,
        -0.574652332574424
      ],
      [
        -0.10541451541237927,
        -0.21978073577086016,
        0.79142390758277,
        0.11514300551700395,
        -0.411515361288156,
        0.015107920750675774,
        -0.31144865881061334,
        0.6148945598204093,
        0.018500422260442795,
        -0.1633216030303895,
        -0.06617821839299488,
        -0.6269132029955478,
        -0.29843304833171214,
        -0.43115800762911133,
        -0.2621449875378851,
        -0.479388190832155,
        0.45579920938689444,
        0.6095915345895577,
        -0.30379597775776457,
        -0.21476235477581365,
        -0.7622393451220708,
        0.5628727450707978,
        -0.4648458824776336,
        -0.7401871366272657,
        0.05167013249266347,
        0.5991759859666632,
        -0.48398343969665875,
        0.5767904341954675,
        0.19444115453600333,
        -0.10831381992348965,
        -0.08397237575767914,
        0.019370089709945432,
        -0.4523617453647791,
        0.029963663349619096,
        -0.3078933970919433,
        -0.34538496198057095,
        1.327119712035566,
        -0.2960437443855475,
        0.009723790536973028,
        0.2036129787444353
      ],
      [
        -0.19937145654860486,
        1.4530183193506825,
        0.17847549562839438,
        0.12800460615698828,
        1.4688430509128936,
        -1.0108435321558806,
        -0.09634279389601907,
        0.28920791942927276,
        -0.35776834993839407,
        0.25346898346100566,
        -0.13149544567537644,
        0.37029012605182565,
        -0.2932283304996931,
        -0.15123783804992952,
        0.35529054449066877,
        0.5100958503839951,
        -0.22251479269135438,
        -0.002410293432442021,
        0.058547733187470835,
        0.008726699941204499,
        0.2041020981716111,
        -0.29707823432723707,
        0.8485566518755847,
        0.4013578106035656,
        0.4387060478534161,
        0.1889441298794509,
        0.8449539729784172,
        -0.09181968651524897,
        0.32163525357415573,
        -0.48889610257038685,
        -0.4396813812738384,
        0.18134722287420743,
        -0.2217317307454246,
        0.15446420379252065,
        -0.19508108522389875,
        0.393209286875577,
        -0.08562344326661667,
        -0.4693126809446316,
        -0.06632965790915328,
        0.5654678463674899
      ],
      [
        -0.5500285583682072,
        -0.7376793661633199,
        1.364067793890776,
        0.28253879497944967,
        0.2952276396179937,
        1.8193705337101922,
        0.3157236655344155,
        -0.6570901600724252,
        -0.9890432065283643,
        1.114591356416342,
        -0.3557892597515399,
        1.1583883660962284,
        0.7403336050290554,
        0.8513685700139682,
        0.4168613622563421,
        -0.609660562772034,
        -0.15393477633859323,
        0.4832507570849031,
        -0.031245748752383513,
        0.422908931167677,
        -0.21414473506917484,
        0.8345531649210824,
        0.38521938593862376,
        1.3247416651222914,
        0.006718003067173789,
        -0.08347448184679403,
        0.4301736706171535,
        0.07810021460346324,
        -0.306241941162308,
        -1.3957002064153765,
        0.31920503957561697,
        1.024763174216648,
        0.43048303567558166,
        1.6403498446999003,
        0.06734778845146056,
        0.10680466361768744,
        -0.3991443512653142,
        1.2077814868989216,
        0.29118739579153746,
        0.500039101923208
      ],
      [
        -0.4198372030920799,
        2.0028499581563795,
        0.12536827695216293,
        0.2850697487743496,
        -0.23566393554228998,
        0.026287407845370155,
        0.7362483989379612,
        0.7118124399902471,
        1.209545395114447,
        -0.5244843370582981,
        0.819032622928039,
        0.017008874542665177,
        -0.5448760680113506,
        1.536142423077411,
        0.173856544553854,
        -1.2963635715795487,
        -0.4940613398298426,
        0.8944991937089996,
        1.1929442209848673,
        0.25823836032129216,
        1.7276507542760449,
        -0.7747054646289975,
        1.1124913750301784,
        -1.097867767509798,
        0.02697123200709282,
        0.16629934109577799,
        1.073847990315383,
        0.8419533213639967,
        1.8435943104733752,
        -0.5540561008080697,
        0.27657101161692754,
        -1.0919000632441924,
        -0.3937798484377271,
        0.219277894297467,
        0.40989588404566507,
        -0.640404127744164,
        0.22761190610612184,
        0.709949766660149,
        1.4646256883701576,
        -0.33856513567321594
      ],
      [
        0.20690369575215967,
        -0.6424123593681662,
        -0.14708490711263475,
        0.8737924782775166,
        -0.42267888362504796,
        0.20633845338130577,
        -0.21606372611106983,
        -0.08803314354212292,
        -0.5373520456250185,
        0.43478494575392107,
        0.08473845680968688,
        -0.4279056366593129,
        0.10721830629702611,
        0.21002717779164923,
        0.04618040439059065,
        -0.11357065772762004,
        0.6806367670357569,
        -0.12934167169118443,
        -0.09156899827214394,
        -0.13543041420296847,
        -0.1231650419241491,
        1.0747070527087097,
        -0.6299085180971069,
        -0.07419335007745144,
        0.1365710401579541,
        -0.4758590860338405,
        0.969840528180548,
        -0.3294291098811339,
        0.1960415762506122,
        0.46502483633306385,
        0.05003644349533902,
        -0.20220336689193652,
        0.37264380207280445,
        0.4498962010158509,
        -0.5638187259170481,
        0.5100315758471776,
        0.01513630805468866,
        -0.44280294235239154,
        0.08333704088365244,
        0.43066914173453363
      ],
      [
        0.8048735270577364,
        -0.2188849170855356,
        0.5151214261359277,
        0.20753095084731882,
        -0.051245028444856025,
        0.40695681908154513,
        -0.8123495591892238,
        0.7990295443028697,
        0.5667516603576812,
        -0.6725156558704612,
        -0.8897345623587539,
        -1.0554779448039582,
        -0.22892424417031246,
        -0.7623502939696271,
        -0.8797954573235964,
        1.063850567635622,
        0.449992762489378,
        0.7235256468848004,
        -1.126163359104928,
        -1.0551846903547613,
        -0.5080456854943594,
        0.0016992632493531526,
        -0.30020622059738983,
        -0.9613809574207152,
        0.345459955407642,
        0.7726685481349499,
        0.3206922746578469,
        0.8482898470902465,
        0.38043215415825776,
        0.5780602222438666,
        -0.7845147736191289,
        -0.9510354388545209,
        -0.8997097442043008,
        -0.49720515123664527,
        -0.21849524176241245,
        -0.5841085155162629,
        1.3043982714861562,
        -0.8032552288495839,
        0.4640550126079311,
        0.0875602658019629
      ],
      [
        0.06463990545583866,
        -0.00912687361585249,
        -0.3981934863877566,
        -0.26542446991333923,
        -0.42756746647647814,
        -0.12421668197731338,
        -0.1006177975631345,
        0.4614740703215945,
        0.42407813271793987,
        -0.40029842840128055,
        -0.0023427018551178415,
        -0.27738897635218956,
        -0.34323822700791984,
        0.09425761989344407,
        -0.5222523039087372,
        -0.051434286017663755,
        -0.4658677511608279,
        0.11572050870699337,
        -0.20564804652818863,
        0.0826253566663242,
        -0.33827796929916737,
        -1.0249823394805722,
        -0.2764240562803629,
        -0.0861090742433085,
        0.053073556966077545,
        -0.5210651925931786,
        -0.46850187626461093,
        -0.18183926700775982,
        1.2877040874912762,
        -0.01472654152941661,
        0.014371021896349272,
        0.03459002885660062,
        -0.07588601856218101,
        -0.09302857978725665,
        -1.016063076173879,
        -0.2886489526320052,
        0.40684264395583514,
        0.2232896801666865,
        0.5452227360782386,
        -0.0351876482242955
      ],
      [
        0.9735163990657375,
        -0.39254590135857326,
        -0.2647167793262997,
        -0.4936921858748129,
        0.884766113793323,
        0.1324232511377546,
        -0.729278307756731,
        0.5873681243906794,
        1.091734692478205,
        -0.4951805248012177,
        -0.8619723824392318,
        -1.0121091263104174,
        -0.18781063686048943,
        0.03761019775169164,
        -0.7944367913453464,
        0.6149362364461387,
        0.008210958509382506,
        0.49651146718793054,
        -0.4902578502031595,
        -0.624424438695393,
        -0.8284670808415342,
        -0.383005895941413,
        0.0987065961347604,
        -0.8507037968103017,
        0.8570110730912982,
        0.5975683942858985,
        -0.18168641957969794,
        0.3169570398253742,
        -0.33935675532701054,
        0.8954059241803052,
        -1.1501561912663232,
        -0.4783492726241668,
        -0.3923004460815565,
        -0.27450910042370313,
        -0.26299615316659164,
        -0.5281469028312662,
        0.7626580530201328,
        -1.0684494020073612,
        1.1002624333605155,
        -0.3055195755074184
      ],
      [
        0.6466960269261887,
        -1.4291133513122707,
        0.2909749281850416,
        -0.08711579751864992,
        -0.8031477763951893,
        -0.26813368771158275,
        -0.4204008278917066,
        0.8455582633383566,
        -0.7050435034042719,
        -0.19010730441114854,
        -0.2703695899222277,
        0.16200211111306972,
        0.39254176121076,
        -0.39800618757351286,
        -0.7413268450932144,
        0.4519941760813429,
        0.23740111320297205,
        0.6654251580123139,
        -0.7484475744369128,
        -0.5896387791048235,
        -0.03835663378572949,
        1.7892163714905498,
        -0.3201013510597403,
        -0.08331040132068256,
        0.04767631205604876,
        0.26459814911724877,
        0.037575141239433466,
        0.030491580604298314,
        -0.8018535895590506,
        0.4298478984491547,
        0.5162259309577614,
        -0.26517031893465004,
        -0.28907174695251303,
        -0.32218336671285375,
        0.5958913076303967,
        -1.2249661539500143,
        0.19598675210990918,
        0.04680980804233267,
        -0.07416903725556566,
        0.20923122687848075
      ],
      [
        -0.60268567562333,
        -1.5367884119094408,
        -0.13871867855797762,
        -1.4203467325330983,
        0.36537105706626927,
        0.3593642700163672,
        0.8155746610219705,
        0.015283393934145373,
        -1.5629476355097538,
        1.9446028890081075,
        0.08782023754701405,
        0.6749549392337045,
        1.0332872521809815,
        -2.564793886591496,
        -0.4250966207070313,
        0.9302795559924675,
        3.8986324701761115,
        -1.1729582922300688,
        0.15146038461285202,
        0.3544491270583413,
        1.4896038524019224,
        -0.5173318911069688,
        -0.0032809237024839185,
        0.8187792223319335,
        -0.5160573726047101,
        1.0125357512592161,
        0.3493652758197064,
        -1.0068618305618,
        0.9273657763886196,
        0.10637888466364283,
        0.34454025626562124,
        0.0844130210339705,
        -0.4695544009866334,
        -1.4641795865015639,
        0.4509634120853943,
        0.7290602213902162,
        -1.5041910090554793,
        -0.18324386873459864,
        -0.4082268505815649,
        -0.07462970432053175
      ],
      [
        1.2469051394855826,
        -0.9372998360255662,
        1.347074841689842,
        -1.0173134439520561,
        1.026866125959242,
        -0.23174304826959782,
        -1.3216882889083337,
        0.00977774162497058,
        1.1710083490644116,
        -1.374208475840281,
        -0.7536461464929951,
        -0.15372270459022436,
        -0.2196298498004551,
        -0.9420735819495585,
        -1.1899092499365491,
        0.9029173433949365,
        1.076073428816796,
        0.7086249250216573,
        -1.316675577060803,
        -1.304287058885633,
        -1.2134421940414086,
        0.890160127965514,
        0.4266136538722062,
        -0.566836681747093,
        0.3689835152641434,
        1.020371799885185,
        1.189883205244794,
        0.2385067259591317,
        -0.022632947846012295,
        1.3490827557706984,
        -0.652016403199636,
        -0.5044040354268747,
        -0.6517761647978847,
        -0.55805864412021,
        -0.04228263553492261,
        0.3197009669383699,
        2.2702768305713446,
        -1.3653819280207269,
        1.496639759057235,
        0.33651271134970034
      ],
      [
        0.0876032361609754,
        -0.4750251825220296,
        -0.2689228403971133,
        -0.22697179369023182,
        0.9365370298052248,
        -0.2043831084510837,
        0.3653765411446596,
        0.17370626444855633,
        -0.6080262758301876,
        1.6430573101151866,
        -0.15712033616140095,
        0.042429207341456644,
        -0.07758266219517798,
        -0.4144764180760854,
        0.16352067769622936,
        -0.05017224897326956,
        0.8584679966862392,
        0.23701863883179317,
        -0.26163475588136,
        -0.1905947663113832,
        -0.3350665955619774,
        1.109091653458557,
        0.16914930014374663,
        1.022194442496574,
        0.18815143403972787,
        0.21941560167624172,
        0.08101240096070562,
        -0.5950033336926545,
        -0.3347712752647776,
        -0.060594279924931764,
        -0.19797422628349756,
        0.5240772439124316,
        -0.22190989265913863,
        -0.27879807773890053,
        0.5305810980836999,
        -0.44046497296419845,
        0.976119405868231,
        1.160260388585127,
        -0.3418039909510939,
        0.12726878189493473
      ],
      [
        0.08754418268513664,
        0.11407812813963294,
        -0.12792760417875326,
        -0.18613194762972654,
        -0.03848800268749289,
        -0.5270221884026232,
        -0.21748991018024674,
        -0.2657025600742643,
        -1.4715080265406937,
        0.0614269899034043,
        -0.10064985561254967,
        0.7716143645319385,
        -0.25565116417770106,
        -0.10257493254142523,
        0.024335315569839845,
        0.6990609866003804,
        0.32080844443889034,
        0.1419297466531868,
        -0.22153479012359317,
        -0.48637293447958996,
        0.5137641289041558,
        -0.03909558993116413,
        -0.6676652705963145,
        1.2515234190336768,
        0.0288537430329079,
        0.04089726445384987,
        0.16691298647837968,
        0.7539043052688975,
        -1.1476001966177107,
        -0.532933645783389,
        -0.21968275536119874,
        0.789614308835405,
        -0.3169333120640424,
        0.20456208564548972,
        -0.7089507252470633,
        0.4350270267474942,
        0.3238346206453074,
        -0.11322243985013461,
        -0.46386263767957603,
        1.0996036279290224
      ],
      [
        0.027501725793602112,
        -0.46917392047695755,
        0.3933638578540776,
        0.8078905777148848,
        -0.803917554760269,
        0.10347121110017611,
        0.2796999930625117,
        0.06340535940347275,
        0.5127075963590817,
        -0.6751180902871028,
        0.34547706053211796,
        0.6106477991601676,
        -0.7713290815070077,
        -0.33048388093917713,
        0.001285258075120067,
        0.4733225056041641,
        -0.054877023014375984,
        0.09371095749327608,
        -0.6146327828090329,
        -0.3335406494646639,
        -0.23725882264557385,
        0.08975713180459695,
        -0.1109242079715826,
        -0.14511930132961146,
        -0.3201841037929124,
        0.45395070959109746,
        -0.03617521372109862,
        0.4206481980492357,
        0.8159257883817375,
        -0.28378162978551064,
        -0.02185919777169234,
        -0.08058906119135519,
        -0.31062577876582054,
        -0.03334078071877822,
        0.15528274217503596,
        -0.33860465885434865,
        0.569620105828144,
        0.2509820839463422,
        -0.1115633721793985,
        0.06671519879279565
      ],
      [
        -0.11428919026677312,
        -0.5059187228427308,
        -0.021018278257220007,
        -0.4700501821056008,
        0.2888412435884845,
        -0.26440855886271036,
        0.2331976938213678,
        0.6832832517850965,
        -0.35947318697090613,
        1.289894504513008,
        0.38417863606970726,
        0.4596303269126219,
        0.2934549554547217,
        -0.38786800535334265,
        0.029756920154779022,
        0.24491935565608072,
        1.0419653336480441,
        0.5248475784190406,
        -0.14044493712518002,
        -0.18606668121217546,
        0.030347381819160055,
        -0.1352141565219424,
        2.3271530172836172,
        0.016918433186492093,
        -1.0594289141018343,
        0.005459196685127752,
        2.1173260649271275,
        -1.0222094591681083,
        -0.17819420422699733,
        0.3177771978789171,
        0.31992833151900013,
        -0.8034743899152996,
        -0.39301940503614474,
        -0.008826152962264727,
        0.043347396698080055,
        0.5025099317845109,
        -0.20077393199469565,
        -0.9104999843179191,
        1.054441402930055,
        0.995177906266243
      ],
      [
        -0.5845301337224336,
        -1.7206520520535118,
        0.08866511839356772,
        0.02359795416613146,
        1.0465025153453609,
        0.7782926650357399,
        0.07765736329996316,
        -1.0212097386133505,
        -0.5488291648299031,
        1.692056195344707,
        -0.9422295981343891,
        0.4533174182409978,
        -0.04363976284676613,
        0.32984037326038046,
        -0.5560372982844034,
        -0.11226727696021371,
        -0.09003966673853951,
        0.057859425659259216,
        0.15953200796977074,
        -0.05755748710142406,
        0.2737650086493156,
        0.928327454606745,
        0.8880052085530296,
        1.0876637154948319,
        -0.16483113375934288,
        -0.015766094905568524,
        0.2056176015646286,
        -0.5129384703674698,
        -0.46575125535081924,
        -0.2618374216976077,
        -0.33909392977436753,
        1.4454406813821445,
        0.3381501187348336,
        -0.22276234557654842,
        -0.1330096656826716,
        1.3239530222873608,
        -1.2543201924145428,
        1.3746128484154658,
        -0.36182362627036213,
        -0.46616782337181256
      ],
      [
        -0.017915594244628734,
        -0.009434695742126471,
        -0.6838774901735154,
        -0.6971636942891363,
        0.1523272651345228,
        -0.26519563297503584,
        0.6492912861686376,
        -0.7785923383821928,
        1.736074411368503,
        0.8692956098630364,
        0.3444387561268924,
        -0.3485287087783128,
        0.29829810993156125,
        -0.670242848964726,
        0.10830888807153873,
        0.011223091879979736,
        -0.3049588477759712,
        -0.25611706381826793,
        -0.23861959518629192,
        -0.38381240606799283,
        -0.002090792817596901,
        -0.26489296749774793,
        -0.4492751275647824,
        -0.19552927155984404,
        -0.11448849488824542,
        -0.6427119874085946,
        1.3440994100288932,
        -1.5847191161278942,
        -2.608721950668857,
        0.1138586636369924,
        -2.1203188060053355,
        -0.9496728891876898,
        -0.08342443472002144,
        0.4304453639374079,
        0.4663136345587149,
        -0.4373945325578101,
        0.8332706358567468,
        0.4978727564413704,
        1.2899706915288955,
        -0.24435834155660055
      ],
      [
        -0.27293684687302777,
        0.6725772448738931,
        -1.2418028986395528,
        -0.710577404012622,
        -0.3667093810543255,
        -0.7679998615509954,
        1.2792974672459654,
        -0.3949301631349566,
        0.07726584957570702,
        1.0788736081716246,
        1.1500780484308242,
        -0.4583296356517013,
        -0.06780936562480501,
        -0.7837180393345284,
        0.6777134682104682,
        -0.6363757648879708,
        0.12084656469329542,
        -0.43648069211464957,
        0.5857839169673644,
        0.15624408193634387,
        0.7157989197925227,
        -0.2505643405252244,
        -0.012897961662331685,
        -0.3655144763523199,
        0.3835810577153143,
        -0.6482736091248797,
        1.5121190528327522,
        -0.8673008598612882,
        -0.241013169236658,
        -0.4611864076171113,
        -0.5461526858764736,
        0.153259730013863,
        0.13768856832662188,
        -0.2977597791204836,
        0.3175798036605053,
        -0.4716174404775366,
        0.19483872755704895,
        0.7093882033391742,
        -0.39295584771159375,
        -0.05887564477318308
      ],
      [
        -0.5806458704708333,
        -0.6074105587515665,
        0.01194725155193351,
        -0.293802963753353,
        -0.04940731771617505,
        0.3938398007474067,
        0.7774927449403405,
        0.21917663019088557,
        -0.04591469275122497,
        0.3967531742956558,
        -0.7328026668279318,
        -0.57926074776982,
        -0.9712959353903429,
        0.8044196183700804,
        0.09529217964137103,
        -0.49296567973233596,
        -0.39479074019822047,
        -0.8594223000746892,
        0.6993585927295284,
        0.7581303937131662,
        -0.0025492565339233545,
        0.030494526418580886,
        -0.6002092408002686,
        -0.18073950286392684,
        0.5206660058065289,
        -0.2827503963756439,
        -0.021992267810437584,
        -1.0594523290986217,
        -0.11067241071348338,
        -0.5061398440000636,
        -0.49954948486893136,
        1.093625745676897,
        0.6953862507276558,
        0.31651636533195254,
        -0.09316580253543542,
        0.7519299887245141,
        -0.36452816772515223,
        1.190242812661124,
        1.341863374027273,
        -0.9585271875311678
      ],
      [
        0.090745734597563,
        -0.5551615849890243,
        0.8879754059055969,
        0.23942924147150507,
        0.7222443171799208,
        0.22102928563009178,
        0.5039565808792597,
        -0.16525443677280915,
        0.18216679432918753,
        1.9883678538636105,
        -0.5102182907290996,
        0.6722924646335159,
        0.0821331302923266,
        -0.8877109752301968,
        0.04538530541529517,
        0.10622283922541537,
        0.32262803087179603,
        -0.028639133752356116,
        0.1215466052800036,
        -0.011856548464292207,
        -0.26160321069210074,
        -0.5773393611934317,
        -0.0473737553353662,
        0.5412169761389708,
        0.8212210108105357,
        0.6343767598087325,
        0.16817344593691214,
        -0.5682615150990153,
        -0.5225085555172694,
        -0.49989566724613127,
        0.6829654193233484,
        -0.8251587580730942,
        -0.0026676817366009854,
        1.358019481401211,
        -0.3145995665429299,
        0.8122172330507648,
        -0.39911958763310873,
        0.6270958819377715,
        0.7935696732172118,
        0.37739141233034024
      ],
      [
        0.6625674152027375,
