{"version": "0.5.4", "metadata": {"date": {"year": 2025, "month": 2, "day": 26, "hour": 11, "minute": 33, "second": 57}, "loudness": -12.599654197692871, "gain": 0.7703024065211241}, "architecture": "WaveNet", "config": {"layers": [{"input_size": 1, "condition_size": 1, "head_size": 8, "channels": 16, "kernel_size": 3, "dilations": [1, 2, 4, 8, 16, 32, 64, 128, 256, 512], "activation": "Tanh", "gated": false, "head_bias": false}, {"input_size": 16, "condition_size": 1, "head_size": 1, "channels": 8, "kernel_size": 3, "dilations": [1, 2, 4, 8, 16, 32, 64, 128, 256, 512], "activation": "Tanh", "gated": false, "head_bias": true}], "head": null, "head_scale": 0.02}, "weights": [-0.0012200602795928717, 0.5210927724838257, -0.9618942141532898, -0.7867765426635742, -0.3168383538722992, 0.16323597729206085, 0.023365678265690804, 0.7854927778244019, -0.24556614458560944, 0.2898254096508026, -0.16913972795009613, -0.11023163795471191, -0.9060072302818298, -0.659041702747345, -0.23342564702033997, 0.14215734601020813, 0.14131303131580353, 0.35525426268577576, -0.3007981777191162, -0.10019870102405548, -0.22368760406970978, 0.2575647532939911, -0.017718328163027763, 0.3925330936908722, -0.14741984009742737, 0.039598193019628525, 0.40891027450561523, -0.26806730031967163, -0.04999243840575218, 0.23499344289302826, -0.19562414288520813, 0.10038813948631287, -0.3680495321750641, 0.06874828040599823, 0.013099687173962593, 0.023791911080479622, -0.29906314611434937, 0.1032574325799942, -0.2143147587776184, 0.19811399281024933, 0.05841248854994774, 0.22301135957241058, -0.13137170672416687, -0.15895862877368927, -0.36719441413879395, 0.07225707173347473, 0.11171573400497437, 0.349556028842926, -0.19697202742099762, 0.035884249955415726, 0.3562592566013336, -0.007658522110432386, 0.08151852339506149, 0.2940721809864044, -0.035968080163002014, -0.05573458969593048, 0.3034268915653229, -0.24497561156749725, -0.07525122910737991, 0.19820523262023926, -0.06129346787929535, -0.03191128000617027, -0.3231481909751892, 0.2663091719150543, -0.17172278463840485, 0.14238591492176056, -0.18092280626296997, 0.2791783809661865, -0.09444591403007507, 0.26627951860427856, -0.35064300894737244, 0.13684119284152985, -0.060365740209817886, -0.12089189141988754, 0.3146376609802246, 0.007490641437470913, -0.21626746654510498, 0.06036985293030739, -0.11610844731330872, 0.1371256560087204, -0.3279004395008087, 0.24096399545669556, 0.042589008808135986, 0.03584074229001999, -0.13663817942142487, 0.2111896127462387, -0.2124592661857605, 0.04926685988903046, -0.1770806461572647, 0.13347917795181274, -0.06255189329385757, 0.3110044002532959, -0.07814200222492218, 0.1803566962480545, -0.3699256181716919, 0.07975105196237564, -0.05404932424426079, -0.2137008011341095, 0.0590704083442688, -0.2218107283115387, -0.1048368290066719, 0.28258952498435974, -0.18368777632713318, -0.27321332693099976, 0.05230211094021797, -0.12096711993217468, -0.3451908230781555, 0.0681164488196373, -0.13081638514995575, 0.3103921413421631, -0.24800501763820648, 0.25739601254463196, -0.10596541315317154, 0.14406779408454895, 0.2421049028635025, -0.05050463601946831, -0.0131439920514822, -0.08824842423200607, -0.057573821395635605, 0.003235531272366643, 0.1381901055574417, -0.06854289025068283, -0.09669949114322662, 0.16072815656661987, -0.20207156240940094, -0.09991548955440521, 0.06416197121143341, 0.006494779605418444, -0.029662059620022774, -0.21898072957992554, -0.06313538551330566, -0.0008462070836685598, -0.05394832417368889, 0.07110656797885895, 0.12916895747184753, -0.10813913494348526, -0.05754777044057846, -0.00803467072546482, 0.17014080286026, 0.1573495864868164, 0.14456409215927124, -0.020814338698983192, 0.07466012984514236, -0.023720145225524902, -0.03608056530356407, -0.12909376621246338, 0.0869685709476471, 0.105362169444561, -0.14908742904663086, -0.13809719681739807, -0.04501446709036827, -0.19668132066726685, -0.05193371698260307, 0.1758507937192917, 0.010920954868197441, -0.15986751019954681, 0.17630046606063843, -0.06634270399808884, -0.05378298833966255, -0.2354845106601715, -0.0037325324956327677, 0.056549590080976486, -0.22170507907867432, -0.18162238597869873, -0.09529202431440353, 0.08073345571756363, -0.020066825672984123, 0.1309433877468109, -0.19640837609767914, 0.04335771128535271, 0.2018420547246933, -0.13495129346847534, 0.1833789199590683, 0.1141711100935936, -0.21600207686424255, 0.04301641508936882, -0.08807487785816193, 0.018157489597797394, 0.0639013722538948, -0.09398800134658813, -0.020083334296941757, -0.08201958984136581, 0.030255509540438652, 0.11865036934614182, 0.1035001128911972, 0.1122664138674736, -0.14029203355312347, -0.0750499963760376, -0.17480474710464478, 0.17582622170448303, 0.14811387658119202, 0.15895554423332214, -0.18165312707424164, 0.05416722595691681, -0.03748711943626404, -0.1713016778230667, -0.030168773606419563, 0.12386638671159744, -0.16125644743442535, 0.04886056110262871, 0.0766947865486145, 0.012180662713944912, -0.06567099690437317, -0.030323373153805733, -0.1551988422870636, 0.037734005600214005, -0.08849729597568512, 0.26976022124290466, -0.22045782208442688, 0.2977290451526642, 0.12682554125785828, 0.21394486725330353, -0.26707807183265686, -0.18713770806789398, -0.237955242395401, 0.2979302406311035, 0.03792634978890419, -0.3121621906757355, 0.40137332677841187, 0.03843469172716141, -0.2574905455112457, 0.42842960357666016, 0.2050839066505432, 0.23254434764385223, -0.40826359391212463, -0.08432552218437195, -0.16309142112731934, 0.22088660299777985, 0.00686862226575613, 0.21261157095432281, -0.2798963785171509, -0.03536026179790497, -0.22510114312171936, 0.4279678761959076, 0.24478329718112946, 0.15437690913677216, -0.21169182658195496, -0.2480982095003128, -0.30264008045196533, 0.3023184835910797, 0.1872296780347824, -0.14263497292995453, 0.2256702333688736, 0.14181813597679138, -0.16255444288253784, 0.14213602244853973, 0.25875309109687805, -0.3561266362667084, 0.28537335991859436, 0.13047195971012115, -0.32307785749435425, 0.28199851512908936, 0.2568886876106262, 0.25045397877693176, -0.3944825828075409, -0.18444466590881348, -0.2083820253610611, 0.12449546903371811, 0.07294894754886627, 0.019031871110200882, -0.12047075480222702, -0.02255580574274063, -0.0447341725230217, 0.14494688808918, 0.14651177823543549, -0.16933807730674744, -0.004156745504587889, 0.14608566462993622, 0.009665082208812237, 0.08130989968776703, 0.03982190415263176, 0.04860147461295128, -0.18190810084342957, -0.08114311844110489, -0.07635315507650375, -0.07077015936374664, 0.2115926593542099, 0.026966851204633713, -0.05457212030887604, -0.06365256756544113, -0.10062360018491745, -0.02469930425286293, 0.028735309839248657, 0.2253570407629013, -0.02625363878905773, 0.001406596158631146, -0.15080539882183075, 0.0866708904504776, 0.06789164990186691, -0.11116395890712738, -0.04463500156998634, 0.16247498989105225, -0.0750882625579834, 0.031100202351808548, 0.06888189166784286, -0.2065718173980713, 0.1393689513206482, -0.0002629821246955544, -0.05135288089513779, -0.0124769052490592, 0.02441755309700966, 0.1344659924507141, -0.13389219343662262, -0.13645868003368378, 0.010170407593250275, -0.11024457216262817, 0.17877213656902313, 0.12468778342008591, 0.08052664250135422, -0.13243016600608826, -0.18158058822155, -0.05455959215760231, 0.14669783413410187, -0.11846429854631424, 0.02724006399512291, 0.20569433271884918, -0.13333573937416077, -0.013034641742706299, 0.18059009313583374, 0.07365835458040237, 0.03123970702290535, -0.10128789395093918, -0.11447744816541672, 0.006400026846677065, 0.19871734082698822, 0.19626936316490173, 0.11204162240028381, -0.08944010734558105, 0.015182364732027054, -0.07241372019052505, 0.0380396693944931, -0.06788299232721329, 0.15220166742801666, -0.03744538500905037, -0.1508885771036148, 0.039080098271369934, 0.21258258819580078, 0.09078574925661087, 0.11558505147695541, 0.23968178033828735, -0.09949267655611038, -0.07925163954496384, 0.22545678913593292, 0.016210434958338737, -0.11098326742649078, 0.24336791038513184, 0.013201392255723476, 0.0562729649245739, 0.010735361836850643, 0.10663280636072159, -0.07255266606807709, -0.10108943283557892, -0.01316906325519085, -0.09409143775701523, -0.007867221720516682, 0.08486904203891754, 0.10324394702911377, 0.1059904471039772, -0.1096966415643692, -0.12391245365142822, -0.1446036845445633, -0.16023798286914825, -0.27089983224868774, 0.07553115487098694, 0.055664170533418655, -0.006497916299849749, 0.08814326673746109, -0.1144929826259613, 0.053557369858026505, 0.009797289036214352, -0.1486799120903015, -0.09837110340595245, -0.2969076931476593, -0.05382056534290314, 0.015775276347994804, -0.04282788932323456, 0.1067945659160614, -0.037181224673986435, 0.08214737474918365, 0.12288656830787659, 0.26705798506736755, -0.01618943177163601, 0.06125098094344139, -0.015205002389848232, 0.009905101731419563, 0.12890389561653137, -0.06655613332986832, 0.06797543913125992, -0.07051721960306168, -0.08602973073720932, -0.024010449647903442, -0.054237205535173416, -0.23485815525054932, -0.11764240264892578, -0.12057854235172272, -0.04774646461009979, 0.06521869450807571, 0.02752370946109295, 0.022867396473884583, 0.08012863248586655, 0.146732896566391, -0.07837117463350296, 0.005368106532841921, 0.12699346244335175, 0.1649293750524521, -0.15745817124843597, 0.13714905083179474, 0.005746594164520502, -0.008327809162437916, 0.08045472949743271, -0.18765653669834137, 0.02630128152668476, 0.133830726146698, -0.09694021940231323, -0.05266448110342026, -0.04776889085769653, 0.05808408930897713, -0.08907870203256607, 0.02413717471063137, 0.012590144760906696, -0.01479726005345583, -0.08664307743310928, 0.1096828505396843, 0.015273163095116615, 0.08480746299028397, -0.22510546445846558, 0.05356357991695404, -0.116738460958004, 0.028099127113819122, -0.019347084686160088, -0.09084154665470123, -0.030618954449892044, 0.1833072006702423, 0.026786934584379196, -0.18845731019973755, 0.011175712570548058, 0.030429348349571228, -0.21589119732379913, 0.1191810891032219, -0.130030557513237, -0.2419644445180893, -0.08752421289682388, -0.019344868138432503, 0.003978022374212742, -0.08660751581192017, 0.08422116190195084, 0.052090223878622055, -0.04325789958238602, -0.03514749929308891, -0.07603983581066132, 0.19648045301437378, 0.16911251842975616, 0.12191193550825119, 0.02647649683058262, -0.19034525752067566, 0.13577285408973694, 0.04626363888382912, -0.028084613382816315, -0.09721986204385757, 0.004008703399449587, -0.22813183069229126, -0.030899815261363983, 0.07714951038360596, -0.022517435252666473, 0.01791536808013916, 0.022631723433732986, 0.134396493434906, 0.0626649558544159, -0.012661510147154331, 0.05185886472463608, 0.04325295612215996, 0.09357596933841705, 0.006341258995234966, 0.03619461879134178, 0.12716040015220642, -0.054665807634592056, -0.15657193958759308, 0.0070147039368748665, -0.1606092005968094, 0.09575456380844116, -0.0550561249256134, -0.1505868285894394, -0.08656913787126541, 0.1327267289161682, -0.11131664365530014, 0.12785716354846954, 0.13357089459896088, -0.013192958198487759, 0.027048032730817795, 0.00483414251357317, -0.11994193494319916, 0.03590462729334831, 0.10908670723438263, -0.007469771895557642, 0.06815286725759506, -0.09964553266763687, -0.3309843838214874, -0.16731169819831848, 0.2527722418308258, 0.35886770486831665, -0.043231476098299026, -0.004788585938513279, -0.13788394629955292, -0.004877211060374975, 0.22240518033504486, -0.2941691279411316, -0.04005493223667145, 0.1690313220024109, -0.26792487502098083, -0.03569761663675308, 0.06751368939876556, 0.3025887608528137, 0.04435010254383087, -0.16387470066547394, 0.02383800595998764, -0.004360750317573547, 0.05020243301987648, 0.2241128385066986, 0.16674558818340302, -0.12483625113964081, -0.17883922159671783, -0.1178390309214592, 0.18216311931610107, 0.0989534854888916, -0.015706434845924377, -0.19814440608024597, -0.06298618018627167, -0.1093321144580841, 0.11512307077646255, -0.2887614965438843, 0.060044463723897934, 0.255243718624115, -0.32565683126449585, -0.20079386234283447, 0.0002561562869232148, -0.21889182925224304, -0.11947516351938248, 0.017582736909389496, -0.26219186186790466, -0.05449053272604942, 0.028870606794953346, 0.2922949492931366, 0.028902491554617882, -0.2122674584388733, 0.30603456497192383, -0.0820004940032959, -0.02538324147462845, -0.2726198434829712, 0.15652963519096375, 0.10029352456331253, 0.1355341374874115, -0.3430210053920746, 0.17583692073822021, 0.18331433832645416, -0.18307124078273773, 0.01929941587150097, 0.24385613203048706, -0.2493089884519577, 0.13515418767929077, -0.25666841864585876, 0.07596541196107864, -0.10510051995515823, 0.08593979477882385, -0.15344244241714478, -0.027748562395572662, -0.1328563392162323, 0.1759715974330902, -0.052124377340078354, 0.3753262758255005, -0.18852584064006805, 0.13177897036075592, -0.1854846030473709, 0.16706128418445587, -0.12401265650987625, 0.24488310515880585, -0.07604748010635376, -0.018686195835471153, 0.14600703120231628, -0.14169566333293915, 0.18369154632091522, 0.23417621850967407, -0.32571691274642944, -0.09793475270271301, 0.3066754937171936, -0.22371529042720795, -0.043779406696558, 0.29869458079338074, -0.14415772259235382, 0.15378491580486298, -0.2161390632390976, 0.2388906329870224, -0.19135600328445435, -0.04509623721241951, -0.057966332882642746, 0.15886878967285156, 0.005848611239343882, 0.06694130599498749, 0.0942656397819519, 0.20149444043636322, -0.06933705508708954, -0.09719981998205185, 0.0035983442794531584, -0.29621797800064087, 0.17146679759025574, -0.0026701302267611027, -0.24900612235069275, 0.12199298292398453, -0.12237145751714706, 0.1242946907877922, -0.0538872629404068, -0.08255928009748459, -0.29791900515556335, 0.3205423653125763, -0.12131407111883163, 0.2477351576089859, 0.09439775347709656, 0.13527344167232513, -0.1840370148420334, 0.19752001762390137, -0.0454469695687294, 0.11166870594024658, 0.08188667893409729, 0.10184122622013092, -0.32067006826400757, -0.0055773998610675335, -0.03348102048039436, -0.05036485567688942, 0.036346185952425, -0.07465457916259766, -0.2036403864622116, 0.12306230515241623, 0.09445703774690628, -0.14776059985160828, 0.05073525756597519, 0.11925119906663895, -0.21784670650959015, -0.02299274317920208, -0.18633100390434265, 0.055073633790016174, -0.08477475494146347, -0.19588340818881989, 0.20114964246749878, -0.09257268160581589, 0.08897111564874649, -0.2879375219345093, 0.250610888004303, -0.16348977386951447, 0.31446734070777893, -0.22060467302799225, -0.11076206713914871, 0.2755907475948334, -0.1670275330543518, 0.03887537494301796, 0.09051138907670975, -0.23978759348392487, 0.00971128512173891, -0.16888414323329926, 0.24276405572891235, -0.08633501827716827, 0.2834189534187317, 0.0049599274061620235, 0.043321240693330765, -0.08946821838617325, -0.0037834958638995886, -0.06695795059204102, 0.3382711112499237, -0.14184600114822388, 0.19503802061080933, -0.22713038325309753, 0.2419910877943039, -0.22702372074127197, 0.15326566994190216, -0.14111481606960297, -0.04242359846830368, 0.23369082808494568, -0.017875783145427704, -0.09682150930166245, 0.18998442590236664, -0.007696273736655712, -0.11487264931201935, 0.32190513610839844, -0.20522445440292358, -0.10218724608421326, 0.17177708446979523, -0.05042390525341034, 0.20071455836296082, -0.20028184354305267, 0.05364875867962837, -0.2818989157676697, -0.21226496994495392, -0.08064103126525879, 0.21482117474079132, 0.2780090868473053, 0.23748435080051422, -0.28342580795288086, -0.31754693388938904, 0.00633647758513689, -0.4059058427810669, -0.15100377798080444, -0.07896598428487778, -0.37183043360710144, -0.1276741474866867, -0.22678479552268982, 0.3274560272693634, 0.09277182072401047, 0.08660145848989487, -0.08045809715986252, 0.036679212003946304, -0.09969475120306015, 0.3903525769710541, 0.16910724341869354, 0.0352245531976223, -0.4430847465991974, -0.3329027593135834, 0.023380300030112267, 0.2710818946361542, 0.20249056816101074, 0.15004920959472656, -0.20710211992263794, -0.0756816491484642, 0.001271959743462503, -0.41318902373313904, -0.2137998342514038, -0.1878974735736847, -0.3820194602012634, -0.1504228711128235, 0.03293478488922119, -0.41587400436401367, -0.09833042323589325, -0.17859633266925812, -0.32540977001190186, -0.06594682484865189, -0.12918256223201752, 0.33788636326789856, 0.06006816029548645, 0.1946248859167099, 0.051086507737636566, -0.3720777928829193, 0.18582330644130707, -0.13173708319664001, 0.15367475152015686, -0.09462600946426392, 0.15501795709133148, -0.31531623005867004, 0.15715865790843964, 0.15697947144508362, -0.17734774947166443, 0.02091837115585804, 0.01235133595764637, -0.3067919611930847, -0.006358070764690638, -0.03661627322435379, 0.3778165280818939, 0.02213023230433464, -0.016994131729006767, -0.22898350656032562, 0.116997130215168, 0.07761608809232712, 0.21342231333255768, -0.19112028181552887, 0.0655268207192421, -0.203779399394989, -0.015366462990641594, 0.09284602105617523, 0.3090985417366028, -0.21049846708774567, 0.007864700630307198, -0.13482069969177246, -0.022044049575924873, 0.0008796293986961246, -0.20020659267902374, -0.0005300015909597278, 0.10965815931558609, -0.19580499827861786, 0.18325619399547577, -0.06131836771965027, -0.12697060406208038, 0.010990560986101627, 0.18327173590660095, -0.3956924080848694, -0.03085746243596077, 0.04838345944881439, 0.2417682409286499, -0.19140245020389557, -0.05818774178624153, -0.07808870077133179, -0.007674133405089378, -0.07992376387119293, 0.02312369830906391, 0.05137434974312782, -0.030082087963819504, -0.037994589656591415, 0.10225780308246613, 0.11924035847187042, -0.014017408713698387, 0.000685982231516391, -0.023281928151845932, -0.053088050335645676, -0.18277566134929657, -0.06552988290786743, 0.5681296586990356, -0.3115444481372833, 0.7157169580459595, -0.6334011554718018, -0.15530014038085938, 0.8028347492218018, 0.8967553377151489, -0.5308893322944641, 0.1357002854347229, 0.07685704529285431, -0.5708624720573425, -0.37731802463531494, 0.2502448558807373, -0.5956209301948547, 0.2637671232223511, 0.3475571572780609, -0.21236956119537354, -0.1718859076499939, -0.113576740026474, 0.08778958767652512, 0.17740708589553833, -0.250726580619812, 0.05879933759570122, 0.07553021609783173, -0.020051173865795135, -0.1492321491241455, 0.0825963020324707, 0.18506935238838196, 0.07277831435203552, -0.10061033070087433, 0.08396422863006592, 0.010280241258442402, 0.6252681016921997, -0.15316247940063477, -0.26322126388549805, 0.14934107661247253, -0.3939970135688782, -0.07807055115699768, -0.25657427310943604, -0.2727692723274231, -0.007006740663200617, 0.06308557093143463, -0.6236848831176758, 0.03278831019997597, -0.20487791299819946, -0.07926248013973236, 0.2899804413318634, -0.06681829690933228, 0.059356193989515305, 0.011123385280370712, -0.06643659621477127, 0.2897779941558838, 0.05989517271518707, -0.19114218652248383, 0.04513125866651535, -0.30091533064842224, -0.16052702069282532, -0.2768508791923523, 0.11539676785469055, -0.11622493714094162, 0.10884330421686172, 0.4653635025024414, 0.401117205619812, 0.014221269637346268, 0.03472699597477913, -0.18485237658023834, 0.02190873771905899, -0.2375601828098297, -0.1728825718164444, -0.013170167803764343, -0.011177911423146725, 0.08850859105587006, -0.05078291520476341, -0.05411961302161217, 0.045911550521850586, 0.18398359417915344, 0.18476127088069916, -0.0024215667508542538, -0.12856623530387878, 0.04812585562467575, -0.3304543197154999, -0.2704692482948303, -0.15081529319286346, 0.23663809895515442, -0.2659795582294464, 0.014020267874002457, 0.07612108439207077, -0.2574384808540344, 0.11454243957996368, 0.10192950814962387, -0.10380683094263077, 0.4643854796886444, 0.05178796872496605, -0.0813656598329544, -0.27763831615448, 0.12198172509670258, -0.12747569382190704, -0.016475657001137733, 0.05435708537697792, 0.09196773171424866, 0.2438591569662094, 0.18059444427490234, 0.16412830352783203, 0.07657001912593842, 0.1490381509065628, -0.07018493115901947, -0.23247002065181732, -0.1071757897734642, 0.008880287408828735, -0.13223382830619812, -0.1420556604862213, 0.012926798313856125, 0.13670489192008972, 0.10258396714925766, 0.2348000556230545, 0.15496711432933807, -0.26918238401412964, -0.17415641248226166, 0.10520341992378235, 0.005601128563284874, 0.0793391689658165, -0.22916994988918304, -0.34369251132011414, 0.15877078473567963, 0.11778521537780762, -0.1904037743806839, 0.06802381575107574, -0.22615870833396912, 0.2737857401371002, 0.26798179745674133, 0.2941237688064575, -0.23025912046432495, -0.23738114535808563, 0.253180593252182, 0.3197114169597626, 0.11613612622022629, 0.0853862464427948, -0.04846595227718353, 0.20738734304904938, -0.36413949728012085, 0.0971391573548317, -0.10174772143363953, -0.2269383817911148, 0.03830348700284958, -0.13974976539611816, -0.43238791823387146, -0.2348361760377884, -0.2816252112388611, 0.18863075971603394, -0.22916695475578308, -0.1469305455684662, 0.02776162512600422, -0.14968574047088623, -0.25492143630981445, 0.20243985950946808, 0.4540422260761261, 0.08628745377063751, -0.2699865400791168, 0.13602355122566223, 0.16754275560379028, -0.2642802298069, -0.10353392362594604, 0.38699474930763245, -0.40604883432388306, -0.6065794825553894, 0.11657077819108963, 0.3302663564682007, -0.018986497074365616, 0.3039509356021881, 0.39361268281936646, 0.25433725118637085, 0.11154279857873917, 0.43654024600982666, -0.27639153599739075, -0.12567269802093506, 0.22597527503967285, 0.2591378092765808, 0.30791816115379333, -0.15679877996444702, 0.11003207415342331, -0.03265858441591263, -0.11124629527330399, 0.1048525869846344, -0.004389271605759859, 0.01479552872478962, -0.13201601803302765, -0.1214882954955101, -0.20558811724185944, -0.13228829205036163, 0.23117013275623322, 0.24194958806037903, 0.22167159616947174, 0.1992836892604828, 0.054743003100156784, -0.10979090631008148, 0.3047351539134979, -0.14754338562488556, -0.2830120027065277, -0.27982330322265625, -0.26044031977653503, -0.24988651275634766, -0.5454772114753723, -0.2642455995082855, -0.02819046750664711, -0.202446848154068, 0.45326441526412964, -0.2894158363342285, -0.3818138539791107, -0.17280638217926025, -0.2934412956237793, 0.0667787566781044, 0.003577060764655471, -0.14150388538837433, -0.30404630303382874, -0.03572169318795204, 0.19904716312885284, 0.3301776051521301, -0.1463036835193634, -0.18751856684684753, 0.4371560215950012, 0.25258558988571167, -0.40875357389450073, 0.007523265201598406, 0.2692231833934784, -0.32867828011512756, -0.3658697307109833, -0.02841392531991005, 0.07863238453865051, -0.2423737347126007, 0.06957398355007172, 0.28728941082954407, 0.20076711475849152, 0.022970881313085556, -0.1295231729745865, 0.14015203714370728, 0.3095288872718811, 0.037454549223184586, -0.26271525025367737, -0.1607324630022049, 0.38526657223701477, 0.1582634001970291, 0.2621532082557678, 0.0821865051984787, -0.18926458060741425, 0.3261963427066803, 0.24685309827327728, 0.3312123119831085, 0.21810460090637207, -0.22675968706607819, 0.3507089614868164, 0.10563725233078003, -0.31526273488998413, 0.29460251331329346, 0.29951125383377075, -0.12900328636169434, 0.0493149496614933, 0.08531156182289124, 0.00015049250214360654, 0.38248294591903687, -0.24095475673675537, -0.45087721943855286, 0.3653816878795624, 0.28950557112693787, 0.3715861439704895, 0.11030106991529465, 0.06108969449996948, 0.09910093992948532, -0.2381192445755005, 0.2449537217617035, -0.14923252165317535, 0.1842793971300125, 0.1886865347623825, 0.09099714457988739, -0.013187579810619354, 0.10246733576059341, -0.16425958275794983, -0.11876703798770905, -0.048860035836696625, 0.07556438446044922, -0.023970739915966988, 0.05435517057776451, -0.1280226856470108, 0.1323906034231186, -0.1935987025499344, -0.03293077275156975, 0.012605232186615467, 0.05310026928782463, 0.010744631290435791, 0.050519898533821106, -0.0015898881247267127, -0.12381948530673981, -0.05705173313617706, -0.5120626091957092, -0.021949337795376778, 0.05112269148230553, 0.13069728016853333, 0.04680023342370987, -0.28208500146865845, -0.004731107968837023, 0.04391755908727646, -0.3146459460258484, -0.16611988842487335, 0.31892889738082886, 0.32707780599594116, 0.22804948687553406, 0.2323872148990631, -0.18848390877246857, -0.42117583751678467, 0.16646568477153778, 0.06410927325487137, -0.19681598246097565, -0.4045667052268982, -0.024372566491365433, 0.2982671558856964, -0.05988870933651924, -0.23910659551620483, -0.12060894072055817, -0.39334478974342346, 0.2069365233182907, 0.058798160403966904, -0.11217165738344193, -0.21248866617679596, -0.08210555464029312, 0.2862181067466736, -0.426168292760849, -0.06988106667995453, 0.6252946853637695, -0.16439856588840485, -0.1463998556137085, 0.5476565361022949, 0.14730866253376007, 0.505894124507904, -0.263480007648468, 0.20381192862987518, -0.1569347232580185, -0.378627210855484, -0.00259949523024261, 0.07355702668428421, 0.15631641447544098, -0.1760323941707611, -0.2333257645368576, 0.09208392351865768, -0.10270892828702927, -0.052990492433309555, 0.3125670850276947, -0.2298799604177475, 0.05114677920937538, 0.05559971556067467, 0.050186727195978165, -0.10198348015546799, 0.17645575106143951, -0.02469964511692524, -0.0520196370780468, -0.03857579082250595, -0.016858825460076332, -0.11187136918306351, -0.29190006852149963, 0.275157630443573, 0.03175506368279457, -0.1604182869195938, -0.28889814019203186, 0.13776832818984985, -0.24466560781002045, 0.19723787903785706, 0.1153334230184555, -0.2988663911819458, -0.0401119627058506, -0.20718002319335938, -0.1473916471004486, -0.2510000765323639, -0.2094617336988449, 0.33348894119262695, -0.2348974049091339, -0.16906659305095673, 0.057263024151325226, -0.04032646864652634, -0.0758122056722641, 0.11989922821521759, 0.09183315187692642, 0.07767558097839355, -0.20135527849197388, 0.10580013692378998, 0.18917876482009888, -0.3199215233325958, -0.1987462341785431, -0.24217624962329865, -0.14342372119426727, 0.013262900523841381, -0.047459956258535385, 0.5410940051078796, 0.013998694717884064, 0.17680701613426208, -0.15118390321731567, 0.25719231367111206, 0.12118782848119736, 0.004907344933599234, 0.20272883772850037, 0.11547244340181351, 0.08968869596719742, -0.027560774236917496, -0.026503650471568108, -0.29206517338752747, -0.37235283851623535, -0.5932119488716125, 0.37591418623924255, -0.18005558848381042, -0.19350184500217438, 0.34055694937705994, -0.24353939294815063, -0.47195982933044434, 0.0502280555665493, -0.07264070957899094, -0.012484962120652199, 0.17299678921699524, -0.20511755347251892, -0.2735908031463623, 0.0647784098982811, 0.204739511013031, 0.16728132963180542, -0.2801589071750641, 0.04589288681745529, -0.32203689217567444, 0.028164152055978775, -0.18245519697666168, 0.02498973347246647, -0.18585723638534546, 0.02435377426445484, 0.023754147812724113, -0.4841209352016449, -0.2477310597896576, -0.015132035128772259, 0.42839452624320984, 0.05774137005209923, -0.09132960438728333, 0.10262598842382431, -0.3401173949241638, 0.11697927862405777, 0.0895620733499527, 0.12651464343070984, 0.037681084126234055, -0.2863699197769165, 0.11612085998058319, 0.05645965784788132, -0.19640259444713593, -0.06475004553794861, -0.15397179126739502, -0.08587830513715744, -0.14053162932395935, 0.23482827842235565, 0.058547332882881165, -0.0073532527312636375, -0.17676272988319397, 0.22268016636371613, -0.2747405767440796, -0.009555194526910782, 0.13022497296333313, 0.3756234347820282, -0.41303300857543945, 0.11137032508850098, 0.04521142691373825, -0.2622532844543457, 0.09659411758184433, 0.17167909443378448, 0.041754111647605896, 0.016541602090001106, 0.21665559709072113, 0.156969353556633, 0.057691995054483414, 0.3024003803730011, -0.09906503558158875, 0.11722220480442047, 0.28690966963768005, -0.31303727626800537, -0.050039105117321014, 0.007344541139900684, 0.02072790451347828, 0.1523950695991516, -0.08322325348854065, 0.013656264171004295, 0.15149709582328796, -0.02864101529121399, -0.05205170065164566, -0.04053482785820961, -0.007972920313477516, 0.22952251136302948, 0.11886579543352127, -0.1448763757944107, 0.10381976515054703, 0.03793301805853844, -0.18923772871494293, 0.09514077007770538, 0.15170422196388245, -0.08593446761369705, 0.02298697642982006, -0.11040545254945755, -0.04124999791383743, -0.14202813804149628, -0.24280942976474762, -0.06327900290489197, -0.05213148146867752, 0.03985225781798363, 0.07041046023368835, 0.1094728410243988, 0.03213397040963173, 0.05450510233640671, -0.04991578310728073, 0.035473644733428955, -0.016291121020913124, -0.08688505738973618, -0.007068326231092215, 0.2246297150850296, 0.1417318731546402, 0.2324410080909729, -0.18502692878246307, 0.07616586238145828, 0.11982012540102005, -0.3224062919616699, -0.1604735106229782, 0.2270680069923401, -0.17509180307388306, -0.11120375245809555, -0.07255589962005615, 0.11961700022220612, -0.24520409107208252, -0.11727262288331985, 0.15657098591327667, 0.01601981185376644, -0.07981634885072708, 0.11497584730386734, -0.29837295413017273, -0.10402235388755798, -0.4846688210964203, -0.018635693937540054, -0.017147544771432877, -0.36475667357444763, -0.2241431325674057, -0.358277291059494, -0.050702713429927826, 0.13796648383140564, 0.026429705321788788, -0.1464921087026596, 0.1945541352033615, 0.1938333809375763, 0.4875628650188446, 0.4299883544445038, 0.4924221634864807, 0.02622244693338871, -0.28783705830574036, 0.019453607499599457, 0.11521345376968384, -0.25411999225616455, 0.10379266738891602, 0.37573662400245667, 0.05238781124353409, -0.09283403307199478, 0.08320779353380203, -0.2624988257884979, -0.07873041182756424, -0.06612539291381836, -0.13721390068531036, -0.1259528547525406, 0.13708750903606415, 0.07552295923233032, 0.1495300531387329, 0.10609379410743713, 0.2398947924375534, 0.2945934236049652, 0.06781916320323944, 0.10133093595504761, 0.3409445881843567, 0.15728436410427094, 0.1960151493549347, -0.19051866233348846, -0.10893610864877701, -0.33824437856674194, -0.1544530838727951, -0.08593016117811203, 0.0685935765504837, -0.14753654599189758, 0.00016958500782493502, 0.16464194655418396, 0.2937793731689453, -0.026597263291478157, -0.019868912175297737, 0.16255265474319458, 0.036332350224256516, -0.06423421949148178, -0.06815065443515778, -0.09274495393037796, 0.12797296047210693, -0.031247185543179512, 0.15957939624786377, -0.15922775864601135, -0.016726378351449966, 0.10233281552791595, 0.014485185034573078, 0.36851200461387634, 0.12812894582748413, 0.16785728931427002, 0.024381296709179878, -0.21588745713233948, -0.2697952687740326, -0.4012797474861145, 0.12296387553215027, 0.013927976600825787, -0.04710977524518967, -0.12568186223506927, -0.013626199215650558, 0.09344659000635147, -0.138376384973526, 0.10678346455097198, 0.07580898702144623, -0.013034540228545666, -0.1563730090856552, 0.05498241260647774, 0.04973489046096802, 0.000986047089099884, -0.2765442728996277, -0.09797284752130508, -0.12003123760223389, -0.3551124632358551, -0.0031148511916399, -0.05833975225687027, -0.07204680889844894, -0.0945485383272171, -0.013986948877573013, 0.18089596927165985, 0.018930654972791672, -0.04935711622238159, -0.030351879075169563, -0.12405605614185333, -0.09377418458461761, 0.1153411865234375, -0.17915789783000946, -0.1148323193192482, -0.1230757012963295, -0.07167742401361465, -0.09070777148008347, -0.18025825917720795, -0.10808884352445602, -0.07321862131357193, -0.004161868244409561, -0.034966133534908295, 0.05089037865400314, 0.10530482232570648, 0.18473295867443085, 0.011491206474602222, 0.009469238109886646, 0.011364101432263851, -0.11531071364879608, 0.1881934404373169, 0.2088652104139328, 0.15496866405010223, -0.06024179980158806, 0.2070920318365097, -0.16314628720283508, 0.1113705113530159, -0.25370141863822937, -0.08762755244970322, 0.05290120467543602, -0.032438188791275024, 0.057017114013433456, 0.03780439496040344, -0.04787537455558777, 0.04235238954424858, 0.06403263658285141, 0.13424231112003326, -0.03131302446126938, -0.037534378468990326, 0.12173496931791306, 0.053932759910821915, 0.02470245771110058, 0.023169472813606262, 0.17844337224960327, -0.09059884399175644, -0.12876954674720764, -0.1885177195072174, -0.2747865319252014, 0.09890163689851761, 0.20587700605392456, 0.34909486770629883, 0.29725509881973267, 0.0660838782787323, 0.03417062386870384, 0.30834293365478516, 0.10654493421316147, 0.13689616322517395, -0.14633193612098694, 0.05593269690871239, -0.10796847194433212, 0.18167398869991302, -0.1576123833656311, -0.25382280349731445, -0.28566065430641174, -0.10616614669561386, 0.07061871886253357, 0.015917997807264328, -0.01147998683154583, 0.15022903680801392, -0.0661870613694191, 0.06582409143447876, -0.15326392650604248, -0.11906922608613968, -0.011871312744915485, -0.12994804978370667, 0.22400008141994476, -0.044480934739112854, 0.06215861439704895, 0.09655065089464188, 0.12210895121097565, 0.053057506680488586, -0.03316405415534973, -0.055892836302518845, -0.1478690207004547, -0.16586969792842865, -0.12393396347761154, 0.24493525922298431, -0.19432060420513153, -0.05883480980992317, -0.10827960819005966, 0.09953238815069199, 0.18253512680530548, -0.03178105130791664, -0.03245529159903526, 0.04015076905488968, 0.2540222108364105, -0.08000379055738449, 0.019332997500896454, -0.1375059187412262, 0.0046799094416201115, 0.060943324118852615, -0.10353612899780273, 0.12905336916446686, -0.1485663503408432, -0.012646391056478024, -0.09544925391674042, 0.2797333598136902, 0.14175479114055634, 0.13542833924293518, -0.1665651798248291, 0.21784506738185883, -0.20544332265853882, 0.0015068056527525187, 0.21698865294456482, 0.01886563003063202, 0.21145285665988922, -0.23359903693199158, -0.15384289622306824, -0.08272481709718704, 0.153502956032753, -0.0032138691749423742, -0.0001345139608019963, 0.06950286030769348, 0.07232953608036041, -0.1136118546128273, -0.07069424539804459, -0.12809796631336212, -0.23762106895446777, -0.11664676666259766, -0.09314917773008347, -0.2157021313905716, -0.09817776083946228, -0.17655345797538757, 0.030408846214413643, -0.020128782838582993, -0.08849190920591354, 0.0025489521212875843, -0.020591428503394127, 0.21147559583187103, 0.21865299344062805, -0.03192406892776489, 0.03155805543065071, -0.05295010283589363, -0.15773014724254608, 0.09542534500360489, 0.15023674070835114, 0.30976372957229614, -0.24235570430755615, -0.02546457201242447, 0.0020836116746068, -0.1616058647632599, -0.07218563556671143, -0.1402675211429596, -0.04640691727399826, -0.21423006057739258, -0.0978793278336525, 0.11254631727933884, 0.23963147401809692, 0.2346160113811493, -0.020771203562617302, -0.060160525143146515, -0.13214126229286194, 0.18724791705608368, 0.3772887587547302, 0.37595832347869873, -0.08273027092218399, -0.16254693269729614, -0.21262025833129883, 0.3251858055591583, 0.2905040383338928, 0.2851233184337616, -0.04940059036016464, -0.02320953458547592, 0.06507791578769684, 0.0356091670691967, 0.20536507666110992, 0.14792793989181519, 0.05461595952510834, 0.08979502320289612, 0.14893001317977905, 0.07420647144317627, 0.27381181716918945, -0.07324813306331635, 0.13046710193157196, -0.16231802105903625, -0.1755877137184143, 0.04631685093045235, -0.009301404468715191, -0.2076670527458191, -0.14961470663547516, -0.1547546535730362, -0.00450186338275671, -0.364140123128891, -0.038963865488767624, 0.11735474318265915, 0.04403798654675484, 0.07582578808069229, -0.02297530323266983, 0.09143626689910889, 0.12011011689901352, -0.10735558718442917, -0.13749843835830688, 0.22053015232086182, 0.004210443235933781, 0.09395267814397812, 0.023366732522845268, 0.1942855417728424, 0.20187240839004517, 0.19619816541671753, 0.0806233212351799, 0.07651093602180481, -0.05644872412085533, -0.22511672973632812, -0.04725326970219612, 0.182165265083313, 0.019015340134501457, -0.38520342111587524, -0.19009913504123688, 0.053828634321689606, -0.08728711307048798, 0.06085843965411186, 0.012923786416649818, -0.027546271681785583, 0.029665982350707054, -0.09652567654848099, 0.1324949413537979, 0.19420373439788818, -0.24680769443511963, 0.12969109416007996, -0.1027117520570755, -0.12778064608573914, -0.13899201154708862, 0.01792152412235737, 0.08797493577003479, -0.12216492742300034, 0.052602365612983704, 0.008434870280325413, 0.1902187466621399, 0.04581514373421669, -0.07327472418546677, 0.17598743736743927, 0.1301390379667282, -0.010744423605501652, 0.10011477023363113, 0.018995072692632675, -0.1231558620929718, 0.192262202501297, -0.13618570566177368, -0.23973619937896729, -0.17020650207996368, 0.09468943625688553, 0.10193382203578949, 0.1802244484424591, -0.1004832535982132, 0.04261475056409836, -0.20913748443126678, -0.11916790902614594, 0.13037212193012238, -0.07580754160881042, 0.16290025413036346, 0.0528583787381649, -0.1572524607181549, -0.009117301553487778, -0.06202245503664017, 0.05769560858607292, -0.01567407138645649, 0.037955157458782196, 0.255234032869339, -0.18798024952411652, -0.10152911394834518, 0.20141145586967468, -0.020516226068139076, 0.07128498703241348, 0.07942526787519455, -0.028323370963335037, -0.05298306792974472, -0.063556008040905, 0.035102277994155884, -0.027001408860087395, -0.0282475333660841, 0.0919899120926857, 0.07766424119472504, 0.04270067438483238, -0.19921185076236725, 0.07379508018493652, -0.2572837173938751, 0.3648110628128052, 0.05260579660534859, 0.14200115203857422, -0.09332483261823654, -0.09635214507579803, -0.0630071759223938, -0.10688871145248413, -0.1790478229522705, -0.023315301164984703, 0.023485694080591202, 0.0015042780432850122, -0.12236199527978897, 0.056455936282873154, 0.11503580957651138, -0.16837811470031738, -0.028287410736083984, 0.23585890233516693, -0.016652820631861687, 0.048875223845243454, 0.21620114147663116, 0.24058526754379272, -0.3862036168575287, 0.09620175510644913, 0.003422265639528632, -0.2163332849740982, 0.2417955994606018, -0.0073569416999816895, 0.12436904013156891, -0.027418045327067375, 0.11918878555297852, 0.15321066975593567, -0.29936155676841736, -0.0775085911154747, -0.211228147149086, -0.27686411142349243, 0.16732998192310333, -0.004676654934883118, -0.3036736845970154, 0.07516400516033173, -0.21746791899204254, 0.11575675755739212, -0.1995612233877182, -0.1578143984079361, 0.23819434642791748, 0.11640794575214386, -0.140230193734169, -0.1919829547405243, -0.38404539227485657, 0.04988600313663483, -0.1201896145939827, -0.15580850839614868, -0.07250111550092697, -0.3247987627983093, -0.11235702037811279, -0.15129825472831726, -0.13371597230434418, -0.027392178773880005, 0.13700181245803833, -0.01009399350732565, 0.19153942167758942, -0.029187873005867004, 0.22152945399284363, -0.059025686234235764, -0.13559523224830627, -0.03663298115134239, -0.01228435430675745, 0.09690374881029129, 0.13628451526165009, 0.2970503866672516, -0.34550201892852783, -0.19754216074943542, -0.059099677950143814, -0.14379045367240906, 0.15807124972343445, -0.16537535190582275, -0.11406930536031723, -0.1924830675125122, 0.13365201652050018, 0.13766548037528992, -0.2065613865852356, 0.270926296710968, -0.16778835654258728, -0.0675133466720581, 0.0796254575252533, 0.1572921872138977, -0.17459455132484436, -0.0444713830947876, -0.08701363950967789, 0.013991898857057095, -0.014067086391150951, -0.12449003756046295, 0.03358185663819313, -0.04916587471961975, 0.17361876368522644, -0.20510052144527435, -0.06036614254117012, -0.0717586874961853, 0.018947072327136993, 0.23570652306079865, 0.13946954905986786, -0.015068404376506805, 0.04266287386417389, 0.04307906702160835, -0.1221892461180687, -0.17573228478431702, -0.04189370200037956, 0.07305371761322021, 0.14820198714733124, 0.13203004002571106, 0.002819813322275877, -0.06870128959417343, -0.07612940669059753, -0.130685955286026, -0.02962947078049183, -0.2009681910276413, -0.061726927757263184, -0.02428724430501461, 0.05193701386451721, -0.1265316754579544, -0.24671661853790283, 0.004101484082639217, 0.18743959069252014, 0.11350751668214798, -0.08507370948791504, -0.33607229590415955, 0.023614639416337013, 0.0013632476329803467, -0.056550052016973495, -0.39038679003715515, -0.12827250361442566, 0.07551807165145874, -0.0635884553194046, 0.1532355099916458, -0.07052631676197052, 0.17178846895694733, 0.09363238513469696, 0.07385483384132385, -0.10329052805900574, 0.04032609611749649, 0.13805092871189117, 0.2527015209197998, 0.1099429726600647, -0.17340564727783203, 0.14136835932731628, -0.16400763392448425, 0.25488904118537903, 0.15034329891204834, 0.24198387563228607, -0.18643829226493835, -0.08462376892566681, 0.16920679807662964, 0.06591274589300156, 0.11457034945487976, 0.12256091833114624, 0.21138833463191986, -0.03583396226167679, -0.6102676391601562, 0.20078077912330627, 0.5384844541549683, -0.5309408903121948, 0.05023937299847603, -0.8589661717414856, -0.10255394130945206, -0.24238939583301544, 0.6708225011825562, -0.8259847164154053, -0.7800950407981873, -0.8724973201751709, 0.22548288106918335, -0.5712047219276428, 0.48357006907463074, -0.7026708126068115, -0.1725727617740631, -0.21873562037944794, 0.17440403997898102, 0.22792662680149078, 0.04936254397034645, 0.06618131697177887, -0.1160569041967392, -0.04262217879295349, -0.09041406214237213, 0.09222453832626343, 0.09994291514158249, 0.17554724216461182, 0.13167141377925873, 0.3022320568561554, 0.10327061265707016, 0.11374273151159286, -0.05579022318124771, -0.12234783172607422, 0.09733209013938904, -0.1308150291442871, -0.4314802289009094, -0.007015468552708626, -0.3486069440841675, -0.19259731471538544, 0.20112773776054382, -0.10569699108600616, -0.003923770505934954, 0.3779756724834442, 0.24886395037174225, 0.11341192573308945, 0.08465643227100372, 0.36628293991088867, -0.0707436352968216, -0.25970807671546936, 0.09652013331651688, 0.31553104519844055, 0.056752510368824005, 0.12824638187885284, -0.1248013898730278, 0.17411066591739655, -0.13199590146541595, 0.08427765965461731, -0.17417071759700775, -0.2316458821296692, 0.01681765541434288, 0.24441736936569214, 0.07449758052825928, 0.023483896628022194, 0.2408287525177002, 0.2527855634689331, -0.3471374213695526, -0.10164933651685715, 0.03284037113189697, 0.1593324989080429, -0.15408797562122345, 0.0015771467005833983, -0.17784784734249115, 0.006405028514564037, -0.0965324193239212, 0.23336878418922424, -0.08425396680831909, -0.13603748381137848, -0.059835318475961685, -0.05890379846096039, 0.34583377838134766, 0.10867813974618912, -0.3341096043586731, -0.0627480149269104, 0.39389747381210327, 0.036843787878751755, 0.04759408161044121, 0.4009062945842743, -0.049470044672489166, -0.20198100805282593, -0.02866358309984207, 0.5709512233734131, -0.45858994126319885, 0.140382781624794, -0.16399136185646057, -0.48437264561653137, -0.23536625504493713, -0.07541842013597488, -0.14587818086147308, -0.15508140623569489, 0.07344985753297806, -0.18753527104854584, 0.2244366705417633, 0.05510435998439789, 6.89875814714469e-05, 0.0031036478467285633, 0.13140176236629486, -0.06031586974859238, -0.2338169515132904, -0.19580553472042084, -0.010650861077010632, 0.09840739518404007, 0.2385750412940979, -0.13883206248283386, 0.10402140766382217, -0.10254818946123123, 0.21709378063678741, 0.3320760130882263, -0.3600078523159027, -0.3265153765678406, 0.39787301421165466, 0.03290171921253204, -0.1500806361436844, 0.19178947806358337, -0.10122153908014297, -0.031228190287947655, 0.017521120607852936, -0.08278173953294754, 0.1686939299106598, -0.07599687576293945, 0.02718701958656311, -0.061345525085926056, 0.23961569368839264, -0.11641029268503189, 0.0267706960439682, 0.040586601942777634, 0.04682476073503494, 0.1419994980096817, -0.14106930792331696, 0.1306406408548355, -0.048041440546512604, 0.05492962896823883, 0.12416252493858337, 0.11007140576839447, -0.13914477825164795, 0.07577864825725555, -0.13867194950580597, -0.16738371551036835, -0.2958299219608307, -0.23645804822444916, -0.1436469703912735, -0.23476950824260712, 0.2109382003545761, 0.16010108590126038, 0.061292845755815506, 0.013255823403596878, 0.08516804128885269, 0.1515733301639557, -0.22698824107646942, 0.23816978931427002, -0.11879046261310577, -0.028264103457331657, -0.0626538023352623, -0.028582794591784477, 0.30938810110092163, -0.04211312159895897, 0.3650602400302887, -0.02607102133333683, -0.07311393320560455, -0.08089026063680649, 0.23345933854579926, 0.2507338225841522, -0.048022035509347916, 0.05355424806475639, 0.2064947634935379, -0.33906543254852295, -0.1764630824327469, -0.016137119382619858, -0.12764617800712585, 0.04888862371444702, -0.22412213683128357, -0.22626778483390808, 0.016248730942606926, -0.09273093193769455, 0.28566426038742065, 0.3484949469566345, -0.3588085472583771, -0.19057369232177734, 0.47748619318008423, -0.04540932923555374, -0.001371244783513248, 0.07438037544488907, 0.32535621523857117, 0.4261415898799896, -0.4675035774707794, -0.1973136067390442, -0.14757904410362244, -0.03588872775435448, -0.04396314173936844, 0.32665014266967773, -0.42691895365715027, 0.1511593908071518, 0.26490235328674316, -0.011079995892941952, 0.07145772874355316, -0.22370605170726776, -0.1488955318927765, -0.037213750183582306, -0.1689838021993637, -0.17856726050376892, -0.17681315541267395, 0.20207680761814117, -0.17314864695072174, 0.10919617116451263, -0.3910215497016907, 0.17281882464885712, 0.02070634998381138, -0.0738944560289383, -0.31751617789268494, 0.253683477640152, 0.15709605813026428, -0.05387601628899574, -0.28392910957336426, -0.20304308831691742, 0.12294869869947433, -0.0539490170776844, -0.23360638320446014, 0.2508721649646759, -0.2831704914569855, 0.2219216376543045, -0.20507419109344482, -0.1557992398738861, 0.2775309979915619, 0.1954219788312912, 0.018304476514458656, 0.010084477253258228, 0.0574171282351017, 0.203551784157753, 0.038386691361665726, -0.08220415562391281, 0.1105925440788269, 0.331963449716568, -0.11516764014959335, -0.23367178440093994, 0.33710360527038574, -0.0648656114935875, 0.17835727334022522, -0.2401716560125351, 0.11984577029943466, -0.22111950814723969, -0.06832360476255417, -0.06804037094116211, -0.3449585437774658, -0.08852320164442062, 0.3270949423313141, -0.07138200849294662, 0.01263689436018467, -0.26546627283096313, 0.04049047455191612, -0.05481988564133644, -0.22671018540859222, 0.1168879047036171, 0.10798059403896332, 0.14076711237430573, 0.18012964725494385, -0.14016753435134888, 0.15114949643611908, 0.06045651435852051, -0.1578541100025177, 0.28018373250961304, -0.07692582160234451, -0.3106953203678131, -0.1566535234451294, 0.0018183676293119788, -0.003817185526713729, -0.0859014242887497, -0.15574190020561218, 0.031260017305612564, 0.16189824044704437, 0.10048247873783112, 0.07544275373220444, 0.0012594815343618393, 0.08909256756305695, -0.3210378587245941, -0.005037885159254074, -0.27287498116493225, -0.006264800671488047, -0.06707010418176651, -0.10593501478433609, -0.04251682385802269, -0.19206374883651733, -0.0813354030251503, -0.17706279456615448, 0.0060896980576217175, 0.0045061130076646805, 0.033024854958057404, 0.10246094316244125, 0.1269114464521408, -0.0713576227426529, -0.005289846565574408, 0.12774616479873657, 0.0313141904771328, -0.01386477891355753, 0.15835504233837128, 0.0397498682141304, -0.04668214172124863, -0.2198837697505951, 0.01979248970746994, 0.08438742905855179, 0.14689752459526062, 0.17201603949069977, -0.10816043615341187, -0.17349137365818024, 0.02387171983718872, -0.005549381487071514, 0.15931351482868195, 0.10538453608751297, -0.11638256907463074, -0.03496750444173813, -0.07472943514585495, -0.02204153686761856, -0.08554506301879883, 0.06173084303736687, 0.047183554619550705, -0.04752308875322342, -0.12582150101661682, 0.16724707186222076, -0.2175348550081253, 0.0676829144358635, 0.015235048718750477, 0.19929853081703186, 0.0266099963337183, -0.10003938525915146, 0.2131733000278473, 0.0040148296393454075, -0.02357129007577896, -0.13995882868766785, -0.10738637298345566, 0.13749882578849792, -0.20315584540367126, 0.0688050240278244, -0.11595413833856583, -0.05708642676472664, 0.039395205676555634, 0.26895350217819214, 0.10406816005706787, -0.14235913753509521, -0.028507079929113388, 0.335355281829834, -0.26075005531311035, -0.06432964652776718, -0.021448832005262375, 0.05544504523277283, -0.23089510202407837, 0.061332765966653824, -0.15587781369686127, 0.20016810297966003, -0.033605486154556274, -0.03803819417953491, -0.14963966608047485, 0.19242270290851593, 0.12951111793518066, 0.04830452427268028, 0.21975702047348022, 0.1370764970779419, 0.004432071465998888, 0.0831778421998024, 0.2938899099826813, 0.19304291903972626, -0.13064803183078766, -0.2751988172531128, 0.022051075473427773, 0.22887296974658966, 0.2748875617980957, 0.21275079250335693, -0.030971437692642212, -0.05671541020274162, -0.014027311466634274, 0.06556686758995056, 0.35626745223999023, 0.03414856269955635, 0.1972571611404419, -0.022113746032118797, -0.22942832112312317, 0.26836085319519043, -0.034641657024621964, -0.022276021540164948, 0.2459506392478943, 0.01600220426917076, -0.15491794049739838, 0.21166497468948364, -0.11569090932607651, -0.044901616871356964, -0.05279296264052391, -0.08696980029344559, 0.06732689589262009, -0.0980077013373375, -0.129491925239563, 0.12389148771762848, 0.042343564331531525, 0.0863504484295845, 0.03448798507452011, 0.11115826666355133, 0.12859590351581573, -0.09400905668735504, -0.2450207620859146, 0.266656756401062, 0.06043482944369316, 0.17901140451431274, -0.1038501188158989, -0.08879983425140381, -0.10191554576158524, 0.17612828314304352, 0.005097668617963791, 0.055700574070215225, 0.07359689474105835, 0.0015478639397770166, 0.02398037351667881, -0.24919787049293518, 0.010863802395761013, 0.3475315570831299, -0.20468997955322266, 0.01139821857213974, 0.07769181579351425, 0.0070350333116948605, -0.022888967767357826, -4.224224903737195e-05, 0.0036952404771000147, 0.00948831345885992, -0.21929438412189484, 0.09829017519950867, 0.24727384746074677, -0.34900447726249695, -0.16897621750831604, 0.05417349934577942, -0.14614355564117432, 0.057712454348802567, -0.12089624255895615, 0.27524682879447937, 0.20157577097415924, 0.039251092821359634, 0.2292691320180893, -0.14373472332954407, -0.12807543575763702, 0.0018148691160604358, -0.2511194050312042, -0.313490092754364, -0.24878348410129547, -0.02978135272860527, 0.047803327441215515, 0.14763124287128448, -0.079569973051548, -0.24532751739025116, -0.10065535455942154, 0.18601465225219727, 0.19802266359329224, 0.16236872971057892, 0.05801815167069435, 0.3225482404232025, -0.19868449866771698, 0.04848222807049751, 0.027385657653212547, -0.23961350321769714, -0.04036571457982063, 0.07934091985225677, 0.49796244502067566, -0.2492564171552658, -0.0736641138792038, 0.0044976891949772835, 0.024441378191113472, 0.2781272530555725, 0.17653025686740875, -0.0929836556315422, 0.03564880043268204, -0.07776454091072083, -0.033689774572849274, 0.04485953599214554, -0.2137535959482193, 0.14322204887866974, 0.277551531791687, -0.17476840317249298, -0.1255522221326828, -0.2099878489971161, -0.20415107905864716, 0.006607818882912397, 0.08028489351272583, -0.002830171724781394, 0.15900997817516327, -0.06495547294616699, -0.18750391900539398, 0.3036828637123108, -0.020182929933071136, -0.009922410361468792, 0.08763053268194199, 0.00628171069547534, 0.18338993191719055, -0.06775040924549103, -0.040046289563179016, -0.3402900993824005, -0.017763685435056686, 0.2251678854227066, 0.12866836786270142, -0.18282456696033478, 0.0900917649269104, -0.026077978312969208, 0.01589161343872547, 0.10439256578683853, 0.17602591216564178, -0.02386009506881237, -0.05955693870782852, -0.17755122482776642, -0.1121620163321495, -0.15000741183757782, -0.05592186748981476, 0.42160359025001526, 0.055309660732746124, -0.2327648550271988, 0.298109233379364, 0.05562084540724754, -0.2209300547838211, -0.028190813958644867, 0.19677424430847168, 0.1123911663889885, -0.2253250628709793, 0.09334634989500046, 0.16105109453201294, -0.18834006786346436, -0.2409994751214981, -0.197566956281662, -0.07587332278490067, -0.06986954063177109, 0.03236433118581772, -0.038137663155794144, 0.193363219499588, -0.3755980432033539, 0.0032973317429423332, 0.06544683873653412, -0.0235760398209095, -0.1071716696023941, 0.14930690824985504, 0.11681637167930603, -0.12007741630077362, -0.03648880496621132, 0.004193385597318411, -0.11197376251220703, 0.04333503916859627, -0.0926031842827797, 0.09781769663095474, 0.09659865498542786, 0.09755861014127731, -0.1782074272632599, 0.1463657021522522, -0.0578136220574379, 0.02116222307085991, -0.03322736918926239, 0.14150632917881012, -0.05008808523416519, -0.03488096222281456, 0.0078051891177892685, 0.31360456347465515, 0.193024143576622, -0.10157188028097153, 0.23863625526428223, -0.037658821791410446, 0.215943843126297, -0.13358372449874878, -0.04649678245186806, -0.1061021015048027, 0.050318680703639984, 0.2100430130958557, 0.11622221767902374, -0.09727030247449875, -0.200969398021698, 0.40602999925613403, 0.07298589497804642, 0.10540514439344406, 0.09800593554973602, -0.2222316712141037, -0.3103469908237457, 0.22445227205753326, -0.2094501405954361, -0.016598138958215714, 0.22278615832328796, -0.17765900492668152, -0.1472209244966507, -0.24409164488315582, 0.04006398841738701, 0.02710399031639099, -0.6003438830375671, -0.14760783314704895, 0.10725411772727966, -0.13270661234855652, 0.1595917046070099, -0.07145386189222336, 0.15811169147491455, -0.04143141955137253, -0.037100665271282196, 0.13881376385688782, 0.15008972585201263, -0.10504959523677826, 0.04114603251218796, 0.0600103996694088, -0.07564026117324829, -0.11128246039152145, 0.20798899233341217, -0.14316733181476593, 0.3816240131855011, -0.05094245821237564, -0.24062947928905487, -0.2009434849023819, -0.06947709619998932, 0.3071889281272888, 0.05466361343860626, -0.08279432356357574, -0.41682347655296326, 0.053005024790763855, -0.1828290820121765, -0.09200891852378845, -0.1968473494052887, 0.2201468050479889, 0.12678080797195435, 0.0741380974650383, -0.14239077270030975, -0.11364273726940155, -0.2869676351547241, -0.11272216588258743, -0.3724936246871948, 0.03889858350157738, 0.09044698625802994, -0.057319290935993195, -0.41478481888771057, -0.06700748950242996, -0.00022908116807229817, -0.3275854289531708, 0.006775751709938049, 0.13041090965270996, -0.2506607174873352, -0.002088611014187336, -0.0970195084810257, 0.08448518812656403, 0.07320112735033035, 0.16939789056777954, -0.04503670334815979, -0.03162388876080513, -0.06002645194530487, 0.15474838018417358, 0.048331163823604584, 0.037007227540016174, 0.052520688623189926, 0.295646995306015, -0.00449990201741457, 0.06873227655887604, 0.06897805631160736, -0.14729972183704376, 0.04504217207431793, 0.09096940606832504, 0.08282361924648285, -0.22319947183132172, 0.13433121144771576, -0.14420340955257416, -0.131663978099823, 0.5529075264930725, 0.04779915139079094, -0.19926390051841736, -0.12093359977006912, -0.037984609603881836, 0.09862649440765381, -0.12963201105594635, 0.12601587176322937, 0.042387183755636215, -0.003231160808354616, -0.043328359723091125, -0.14899560809135437, -0.2027471959590912, -0.0026575459633022547, 0.020340347662568092, -0.04049130529165268, 0.13886164128780365, -0.2619469463825226, -0.12402071058750153, -0.04058850556612015, -0.045212697237730026, 0.20551420748233795, 0.1552978903055191, -0.0974634438753128, -0.016949638724327087, -0.07675163447856903, 0.07183238118886948, -0.15002363920211792, -0.048448752611875534, 0.17028234899044037, 0.044944629073143005, 0.1363220363855362, 0.1792086809873581, -0.1985965520143509, -0.054177433252334595, 0.006265704054385424, 0.053953174501657486, 0.09175526350736618, 0.1717105358839035, -0.052789926528930664, -0.10610370337963104, -0.25039517879486084, -0.0613456666469574, -0.16361412405967712, -0.14265188574790955, 0.29826459288597107, -0.08616134524345398, -0.34482020139694214, 0.037278059870004654, -0.2215644270181656, -0.04496654495596886, 0.045260731130838394, 0.14436906576156616, 0.3590655028820038, 0.13819997012615204, 0.021345170214772224, 0.31995052099227905, 0.02450101636350155, -0.11321116238832474, -0.27198854088783264, -0.01255539245903492, -0.11869792640209198, -0.04117586836218834, 0.15425218641757965, 0.19928467273712158, -0.18379302322864532, 0.10542677342891693, 0.16468368470668793, -0.05516489967703819, 0.10375192016363144, -0.17628569900989532, 0.193984255194664, 0.07110463827848434, -0.0015753619372844696, 0.04518331214785576, -0.08120982348918915, -0.04925181344151497, -0.19825376570224762, 0.07833031564950943, -0.04720915108919144, 0.1499202847480774, -0.27508676052093506, -0.06282109022140503, -0.08687188476324081, -0.07719533890485764, 0.10512255877256393, 0.20053860545158386, -0.16982223093509674, -0.019625883549451828, -0.22376808524131775, 0.03629681468009949, -0.06511363387107849, -0.10107291489839554, 0.38064369559288025, -0.129522442817688, -0.04791633039712906, 0.21656949818134308, -0.025848334655165672, -0.17093059420585632, -0.04609139263629913, 0.08280249685049057, 0.03917985036969185, -0.10324928164482117, -0.23223789036273956, 0.10806781053543091, -0.12393935024738312, -0.1805473417043686, 0.17557381093502045, -0.041785985231399536, 0.1418410837650299, -0.007577572017908096, 0.054613471031188965, 0.14198331534862518, 0.07503911852836609, -0.09075915068387985, 0.1988367885351181, 0.12355153262615204, 0.0035775606520473957, 0.05659253150224686, 0.11985265463590622, -0.12579667568206787, -0.09014511108398438, -0.1869293451309204, 0.10291247814893723, -0.12431834638118744, 0.17864513397216797, 0.1245959922671318, -0.15456339716911316, -0.017494376748800278, 0.24379025399684906, -0.07020436972379684, 0.0658288523554802, -0.035874463617801666, 0.14622622728347778, -0.05447803810238838, 0.172495037317276, 0.06097767502069473, -0.04274098575115204, -0.19586491584777832, 0.2659378945827484, 0.09276394546031952, -0.42791080474853516, 0.05538459122180939, 0.19290058314800262, -0.1557808220386505, 0.03661734238266945, 0.2066160887479782, -0.17710274457931519, -0.07790825515985489, -0.1470979005098343, 0.24386456608772278, -0.14702744781970978, 0.041848067194223404, 0.04626891389489174, 0.015146896243095398, 0.0698869526386261, -0.023256350308656693, 0.1499042958021164, 0.1323436200618744, 0.01138509251177311, -0.11087949573993683, 0.041327301412820816, 0.0993431955575943, -0.014583348296582699, -0.05333378538489342, -0.10741487890481949, 0.014287501573562622, 0.06631899625062943, 0.12525403499603271, 0.11517594754695892, -0.11507337540388107, -0.04467324912548065, 0.10605721920728683, 0.07256966829299927, 0.02221754938364029, -0.03889574110507965, 0.04330296441912651, -0.13985292613506317, -0.01993916742503643, -0.13768871128559113, -0.2407384216785431, -0.2632310390472412, -0.13538719713687897, -0.041441164910793304, 0.10585999488830566, -0.2031598687171936, -0.31773650646209717, -0.3225513994693756, 0.16210182011127472, 0.09010837227106094, -0.012457667849957943, 0.2468564659357071, -0.2367238998413086, 0.08035039156675339, -0.03367212414741516, -0.2078774869441986, 0.06579430401325226, -0.2586135268211365, -0.39186060428619385, 0.109902024269104, -0.0583786815404892, -0.211872398853302, 0.1562570482492447, 0.13711078464984894, 0.01800534874200821, 0.26824119687080383, 0.2797168493270874, 0.058625850826501846, -0.0490272119641304, 0.029478605836629868, -0.2575540244579315, -0.07926566153764725, 0.030069760978221893, -0.17309878766536713, -0.06849005818367004, 0.007990599609911442, -0.015526381321251392, 0.005578961689025164, -0.05954993516206741, 0.16065126657485962, 0.06421102583408356, 0.028217419981956482, 0.16523265838623047, -0.10040232539176941, -0.06294049322605133, 0.10814862698316574, -0.06296515464782715, 0.08150084316730499, -0.221990168094635, 0.005805938970297575, -0.21757477521896362, 0.20931214094161987, 0.08054984360933304, 0.29553043842315674, 0.24491842091083527, 0.2606573700904846, -0.012755068950355053, -0.48921525478363037, -0.005913969129323959, 0.15166856348514557, -0.12717321515083313, 0.03224818408489227, 0.1585095077753067, 0.05818546563386917, -0.039108093827962875, -0.14029456675052643, 0.18456637859344482, -0.18728695809841156, 0.04877706244587898, 0.1667269468307495, 0.12474630028009415, 0.23392704129219055, 0.0021127385552972555, 0.07877041399478912, 0.26339736580848694, -0.06522316485643387, -0.04230794310569763, 0.2663499414920807, -0.10707612335681915, -0.10442164540290833, -0.10206995159387589, -0.12089599668979645, 0.11554325371980667, -0.19469530880451202, -0.03795561194419861, 0.09144628047943115, -0.1685905158519745, 0.16314643621444702, -0.05494137480854988, 0.17765656113624573, -0.08393723517656326, -0.02139900252223015, -0.07005760073661804, 0.1325070559978485, -0.13109758496284485, 0.004167531616985798, 0.009410765953361988, -0.08036120980978012, -0.04345329478383064, 0.032699696719646454, 0.1369604915380478, 0.015753978863358498, 0.13271012902259827, -0.03506012633442879, -0.06449618935585022, -0.2594689428806305, 0.036186277866363525, -0.02506583370268345, 0.17069797217845917, -0.264655202627182, 0.14556841552257538, 0.03788188844919205, -0.16044463217258453, -0.3056558072566986, 0.0829508900642395, 0.007526527624577284, -0.12196854501962662, 0.013895953074097633, 0.010919363237917423, 0.16942544281482697, -0.07533577084541321, -0.05576089024543762, 0.04563317820429802, -0.3538486361503601, 0.00678117573261261, -0.13586685061454773, 0.021860452368855476, -0.03449729457497597, 0.11469319462776184, -0.27818140387535095, 0.05866480991244316, -0.1228245347738266, -0.25197383761405945, 0.11935838311910629, 0.04678547754883766, 0.16125795245170593, -0.12479206919670105, -0.014125187881290913, -0.418289452791214, -0.231788769364357, 0.09783782064914703, 0.2611440122127533, 0.1265379786491394, 0.14524072408676147, -0.09225989878177643, -0.17113688588142395, 0.3347638249397278, 0.3383152484893799, 0.2657434642314911, -0.10880596935749054, 0.0466902069747448, -0.288292795419693, -0.1340668499469757, 0.14915983378887177, 0.19551962614059448, 0.5125442743301392, 0.29024574160575867, -0.5752851366996765, -0.060558974742889404, -0.3429802656173706, -0.3211129903793335, -0.12547126412391663, 0.19378867745399475, 0.1717134416103363, 0.20223787426948547, 0.3781403601169586, 0.07119928300380707, -0.08740843832492828, 0.1254192441701889, 0.07313867658376694, 0.042265843600034714, 0.2263893336057663, 0.2530171573162079, -0.23594151437282562, 0.1588030606508255, 0.024676958099007607, -0.10659933090209961, 0.0451156422495842, -0.01732327789068222, 0.06547753512859344, 0.12040553241968155, 0.011313656345009804, 0.2127676159143448, -0.08539650589227676, 0.0755109041929245, 0.07922117412090302, 0.1308429092168808, 0.07827108353376389, 0.0708296075463295, -0.048649098724126816, 0.14494135975837708, -0.02351379580795765, -0.11967278271913528, -0.01765471138060093, -0.07984869182109833, -0.10842718183994293, -0.059551484882831573, -0.0821109414100647, 0.023336628451943398, 0.180548295378685, -0.11712896823883057, 0.2306452989578247, 0.007589868735522032, -0.1973305493593216, 0.1593572497367859, -0.19808553159236908, -0.008015496656298637, 0.14540725946426392, -0.06047026440501213, 0.22208353877067566, -0.22897310554981232, -0.004989068489521742, -0.10507237911224365, -0.1947457194328308, 0.05025329440832138, 0.06425387412309647, 0.08110784739255905, -0.01392330601811409, 0.11431135982275009, 0.21104314923286438, -0.018214253708720207, 0.027765804901719093, -0.12907923758029938, 0.02757852151989937, 0.033850185573101044, 0.127485990524292, 0.0008218942675739527, -0.22242899239063263, 0.02509857900440693, -0.02040373720228672, -0.05295225605368614, -0.03005913645029068, -0.6850857138633728, 0.7662349939346313, 0.2590509355068207, -0.30554020404815674, 0.35063451528549194, -0.22217939794063568, 0.08928409963846207, 0.5784322023391724, -0.5734742879867554, 0.7581722736358643, 0.6115311980247498, 0.006203408353030682, -0.5571348667144775, 0.5909723043441772, -0.48450711369514465, 0.24159693717956543, -0.1498274952173233, -0.05829108878970146, -0.48001259565353394, 0.27904394268989563, 0.45567944645881653, 0.04939299076795578, 0.205277681350708, 0.32816633582115173, 0.2478257268667221, -0.2038010209798813, 0.20302987098693848, -0.33226239681243896, -0.2214200496673584, -0.13415652513504028, 0.020567435771226883, 0.040899090468883514, 0.05570081248879433, -0.08123486489057541, 0.4165495038032532, 0.10393773019313812, -0.1685934066772461, -0.07383201271295547, -0.5905512571334839, -0.2955266237258911, 0.0893750935792923, 0.08408617973327637, -0.10123780369758606, 0.10754841566085815, 0.11488103121519089, 0.14961454272270203, -0.13010501861572266, -0.1533588171005249, -0.5233530402183533, 0.21313783526420593, -0.07285783439874649, -0.07652197778224945, -0.5347899794578552, 0.027858957648277283, -0.5674276351928711, -0.04925718158483505, -0.11049050092697144, 0.004518072586506605, 0.35186901688575745, 0.2694403827190399, 0.08552156388759613, 0.09793665260076523, -0.08988723903894424, 0.3430553376674652, 0.3028932809829712, 0.09596432000398636, -0.09434279799461365, 0.03777167946100235, 0.15895229578018188, -0.14332802593708038, 0.12607228755950928, 0.09362379461526871, -0.08832311630249023, -0.030287286266684532, 0.26581791043281555, -0.017843306064605713, 0.17198529839515686, 0.11447840929031372, -0.08520914614200592, 0.14104638993740082, 0.25937750935554504, 0.1978183388710022, -0.0690881758928299, -0.08098800480365753, -0.045520614832639694, 0.13856709003448486, -0.01674508862197399, 0.18996568024158478, -0.06576989591121674, -0.10562577098608017, -0.3314321041107178, 0.025145502761006355, -0.10183286666870117, 0.0925152599811554, -0.20154888927936554, -0.07230604439973831, -0.23991338908672333, 0.08492229133844376, 0.06817442923784256, -0.4459758400917053, -0.14434225857257843, 0.028581030666828156, -0.021856458857655525, 0.01327447034418583, -0.049773506820201874, 0.018276110291481018, 0.32355809211730957, 0.44390571117401123, 0.1813381463289261, 0.2163018435239792, -0.04008488729596138, -0.027883796021342278, 0.4180416166782379, -0.07198618352413177, -0.12807875871658325, 0.20092535018920898, -0.21377262473106384, 0.05114172399044037, -0.12681299448013306, -0.20650707185268402, 0.13843463361263275, 0.0849299356341362, -0.3600844740867615, 0.13512523472309113, 0.12776385247707367, 0.04269220307469368, 0.1916414052248001, 0.3318561613559723, 0.14495934545993805, -0.027740957215428352, -0.05536380782723427, -0.02337438054382801, 0.0694197490811348, -0.03529346361756325, -0.10210507363080978, -0.047144778072834015, -0.049294762313365936, 0.2778865694999695, 0.12753790616989136, 0.0668516755104065, 0.19940350949764252, 0.07732394337654114, -0.11044803261756897, -0.28838708996772766, 0.5017645359039307, 0.03095460869371891, 0.007517352234572172, 0.29292741417884827, -0.07317421585321426, -0.2805279791355133, 0.09739719331264496, -0.18325863778591156, 0.14569202065467834, -0.2547418475151062, -0.013036961667239666, -0.29624277353286743, 0.019405031576752663, 0.0577513612806797, 0.06934057176113129, 0.47078272700309753, -0.2532428205013275, -0.09919114410877228, 0.04906997084617615, 0.16623589396476746, 0.25919270515441895, -0.13029177486896515, 0.0207572840154171, -0.031086578965187073, -0.07887490093708038, 0.13466212153434753, -0.23307503759860992, -0.03129579871892929, -0.030475029721856117, 0.12630988657474518, -0.09161942452192307, 0.22737525403499603, -0.2774478793144226, -0.09523124247789383, -0.41137751936912537, 0.37049198150634766, -0.10127060115337372, 0.03784941881895065, 0.049372099339962006, 0.13460175693035126, 0.14333891868591309, -0.4740375876426697, 0.024110114201903343, -0.09413057565689087, -0.3484521210193634, 0.03979483246803284, 0.34902843832969666, 0.26161879301071167, -0.6086406111717224, -0.12178734689950943, 0.028919877484440804, 0.026852555572986603, 0.357165664434433, 0.05428862199187279, 0.04585205018520355, -0.24249157309532166, -0.14163655042648315, -0.19839981198310852, 0.7358191013336182, -0.4897984266281128, -0.5269857048988342, -0.007244385313242674, 0.0376892052590847, -0.3981454372406006, -0.33154118061065674, -0.038347139954566956, -0.1125621348619461, 0.13776424527168274, -0.03956461325287819, -0.2489744871854782, -0.25776708126068115, -0.06574241071939468, -0.11343879997730255, -0.11546885967254639, 0.005718525033444166, -0.05369672551751137, 0.06997564435005188, -0.004522962961345911, -0.0666448101401329, -0.2725025415420532, 0.4626999795436859, -0.15241014957427979, -0.18737530708312988, 0.015085261315107346, -0.311313271522522, 0.21134528517723083, -0.17229124903678894, 0.006101672071963549, -0.0540151409804821, 0.033149756491184235, -0.031870681792497635, -0.05174873769283295, 0.28457435965538025, -0.08063063770532608, -0.06058014929294586, 0.22554603219032288, 0.26175734400749207, 0.05063636228442192, -0.26132476329803467, -0.18297919631004333, 0.23651455342769623, -0.09956562519073486, -0.22863680124282837, 0.3852636516094208, 0.21564002335071564, 0.20473772287368774, -0.09342262893915176, 0.06585469096899033, -0.07093565911054611, -0.02499004453420639, -0.2694564163684845, 0.022283917292952538, -0.09760899096727371, -0.03632929176092148, -0.15755407512187958, -0.09842494130134583, 0.1286112368106842, 0.004547901451587677, -0.1418651044368744, 0.16486221551895142, 0.23636092245578766, 0.20704935491085052, 0.12834432721138, -0.19813968241214752, -0.1397579312324524, -0.05653189495205879, 0.09522117674350739, -0.018402760848402977, -0.005224327091127634, 0.14402255415916443, 0.03173676133155823, -0.07362993061542511, -0.04127394035458565, 0.08014342933893204, 0.011818532831966877, -0.22463952004909515, -0.16697371006011963, 0.014669558964669704, 0.07614894956350327, 0.10562185943126678, 0.05336552858352661, 0.0637313649058342, 0.020867053419351578, 0.0641581192612648, -0.015974460169672966, -0.2531645596027374, 0.018293367698788643, -0.012607842683792114, -0.04068828001618385, 0.12502504885196686, -0.34275782108306885, -0.029081325978040695, 0.07521889358758926, -0.04473435506224632, 0.28696176409721375, -0.019205862656235695, -0.23397240042686462, 0.12438447773456573, 0.07843997329473495, 0.011550436727702618, 0.37460723519325256, 0.16106480360031128, 0.017837008461356163, -0.19461993873119354, -0.34196481108665466, -0.06006339192390442, -0.01660245470702648, 0.09006031602621078, -0.03393673896789551, -0.2799229323863983, -0.1502382606267929, 0.03161007910966873, 0.004786166828125715, -0.0920843780040741, 0.017985612154006958, -0.2503717839717865, 0.034178268164396286, -0.17008742690086365, -0.24373383820056915, 0.03368108347058296, -0.030391458421945572, -0.12771543860435486, 0.0755445659160614, -0.050611913204193115, -0.28712207078933716, -0.16554862260818481, -0.19441072642803192, 0.021444182842969894, 0.12100350111722946, -0.2091965675354004, 0.07483398169279099, 0.14827057719230652, 0.5075942873954773, -0.049304962158203125, -0.04134657606482506, 0.0880984216928482, 0.3688269555568695, -0.6646091341972351, -0.3831672668457031, 0.03828801214694977, -0.018793679773807526, 0.25755664706230164, -0.5161634087562561, 0.09235790371894836, -0.07952232658863068, 0.036402907222509384, 0.031389281153678894, -0.2600594460964203, -0.02853253111243248, -0.09831999242305756, 0.21979039907455444, 0.09283928573131561, -0.06764911860227585, -0.22007142007350922, -0.17969051003456116, -0.011575639247894287, 0.3228248357772827, -0.10277906060218811, -0.05390448868274689, -0.027693597599864006, -0.13041600584983826, 0.20693694055080414, 0.4283421039581299, 0.059999849647283554, 0.08101107180118561, 0.029027486220002174, -0.15497970581054688, -0.34003132581710815, 0.04668444022536278, -0.14224675297737122, -0.2628832757472992, 0.1104055866599083, -0.10610385984182358, 0.27362778782844543, -0.00313304434530437, -0.1371033936738968, -0.6215876936912537, 0.24088427424430847, -0.45212072134017944, -0.016197752207517624, 0.19180415570735931, -0.3390955924987793, 0.031456004828214645, 0.21209071576595306, 0.04302568361163139, -0.2479519248008728, -0.08525841683149338, 0.11520577222108841, 0.18656890094280243, 0.21079325675964355, -0.2900547981262207, 0.1597774773836136, -0.10623463243246078, 0.002178845228627324, -0.2375856637954712, -0.32485342025756836, 0.023893972858786583, 0.10455335676670074, 0.21191665530204773, -0.13276588916778564, 0.00031599000794813037, -0.06950230896472931, 0.21747444570064545, 0.01737695187330246, -0.06567000597715378, -0.10355346649885178, 0.05338679626584053, -0.1244111880660057, 0.11895076930522919, -0.09384110569953918, 0.35699912905693054, -0.6600785255432129, 0.11304719001054764, 0.2872870862483978, -0.029389681294560432, 0.03624271601438522, 0.034454096108675, -0.14856095612049103, 0.044778794050216675, 0.09115390479564667, -0.050145719200372696, 0.019035130739212036, -0.20453928411006927, -0.03690722584724426, 0.06903821229934692, 0.21259061992168427, 0.20546409487724304, -0.06392122060060501, 0.16726329922676086, -0.10914992541074753, -0.0006038855644874275, 0.07854168862104416, 0.222350612282753, 0.19583512842655182, 0.21671615540981293, 0.026128683239221573, 0.18906328082084656, -0.0565333254635334, -0.16763842105865479, 0.1484237015247345, 0.08622447401285172, -0.018728097900748253, -0.043863579630851746, -0.19269239902496338, 0.14598266780376434, 0.08531288057565689, -0.02073456160724163, -0.05218929797410965, 0.007966483943164349, -0.0010230999905616045, 0.21942727267742157, 0.07324104011058807, -0.0779792070388794, -0.36270344257354736, -0.21868078410625458, 0.013154909014701843, 0.21527448296546936, 0.10550396889448166, 0.19982311129570007, -0.07154983282089233, 0.19178664684295654, 0.21998067200183868, 0.10807764530181885, -0.029328128322958946, 0.16590391099452972, -0.209584578871727, 0.014751848764717579, 0.0433892197906971, -0.36720120906829834, -0.08798757940530777, -0.010538503527641296, 0.054338958114385605, -0.21511763334274292, 0.12071575224399567, 0.0062097907066345215, 0.08586601912975311, 0.11968863755464554, -0.016137301921844482, -0.007703825831413269, 0.21031679213047028, 0.14826983213424683, 0.08447785675525665, 0.017856037244200706, 0.030030079185962677, -0.12103623896837234, 0.13541336357593536, 0.02072008326649666, 0.23161093890666962, 0.09450184553861618, 0.020632071420550346, -0.09683005511760712, 0.10298719257116318, 0.11625801026821136, -0.09753378480672836, 0.012576337903738022, 0.01623890921473503, 0.06155368685722351, -0.06725391000509262, -0.19484136998653412, 0.07594099640846252, 0.23659572005271912, -0.09702257812023163, -0.018337013199925423, 0.013535711914300919, -0.04497470334172249, 0.06773939728736877, -0.2094731330871582, -0.08754976093769073, -0.11589809507131577, -0.005378523841500282, 0.021499628201127052, -0.14989399909973145, 0.22975462675094604, -0.13394182920455933, -0.2616441547870636, 0.2222764790058136, -0.19078369438648224, -0.1398962438106537, -0.47012728452682495, 0.32167327404022217, -0.18909847736358643, 0.2206883281469345, -0.3347139358520508, -0.11967606097459793, 0.10402414947748184, 0.04608706012368202, 0.1767502874135971, 0.22624263167381287, -0.09088826924562454, -0.3192358613014221, -0.13659034669399261, 0.23560179769992828, 0.00946946069598198, 0.3012847602367401, -0.06844921410083771, 0.2416997253894806, -0.12275873124599457, -0.0362560972571373, -0.15564920008182526, -0.28641003370285034, -0.08873052150011063, -0.018157517537474632, 0.16473791003227234, 0.004679492209106684, -0.05860612913966179, -0.1404159814119339, -0.17902414500713348, 0.04455302283167839, 0.24306859076023102, -0.06259070336818695, 0.08369743824005127, 0.03658057749271393, -0.018958453088998795, 0.22642925381660461, 0.22105439007282257, -0.09812487661838531, 0.1405963897705078, 0.11701995134353638, 0.26275211572647095, -0.0813535749912262, 0.015037174336612225, -0.06466633826494217, -0.16984999179840088, 0.04274025559425354, -0.057268064469099045, -0.0367882177233696, -0.16158142685890198, -0.0676155537366867, -0.03672095015645027, 0.2606333792209625, 0.2966136932373047, -0.025629831477999687, -0.06538677215576172, -0.09726991504430771, -0.002126590348780155, -0.14403484761714935, 0.1762748509645462, -0.12266101688146591, -0.03861004859209061, 0.2562868893146515, -0.004368244204670191, -0.24218980967998505, -0.13657861948013306, 0.08947015553712845, 0.043187178671360016, -0.02100321464240551, -0.1024639680981636, -0.05436728149652481, -0.04138675332069397, -0.11548961699008942, -0.09886663407087326, 0.05624716356396675, 0.1925785392522812, 0.059619784355163574, -0.13796131312847137, -0.24194221198558807, 0.06036779284477234, 0.040215227752923965, 0.0890314131975174, 0.08327393233776093, -0.11660781502723694, -0.06304348260164261, -0.08653883635997772, 0.03495637699961662, 0.16536298394203186, -0.0896335318684578, 0.011097204871475697, 0.06791970133781433, 0.027911407873034477, 0.07364929467439651, -0.24104295670986176, 0.07801998406648636, 0.0742424875497818, 0.16877369582653046, 0.16373370587825775, -0.061261046677827835, 0.15791240334510803, 0.2729746103286743, -0.2711443305015564, 0.03962641954421997, 0.10021141916513443, 0.20886477828025818, -0.08489061892032623, 0.13427726924419403, 0.1997772455215454, 0.27386045455932617, -0.07424033433198929, 0.03181992471218109, -0.17244532704353333, -0.000837314932141453, 0.037518903613090515, -0.13962329924106598, 0.03712840750813484, 0.16821911931037903, -0.08650802075862885, -0.177443265914917, -0.09887786209583282, 0.03430512174963951, -0.011375834234058857, 0.13270559906959534, -0.06558411568403244, 0.018399780616164207, 0.022989453747868538, 0.04172837734222412, 0.14408409595489502, -0.0006921084714122117, -0.20656199753284454, -0.0714612826704979, 0.17335526645183563, -0.08631327748298645, -0.10656943172216415, -0.16920754313468933, 0.02503223717212677, -0.12065659463405609, 0.02979305200278759, 0.09435347467660904, 0.038973789662122726, -0.011703560128808022, 0.11706170439720154, -0.02290361188352108, -0.13754962384700775, 0.06916587054729462, -0.2649332284927368, 0.1412929892539978, 0.11012236773967743, 0.10908666998147964, 0.12911663949489594, -0.05279504880309105, 0.30104169249534607, 0.153049036860466, 0.07945799827575684, -0.09092257171869278, -0.1895332634449005, 0.23115035891532898, 0.008442099206149578, -0.3311989903450012, -0.016885891556739807, 0.06912271678447723, -0.053447067737579346, -0.1109020933508873, -0.00956743024289608, 0.07956160604953766, -0.03935318440198898, 0.07120006531476974, 0.1084863543510437, 0.04831502586603165, -0.05413566529750824, -0.19050782918930054, -0.14047357439994812, -0.17449140548706055, -0.0434250608086586, 0.022005975246429443, 0.03942933306097984, -0.14924050867557526, -0.05418519303202629, 0.06928450614213943, 0.04864170774817467, 0.024217834696173668, -0.045610956847667694, -0.050350796431303024, 0.22873541712760925, 0.16750630736351013, -0.14783704280853271, 0.14005669951438904, -0.0010791682871058583, -0.2111426591873169, -0.009476418606936932, 0.11240121722221375, -0.21269014477729797, -0.0012609577970579267, -0.006745297461748123, 0.10289306193590164, -0.3283960223197937, -0.22807379066944122, 0.153264582157135, 0.1791079044342041, -0.05062955245375633, -0.17013640701770782, 0.04327533021569252, 0.13815799355506897, -0.1718374788761139, 0.2085580825805664, -0.09514522552490234, -0.1155911237001419, 0.24642512202262878, -0.3763146996498108, -0.06932905316352844, 0.010702109895646572, -0.04609578102827072, 0.35337409377098083, -0.14452826976776123, 0.020631913095712662, 0.10625948011875153, 0.05608218535780907, -0.07056179642677307, -0.03855676203966141, -0.11768172681331635, 0.09738852828741074, 0.24180112779140472, 0.04657311365008354, 0.006722596939653158, -0.23063376545906067, -0.2625992000102997, 0.06577957421541214, 0.17920906841754913, -0.05616744980216026, 0.08004745095968246, -0.4049302041530609, 0.10180842876434326, -0.1320766657590866, -0.3822779059410095, 0.07983303815126419, -0.05272054672241211, -0.25597530603408813, 0.02262183465063572, 0.001435537007637322, -0.22918236255645752, 0.043676190078258514, 0.07977767288684845, 0.12079063057899475, 0.1838889867067337, 0.01935073360800743, -0.0031050483230501413, 0.08430657535791397, -0.030136140063405037, 0.014306607656180859, -0.10316808521747589, -0.03191475570201874, 0.35438627004623413, 0.24329054355621338, 0.06246858090162277, 0.44955676794052124, 0.06770744174718857, -0.10886459797620773, -0.23384025692939758, -0.09947389364242554, -0.15536147356033325, -0.1955852508544922, 0.18456271290779114, 0.17685608565807343, 0.06419447809457779, 0.09322471171617508, 0.054411254823207855, -0.04654291272163391, -0.0745919868350029, 0.08875163644552231, 0.09411931037902832, -0.16133342683315277, -0.17738446593284607, 0.12204700708389282, -0.17004622519016266, 0.1033409833908081, -0.02147826738655567, -0.16482555866241455, 0.0330340601503849, -0.20282065868377686, -0.176857590675354, -0.22980740666389465, -0.4753987491130829, 0.07895375788211823, -0.14652207493782043, 0.15186819434165955, 0.20288999378681183, -0.017485039308667183, 0.1203281432390213, -0.14931969344615936, 0.1483994871377945, 0.024953199550509453, 0.045516859740018845, 0.20337535440921783, 0.4719943106174469, -0.0779799073934555, 0.12538273632526398, -0.0473601371049881, 0.0725938230752945, 0.14448747038841248, -0.3690029978752136, 0.12991413474082947, 0.03271251171827316, -0.013012850657105446, -0.03742727264761925, -0.4360426664352417, 0.20899951457977295, -0.19178476929664612, -0.1868358999490738, 0.3765579164028168, -0.05702437460422516, -0.06699260324239731, 0.16796591877937317, 0.1261526346206665, -0.022257426753640175, -0.26013824343681335, -0.12490088492631912, -0.011914321221411228, 0.20848114788532257, 0.08943979442119598, -0.02001977525651455, -0.1456637978553772, -0.21007896959781647, 0.15980038046836853, 0.2848415672779083, 0.09230941534042358, -0.08300168067216873, -0.002856658538803458, 0.11365129798650742, -0.18981295824050903, -0.18958285450935364, 0.14534687995910645, 0.10747967660427094, -0.3435698449611664, 0.2850992977619171, -0.022662578150629997, -0.10322012007236481, -0.24162812530994415, -0.17029133439064026, 0.1063218042254448, -0.004355721641331911, 0.1829317808151245, 0.17605037987232208, -0.1050722524523735, -0.04303564876317978, -0.2836952209472656, -0.23244960606098175, -0.2949777841567993, 0.1308491826057434, -0.24066665768623352, -0.09285908192396164, 0.18282990157604218, -0.26480787992477417, -0.17532257735729218, -0.28520745038986206, 0.034948285669088364, 0.08054453134536743, -0.12230482697486877, 0.11775027215480804, -0.08412974327802658, -0.09433900564908981, -0.13704657554626465, 0.21625863015651703, -0.0023005104158073664, 0.026980672031641006, -0.06270711123943329, 0.031906209886074066, -0.049731675535440445, -0.022843508049845695, -0.30153995752334595, -0.047918953001499176, 0.0015625831438228488, -0.2740399241447449, -0.10061640292406082, -0.10761316120624542, -0.30964410305023193, -0.08753988891839981, 0.1321106106042862, 0.15700750052928925, -0.11141545325517654, -0.0779092088341713, -0.033458344638347626, -0.0020229369401931763, 0.11369804292917252, 0.11418112367391586, 0.0819527804851532, -0.028068887069821358, -0.10915914177894592, 0.2760007083415985, 0.22847555577754974, 0.14766883850097656, 0.08927250653505325, -0.07368574291467667, 0.6532919406890869, 0.22914423048496246, 0.42556193470954895, -0.2879761755466461, 0.09006372094154358, -0.19156408309936523, -0.2440895438194275, -0.0043663037940859795, -0.2529141902923584, 0.4444012939929962, 0.24253901839256287, -0.00674971379339695, 0.31442582607269287, 0.1195066049695015, 0.320722758769989, 0.11444143205881119, -0.11762777715921402, 0.013346492312848568, 0.21265169978141785, -0.22024665772914886, -0.05130479857325554, -0.31640931963920593, -0.021122030913829803, 0.007565521635115147, 0.16605280339717865, -0.07824576646089554, 0.0010186281288042665, -0.027928471565246582, -0.002714228816330433, 0.22317126393318176, 0.5754068493843079, -0.04631304368376732, -0.5780490636825562, -0.10931286960840225, 0.013128945603966713, -0.22702549397945404, -0.119794562458992, 0.0010375466663390398, -0.1620924323797226, 0.22985178232192993, -0.17704926431179047, -0.1092425137758255, -0.01903083734214306, 0.01675334759056568, -0.05793127045035362, 0.054238803684711456, 0.06803712993860245, 0.2709239423274994, 0.23911726474761963, -0.07788094133138657, -0.05672755464911461, 0.012298677116632462, -0.2952467203140259, -0.14093329012393951, 0.15004777908325195, -0.10415913909673691, 0.17849816381931305, 0.2945675551891327, -0.07146120816469193, -0.01624179072678089, -0.1501024067401886, 0.17027932405471802, -0.1183590516448021, -0.1586955040693283, -0.003646349534392357, -0.13473618030548096, 0.2307419776916504, 0.043320801109075546, 0.00315918424166739, -0.19160893559455872, -0.09420587122440338, 0.017684772610664368, 0.2771192491054535, 0.03313657268881798, 0.09222172945737839, -0.1986452043056488, 0.051136668771505356, 0.010562020353972912, 0.12066329270601273, 0.0006558463792316616, -0.15552693605422974, -0.10488233715295792, -0.2878386974334717, 0.04579896852374077, 0.057989977300167084, -0.16198047995567322, 0.12725411355495453, 0.2263960987329483, 0.04136703535914421, 0.0561322458088398, -0.2384176105260849, 0.12496840953826904, 0.4439460337162018, -0.33220982551574707, 0.09767590463161469, 0.2032986879348755, 0.06779620051383972, -0.009396575391292572, 0.05279674381017685, 0.1361871063709259, 0.08121827989816666, -0.11135305464267731, -0.27049627900123596, 0.3665926456451416, 0.11512131243944168, 0.06402378529310226, 0.0578896626830101, 0.18339921534061432, 0.00017096298688557, -0.1936868578195572, -0.013381843455135822, 0.19167344272136688, 0.11721979826688766, -0.00842057354748249, -0.2655527889728546, -0.3293914794921875, -0.006246880628168583, -0.10377459973096848, 0.20709067583084106, 0.011838188394904137, -0.028658976778388023, -0.24662606418132782, -0.07610592991113663, 0.2958807051181793, -0.13737690448760986, 0.01271004043519497, -0.2505604326725006, 0.1913985013961792, 0.03348280489444733, -0.1462150514125824, -0.008825194090604782, -0.017644450068473816, -0.098322294652462, 0.024789612740278244, 0.06531038880348206, -0.10984034836292267, -0.03606230393052101, 0.009700740687549114, 0.04975583031773567, 0.05108676478266716, 0.01974533312022686, 0.4539574980735779, -0.12096447497606277, -0.08846747130155563, 0.19331219792366028, -0.14698415994644165, 0.12633025646209717, 0.01870175078511238, -0.14271734654903412, -0.09197793155908585, 0.06266240030527115, 0.2427840679883957, 0.0636880174279213, 0.006837249267846346, 0.015659021213650703, -0.23400382697582245, -0.06221567466855049, -0.0462021678686142, 0.42088833451271057, -0.10834923386573792, 0.48777055740356445, -0.990121603012085, -1.028005838394165, -0.2505337595939636, 0.43830597400665283, -0.364460825920105, 0.2511047422885895, 0.35896629095077515, -0.4545871317386627, 0.2636096775531769, 0.014295683242380619, -0.5678010582923889, -0.0381796732544899, -0.3050574064254761, -0.14873336255550385, -0.059555329382419586, 0.17810280621051788, -0.13116860389709473, -0.0008541758870705962, 0.055875860154628754, 0.1508660465478897, -0.5604549646377563, -0.5403615236282349, -0.06456154584884644, -0.13679766654968262, 0.11491326987743378, 0.14450772106647491, -0.16387569904327393, 0.05397899076342583, -0.053087420761585236, -0.1269945651292801, -0.267583429813385, -0.03861120343208313, -0.44232261180877686, -0.00042647382360883057, 0.09526176750659943, 0.12352534383535385, -0.15485969185829163, 0.055982012301683426, -0.01596372202038765, -0.117860347032547, 0.14028145372867584, -0.09764430671930313, 0.10054250061511993, 0.07351008802652359, -0.015214691869914532, 0.04187268018722534, 0.2874975800514221, 0.011639514937996864, -0.10774768888950348, 0.3118266761302948, -0.20271311700344086, -0.3211604356765747, 0.0973314717411995, 0.30091896653175354, -0.1112656369805336, -0.12424272298812866, -0.11628846079111099, 0.018547477200627327, -0.04490877687931061, 0.06975802034139633, 0.2383074164390564, -0.2202523946762085, 0.1587398201227188, -0.014288453385233879, 0.1872030645608902, 0.12459788471460342, 0.23537935316562653, 0.3907998502254486, -0.051887255162000656, -0.26464003324508667, -0.1910730004310608, -0.03902672603726387, -0.3467365801334381, 0.22709983587265015, 0.1722155213356018, -0.08275894075632095, -0.4497845470905304, 0.18499046564102173, -0.10299721360206604, -0.06064740568399429, 0.11788486689329147, 0.21885135769844055, -0.043889716267585754, 0.045052967965602875, -0.1813802272081375, 0.2202688753604889, 0.07370040565729141, 0.16697241365909576, 0.20253078639507294, -0.10387828946113586, -0.11765287071466446, -0.16874642670154572, -0.13614045083522797, -0.22552578151226044, 0.08176523447036743, 0.21706846356391907, 0.21559159457683563, -0.0918533205986023, 0.23935151100158691, -0.029991719871759415, 0.06421836465597153, 0.14713802933692932, 0.1849406361579895, -0.26956528425216675, 0.36784598231315613, -0.02624819613993168, -0.13262519240379333, -0.25564491748809814, 0.16234923899173737, -0.07369488477706909, -0.17418180406093597, -0.042192187160253525, -0.06990169733762741, 0.17927749454975128, -0.02613111585378647, 0.092832550406456, 0.09740914404392242, -0.0297985952347517, 0.02842666767537594, 0.12049725651741028, -0.014630276709794998, 0.15923818945884705, 0.09829346090555191, 0.17182239890098572, -0.24862949550151825, -0.12361244857311249, 0.24977385997772217, -0.07076700776815414, 0.21798114478588104, 0.49292001128196716, -0.24256479740142822, 0.11690967530012131, 0.3423936069011688, 0.24516452848911285, -0.07714451104402542, 0.05487586185336113, 0.05061493068933487, -0.026189658790826797, -0.005050321575254202, 0.2586360573768616, 0.11782864481210709, -0.26076629757881165, 0.03846494108438492, -0.02823570929467678, -0.0280302744358778, 0.3078029453754425, 0.03476659581065178, -0.06767594814300537, -0.08546416461467743, 0.08825450390577316, 0.08876306563615799, -0.026589524000883102, -0.1504727602005005, 0.0821061059832573, 0.05096936970949173, -0.0317426472902298, 0.018134038895368576, 0.10606230795383453, 0.15477754175662994, 0.11498893797397614, -0.014585736207664013, -0.04766460135579109, -0.004851295612752438, 0.007085070479661226, -0.19352702796459198, -0.24142123758792877, -0.1161663606762886, 0.1667965203523636, -0.18952463567256927, 0.2389768809080124, 0.011684817261993885, 0.0787092000246048, -0.03426244109869003, -0.18155695497989655, 0.05771796777844429, -0.15649735927581787, -0.14545196294784546, -0.11913850903511047, -0.04082580283284187, 0.019433997571468353, -0.15908172726631165, 0.38705676794052124, -0.035649679601192474, -0.05414756387472153, -0.049494028091430664, -0.1703314185142517, 0.13027766346931458, 0.03578028827905655, -0.059139855206012726, 0.12180725485086441, -0.052671752870082855, -0.17245812714099884, -0.16862447559833527, -0.18170256912708282, -0.2070755809545517, -0.026230627670884132, 0.20616267621517181, -0.05397339165210724, 0.23933173716068268, 0.34424224495887756, 0.2275475561618805, -0.20442453026771545, 0.2981034517288208, -0.2890523672103882, -0.014392437413334846, -0.05633128806948662, 0.19940373301506042, 0.11283260583877563, 0.2675316035747528, -0.05809139832854271, 0.03763699531555176, -0.1735886037349701, -0.009719457477331161, 0.3249368369579315, 0.06840068101882935, -0.20051608979701996, -0.1899125576019287, -0.012132924050092697, 0.015087318606674671, 0.08868874609470367, -0.20462501049041748, -0.13694874942302704, 0.17461636662483215, 0.09940589219331741, 0.26218634843826294, 0.003280211938545108, 0.11203300952911377, 0.032909732311964035, 0.04541458189487457, 0.10941126197576523, 0.22868900001049042, -0.024457097053527832, -0.22514738142490387, -0.15708473324775696, -0.19829727709293365, -0.0025441485922783613, -0.021282803267240524, 0.25873804092407227, -0.13036125898361206, 0.062340859323740005, 0.12444335222244263, -0.1796901673078537, -0.03794478625059128, 0.2033127397298813, 0.27451810240745544, -0.07819819450378418, 0.07745029032230377, -0.27416422963142395, 0.08102218806743622, -0.006193815730512142, -0.03182811662554741, -0.037755876779556274, 0.15650923550128937, -0.11014653742313385, 0.22761170566082, -0.22513717412948608, -0.17376026511192322, 0.10167848318815231, -0.2408755123615265, 0.3815021216869354, -0.48547062277793884, -0.07574432343244553, 0.12346015870571136, -0.19606022536754608, -0.1617494523525238, 0.1643957942724228, 0.12269178032875061, 0.1650424301624298, -0.10545901954174042, -0.2501387298107147, 0.014556726440787315, 0.023781511932611465, -0.0835815817117691, 0.02814878337085247, -0.04854543134570122, 0.03275953605771065, 0.052889060229063034, -0.05439843237400055, 0.10423977673053741, 0.11207558214664459, 0.07520946115255356, -0.03960205987095833, -0.24581804871559143, -0.08046912401914597, 0.10237817466259003, 0.13324107229709625, 0.10525529086589813, -0.1405038684606552, 0.34703534841537476, 0.15223196148872375, 0.06418351829051971, -0.06833604723215103, 0.14634333550930023, -0.14383316040039062, 0.08762194216251373, 0.20461054146289825, -0.07059717178344727, 0.05104142054915428, 0.06709602475166321, -0.12977755069732666, 0.1510079801082611, -0.06458519399166107, 0.14551718533039093, -0.003534875810146332, 0.18910369277000427, -0.03676055744290352, 0.2395249903202057, 0.2940550446510315, 0.2181706726551056, -0.06329022347927094, 0.039456743746995926, -0.0819312110543251, 0.1213054358959198, 0.025541892275214195, 0.3342917263507843, 0.17800849676132202, 0.15837372839450836, -0.31421226263046265, -0.17947275936603546, -0.30607569217681885, -0.2739832401275635, 0.06075708940625191, 0.24362793564796448, 0.21342110633850098, -0.0006871806690469384, 0.19554822146892548, -0.10738077014684677, 0.153925821185112, -0.33231449127197266, 0.011871508322656155, -0.08478748798370361, -0.031034421175718307, -0.09558046609163284, 0.055141471326351166, -0.012591304257512093, 0.17307338118553162, -0.02764827199280262, -0.028386307880282402, -0.14106449484825134, -0.16010349988937378, -0.09508488327264786, 0.08409696072340012, 0.06074779853224754, 0.05690298229455948, 0.3484809100627899, 0.20468424260616302, -0.05776402726769447, 0.009263850748538971, 0.08716960996389389, 0.01702222228050232, -0.20051412284374237, -0.1379854381084442, 0.012581085786223412, 0.2940252125263214, -0.15350653231143951, -0.02916453406214714, -0.2842508554458618, -0.07353748381137848, 0.06703314930200577, 0.23091812431812286, 0.12375210225582123, 0.05237085372209549, -0.25392231345176697, -0.0020891844760626554, -0.20205847918987274, 0.3017471432685852, -0.12261995673179626, -0.03944971039891243, 0.18770533800125122, -0.02264278382062912, -0.11422871053218842, 0.14158770442008972, -0.05312994867563248, -0.028212176635861397, 0.22756442427635193, 0.21500249207019806, 0.0377236045897007, -0.14988037943840027, 0.11991589516401291, -0.043601177632808685, -0.23182162642478943, -0.02445768192410469, 0.14227469265460968, 0.19526176154613495, 0.038940466940402985, 0.4223833680152893, -0.1283603310585022, -0.034945715218782425, 0.025266677141189575, -0.1346089392900467, -0.15134353935718536, 0.03166760131716728, 0.043102048337459564, 0.031628623604774475, -0.1295836865901947, -0.0031174232717603445, 0.15314188599586487, 0.2434689849615097, 0.18243011832237244, 0.013614051043987274, -0.09150902181863785, -0.24191255867481232, -0.11454795300960541, -0.20580437779426575, -0.031205307692289352, 0.10267806053161621, 0.042126528918743134, -0.2902000844478607, -0.0668332502245903, -0.33367905020713806, 0.30451083183288574, 0.09442165493965149, -0.02519797533750534, -0.08438033610582352, 0.07655816525220871, -0.10083102434873581, 0.10988594591617584, 0.05935276299715042, 0.032250430434942245, -0.0684962198138237, 0.21941037476062775, 0.22278811037540436, -0.09232813864946365, -0.04925041273236275, -0.12187734991312027, 0.2561381757259369, -0.20456533133983612, -0.15897832810878754, 0.1501239687204361, -0.06864849478006363, 0.14697733521461487, 0.6268358826637268, 0.11441924422979355, 0.013167092576622963, -0.6525506377220154, 0.1844894140958786, 0.14271584153175354, -0.17754730582237244, -0.11014852672815323, 0.024770958349108696, 0.3131150007247925, -0.043046485632658005, 0.0236223042011261, 0.14220423996448517, -0.03104688599705696, 0.08157533407211304, 0.23990392684936523, 0.21344275772571564, -0.061091098934412, -0.10517892241477966, 0.030330758541822433, -0.13139967620372772, -0.052821170538663864, 0.08744344860315323, 0.02379719540476799, -0.03511806204915047, -0.29656222462654114, -0.10804779827594757, 0.40014687180519104, 0.06611711531877518, 0.08122394979000092, -0.04008963704109192, -0.08676724135875702, -0.09034433215856552, -0.15287570655345917, 0.1019667387008667, 0.11607836186885834, -0.1544722318649292, 0.045553918927907944, 0.13190485537052155, -0.2779426574707031, -0.10005543380975723, -0.09435980767011642, 0.24721336364746094, -0.20796459913253784, -0.10166559368371964, 0.21651527285575867, -0.052771806716918945, 0.017050789669156075, 0.30450794100761414, -0.03545548394322395, 0.22793006896972656, 0.024430882185697556, 0.1529153287410736, 0.04433572664856911, 0.011256209574639797, -0.09336628019809723, 0.07466539740562439, 0.0487881638109684, 0.0474063977599144, 0.002614340279251337, 0.14096792042255402, 0.03236288204789162, -0.07921439409255981, -0.031622741371393204, 0.19003291428089142, 0.02957884967327118, -0.10839612782001495, -0.0372396744787693, -0.06792368739843369, 0.053595684468746185, 0.11707064509391785, -0.0034833198878914118, 0.024814745411276817, 0.0601295530796051, -0.06596137583255768, 0.24100574851036072, 0.09606170654296875, 0.01375199668109417, -0.09723763167858124, 0.12446903437376022, -0.048687636852264404, -0.2126350998878479, -0.007775919511914253, 0.10804683715105057, -0.13719069957733154, 0.06300131976604462, 0.09696508944034576, -0.12451384961605072, -0.16683541238307953, -0.16880783438682556, 0.04887330159544945, -0.19347211718559265, -0.18226903676986694, 0.26264509558677673, -0.2217084914445877, -0.009966528043150902, -0.010541998781263828, -0.11874014884233475, -0.03652671352028847, 0.09159953147172928, -0.14524737000465393, 0.03257117047905922, 0.01631294935941696, -0.13248400390148163, -0.014418129809200764, 0.021042389795184135, -0.04907554015517235, 0.023509813472628593, 0.0791652724146843, -0.013041489757597446, -0.195667564868927, -0.1884443163871765, 0.05749261751770973, -0.2206384837627411, -0.0115720946341753, 0.06998477131128311, 0.17148928344249725, 0.07906143367290497, -0.2146008461713791, -0.1626853197813034, 0.11977497488260269, -0.1135140210390091, 0.13519658148288727, -0.3231574594974518, 0.06891214102506638, 0.09391239285469055, 0.03770744055509567, -0.2917579412460327, 0.11122824996709824, 0.016445431858301163, -0.12667518854141235, -0.22193773090839386, -0.16953706741333008, -0.2069130539894104, -0.0884942039847374, 0.01590900495648384, 0.14591588079929352, 0.05835637077689171, -0.11589868366718292, 0.04953160881996155, 0.1712530553340912, -0.2396247684955597, 0.09471432119607925, 0.030996723100543022, -0.11790004372596741, -0.08523417264223099, -0.062141504138708115, -0.004124742932617664, -0.10390833020210266, -0.04052945598959923, 0.24321725964546204, -0.05583272501826286, -0.1660493016242981, -0.1709958165884018, 0.07592196762561798, 0.10279598087072372, 0.0033151055686175823, 0.19517655670642853, 0.12244205176830292, 0.052478983998298645, 0.0024575938005000353, 0.05339951440691948, 0.21555489301681519, -0.16819608211517334, -0.019175076857209206, -0.007494224701076746, -0.19453084468841553, -0.05287705361843109, 0.1183224618434906, 0.0777253583073616, 0.108354352414608, -0.2968866229057312, -0.0777556374669075, 0.043334394693374634, -0.06790141761302948, 0.03248129412531853, -0.45557624101638794, 0.052913762629032135, -0.16541153192520142, 0.038815584033727646, 0.14219173789024353, 0.050646841526031494, 0.039633337408304214, 0.1704128384590149, 0.01366010308265686, 