{"version": "0.5.4", "metadata": {"date": {"year": 2025, "month": 2, "day": 26, "hour": 10, "minute": 18, "second": 18}, "loudness": -10.437030792236328, "gain": 0.6702440326478694}, "architecture": "WaveNet", "config": {"layers": [{"input_size": 1, "condition_size": 1, "head_size": 8, "channels": 16, "kernel_size": 3, "dilations": [1, 2, 4, 8, 16, 32, 64, 128, 256, 512], "activation": "Tanh", "gated": false, "head_bias": false}, {"input_size": 16, "condition_size": 1, "head_size": 1, "channels": 8, "kernel_size": 3, "dilations": [1, 2, 4, 8, 16, 32, 64, 128, 256, 512], "activation": "Tanh", "gated": false, "head_bias": false}], "head": null, "head_scale": 0.02}, "weights": [0.004601730033755302, -0.9514342546463013, -0.6842924356460571, 0.42095544934272766, -0.7744556665420532, -0.35323673486709595, 0.3387545049190521, 0.6115413308143616, 0.0929405614733696, -0.8387758135795593, -0.0030843252316117287, 0.5303898453712463, 0.4978264272212982, -0.8238251805305481, -0.2270016074180603, 0.7038690447807312, 0.0876849889755249, 0.04938124865293503, 0.06031634658575058, 0.19491390883922577, 0.13447406888008118, -0.0014204480685293674, -0.038805726915597916, -0.052342236042022705, 0.03126024082303047, 0.029206810519099236, -0.09887607395648956, -0.04295267164707184, 0.08761020004749298, -0.09350450336933136, 0.1120661050081253, 0.1369447559118271, 0.10188549757003784, -0.12147779762744904, -0.1349770724773407, 0.0736243724822998, -0.05191861465573311, -0.12378257513046265, -0.07291827350854874, 0.03874475508928299, -0.1920178085565567, 0.09127010405063629, 0.0425180085003376, 0.10897811502218246, -0.14586764574050903, -0.1529548615217209, -0.05551069602370262, 0.09198518097400665, -0.045000750571489334, -0.19852618873119354, -0.13059628009796143, -0.01913372240960598, -0.2093171626329422, 0.07249926030635834, 0.06229008361697197, -0.06105615943670273, 0.13851943612098694, 0.07549118250608444, -0.05713844671845436, 0.010962579399347305, 0.10717633366584778, -0.025556547567248344, -0.016392782330513, -0.03190441057085991, 0.15941272675991058, -0.0049592796713113785, 0.10399151593446732, 0.04768071323633194, 0.0173945352435112, -0.09385962039232254, 0.22304415702819824, -0.14117546379566193, -0.005999736953526735, -0.21321046352386475, -0.07234052568674088, -0.037432633340358734, 0.21205966174602509, 0.06763686239719391, 0.14023791253566742, -0.056377340108156204, 0.04859744384884834, -0.03965437784790993, -0.03476491570472717, -0.08793583512306213, 0.04917929321527481, 0.005514282733201981, 0.132066547870636, -0.11817336827516556, 0.012554566375911236, 0.12909945845603943, 0.0465305894613266, 0.14270256459712982, -0.08472102135419846, 0.07413571327924728, 0.04690442234277725, 0.05447443574666977, -0.004815015941858292, -0.17362602055072784, 0.007784157991409302, 0.0143928537145257, -0.13821859657764435, 0.07037133723497391, -0.10101249814033508, -0.0630684643983841, 0.053640786558389664, 0.08675508946180344, 0.040087632834911346, 0.019988324493169785, 0.14335420727729797, -0.1429223269224167, 0.018535161390900612, -0.11165628582239151, 0.043010078370571136, 0.1941889077425003, -0.07087691128253937, -0.15534186363220215, 0.12279386818408966, -0.10983014106750488, 0.05276390165090561, 0.11634314060211182, -0.10426674783229828, -0.06731977313756943, 0.018033821135759354, 0.060731712728738785, -0.026566796004772186, 0.09871145337820053, 0.05079609528183937, -0.06281456351280212, -0.05958566442131996, -0.1769845336675644, 0.09068956971168518, -0.14007772505283356, -0.014341481029987335, 0.16897404193878174, -0.08838578313589096, 0.2162124514579773, -0.07695206999778748, 0.01127435639500618, 0.009255446493625641, -0.08309945464134216, 0.0850803479552269, -0.03842083364725113, -0.1551327109336853, 0.04862161725759506, -0.14185065031051636, 0.04189504683017731, -0.06877708435058594, 0.03046352043747902, 0.1333005279302597, -0.06928375363349915, 0.013260702602565289, -0.10269724577665329, -0.04390356317162514, -0.13671742379665375, 0.030342265963554382, 0.015684979036450386, -0.011980095878243446, -0.003337108064442873, -0.13499051332473755, 0.10416734218597412, 0.08963005244731903, -0.11922378093004227, 0.062323130667209625, 0.016722600907087326, -0.11918028444051743, 0.1448497623205185, 0.1384247988462448, -0.19397224485874176, -0.06081845611333847, -0.12714791297912598, 0.1947806179523468, 0.06581121683120728, 0.054650500416755676, -0.2242269515991211, -0.06593877077102661, -0.04319179058074951, -0.17063356935977936, 0.01934400014579296, -0.11379406601190567, 0.21451176702976227, 0.03084730915725231, 0.047216542065143585, 0.0260320995002985, -0.029009709134697914, -0.05745382979512215, 0.08328375220298767, -0.07424349337816238, 0.06227213144302368, -0.023997712880373, 0.08486372232437134, -0.02638217620551586, -0.12636767327785492, -0.005289785098284483, -0.029588617384433746, 0.04551222175359726, 0.020276451483368874, -0.14870047569274902, 0.1496477723121643, 0.0743311271071434, 0.20441848039627075, -0.1726771593093872, 0.12782412767410278, -0.021089907735586166, -0.21736134588718414, 0.018983429297804832, 0.03571268543601036, 0.21318387985229492, -0.0022154771722853184, -0.09442799538373947, 0.04028162360191345, -0.3887249529361725, -0.038597747683525085, -0.1476745456457138, 0.054784297943115234, 0.14952713251113892, 0.07359518110752106, 0.022655971348285675, -0.17953042685985565, 0.10546401143074036, 0.15422853827476501, -0.09253398329019547, -0.13524501025676727, -0.1359453648328781, 0.1334950178861618, -0.08901198208332062, 0.09336796402931213, 0.006801910698413849, 0.1411411166191101, -0.03605618327856064, -0.008756749331951141, -0.0588545985519886, 0.03580024093389511, -0.030948441475629807, 0.12250003963708878, 0.1638239026069641, 0.061262257397174835, -0.12424726039171219, -0.1588541567325592, -0.03159666806459427, 0.018163930624723434, -0.19554848968982697, -0.05247753858566284, 0.015352866612374783, -0.010116645134985447, 0.002376680262386799, -0.07137855142354965, 0.1225406676530838, -0.03216215968132019, 0.10030429810285568, -0.07023046910762787, 0.059699881821870804, 0.04689555615186691, -0.10074730962514877, 0.08507204800844193, 0.1545543521642685, 0.08322696387767792, 0.03353022783994675, -0.055369798094034195, 0.035590771585702896, -0.08789236098527908, -0.11327730864286423, -0.0027247213292866945, 0.04713062569499016, 0.01830621063709259, 0.0679541826248169, 0.06985782831907272, 0.008867665193974972, -0.18424203991889954, 0.007470464333891869, 0.07617084681987762, 0.1348283588886261, -0.026372982189059258, -0.1768655925989151, 0.00875689834356308, 0.1747036874294281, 0.2011161893606186, -0.07548029720783234, 0.12748633325099945, 0.02634238824248314, -0.13369669020175934, 0.02541155368089676, 0.06721805781126022, -0.0184513870626688, -0.14912064373493195, -0.16465960443019867, 0.08361359685659409, -0.1383572667837143, -0.1352461725473404, -0.053433261811733246, 0.06157480925321579, 0.18652230501174927, -0.07125042378902435, 0.040812548249959946, 0.11461706459522247, -0.0716501846909523, -0.20567698776721954, -0.20876406133174896, 0.00033833127235993743, -0.09096986800432205, -0.11721841990947723, -0.09090214222669601, 0.05772042274475098, 0.11578577756881714, 0.07608040422201157, 0.0915180891752243, -0.01703469641506672, 0.12101302295923233, 0.1659138947725296, -0.04366340488195419, -0.14039601385593414, -0.000831720361020416, -0.09303007274866104, -0.144456148147583, 0.03698919340968132, -0.05090172961354256, -0.04100600257515907, 0.1304171085357666, -0.02993202395737171, 0.01708003506064415, 0.20033563673496246, -0.03379266709089279, -0.05873367190361023, -0.0997534766793251, 0.06022759526968002, -0.04588037356734276, -0.09501949697732925, -0.010326966643333435, 0.10837811231613159, -0.10061684250831604, 0.07507966458797455, -0.014233008958399296, 0.2002837210893631, -0.19780689477920532, -0.09620814025402069, 0.05265672504901886, -0.20386327803134918, -0.08214286714792252, -0.16788209974765778, 0.11912372708320618, 0.14713045954704285, -0.06359480321407318, -0.05080541595816612, -0.06197422370314598, 0.10283191502094269, -0.052546605467796326, -0.12488091737031937, 0.13947713375091553, -0.19328917562961578, -0.06576121598482132, -0.011925606988370419, 0.0524444617331028, -0.02921869233250618, 0.2653346359729767, 0.3446536362171173, 0.4688182771205902, 0.07496725767850876, 0.08657760918140411, -0.14707769453525543, 0.05428604036569595, 0.06680099666118622, -0.07527957111597061, -0.061361417174339294, -0.06720604002475739, 0.2041618525981903, -0.02180652506649494, 0.0008315308950841427, -0.2311619371175766, 0.18916431069374084, -0.05895216017961502, -0.24249519407749176, -0.14892689883708954, 0.05291222780942917, 0.1236691102385521, 0.050894204527139664, 0.10878495126962662, -0.0014146171743050218, -0.0464380607008934, -0.08136951923370361, 0.03428328037261963, -0.02261658012866974, -0.01797589287161827, -0.16361908614635468, 0.006177807226777077, 0.0521455854177475, -0.15184013545513153, -0.06592512130737305, -0.05861083045601845, 0.19995445013046265, -0.20950183272361755, 0.029376238584518433, 0.08032690733671188, 0.06329818069934845, -0.07627624273300171, -0.10088818520307541, 0.20402918756008148, -0.0703333243727684, -0.10667986422777176, 0.007400793954730034, 0.09272290021181107, 0.15480175614356995, -0.17108522355556488, 0.09387237578630447, 0.09656774997711182, -0.13732028007507324, 0.03447571024298668, 0.09262022376060486, -0.008566155098378658, -0.17332640290260315, -0.10044091194868088, -0.012664565816521645, 0.18951991200447083, -0.14086925983428955, 0.11432169377803802, -0.07961730659008026, 0.10085474699735641, -0.11125768721103668, -0.18126876652240753, 0.1863630712032318, 0.031049752607941628, -0.04663762450218201, -0.146427184343338, 0.070813849568367, -0.060181885957717896, 0.03719421848654747, 0.05473695695400238, -0.03420518711209297, -0.07731879502534866, -0.058686040341854095, -0.01413961686193943, 0.13865797221660614, -0.07645712047815323, 0.03305301070213318, 0.035606544464826584, -0.05638639256358147, -0.028416600078344345, 0.023624055087566376, -0.14004991948604584, 0.19430840015411377, -0.0873807892203331, -0.11763880401849747, 0.057830821722745895, -0.10152313113212585, 0.12592783570289612, 0.031342968344688416, 0.0252543818205595, 0.10784143209457397, 0.018831105902791023, -0.03160953149199486, 0.17197772860527039, 0.3189764618873596, 0.17477139830589294, 0.13257160782814026, 0.028012918308377266, 0.05770234391093254, 0.003653832245618105, 0.1080888956785202, -0.08413379639387131, -0.020228859037160873, -0.10883352160453796, -0.04744935780763626, 0.09405920654535294, 0.1144396960735321, 0.08838402479887009, 0.12066377699375153, 0.06791568547487259, 0.10962586849927902, 0.1054888442158699, -0.2512062191963196, 0.048594433814287186, 0.0471847802400589, -0.06482543051242828, -0.07190323621034622, 0.07640471309423447, -0.24374417960643768, 0.039921872317790985, 0.021343201398849487, 0.016523493453860283, -0.01485432032495737, 0.16958199441432953, 0.1992555856704712, 0.003771489718928933, 0.0722300335764885, -0.12345264106988907, 0.013835776597261429, -0.07629290968179703, -0.0950721800327301, -6.409918569261208e-05, 0.1310083419084549, 0.08920616656541824, 0.08054861426353455, 0.05445348843932152, 0.18547074496746063, 0.06815759092569351, 0.08846466988325119, -0.03501034528017044, -0.14687031507492065, -0.12602996826171875, 0.014625081792473793, -0.07807466387748718, 0.09392673522233963, 0.04822732135653496, 0.09903965890407562, -0.06144174188375473, -0.032502785325050354, -0.008079416118562222, -0.06198030710220337, 0.06142700836062431, 0.0965699702501297, 0.09252140671014786, 0.1236242949962616, -0.104204460978508, -0.03082553669810295, -0.03458250313997269, -0.033134058117866516, -0.06194501370191574, -0.13242939114570618, 0.04157910868525505, -0.13551023602485657, -0.044379256665706635, -0.006038492079824209, -0.1232651099562645, -0.015059685334563255, 0.020888304337859154, -0.03122090920805931, 0.024631695821881294, -0.1074240580201149, 0.07118133455514908, 0.07695648819208145, -0.035158585757017136, -0.0009910406079143286, -0.029257405549287796, -0.054042160511016846, 0.04655025154352188, 0.07095653563737869, 0.05745391547679901, -0.10230956226587296, -0.09338852018117905, -0.06665608286857605, 0.00833546370267868, 0.08991286903619766, -0.13976211845874786, -0.13501590490341187, -0.12797029316425323, 0.13434530794620514, -0.20536938309669495, 0.03613600134849548, -0.10691514611244202, -0.01714601181447506, -0.0037041178438812494, 0.04225875064730644, -0.002687303815037012, -0.11407103389501572, 0.0460103377699852, -0.06443368643522263, -0.0011924882419407368, 0.07628664374351501, -0.12375190109014511, -0.03038533590734005, -0.07517483085393906, -0.02374478429555893, -0.1507100909948349, 0.056630153208971024, 0.15935128927230835, -0.0960422232747078, -0.07300912588834763, 0.14777475595474243, -0.024313800036907196, -0.0853901132941246, -0.04742002487182617, -0.07851963490247726, -0.03594634309411049, 0.05133054405450821, 0.09934596717357635, -0.14697709679603577, 0.04747696593403816, 0.0040590958669781685, 0.07067134231328964, 0.11358601599931717, 0.08430561423301697, -0.11201628297567368, -0.011324825696647167, 0.10738866776227951, 0.07786700129508972, 0.02860839292407036, -0.16813695430755615, -0.05087864771485329, -0.0603778250515461, -0.046751923859119415, 0.05862528458237648, -0.035133764147758484, 0.16795776784420013, 0.13932619988918304, 0.09467560797929764, 0.029132012277841568, 0.12694156169891357, -0.050932321697473526, 0.04776804894208908, -0.05496395751833916, -0.14006052911281586, 0.10484124720096588, -0.007248675916343927, 0.19825853407382965, 0.12167906761169434, 0.01937035843729973, -0.10237153619527817, -0.1245279535651207, -0.1333536058664322, -0.20741471648216248, -0.1580280363559723, 0.10802280902862549, 0.07876159250736237, 0.07080815732479095, 0.034767698496580124, 0.20472213625907898, -0.0362534299492836, 0.15779729187488556, 0.21360407769680023, -0.05153346806764603, 0.1332135647535324, -0.17705295979976654, -0.011179063469171524, -0.05682427063584328, -0.0694463923573494, 0.13781380653381348, -0.03728655353188515, 0.1558285504579544, 0.12987488508224487, -0.0742933601140976, 0.1131993904709816, 0.11911123991012573, 0.044916458427906036, -0.0928950160741806, 0.09337115287780762, -0.09118080884218216, 0.03620397672057152, -0.07728447765111923, 0.028670823201537132, -0.015402376651763916, 0.04141971841454506, 0.13509301841259003, -0.153736874461174, -0.24837268888950348, -0.09918499737977982, 0.0562715008854866, -0.10557236522436142, -0.027879780158400536, 0.07544757425785065, -0.13256971538066864, 0.045218922197818756, -0.04672010615468025, 0.08293288946151733, 0.01024618186056614, 0.13496024906635284, -0.1874726563692093, 0.08971164375543594, 0.027439214289188385, -0.08878545463085175, 0.05608027055859566, -0.153178408741951, -0.01640392653644085, -0.003521532751619816, -0.12673330307006836, 0.2519541084766388, 0.0761062428355217, -0.16436541080474854, -0.0003892742097377777, 0.03010997734963894, -0.016199342906475067, -0.0011059611570090055, 0.06078466400504112, 0.041332680732011795, -0.18885022401809692, 0.0008713062852621078, 0.013166297227144241, -0.019548563286662102, 0.05701601505279541, -0.2285958230495453, 0.09258688241243362, -0.10118941217660904, 0.2276363968849182, -0.058121856302022934, 0.016002025455236435, 0.11975610256195068, -0.24937887489795685, -0.04493439942598343, -0.20973458886146545, 0.22583037614822388, -0.02526630088686943, -0.11812342703342438, -0.053034134209156036, -0.010222932323813438, -0.022248756140470505, -0.04662849009037018, 0.09566116333007812, -0.04495319724082947, -0.10943371802568436, -0.06045204773545265, -0.03523566201329231, -0.008679460734128952, -0.09330148249864578, -0.14370998740196228, -0.1604369878768921, 0.11880077421665192, -0.0834236666560173, -0.1567915380001068, 0.1532742977142334, 0.05285682901740074, -0.01662583276629448, -0.08222252875566483, 0.014571028761565685, 0.09278658777475357, 0.0529882088303566, -0.042936909943819046, 0.05548259615898132, -0.09641649574041367, -0.07208694517612457, 0.06403128057718277, -0.06721783429384232, 0.03855815529823303, 0.05687175318598747, -0.0011245857458561659, 0.07849877327680588, 0.12386439740657806, 0.08738069981336594, -0.051791898906230927, -0.05043616145849228, -0.11969012022018433, -0.06053997576236725, 0.012063266709446907, 0.08295274525880814, -0.0177383404225111, 0.09543975442647934, 0.16726206243038177, 0.16298261284828186, 0.11856096237897873, -0.00933499913662672, -0.056683313101530075, 0.1736379861831665, -0.08144348114728928, -0.05903473496437073, 0.16834700107574463, 0.0669795349240303, 0.15904507040977478, 0.18704485893249512, -0.020840097218751907, -0.15060953795909882, -0.07128268480300903, -0.132815420627594, -0.06549417972564697, -0.01089637354016304, -0.05102537199854851, 0.09458201378583908, -0.015569781884551048, -0.09971622377634048, 0.08199188113212585, -0.19912877678871155, 0.0732668936252594, -0.11277197301387787, -0.08861596882343292, -0.13822034001350403, -0.0950746163725853, 0.028710655868053436, 0.11754880845546722, -0.09278297424316406, 0.1853056252002716, -0.08393092453479767, -0.03163786232471466, 0.1457766592502594, -0.1392378807067871, -0.10276307165622711, -0.03210409730672836, 0.10544385015964508, 0.015991253778338432, -0.1614416390657425, 0.10331787168979645, 0.19063305854797363, 0.05834156647324562, -0.002095174277201295, 0.012292279861867428, 0.10617080330848694, -0.049569398164749146, 0.03784835711121559, -0.09165496379137039, -0.06444552540779114, -0.0009544483618810773, -0.1463233083486557, -0.1054668128490448, -0.07057743519544601, -0.15864023566246033, 0.06944878399372101, -0.055806249380111694, 0.05134928598999977, 0.006086868699640036, -0.2943718135356903, -0.07583176344633102, 0.10308128595352173, 0.15617679059505463, 0.013780497945845127, -0.03260401263833046, -0.10978968441486359, 0.3404858708381653, 0.28451231122016907, -0.11378900706768036, -0.5588124394416809, 0.5655388236045837, 0.6842162609100342, -0.6942792534828186, -0.8310724496841431, 0.3277605473995209, -0.6512178778648376, -0.44918495416641235, 0.09171026945114136, -0.6874743103981018, -0.28054964542388916, -0.22283115983009338, 0.5496323108673096, 0.17529325187206268, -0.1555718630552292, -0.22940310835838318, -0.060905300080776215, -0.047246772795915604, 0.06666195392608643, -0.08669652789831161, -0.03242027387022972, -0.11505548655986786, -0.21375377476215363, 0.1957642287015915, 0.17146515846252441, 0.07633057981729507, 0.0047730314545333385, 0.06927710026502609, -0.21243838965892792, -0.015303277410566807, -0.10333850234746933, 0.11402609199285507, -0.1974036693572998, -0.03728003054857254, 0.23750177025794983, -0.1816752403974533, 0.1483953893184662, 0.007335752248764038, -0.08426941931247711, 0.11773531883955002, 0.1871984899044037, 0.16180433332920074, 0.09235130995512009, 0.16416235268115997, 0.12799695134162903, 0.27465465664863586, -0.043011005967855453, 0.1423860639333725, -0.07553526014089584, 0.12224924564361572, 0.08906837552785873, -0.21107156574726105, 0.12744712829589844, 0.08943969011306763, -0.08034680038690567, 0.061120614409446716, -0.27106931805610657, 0.05173318088054657, -0.1426628679037094, -0.027174148708581924, 0.10755382478237152, -0.09509270638227463, -0.11674567312002182, -0.12179171293973923, 0.22737766802310944, -0.1496380865573883, 0.23393824696540833, -0.11226677894592285, 0.15217137336730957, 0.0769708901643753, -0.0187515951693058, -0.2280874401330948, 0.12079939246177673, 0.2686631381511688, -0.00352752604521811, 0.1093566045165062, -0.22355720400810242, 0.0802961066365242, 0.06354723870754242, 0.18577887117862701, 0.009183119051158428, -0.22821830213069916, -0.02453012950718403, -0.06232743710279465, -0.17208008468151093, 0.13859927654266357, -0.060493748635053635, 0.1167316660284996, 0.024347444996237755, -0.2320575714111328, 0.23838651180267334, 0.11947271227836609, 0.21656595170497894, 0.23066067695617676, 0.27789339423179626, -0.046302441507577896, 0.07763656228780746, 0.062260668724775314, -0.019038425758481026, 0.312687486410141, -0.0026010742876678705, -0.08983313292264938, -0.20788820087909698, -0.060872890055179596, -0.2204432487487793, -0.23679238557815552, -0.05021258816123009, -0.10755825787782669, -0.10936522483825684, -0.032800618559122086, 0.12889018654823303, 0.21782031655311584, 0.16222228109836578, 0.043578822165727615, -0.010669933632016182, -0.07867048680782318, -0.2092771679162979, 0.05617945268750191, 0.0029798964969813824, -0.051524143666028976, 0.10710818320512772, 0.020038144662976265, -0.09773175418376923, -0.1651080995798111, -0.16408061981201172, -0.27845174074172974, 0.0780407264828682, 0.0428556427359581, -0.03567072004079819, 0.12949074804782867, 0.24003414809703827, -0.3200530707836151, 0.01612895354628563, -0.14571677148342133, -0.009185713715851307, -0.051791951060295105, 0.04785748943686485, -0.1730455905199051, -0.16073596477508545, -0.010124328546226025, 0.01584017463028431, 0.2173881083726883, -0.12286844849586487, 0.23112037777900696, 0.13354302942752838, 0.06784625351428986, 0.017347799614071846, 0.17181849479675293, 0.007698271423578262, -0.10481154918670654, 0.06410659104585648, 0.24706628918647766, 0.00755272014066577, -0.08399862051010132, -0.09210268408060074, -0.15693286061286926, 0.19913750886917114, -0.0028029857203364372, 0.13125215470790863, -0.25721365213394165, 0.2176242619752884, 0.16862885653972626, 0.09656792879104614, -0.05719557777047157, 0.25031939148902893, 0.11519528925418854, -0.2678120732307434, 0.013907148502767086, 0.02890905924141407, 0.059036798775196075, 0.26351749897003174, -0.28049665689468384, 0.004453812725841999, -0.04613509774208069, 0.07259168475866318, -0.17809325456619263, 0.10698171705007553, 0.20422683656215668, 0.028290215879678726, -0.014418109320104122, -0.010069331154227257, 0.04679259657859802, 0.08095938712358475, -0.14877551794052124, -0.12791916728019714, -0.13964003324508667, 0.0023951788898557425, -0.10165056586265564, -0.12438412755727768, 0.06587986648082733, -0.2394493967294693, 0.20622175931930542, 0.061007995158433914, -0.05011887103319168, 0.21244320273399353, -0.10407368093729019, 0.01630951650440693, -0.15707479417324066, -0.113645039498806, -0.06382188200950623, 0.1302400827407837, -0.1313842087984085, -0.10092766582965851, -0.3095591366291046, -0.2673296630382538, -0.1238374337553978, -0.15472929179668427, -0.07204839587211609, 0.1737380176782608, 0.09895201027393341, 0.1850382685661316, -0.12594492733478546, -0.22774286568164825, 0.22377358376979828, 0.04883021488785744, 0.08404821902513504, -0.1069812923669815, -0.05824394151568413, 0.012553129345178604, -0.03930104896426201, 0.14299383759498596, -0.16148875653743744, -0.06498511880636215, -0.1571771502494812, 0.08264906704425812, -0.03183058276772499, -0.19530758261680603, 0.24912506341934204, 0.040846336632966995, -0.15068019926548004, 0.2579195201396942, 0.08231265842914581, 0.16840173304080963, -0.1761544644832611, 0.21834757924079895, 0.00785575620830059, -0.21652938425540924, -0.195579394698143, 0.05763288587331772, -0.20414716005325317, 0.21721577644348145, -0.07750920206308365, 0.2105860859155655, 0.25769340991973877, 0.11008251458406448, 0.07995563000440598, -0.10406141728162766, 0.20365062355995178, 0.030135396867990494, 0.04580962657928467, 0.19293341040611267, 0.12467313557863235, -0.044298719614744186, -0.15942807495594025, -0.2746331989765167, 0.16750995814800262, -0.15170210599899292, -0.047182418406009674, 0.029626961797475815, 0.024399805814027786, -0.10146825015544891, 0.2074771523475647, -0.18919913470745087, 0.15959559381008148, 0.12429585307836533, 0.3689490556716919, 0.027294641360640526, 0.11493191868066788, -0.10851377993822098, -0.13811559975147247, -0.21296676993370056, -0.2148922234773636, 0.030406342819333076, 0.2172548770904541, -0.011887600645422935, -0.024759870022535324, -0.010066735558211803, -0.2442055493593216, -0.1580844521522522, 0.21304714679718018, -0.26968616247177124, 0.011242247186601162, 0.06777830421924591, 0.15624618530273438, 0.2310275435447693, -0.13804404437541962, -0.08891613781452179, 0.012168478220701218, -0.18401293456554413, -0.02505798079073429, 0.05138373374938965, 0.1284700483083725, -0.015543886460363865, 0.10953155159950256, -0.07954690605401993, -0.049746785312891006, 0.1355770379304886, 0.07205482572317123, 0.06598915904760361, 0.05860571190714836, 0.2950018048286438, 0.04334409907460213, -0.04573211446404457, -0.1832195520401001, 0.06920807808637619, 0.012496651150286198, 0.026818126440048218, -0.07003220170736313, 0.05392085388302803, 0.13702133297920227, -0.06472434848546982, -0.02462916076183319, 0.1393251270055771, 0.1234290674328804, 0.025795506313443184, -0.03357486054301262, 0.04697638750076294, -0.11837869137525558, -0.014413761906325817, 0.022741498425602913, 0.1726900190114975, 0.06402607262134552, -0.05714686959981918, 0.19280362129211426, 0.18805630505084991, 0.1381562054157257, 0.08547671139240265, 0.009262110106647015, -0.08312838524580002, 0.04816047474741936, -0.053437065333127975, -0.08339851349592209, 0.026589084416627884, 0.036845505237579346, -0.1066536158323288, 0.03701857104897499, 0.07654397934675217, -0.09601724147796631, -0.06219246983528137, -0.00029038076172582805, 0.0025133835151791573, -0.04966409504413605, 0.14391089975833893, -0.024251937866210938, 0.003950845915824175, 0.019702451303601265, -0.051441390067338943, -0.0734260305762291, -0.21266217529773712, 0.030247887596488, -0.0463608056306839, -0.12178722023963928, -0.07993818074464798, -0.03964361548423767, 0.0700405091047287, 0.011622904799878597, -0.10965735465288162, 0.06896571815013885, -0.006809168495237827, -0.15130941569805145, -0.03573685511946678, 0.08410900831222534, 0.020558152347803116, -0.17228750884532928, -0.09138565510511398, -0.09870748966932297, -0.062354814261198044, 0.07011730223894119, -0.05948936939239502, -0.12461013346910477, -0.037733543664216995, -0.013392607681453228, -0.05941280350089073, -0.18266820907592773, 0.0190754234790802, 0.06337065994739532, 0.06458200514316559, 0.1457270085811615, -0.020617472007870674, -0.11788875609636307, -0.10968955606222153, 0.010701628401875496, 0.12023144960403442, -0.109038345515728, 0.13064950704574585, -0.13810865581035614, -0.026060251519083977, 0.13382641971111298, -0.07487520575523376, -0.06641261279582977, 0.08606400340795517, 0.11427593231201172, -0.004738715942949057, -0.08077254891395569, -0.16831865906715393, -0.13606864213943481, -0.254938542842865, 0.011616301722824574, 0.16883139312267303, 0.11196938157081604, -0.04343515262007713, -0.07939564436674118, -0.03567611426115036, 0.11280879378318787, 0.019417550414800644, -0.012311933562159538, -0.04439178481698036, 0.10303083062171936, -0.11774999648332596, -0.011974941939115524, 0.11763451993465424, -0.139896959066391, -0.05287187919020653, 0.09405182301998138, 0.010411598719656467, 0.0029614644590765238, 0.13594971597194672, -0.042481679469347, 0.15780530869960785, 0.05656006932258606, -0.07609264552593231, -0.023028509691357613, 0.012365475296974182, -0.09399979561567307, 0.09963703900575638, 0.04236579313874245, 0.21429085731506348, 0.1294378787279129, -0.06003381684422493, 0.182061567902565, -0.018854226917028427, -0.03351240232586861, 0.1255439817905426, 0.07269756495952606, 0.2208564132452011, -0.05408325046300888, -0.02384282276034355, 0.01563161239027977, 0.14187030494213104, 0.07335058599710464, 0.12350132316350937, -0.056518830358982086, -0.1517774611711502, -0.04065308719873428, -0.002033309079706669, 0.010487210936844349, 0.06503631919622421, 0.07757347077131271, 0.09250322729349136, -0.1331690102815628, 0.19527417421340942, 0.19231164455413818, -0.08923918008804321, -0.09834108501672745, 0.001620537950657308, 0.01036650501191616, 0.09226038306951523, 0.09316762536764145, 0.11226031929254532, 0.021558037027716637, -0.014183065854012966, 0.11658371239900589, 0.14051949977874756, 0.12207531929016113, -0.09758812934160233, -0.015010586008429527, -0.08079473674297333, -0.15970289707183838, -0.16900642216205597, -0.22476904094219208, 0.17826856672763824, 0.05138371139764786, -0.032675325870513916, 0.14320839941501617, -0.04686759039759636, -1.9477822206681594e-05, 0.014280358329415321, -0.08194628357887268, -0.1565222591161728, -0.012941956520080566, 0.24012480676174164, -0.0418253019452095, 0.0943748950958252, -0.12396464496850967, -0.06892985105514526, -0.08202170580625534, 0.015326433815062046, -0.022392604500055313, -0.09277426451444626, 0.06079559400677681, 0.061660874634981155, -0.03687090426683426, 0.08526615798473358, 0.04063885658979416, -0.19483895599842072, -0.12165181338787079, 0.136264368891716, 0.06744679808616638, 0.025159306824207306, 0.06057855114340782, -0.08991315215826035, 0.17726503312587738, -0.0405333936214447, -0.15029126405715942, 0.03283493220806122, -0.10929205268621445, 0.11961124837398529, -0.06936700642108917, -0.08924537897109985, 0.050861164927482605, -0.16457635164260864, -0.018209489062428474, 0.00602306704968214, 0.015777675434947014, 0.11571916937828064, -0.0439654178917408, 0.13717865943908691, 0.0011953231878578663, 0.02970740757882595, -0.01735156774520874, -0.13926900923252106, -0.0496816448867321, -0.09954199939966202, 0.042863987386226654, -0.08922996371984482, -0.10797235369682312, 0.08405862003564835, -0.07541989535093307, -0.17351581156253815, 0.06307248771190643, 0.016136355698108673, -0.2235337793827057, 0.1635264754295349, -0.16147084534168243, -0.0979248657822609, -0.05316149815917015, -0.028332633897662163, -0.13734576106071472, 0.01177207101136446, -0.1365583837032318, 0.3358176350593567, -0.1048559844493866, -0.09937428683042526, -0.03196767345070839, -0.05034024640917778, 0.2586974799633026, -0.12489812821149826, 0.03271997720003128, 0.15627111494541168, 0.11052393913269043, 0.15683606266975403, -0.14412802457809448, 0.03952518850564957, -0.00745964702218771, 0.03414279967546463, 0.23809631168842316, -0.04912792891263962, 0.20116782188415527, 0.015832610428333282, -0.10121838003396988, 0.1065918356180191, -0.01598685048520565, 0.04536331072449684, 0.08131923526525497, -0.06460902094841003, 0.10301841795444489, -0.05199477821588516, 0.1081828847527504, 0.04904164746403694, 0.04309398680925369, -0.10779618471860886, -0.10801257193088531, 0.0514892116189003, -0.2641873061656952, -0.0536181814968586, 0.0202583447098732, -0.08324495702981949, 0.17692118883132935, -0.07787024229764938, -0.14207938313484192, 0.007088780868798494, -0.04393565282225609, -0.1889013648033142, -0.1339753419160843, -0.06662038713693619, 0.11688023805618286, 0.14325621724128723, 0.1482975035905838, 0.17955313622951508, 0.005587696097791195, 0.02570609748363495, -0.003919579088687897, -0.17896120250225067, -0.02106781303882599, -0.18791109323501587, -0.058198124170303345, 0.06262757629156113, -0.07025996595621109, -0.06047351285815239, -0.02145841158926487, -0.16199050843715668, -0.09912952035665512, -0.07264544814825058, 0.07057618349790573, -0.027946121990680695, 0.20163679122924805, -0.03377552330493927, -0.2501804828643799, -0.1043226420879364, -0.1388188600540161, 0.06617183238267899, -0.09950905293226242, 0.027968574315309525, 0.1293443739414215, 0.18952515721321106, 0.10362246632575989, 0.017324378713965416, -0.051147472113370895, -0.14492160081863403, -0.08430737257003784, -0.07045499235391617, -0.0701659619808197, 0.04879770055413246, 0.13680578768253326, -0.04691939055919647, -0.122675321996212, -0.018525488674640656, 0.01961653120815754, 0.13212262094020844, 0.06059587001800537, -0.07482470571994781, 0.06135501712560654, -0.015450259670615196, 0.1087353304028511, 0.09317656606435776, -0.023733986541628838, 0.1624491810798645, 0.09882218390703201, -0.2014034390449524, 0.1352163553237915, -0.026974689215421677, 0.10025162249803543, -0.08170077949762344, 0.03777680918574333, 0.08133521676063538, 0.06256957352161407, 0.05935121327638626, 0.16890837252140045, -0.06976021826267242, 0.03853249549865723, 0.0025766692124307156, -0.15721912682056427, -0.04570617154240608, 0.016795910894870758, -0.10695214569568634, 0.017988737672567368, 0.05922777205705643, 0.10432719439268112, 0.18376246094703674, 0.16450737416744232, 0.0859965980052948, -0.06775873899459839, -0.07245629280805588, -0.08845686912536621, -0.10799254477024078, -0.15158209204673767, -0.32802027463912964, -0.1913326531648636, -0.11744995415210724, -0.14886876940727234, -0.08555429428815842, -0.028035998344421387, 0.12316706031560898, 0.1347840428352356, 0.05972167104482651, 0.23900634050369263, 0.15116576850414276, 0.0236690491437912, -0.13595783710479736, -0.0568307563662529, 0.015063934959471226, 0.13909928500652313, 0.02346510998904705, 0.06340904533863068, 0.13524547219276428, 0.045093435794115067, 0.06884618103504181, -0.11796601116657257, 0.08261188119649887, 0.007701590191572905, 0.001845686580054462, -0.1768939197063446, 0.13710936903953552, 0.02540498599410057, 0.15336871147155762, 0.008502752520143986, 0.15101218223571777, 0.03554787114262581, 0.0740358754992485, -0.07085289061069489, 0.005845075473189354, 0.021826621145009995, -0.1198502629995346, 0.03694012388586998, 0.015097923576831818, -0.05178188905119896, -0.16730618476867676, -0.09412812441587448, 0.06760576367378235, -0.004621750209480524, -0.02427506074309349, -0.10996010154485703, 0.07410609722137451, 0.106260284781456, -0.14528582990169525, -0.20484156906604767, 0.05010674521327019, 0.011727407574653625, -0.15468119084835052, -0.15778636932373047, 0.08823821693658829, -0.19687390327453613, 0.05158187448978424, -0.10935230553150177, -0.19248832762241364, 0.12637780606746674, 0.16996392607688904, 0.1595594882965088, -0.07871486246585846, -0.13177624344825745, -0.1202472373843193, 0.09909442812204361, -0.27386581897735596, -0.05930297076702118, 0.17984475195407867, -0.0970897451043129, -0.0825711190700531, -0.17894001305103302, -0.07219292968511581, -0.1085732951760292, -0.13430312275886536, -0.11598128825426102, -0.07737082242965698, 0.0403461828827858, 0.20803451538085938, 0.1294707953929901, -0.13855110108852386, 0.042970553040504456, 0.06855620443820953, -0.09347347170114517, 0.1411522626876831, -0.05888259410858154, 0.003449471667408943, 0.16101554036140442, 0.07267539203166962, 0.051207587122917175, 0.0092275720089674, 0.03805994242429733, 0.19685927033424377, 0.10916386544704437, 0.12116090208292007, -0.08033090829849243, 0.07642436027526855, -0.1333589404821396, -0.03860827535390854, -0.0821617916226387, -0.02843797393143177, -0.07767070829868317, -0.060618843883275986, -0.06288609653711319, 0.09128155559301376, 0.10627308487892151, 0.03290599212050438, -0.034365877509117126, -0.18757058680057526, -0.10007722675800323, -0.02205844782292843, -0.08338353782892227, 0.08257965743541718, -0.09723439067602158, 0.17520011961460114, -0.06827975809574127, -0.20376501977443695, -0.023499902337789536, -0.028025219216942787, -0.004651086870580912, -0.17462241649627686, -0.058129552751779556, -0.0683845803141594, 0.0847274661064148, 0.02450587786734104, -0.10523051023483276, 0.09534920752048492, -0.18491250276565552, -0.011223445646464825, -0.185102641582489, 0.03137956187129021, -0.04698185622692108, 0.11783460527658463, 0.048090655356645584, 0.0063213566318154335, -0.08671202510595322, 0.00993797555565834, -0.06619466096162796, -0.04372381418943405, 0.13385234773159027, -0.10511355847120285, 0.02541206032037735, 0.10084500908851624, 0.05987454578280449, -0.080741748213768, -0.1636727899312973, 0.14481386542320251, -0.08805160224437714, 0.1343725025653839, -0.08958463370800018, -0.22221966087818146, -0.1430969536304474, 0.026394033804535866, -0.06564845889806747, -0.15555277466773987, -0.12086167186498642, -0.1717791110277176, 0.25981244444847107, 0.05244952440261841, -0.02479655295610428, -0.0797308087348938, -0.028808126226067543, -0.05773293599486351, -0.20852674543857574, -0.08699163049459457, -0.03918243572115898, 0.06478371471166611, -0.10484901070594788, 0.013956468552350998, -0.0005614365800283849, -0.09888283163309097, -0.05092262849211693, -0.24351678788661957, -0.17756828665733337, -0.03797411918640137, 0.17305727303028107, -0.1285042017698288, 0.1260521560907364, 0.23449821770191193, -0.06048782542347908, 0.07509730756282806, 0.01885157823562622, -0.13222400844097137, -0.11729618161916733, 0.1600664108991623, -0.05645248666405678, -0.1079932153224945, -0.14180709421634674, 0.13029783964157104, -0.01001035887748003, 0.10882511734962463, 0.14428262412548065, 0.12095105648040771, 0.24843673408031464, -0.06109343469142914, -0.30699291825294495, 0.0397956520318985, -0.23078803718090057, -0.20327217876911163, -0.1555285006761551, -0.00873080175369978, -0.16307280957698822, -0.15493838489055634, -0.12293101102113724, 0.08898481726646423, 0.05155174434185028, -0.03157183527946472, 0.02378045581281185, -0.06982686370611191, 0.0924864262342453, -0.03288755565881729, -0.18084262311458588, 0.08552072942256927, 0.32844170928001404, -0.06668230146169662, 0.2617396116256714, -0.03446124866604805, 0.07528390735387802, 0.1383611410856247, 0.05582958459854126, 0.11596546322107315, -0.010314046405255795, -0.10277532786130905, -0.19010086357593536, -0.053856927901506424, -0.049295488744974136, 0.09560120850801468, 0.05519942194223404, -0.11225523799657822, -0.022912077605724335, 0.06466538459062576, 0.15841849148273468, 0.09105487167835236, 0.016884295269846916, 0.0012659181375056505, 0.09901758283376694, -0.003561371238902211, 0.06165840104222298, -0.08261893689632416, 0.04120032861828804, -0.02343125455081463, 0.15096955001354218, -0.06876240670681, -0.022360093891620636, 0.21441295742988586, -0.12588253617286682, -0.19166681170463562, -0.20816099643707275, -0.0683545470237732, -0.14556284248828888, -0.19359906017780304, 0.01266656257212162, 0.09279288351535797, 0.16161629557609558, 0.19311359524726868, 0.1389703005552292, -0.12770970165729523, -0.0010593910701572895, -0.11230362206697464, -0.18758325278759003, -0.06212358549237251, 0.06582982838153839, 0.1892060786485672, 0.02561478689312935, 0.11020825058221817, -0.05687316879630089, 0.07142951339483261, 0.05726861208677292, -0.20598909258842468, -0.013644564896821976, -0.12397696822881699, 0.09323517233133316, 0.021102264523506165, -0.0877399668097496, 0.20880794525146484, -0.03344709798693657, -0.08554621040821075, -0.0855608731508255, -0.003673800965771079, 0.15731434524059296, 0.027385983616113663, -0.098116934299469, -0.002997176954522729, -0.028914518654346466, -0.10214775055646896, -0.1473534256219864, 0.29415184259414673, 0.17088820040225983, 0.06299934536218643, 0.10528405010700226, 0.08648525923490524, -0.05816928669810295, 0.15429426729679108, 0.1489643156528473, -0.36614319682121277, -0.3627607822418213, 0.025749847292900085, -0.08786572515964508, 0.04837128892540932, -0.10004153102636337, 0.006101453676819801, -0.08599130064249039, 0.2298775017261505, 0.05740136280655861, 0.13260877132415771, -0.036455556750297546, -0.03005046211183071, 0.07572521269321442, 0.09520677477121353, 0.06293477863073349, -0.04496436566114426, -0.18047396838665009, -0.021861370652914047, 0.16530445218086243, -0.03301454335451126, 0.1093427836894989, 0.1055731549859047, -0.28885072469711304, -0.2181769162416458, -0.15115885436534882, 0.18206067383289337, 0.12508483231067657, 0.07553140819072723, -0.14188627898693085, -0.06404384970664978, 0.1420195996761322, -0.1676318645477295, -0.05348499119281769, 0.13838700950145721, -0.025926504284143448, -0.010247083380818367, -0.22750365734100342, 0.1072668507695198, 0.136000856757164, -0.2350904494524002, 0.22276876866817474, -0.1013873815536499, 0.1905161738395691, 0.03257254511117935, 0.07249483466148376, -0.11002306640148163, -0.004366586916148663, 0.09138478338718414, 0.007128115743398666, 0.010334223508834839, 0.003573741763830185, 0.06659481674432755, 0.11979351192712784, 0.06275671720504761, 0.062243230640888214, -0.029606105759739876, -0.2029845416545868, -0.09502287209033966, -0.075640469789505, -0.24930906295776367, -0.10399283468723297, 0.019826572388410568, 0.18360252678394318, 0.057956233620643616, -0.16911250352859497, 0.27796366810798645, 0.010344509966671467, 0.05653725564479828, 0.13904255628585815, 0.20279660820960999, 0.1946544647216797, -0.19787998497486115, -0.08947225660085678, -0.06910928338766098, -0.18545038998126984, 0.10860711336135864, -0.009804954752326012, 0.082312673330307, -0.028797604143619537, 0.08120740205049515, 0.22390946745872498, 0.16720269620418549, -0.1299862414598465, -0.011518699117004871, -0.07393541932106018, -0.07662142068147659, -0.11880799382925034, -0.2163447141647339, -0.2173384428024292, 0.16889625787734985, -0.11064845323562622, -0.12597936391830444, -0.02036287635564804, 0.06404728442430496, 0.018926918506622314, -0.139195516705513, -0.1415298581123352, 0.0063588377088308334, 0.20329754054546356, -0.03949815034866333, -0.051422372460365295, -0.07779324799776077, 0.05157182365655899, 0.09827988594770432, -0.10861512273550034, -0.030986057594418526, 0.16474133729934692, -0.09963754564523697, -0.02066420204937458, 0.7948210835456848, -0.6603179574012756, 0.5197721719741821, -0.2969878911972046, -0.7660104036331177, -0.8215857744216919, -0.9487331509590149, 0.4112758934497833, 0.625912070274353, -0.31400394439697266, 0.43189287185668945, -0.11735285818576813, -0.6431488990783691, 0.9221866726875305, 0.699938952922821, 0.09410282224416733, -0.1519603282213211, -0.14255967736244202, -0.008865635842084885, -0.12187930941581726, 0.5202023386955261, -0.06112398952245712, 0.12604305148124695, 0.09418904781341553, -0.18022632598876953, 0.05936521664261818, -0.08832547068595886, 0.10813967138528824, -0.05655317381024361, 0.25111865997314453, -0.07788430154323578, -0.10766000300645828, -0.15039198100566864, 0.11558829993009567, -0.04504387453198433, -0.21970632672309875, 0.1301557719707489, -0.2946432828903198, 0.10159759968519211, -0.022024786099791527, -0.006885371170938015, -0.033330317586660385, 0.22930759191513062, -0.09827755391597748, -0.03289525955915451, 0.24449028074741364, 0.1915542036294937, 0.21449390053749084, -0.09975184500217438, -0.19200065732002258, 0.02027108334004879, -0.11975961178541183, 0.07614416629076004, 0.04526495933532715, -0.10507681965827942, 0.10161679983139038, 0.20372812449932098, -0.018879184499382973, -0.02183876372873783, 0.17440104484558105, -0.02885366417467594, 0.10266610980033875, -0.058305006474256516, -0.26087990403175354, 0.1323598325252533, -0.04473979026079178, 0.08069563657045364, -0.16461141407489777, 0.11224475502967834, 0.09623663872480392, -0.10208287835121155, -0.098894864320755, -0.015210770070552826, -0.30112043023109436, 0.15955112874507904, 0.01414556335657835, 0.11038435250520706, 0.15972256660461426, -0.21484637260437012, -0.09638065099716187, -0.03883850947022438, -0.26898393034935, -0.001896348549053073, 0.15724696218967438, 0.1393875777721405, -0.2636767029762268, 0.17452074587345123, 0.01287916861474514, 0.17127160727977753, 0.09127089381217957, 0.03631781414151192, -0.04887201264500618, 0.1848345398902893, -0.20823734998703003, -0.12702183425426483, 0.21806463599205017, 0.05538211390376091, -0.2747349143028259, -0.011795856058597565, -0.0024576920550316572, -0.06565540283918381, -0.10667022317647934, -0.27789071202278137, -0.05463014915585518, 0.19369739294052124, 0.18943065404891968, 0.009519735351204872, -0.027079671621322632, 0.049771253019571304, -0.14439819753170013, -0.22749873995780945, -0.19738207757472992, 0.27329856157302856, 0.0736774131655693, 0.24113264679908752, 0.06511179357767105, -0.1894025057554245, 0.03326854109764099, -0.323066771030426, -0.13321688771247864, -0.09506099671125412, -0.3238837718963623, 0.13258911669254303, -0.10886217653751373, 0.23729093372821808, 0.1691664606332779, -0.017079470679163933, 0.3414801359176636, 0.1246555745601654, -0.2847192883491516, 0.03684164956212044, -0.07935276627540588, 0.02617070823907852, 0.2353006899356842, -0.047908466309309006, -0.10005698353052139, -0.1591758131980896, 0.17912477254867554, -0.05693253129720688, 0.10044414550065994, 0.16009113192558289, -0.11530178040266037, -0.09088025242090225, 0.14890387654304504, 0.14347544312477112, -0.02885177917778492, -0.2257247120141983, 0.20007692277431488, -0.03331533446907997, 0.18318963050842285, -0.05294826254248619, -0.16747990250587463, -0.24749232828617096, -0.002019535982981324, 0.22040756046772003, -0.3076420724391937, 0.12485422194004059, 0.13207602500915527, -0.3360016345977783, -0.08713994920253754, 0.09155881404876709, -0.18908579647541046, 0.24350157380104065, -0.022328907623887062, 0.020587017759680748, 0.02072245441377163, -0.20227034389972687, -0.0530233271420002, -0.31015026569366455, 0.2761077880859375, 0.17988212406635284, 0.03304465487599373, -0.026396876201033592, -0.05958039313554764, -0.1790219247341156, -0.01351599209010601, 0.21619607508182526, 0.03436299040913582, 0.12792794406414032, 0.07691872119903564, -0.009656564332544804, -0.2640523612499237, 0.15598398447036743, -0.017238114029169083, -0.02834334783256054, -0.048331715166568756, -0.1424596905708313, 0.01264228206127882, 0.04837906360626221, -0.14998668432235718, 0.2494359016418457, 0.12131032347679138, 0.20431317389011383, -0.06324384361505508, 0.21659430861473083, -0.10067732632160187, -0.196332186460495, -0.12743157148361206, -0.02493990585207939, -0.19925056397914886, 0.19226159155368805, 0.19707129895687103, 0.22938112914562225, 0.06304124742746353, 0.24772290885448456, 0.23486721515655518, 0.019373340532183647, 0.018112968653440475, -0.013487228192389011, 0.20058098435401917, 0.16763736307621002, 0.12568974494934082, -0.11041726917028427, -0.2386818379163742, -0.13728395104408264, 0.09510526806116104, -0.24350996315479279, -0.1801646500825882, -0.05596856400370598, -0.14154967665672302, 0.2400178164243698, 0.2913617789745331, 0.05837124213576317, -0.14707815647125244, 0.05275026708841324, -0.1425427794456482, -0.31987127661705017, -0.03040042333304882, -0.23140069842338562, -0.0027338932268321514, 0.08625083416700363, 0.113261379301548, -0.009704705327749252, -0.07831407338380814, -0.0026250488590449095, 0.11461175233125687, 0.01180578488856554, 0.1299140900373459, 0.07159696519374847, 0.14751292765140533, -0.0133158965036273, 0.11620175838470459, -0.13864271342754364, 0.2140461951494217, 0.09970086812973022, 0.14887702465057373, 0.030738959088921547, 0.039482131600379944, -0.22240042686462402, -0.09554161876440048, -0.08504151552915573, -0.0068082609213888645, -0.2112034112215042, -0.1870545744895935, 0.15999870002269745, -0.1006198301911354, -0.06168244406580925, 0.2325209528207779, 0.27913862466812134, 0.000595233344938606, -0.11995638161897659, 0.09650850296020508, -0.12265658378601074, -0.27776941657066345, 0.03631782531738281, -0.1449524313211441, 0.09724302589893341, 0.17258772253990173, 0.14456887543201447, -0.052304767072200775, 0.06632643938064575, 0.07589957863092422, 0.03322762995958328, 0.14872875809669495, -0.09223945438861847, 0.20673418045043945, -0.06209028139710426, -0.33645081520080566, -0.002457114402204752, -0.261689692735672, -0.09693272411823273, 0.20173993706703186, 0.0962778627872467, 0.05681224167346954, -0.02908373810350895, -0.1427781879901886, -0.027932176366448402, -0.12954609096050262, 0.15787659585475922, -0.07410120964050293, 0.007088643964380026, 0.10967226326465607, -0.06989207863807678, 0.06159796938300133, 0.005559371784329414, 0.022098593413829803, 0.1447804868221283, -0.09154992550611496, 0.08663850277662277, 0.22396627068519592, 0.1834876835346222, 0.01613866537809372, 0.1663070172071457, -0.08794023096561432, 0.10263098776340485, -0.07079236954450607, -0.03101722151041031, 0.0168557520955801, -0.3787440061569214, -0.04428775981068611, -0.13451948761940002, -0.02963264472782612, -0.12967102229595184, -0.06453239917755127, -0.0007582263206131756, 0.2629449963569641, -0.18750721216201782, -0.0037670149467885494, -0.034516409039497375, 0.19817470014095306, 0.016520293429493904, -0.02457028441131115, -0.028008846566081047, 0.03585444763302803, 0.04019322991371155, -0.030955594033002853, 0.19154196977615356, 0.14236649870872498, -0.08323078602552414, 0.10337172448635101, 0.08008521050214767, -0.15841932594776154, -0.11348734050989151, -0.040498875081539154, 0.13592985272407532, 0.2628577649593353, 0.09314155578613281, -0.3241463899612427, -0.20416675508022308, -0.2926921844482422, -0.2595502734184265, 0.05675053969025612, -0.06593520939350128, 0.10903029143810272, 0.1566404402256012, 0.30987975001335144, 0.056205276399850845, -0.0005680570611730218, -0.09451622515916824, 0.02400944195687771, -0.2030695378780365, -0.06067395210266113, -0.0658501461148262, 0.007201480679214001, -0.07124071568250656, 0.05795827880501747, -0.19956544041633606, -0.11645995080471039, -0.1285097748041153, 0.05968046188354492, 0.2934415638446808, 0.08622375875711441, -0.17236249148845673, -0.00908642541617155, -0.5709941983222961, -0.15222835540771484, -0.2954444885253906, -0.13393957912921906, 0.06322341412305832, 0.11310280859470367, 0.15409132838249207, -0.1939390003681183, 0.014469758607447147, -0.22352354228496552, -0.01733844354748726, 0.04663786664605141, 0.03935015946626663, -0.2511523365974426, -0.12374996393918991, -0.4136868715286255, 0.16567875444889069, 0.1529412865638733, 0.11445920914411545, -0.36031171679496765, 0.1322745829820633, 0.0792454406619072, 0.1772891879081726, 0.1037234514951706, 0.080361008644104, -0.011330767534673214, -0.034083228558301926, 0.08992696553468704, 0.0813974067568779, 0.20081767439842224, 0.050798650830984116, -0.09179963171482086, -0.022895321249961853, 0.06794275343418121, 0.0027913772501051426, -0.1455884575843811, -0.022372417151927948, 0.0727730542421341, -0.1791660338640213, -0.03007388859987259, -0.08140961825847626, -0.03929043561220169, -0.04869960620999336, -0.11171573400497437, 0.09058601409196854, -0.15264086425304413, -0.1592724323272705, 0.24203719198703766, 0.02419988624751568, -0.01811906136572361, -0.004094453528523445, -0.04022878780961037, 0.056249093264341354, -0.035378601402044296, -0.12157115340232849, -0.024234093725681305, 0.027348970994353294, 0.04733915254473686, 0.061663515865802765, 0.05735639110207558, 0.0797903910279274, -0.13891857862472534, -0.015310087241232395, 0.03371350094676018, 0.1287352293729782, -0.06164291501045227, 0.09636589139699936, -0.3068687319755554, 0.19121618568897247, 0.17621475458145142, 0.026187626644968987, 0.04175851121544838, 0.0985075905919075, -0.03928935155272484, 0.12166840583086014, 0.08211791515350342, 0.07604580372571945, -0.020224623382091522, 0.09562404453754425, -0.07187160104513168, -0.007004228420555592, -0.08449490368366241, -0.15192018449306488, 0.01136302575469017, 0.05549038574099541, 0.09580279886722565, -0.09482048451900482, 0.009310693480074406, 0.04296973720192909, -0.023885969072580338, 0.05774635821580887, -0.1388445645570755, -0.15244455635547638, 0.17747488617897034, -0.05341089516878128, 0.1536085605621338, 0.11094573140144348, 0.022985510528087616, -0.06772683560848236, -0.1671629697084427, -0.0022663939744234085, 0.16800592839717865, -0.05786851793527603, 0.08717173337936401, -0.02475029043853283, 0.024776911363005638, -0.1504053771495819, 0.12044551223516464, 0.05705735832452774, -0.00015468300262000412, 0.12048307061195374, -0.04099976643919945, 0.21549223363399506, -0.02635551616549492, -0.061579905450344086, 0.17810943722724915, -0.11031733453273773, 0.17277608811855316, 0.07216755300760269, 0.013513232581317425, 0.008882985450327396, -0.047807786613702774, -0.08367201685905457, -0.08114158362150192, 0.054090842604637146, -0.05729395151138306, 0.07305789738893509, -0.14254340529441833, -0.18043944239616394, -0.05517562851309776, 0.13179297745227814, -0.056485895067453384, -0.051772382110357285, -0.1281660795211792, -0.01872973144054413, 0.10591036826372147, 0.05205698683857918, 0.19131165742874146, 0.06722359359264374, 0.018278561532497406, -0.13593901693820953, 0.0019075785530731082, 0.09009596705436707, 0.1808544397354126, 0.10611159354448318, -0.0019106969702988863, -0.061901334673166275, 0.12199721485376358, 0.03856806829571724, -0.02928837016224861, 0.136907160282135, 0.14756284654140472, 0.16464294493198395, -0.10475505888462067, -0.06528694182634354, -0.14827090501785278, -0.07772734761238098, -0.039491478353738785, -0.13687008619308472, -0.1151786744594574, -0.04730334132909775, 0.0068167513236403465, 0.029560402035713196, -0.11776956170797348, -0.01766515150666237, -0.25175127387046814, -0.19410774111747742, 0.061813343316316605, -0.16974711418151855, 0.1466745287179947, -0.08856794238090515, -0.015283506363630295, 0.11229357123374939, -0.13995307683944702, -0.07287367433309555, 0.11425859481096268, -0.08291045576334, 0.10757094621658325, 0.22247689962387085, 0.07353803515434265, 0.18720759451389313, 0.08858482539653778, 0.12727423012256622, 0.13121217489242554, 0.21743355691432953, -0.1457200050354004, -0.059487536549568176, -0.06989485025405884, -0.15299461781978607, 0.12086152285337448, 0.05938925966620445, 0.061282481998205185, 0.15491828322410583, -0.10621622949838638, 0.015634778887033463, -0.007908014580607414, -0.15487277507781982, -0.17754743993282318, 0.07666697353124619, 0.043586887419223785, -0.12147238105535507, 0.01475247647613287, -0.07161621749401093, -0.08677727729082108, 0.08091756701469421, 0.15430766344070435, 0.13516324758529663, 0.10784780979156494, -0.2031649798154831, -0.06564175337553024, 0.05853976309299469, -0.11174608021974564, -0.08151961117982864, -0.10086008906364441, -0.04038409888744354, -0.0302079189568758, -0.0697319433093071, -0.11020705103874207, -0.03360098600387573, 0.007560174912214279, 0.05219746381044388, -0.01872001402080059, 0.03555673360824585, 0.023354368284344673, -0.23825035989284515, 0.020491207018494606, -0.090974360704422, 0.07724601775407791, 0.19533327221870422, 0.015296519733965397, 0.09087546169757843, 0.07877286523580551, -0.05940813571214676, 0.19419056177139282, -0.1570160686969757, 0.043719369918107986, -0.05951714143157005, 0.1038922592997551, -0.03667067736387253, 0.06354004144668579, 0.12105689197778702, 0.08473077416419983, 0.19422698020935059, -0.04658329486846924, -0.004513646010309458, -0.1810731291770935, -0.10223525762557983, -0.13139291107654572, -0.09161294251680374, -0.06293363869190216, 0.11523039638996124, -0.12802761793136597, -0.090512216091156, 0.07854302227497101, 0.0778438150882721, 0.06550107896327972, -0.07369577884674072, 0.03362378850579262, -0.005679188296198845, 0.044977784156799316, 0.06573017686605453, -0.06101284548640251, -0.10442745685577393, -0.17859472334384918, -0.03556831181049347, -0.015375528484582901, -0.12176568806171417, -0.1557866483926773, -0.10826701670885086, -0.16868385672569275, -0.027166619896888733, 0.24504396319389343, -0.2016657590866089, 0.020947406068444252, -0.1818491369485855, 0.06437813490629196, 0.07651073485612869, 0.017169367522001266, -0.05265558511018753, -0.06579955667257309, -0.011497514322400093, 0.08736559748649597, 0.16816304624080658, -0.13201391696929932, -0.05761009082198143, -0.010974754579365253, -0.0800502672791481, -0.08814267069101334, 0.07193132489919662, 0.1400585174560547, 0.3099357485771179, 0.06473250687122345, -0.14412282407283783, -0.11451437324285507, -0.06079518049955368, -0.0236552432179451, -0.1394064873456955, 0.05660900101065636, 0.19563372433185577, -0.0034628103021532297, 0.10721500962972641, -0.12338054180145264, 0.07311593741178513, -0.03889409080147743, -0.017986545339226723, -0.17012149095535278, 0.02923489175736904, 0.06957803666591644, -0.08882388472557068, -0.07586798071861267, -0.19740553200244904, -0.10098856687545776, -0.0794568732380867, 0.04900865629315376, 0.06808246672153473, -0.3238959312438965, 0.04525821655988693, 0.07759672403335571, -0.015124049969017506, 0.15779107809066772, -0.14218775928020477, -0.06250155717134476, 0.011370755732059479, 0.009629832580685616, -0.0006443382008001208, -0.30006495118141174, -0.21613897383213043, -0.02564901113510132, 0.23935957252979279, 0.11234258860349655, -0.008136140182614326, -0.11272243410348892, -0.05599081143736839, 0.002012324519455433, -0.20856155455112457, -0.3032193183898926, 0.27427881956100464, -0.1513710916042328, -0.06469585746526718, 0.15767832100391388, -0.18768805265426636, -0.2679738402366638, 0.07034008204936981, -0.152232363820076, 0.11873454600572586, 0.046693187206983566, -0.05766214430332184, 0.1438344568014145, -0.18387220799922943, 0.05508563667535782, 0.11213894188404083, 0.027788834646344185, 0.060510288923978806, -0.06121228635311127, 0.030038069933652878, -0.027143409475684166, -0.12048102915287018, 0.10088223963975906, 0.19295912981033325, 0.05245674401521683, 0.09939085692167282, 0.06266031414270401, 0.007198546547442675, 0.16490572690963745, -0.04963599890470505, -0.14793382585048676, -0.11369246989488602, -0.1575847864151001, -0.19137127697467804, -0.05621088668704033, -0.02105410397052765, -0.11502618342638016, -0.17569132149219513, 0.02988308109343052, 0.08268876373767853, -0.167587548494339, -0.06403794139623642, -0.13343316316604614, 0.11637122184038162, -0.11689900606870651, -0.0712040439248085, 0.08415001630783081, 0.13625754415988922, -0.2108997106552124, 0.11145221441984177, 0.04872927442193031, -0.006973586045205593, -0.07381951063871384, 0.055671583861112595, 0.04117640107870102, -0.029866890981793404, 0.024210363626480103, 0.11208098381757736, 0.06012565270066261, -0.14832963049411774, -0.032677747309207916, 0.061566147953271866, -0.117680124938488, -0.05112220346927643, 0.12330415844917297, 0.14681124687194824, -0.14778994023799896, 0.025983694940805435, -0.2905101478099823, 0.21512608230113983, -0.0839436873793602, -0.019787132740020752, -0.08634917438030243, 0.004678334109485149, -0.12321678549051285, 0.1481826901435852, -0.09679345786571503, -0.0247807539999485, -0.13030444085597992, -0.23086096346378326, -0.11790323257446289, 0.2452837973833084, 0.22789184749126434, 0.029368102550506592, -0.1642836481332779, -0.03314739465713501, 0.02593722939491272, -0.11087717860937119, -0.14746271073818207, -0.07064898312091827, -0.054115623235702515, -0.14494688808918, -0.12788483500480652, -0.038074295967817307, 0.02205653302371502, 0.05346262454986572, -0.0017313004937022924, 0.07073117792606354, 0.24063938856124878, 0.20115169882774353, 0.45082053542137146, -0.07103653252124786, -0.07426691800355911, -0.15121309459209442, 0.1331404447555542, -0.033264484256505966, 0.021600350737571716, 0.13788294792175293, 0.1961296945810318, -0.03385777771472931, 0.07445078343153, 0.23376160860061646, 0.11414510756731033, -0.03093535266816616, 0.1197483018040657, -0.1307775378227234, -0.1892310082912445, 0.20304876565933228, 0.033873602747917175, -0.018932461738586426, -0.05878257006406784, 0.1177944466471672, 0.03943072631955147, 0.057825859636068344, 0.2508139908313751, 0.08691180497407913, 0.04624077305197716, -0.06323861330747604, -0.07211416959762573, 0.006022218149155378, -0.024574317038059235, -0.06707334518432617, 0.0017405389808118343, 0.03860080614686012, 0.13246487081050873, -0.13960765302181244, -0.08992382884025574, -0.11946727335453033, 0.21034914255142212, -0.002058186801150441, -0.055120062083005905, 0.037555061280727386, 0.22901111841201782, -0.06440044939517975, 0.06271295249462128, -0.1266142874956131, 0.015559596940875053, 0.0899481549859047, -0.06560657918453217, -0.0210565198212862, -0.055590663105249405, -0.024765940383076668, -0.0002608874929137528, 0.1209486871957779, -0.019279129803180695, -0.0014551401836797595, -0.02195822447538376, 0.12554705142974854, -0.07642142474651337, 0.06040957570075989, -0.049207646399736404, 0.15784792602062225, 0.08457531780004501, 0.0010512854205444455, -0.115183025598526, -0.06829679757356644, 0.12128482758998871, -0.17292845249176025, 0.054636597633361816, 0.03677290678024292, 0.055052101612091064, -0.012673292309045792, 0.15681546926498413, 0.1792295128107071, 0.09601399302482605, 0.05263484641909599, -0.0024085137993097305, 0.12199500948190689, 0.10277511179447174, 0.053855959326028824, -0.036161236464977264, 0.18489673733711243, 0.021097052842378616, 0.17071688175201416, -0.23156768083572388, 0.09257219731807709, 0.14405187964439392, 0.2582954466342926, -0.0007438865141011775, 0.005572208669036627, 0.18385083973407745, 0.13134711980819702, -0.23191756010055542, 0.0908745676279068, -0.044881269335746765, -0.15192702412605286, -0.21216438710689545, -0.0669994056224823, 0.21102114021778107, -0.033036038279533386, 0.12706990540027618, -0.0657229870557785, -0.0840504840016365, 0.07941565662622452, 0.04022154211997986, 0.12338511645793915, -0.0939430221915245, -0.21737658977508545, -0.08219248801469803, 0.1922113448381424, 0.201729878783226, -0.023788072168827057, 0.18220795691013336, -0.042497266083955765, -0.16527366638183594, -0.0841442123055458, 0.04973027482628822, -0.0791977271437645, -0.09791336953639984, -0.12820126116275787, -0.19310031831264496, -0.08318972587585449, -0.020917808637022972, 0.00171379663515836, -0.08392186462879181, -0.05934963375329971, 0.022917835041880608, 0.04168373718857765, -0.10755694657564163, -0.05316426604986191, -0.13132768869400024, 0.044897109270095825, 0.006157463416457176, -0.04155502840876579, 0.10934824496507645, -0.22264975309371948, -0.04228615015745163, -0.2878012955188751, -0.14107510447502136, 0.024964872747659683, -0.06417326629161835, -0.18869273364543915, 0.29503610730171204, 0.18914079666137695, 0.09965285658836365, 0.07990865409374237, -0.1871052384376526, 0.022858913987874985, -0.05739313364028931, 0.05354117974638939, 0.08515003323554993, 0.16343870759010315, 0.137086421251297, 0.11773490160703659, -0.08025477826595306, 0.02513701096177101, 0.00913927797228098, -0.11999943852424622, 0.061139777302742004, -0.045843858271837234, 0.15498580038547516, -0.12908442318439484, 0.0070504131726920605, 0.009979124180972576, 0.20648811757564545, 0.16774995625019073, 0.12778352200984955, -0.14861944317817688, -0.10250681638717651, -0.17378857731819153, -0.08353065699338913, -0.08056312054395676, -0.08122238516807556, 0.002245246432721615, 0.15631374716758728, 0.06138050928711891, -0.12404468655586243, -0.19830788671970367, -0.14719195663928986, -0.18311288952827454, 0.10556341707706451, 0.1012178510427475, -0.16399621963500977, -0.21708662807941437, -0.08338895440101624, -0.12905319035053253, -0.17505159974098206, -0.19533996284008026, -0.0662197694182396, -0.31731730699539185, 0.02510158345103264, 0.1826806515455246, 0.18904931843280792, 0.010829813778400421, -0.11507685482501984, -0.021153343841433525, -0.013864363543689251, -0.13565722107887268, 0.12763656675815582, 0.07328567653894424, 0.12027168273925781, -0.0457523912191391, 0.11299625039100647, 0.04063086211681366, -0.07377294450998306, 0.08745846152305603, -0.13833455741405487, 0.15831638872623444, 0.05943141132593155, -0.011158880777657032, -0.08544988930225372, -0.023144463077187538, 0.03491069748997688, 0.13921581208705902, -0.11069414019584656, -0.01597236469388008, 0.031493641436100006, -0.09506290405988693, -0.03068620152771473, -0.015729248523712158, -0.14812423288822174, 0.09243272989988327, -0.05806642025709152, 0.00508029293268919, -0.17855681478977203, -0.15319855511188507, 0.09631481021642685, -0.09852214902639389, -0.00920580793172121, -0.018939437344670296, 0.2152520716190338, 0.07783154398202896, -0.06305845826864243, -0.13988283276557922, -0.03410806506872177, -0.009923089295625687, 0.058838099241256714, -0.07402362674474716, 0.08677147328853607, 0.22379356622695923, 0.15318629145622253, -0.07986211031675339, 0.19627557694911957, -0.034354228526353836, 0.027250999584794044, 0.16597610712051392, -0.057303931564092636, -0.0022033543791621923, -0.1968843787908554, 0.16534508764743805, -0.04033209756016731, -0.13028061389923096, 0.23049330711364746, -0.016767626628279686, 0.29601702094078064, 0.019055144861340523, 0.08759219944477081, 0.23754984140396118, -0.08440820127725601, 0.04908096790313721, 0.04758484289050102, 0.05107099562883377, -0.10017061233520508, 0.21490022540092468, 0.17677153646945953, 0.01723838597536087, 0.051535408943891525, -0.03551260009407997, 0.15761712193489075, -0.024765625596046448, 0.12728621065616608, 0.1153961643576622, -0.44758591055870056, -0.8581025004386902, 0.3023313581943512, -0.7566988468170166, -0.9491244554519653, 0.4351021945476532, -0.8881405591964722, 0.34882619976997375, -0.20869597792625427, 0.4164413511753082, 0.02155471220612526, 0.7539572715759277, 0.10169920325279236, 0.6873088479042053, 0.5664772987365723, 0.4224080443382263, 0.2865932881832123, 0.17593815922737122, -0.19310718774795532, -0.08866777271032333, -0.062405139207839966, 0.25259682536125183, 0.16499893367290497, -0.02131686918437481, 0.20586642622947693, -0.14610497653484344, -0.13173164427280426, -0.17789025604724884, -0.08040954917669296, 0.08505453169345856, 0.17558544874191284, -0.027861082926392555, 0.22050760686397552, 0.10781440138816833, -0.13377460837364197, -0.1735192835330963, 0.10991620272397995, -0.08533739298582077, -0.191737100481987, -0.1752282977104187, -0.22403335571289062, 0.1539047658443451, -0.16922898590564728, 0.13731761276721954, -0.20124934613704681, 0.0137690594419837, -0.11147473752498627, -0.07675816118717194, 0.12987357378005981, 0.16199924051761627, -0.3017735779285431, -0.09769774973392487, -0.1282225251197815, -0.1647283434867859, 0.06167801097035408, 0.14788290858268738, 0.2623243033885956, -0.2715938687324524, -0.17823781073093414, -0.2784741222858429, -0.20420649647712708, 0.03537836670875549, -0.13738323748111725, -0.23348376154899597, -0.031587567180395126, -0.0665946751832962, -0.08423636108636856, -0.18204829096794128, -0.021745020523667336, 0.12746132910251617, -0.06620968878269196, 0.09878531098365784, 0.062035202980041504, -0.06767139583826065, -0.08504743874073029, -0.24679620563983917, 0.047425203025341034, -0.014168014749884605, 0.1466006487607956, 0.3823402225971222, -0.026708321645855904, -0.2208055704832077, -0.08480605483055115, -0.1183662936091423, 0.05853744596242905, 0.02861095778644085, 0.07466605305671692, 0.049970779567956924, -0.15817292034626007, -0.013702825643122196, -0.21090157330036163, -0.06421826034784317, -0.25974178314208984, 0.23811250925064087, 0.28742411732673645, 0.019173193722963333, 0.2105873078107834, 0.18768955767154694, 0.1405414193868637, -0.02386818453669548, -0.14395421743392944, -0.16575506329536438, -0.2183733582496643, -0.36417829990386963, -0.2264660894870758, -0.02878316305577755, -0.022059423848986626, -0.15959368646144867, 0.11996794492006302, 0.09279478341341019, 0.10242421180009842, -0.19170425832271576, -0.19594375789165497, 0.27085080742836, 0.10760277509689331, 0.15563799440860748, -0.0854676142334938, -0.18013377487659454, -0.16372281312942505, -0.10075663775205612, -0.2400946021080017, 0.07656722515821457, 0.0011983984149992466, 0.08365321159362793, 0.22256484627723694, -0.15996842086315155, -0.22407761216163635, 0.11419741064310074, 0.2995026111602783, 0.18259041011333466, -0.05789193511009216, -0.17602628469467163, -0.17618024349212646, 0.17491553723812103, 0.2188645452260971, -0.0070862253196537495, 0.05071210488677025, -0.17916634678840637, -0.0917755737900734, 0.002716003218665719, 0.020010193809866905, -0.1534000039100647, -0.037250686436891556, -0.20682156085968018, 0.19920925796031952, 0.06886084377765656, 0.23004761338233948, 0.036534301936626434, 0.09084022045135498, -0.22489860653877258, -0.09858965873718262, -0.07130809128284454, 0.05214674770832062, -0.1838216483592987, -0.21555107831954956, -0.198991060256958, 0.07813161611557007, -0.08102764934301376, -0.14114902913570404, 0.06085273250937462, -0.017609024420380592, 0.10441122204065323, -0.15220791101455688, -0.2936021685600281, 0.10068392008543015, -0.13598597049713135, -0.2749409079551697, 0.08965080976486206, 0.06623253226280212, -0.16428808867931366, -0.40711867809295654, -0.15723955631256104, -0.13753840327262878, 0.14268703758716583, 0.2520398199558258, -0.07959960401058197, -0.2617794871330261, -0.2481159269809723, -0.07769855111837387, 0.003604765282943845, -0.13614988327026367, 0.288436621427536, 0.08748700469732285, -0.02966236136853695, -0.026285532861948013, 0.15548963844776154, -0.24926553666591644, -0.08470495790243149, -0.07373851537704468, -0.09777315706014633, 0.10535161942243576, -0.023105289787054062, -0.15205472707748413, 0.19031177461147308, 0.16903290152549744, -0.12605193257331848, 0.09285196661949158, 0.0788215696811676, -0.0016645699506625533, -0.05719778314232826, 0.2007017582654953, 0.031042030081152916, 0.31397661566734314, -0.05109429731965065, 0.14155489206314087, -0.036581240594387054, -0.18148459494113922, -0.141214519739151, 0.06298165768384933, 0.16572684049606323, -0.16544169187545776, 0.14292527735233307, 0.29359182715415955, 0.11870232969522476, -0.06841396540403366, -0.3138964772224426, -0.006218365393579006, 0.014853554777801037, -0.1614573746919632, 0.22903019189834595, 0.2546128034591675, 0.05505118891596794, -0.023246292024850845, -0.1801411360502243, -0.2137756645679474, 0.1725054532289505, -0.17177557945251465, 0.1616065353155136, -0.06548845767974854, 0.18159307539463043, 0.011471564881503582, -0.00186549115460366, 0.2005843073129654, -0.07393026351928711, -0.1746550053358078, -0.16183196008205414, -0.13789185881614685, -0.08833261579275131, -0.049346935003995895, -0.10815052688121796, 0.03499874472618103, -0.15030929446220398, -0.21521641314029694, -0.21200203895568848, 0.15402087569236755, 0.050566572695970535, 0.12847062945365906, 0.26161888241767883, 0.07786260545253754, 0.10987666249275208, -0.22124099731445312, 0.06551049649715424, -0.21284060180187225, 0.02945486456155777, 0.20056459307670593, -0.1890781670808792, 0.001213942188769579, -0.009362476877868176, -0.03193240612745285, 0.08757849037647247, 0.07057254761457443, -0.027762247249484062, -0.16791127622127533, 0.19732004404067993, 0.19188126921653748, 0.20813347399234772, -0.09893731772899628, 0.09035690128803253, -0.012955967336893082, 0.1393553614616394, -0.013867050409317017, -0.016193032264709473, 0.055752698332071304, -0.23389919102191925, 0.21633873879909515, 0.1569322794675827, -0.061014268547296524, -0.1462397277355194, -0.29256927967071533, -0.11627749353647232, 0.08463785797357559, -0.17137065529823303, -0.19115978479385376, 0.1598472148180008, -0.3426908850669861, -0.04115778207778931, 0.16650639474391937, -0.09441220760345459, 0.20190146565437317, -0.049829740077257156, -0.016155704855918884, 0.07138749957084656, 0.10158205032348633, 0.08965235948562622, 0.0048801591619849205, 0.023996591567993164, -0.0684458538889885, -0.06429143249988556, -0.03668356314301491, 0.08847183734178543, 0.0971800833940506, -0.07862276583909988, -0.055320855230093, 0.31865862011909485, 0.2152492105960846, -0.05492798984050751, 0.15191131830215454, 0.08485892415046692, -0.022868085652589798, 0.11810596287250519, 0.14306744933128357, 0.18630872666835785, 0.1881834715604782, 0.3792509436607361, 0.11688460409641266, 0.34479230642318726, 0.03858434781432152, 0.18048377335071564, -0.2090219408273697, -0.03447718173265457, 0.05483951047062874, 0.12020326405763626, -0.05814317986369133, 0.08558905869722366, -0.05090995505452156, 0.03468107059597969, 0.03802923858165741, 0.07154260575771332, -0.01691530831158161, 0.17251592874526978, -0.04420088604092598, 0.06860368698835373, -0.010105377063155174, -0.022368235513567924, -0.07492877542972565, 0.10096541047096252, 0.07694283127784729, 0.1436239629983902, -0.1323210746049881, -0.31069082021713257, -0.04127674549818039, -0.21140901744365692, 0.2832053303718567, 0.13252447545528412, 0.00512536708265543, 0.111457459628582, 0.1460684984922409, 0.19069232046604156, 0.06829815357923508, -0.0846971645951271, -0.22767898440361023, -0.16001173853874207, -0.2517596483230591, 0.10438069701194763, -0.10759061574935913, -0.05257832258939743, 0.15177594125270844, -0.008156630210578442, 0.09185098111629486, -0.004104276653379202, 0.01824313774704933, 0.1193573921918869, 0.15384383499622345, -0.14211300015449524, 0.08281087130308151, -0.17948250472545624, -0.13314391672611237, -0.174996018409729, -0.22896666824817657, 0.12966270744800568, 0.22423779964447021, 0.13733281195163727, 0.046342696994543076, -0.07425146549940109, 0.010119564831256866, 0.11245111376047134, -0.03564878925681114, -0.11818751692771912, -0.07284220308065414, 0.0019867278169840574, -0.08144576102495193, 0.12484961003065109, 0.18524640798568726, 0.14538735151290894, -0.2509222626686096, -0.03505752235651016, -0.007227652706205845, 0.09795942157506943, 0.02967979945242405, -0.10052016377449036, -0.27129411697387695, -0.08007143437862396, -0.019202526658773422, 0.008601856417953968, 0.15026597678661346, -0.11884475499391556, 0.12411071360111237, 0.18397606909275055, 0.007441701367497444, 0.11754500865936279, 0.14225171506404877, 0.09285296499729156, 0.057916060090065, -0.08785517513751984, 0.04609513282775879, -0.19983191788196564, -0.12665431201457977, 0.06353284418582916, -0.04866698384284973, 0.001038184273056686, 0.1999332457780838, -0.0051724547520279884, -0.18165579438209534, 0.045573003590106964, -0.10962606221437454, 0.11001143604516983, -0.10495169460773468, -0.01383565180003643, -0.10206803679466248, -0.09137118607759476, 0.1385381817817688, 0.14425940811634064, -0.09885486960411072, -0.02638091705739498, 0.019974373281002045, 0.19142486155033112, -0.15341243147850037, -0.1681668758392334, 0.0865444540977478, 0.14408954977989197, 0.04241757094860077, -0.17987790703773499, 0.06588512659072876, -0.06719562411308289, 0.014990377239882946, -0.06282074004411697, -0.1112171933054924, -0.025881338864564896, 0.036088284105062485, -0.03325215354561806, 0.045430660247802734, 0.01509298849850893, 0.07744891196489334, 0.129348024725914, 0.15421003103256226, -0.0409136563539505, 0.06898922473192215, -0.21880996227264404, -0.22050616145133972, 0.0659586489200592, -0.1382318139076233, -0.18918021023273468, -0.23442699015140533, 0.11709380149841309, 0.020917274057865143, -0.04308160021901131, -0.12427301704883575, -0.12965375185012817, -0.12678219377994537, 0.1793954223394394, -0.3480273187160492, -0.006592107005417347, 0.06267919391393661, 0.12517878413200378, 0.07063649594783783, 0.06729396432638168, -0.001976911909878254, 0.08728417009115219, -0.1810947060585022, -0.05167890340089798, -0.05500589311122894, 0.06880096346139908, -0.09081792086362839, -0.034819118678569794, 0.09193001687526703, 0.13690181076526642, 0.13120292127132416, -0.04753442108631134, 0.08662731200456619, 0.09153862297534943, -0.14027070999145508, -0.05488201230764389, -0.07315749675035477, -0.003919434268027544, 0.1674204170703888, 0.15818467736244202, 0.03420739248394966, -0.044295359402894974, -0.15245532989501953, -0.12529008090496063, -0.20704205334186554, -0.20084699988365173, -0.06235065683722496, 0.14559175074100494, 0.1936333328485489, 0.035725247114896774, 0.075779989361763, 0.2355058789253235, 0.140472412109375, 0.0884934812784195, -0.0741964727640152, 0.011363075114786625, -0.03682746738195419, 0.05982792377471924, 0.12141900509595871, 0.08180667459964752, 0.13347244262695312, -0.007848639041185379, 0.16393472254276276, 0.13410009443759918, -0.03262631222605705, 0.023463517427444458, 0.30358076095581055, -0.14674600958824158, -0.129805326461792, -0.09278818219900131, -0.11848216503858566, 0.1385694146156311, -0.10555338859558105, -0.014380761422216892, 0.14765340089797974, -0.08877397328615189, 0.004506886005401611, 0.1674509197473526, -0.012183255515992641, 0.04269275441765785, 0.0810549259185791, -0.1471245437860489, -0.04804646223783493, 0.16806121170520782, 0.06452755630016327, 0.0523361936211586, 0.08819138258695602, 0.19680535793304443, 0.18350060284137726, -0.11129740625619888, -0.04475800693035126, -0.11546512693166733, -0.11661306023597717, 0.10641714930534363, 0.08695919811725616, 0.0021735031623393297, -0.10628856718540192, -0.10062327980995178, 0.006676768884062767, -0.1166834607720375, -0.18457072973251343, -0.11303046345710754, -0.035085905343294144, 0.20475266873836517, 0.18996256589889526, -0.09450963884592056, -0.026784690096974373, -0.03714393451809883, -0.02845769375562668, -0.13211378455162048, -0.13870948553085327, 0.06311855465173721, 0.2085496187210083, 0.017133129760622978, 0.12044300138950348, -0.0972798764705658, 0.06026024371385574, 0.03894495591521263, 0.04580412432551384, 0.0626426637172699, 0.13409118354320526, 0.15674474835395813, 0.011559133417904377, -0.0873890221118927, 0.10144089162349701, 0.006841142196208239, -0.009489929303526878, -0.045242324471473694, -0.02663840539753437, -0.07611826807260513, 0.0931117981672287, 0.07862650603055954, -0.025634335353970528, -0.014045048505067825, 0.018479255959391594, -0.06606729328632355, -0.07286940515041351, 0.1031549796462059, -0.1020025908946991, -0.04448893293738365, -0.058537594974040985, -0.09210451692342758, 0.01622471585869789, 0.07535099983215332, -0.07423362135887146, -0.024804554879665375, -0.2619567811489105, -0.18773303925991058, -0.015675561502575874, -0.17381219565868378, -0.020026931539177895, -0.026167359203100204, 0.09008075296878815, -0.0596337728202343, 0.1790594756603241, -0.05490968003869057, -0.13669607043266296, -0.03480491042137146, -0.12819798290729523, -0.1178654357790947, -0.06347768008708954, -0.013824663124978542, -0.08349520713090897, 0.01578858494758606, 0.004804900847375393, -0.10307058691978455, -0.054618485271930695, -0.10837521404027939, 0.18437504768371582, 0.14408084750175476, 0.13002362847328186, -0.11556661128997803, 0.1182752251625061, 0.13367168605327606, -0.03627077862620354, 0.048761773854494095, -0.027056418359279633, 0.12345109134912491, 0.027596134692430496, 0.06703916192054749, 0.05962907522916794, 0.08465294539928436, 0.17693300545215607, -0.033847007900476456, -0.03321199491620064, 0.006927156355232, 0.06291661411523819, -0.08760251849889755, 0.02289196103811264, -0.18405042588710785, -0.18751132488250732, -0.09569569677114487, 0.0241873599588871, 0.05786754563450813, -0.10931183397769928, -0.0023817631881684065, 0.18294696509838104, 0.08720658719539642, -0.09443794190883636, 0.10695379972457886, 0.12344621866941452, 0.15640543401241302, 0.09804586321115494, 0.14230142533779144, 0.1650562435388565, 0.02978743240237236, -0.09304026514291763, -0.09716521203517914, -0.01661096140742302, -0.09534809738397598, 0.009444991126656532, -0.03454143926501274, 0.006790235638618469, 0.03553815558552742, 0.11346258968114853, 0.09511969983577728, -0.21814626455307007, -0.009244865737855434, 0.09585485607385635, 0.3302974998950958, -0.11879260838031769, 0.03004816360771656, 0.10252070426940918, -0.09635563939809799, 0.06574815511703491, -0.0032522757537662983, -0.19693049788475037, 0.19741888344287872, -0.22627320885658264, 0.1968047171831131, 0.17187385261058807, 0.2996928095817566, -0.12208059430122375, -0.1196591928601265, -0.15584248304367065, -0.1921108365058899, -0.2903772294521332, -0.09878966212272644, 0.22722512483596802, 0.1360991895198822, -0.019869478419423103, -0.04465458542108536, 0.20536111295223236, 0.13404569029808044, -0.116787388920784, -0.13902181386947632, 0.15262120962142944, 0.0915311723947525, 0.07584021985530853, -0.010379580780863762, -0.10161460936069489, -0.27384382486343384, -0.172321155667305, 0.06942398846149445, -0.06436050683259964, 0.28141748905181885, 0.330779105424881, 0.20518429577350616, 0.46413081884384155, -0.08475899696350098, -0.24487143754959106, -0.02042502351105213, -0.11014504730701447, -0.09416685253381729, 0.07211323082447052, 0.13804997503757477, 0.05269606411457062, -0.14509715139865875, 0.12219835072755814, 0.27269649505615234, 0.03823655843734741, -0.14201287925243378, -0.27386245131492615, 0.15023912489414215, -0.13641640543937683, 0.10611452907323837, -0.009185101836919785, 0.06050855666399002, -0.009946858510375023, 0.20883311331272125, -0.16721032559871674, 0.1804223656654358, 0.1108989268541336, -0.016733841970562935, 0.11001531034708023, 0.03065776452422142, -0.04674459621310234, -0.058217983692884445, 0.1191340833902359, 0.17118896543979645, -0.01987491361796856, 0.035760391503572464, 0.15214978158473969, 0.16717766225337982, -0.09256647527217865, 0.12179134786128998, -0.141681969165802, 0.1380912959575653, 0.15675771236419678, 0.1356835812330246, -0.03208036348223686, -0.02771454118192196, 0.24991099536418915, 0.19699624180793762, -0.031089063733816147, -0.013696232810616493, 0.030751803889870644, -0.06993964314460754, -0.10972322523593903, -0.05893614515662193, 0.09499430656433105, 0.009374897927045822, 0.049802687019109726, -0.1759956330060959, 0.2034050077199936, 0.20652726292610168, -0.18316872417926788, -0.12323512881994247, -0.01734740100800991, 0.034868624061346054, -0.07225430011749268, 0.06591063737869263, -0.06768056750297546, 0.10332688689231873, -0.02504282258450985, 0.14396992325782776, -0.10173080116510391, 0.11021510511636734, -0.05154901370406151, -0.08829360455274582, 0.06069030612707138, -0.13355900347232819, -0.12218263000249863, -0.09483189880847931, -0.12643389403820038, 0.044424328953027725, 0.047973472625017166, 0.0343061126768589, -0.12200558930635452, 0.15341483056545258, 0.15573148429393768, -0.11863543093204498, -0.17359590530395508, -0.1760575920343399, 0.02987080253660679, -0.06161927431821823, 0.12128782272338867, 0.032591477036476135, 0.027947042137384415, -0.03061087802052498, 0.021537596359848976, 0.005568537395447493, -0.20065750181674957, 0.07699549198150635, -0.12148869782686234, 0.08276908844709396, 0.022731615230441093, 0.03381626307964325, 0.1495693475008011, -0.02551281824707985, -0.12018755823373795, -0.1211698055267334, 0.12851233780384064, 0.2609002888202667, 0.03585726022720337, 0.1294431835412979, 0.04963105544447899, 0.2024700939655304, 0.13087327778339386, -0.10484398901462555, -0.10241224616765976, -0.04930181801319122, -0.03501768782734871, -0.042666658759117126, 0.024699607864022255, 0.18233318626880646, -0.05836590379476547, 0.042095817625522614, 0.29664501547813416, -0.10988802462816238, -0.04882703348994255, -0.08889605849981308, -0.12959569692611694, -0.179056316614151, 0.14012455940246582, -0.22193863987922668, 0.02861984819173813, -0.32692286372184753, 0.1408637911081314, 0.16737303137779236, -0.1277734786272049, 0.11056031286716461, -0.09162674844264984, 0.03103191964328289, 0.026324912905693054, 0.0036305245012044907, 0.21880824863910675, 0.031664177775382996, 0.014047603122889996, -0.04513661935925484, 0.006779286079108715, 0.03355717286467552, 0.1030992940068245, 0.07319825142621994, 0.12961633503437042, -0.12016909569501877, 0.08261684328317642, -0.15261708199977875, -0.13080421090126038, -0.20167158544063568, 0.10584495216608047, -0.0013680309057235718, -0.09899263828992844, -0.12258756905794144, -0.03505200520157814, -0.06437092274427414, -0.11672943085432053, 0.12455295026302338, -0.025408778339624405, 0.0008041450055316091, -0.18517589569091797, -0.03442251682281494, 0.10396149754524231, 0.09492383152246475, -0.14182507991790771, -0.08133701980113983, -0.01442111749202013, -0.1460186243057251, -0.07317949086427689, -0.020249849185347557, 0.01725967973470688, 0.044798318296670914, -0.06188091263175011, -0.12300628423690796, -0.19069749116897583, 0.04795863851904869, 0.16041243076324463, 0.06686550378799438, -0.15153968334197998, -0.10933472216129303, -0.11490749567747116, 0.07218946516513824, -0.11669754236936569, -0.09206820279359818, -0.06574840098619461, -0.013953616842627525, 0.0866856798529625, -0.023334834724664688, 0.06650912016630173, 0.19443613290786743, -0.06675820797681808, 0.053666047751903534, -0.08067303150892258, -0.18012790381908417, 0.16401179134845734, -0.02249552495777607, -0.04505710303783417, -0.14973968267440796, -0.11088617146015167, 0.01164861861616373, -0.003161404747515917, 0.1102621778845787, -0.08720880001783371, -0.009847681038081646, 0.09568886458873749, -0.11490360647439957, 0.017224911600351334, -0.01164594478905201, 0.05205044895410538, -0.02827434055507183, 0.06773022562265396, 0.10194721072912216, -0.0536089725792408, 0.15998190641403198, -0.041214484721422195, -0.10660530626773834, 0.06489961594343185, 0.042286839336156845, -0.08681195974349976, -0.030939508229494095, 0.08414294570684433, -0.11500734835863113, 0.018751299008727074, 0.1632372885942459, 0.2603570222854614, -0.07639424502849579, -0.1316288709640503, -0.19490228593349457, 0.017487525939941406, 0.07549361139535904, -0.030239930376410484, -0.14340858161449432, -0.05504564940929413, -0.24951161444187164, 0.007831365801393986, 0.05042409524321556, 0.012911299243569374, 0.11259504407644272, 0.11427900940179825, 0.09561537951231003, 0.09394356608390808, -0.09712168574333191, 0.04747946187853813, 0.08722837269306183, 0.0495847687125206, -0.018431663513183594, 0.10462867468595505, 0.14957307279109955, -0.10088954865932465, -0.14745871722698212, 0.008995229378342628, 0.059538111090660095, -0.03233425319194794, 0.034907810389995575, 0.06539972871541977, 0.1428571492433548, -0.001568214618600905, -0.14945532381534576, -0.24237629771232605, -0.17226062715053558, 0.22138509154319763, 0.018562670797109604, 0.01294906809926033, 0.16071845591068268, 0.05123499035835266, 0.10475943237543106, 0.10495594143867493, 0.08883074671030045, -0.1635708212852478, -0.20946800708770752, -0.2299145758152008, -0.13287800550460815, -0.16892321407794952, -0.010940348729491234, -0.11427398025989532, -0.027334224432706833, 0.04860176518559456, -0.04916095361113548, -0.17694739997386932, 0.18948277831077576, 0.12510547041893005, -0.13211046159267426, -0.014614931307733059, -0.24096828699111938, 0.1112746149301529, -0.18365278840065002, -0.011716269887983799, 0.02356945164501667, -0.007891089655458927, -0.0037661767564713955, -0.09266822785139084, 0.014192603528499603, -0.16237741708755493, 0.10660819709300995, 0.004298083018511534, 0.03359059989452362, -0.008071864023804665, -0.013158794492483139, -0.14371022582054138, -0.011840693652629852, 0.02323155850172043, 0.21111050248146057, -0.019241908565163612, 0.2506560981273651, -0.0868372768163681, 0.07195879518985748, -0.06748731434345245, 0.06802622228860855, -0.10243993252515793, -0.0978759229183197, 0.154674232006073, 0.044900111854076385, -0.1527252346277237, -0.017413120716810226, -0.13582709431648254, 0.12707701325416565, -0.0900137722492218, -0.017387494444847107, 0.00031324842711910605, -0.10190746933221817, -0.0472593829035759, -0.11568824201822281, 0.07367505878210068, -0.04489267244935036, 0.03704548254609108, 0.08353696763515472, 0.13787594437599182, -0.02405431680381298, 0.015162307769060135, -0.05549810081720352, -0.41850751638412476, 0.11222217231988907, -0.05170602351427078, -0.0610041581094265, -0.02040901780128479, 0.1006925031542778, 0.06960475444793701, 0.0290994830429554, 0.0390436165034771, -0.05965162441134453, -0.03851977363228798, 0.027248693630099297, -0.1665363311767578, -0.03618460148572922, -0.03551168367266655, 0.20625445246696472, -0.018116934224963188, 0.0261734277009964, 0.023437613621354103, 0.08165823668241501, -0.11308522522449493, -0.017709456384181976, 0.02766273356974125, 0.08739463239908218, -0.20224043726921082, -0.023994501680135727, 0.14402370154857635, -0.07565456628799438, -0.03192375972867012, -0.04705867916345596, 0.09586581587791443, 0.04222607612609863, -0.1862419843673706, -0.11937619000673294, 0.042949941009283066, -0.17506548762321472, -0.771260142326355, 0.6160457730293274, -0.4684709906578064, -0.7449855804443359, -0.8899290561676025, 0.2688024938106537, 0.40599948167800903, 0.721424400806427, 0.31595930457115173, 0.4115033745765686, 0.3761458992958069, 0.7149860858917236, -0.28992998600006104, -0.7124050259590149, 0.15787285566329956, 0.7634552717208862, -0.12155602872371674, -0.0055143325589597225, 0.22751569747924805, -0.3232608139514923, -0.13599207997322083, -0.2358427345752716, 0.05393149331212044, 0.13082164525985718, 0.3075951635837555, -0.09284079819917679, 0.03498866781592369, -0.07408353686332703, 0.13827411830425262, -0.13087210059165955, -0.2649409770965576, 0.22108890116214752, -0.2453070729970932, 0.11917748302221298, -0.22220852971076965, 0.17853352427482605, -0.2806239128112793, 0.011257470585405827, 0.10603688657283783, -0.20455729961395264, 0.09366003423929214, -0.2718842029571533, -0.19626984000205994, 0.018438145518302917, 0.19535203278064728, -0.3382036089897156, -0.055130887776613235, -0.03496412932872772, 0.007673127576708794, -0.08505337685346603, -0.20046795904636383, 0.1488417536020279, 0.19479289650917053, 0.15096700191497803, 0.16551601886749268, -0.025751948356628418, 0.08450478315353394, -0.19996309280395508, -0.0014232005923986435, -0.27334144711494446, -0.19018439948558807, -0.1892966628074646, 0.07274390012025833, -0.21627408266067505, -0.40002357959747314, 0.08939588814973831, 0.1878095418214798, 0.2134510725736618, 0.07717201858758926, -0.06111430749297142, 0.06289268285036087, -0.15549017488956451, -0.02067701891064644, 0.05667373910546303, 0.0840466246008873, 0.18928012251853943, 0.18992745876312256, 0.26997488737106323, -0.20801325142383575, 0.18996776640415192, -0.13199861347675323, -0.2244611233472824, 0.07139083743095398, 0.25125807523727417, 0.18397067487239838, 0.11694694310426712, 0.3020874857902527, -0.2769711911678314, 0.17848196625709534, -0.3042980134487152, -0.024991475045681, -0.21050025522708893, 0.06309159845113754, 0.05808603763580322, -0.10686968266963959, -0.029234671965241432, -0.05178801715373993, 0.06555254012346268, 0.09523675590753555, -0.13085801899433136, 0.10865717381238937, 0.17546270787715912, -0.1941184103488922, 0.033921390771865845, 0.2335495799779892, -0.11902806907892227, 0.01752227544784546, 0.11215649545192719, -0.05423392727971077, -0.026382403448224068, 0.2150423228740692, -0.07681556046009064, -0.027453774586319923, 0.002168480074033141, -0.23856931924819946, 0.10637404769659042, -0.2742282748222351, 0.16096624732017517, -0.1337938904762268, -0.051667720079422, 0.2423216551542282, -0.0773586705327034, -0.23870834708213806, -0.2700381875038147, 0.17752540111541748, -0.027634374797344208, 0.16811028122901917, 0.0019268302712589502, -0.34672415256500244, 0.01161410752683878, 0.09858617931604385, -0.23382693529129028, -0.15888036787509918, 0.13443167507648468, -0.17132505774497986, -0.29137569665908813, 0.01678019016981125, 0.09100110083818436, -0.0374130941927433, -0.19177700579166412, -0.1611776202917099, 0.1454797089099884, -0.3240872323513031, 0.08732471615076065, 0.4489096999168396, 0.04294915869832039, -0.11060735583305359, -0.2945020794868469, 0.07763980329036713, 0.19755026698112488, 0.10075485706329346, 0.08299852162599564, 0.285679429769516, 0.1813317984342575, 0.025817155838012695, -0.2550845146179199, -0.30119994282722473, 0.10268063098192215, -0.18952858448028564, 0.08650501072406769, 0.07247501611709595, -0.10293308645486832, 0.08655194193124771, 0.0769336149096489, -0.20898692309856415, 0.16613414883613586, 0.4409627318382263, 0.17740090191364288, 0.21951927244663239, -0.18403519690036774, 0.11741410940885544, -0.10261182487010956, -0.32659491896629333, -0.2749052047729492, 0.029181696474552155, 0.10943295061588287, -0.2080635279417038, -0.22989219427108765, -0.15485578775405884, 0.09378889948129654, 0.10227418690919876, -0.09651824831962585, -0.16442422568798065, 0.0876898467540741, -0.0037340261042118073, -0.0014424020191654563, -0.05358924716711044, 0.05164609104394913, -0.15009993314743042, 0.21077746152877808, -0.014203526079654694, 0.05812633037567139, -0.12615521252155304, 0.1764056384563446, -0.039085421711206436, 0.18752792477607727, -0.27432700991630554, 0.14156335592269897, -0.08295805007219315, -0.21124866604804993, 0.3690616190433502, 0.04863542318344116, -0.1399196982383728, 0.05801110342144966, -0.08851021528244019, -0.2028263509273529, 0.1715947538614273, -0.17355963587760925, 0.4067007899284363, -0.003028126200661063, -0.06583718955516815, -0.17643022537231445, 0.08351626247167587, 0.03622002527117729, -0.02114381454885006, -0.1290871948003769, 0.2159530520439148, 0.2390040159225464, -0.2299342006444931, 0.2697570323944092, -0.17954085767269135, -0.04460441321134567, -0.21537601947784424, -0.08615103363990784, -0.08393611013889313, 0.05881967768073082, -0.1890338510274887, 0.025863811373710632, 0.19342324137687683, 0.31114184856414795, 0.13135533034801483, -0.21632510423660278, 0.20570576190948486, 0.1029549241065979, -0.13912007212638855, 0.032974280416965485, -0.23833252489566803, -0.27235913276672363, 0.35809192061424255, -0.0036463653668761253, -0.3373962938785553, 0.06345085799694061, -0.2279423177242279, 0.1677875965833664, 0.18007676303386688, -0.0617404505610466, 0.13490433990955353, -0.23522759974002838, -0.06987275183200836, -0.20190691947937012, -0.37920093536376953, -0.184024378657341, -0.4176977872848511, -0.23766788840293884, 0.2936106026172638, -0.02411614917218685, -0.19738726317882538, -0.03891448304057121, -0.11997552961111069, 0.1276874542236328, -0.14763569831848145, 0.20350831747055054, -0.16050530970096588, -0.0597258023917675, -0.03671190142631531, -0.20620420575141907, 0.09332275390625, -0.20717933773994446, 0.11745911836624146, -0.025502407923340797, -0.11184605956077576, 0.01494498923420906, 0.16135886311531067, 0.060565441846847534, -0.028931792825460434, -0.06059800088405609, 0.24599570035934448, -0.10681403428316116, 0.14405964314937592, -0.03248440846800804, 0.040057770907878876, -0.17125999927520752, 0.0017777815228328109, 0.1663229614496231, -0.07227049767971039, 0.16552302241325378, 0.1702864170074463, 0.02972838468849659, -0.14030364155769348, -0.1831429898738861, 0.04457803815603256, 0.05827212706208229, 0.0645470842719078, 0.1619374006986618, -0.10624498128890991, -0.0852057933807373, -0.15336301922798157, -0.04157775640487671, 0.06043749302625656, 0.20078060030937195, -0.1304766982793808, -0.0566970631480217, -0.2029128074645996, -0.03308644890785217, 0.07271496206521988, 0.008395751938223839, 0.13459767401218414, 0.004109547007828951, -0.03135347738862038, -0.24956297874450684, -0.042453791946172714, 0.05028858408331871, -0.181570902466774, 0.06864909827709198, -0.047422245144844055, 0.017253663390874863, -0.152269184589386, 0.16722147166728973, 0.11504524201154709, 0.06980576366186142, 0.011322712525725365, 0.06772247701883316, 0.009905509650707245, 0.00736654456704855, 0.17662307620048523, -0.07784903049468994, 0.11816392093896866, -0.1192232146859169, -0.20042473077774048, 0.06435320526361465, -0.031764622777700424, 0.058406855911016464, 0.005340035073459148, 0.1399877369403839, -0.12045074999332428, 0.1553855538368225, -0.2863937020301819, -0.15414392948150635, -0.19150426983833313, 0.12044722586870193, 0.137581005692482, 0.19832496345043182, -0.01428173016756773, -0.1943255066871643, -0.10121191293001175, -0.12345045059919357, -0.09531065821647644, -0.06154512241482735, -0.03630910813808441, 0.06940872222185135, -0.07863980531692505, 0.10580731928348541, 0.12537029385566711, 0.20736975967884064, 0.0895250141620636, 0.357058584690094, 0.017652826383709908, 0.03667820990085602, 0.13306717574596405, -0.10116758942604065, 0.09957357496023178, -0.13128511607646942, -0.28720372915267944, 0.09371784329414368, -0.1069079041481018, -0.14377842843532562, 0.0534711629152298, 0.12022047489881516, 0.14881327748298645, 0.04683159291744232, 0.11377930641174316, 0.17416653037071228, -0.08481704443693161, 0.3833552896976471, -0.030095424503087997, 0.3047136664390564, -0.03760857507586479, 0.04637432470917702, 0.30921491980552673, 0.0773221030831337, 0.04472276568412781, -0.06683885306119919, 0.24210931360721588, -0.11417870223522186, -0.029477499425411224, -0.15009772777557373, 0.22071705758571625, 0.07553794234991074, 0.07787712663412094, -0.12739631533622742, -0.25607794523239136, -0.12340059131383896, 0.21177998185157776, -0.0038269993383437395, -0.10875225812196732, 0.015390110202133656, -0.06671474874019623, 0.05400652438402176, 0.2256716936826706, 0.03628070279955864, 0.2813344895839691, 0.09998475760221481, 0.09391462802886963, 0.0013725857716053724, -0.47135496139526367, -0.042474038898944855, -0.11988405883312225, 0.15578101575374603, -0.09868476539850235, 0.056001175194978714, -0.4241694509983063, 0.03344262018799782, -0.03064679726958275, -0.08118034154176712, 0.15824002027511597, 0.07706673443317413, 0.03259985148906708, -0.034880634397268295, -0.1489841789007187, -0.16275671124458313, 0.3608532249927521, 0.0473099946975708, -0.4544652998447418, -0.45337429642677307, -0.26385819911956787, -0.031022321432828903, -0.29676544666290283, -0.16948692500591278, 0.3530198335647583, -0.085871621966362, 0.08161327242851257, -0.18955180048942566, -0.04554225131869316, 0.18406102061271667, 0.04764711111783981, -0.10522300004959106, -0.07615265250205994, 0.15795595943927765, -0.14989139139652252, 0.1829056739807129, 0.13672040402889252, 0.04600606486201286, 0.057080335915088654, 0.020356861874461174, 0.02591630630195141, 0.2511090636253357, 0.10231243073940277, 0.10300178080797195, 0.07446087151765823, -0.08350417017936707, -0.12130871415138245, -0.1367817521095276, -0.028821825981140137, -0.04233930632472038, 0.003186836838722229, 0.004612463526427746, -0.028093744069337845, -0.08519888669252396, 0.08029679208993912, -0.10914517194032669, 0.17850756645202637, -0.06332734227180481, 0.0346013642847538, 0.03138916939496994, 0.014574853703379631, 0.027708135545253754, -0.17124567925930023, 0.16751891374588013, -0.03783772885799408, -0.16995781660079956, 0.10273636877536774, -0.14115707576274872, 0.03423979505896568, 0.19402675330638885, -0.06575044989585876, -0.017750833183526993, 0.04249309003353119, 0.08950036019086838, -0.06971891224384308, 0.18805775046348572, -0.09873946756124496, 0.08292743563652039, -0.3344014286994934, -0.42107072472572327, -0.05713900178670883, -0.08246894925832748, -0.2184368073940277, 0.08606328070163727, 0.07102315127849579, 0.37660810351371765, 0.08473281562328339, 0.0326838493347168, -0.37265560030937195, -0.2206837683916092, -0.03144366294145584, -0.2417338341474533, -0.29362258315086365, -0.18957474827766418, 0.0029132545460015535, -0.1461280882358551, 0.19029362499713898, -0.21280594170093536, -0.03059842251241207, 0.13190960884094238, 0.43444526195526123, -0.2976994216442108, -0.05164792016148567, -0.24109119176864624, 0.030628206208348274, -0.008755027316510677, -0.1423329859972, -0.15763673186302185, -0.18854045867919922, 0.04065465182065964, 0.046832095831632614, 0.0027848409954458475, -0.050562549382448196, -0.003910231404006481, -0.23749224841594696, -0.09408487379550934, 0.020633939653635025, 0.09813512861728668, -0.11659551411867142, 0.17290227115154266, -0.09174897521734238, 0.05879785120487213, 0.03803078457713127, 0.0860702246427536, 0.032296955585479736, 0.1373647153377533, 0.048189058899879456, 0.004961859900504351, 0.1267225444316864, -0.34925925731658936, -0.17950895428657532, 0.0005335074965842068, 0.05729508772492409, 0.1944762021303177, 0.03602863848209381, -0.08823519200086594, -0.11515042930841446, -0.011553691700100899, -0.0339026004076004, 0.03059176169335842, 0.022269438952207565, 0.2250170260667801, -0.13094763457775116, -0.08997460454702377, -0.18577940762043, -0.03918357193470001, 0.03735833242535591, 0.33788925409317017, 0.03782621771097183, 0.3053210973739624, -0.14558909833431244, -0.21598592400550842, -0.06072072312235832, 0.04531007632613182, 0.04110773652791977, -0.006512212101370096, -0.03819955885410309, 0.059814535081386566, -0.05122610554099083, -0.14547666907310486, 0.11561693251132965, -0.14822174608707428, -0.29401829838752747, -0.2844507098197937, -0.10380467772483826, 0.048647377640008926, -0.1935165375471115, 0.10232416540384293, -0.013324681669473648, 0.08167391270399094, -0.09154298901557922, -0.24142125248908997, 0.1354854851961136, -0.11738564819097519, 0.2622150480747223, -0.029002830386161804, -0.07688236981630325, 0.07520698755979538, -0.13009899854660034, -0.10667257010936737, 0.08693256229162216, 0.22493353486061096, 0.10473503172397614, -0.050113532692193985, -0.271956205368042, -0.28572043776512146, -0.015732618048787117, 0.005462951492518187, 0.04558556154370308, -0.02685355767607689, -0.12570571899414062, 0.0714091956615448, -0.011194448918104172, 0.024149036034941673, -0.08987502008676529, 0.11528358608484268, 0.06545678526163101, 