{
  "model_data": {
    "model": "SimpleRNN",
    "input_size": 1,
    "skip": 1,
    "output_size": 1,
    "unit_type": "LSTM",
    "num_layers": 1,
    "hidden_size": 40,
    "bias_fl": true
  },
  "state_dict": {
    "rec.weight_ih_l0": [
      [
        -0.11019787329495635
      ],
      [
        -0.16164099159797737
      ],
      [
        0.09067270107017565
      ],
      [
        -0.0796474937649221
      ],
      [
        -0.046906880755070865
      ],
      [
        -0.054226295319360227
      ],
      [
        -0.16674087288433337
      ],
      [
        -0.04190301771144436
      ],
      [
        -0.034053372276191665
      ],
      [
        0.07273551492123129
      ],
      [
        -0.020391246579969297
      ],
      [
        0.050840005724358615
      ],
      [
        0.11840401990691651
      ],
      [
        -0.02675775120424377
      ],
      [
        -0.2694361934635574
      ],
      [
        0.05787070499829134
      ],
      [
        0.04843315023110801
      ],
      [
        -0.027003575531299222
      ],
      [
        0.10522067358771048
      ],
      [
        -0.039047273761534905
      ],
      [
        -0.07931328331612958
      ],
      [
        -0.015018944354248165
      ],
      [
        -0.19265070440819945
      ],
      [
        0.02289124735813901
      ],
      [
        -0.06861476531301595
      ],
      [
        -0.022501287092753605
      ],
      [
        0.030800548263866447
      ],
      [
        0.032180275646575766
      ],
      [
        0.018907837591361644
      ],
      [
        -0.03386712234286627
      ],
      [
        -0.01339019337687464
      ],
      [
        -0.20015410681344392
      ],
      [
        0.12290661106307886
      ],
      [
        0.247131850165397
      ],
      [
        -0.003670454313264165
      ],
      [
        0.18675756659150747
      ],
      [
        -0.04329287469102912
      ],
      [
        0.04840562187435968
      ],
      [
        0.07998931631566299
      ],
      [
        -0.09738104367228903
      ],
      [
        -0.16721233219863021
      ],
      [
        -0.062138736622803864
      ],
      [
        0.1443114568521332
      ],
      [
        -0.049534183645755236
      ],
      [
        -0.12053923235411813
      ],
      [
        0.08377702720261394
      ],
      [
        0.0038711478138856105
      ],
      [
        -0.1007877926592181
      ],
      [
        0.07483476641457827
      ],
      [
        0.018499722259362073
      ],
      [
        -0.05702531160917028
      ],
      [
        0.08022802487020401
      ],
      [
        0.1381561766893439
      ],
      [
        0.06070653038135275
      ],
      [
        -0.30170385297120017
      ],
      [
        -0.09695713413714455
      ],
      [
        0.04946477608118557
      ],
      [
        -0.05024299148523516
      ],
      [
        -0.14582740582261727
      ],
      [
        -0.029302206610785593
      ],
      [
        -0.02078359710902749
      ],
      [
        -0.012156715334181176
      ],
      [
        -0.30330575640305846
      ],
      [
        0.08338984720989488
      ],
      [
        0.04130775048476577
      ],
      [
        -0.08497256920696987
      ],
      [
        0.05363670729637107
      ],
      [
        0.039262511678935866
      ],
      [
        0.0218763589405073
      ],
      [
        -0.03141127853730465
      ],
      [
        -0.03118780919068803
      ],
      [
        0.10647415049959907
      ],
      [
        0.08477727022829866
      ],
      [
        0.14482340086609646
      ],
      [
        -0.015576579665684166
      ],
      [
        0.0330865178338754
      ],
      [
        0.03298079603799184
      ],
      [
        -0.01025422724063799
      ],
      [
        0.003716159404429131
      ],
      [
        0.004812607772554154
      ],
      [
        -0.4693910561253789
      ],
      [
        -0.19028423414832146
      ],
      [
        -0.34616427481173534
      ],
      [
        -0.1722621901860711
      ],
      [
        -0.593610675516667
      ],
      [
        0.09342876924677365
      ],
      [
        -0.06821951568312483
      ],
      [
        0.18839548433089812
      ],
      [
        -0.7565863908521966
      ],
      [
        -0.23738887683723775
      ],
      [
        -0.035359960261704446
      ],
      [
        -0.0056949276911376166
      ],
      [
        0.049275878055771966
      ],
      [
        -0.008709612476904691
      ],
      [
        -0.20752525440026987
      ],
      [
        1.9378780335230763
      ],
      [
        0.02555369640411143
      ],
      [
        -0.08333750478087767
      ],
      [
        -0.078448121776813
      ],
      [
        0.05367785687012304
      ],
      [
        0.09234322843955552
      ],
      [
        0.06224940240199117
      ],
      [
        -0.39523516837044814
      ],
      [
        0.027172288948265764
      ],
      [
        -0.39040511801113414
      ],
      [
        -0.1462388276809853
      ],
      [
        -0.017495066641575994
      ],
      [
        -0.04670418655735158
      ],
      [
        -0.0995324389301025
      ],
      [
        0.2835414863168866
      ],
      [
        0.7396758804203835
      ],
      [
        -0.3321969544897119
      ],
      [
        0.048842640896766105
      ],
      [
        0.20450558900659238
      ],
      [
        -0.02242775031516449
      ],
      [
        4.190008350291319
      ],
      [
        -0.30183310059852747
      ],
      [
        -0.4458074134424056
      ],
      [
        -0.13644549072459383
      ],
      [
        0.019090493664930513
      ],
      [
        -0.03147201149353048
      ],
      [
        -0.07175864839106275
      ],
      [
        0.045986592360827055
      ],
      [
        0.0756647393008548
      ],
      [
        -0.029962816118188972
      ],
      [
        0.010459849744861867
      ],
      [
        -0.14381217341296915
      ],
      [
        -0.0439694018322678
      ],
      [
        -0.02602367710801446
      ],
      [
        0.0213889997431861
      ],
      [
        0.030141957566751993
      ],
      [
        -0.10875686193412924
      ],
      [
        0.08461343489363685
      ],
      [
        0.05981676218871148
      ],
      [
        -0.040664780941926916
      ],
      [
        0.0010285928922017544
      ],
      [
        0.01649709575332738
      ],
      [
        -0.026558235445381755
      ],
      [
        -0.13098258073226648
      ],
      [
        -0.12672845701283353
      ],
      [
        0.018090586036882964
      ],
      [
        -0.0066399249325051
      ],
      [
        -0.11368289619076119
      ],
      [
        0.04920165833641221
      ],
      [
        -0.07941649106223166
      ],
      [
        -0.07347401213194577
      ],
      [
        -0.026739559340733077
      ],
      [
        0.0435766340672815
      ],
      [
        0.029472811665808105
      ],
      [
        0.004509996505035802
      ],
      [
        -0.08299991158056143
      ],
      [
        0.06099492949755741
      ],
      [
        0.032129704236776954
      ],
      [
        0.09844599474471444
      ],
      [
        -0.017185726991942943
      ],
      [
        0.10411722180906659
      ],
      [
        -0.030974430857857144
      ],
      [
        0.021567869819546157
      ],
      [
        -0.017163702900518822
      ],
      [
        -0.027702554433821906
      ]
    ],
    "rec.weight_hh_l0": [
      [
        0.03296062432105536,
        -0.07265698353179108,
        -0.211757515043521,
        0.2358055237041367,
        0.014430463715520486,
        -0.08764784518025519,
        -0.06904103809337128,
        0.12498225841993797,
        -0.3898087069011715,
        0.04165326114795155,
        0.15912094535700863,
        0.024391358146450867,
        0.013991440005122825,
        0.0677497551149084,
        0.12795728289269484,
        0.006671567408567483,
        -0.6507341946212939,
        -0.039797537748756474,
        0.08572295242900566,
        0.036599575524005855,
        -0.045726332071348644,
        0.10491569813995952,
        -0.14710659711450946,
        -0.5617680325461301,
        0.9275328808550909,
        0.023448524195971272,
        0.030844617020102973,
        0.07252503125416289,
        -0.03531209495462775,
        -0.4407961873759696,
        0.006386510263635327,
        0.1546067185874713,
        0.030878942005723123,
        -0.19209884051446866,
        -0.07002111115871779,
        -0.12833716109292778,
        0.2042001750569267,
        -0.5628115189845666,
        -0.06405253593498977,
        0.01647424222714005
      ],
      [
        0.030301640543304895,
        -0.028248810150164772,
        -0.0243535790964507,
        0.004526556397482809,
        -0.010368028425476423,
        0.041078366076835016,
        0.08179716072319876,
        0.0437525192970173,
        0.03728027925907105,
        0.11443051450432176,
        -0.046656879068937174,
        0.001290552735296201,
        0.00824555293968463,
        -0.17599452518757305,
        0.050963496973891326,
        0.019545155251493355,
        0.08483375799603661,
        -0.023573028824662414,
        -0.025064928752190158,
        -0.040802975547294194,
        0.031313588355030966,
        -0.08303958915272093,
        -0.04789477211808396,
        0.2740129642920091,
        0.010860115529310656,
        0.09305078582731914,
        -0.010383686622905178,
        0.015128175274263307,
        -0.03393247124949892,
        0.04911082048410181,
        -0.07149572907430565,
        -0.01714793113396867,
        -0.07453132356282724,
        0.017688981658985883,
        0.041054197783368954,
        0.11375276539930412,
        -0.016454349096663403,
        0.15300990935081732,
        0.017106182600050118,
        -0.04184487790398627
      ],
      [
        -0.09970802657564536,
        -0.00048472828548799254,
        0.08955877278235652,
        0.018854296970011716,
        -0.022793263789010042,
        0.06058118729709033,
        -0.13425202913925918,
        0.02214281004431757,
        -0.020981413290905113,
        -0.00930947078490415,
        0.03731664586834999,
        0.011036702531435247,
        0.009083792501743338,
        0.021622459078881256,
        0.04501674824208238,
        -0.0763229878106383,
        0.04146728295782317,
        -0.0013664755717026948,
        0.02599603526797966,
        0.03590855885639949,
        0.028365281342432585,
        -0.0207354439645514,
        -0.14860713640072656,
        -0.1752864065664851,
        0.009016843692299601,
        -0.0230009577340102,
        -0.005507060153461174,
        0.02324811601870519,
        0.0010971086053390578,
        -0.03517509383451703,
        0.07484313579803699,
        -0.058230232122755014,
        0.008592567580611268,
        0.3183243759875605,
        0.003384031459464269,
        0.13446988981260896,
        0.030045416118092867,
        -0.07476839794397373,
        -0.02620919353627427,
        -0.025941736137371524
      ],
      [
        0.18327934469858057,
        -0.1658468733871911,
        0.05909523020043733,
        0.15485580996146,
        -0.20573312324879156,
        0.025954264799319476,
        0.2806471180774064,
        -0.25387058362635245,
        -0.20752148428538106,
        0.08908896571480711,
        -0.1653951845471386,
        -0.05477111506106365,
        0.07478311965729421,
        0.05571974867447552,
        0.22655646281021047,
        0.1244822091378764,
        0.34297468336920944,
        -0.022664413233533635,
        0.23547030903636648,
        -0.047648741156643463,
        0.23400362153095222,
        -0.2141797401568109,
        -0.04595281767272729,
        0.29148812005816604,
        -0.40154802236973247,
        0.07538430440873516,
        -0.03382623744099512,
        -0.18018331258680587,
        0.042028321801512225,
        0.22427292425185277,
        -0.11077597417206039,
        -0.15105030351858195,
        0.2926121667314593,
        0.3086375110103245,
        -0.015913824729696213,
        0.05871585838986731,
        -0.038587797182997645,
        0.2587550191335157,
        0.022331583496704964,
        -0.03805455607538615
      ],
      [
        0.12254629424439102,
        -0.0660425848541529,
        0.055661832334928045,
        0.08527081781906376,
        0.004089932113229837,
        -0.06953814670888318,
        0.11405756876503263,
        -0.11789736335262999,
        0.06829874671187727,
        0.02845080596299526,
        -0.00681092530102353,
        0.04517133906446787,
        -0.03695920618510272,
        0.00968255614654434,
        0.12059825240488234,
        -0.05900881837598742,
        0.1975385007271677,
        -0.009561112663371302,
        0.08370879341916966,
        0.03877646362261645,
        0.05223320094328267,
        -0.1114851658472418,
        0.032196763072701494,
        0.09739779647702404,
        -0.12394016933837147,
        -0.04507552897847132,
        0.0675829581685635,
        0.023356574301662037,
        -0.008845980289609532,
        0.04298230732043469,
        -0.06270053088201322,
        -0.008129561935631009,
        0.10556625090807041,
        0.13378339803578126,
        -0.024997182860508727,
        -0.07774562965750573,
        0.06929091739048614,
        0.10525222659767751,
        0.02227916924445317,
        0.07074680000724894
      ],
      [
        -0.2813464090061201,
        -0.09211140750568901,
        -0.24946523375177296,
        0.19211507659151023,
        0.02493787707959963,
        0.10686231265858907,
        -0.020322706765532172,
        -0.1670600484995682,
        0.03694627997375946,
        -0.09963399269065741,
        -0.039172814045573205,
        -0.02489464394440195,
        0.05306759463693728,
        -0.020295460554602764,
        -0.36599390014983646,
        0.053820213466105195,
        -0.7601699932322281,
        0.036537802810992503,
        0.030091388116940256,
        -0.0012798824965748663,
        0.011756810138578988,
        0.40980897408726874,
        0.09834357239664451,
        -0.09464672833174832,
        -0.0291964728747832,
        0.17863676473925455,
        -0.02365741159591792,
        -0.0911051539050807,
        -0.0517168896212579,
        -0.08088978791235865,
        -0.15433098789995647,
        -0.13470525194606617,
        0.07457147967389344,
        0.0019076815924615026,
        -0.035848508866788746,
        -0.003915143212954763,
        0.11943190899938266,
        -0.40167053570624567,
        0.0841411665599926,
        -0.04822886523303397
      ],
      [
        -0.355213404998547,
        0.025179964408705024,
        -0.06731192607415395,
        0.22983917020316447,
        0.0995119341251614,
        -0.042199935223098735,
        0.17135411166280134,
        0.10481308724337246,
        0.1991896842066543,
        -0.13010972725185832,
        0.11156602486425736,
        -0.008607739206116764,
        0.0412255330962377,
        -0.09579400802744807,
        -0.41107526085472934,
        -0.3596158819541907,
        -0.5740353945734458,
        -0.0916454178740167,
        -0.16886523883457794,
        -0.008671185628816837,
        0.10253916897547329,
        0.40371477196528677,
        0.03783957265179361,
        -0.3604003924581241,
        0.8279737050704886,
        0.025247806538870727,
        -0.0321605630516287,
        0.08095018186617439,
        -0.029443877658191085,
        -0.002039437982908873,
        0.053490826004946514,
        -0.179778650582862,
        -0.04513541040650679,
        -0.2698306830841695,
        -0.02572323897745251,
        -0.21290611385531022,
        0.018009956702127714,
        -0.48563262958959663,
        -0.10345811896345282,
        -0.05389742156572221
      ],
      [
        0.13326689586336862,
        0.08227586090612388,
        -0.026452531229671828,
        -0.06951402061597116,
        0.037713399802643884,
        0.058889218871742546,
        0.12409631860566996,
        -0.03459630271611841,
        0.11953183853268103,
        -0.008445541656580036,
        -0.0028443280037267937,
        -0.014497206235776293,
        0.04454616434459046,
        -0.03943008612446899,
        0.08707036072547854,
        -0.0601139358226588,
        0.07823221520777283,
        -0.015527862264068888,
        0.06936329238828569,
        -0.026720895861244376,
        0.03769089068290395,
        -0.09327879036910994,
        0.010024092874343174,
        0.17628491578907737,
        -0.039881089054148604,
        -0.01814201905951261,
        -0.0440759707883352,
        -0.018622372465420624,
        0.006989349729719978,
        0.006696958544626653,
        -0.09723617662887371,
        -0.03363327448866597,
        0.018113378439415448,
        0.05052167928706508,
        0.0017062555976710971,
        -0.03398187923237834,
        -0.06299832241727174,
        0.1122418461293657,
        0.03195046374059475,
        -0.047430993727002956
      ],
      [
        0.14715068558049596,
        -0.031668285186789664,
        0.09861709488410245,
        -0.14197815735896618,
        0.01816123922209142,
        0.1253331334047601,
        0.16618829745107186,
        -0.0706282648685439,
        -0.08381631020082803,
        0.13366960925080915,
        -0.13574497032996022,
        -0.14493350773544328,
        0.16816472372832475,
        0.07506456588913847,
        0.18709835001118155,
        0.062359535175106846,
        0.29981485912878325,
        0.03841978192199537,
        0.17611509138761533,
        -0.07163335613173821,
        0.16356662445878978,
        -0.14319437665353732,
        0.10209195066241593,
        0.07021109235160405,
        -0.2205729788537649,
        -0.08778481416925059,
        -0.18408318042604604,
        -0.0213886568783707,
        0.0899090341740302,
        0.0029412287226317996,
        0.01735461331799643,
        -0.11567360347731676,
        -0.13397857742612732,
        0.21084164503284933,
        -0.0044886804848177555,
        0.007475470941105696,
        0.04744345630741996,
        0.16137754385571393,
        -0.0984683997329175,
        -0.2017824526748762
      ],
      [
        0.149911801916366,
        0.11053002263606723,
        0.00680705601909037,
        -0.11473097007138965,
        0.015996016488121403,
        -0.025622400345237703,
        0.0748084535155169,
        0.12559634789955917,
        -0.10067104441393498,
        -0.02870561248198605,
        0.09977395904554014,
        0.0051709801843444,
        -0.012647667238347284,
        -0.03822405651951343,
        0.11888263251531775,
        0.10484525282389554,
        0.08610500076970291,
        -0.02523055429977016,
        0.08261210423740217,
        -0.07847739053472891,
        0.042722002187948305,
        -0.07392566795357663,
        0.06106299940518011,
        0.13786107892132551,
        -0.03560534952235534,
        0.09741989291337258,
        0.013420205485952956,
        0.03935437174858925,
        0.024994655250033946,
        0.022955832056475407,
        0.026107178700258676,
        -0.010255192842423454,
        -0.03707031450930997,
        0.05509014491547215,
        -0.00973671076485396,
        0.043965718790928615,
        -0.0996307451692215,
        0.11667023116531412,
        -0.08705464328138664,
        -0.01603662629956958
      ],
      [
        -0.05001209636357092,
        0.07502171841343301,
        -0.010500893860027276,
        0.060724600452644564,
        0.012405774193195796,
        0.05311229901349581,
        0.08681503366363295,
        -0.03182385438996372,
        0.01274857931479682,
        -0.002686604421684613,
        0.08370609586279194,
        0.019915227867219082,
        0.01566149587316934,
        0.04791502756804,
        0.018354972241041264,
        -0.033286916911273584,
        0.018900236020071477,
        0.008271726572365289,
        -0.1332091588893778,
        0.00711817601479226,
        -0.05943011758128439,
        -0.0007273917112467231,
        -0.02043216439018967,
        0.09167385108374894,
        0.018947550931279606,
        0.03024098238772083,
        0.009398232071359557,
        0.015927657876419914,
        -0.03273510174080963,
        0.03575818899837832,
        -0.08341736595890069,
        0.02509851129466709,
        0.06320794509847716,
        -0.04705702753108729,
        -0.031966047635331285,
        -0.030911829508477442,
        -0.025526042184023653,
        0.018205300162370708,
        0.1536484928535098,
        -0.005884013347959379
      ],
      [
        -0.05819704924203173,
        -0.017008158340022048,
        0.03290698781124182,
        0.01793104464954656,
        -0.005604633911561846,
        0.06791945220130907,
        0.03248096544891655,
        0.05332572100463817,
        -0.037295303706245744,
        -0.07254186304474351,
        -0.03357836787833823,
        -0.10134691560999515,
        0.1802976895210069,
        0.0014046988427033826,
        0.03721993760595001,
        0.0168723946945466,
        0.017690317180609386,
        -0.04193630775837253,
        0.05256716214707538,
        -0.07142814588915464,
        0.016009793642918584,
        0.054694718403906765,
        0.022991281035687716,
        -0.08447379263338867,
        0.029303219873113077,
        -0.07312826644517884,
        -0.13282239830551307,
        -0.02337544103938402,
        0.026414143888719974,
        0.05691404394046903,
        0.052801382578934596,
        -0.03849926869918023,
        0.19767425331656405,
        0.03404298635982438,
        -0.05985019122206127,
        -0.01827413672081795,
        -0.033409089587557395,
        -0.03900426858029552,
        0.11819217206610598,
        -0.2083991614375874
      ],
      [
        -0.09187175778116728,
        0.0229207918915839,
        0.05767611210158954,
        -0.04939011754461043,
        0.023624837982450533,
        0.11963311711730752,
        0.01975710489069019,
        0.13048417643757726,
        -0.03636896054426142,
        -0.11265485927514007,
        -0.026826645978694937,
        -0.11462063492738309,
        0.17022268772422294,
        -0.02756448563218712,
        0.038405022394518075,
        -0.017611118386227493,
        0.01232700821285052,
        -0.02508173532734673,
        0.042721274914263224,
        -0.09024097709544839,
        0.031391585418915076,
        0.05734744410729474,
        0.03509576636741494,
        -0.02154262500324687,
        0.07530504147061473,
        -0.11215159223363315,
        -0.20602935114633134,
        -0.056187641861810404,
        0.05067406732652014,
        0.09160837329537037,
        0.09958149302557899,
        -0.06523816214672044,
        0.0994779435175182,
        0.023062176824255466,
        0.039616350121571504,
        -0.049093720329186664,
        -0.169944770014507,
        -0.00429400068857812,
        0.019984301598811486,
        -0.27052026606360247
      ],
      [
        0.21191226334175256,
        0.05395003610188277,
        0.01463447715759559,
        -0.04060097743572685,
        0.07436122732798456,
        0.06829078845046323,
        0.15857678234903258,
        -0.06461563320401971,
        0.025153955868444777,
        0.0041874700648977265,
        -0.1273934387975484,
        -0.1277074012808291,
        0.15669360216801412,
        -0.011554838082879252,
        0.1997055297547773,
        0.016777656287642655,
        0.20146903138122269,
        0.05123719657040698,
        0.24508722827094662,
        -0.0861793638886886,
        0.14435988969225777,
        -0.14152950235003528,
        0.0661988196565338,
        0.07834825793802705,
        -0.1753263320706449,
        -0.05551367133608844,
        -0.16759907958051537,
        -0.020306841571703985,
        0.09126947747714993,
        -0.04909364701846105,
        0.00935956470303248,
        -0.06389479481564267,
        -0.04857472272263932,
        0.13173346028475552,
        0.012333573692172783,
        0.0025183273336641713,
        -0.031208354637371594,
        0.18427023127499859,
        -0.03668527445294521,
        -0.15691737674763445
      ],
      [
        -0.1571451926807735,
        -0.0007354698481530051,
        0.0971465852916439,
        -0.033483965295853596,
        0.17613807619872568,
        0.1976736071642996,
        -0.03209430749590597,
        0.19524093058844874,
        0.008738797882491255,
        0.14060045954091835,
        -0.05206128185471106,
        -0.03161464231435607,
        0.005447743507613688,
        -0.12679124513822207,
        0.24984159480817128,
        -0.40753343951324983,
        -0.9466882692330123,
        0.007823604917982238,
        0.026189360796056552,
        -0.05285260642274387,
        -0.10018820690488332,
        0.23898414797415873,
        0.15172664478036382,
        -0.0008123630872579176,
        0.6304795030727732,
        0.03248960177322545,
        -0.020460027336048063,
        0.08380759363487651,
        -0.04217448278921493,
        -0.19957526339365905,
        -0.1773008309071498,
        0.14108191049868954,
        -0.001079854965256345,
        -0.22859929718198846,
        0.030777990858899606,
        -0.33718274131583137,
        0.18625279673054712,
        -0.5439874374935622,
        -0.07697792545357941,
        -0.02569100710195456
      ],
      [
        0.25108741629506287,
        -0.11174766111461834,
        -0.23668927134125414,
        -0.15779004344704284,
        -0.06866274851178314,
        -0.09363124114820223,
        -0.0511950671369536,
        -0.1938315312019597,
        0.13658259924514643,
        0.10916277251090868,
        0.008539806455814807,
        0.24017343248579015,
        -0.2907808727756077,
        -0.005988532872603259,
        0.10530980281925716,
        -0.11327210820215673,
        0.22674869541776616,
        -0.009778817785095565,
        0.03104945654235866,
        0.1626057466152317,
        -0.029132885198717214,
        -0.17192646995417377,
        -0.13945323299205517,
        0.4397537980288917,
        -0.30213793920801113,
        0.18639775875388287,
        0.3762296128141932,
        0.038271782186371846,
        -0.15034108630379991,
        -0.04140447460790399,
        -0.1703924248316556,
        0.11706008902409622,
        -0.010358267938726413,
        -0.03950418672660883,
        -0.012095229227670127,
        -0.04888243233097861,
        -0.12120926764480752,
        0.34933145706669655,
        -0.033963543845398944,
        0.3113158021489214
      ],
      [
        0.015241031796852714,
        -0.017001647925494336,
        0.017550101494338402,
        0.022903533653483327,
        0.004777706753283996,
        -0.03819403612234786,
        -0.019416312299946288,
        0.06558899300617395,
        0.07412510448093126,
        -0.03879634722492881,
        0.02884507535742069,
        -0.013748976023517333,
        -0.0045996237624570105,
        0.011728650501051263,
        0.008909329088717326,
        -0.0692429383560803,
        0.06188880474464326,
        -0.02631107866307709,
        -0.0949539817099244,
        -0.01356391594449688,
        0.018633488339709934,
        -0.04521548863194872,
        -0.03265555278085174,
        -0.017944765163486677,
        -0.09255717277937413,
        0.012737087833292755,
        0.003122093797886062,
        -0.0053991213870437016,
        -0.005473592482283379,
        0.07738783182720343,
        0.048795142239948415,
        0.014215569609442716,
        0.0018126470002694695,
        0.09964019269942684,
        0.003557882330080173,
        -0.04173352138283126,
        -0.018778088910810366,
        0.04402865903371262,
        0.013536536260063358,
        -0.010951011136070993
      ],
      [
        0.08028143965403138,
        -0.04179386743748555,
        -0.004509026063755653,
        0.0380685984611318,
        0.023049860481781002,
        -0.03146312536563146,
        0.05631419766552118,
        -0.02028130055759439,
        0.010988912043657779,
        0.020924558319492477,
        -0.042754870444510935,
        0.045165419278287225,
        -0.05397300289335851,
        0.00616955802934181,
        0.06813798601160405,
        0.005854032773860896,
        0.04871118884179418,
        0.0024933834314119613,
        0.057528520196057996,
        0.04458671765080164,
        0.03413363361621892,
        -0.05322698264674834,
        0.021878998111148965,
        0.05990758184089054,
        -0.036887282760507,
        -0.023756474324461326,
        0.054385101766728734,
        -0.01957108289188358,
        0.016479714122145425,
        -0.0022401317176443075,
        -0.027066182771740686,
        0.011513386317174279,
        0.05278646835461816,
        0.04224887931111174,
        -0.023019341620149705,
        -0.032274473830480085,
        0.0061996300428475174,
        0.05238657598158096,
        -0.02256594826811817,
        0.057672432141709216
      ],
      [
        -0.3102345159532967,
        -0.03399156401350707,
        -0.036945829154783096,
        0.08725088324284398,
        -0.08432482161659405,
        -0.08391607230529578,
        -0.04822671489517211,
        0.20984424162282767,
        0.11948090385487231,
        -0.22424804575165805,
        0.08613579420440658,
        0.03366543297609733,
        -0.02098332373907964,
        -0.012258876681262597,
        -0.4861698135941058,
        -0.17819552329723617,
        -0.5796154859266235,
        0.0004631419450268717,
        0.21930422188802268,
        0.0088045455334679,
        0.0228391015743089,
        0.4086906536286657,
        0.0709782233844822,
        -0.2325010875272645,
        0.91512195557607,
        0.12057673206066799,
        0.019534033039943968,
        0.26789136233881644,
        -0.008835648842665508,
        -0.3804609921817604,
        0.12782400889622095,
        0.10511758644362708,
        -0.022406676533867798,
        -0.15670386120604227,
        0.01575650061345406,
        -0.2736763982217848,
        -0.16206849101959855,
        -0.4476043830939643,
        0.34186714762484166,
        -0.027453923415818152
      ],
      [
        -0.006823485313578371,
        -0.02235083459572491,
        0.07322116405921952,
        0.02626113344009162,
        0.03745369748698588,
        0.07381454895339666,
        0.05509232176016703,
        0.08992131537425538,
        0.12342917186317819,
        0.0016312146214228055,
        -0.0697618814788434,
        -0.03480961792889472,
        0.10262258394566252,
        -0.06616169251046039,
        0.044042485112835324,
        -0.15153183762524616,
        0.05635883022400915,
        -0.014108590439365652,
        0.058978696844521276,
        -0.023775415648314816,
        0.04673275546958112,
        -0.007786587065116178,
        0.02623184451663382,
        0.05507904943909086,
        0.02997962879015741,
        -0.004885819354430701,
        -0.09498634397319235,
        -0.026784731273076467,
        0.019912632813330586,
        0.07534398548059783,
        -0.06934446053049373,
        -0.06494708518640901,
        0.059914942305456145,
        0.07067290102019044,
        -0.008329953141613479,
        -0.03350475909211234,
        -0.0020697691482553706,
        0.051214769082565684,
        0.04184175829811941,
        -0.14753803614071695
      ],
      [
        -0.23284264184706022,
        0.030909473046357036,
        0.11691859682607846,
        0.11771602047859799,
        0.10300342021876732,
        -0.18441220453493404,
        0.09892741649365068,
        0.07708457541199182,
        -0.014043762187575833,
        -0.2093019826589513,
        0.12134065453589374,
        0.004791158510416716,
        -0.00498445160839351,
        0.020020856628796754,
        -0.35065481142456006,
        0.07726249201955593,
        -0.49934031802424583,
        -0.027636492859656664,
        -0.15147557800714567,
        0.017688973309515646,
        0.11522349445949502,
        0.29729120030596584,
        0.14046075178334863,
        -0.11320190934673066,
        0.004354179880692584,
        -0.03140739541790776,
        0.003914771912399998,
        0.11256222501272227,
        0.04455667125408342,
        0.058148053576055465,
        0.045268337708371215,
        -0.2476347263433709,
        -0.010497980851896226,
        -0.03031742213618449,
        -0.036035435633436114,
        -0.19475545803742386,
        -0.08445024089257762,
        -0.24640370424505031,
        -0.061789487248895214,
        0.00462205661016073
      ],
      [
        0.03667663216798096,
        -0.04192619116495009,
        -0.05065468734734479,
        0.01193520442300144,
        -0.037060301260523676,
        -0.02026596649765773,
        0.015706618492470167,
        0.03207107769941858,
        -0.007318087783198529,
        0.010713127029647135,
        0.009553995531507736,
        -0.01666036187221936,
        0.000660549590230807,
        -0.07316835344283452,
        0.06853779974043543,
        -0.032945556543286195,
        0.0752821628408682,
        0.00013342208033494433,
        0.07091681065935612,
        -0.03142159787623797,
        -0.008065047785691334,
        -0.07068584232569629,
        -0.05155433168598167,
        -0.0011547890233160956,
        -0.0031125086253998772,
        0.014379852264692416,
        0.02791028913501914,
        0.08175999474507827,
        -0.018799446464993708,
        -0.06570821467169582,
        0.042786205195923126,
        0.09779660536615689,
        -0.004974332844813249,
        0.020033417576759076,
        0.010155976452430953,
        0.07373461507403106,
        0.0007889059863859326,
        0.026211424149350657,
        0.0033817465790735336,
        0.010560309732138064
      ],
      [
        0.012955806951543273,
        0.10385936537944002,
        -0.24486330947957577,
        -0.04764130925957388,
        -0.09008386460871408,
        0.135348282240304,
        -0.16750055693302252,
        0.01502289253757672,
        0.09905282496433233,
        -0.02707585447608717,
        0.1613371167773323,
        -0.02036764350607349,
        0.0443559692222011,
        -0.019574248674172713,
        0.032456753129373746,
        -0.007691954641805694,
        -0.13763634212126408,
        -0.07725038032788985,
        -0.16358276080270326,
        -0.008312533697301535,
        -0.24869869229632002,
        0.11214556007842459,
        -0.0294013306766544,
        -0.10002660714323316,
        0.24292751358209214,
        -0.08339036173757504,
        -0.05446939546420468,
        -0.009261075642350434,
        -0.022365567801860938,
        -0.03744068565901146,
        0.0845881395714709,
        0.010825465874572003,
        -0.03626228745480364,
        -0.4052106934423619,
        0.014555210882161445,
        0.10362311016703003,
        -0.008148730345698086,
        -0.12640560878752605,
        0.046839204424158655,
        -0.07642581365985414
      ],
      [
        0.14392020315850698,
        0.00836094599699471,
        -0.03064415264216805,
        -0.05102726809200963,
        -0.128977380252292,
        -0.041350499608422325,
        0.07122754147104927,
        -0.018969342179444477,
        -0.2764538003772849,
        0.11341792038449713,
        -0.02296542741114705,
        -0.049819533163740055,
        0.09420642894781965,
        -0.0032285594365008617,
        0.12477164653125464,
        0.22427317516884185,
        0.13093851334454618,
        -0.021278760117092343,
        0.0887417213621847,
        -0.02802604532799211,
        0.062199267625838425,
        -0.08023854738569175,
        -0.04149531560307359,
        0.06282249761655329,
        -0.1523210357422141,
        0.0019502011526012152,
        -0.05483255377995123,
        -0.013783813788889893,
        -0.006790372984898962,
        -0.0009334609910068462,
        0.04773538717700854,
        0.03163809994378037,
        0.12188903856018823,
        0.06860954132187631,
        -0.03776884354537003,
        0.06395444323184005,
        0.03866661341851962,
        0.03505004694886286,
        -0.04014830369451628,
        -0.031626280954722405
      ],
      [
        0.14574642555003958,
        -0.035545236335140395,
        0.03968555635489275,
        0.005856712483998233,
        0.018318656566896897,
        0.020145984868638302,
        0.13073552331338975,
        0.003412891998033593,
        0.14443975844349888,
        0.038975480746305434,
        -0.08465147044124796,
        -0.061541621908635755,
        -0.0004300632129582656,
        0.0035492332511867855,
        0.1712925765999409,
        -0.04839804459890583,
        0.2137076800461854,
        0.0016256539534036025,
        0.11051118030029465,
        -0.05404634556989864,
        0.09694582173627202,
        -0.1707038631251177,
        -0.054786699558586095,
        0.04344594658874961,
        -0.10377964912335351,
        -0.03357354533249451,
        -0.02690331523911936,
        0.015863107117418767,
        0.02925778047312587,
        -0.01569027352539928,
        -0.060314636135066914,
        -0.03432435604846999,
        0.007132859661029847,
        0.17652811738579433,
        0.004615507925752262,
        -0.05161305308422023,
        0.09796204004595481,
        0.18059782977438837,
        -0.0009405372444046983,
        -0.021041901701178884
      ],
      [
        0.03324637000906913,
        0.016288060311961516,
        0.0075638627824938425,
        -0.06173454625788963,
        0.028564037241742838,
        0.06064775989102469,
        -0.006510840394629117,
        0.04198508113981493,
        -0.05109045816626672,
        0.03108920706667874,
        -0.010535161859209767,
        -0.010431489980407133,
        0.06890514022113255,
        0.03759398416505752,
        0.08359934566247627,
        0.057890959034235356,
        0.006946178717248539,
        -0.013257546067183863,
        1.2499207131896511e-05,
        0.009487733864880587,
        0.0033716441704730224,
        -0.013735240311141785,
        0.033369259457087456,
        -0.0360267703014847,
        -0.03611730908132375,
        0.010354048556057429,
        -0.035235954395222466,
        -0.031376863691807345,
        0.019461993363694897,
        -0.010602850826853168,
        -0.01331212688283313,
        -0.03583165910174324,
        0.02985175396916535,
        0.012845464246271969,
        -0.0008856470209586314,
        -0.006380621136695457,
        0.052458667459792704,
        0.014697088552897886,
        -0.057869705212410194,
        -0.023273347546522195
      ],
      [
        -0.09574418479942026,
        0.020450683186854415,
        0.06660236465682803,
        -0.15659880013647381,
        0.07940238678961677,
        0.12261769778874457,
        0.023415725440790836,
        0.10457366837356004,
        0.02626030301095715,
        -0.07125132381014705,
        -0.02009555663618403,
        -0.0751306725284512,
        0.16107034437478476,
        -0.012515837476547652,
        0.048773027564587734,
        -0.12964133110921705,
        0.01127598671348075,
        -0.027620795773473664,
        0.04743098469129619,
        -0.06350721049188046,
        0.03843608197977221,
        0.04013767818147674,
        0.0493006845925772,
        -0.05430609390619552,
        0.10814427641393869,
        -0.11078445135592564,
        -0.1583637554688341,
        -0.07220541391345113,
        0.06580756702623836,
        0.07881687960152112,
        0.074796696192203,
        -0.061987757055058594,
        0.09287236720467941,
        0.027239524857699985,
        -0.0017584089393276935,
        -0.11215274292076494,
        -0.20863037424743205,
        -0.04019075228389341,
        -0.004216227512841035,
        -0.21477492131888845
      ],
      [
        0.08392400339245042,
        0.06778156398072491,
        -0.01934506511233333,
        0.014501515585210713,
        -0.003485461435138457,
        0.026400606597414115,
        0.10629219118042281,
        -0.05324150584492687,
        0.07332586568649098,
        0.06816666391687864,
        -0.035670020605141434,
        0.03333549938555084,
        0.009806047624323959,
        -0.03196535972631805,
        0.0634048517903086,
        0.016339709723415932,
        0.08225801265330397,
        -0.006946651192982107,
        0.1019341378631579,
        0.040730926063062695,
        0.08859656140752427,
        -0.06968754914256271,
        0.021946519554594632,
        0.13476604492559477,
        -0.041781444958795676,
        0.016645856018769133,
        -4.0451679063911624e-05,
        -0.022378983014963622,
        0.04747165386757475,
        0.11947041346494659,
        -0.029869120179439528,
        -0.02507482486725617,
        -0.017951059704155697,
        0.050982159190091324,
        -0.034025744111691084,
        -0.06439035594359856,
        -0.0416761361302864,
        0.07678764785923232,
        -0.08749944343786004,
        -0.030552114325239826
      ],
      [
        0.057073516838229685,
        0.01730475495623757,
        -0.08183078223390063,
        -0.09906748323995807,
        -0.09547702539624099,
        -0.025635600375283903,
        0.02723998388285146,
        0.007482913573143338,
        0.05741216768380188,
        -0.001566070075819322,
        0.008887101599302174,
        0.00958241181253408,
        -0.001301878766801466,
        -0.0014613296087299316,
        0.013321451759225035,
        0.00825700061692947,
        0.0183634608894077,
        0.005046485826253816,
        -0.013481050895127787,
        0.006456401281244012,
        0.020728473011671873,
        -0.033263631795379736,
        -0.11757460996825529,
        0.02561048732008244,
        -0.016197758548806486,
        0.03784474343809923,
        0.0025152017693034377,
        0.07968731306049832,
        -0.01965838459741771,
        -0.029772638450613977,
        0.00251044594151559,
        -0.004668753439895654,
        0.04378853729114323,
        0.02218072207083823,
        -0.007844182998666262,
        0.005934202774852575,
        0.013751628016344697,
        0.013182531109236267,
        -0.032691469809494195,
        -0.009735010236796406
      ],
      [
        0.216430989566646,
        0.11163455840634655,
        -0.07804983841980377,
        -0.02810829116213349,
        -0.0731056868793508,
        -0.0198507549421864,
        -0.023799611256063558,
        -0.026718410177803277,
        -0.020847084638179997,
        0.00517449823302704,
        -0.02412394029744857,
        -0.006130055132944791,
        -0.007496329671027056,
        0.14999257165992894,
        0.12274964201704096,
        0.11680303408133305,
        -0.004340972456300071,
        -0.02651198937684042,
        0.02578239878988099,
        -0.03730094429792729,
        -0.02751351118125708,
        0.00406757505392064,
        -0.041238437356881624,
        -0.04651574658899577,
        0.05741693855973328,
        -0.04965876592869108,
        0.008581446177331134,
        0.044303829812670996,
        0.019868671310568305,
        0.0031532055961739276,
        -0.02557377463492085,
        0.12934427744347937,
        0.06430041025034253,
        -0.12992198946409853,
        -0.018192902807674355,
        -0.08705566692936155,
        -0.02502072193333443,
        -0.06796907445475026,
        0.055569883861217514,
        0.008995478259813033
      ],
      [
        0.11577776316725542,
        -0.014206173354263163,
        0.07937159819019825,
        -0.043837189662724284,
        0.07684452274944924,
        -0.0003483746019060553,
        0.13283374461369546,
        0.02868694085311808,
        0.05191505195144471,
        0.04476873724005377,
        -0.05533397214693703,
        -0.0052053009989318525,
        0.01979476792846904,
        -0.03817885007311559,
        0.12409126787986852,
        -0.036889640803055415,
        0.20119205336934604,
        0.02612337929874446,
        0.1274786908453548,
        0.009029558844771838,
        0.14268023507973335,
        -0.09384360025863701,
        0.04010279531394946,
        0.12254545207286058,
        -0.09647538204381097,
        -0.0040442382773723294,
        -0.024094491227955473,
        -0.06938273294465366,
        0.04779280680984824,
        0.03195419475191341,
        0.010359157745078111,
        -0.05378953802543376,
        -0.07761805670255824,
        0.1509143014695955,
        -0.04831468958725888,
        -0.08008759661501877,
        0.05571144711253496,
        0.15399332192043338,
        -0.10000219119160463,
        0.03826199063593576
      ],
      [
        -0.23479749696809696,
        0.3795752038863562,
        -0.18862387252453464,
        -0.10424330563369286,
        0.11760129963309345,
        0.09848178572430563,
        0.00303152299243119,
        0.010781442041243296,
        0.003143307348664404,
        -0.43918955006983673,
        0.6301933654028142,
        -0.062351817798350764,
        -0.03183004132258587,
        0.10665531971710435,
        -0.15655008006301743,
        0.12358089373421671,
        -0.9945554769248791,
        0.01574457104939112,
        0.05128010698616097,
        -0.08782452935812177,
        -0.08763461643038818,
        0.2832174510677802,
        0.14151725897322762,
        -0.07707131558505353,
        0.12943689450002308,
        0.21607789582625908,
        0.010116055261363388,
        -0.21675456154252332,
        0.002071725594836701,
        -0.1499301154732461,
        -0.041284497179677936,
        -0.14688093325654306,
        0.0009622299523665075,
        -0.18343300991852798,
        0.0690369779274179,
        0.1531458094360413,
        -0.1627863728855103,
        -0.44717015086801587,
        0.17237949891856783,
        0.014680646678735641
      ],
      [
        -0.08412982664373272,
        -0.07356758042907456,
        0.14762285101396433,
        -0.01972485783394875,
        0.12163403300150366,
        0.07853335178566564,
        0.09579116909336866,
        0.0576373599527865,
        -0.327581175761086,
        0.0489853503520257,
        -0.03651446429518572,
        -0.22129005598034002,
        0.40232180277869783,
        -0.03695535186579423,
        0.0907974136547808,
        -0.05962480440086794,
        0.056832529335394656,
        -0.11825086570851732,
        0.07918065206522354,
        -0.17058344902045738,
        0.07645142773199026,
        0.02106385649924147,
        0.08643909653358381,
        0.07842011654381459,
        -0.008123395906470607,
        -0.11445231965536112,
        -0.40431907214161616,
        -0.03577745531375917,
        0.0805740314105422,
        0.038321720450643505,
        0.05753045305613712,
        -0.055380869343273464,
        0.030342542777205214,
        0.07744839194992414,
        -0.01198766332970351,
        -0.09114471601476622,
        -0.02353726433872129,
        -0.04669595844119012,
        0.01824535460120837,
        -0.3675745447845634
      ],
      [
        -0.3652234511193779,
        0.11173029583921665,
        0.012500415095496036,
        0.03273049573485181,
        -0.08145475552074183,
        -0.2803604538397023,
        0.3990222131552468,
        0.11941792505008039,
        -0.12259548586782623,
        -0.40421742965365204,
        0.23022604542539088,
        -0.0037354584828681934,
        0.006454032761254803,
        -0.04636443798332406,
        -0.37200145142557045,
        0.4582240952825775,
        -1.1113265715487919,
        -0.06336606785237542,
        0.026381577175492523,
        0.02116146627292998,
        -0.021088304157279553,
        0.5921318919586821,
        -0.11533935936140677,
        -0.3967037869281625,
        0.23795647427582206,
        -0.037415368150979414,
        -0.0010939932563625273,
        -0.004200210481656515,
        -0.10565777952767136,
        -0.10274263405184972,
        -0.08300646816914227,
        -0.2667662031857073,
        -0.002264000152832918,
        -0.09643040610212947,
        -0.018633646839159385,
        0.4735655052207707,
        0.03305787546652043,
        -0.5737426150063589,
        0.2754268437475629,
        0.0006690726584958151
      ],
      [
        -0.013729942917214499,
        0.016347318826937508,
        0.02019708320759465,
        -0.049488890623186996,
        -0.0008202495985632635,
        0.028180770803656184,
        0.006426618124436247,
        0.04131206486928545,
        0.039714627787922896,
        0.012652493884814424,
        0.0076452733935215185,
        -0.013887825480122618,
        0.04602450623533683,
        0.008085222254782715,
        0.001643568496595145,
        -0.02036628275203703,
        0.009761845911661257,
        -0.01620448893666313,
        0.008024473398178675,
        -0.03247715290927044,
        0.005783599011459635,
        0.009594420030659415,
        -0.005500611707848677,
        0.021909315432500305,
        0.03421250194251299,
        0.06609421037173266,
        -0.04309770264630983,
        -0.000772072279071226,
        0.002842113623647059,
        0.02605877713824634,
        -0.030850724020115423,
        -0.004489620870368292,
        -0.042907873223136855,
        0.013516284863354116,
        0.014729092208496894,
        -0.04587489471207617,
        -0.01089370296792791,
        0.011310863716009926,
        -0.009317340710827298,
        -0.06561747810201159
      ],
      [
        0.6141809224957137,
        0.025467870061262023,
        -0.8473745762895322,
        -0.10341551402221326,
        -0.7742310603492917,
        0.03636632570246065,
        -0.6227755003227059,
        0.17833412184474712,
        0.4138282376884607,
        -0.007802524111779913,
        -0.20386168167826413,
        0.0810537536240031,
        -0.07148658869928097,
        0.2114844758920968,
        -0.3008461098572529,
        -0.3276940638125976,
        0.38162278952516815,
        -0.05999173668077139,
        -0.34583144107657315,
        0.07178464227403979,
        -0.020603711181824483,
        -0.5086168168567625,
        -1.0404016237099323,
        0.34527479658825455,
        -0.15373077678563044,
        0.1408509079626358,
        0.07322200356132995,
        0.12725539799508465,
        -0.02374984081760617,
        0.16191611333349604,
        -0.1174725583551846,
        0.2314037565933573,
        0.0024016722441772215,
        -0.6871109585453165,
        -0.059211601839902796,
        -0.07988444551809117,
        0.0014606118837614224,
        0.35634778339371787,
        -0.1662708560638086,
        0.07268738319359606
      ],
      [
        -0.0359952167197208,
        -0.030820931255082843,
        0.1324176186804181,
        0.10866999647017538,
        0.050616837136312494,
        0.06854813793916378,
        0.10127216700009098,
        0.029095312862695493,
        0.19182675864598528,
        0.0816953620248657,
        -0.11508528685186702,
        -0.13167195217625313,
        0.20580594670436897,
        -0.05333970617515873,
        0.042108576681142464,
        -0.1899649546924452,
        0.11733778648062212,
        -0.07201694010016262,
        0.19960463986327345,
        -0.1676958566828752,
        0.14205932070988658,
        0.0022625851317270174,
        -0.019404552068221875,
        0.2681599579668268,
        -0.0653484197259193,
        0.14812767797408538,
        -0.22317183713459707,
        -0.005725412428070089,
        0.0379085177391065,
        0.03846983775091578,
        -0.12299739972602733,
        -0.06328675225118707,
        -0.10294314003076939,
        0.06668940414860126,
        0.10927428103484692,
        -0.06243001041187217,
        -0.0367330707120873,
        0.2025329332660552,
        -0.008403566353222333,
        -0.329341444939415
      ],
      [
        0.02799707900412193,
        -0.058037521653236016,
        0.04015738265869972,
        -0.04551884905949193,
        -0.07189495186927217,
        0.047565095772744974,
        -0.019482705949387284,
        0.0017005899814572607,
        0.01446359638284518,
        0.038956847456895954,
        -0.05187339840265638,
        0.026134018863761047,
        -0.028472575666854336,
        0.055572090007111455,
        0.09865566619693737,
        0.06402445947524012,
        0.2268907139598474,
        9.560562159031597e-05,
        -0.019825889221949722,
        0.009093771016335536,
        -0.006891127441361175,
        -0.12128499144253732,
        0.009158036192219473,
        -0.006894029155541168,
        -0.138002545600331,
        0.0038713939945754514,
        0.03240997378873391,
        0.024292209655049163,
        0.014707155223817296,
        0.06807157193898547,
        -0.03994301078565287,
        0.040884652554673814,
        -0.036263694014562683,
        0.03550398848797922,
        0.02743042619921198,
        0.07963930072585297,
        0.05094406439185792,
        0.08212910717767263,
        0.03844445720087711,
        0.03254398488446807
      ],
      [
        -0.17840770710234988,
        -0.04429275247451419,
        -0.025839726572261253,
        0.25030250695538386,
        -0.094658623038092,
        -0.10500658852864121,
        0.05941395565200992,
        0.1553368689246437,
        -0.05726928878574895,
        -0.09468426380366689,
        -0.10364600420862291,
        -0.05685777958705095,
        0.01702903786553262,
        -0.1457958420786594,
        -0.12576978794116425,
        -0.15847361250068126,
        -0.17982410083001296,
        -0.05594921755393615,
        0.004150979531060809,
        -0.040534758546918154,
        -0.0037802857893801216,
        0.0834857043175584,
        -0.16758907532473719,
        -0.10866518036615552,
        0.06311592603816944,
        -0.07425388250861067,
        -0.0584848222376825,
        -0.15425647533680129,
        -0.03665459697151187,
        -0.05572893243446717,
        0.1845110072029128,
        0.0037755106348853914,
        -0.014947791366840142,
        -0.08254953286261542,
        0.027366323454467364,
        0.1108976887956579,
        0.04959260384209011,
        -0.1865372471995514,
        -0.013817536555034635,
        -0.02729533366924323
      ],
      [
        -0.09255105302497335,
        0.01898926973696032,
        0.08411504317523151,
        -0.14302897893509597,
        0.14921217575771514,
        0.17495318308394334,
        0.039776569866343384,
        0.08896300177507196,
        0.20028484411823422,
        -0.055932254823555946,
        -0.02129639331921831,
        -0.07573120794755288,
        0.16964199242596756,
        -0.04362780632204431,
        0.06635463358384464,
        -0.2902614311611022,
        0.013715434152061027,
        -0.02159731060130269,
        0.063063301263056,
        -0.08623070311481326,
        0.04121650396890732,
        0.03442644693126931,
        0.08550996376153379,
        -0.03749937686412233,
        0.18350033384446304,
        -0.14118812448565476,
        -0.19524502915230635,
        -0.010096359148758737,
        0.10631430402879082,
        0.06231352496364795,
        -0.044489408491127834,
        -0.07098515961943042,
        0.04211436482066401,
        0.03499868436919557,
        0.02387739645106531,
        -0.1281420056186369,
        -0.23643052321249614,
        -0.037385869414294906,
        0.02966714933857843,
        -0.21819595562046032
      ],
      [
        0.11365070098254089,
        -0.1560510031566144,
        0.18907384141134398,
        -0.0842076412597721,
        0.12203935437372439,
        0.12997907016061147,
        0.0661629240214296,
        0.05944168591423234,
        0.15570705115736844,
        -0.057569828805253485,
        -0.14233729227628425,
        -0.027177781158441904,
        -0.02517294593879452,
        0.07004742208727811,
        0.07387884052470747,
        -0.314084495967551,
        0.8273970189249947,
        0.010068222420420476,
        0.13927676835894534,
        -0.03189014157656954,
        -0.01789630699009483,
        -0.5080399507617399,
        -0.15419094157254404,
        0.1941282829135299,
        -0.4083655298275646,
        0.06320894615136839,
        0.002418693444954181,
        0.11547918323812939,
        -0.021689027095901696,
        -0.1579983933777907,
        -0.10699813723044282,
        -0.00650086787461867,
        -0.01621334016482203,
        -0.13209931548372655,
        0.012678257997636857,
        -0.010249898145709773,
        -0.1410792032841328,
        0.7276646456319025,
        -0.07327930092423643,
        -0.00825845007852325
      ],
      [
        0.0649757415509711,
        -0.11903782359122436,
        0.0007441044087224005,
        0.06310404749308965,
        0.024627634779548702,
        0.17526340534816223,
        0.19387351342227616,
        -0.07245183889211604,
        0.08989566988776389,
        0.20125837881423017,
        -0.05622609679969987,
        0.08561939261946433,
        -0.07433830385612102,
        0.03558928648925437,
        0.17130667312300657,
        -0.21786605194609932,
        0.19299756305399937,
        -0.0036569569109361683,
        -0.04138359048268777,
        0.04645349894497821,
        0.030696973549406103,
        -0.19388832770293427,
        -0.04333859563251863,
        0.32051492880351856,
        -0.1198120909361079,
        0.0024846610435445182,
        0.07914968426917077,
        0.008717833361298314,
        0.0400506352391817,
        0.004969742288261904,
        -0.13255118631256121,
        -0.03146878432529445,
        -0.040442688168116664,
        0.07194754328004091,
        0.010914859885953926,
        -0.03548480278725402,
        -0.16175488696145138,
        0.23517878759413888,
        0.0291651962086774,
        0.10186891528713389
      ],
      [
        -0.14107687626512752,
        0.008819547888323207,
        0.1517077515099027,
        -0.09575071865128924,
        -0.001473569259727766,
        0.09114015533682436,
        -0.08149895024236785,
        0.03638021964784926,
        -0.00034429318352895345,
        0.019245529551726266,
        0.0761709705782935,
        0.007600465170493996,
        0.02146594715127297,
        0.08559644943500017,
        0.07399380327897256,
        -0.06315236508783821,
        0.10894653332521398,
        0.0038914786033983377,
        0.005561103597741773,
        0.02790188041375263,
        0.04312811140330288,
        -0.03852255876004113,
        -0.14034385150544887,
        -0.18257394320945647,
        -0.14435217259570143,
        0.011106099792178841,
        -0.013282785162434935,
        0.0199392456998342,
        -0.012618935853847948,
        -0.08294886545088648,
        0.06972413860005845,
        -0.050931549910223785,
        0.013118761782571115,
        0.4017530531570413,
        0.006871709234735472,
        0.23162154210074298,
        0.018115549751674464,
        -0.07696047089422957,
        0.00870062734023253,
        -0.03664085755956009
      ],
      [
        -0.08357034139043673,
        0.22135732079289555,
        -0.1072860674432485,
        -0.9142998366846212,
        -0.048475065257073305,
        -0.0939594256366858,
        -0.13637249816101119,
        0.2050474555629997,
        0.3560578480780867,
        -0.05025953778645976,
        0.13039966934462116,
        0.04981231566757154,
        -0.010909200544137548,
        0.5630338666978718,
        0.15547663601953154,
        0.053239246161555065,
        0.19458456358221463,
        -0.044427414202206444,
        0.03357427455575882,
        0.049312482276501514,
        0.022265329488770837,
        -0.0775946970614669,
        0.15166244378388408,
        -0.9099731331284219,
        -0.11268840515161489,
        0.20945568466723077,
        0.002080332735003773,
        0.1521587646070441,
        0.007850410018374302,
        0.009382530626248633,
        0.1829874010173991,
        0.22209729525664346,
        0.06786090647296117,
        -0.043931843250505455,
        -0.06817250184846503,
        -0.08503187642109354,
        0.12097407896180207,
        0.19051618012759752,
        -0.1823361096276951,
        -0.019109360692361257
      ],
      [
        0.20422078090130413,
        -0.019698813930378194,
        -0.08197357240852614,
        -0.1563837970078938,
        0.08433054770940814,
        -0.023872866628379855,
        0.04795970288159145,
        0.034039110917981064,
        -0.1282698578160421,
        -0.0016845173003165604,
        -0.08181187816503642,
        -0.04930419730060624,
        0.10947336480669528,
        0.09329841334753432,
        0.24877922845195077,
        0.0514964991901784,
        0.05460019118324527,
        0.012864735109618481,
        0.18276004532184703,
        -0.03871951634410996,
        -0.06782625394052719,
        -0.06045221811601408,
        0.14029431132988154,
        0.10759509697321178,
        0.033755106402046,
        -0.2126034053363738,
        -0.12255164342757875,
        0.15130513956414485,
        0.07273035974835923,
        -0.06860350551794747,
        0.0021039585575754454,
        0.03260614479448556,
        -0.11310112978578746,
        -0.06752189769142511,
        0.01391568947767175,
        0.03887052207934752,
        0.054258622308358415,
        -0.04060551562003044,
        -0.03460173430354591,
        -0.12102427906049189
      ],
      [
        0.1442226578546926,
        -0.19199132445097178,
        0.31772720507921837,
        -0.1456589534902903,
        0.00047142184144477114,
        0.09022897879464087,
        0.12749028569032422,
        -0.10650629544050026,
        -0.1150143549325182,
        0.4254830088037123,
        -0.24299077000539251,
        0.0038771118587612075,
        0.03338271994244963,
        0.11341927395895364,
        0.3575611808513883,
        0.12552665513808664,
        0.8471620992541161,
        0.06527743831062206,
        0.24170529925729758,
        0.05139806080762655,
        0.1695592254672864,
        -0.3967241952082111,
        0.1962290115863585,
        -0.06562312927145546,
        -0.3021871694737156,
        0.020509533474096793,
        -0.028651442142586695,
        0.01346699764744386,
        0.10100939642063445,
        0.06377993137394448,
        -0.007017461352731443,
        0.05443454844140567,
        0.00615348046800009,
        0.3695176473370245,
        -0.020979971672726333,
        0.07320710304906612,
        0.015181028623081337,
        0.417181076549065,
        -0.10988242056004041,
        -0.05316975619031434
      ],
      [
        0.48948197560241374,
        -0.3261553207242689,
        0.19010938450781142,
        -0.11029786595090464,
        0.052651161493374406,
        -0.16622950218240626,
        0.13936150206843972,
        0.021884915232650865,
        0.07844581748230278,
        0.15227931794753594,
        -0.09168401571409739,
        -0.007587718955570444,
        0.014671132739388117,
        0.1433769975698527,
        0.4284036748893791,
        -0.04737576927373087,
        0.7645309036015713,
        -0.046978787542116825,
        0.25946902226630975,
        0.000973824237657517,
        0.18923012283100216,
        -0.5527482177069483,
        0.04064086834107981,
        0.24834026749013982,
        -0.42597216181636793,
        0.0270875321205906,
        -0.016028415726361992,
        0.03154792491688343,
        -0.002153478005298845,
        0.1353007440119922,
        -0.2250933458286175,
        0.0041044920039534525,
        -0.030815859901748538,
        0.39999545508934714,
        0.01918964256311245,
        0.01777756783754218,
        -0.12886424922645182,
        0.6736557543881689,
        -0.10473870944482853,
        -0.040851651137980116
      ],
      [
        0.09977817407165981,
        0.14670238180730374,
        -0.09984390666551698,
        -0.1797061087710233,
        0.044256729572117674,
        0.15416966746998637,
        0.042015518394781695,
        0.024182347192517186,
        0.17132039319952977,
        -0.11875204882690636,
        -0.0077385374095965504,
        0.005254721560937787,
        0.02374946827179307,
        -0.05655397652090904,
        0.02492312134862617,
        -0.2009890881892801,
        0.027741707641621014,
        0.007817927105413468,
        0.021836238830745144,
        -0.018904360997642585,
        -0.0022641446371609248,
        -0.08827941466580207,
        -0.055734876964831516,
        0.22314426142195726,
        0.01751400167121043,
        -0.05130552068070938,
        -0.02631410794165788,
        -0.0013320089067950817,
        -0.020469518582434423,
        -0.028356225074871472,
        -0.08034882160954979,
        -0.05648027632770012,
        0.03576478792305024,
        -0.03366695058216665,
        -0.013594229383142817,
        -0.05423562158517385,
        -0.24747886324623394,
        0.08244272675726028,
        0.13930469803700843,
        -0.05209901210847203
      ],
      [
        0.07587403366127589,
        -0.0912942448050937,
        -0.07006451740823937,
        0.16385456595593398,
        -0.1334722350243584,
        0.2175244216435314,
        -0.012318978371352964,
        -0.05515868572431739,
        -0.034823738199982184,
        0.12833934628955232,
        -0.09833643473466476,
        0.03639093077009649,
        -0.08111946536965473,
        -0.15935712797183157,
        0.12036960890241474,
        -0.014304332545920333,
        0.11201152536308581,
        -0.010839336972332215,
        0.10874758771684766,
        0.044101933160549785,
        -0.045559850288248084,
        -0.0862159834041023,
        -0.001633553074714522,
        0.008305161016375164,
        0.057145479756365365,
        0.0284232734159929,
        0.06838142845709146,
        0.06177162084629097,
        0.010639190014431548,
        -0.052649036442506625,
        0.09877302024946197,
        -0.011141812981137256,
        -0.006077952079410238,
        -0.11497590432515287,
        -0.010455826186073242,
        0.010510631507372343,
        0.10983952656242515,
        0.08529924367559309,
        -0.04769382083676608,
        0.0804261196336631
      ],
      [
        0.06605643851771009,
        0.028752022046238133,
        0.048318464834993184,
        -0.011055465349850824,
        0.09858888144614643,
        0.15406196044936962,
        0.16209968727447063,
        0.0031036856265000204,
        -0.1774939743228612,
        -0.04449916633059105,
        0.12621856763542888,
        0.011327231557255606,
        -0.05544000000657253,
        -0.26912649324361765,
        0.1417696717945199,
        -0.013198549617455601,
        0.2099771169787133,
        -0.047387859542115184,
        0.03690363672223174,
        -0.04468712368373137,
        0.021626825250383636,
        -0.12976800720180826,
        0.06668177938013804,
        -0.08526995135459571,
        -0.09242864111039431,
        0.03346799323628048,
        0.09364570292103264,
        0.05665197475248634,
        -0.03769673063862125,
        0.05314885155888766,
        0.0937110375951319,
        -0.1440403288785132,
        0.11519549095308255,
        0.13256556443250186,
        -0.018134512644319548,
        0.18761646616963298,
        0.17851072124324566,
        0.10342189927691403,
        0.07202515627166971,
        0.054814966612956435
      ],
      [
        0.08556389538207344,
        -0.014602210816900317,
        0.00801122186188878,
        0.13832557954308308,
        0.007970910497998748,
        0.040540535570005407,
        0.3429065050588061,
        -0.08279232329495609,
        0.09425612619097326,
        0.00721747908659494,
        0.11744074225406893,
        0.01056922843975126,
        0.024856902292182965,
        0.10327742136288667,
        0.1625382864007572,
        -0.026094189717684606,
        0.18213231299805455,
        0.017874893526644235,
        -0.12298920437029151,
        -0.01857838851960817,
        -0.015035936054536904,
        -0.14094593482792456,
        -0.06115055277516952,
        0.22238218467113477,
        -0.10067548058288324,
        -0.012695594415768122,
        0.0026694292298174577,
        0.07715764983799461,
        -0.011729947866147115,
        0.05574098361336946,
        -0.1812914876331688,
        0.05187499144543198,
        0.05566146612766807,
        0.03199324083003826,
        -0.00845955875414166,
        -0.054649349092017054,
        0.032040878435018905,
        0.17666243859113262,
        0.28344855633667815,
        -0.022715202135651487
      ],
      [
        -0.04954690737968451,
        -0.04405395976495474,
        0.07141271770766512,
        0.0010098759151978489,
        0.01110148273806179,
        0.10844609325426326,
        0.07033607410768182,
        0.08260528536394604,
        -0.08247203861286413,
        -0.07988635054497963,
        -0.06241074818167316,
        -0.14990620562373594,
        0.23379774374343473,
        0.02645572523279488,
        0.07562972223035856,
        0.04466280766390714,
        0.05302135048412468,
        -0.03791013954100958,
        0.09353870718042137,
        -0.11250882266504218,
        0.051102307826611904,
        0.0374733070131922,
        0.054687478845047544,
        -0.09859253746624656,
        0.0014163672373185467,
        -0.11608829146185297,
        -0.18743868673961955,
        -0.024868338520977352,
        0.059946740880809625,
        0.06518030218785183,
        0.08961481157727932,
        -0.0757991710398262,
        0.19300853267737025,
        0.07326041266068899,
        -0.05719428200859856,
        -0.02287941846859871,
        -0.02305614120841377,
        -0.025704774265415477,
        0.13276339491247235,
        -0.26118872300470736
      ],
      [
        -0.0993110050147062,
        0.006898411362272296,
        0.09567298104666168,
        -0.11283202930476947,
        0.0376614770592118,
        0.13970214129486008,
        0.06279847801128086,
        0.1666044709654656,
        -0.13659472789256386,
        -0.13305789689827596,
        -0.048903177452664696,
        -0.1463636720791528,
        0.20816168719690578,
        0.028044577612559844,
        0.08386773916279687,
        0.08748863965705324,
        0.05303364965215494,
        -0.0029838559808388018,
        0.09021284146310832,
        -0.12649306053247208,
        0.0732491301363451,
        0.04437438844399676,
        0.08583251215406963,
        -0.0898183510079236,
        0.0015779410165536415,
        -0.16255581719188641,
        -0.22532920633580655,
        -0.08307194948869742,
        0.08638911706185498,
        0.1367618601098798,
        0.17706445507325966,
        -0.09462344951104176,
        0.20608417855947733,
        0.06649190064945411,
        0.03798375445534873,
        -0.03644259918047868,
        -0.15471122085665784,
        0.010933896287022127,
        0.04348213678039632,
        -0.2734552172267238
      ],
      [
        0.15688637271403416,
        0.15806010674208196,
        -0.22320732731106116,
        0.019934696139961638,
        -0.05393458842464889,
        0.0372336597079753,
        0.09993880575782374,
        0.03645920288846048,
        0.1304156170300698,
        0.00017252527060876742,
        0.011802995656921706,
        0.06442470568093822,
        -0.03907231558285317,
        0.033773769448651174,
        0.07354974405901489,
        0.04485960745828988,
        0.15655355117765596,
        0.00909616850033571,
        0.11513073589704133,
        0.001046235200059201,
        0.05004530388432563,
        -0.1173164105956984,
        -0.05835963899114203,
        -0.00781843788523872,
        -0.20051040334277737,
        0.19434628215785887,
        0.015032330065052609,
        0.1693787202619237,
        0.031112770502903037,
        -0.0806290303941936,
        0.184208156112956,
        0.08992659940275109,
        -0.00992222881452169,
        -0.0996886917654892,
        0.010861040807457737,
        -0.016499122717910812,
        -0.052438059301036025,
        0.147985380001668,
        0.003210633078558586,
        -0.019739624462174005
      ],
      [
        0.0974502551622194,
        0.026095510490792208,
        -0.004234524582459029,
        -0.008286361749741601,
        0.12333289100084693,
        0.19316239534436175,
        0.24078336524586536,
        -0.0908939922603214,
        0.26340090931381366,
        0.09067965082926442,
        -0.21516099490139803,
        -0.018014038086744583,
        -0.007520133097945339,
        -0.4774481113849409,
        0.23675370087415806,
        -0.28943929091711235,
        1.1413894265628644,
        -0.02305807400064717,
        0.2682145992633395,
        -0.02926066362916701,
        -0.19869011750495136,
        -0.523403953466717,
        0.06864293938059852,
        0.4097197032775221,
        -0.40087377199346436,
        -0.2897541925715297,
        0.010151179217672885,
        -0.01738153752847067,
        -0.009559444398111055,
        0.4080472761184281,
        -0.14586272425577007,
        0.0901436268357942,
        0.05457636862079601,
        -0.2212759005005046,
        -0.04296917526108471,
        -0.11227364964264537,
        0.062311909172910955,
        0.8035860793595271,
        0.10397324166022545,
        0.0014032160311201838
      ],
      [
        0.045195739040485516,
        -0.25651145460786845,
        -0.13563544602049912,
        -0.28898450259095204,
        0.045673075178066236,
        0.009907356675910193,
        -0.0875806169257236,
        -0.2379473718200587,
        -0.16244473687660518,
        -0.01807848084613032,
        0.013261097549917843,
        -0.024930377784101572,
        0.005933281333588652,
        -0.03531936055759773,
        0.15800057563431233,
        0.030449217354391343,
        0.05846275218454784,
        0.05390069924173702,
        0.050630211286929294,
        0.0006331181903286322,
        -0.08942961796513521,
        -0.05903165553191217,
        0.0061245582744178335,
        0.4402918255825008,
        -0.5687607186072164,
        0.08268112711588402,
        -0.01156089069483099,
        0.008806071211975625,
        -0.022439768072441878,
        -0.4574535432440545,
        0.04387099408317852,
        0.13251317622517372,
        -0.014617643270138314,
        -0.4357829326595709,
        0.01596473868974779,
        -0.1752189198387531,
        -0.14221757242637503,
        0.2602926315246692,
        -0.07942921871935596,
        0.022738322847835484
      ],
      [
        0.11398373376702543,
        -0.05354872239679663,
        0.10121914210930583,
        0.026310681745589235,
        0.05078715787066007,
        -0.06509780297391572,
        -0.062332757824213,
        0.06182560206800952,
        0.13971790905359827,
        -0.011133781917522022,
        0.0018052662918412992,
        -0.02025483657495877,
        -0.0043113527988490295,
        -0.0037802816805134983,
        0.08849166510812545,
        -0.080414087188459,
        0.24080296662742168,
        -0.025131129260382752,
        -0.103832297505269,
        -0.018639143551621048,
        0.04736004702660037,
        -0.15002963790313506,
        0.023603445252842165,
        0.03931576984515423,
        -0.21850255541958852,
        0.03134082941178222,
        0.0053331858555712396,
        -0.009142455195479694,
        -0.004389987492790033,
        0.21976122671508372,
        -0.00415713225871251,
        0.007748621021701731,
        0.009724817635422562,
        0.2131934642190851,
        -0.003000955764592078,
        -0.08999516684841001,
        -0.01933427103819075,
        0.16251430642663106,
        0.010606085683617069,
        -0.0026856044765111472
      ],
      [
        0.1138346896644347,
        -0.054419459979452724,
        -0.023284250684058944,
        0.11648640707831058,
        0.014414273360238343,
        -0.02926437636711593,
        0.07840792096391651,
        -0.04713005611725661,
        0.004572415724128799,
        0.033967150030939586,
        -0.07250194343039154,
        0.0400665253033097,
        -0.0477923156019255,
        -0.007066939425983975,
        0.09755220058041716,
        0.05037347877949273,
        0.06958839619549906,
        0.0145230166799165,
        0.08574868176520993,
        0.0444722968866092,
        0.052358725343963915,
        -0.07547107244012027,
        0.027463637364737413,
        0.06710476673828118,
        -0.06963210134054139,
        -0.032886516636584755,
        0.04605342473532053,
        -0.014804762497262798,
        0.02889554534283416,
        -0.019245905035307938,
        -0.042567397649493154,
        0.009726106196475206,
        0.05509520595230714,
        0.062177534160206806,
        -0.026030709146842506,
        -0.029542440193576994,
        0.08181421449049998,
        0.07014398500613352,
        -0.02435601213589207,
        0.050699922251463116
      ],
      [
        0.5121564362330375,
        -0.18544260003164367,
        0.2071942980515397,
        -0.3478118760900487,
        0.03985038119773956,
        0.10644408443743723,
        -0.14693977572903458,
        0.14237789382610436,
        0.0019346164758935677,
        0.03884410303639754,
        -0.12385481187912326,
        0.0007720136138941813,
        -0.0028527119275921506,
        0.08919277552471508,
        0.517717125214774,
        -0.18941591340775038,
        0.8370977505064113,
        -0.06532732124136639,
        0.17199445673822175,
        -0.03589879851898029,
        0.06860333156560523,
        -0.6066716277091314,
        -0.05162458890115584,
        0.27323792558220444,
        -0.301753639874606,
        0.1977244465200228,
        0.0003392953931181016,
        0.21061546274852871,
        0.021959126984059454,
        -0.1413793628838439,
        -0.08900756578236103,
        0.0016587600193414443,
        -0.009387652079474052,
        0.02326812041281066,
        0.03681392881896844,
        -0.02083323949787923,
        -0.1145841619775825,
        0.7127597560229016,
        0.03735662441418773,
        -0.0191969369086729
      ],
      [
        0.027774451854752233,
        -0.051262482843338085,
        0.11039574458319124,
        0.06456501247652906,
        0.0650717393464785,
        0.07274830888676748,
        0.09438902796229282,
        0.08382230143672861,
        0.03567093245446569,
        0.02859275297399592,
        -0.09123990486423199,
        -0.037005951702931535,
        0.10715499918549648,
        -0.08942927040904021,
        0.08206056075281214,
        -0.12595695946331203,
        0.09135928557640738,
        -0.0038060505693464125,
        0.10019879197414608,
        -0.028690920357152355,
        0.07611815353056267,
        -0.03738068217093609,
        0.06485918103510596,
        0.08171806763749376,
        0.009930924210505983,
        -0.021620554630738757,
        -0.08930558412329562,
        -0.029271604760955257,
        0.03450575679049757,
        0.09223213868116684,
        -0.06591617512491534,
        -0.08729438379652718,
        0.07061751332831041,
        0.1075125738432969,
        -0.016038422918628566,
        -0.01522258046911601,
        0.02395853293293812,
        0.08067763945303846,
        0.060761912121592,
        -0.14469570153631436
      ],
      [
        0.26246641802774334,
        -0.212241222659563,
        0.10334670904681509,
        -0.31130486287258063,
        -0.10844332857092587,
        0.0017360426557046064,
        0.03617391258987036,
        0.12385286747778784,
        0.0022100707297679836,
        0.22390638908143778,
        -0.14537459982663922,
        -0.0186419971867186,
        -0.007495011185407488,
        0.29349097269522884,
        0.1453229582829122,
        0.022495207053233473,
        0.6019700959651764,
        -0.06394885955769797,
        0.15661556345969194,
        -0.017402054321467103,
        0.11089444142524905,
        -0.33929302546023343,
        -0.12142850003735582,
        0.06334751206722819,
        -0.30925267891581315,
        0.057665830180702295,
        0.0016280415133022033,
        0.27287307937260863,
        -0.013090079676522271,
        0.031082628664223042,
        -0.02048329078962476,
        0.03395802961060368,
        -0.024713218263216378,
        0.296727214010745,
        -0.001468028712192139,
        -0.09838630359280089,
        -0.09936497530067873,
        0.4275082268329021,
        -0.07115906141338849,
        0.0003930788992292857
      ],
      [
        0.1470077272182828,
        -0.10674537249740336,
        -0.0820826146951514,
        -0.021193461323796826,
        -0.04761140840578621,
        -0.04559598082190165,
        0.012059046564524695,
        0.08187661505513993,
        -0.004422494147439691,
        0.000515742013308251,
        0.02261895353116019,
        -0.008837066536230915,
        -0.009486283639136017,
        -0.09045013945287772,
        0.2000253427199558,
        -0.015059044638517547,
        0.22893544790233467,
        -0.01695218989949961,
        0.1428492853555238,
        -0.02985400829236555,
        -0.015783304089976424,
        -0.17566382652546642,
        -0.07382321375872658,
        0.0094905354898936,
        -0.10372634019969976,
        0.012952184235202608,
        0.036992295811719755,
        0.12346964851283018,
        -0.02228778549673203,
        -0.10481100840765517,
        0.09239628447530933,
        0.17800851072198817,
        -0.005435374404930878,
        0.019902516939588465,
        0.004516145994865141,
        0.1275547900375414,
        -0.01160295664128716,
        0.13848141456032662,
        0.00030190840504630415,
        0.018720005551515775
      ],
      [
        0.43040883745444963,
        -0.07258082504023476,
        -0.08028313397948234,
        -0.03139340710223768,
        0.13467628802198395,
        0.04175843766678104,
        0.10855470469451581,
        0.056151826512692155,
        0.0015720753702860401,
        0.07010244555150165,
        -0.058637701982205366,
        -0.003729638895933351,
        0.0394320461728927,
        0.052363128509688515,
        0.5536680107257759,
        0.14096265181606932,
        0.3207422579234671,
        -0.02472467481779623,
        0.24042865654344728,
        -0.0009065505654169899,
        0.008993085231496573,
        -0.2925484852013773,
        0.15388471031936485,
        0.17042609304343986,
        -0.04153884147847309,
        -0.12734674929055695,
        -0.03960045972868787,
        0.12737369939321797,
        0.04703229526104397,
        -0.1361901749247181,
        -0.0798746800645862,
        0.1040329982883112,
        -0.006527435574752036,
        -0.18243137779561172,
        -0.007270838106403718,
        -0.09095483775670545,
        0.04217354806840246,
        0.32525020140648836,
        0.06817417722017477,
        -0.05041182668963261
      ],
      [
        0.18472196344448175,
        -0.04455666178136192,
        -0.14311184319509565,
        -0.0018738723954668463,
        -0.15467497185694704,
        -0.019178219905299186,
        -0.039589310407878546,
        -0.015569807085699052,
        0.12228926615169872,
        0.1891267480257545,
        -0.00809401169813823,
        -0.02334458261059107,
        0.0334229340416063,
        -0.003280022887545766,
        0.13597498568257052,
        -0.12481449843967522,
        0.2215241976936451,
        -0.0024005257986828487,
        0.07114850582281755,
        0.004300549015041443,
        -0.03934591973364786,
        -0.17542086842218266,
        -0.168561519033451,
        0.004815677091155567,
        -0.24535195486784353,
        -0.08169055990573994,
        -0.007525188586743273,
        0.021290950543184764,
        -0.003214920734655829,
        -0.04904298751382069,
        -0.006199872760033991,
        0.11612946093252512,
        0.09577149444572153,
        -0.09463367925284308,
        -0.04274354862016669,
        0.057912520895300336,
        -0.011474200174620287,
        0.19260861202780502,
        -0.08369751841262965,
        0.012190627295419712
      ],
      [
        0.12298599650095843,
        -0.08974422827584844,
        -0.09105985364415685,
        0.024120228807643935,
        -0.0700123429988428,
        0.02870107580441764,
        0.006589000239543246,
        0.0695459408105655,
        -0.030691076282344246,
        0.04114324801105474,
        -0.116913112416714,
        -0.010333865380230164,
        -0.03309650996095762,
        -0.009367295719293274,
        0.09535572043667395,
        0.10627695143086506,
        0.21056609591024852,
        -0.03788576811612301,
        -0.03590861424656772,
        -0.02579432647951469,
        -0.03369520530122667,
        -0.18627271061652856,
        -0.15368667470610042,
        0.02548167301499272,
        0.17230854564288073,
        0.06329460347646491,
        -0.005819141830166089,
        0.020832023229313552,
        0.001101683161794815,
        -0.08433299085820865,
        -0.02587367965898233,
        0.08847625179797046,
        -0.001629930973907901,
        -0.016885103715516627,
        0.008375745366065217,
        -0.04691449601062261,
        0.06759007845474602,
        0.17064699743699707,
        -0.008687008867457867,
        -0.016450140121178812
      ],
      [
        0.09664795910534327,
        -0.03220007123910228,
        0.014511963756872364,
        -0.1432951194204091,
        0.035040096752730406,
        0.13441864316249452,
        0.054536004501756136,
        0.027459363709396313,
        -0.022548614315673635,
        0.08993349255431936,
        -0.09224775248465253,
        -0.01561623539628392,
        0.06728221255361251,
        0.09735019665923915,
        0.17845016472231492,
        0.07265120577980852,
        0.11776109272562865,
        -0.01311301942796597,
        0.07850458105147776,
        0.011147824968721121,
        0.05754764077361399,
        -0.09159083331965362,
        0.02234695008456723,
        -0.018478644731865904,
        -0.10153489074396056,
        0.05177253859729291,
        -0.04674815940734365,
        -0.014730858984892884,
        0.03971097727808362,
        -0.03533419773508173,
        -0.07940937031536287,
        -0.05368822089032601,
        0.04732425152511857,
        0.11054399250285915,
        0.006554746315224951,
        -0.009936155448920339,
        0.08434073015953981,
        0.12769538896922042,
        -0.07016504438349329,
        -0.06151045895716477
      ],
      [
        -0.09103989868500899,
        0.023900334577114015,
        0.09447376257471708,
        -0.20666009023462323,
        0.09765991251021751,
        0.1452298096707872,
        0.05512067665364301,
        0.15843292283178226,
        -0.05420342239600777,
        -0.08423587128410852,
        -0.03678594941294785,
        -0.10587990590029552,
        0.19893575512502845,
        -0.023602785215088014,
        0.08757080762826577,
        -0.05698135415770996,
        0.03842271790103162,
        -0.014323090023331691,
        0.08735466588203941,
        -0.09468450486024914,
        0.06735739854978867,
        0.02147421394656592,
        0.09470300877116447,
        -0.0756636001014679,
        0.1197840719465849,
        -0.1567715319877146,
        -0.18830720620591757,
        -0.05032429638941447,
        0.10060165837473532,
        0.07702250539134718,
        0.1354484532134896,
        -0.08226596054784384,
        0.08394740960529003,
        0.0560662993572577,
        -0.001970324795806767,
        -0.11762434194765056,
        -0.22674298068663176,
        -0.02641121881965321,
        0.008952139712350243,
        -0.250072607714593
      ],
      [
        0.148422031272866,
        0.16463468716303886,
        -0.12950599590566797,
        0.025481366672972135,
        -0.031783653429974676,
        0.008890244064344464,
        0.13096557517790852,
        -0.1141185331678172,
        0.01978307708312269,
        0.10593464115624732,
        -0.0054921203623752414,
        0.056099781330656066,
        0.0022004611802802308,
        -0.06637023856486586,
        0.06753655755734476,
        0.05079695887853547,
        0.08454293900463469,
        -0.03178652914975244,
        0.12589519724132242,
        0.054546893164290344,
        0.13671382175238622,
        -0.09360960933647886,
        -0.004689405866827388,
        0.22675206139400533,
        -0.056018169817504626,
        0.059536302680395406,
        0.014197150469497823,
        -0.02686668657801543,
        0.06597053587527783,
        0.2024329862597478,
        0.01827475582494119,
        0.02677011195667327,
        -0.012297266494460885,
        0.04559944656726098,
        -0.0541272842534505,
        -0.14886664203705302,
        -0.1023846787890742,
        0.08990243430760848,
        -0.12238718903705645,
        -0.01184548890334292
      ],
      [
        0.08855020114262602,
        0.0259009298640939,
        -0.09675765029243186,
        -0.12237947867327785,
        -0.10006287489463803,
        -0.04388734488339042,
        0.045775719897292136,
        0.02543026741920573,
        0.048806555220182235,
        0.010008344133238438,
        0.004714431886571451,
        0.006351681974866084,
        0.0066249657117204855,
        -0.007323031457300205,
        0.03328412258699533,
        0.0144030000740089,
        0.04051190294808888,
        0.004826088440634146,
        0.0010852272139313312,
        -0.00032252919091470603,
        0.04079207567483967,
        -0.05301354628377412,
        -0.12505501761509977,
        0.0342444165936924,
        -0.01935314712701965,
        0.053788451249687445,
        -0.0029058548527993323,
        0.09122098281418554,
        -0.01909724364826967,
        -0.035861572176678354,
        0.0004811005101002578,
        -0.004906092894442337,
        0.03547445702059841,
        0.04556760090828707,
        -0.005235695679777956,
        0.025651844737491398,
        0.010033839542483266,
        0.0329291978314077,
        -0.04895118472946547,
        -0.014873674101491478
      ],
      [
        0.40893252163309246,
        0.0823076633872943,
        -0.0694133033635249,
        0.05003467292867768,
        -0.042709975256245876,
        -0.06293072723644459,
        -0.028063588372915785,
        0.0041795478685506034,
        -0.13658774930536338,
        0.038806061701213236,
        -0.05955111890071414,
        -0.0032764372871912904,
        -0.012234571087144404,
        0.09313803358864346,
        0.32217537396701185,
        0.08336242365916346,
        0.21157182359716462,
        0.005087451561967288,
        0.144156018493738,
        -0.03758074870081521,
        -0.041256301433098344,
        -0.16528220151794545,
        -0.0010050530595388358,
        0.1284390249731575,
        -0.07324452233129176,
        -0.09312322167917816,
        0.012783343563186488,
        0.11024589005661777,
        -0.013978041351339768,
        -0.1441097750815735,
        0.03753462261191674,
        0.26961838807670696,
        0.04496543707621279,
        -0.1231047030686104,
        -0.021882486229493407,
        -0.11242677071294421,
        0.02577096323129045,
        0.146943538772128,
        0.09764143243507338,
        0.008171342909906933
      ],
      [
        0.056384320059145905,
        0.10113017061650958,
        0.1427954346358292,
        -0.140506113081288,
        0.11254298843130858,
        -0.04016200377756377,
        0.07216603286523501,
        0.11291674337319416,
        -0.0853158823477078,
        0.040704343875167866,
        -0.001356851406812027,
        -0.00879535320314785,
        0.054908350877097806,
        -0.061535836481571224,
        0.07066787798517987,
        -0.05180367072630354,
        0.10191350700188533,
        0.042927550808764724,
        0.08604969755112186,
        0.0048192001389494275,
        0.06568981783265422,
        -0.04346262103970593,
        0.10068226283356072,
        0.08359421607271635,
        0.06628880303006646,
        0.018093483982350802,
        -0.044677124507803555,
        -0.13396187659368933,
        -0.019586678898590323,
        0.04782462387915943,
        0.038269594082153205,
        -0.005937370360655853,
        -0.007766056790855464,
        0.07496319173659693,
        -0.01317982516851792,
        -0.09842966876592016,
        -0.05423717827607212,
        0.0567326974686592,
        -0.0289871971552991,
        0.020411789139845673
      ],
      [
        0.18903529587990817,
        0.07438254325216166,
        0.2955139954633025,
        -0.13138436849837223,
        -0.17068422458332658,
        0.18967087168936558,
        -0.011297192575256623,
        -0.038761228039279165,
        0.07866927871857617,
        0.23436921112831444,
        0.037995876508664095,
        -0.02949211680867536,
        0.0006765874286182524,
        0.18181542432105494,
        0.3886874621607865,
        -0.04728230098074559,
        0.930470789604084,
        -0.018252356973672643,
        0.040884254431163496,
        -0.03639924121678498,
        0.11802865867735135,
        -0.4860425019273792,
        -0.052873501160260176,
        0.29409638933745424,
        -0.20778643410109282,
        0.03274472508733169,
        -0.004207476400661165,
        0.12816715069979437,
        0.07093258743366784,
        0.18121996527908538,
        -0.07539373838026976,
        -0.14398171303087468,
        0.00468960909185379,
        0.12668378612196904,
        0.014429837927592648,
        0.10065604981853679,
        0.13145610155015666,
        0.4890144168646671,
        -0.0861249962484627,
        -0.003786353228507312
      ],
      [
        -0.0873998137648573,
        0.0925539950338241,
        0.015304741196632603,
        -0.11052326855284432,
        0.020156839139584822,
        0.011017273231567431,
        0.0019288042708974428,
        -0.07518569414739203,
        -0.19277984203129236,
        0.05845425051279895,
        0.040917052415456616,
        -0.06524574489490366,
        0.21992868685825356,
        0.04886213818696805,
        0.0039035605315294888,
        0.007921908496815787,
        -0.01513799986484421,
        -0.10862759616043476,
        -0.02160502236086915,
        0.002787738930682291,
        0.0025785948360922523,
        0.06875009524509708,
        0.001233235461865766,
        -0.06946801296173803,
        -0.04760711286136224,
        -0.06057006633093771,
        -0.18980185467955538,
        -0.07286451714224637,
        -0.01171230113291948,
        0.04955081795843232,
        0.08454605645404069,
        0.011070825727665028,
        0.05793426539832795,
        -0.0016937890312146355,
        -0.08345182008614278,
        0.1082979151022794,
        0.12438761273947811,
        -0.12287586592889274,
        0.0003066228833017782,
        -0.1683966856530989
      ],
      [
        0.5754859554496536,
        -0.016591266351630683,
        0.3150046772557633,
        0.173948155082531,
        0.08223810540618058,
        0.12749589231746458,
        0.057164401791860726,
        0.18728597406848288,
        0.11616365883710275,
        -0.023452821383788052,
        -0.2994222952256385,
        0.0028233908635683772,
        0.008369692776988999,
        -0.07368610087566335,
        0.08111931962199233,
        -0.20215504067815993,
        1.0653078848894306,
        -0.03616926833498934,
        0.2639640358156935,
        0.019110339945579525,
        0.29223155319924193,
        -0.5637956313539119,
        0.043968810694574825,
        0.48560067226528775,
        -0.6260122127974297,
        -0.1494200558715409,
        -0.0033239805537942165,
        -0.055911782099477,
        0.004310333540576552,
        0.28502537753032897,
        -0.12244295423399115,
        -0.25838532178575163,
        -0.008938298124760788,
        0.4058266009598234,
        -0.016038005698875167,
        0.04887041779489493,
        0.1812435095369911,
        0.6638984833617781,
        0.27028644198086915,
        0.0025451200065062392
      ],
      [
        -0.005300632891193544,
        0.02167332174710997,
        -0.0033370926667866717,
        -0.03816047056162447,
        -0.012949328888412192,
        -0.007072997062981053,
        -0.0007324176571861275,
        -0.01901128358692498,
        0.06038359501692828,
        0.0045531741608325765,
        0.020439787669877932,
        0.06397827093039382,
        -0.041939539699549985,
        0.016941717584388578,
        -0.005475284816605904,
        -0.023951694998348226,
        0.0046377701118382655,
        -0.012192335115776826,
        0.003354140561139152,
        0.035797896131214986,
        -0.006742271264194687,
        0.00040633518423062,
        -0.013742019733029775,
        0.008227388779923586,
        0.02320408463743415,
        0.07098154467173791,
        0.05349390705694913,
        -0.0041595538463377055,
        -0.017536061645843544,
        0.03483737884437976,
        -0.03431555131987771,
        0.01800250494058373,
        0.04889028774117835,
        0.006312581577528818,
        -0.008025165331413025,
        -0.027283780812008936,
        -0.01973274020345968,
        0.0076946828214467244,
        -0.0011116351851057924,
        0.032695468575711144
      ],
      [
        0.22792639886824412,
        0.08401103749766188,
        -0.7082209004568115,
        0.011897237357998323,
        -0.4554694547917052,
        -0.060782125544896315,
        -0.373379011651757,
        0.1602902944860991,
        0.14286594697759275,
        -0.06900367781110354,
        -0.0527020975908747,
        0.017266677614547584,
        0.00822590686978448,
        -0.0007749191838513106,
        -0.20438840270262693,
        -0.2262622722678854,
        0.12337318898025706,
        0.04867440084158058,
        -0.24044943336787372,
        0.04607051246746238,
        -0.17929438324629562,
        -0.2410866244265592,
        -0.7456964141151042,
        0.20616713860339778,
        -0.36423826536311465,
        0.00946009758491799,
        -0.011164824974606104,
        0.1684398373988388,
        -0.11479368511407091,
        -0.30013384716261604,
        0.021202684407262567,
        0.2004259526403946,
        0.020113649219433927,
        -1.0212646051387408,
        -0.021991245191402737,
        -0.27913993578949703,
        -0.003733148724725056,
        0.09010305935304978,
        -0.04659602527319372,
        0.0025699504728053757
      ],
      [
        -0.14132694162968323,
        0.05565079412843088,
        0.08830368409895009,
        -0.3649428716273605,
        0.0043410588366585585,
        0.11782543128883309,
        -0.00382906969691154,
        0.12052467233547712,
        0.03169370241977714,
        0.08512587146028136,
        0.03278674414754872,
        -0.027928608354187413,
        0.14936834143477182,
        0.2909248045265942,
        0.04959722840937806,
        -0.009982646421254697,
        -0.04522067940726432,
        0.01824684126714782,
        0.08417747231879971,
        0.051577651161027145,
        0.03690661222088528,
        0.04218775594534307,
        0.016100694437361743,
        0.04697397278113357,
        0.08687080010094145,
        0.18588535227563519,
        -0.11889206098104196,
        0.01624169657855274,
        0.09013432534805292,
        -0.05930658114503319,
        0.019182808325018223,
        0.002516051036279751,
        -0.08411532829170011,
        -0.0664560398697375,
