{"version": "0.5.4", "metadata": {"date": {"year": 2025, "month": 2, "day": 26, "hour": 11, "minute": 15, "second": 43}, "loudness": -9.188438415527344, "gain": 0.8396523072994827}, "architecture": "WaveNet", "config": {"layers": [{"input_size": 1, "condition_size": 1, "head_size": 8, "channels": 16, "kernel_size": 3, "dilations": [1, 2, 4, 8, 16, 32, 64, 128, 256, 512], "activation": "Tanh", "gated": false, "head_bias": false}, {"input_size": 16, "condition_size": 1, "head_size": 1, "channels": 8, "kernel_size": 3, "dilations": [1, 2, 4, 8, 16, 32, 64, 128, 256, 512], "activation": "Tanh", "gated": false, "head_bias": true}], "head": null, "head_scale": 0.02}, "weights": [0.08542699366807938, 0.5105718374252319, -0.8450149893760681, -0.5631436705589294, -0.19547289609909058, 0.467192679643631, 0.1265479326248169, 0.9249813556671143, 0.1179235503077507, 0.19123996794223785, -0.26002413034439087, -0.09727373719215393, -1.1060534715652466, -0.5346595048904419, -0.3850403428077698, -0.1167859435081482, 0.10093698650598526, 0.3606358468532562, -0.2759297490119934, 0.09677066653966904, -0.13033172488212585, 0.37335944175720215, -0.20516376197338104, 0.27608221769332886, -0.28078189492225647, -0.15401598811149597, 0.29890093207359314, -0.39384979009628296, -0.23838137090206146, 0.14667116105556488, -0.29075121879577637, 0.3081657588481903, -0.2433873564004898, 0.20841792225837708, 0.4541170597076416, 0.12317275255918503, -0.025467582046985626, 0.29752418398857117, -0.1054123193025589, 0.33154210448265076, 0.05571892112493515, 0.1999015361070633, -0.17853643000125885, 0.03900722414255142, -0.25595638155937195, 0.2020377218723297, -0.08764510601758957, 0.2380639612674713, -0.33732494711875916, -0.15196329355239868, 0.27845677733421326, -0.11272498220205307, -0.11590532213449478, 0.19036036729812622, -0.16487768292427063, -0.25210127234458923, 0.2003193497657776, -0.36326608061790466, -0.2535957396030426, 0.1095261350274086, -0.19117183983325958, -0.0324014350771904, -0.399563729763031, 0.276259183883667, 0.02656974270939827, 0.02892271615564823, -0.21738219261169434, 0.029095124453306198, 0.0353524386882782, 0.29411575198173523, -0.09755650162696838, 0.00441369041800499, -0.09058912098407745, 0.1271222084760666, 0.17922955751419067, -0.023447543382644653, 0.025875240564346313, -0.07054667919874191, -0.13191109895706177, -0.0967981144785881, -0.18300983309745789, 0.29208770394325256, -0.06813807785511017, -0.10534700751304626, 0.03966241329908371, -0.03355918452143669, -0.07470738887786865, 0.09013638645410538, 0.055354516953229904, 0.0094336848706007, -0.1191985234618187, 0.07552001625299454, 0.05546348914504051, 0.21762147545814514, -0.14187091588974, -0.0487888939678669, -0.094424769282341, 0.02729151025414467, -0.06128668785095215, -0.24794580042362213, 0.14443284273147583, 0.149230495095253, -0.21792970597743988, -0.02682037651538849, -0.08196631819009781, -0.15057948231697083, -0.11015012115240097, -0.05960467457771301, -0.17131614685058594, -0.016320783644914627, -0.19481776654720306, 0.2525203227996826, 0.010081823915243149, -0.03743862360715866, 0.19730955362319946, -0.2437494993209839, 0.02376062236726284, -0.09631894528865814, 0.1305380016565323, -0.027544263750314713, 0.15372711420059204, 0.12576697766780853, -0.12606281042099, 0.17124488949775696, -0.009595166891813278, -0.13201703131198883, 0.07116051018238068, -0.1843559890985489, 0.0047136340290308, -0.23527303338050842, 0.04919281229376793, 0.011361606419086456, -0.17300236225128174, -0.12401174753904343, 0.15639086067676544, -0.12164465337991714, 0.12057747691869736, -0.13105551898479462, 0.1776765137910843, -0.04007129371166229, 0.17275370657444, -0.0465087890625, 0.26389434933662415, -0.04952764883637428, -0.0024366802535951138, 0.07187094539403915, 0.051313742995262146, 0.12358158826828003, 0.04482168331742287, -0.16589808464050293, -0.030998611822724342, -0.006154503673315048, -0.08344364911317825, 0.1830555945634842, 0.20562729239463806, -0.19623593986034393, 0.20435480773448944, -0.15868224203586578, 0.17802824079990387, -0.18728551268577576, -0.12896248698234558, 0.11121559888124466, -0.11275860667228699, -0.036818623542785645, -0.09557633101940155, 0.049514640122652054, -0.14116880297660828, 0.13079716265201569, -0.17309360206127167, -0.09181495755910873, 0.19827768206596375, -0.10640956461429596, 0.03130459040403366, 0.11055811494588852, -0.18756306171417236, 0.1657622903585434, -0.08889594674110413, -0.007598316762596369, -0.0687856376171112, -0.1476498395204544, 0.026584289968013763, 0.049356307834386826, 0.03223489597439766, 0.0913565456867218, -0.04932517558336258, 0.1719127595424652, -0.03804284706711769, 0.06442061066627502, -0.17127476632595062, 0.15721535682678223, 0.0243536364287138, 0.15538594126701355, -0.1733839511871338, -0.0963524729013443, -0.03956051170825958, -0.14213387668132782, -0.1637561023235321, 0.12215176969766617, -0.1342129111289978, -0.08375284075737, 0.07482936978340149, 0.04266003146767616, -0.20094691216945648, -0.027938123792409897, -0.14025835692882538, 0.16127625107765198, -0.22676952183246613, 0.12299518287181854, 0.053174424916505814, 0.16495640575885773, -0.004485413432121277, -0.004859444219619036, -0.057535700500011444, -0.025536252185702324, -0.015754470601677895, 0.09753253310918808, -0.11835271120071411, -0.09651067107915878, 0.19106310606002808, -0.1258540153503418, -0.051752928644418716, 0.19925010204315186, 0.030863014981150627, 0.019548676908016205, -0.2010345607995987, 0.08781486749649048, -0.241621196269989, 0.033994074910879135, 0.1658359318971634, -0.0003214309108443558, -0.06914331018924713, 0.13397076725959778, -0.0019189739832654595, 0.22455714643001556, 0.022095104679465294, -0.056468989700078964, 0.008650637231767178, -0.06418818235397339, -0.08887416124343872, 0.10625164955854416, 0.021866988390684128, 0.07555074244737625, 0.021734055131673813, -0.018215719610452652, 0.05361538380384445, -0.06717303395271301, 0.09234881401062012, -0.13939033448696136, 0.07608349621295929, -0.03447505831718445, -0.10847561806440353, 0.08473324030637741, 0.09922358393669128, -0.0800655260682106, -0.24676473438739777, -0.042504023760557175, 0.16375158727169037, -0.08195046335458755, -0.15806451439857483, -0.21223436295986176, 0.045532409101724625, -0.023779697716236115, 0.17494864761829376, -0.023349186405539513, 0.1552959382534027, 0.06011250242590904, -0.16781525313854218, 0.1479886770248413, 0.23323725163936615, -0.08209320902824402, 0.03918104246258736, -0.17230403423309326, -0.0032499032095074654, -0.0835871547460556, 0.08013513684272766, -0.052826475352048874, -0.014969312585890293, -0.1991729885339737, 0.11091964691877365, -0.06883300840854645, 0.29568880796432495, -0.2067209780216217, -0.14526280760765076, -0.005681546404957771, 0.14056454598903656, -0.006473575718700886, 0.06451507657766342, -0.0762646347284317, 0.09123394638299942, 0.13482987880706787, -0.204319566488266, 0.16419807076454163, 0.15123817324638367, -0.13171562552452087, 0.07544660568237305, 0.020044419914484024, -0.025988219305872917, -0.0024590815883129835, 0.17873984575271606, -0.17740656435489655, 0.042983610183000565, -0.251482754945755, 0.09135986864566803, 0.12548615038394928, 0.03110537864267826, -0.28237006068229675, 0.04174972325563431, 0.08107542991638184, 0.17490771412849426, -0.16076640784740448, -0.15097564458847046, -0.14164096117019653, 0.18648375570774078, -0.07462237030267715, -0.055351950228214264, 0.23906239867210388, -0.09073445945978165, -0.11349499225616455, 0.19373516738414764, 0.0344635508954525, 0.11509658396244049, -0.13904114067554474, -0.0744885578751564, -0.16299402713775635, -0.1769164353609085, 0.15347743034362793, 0.19285327196121216, -0.12930512428283691, 0.12244171649217606, -0.15210790932178497, 0.01723387837409973, -0.12366311252117157, 0.22874736785888672, -0.08363154530525208, -0.11002925783395767, -0.03569915518164635, 0.2747947573661804, 0.1427794247865677, 0.02059456892311573, 0.2659824788570404, -0.056321267038583755, -0.16102033853530884, 0.2653844356536865, 0.056211039423942566, -0.19919224083423615, 0.26821163296699524, 0.05664931982755661, -0.03571992740035057, 0.06297235190868378, 0.03676105663180351, 0.10291892290115356, -0.008413022384047508, 0.048839278519153595, -0.07382446527481079, -0.04147087782621384, 0.03001909889280796, -0.007452847436070442, 0.17943361401557922, -0.07478369027376175, -0.004345875699073076, -0.20432917773723602, -0.11398103088140488, -0.15585829317569733, 0.006168983411043882, 0.11524436622858047, 0.09802829474210739, 0.01235481072217226, -0.15344120562076569, -0.058981772512197495, 0.08694984018802643, 0.041204169392585754, -0.07612372934818268, -0.2879592776298523, -0.0959601178765297, -0.09953002631664276, 0.02557537890970707, 0.1514894664287567, -0.02430407889187336, 0.020135246217250824, 0.08471498638391495, 0.17550510168075562, 0.07839936763048172, 0.08986760675907135, 0.08591309934854507, -0.0618351474404335, 0.18939654529094696, 0.03239702433347702, -0.010888254269957542, -0.02388138696551323, 0.029111051931977272, -0.09135632961988449, -0.008093723095953465, -0.12291732430458069, -0.18942618370056152, -0.0754232108592987, 0.05663186311721802, -0.005821519065648317, -0.10670348256826401, 0.028788132593035698, 0.15681198239326477, 0.10397797077894211, -0.1482982635498047, 0.017028657719492912, 0.0633179321885109, 0.17471586167812347, -0.2106708586215973, 0.19571945071220398, -0.011030180379748344, 0.04107214882969856, 0.1457267701625824, -0.19636240601539612, 0.0762016549706459, 0.19922077655792236, -0.1038660854101181, -0.00804376881569624, -0.11333087831735611, 0.07328051328659058, -0.14269335567951202, 0.0749918594956398, 0.05211011320352554, -0.18070568144321442, -0.15202665328979492, 0.12196362018585205, -0.031720589846372604, 0.10934188216924667, -0.2406807690858841, 0.09951278567314148, -0.1862802952528, 0.039040639996528625, -0.07137563824653625, -0.030047671869397163, -0.052015915513038635, 0.23639459908008575, 0.09451013803482056, -0.19772060215473175, 0.07195424288511276, 0.09468203783035278, -0.22593645751476288, 0.17065267264842987, -0.06776469945907593, -0.25238412618637085, -0.042656753212213516, 0.045644648373126984, -0.01612875983119011, -0.02599947527050972, 0.15879443287849426, 0.12018175423145294, -0.06988374143838882, 0.0022240602411329746, -0.2613134980201721, 0.22530382871627808, 0.11085928976535797, 0.21702900528907776, -0.02573309652507305, -0.13828130066394806, 0.047315239906311035, 0.10145632177591324, 0.03272417560219765, -0.18372869491577148, 0.0568678192794323, -0.17305411398410797, -0.1312991827726364, 0.1130046620965004, -0.07818473130464554, 0.11017853766679764, -0.03250851109623909, 0.22445769608020782, -0.09566172957420349, -0.08049209415912628, -0.006420256569981575, 0.12976300716400146, 0.04079017788171768, 0.06869101524353027, -0.12241870909929276, 0.1898474246263504, -0.12274821847677231, -0.07099669426679611, -0.054947737604379654, -0.10598286241292953, 0.01566784642636776, 0.01625838503241539, -0.0923965573310852, -0.18635722994804382, 0.1877226084470749, -0.052726779133081436, 0.04312543198466301, 0.1895621120929718, 0.041660744696855545, -0.06477142870426178, 0.04860229790210724, -0.0630163624882698, -0.05649430677294731, 0.17467156052589417, -0.012046023271977901, 0.3292023837566376, -0.11663056164979935, 0.2513642907142639, -0.7269500494003296, 0.20300111174583435, -0.09946303814649582, 0.3744523525238037, 0.0013643914135172963, 0.3000932037830353, -0.4094853103160858, 0.22420373558998108, 0.15231728553771973, -0.4441550076007843, 0.1682298183441162, 0.18357324600219727, -0.42614322900772095, 0.06583462655544281, -0.1628798097372055, 0.4334138333797455, -0.17505066096782684, -0.011263567954301834, -0.06155238673090935, 0.20838062465190887, -0.22222813963890076, 0.571801483631134, -0.12916681170463562, 0.3482789397239685, -0.6634132266044617, 0.19456914067268372, -0.35086309909820557, 0.38236290216445923, -0.20714229345321655, 0.3781142830848694, -0.5046853423118591, 0.13264615833759308, 0.17519985139369965, -0.3694644570350647, 0.24209922552108765, 0.12588518857955933, -0.6071157455444336, 0.004142234101891518, 0.2262694537639618, -0.5275281071662903, 0.011742657981812954, 0.18536801636219025, -0.4735356569290161, 0.035639531910419464, -0.3227055072784424, 0.6699302792549133, -0.19235806167125702, 0.1131630465388298, 0.011589555069804192, -0.07834073156118393, -0.0682549998164177, -0.03051539696753025, 0.18145814538002014, -0.06062661111354828, -0.15710680186748505, 0.10355591028928757, -0.011817107908427715, 0.007571808993816376, -0.05177383869886398, 0.05548669397830963, -0.0539264939725399, 0.04854705184698105, -0.07609545439481735, -0.11143030971288681, -0.03647652640938759, 0.20636166632175446, -0.07307421416044235, -0.2987411320209503, 0.06200072914361954, -0.01260695792734623, 0.012264907360076904, 0.1559457778930664, -0.03887547180056572, 0.1026122123003006, -0.005447720177471638, -0.01867414452135563, -0.04822712764143944, 0.0737132579088211, 0.09833122789859772, -0.08931019902229309, -0.049131788313388824, 0.039096150547266006, 0.11187499016523361, 0.03309348598122597, -0.13839305937290192, -0.1681980937719345, 0.11052872240543365, -0.03315579518675804, -0.11239732056856155, 0.10912316292524338, 0.03525148704648018, 0.07434102147817612, 0.09977258741855621, 0.09808328747749329, -0.1050189658999443, 0.011140395887196064, -0.17358872294425964, 0.14508405327796936, -0.11447858065366745, 0.1463594138622284, 0.0011800118954852223, 0.30364421010017395, -0.14167509973049164, 0.006030727177858353, 0.1217339038848877, -0.36113810539245605, 0.2702740430831909, 0.11006097495555878, -0.331709086894989, 0.1965685486793518, -0.2508370280265808, 0.18131132423877716, -0.166206955909729, -0.2706129848957062, -0.31914135813713074, -0.24874545633792877, -0.2413884401321411, 0.31090185046195984, -0.01472465693950653, 0.22447535395622253, -0.25827863812446594, 0.2603384554386139, -0.17436687648296356, 0.17347128689289093, -0.0240038875490427, 0.22309258580207825, -0.38255906105041504, 0.11509353667497635, 0.10249273478984833, -0.12041852623224258, 0.13418619334697723, 0.04556041210889816, -0.271792471408844, 0.22827517986297607, 0.21296453475952148, -0.21433405578136444, 0.14759089052677155, 0.233798548579216, -0.30642902851104736, 0.08094427734613419, -0.25861480832099915, 0.16754688322544098, -0.13010478019714355, -0.5185466408729553, 0.08724373579025269, 0.1686403900384903, 0.2773469388484955, -0.14598053693771362, 0.07947669178247452, -0.33632174134254456, 0.17788048088550568, -0.05375763401389122, -0.2927658259868622, 0.13484710454940796, 0.0011480780085548759, -0.14379240572452545, -0.05237532779574394, -0.06868994981050491, 0.19121260941028595, -0.04164491593837738, 0.07282324880361557, -0.19717030227184296, -0.08058159053325653, 0.03487182781100273, 0.2234206199645996, 0.04843725636601448, -0.1708272248506546, -0.38159725069999695, 0.19255384802818298, 0.08898096531629562, 0.3768989145755768, -0.10087691247463226, 0.06146041676402092, -0.39585912227630615, 0.03512543439865112, 0.02580939047038555, -0.24444961547851562, 0.09542101621627808, 0.15452823042869568, -0.27649495005607605, 0.05236256122589111, 0.15996228158473969, -0.2977953553199768, 0.18323282897472382, -0.03441068157553673, -0.28670817613601685, 0.04383735731244087, 0.12135768681764603, 0.5052396655082703, -0.08812887966632843, -0.2691674828529358, 0.11682813614606857, 0.007376684807240963, -0.039768632501363754, -0.257177472114563, 0.033153243362903595, 0.18725526332855225, 0.17213174700737, -0.08198188990354538, 0.0480521097779274, 0.051196277141571045, 0.08155125379562378, -0.03803189843893051, 0.1043289452791214, 0.10861039161682129, -0.17631232738494873, -0.11620087921619415, -0.12503793835639954, 0.05392000824213028, -0.009140430949628353, -0.03883012756705284, -0.3103548288345337, -0.06435379385948181, -0.0666852816939354, -0.009874483570456505, -0.03531865403056145, -0.13466688990592957, 0.001057466259226203, -0.17666904628276825, -0.016558360308408737, 0.12629449367523193, 0.2371991127729416, 0.1491536945104599, 0.03563997894525528, 0.06148892268538475, 0.03371139615774155, -0.13750645518302917, 0.07623152434825897, 0.08476284146308899, 0.07811213284730911, 0.04393211752176285, 0.13868586719036102, -0.127772718667984, 0.14365613460540771, 0.17290963232517242, -0.09107473492622375, -0.11972689628601074, -0.13190340995788574, 0.2648758888244629, -0.030739478766918182, -0.12997734546661377, 0.17239154875278473, -0.07049699872732162, -0.13948453962802887, -0.016093503683805466, 0.0694776400923729, -0.023131486028432846, 0.08566094934940338, 0.08385512977838516, 0.11172184348106384, -0.0598350465297699, -0.03546411544084549, -0.02971268631517887, -0.09467314928770065, 0.04929478466510773, 0.09515947848558426, 0.10024752467870712, 0.16875717043876648, -0.09486236423254013, -0.08934345841407776, 0.15303801000118256, -0.07933755218982697, -0.1186959370970726, 0.01795675791800022, 0.06454436480998993, -0.0867457464337349, 0.1746261715888977, 0.04651011526584625, -0.1076793298125267, -0.08218669891357422, 0.12938116490840912, -0.10510482639074326, -0.06009048596024513, 0.0784682035446167, -0.08688502013683319, 0.03657393902540207, 0.09450146555900574, 0.10733886808156967, -0.13023263216018677, 0.16155070066452026, -0.06639659404754639, 0.11892031878232956, -0.11503060162067413, -0.10705138742923737, 0.0232485793530941, 0.021605130285024643, -0.044381801038980484, -0.07317011058330536, -0.03630400821566582, -0.04912065342068672, -0.052751146256923676, 0.017258185893297195, 0.00590144470334053, -0.07062967866659164, -0.0036245700903236866, 0.014560726471245289, 0.05778678134083748, -0.018092267215251923, 0.007845688611268997, 0.019962774589657784, -0.006945593282580376, 0.0027321709785610437, 0.001486311201006174, 0.7040835618972778, -0.2804153859615326, 0.7047185897827148, -0.6632261872291565, 0.005507516674697399, 0.8001083731651306, 0.8585466146469116, -0.4731128215789795, 0.08944980055093765, 0.028242334723472595, -0.5794009566307068, -0.30851128697395325, 0.14059045910835266, -0.7615302801132202, 0.2185833603143692, 0.4176171123981476, -0.19709153473377228, -0.04730800911784172, 0.058316607028245926, 0.09006079286336899, 0.04802325740456581, -0.04420526698231697, 0.1248876303434372, -0.0029575303196907043, 0.050133511424064636, 0.012246049009263515, 0.12465401738882065, 0.06762488931417465, 0.09675368666648865, 0.05737747997045517, 0.20873382687568665, -0.018363727256655693, 0.24150598049163818, -0.19807758927345276, -0.2959132492542267, 0.19433775544166565, 0.08064528554677963, -0.18886780738830566, -0.08964093774557114, 0.00044247761252336204, 0.0003767507732845843, 0.07253114134073257, -0.27651870250701904, 0.013000376522541046, 0.10787374526262283, -0.1220935583114624, 0.14528833329677582, 0.021911336109042168, 0.16203776001930237, 0.19314906001091003, 0.2307516187429428, 0.06018611043691635, -0.14907240867614746, 0.16237609088420868, 0.026853226125240326, -0.0028267591260373592, -0.004890169017016888, -0.20815259218215942, 0.29132556915283203, -0.022262191399931908, 0.15192699432373047, -0.031180553138256073, 0.39896416664123535, 0.12091108411550522, 0.22911465167999268, -0.013999597169458866, 0.08061744272708893, -0.3881106376647949, -0.12377393245697021, 0.3181329369544983, 0.06890357285737991, -0.004249212797731161, 0.028997743502259254, 0.18138249218463898, -0.08081579208374023, 0.016108116135001183, 0.08192598819732666, 0.15341202914714813, -0.05195554345846176, 0.021752366796135902, -0.01079857349395752, -0.46742355823516846, -0.11660604178905487, -0.013293584808707237, 0.02855193428695202, 0.14161370694637299, 0.18165263533592224, -0.0009326038998551667, 0.216927632689476, 0.3443467915058136, -0.25387367606163025, 0.0020606820471584797, -0.12728384137153625, 0.025123614817857742, -0.2956252694129944, -0.09068335592746735, -0.2719150483608246, -0.08248784393072128, -0.06342274695634842, 0.09315083920955658, 0.2467755377292633, 0.032826296985149384, 0.24636751413345337, -0.007333765272051096, 0.14675945043563843, 0.01681768335402012, -0.20316718518733978, -0.04319708049297333, -0.026415681466460228, -0.07519251108169556, -0.04962699115276337, 0.004711613059043884, -0.017954198643565178, -0.042163606733083725, 0.30692237615585327, 0.0779779851436615, -0.443403422832489, -0.13203167915344238, 0.27057668566703796, 0.008609876967966557, 0.06570428609848022, -0.11884662508964539, -0.2845112681388855, 0.03036663308739662, 0.3998953104019165, -0.04532359167933464, 0.04802437126636505, -0.1078682690858841, 0.20557738840579987, 0.04260673373937607, 0.10687625408172607, -0.02603362500667572, -0.09365542232990265, -0.02953665889799595, 0.2691863775253296, 0.017801720649003983, 0.04215032979846001, -0.1953679770231247, 0.08437587320804596, -0.05656425282359123, -0.06682179123163223, -0.14678458869457245, -0.16738246381282806, 0.07562904804944992, 0.05552893877029419, 0.021590672433376312, -0.08949070423841476, -0.24591955542564392, -0.04984898492693901, 0.06964389979839325, -0.13388970494270325, -0.009725971147418022, -0.16562002897262573, -0.25677192211151123, 0.11433689296245575, 0.02048454061150551, -0.06510542333126068, -0.06388691812753677, 0.22111962735652924, -0.051879189908504486, -0.17400410771369934, 0.1297621876001358, 0.06215677410364151, -0.21219487488269806, -0.18959279358386993, 0.03979838639497757, 0.23236176371574402, -0.00386198447085917, -0.15514563024044037, 0.2553243041038513, 0.09786852449178696, -0.008017164655029774, -0.11470464617013931, 0.010057632811367512, -0.14864595234394073, 0.16719722747802734, 0.1675477772951126, 0.1720522940158844, -0.06676867604255676, 0.041509661823511124, -0.2045464962720871, -0.05456925183534622, 0.09371055662631989, -8.143075683619827e-05, 0.149691641330719, -0.18032565712928772, -0.1192762702703476, -0.01299876719713211, 0.012260525487363338, 0.16286031901836395, 0.11668495088815689, 0.123920738697052, 0.10403258353471756, -0.013875455595552921, 0.21042171120643616, -0.05083787813782692, 0.04598280414938927, 0.028238406404852867, -0.0819133073091507, 0.008371240459382534, 0.11790590733289719, -0.2605441212654114, 0.05054166167974472, -0.0011694313725456595, -0.1791612207889557, 0.16684341430664062, -0.11149775236845016, -0.17783579230308533, 0.02607482112944126, 0.11872400343418121, 0.1384296715259552, -0.04198626056313515, 0.06761793047189713, 0.0017255994025617838, -0.11944068223237991, 0.018562566488981247, 0.20065385103225708, -0.11964836716651917, -0.08159784972667694, -0.05731186643242836, 0.19388587772846222, -0.1889910101890564, 0.029898440465331078, 0.09330067783594131, -0.03518638014793396, -0.1318894773721695, 0.06991688907146454, 0.05682063475251198, -0.22207780182361603, 0.3360593318939209, 0.24980254471302032, 0.015502732247114182, 0.05595257878303528, -0.08002441376447678, 0.25963813066482544, -0.06948333978652954, 0.0003142075438518077, -0.1249176561832428, -0.0073175858706235886, 0.08643714338541031, -0.06945955008268356, 0.2727030813694, 0.07855431735515594, -0.2739049196243286, 0.031708940863609314, 0.20113229751586914, 0.06369540840387344, 0.00504760118201375, -0.15153029561042786, 0.041960857808589935, 0.009334933944046497, -0.0006688071298412979, 0.20467765629291534, 0.10455445200204849, 0.002382701262831688, -0.004934011492878199, 0.13477401435375214, 0.034780316054821014, 0.22114892303943634, -0.11370956897735596, -0.11154580116271973, 0.19266211986541748, 0.11416250467300415, 0.008906060829758644, 0.020657585933804512, -0.05128810554742813, 0.003693740116432309, 0.005604652687907219, 0.3038288652896881, 0.005734831094741821, -0.01990445703268051, -0.08120664954185486, 0.03588416427373886, -0.10934178531169891, 0.07956346869468689, -0.02814204804599285, -0.022002805024385452, -0.014973071403801441, 0.00045149732613936067, -0.02642792835831642, -0.024680111557245255, -0.05371449142694473, 0.03199218586087227, 0.020464949309825897, 0.038578931242227554, 0.04867980629205704, 0.042318932712078094, -0.0040783206932246685, 0.06391599774360657, -0.13345175981521606, 0.04491168260574341, 0.4790174961090088, -0.08839365839958191, 0.2767251431941986, -0.14677694439888, 0.2593868672847748, 0.08277811855077744, -0.12992769479751587, 0.018680432811379433, 0.06052832305431366, 0.034431543201208115, -0.3723611533641815, -0.03211161121726036, 0.21211308240890503, 0.1381596177816391, 0.10563046485185623, -0.1680472493171692, 0.02695227414369583, 0.21675677597522736, -0.012258084490895271, 0.135402649641037, -0.12532846629619598, -0.0007286382024176419, 0.17155306041240692, -0.1157618910074234, -0.21979732811450958, 0.11602021753787994, -0.08462546020746231, 0.044789474457502365, -0.40032145380973816, 0.035452719777822495, -0.0106223588809371, -0.5895642638206482, -0.0034696704242378473, -0.12086841464042664, 0.0004713201487902552, -0.1412685513496399, -0.4303959012031555, 0.3533674478530884, -0.1684194654226303, -0.17529112100601196, -0.07656092941761017, 0.010141689330339432, 0.09447262436151505, 0.08381731808185577, 0.019503124058246613, -0.04534605145454407, -0.00549631891772151, 0.22893765568733215, 0.08488193154335022, 0.12271445244550705, 0.07111615687608719, -0.035273659974336624, 0.0413406603038311, 0.2777700126171112, 0.16913220286369324, 0.17377038300037384, 0.1065518856048584, 0.07540762424468994, -0.10257837921380997, 0.00485622975975275, -0.23742331564426422, -0.27213403582572937, -0.19850312173366547, 0.20252595841884613, -0.5943301320075989, 0.11220665276050568, 0.15809717774391174, -0.18686632812023163, -0.07893075048923492, -0.09373307973146439, 0.19689913094043732, 0.10113595426082611, 0.03276344761252403, -0.16999554634094238, -0.27651411294937134, 0.1423521786928177, 0.32476839423179626, 0.13548274338245392, -0.00618636142462492, 0.18604128062725067, 0.23119109869003296, -0.22186310589313507, -0.031109338626265526, 0.034318871796131134, 0.046193886548280716, 0.01321464218199253, 0.23678480088710785, -0.1519329845905304, -0.06929147988557816, -0.0017904519336298108, 0.08747875690460205, 0.059596166014671326, -0.03452586010098457, -0.20618830621242523, -0.07173280417919159, -0.038510192185640335, 0.13697242736816406, 0.10402509570121765, 0.034882333129644394, -0.1831432282924652, 0.13180133700370789, 0.0746513232588768, 0.1366460770368576, 0.07770433276891708, -0.033284012228250504, 0.216107577085495, -0.02056065946817398, 0.0643877238035202, -0.086045041680336, 0.02131469175219536, 0.22037209570407867, 0.03759446740150452, -0.033467091619968414, -0.11369994282722473, 0.11918474733829498, -0.09827297180891037, 0.0005261310143396258, -0.19202837347984314, 0.02345580793917179, 0.09166568517684937, 0.05405783653259277, 0.06133886054158211, -0.24809372425079346, -0.1662035882472992, -0.16540202498435974, 0.26647865772247314, 0.20682038366794586, -0.005633926950395107, 0.12975400686264038, -0.10805022716522217, 0.06973617523908615, 0.07764027267694473, 0.005066483281552792, -0.042424917221069336, -0.03967481106519699, -0.21741674840450287, 0.14744584262371063, 0.1314297914505005, -0.14481040835380554, 0.11766144633293152, 0.11917639523744583, -0.1515844315290451, -0.15817534923553467, -0.12469638884067535, -0.08421411365270615, 0.01108015887439251, -0.0394766591489315, 0.04361974820494652, -0.17277345061302185, -0.2811197340488434, 0.14091680943965912, 0.14788012206554413, -0.09678498655557632, -0.00029553938657045364, -0.059821344912052155, -0.019314590841531754, -0.25023600459098816, 0.05845029279589653, -0.009134918451309204, -0.20570671558380127, -0.06110082566738129, 0.08482979983091354, -0.31671586632728577, -0.04222050681710243, 0.13719511032104492, 0.14687210321426392, -0.19071771204471588, -0.031350161880254745, 0.11395792663097382, -0.08930749446153641, 0.19234856963157654, 0.20238257944583893, -0.102384053170681, -0.16941587626934052, 0.22895897924900055, 0.12080574035644531, 0.07007903605699539, 0.2050851583480835, 0.14774897694587708, -0.12458767741918564, 0.02901395969092846, -0.1348211020231247, -0.17851118743419647, -0.0846438780426979, -0.00911387987434864, -0.009282051585614681, 0.06589890271425247, 0.146455317735672, 0.19074751436710358, -0.3023315370082855, -0.07294566929340363, -0.017430145293474197, 0.1098201796412468, 0.08365751802921295, 0.006050958298146725, -0.3553340435028076, 0.12366290390491486, 0.021664533764123917, -0.04012851417064667, 0.2161339968442917, 0.21859627962112427, -0.05983253940939903, -0.27155598998069763, -0.2260552942752838, -0.17028965055942535, 0.01698370836675167, -0.17475932836532593, -0.17349828779697418, -0.10198488086462021, -0.227534681558609, 0.3103053569793701, 0.3337259590625763, 0.04687368869781494, -0.22643893957138062, 0.04027256742119789, 0.015049409121274948, 0.14708289504051208, 0.10054069012403488, -0.0021724607795476913, -0.03189387544989586, -0.21146902441978455, 0.07095236331224442, -0.06289929896593094, 0.0666486844420433, 0.2304462194442749, -0.5510350465774536, -0.33672916889190674, 0.08844202011823654, 0.029955899342894554, -0.03545527160167694, 0.05406757444143295, -0.27714765071868896, -0.21077477931976318, -0.05525903031229973, 0.17286384105682373, 0.19488157331943512, -0.02570365183055401, -0.04811470955610275, -0.1343802660703659, -0.21873986721038818, -0.11010179668664932, 0.17826202511787415, 0.044708166271448135, -0.008378498256206512, -0.22341610491275787, -0.09519223868846893, 0.05418059602379799, 0.10218383371829987, 0.05519012734293938, -0.04556688293814659, 0.06532098352909088, 0.09237352013587952, -0.04427275434136391, 0.11783114820718765, 0.01898840069770813, -0.11734603345394135, 0.009104824624955654, -0.07228180766105652, -0.1466861367225647, -0.09125234186649323, 0.19941863417625427, 0.2395043671131134, 0.01538151130080223, -0.14772650599479675, 0.09098296612501144, 0.058090388774871826, 0.11472103744745255, 0.2142094373703003, -0.02638104371726513, -0.1010032519698143, 0.31400266289711, -0.17690324783325195, -0.049667682498693466, 0.2926170229911804, 0.061812624335289, -0.003517638659104705, -0.1644214391708374, -0.18138743937015533, 0.031882669776678085, -0.04956214874982834, -0.02708323858678341, -0.3497235178947449, -0.11934221535921097, 0.11963577568531036, -0.004008323419839144, -0.07447879016399384, 0.12315194308757782, 0.02581704407930374, 0.3950084149837494, 0.10587705671787262, 0.15525534749031067, -0.22459985315799713, 0.10659874975681305, 0.12810951471328735, 0.093525730073452, 0.0726815015077591, -0.02056344598531723, -0.1457287222146988, 0.16549330949783325, -0.12665358185768127, 0.33550789952278137, -0.2291521281003952, 0.31430262327194214, 0.13065575063228607, -0.4933386445045471, 0.31611964106559753, 0.14057400822639465, -0.010607447475194931, -0.029089225456118584, -0.019127728417515755, -0.01617818884551525, -0.021412570029497147, 0.04555502533912659, -0.10508476197719574, -0.0990477055311203, 0.15251654386520386, -0.05523448437452316, 0.22682632505893707, -0.12016816437244415, 0.20738306641578674, -0.0445665568113327, -0.12325138598680496, 0.2263537347316742, 0.08547470718622208, -0.2857818603515625, 0.2478218376636505, -0.34420299530029297, -0.37065374851226807, 0.09723781049251556, 0.004358178004622459, 0.0010841378243640065, -0.14950820803642273, 0.13079488277435303, -0.18322423100471497, 0.007161482237279415, 0.03017113357782364, 0.12614256143569946, 0.0037970112171024084, 0.09977942705154419, -0.17398321628570557, -0.009999812580645084, 0.09603562206029892, -0.04372243583202362, -0.016448652371764183, -0.0056665618903934956, -0.06823291629552841, -0.1411396563053131, -0.21555659174919128, 0.2112828493118286, -0.12212394177913666, 0.013674370013177395, 0.11119204014539719, -0.07600454986095428, 0.055642709136009216, 0.21906337141990662, -0.018911447376012802, -0.042140983045101166, -0.059984270483255386, -0.11749253422021866, 0.15846683084964752, 0.1794162094593048, 0.08571770042181015, -0.14293518662452698, 0.05795032158493996, -0.07806085050106049, 0.12412449717521667, -0.12373066693544388, -0.03744496777653694, 0.05316312611103058, -0.19477415084838867, -0.027054419741034508, -0.0328933522105217, -0.07793870568275452, -0.055786509066820145, -0.1601984053850174, -0.005342470481991768, -0.0033100182190537453, 0.10461840033531189, -0.041409894824028015, -0.015079937875270844, 0.0882205069065094, 0.2049546092748642, 0.15163835883140564, -0.18836858868598938, -0.19905130565166473, -0.10570988804101944, 0.1829032301902771, 0.2717725336551666, 0.06026703119277954, 0.02989398129284382, -0.025684252381324768, 0.022566774860024452, -0.36330321431159973, 0.015192477032542229, -0.11507681757211685, -0.04021097719669342, -0.05035614222288132, 0.10189291834831238, 0.20523174107074738, 0.14306361973285675, 0.1815929412841797, -0.47827017307281494, -0.1361560821533203, 0.15164312720298767, 0.16415181756019592, 0.1744118332862854, -0.12078040838241577, 0.29686450958251953, -0.08260735869407654, 0.21561197936534882, -0.22898460924625397, -0.004382719285786152, -0.2517849802970886, -0.07483187317848206, -0.025876378640532494, -0.2069825977087021, 0.05087057873606682, 0.1779528260231018, 0.11753684282302856, 0.11938972026109695, -0.021890347823500633, -0.13491031527519226, -0.41504454612731934, 0.15056882798671722, -0.14925043284893036, -0.00810306891798973, -0.08841253817081451, 0.1049949899315834, -0.21092019975185394, 0.11435110121965408, 0.1151045709848404, 0.06466136872768402, 0.029141969978809357, -0.09458795934915543, -0.04223404452204704, -0.12677480280399323, -0.00421178387477994, -0.05633235722780228, -0.10206662118434906, 0.07716082036495209, -0.161626935005188, 0.13297472894191742, 0.14586101472377777, 0.05273459106683731, -0.1403149515390396, -0.029518408700823784, -0.01212103758007288, -0.22327430546283722, -0.23762157559394836, 0.058443572372198105, -0.29575809836387634, -0.04779953509569168, 0.19115805625915527, 0.07041674107313156, -0.011285724118351936, -0.14058256149291992, -0.26591479778289795, -0.06663219630718231, 0.12655256688594818, 0.06865008175373077, -0.01138287503272295, -0.030985375866293907, 0.08271307498216629, -0.02562400884926319, 0.0026377923786640167, 0.008056893944740295, -0.1277976781129837, -0.2422076314687729, -0.2803443372249603, 0.11863262951374054, -0.019847819581627846, -0.07096809893846512, -0.023553933948278427, 0.043959591537714005, -0.028135167434811592, -0.04136015474796295, -0.08224596828222275, -0.0004045332607347518, 0.03899320960044861, -0.1496678739786148, -0.21730142831802368, 0.1599878966808319, -0.12290412187576294, -0.03605847805738449, -0.12463589012622833, -0.16344843804836273, -0.21218398213386536, -0.1063239723443985, -0.10530926287174225, -0.009657100774347782, -0.0019288762705400586, -0.032992538064718246, 0.03764483332633972, 0.2179596722126007, 0.2475583404302597, -0.18040408194065094, 0.22238920629024506, 0.3392695188522339, -0.25394514203071594, 0.023905351758003235, 0.1747802197933197, 0.025338001549243927, -0.03681335970759392, 0.014064846560359001, -0.06972039490938187, -0.14147506654262543, 0.13720518350601196, 0.16825757920742035, -0.056563448160886765, -0.284837007522583, 0.12947259843349457, -0.12486881762742996, -0.28495118021965027, 0.17628829181194305, -0.013777838088572025, -0.07816382497549057, -0.07230641692876816, -0.11021363735198975, -0.08419711142778397, 0.1397627741098404, 0.03407515212893486, -0.11129724979400635, -0.05982676148414612, -0.08487645536661148, 0.06549810618162155, 0.028493279591202736, -0.07642904669046402, -0.2314019799232483, -0.16671551764011383, 0.12116115540266037, 0.18712951242923737, -0.29944244027137756, 0.05313726142048836, 0.10062241554260254, 0.08886472135782242, 0.03265728801488876, -0.0327986516058445, 0.24969904124736786, 0.10900857299566269, -0.24024294316768646, -0.18723107874393463, 0.02012566290795803, 0.04559548571705818, -0.20739434659481049, -0.036118414252996445, 0.10455376654863358, 0.2929254472255707, 0.16884669661521912, 0.08543481677770615, -0.20568296313285828, -0.04835321381688118, 0.12234571576118469, 0.11759264022111893, 0.024036308750510216, -0.1331428587436676, -0.1584523767232895, 0.0922166034579277, -0.026645103469491005, 0.10514305531978607, 0.10074502974748611, 0.021213093772530556, -0.3572280704975128, -0.12486187368631363, 0.05171353369951248, 0.167247012257576, -0.1455024927854538, -0.22464853525161743, 0.14094248414039612, -0.04290199279785156, -0.1434265375137329, -0.27049264311790466, 0.031445469707250595, 0.2545246481895447, 0.01613282598555088, 0.01723414845764637, -0.08348890393972397, 0.031267199665308, 0.05596568062901497, -0.17756201326847076, 0.27207353711128235, 0.07020224630832672, -0.14571863412857056, 0.0778573602437973, 0.03766850009560585, -0.050178155303001404, 0.015608653426170349, -0.06100860610604286, -0.06623977422714233, -0.04194863885641098, -0.08116652816534042, 0.2102908194065094, 0.04439885541796684, -0.25251731276512146, 0.1066879853606224, -0.24191267788410187, -0.15379548072814941, 0.11797112971544266, 0.04366423189640045, 0.042084917426109314, -0.017350362613797188, -0.07014907896518707, 0.036414992064237595, 0.0829271525144577, 0.0736829861998558, 0.0846056118607521, -0.16366484761238098, 0.020619051530957222, -0.2148890495300293, -0.07087267935276031, 0.252053827047348, -0.03392721712589264, 0.04573792964220047, 0.03569765388965607, 0.05768401920795441, -0.12170839309692383, 0.16184565424919128, -0.08935537189245224, -0.04195154830813408, 0.18859319388866425, 0.11771775037050247, 0.031095566228032112, -0.1719648391008377, 0.12980680167675018, 0.0017450513551011682, 0.4763806164264679, -0.3578115403652191, 0.5248404741287231, -0.06559978425502777, 0.038369279354810715, 0.13240332901477814, -0.10633306950330734, 0.055590368807315826, 0.07391578704118729, 0.043398167937994, 0.26262685656547546, 0.007684334646910429, -0.16662512719631195, -0.3413088917732239, 0.1420382410287857, -0.2289668470621109, -0.4494786262512207, 0.35277852416038513, -0.0017555213999003172, -0.2714889943599701, 0.09960479289293289, 0.0856555849313736, -0.16795414686203003, 0.15955668687820435, -0.04190424829721451, -0.02834223583340645, 0.11577108502388, 0.1703026294708252, 0.19238264858722687, -0.08874642848968506, 0.08555277436971664, 0.4444047808647156, -0.3071190416812897, -0.20652912557125092, 0.031610697507858276, -0.11050233989953995, -0.17249441146850586, 0.25554952025413513, -0.09173332154750824, -0.13110215961933136, 0.1661786139011383, -0.34908682107925415, -0.01984024979174137, -0.4893111288547516, 0.23477044701576233, 0.15718939900398254, -0.093021921813488, -0.12608405947685242, 0.3340924382209778, 0.9339266419410706, -0.13610129058361053, 0.1518695056438446, 0.04780399799346924, 0.0014992925571277738, -0.033704839646816254, -0.15970219671726227, 0.0031746341846883297, -0.05220640078186989, -0.1347062885761261, -0.1247091218829155, -0.1260843127965927, -0.16803888976573944, -0.03379432111978531, 0.030896641314029694, -0.10151001811027527, 0.04545391723513603, -0.08628355711698532, 0.25138330459594727, -0.025585653260350227, 0.3457969129085541, 0.19009187817573547, 0.054288286715745926, -0.2832041382789612, -0.39090079069137573, 0.15819209814071655, 0.13792753219604492, 0.1035018190741539, 0.06697285920381546, 0.26852935552597046, -0.10772278159856796, 0.15554000437259674, 0.04114678502082825, -0.18581286072731018, -0.16789290308952332, 0.18448445200920105, -0.020412562415003777, -0.1286967396736145, 0.04354795068502426, -0.27897709608078003, -0.0815042182803154, 0.09626292437314987, 0.35121622681617737, 0.16219502687454224, 0.002299557439982891, 0.12783683836460114, -0.12396859377622604, 0.11319201439619064, 0.038133516907691956, 0.03428640216588974, 0.16635523736476898, 0.013685153797268867, -0.043089937418699265, 0.006027804221957922, -0.05113180726766586, -0.1965246945619583, -0.05759825557470322, -0.03030560351908207, 0.03328733146190643, -0.05424734950065613, 0.03108615055680275, -0.046304527670145035, -0.032400958240032196, 0.05723783001303673, -0.1675180196762085, -0.2308698445558548, -0.1905103623867035, -0.026500552892684937, 0.04553709551692009, -0.07258787751197815, -0.12331751734018326, -0.2934199571609497, 0.10609697550535202, 0.237624853849411, 0.1932634711265564, 0.07169011980295181, -0.22768700122833252, 0.022176681086421013, -0.09680571407079697, -0.020841848105192184, 0.1379804015159607, -0.1496586799621582, -0.11417941004037857, -0.11006774753332138, 0.12568914890289307, -0.13556793332099915, 0.0931490957736969, -0.038973405957221985, -0.08060608059167862, 0.0072534638457000256, 0.20715385675430298, 0.15986627340316772, 0.09578747302293777, -0.025661278516054153, -0.030640562996268272, 0.039365775883197784, -0.33139142394065857, -0.010321210138499737, 0.10750280320644379, 0.12054690718650818, -0.019805628806352615, -0.03146947920322418, 0.014293343760073185, 0.07961784303188324, 0.07191997021436691, 0.033438488841056824, 0.06069302558898926, -0.08187094330787659, -0.21838027238845825, 0.32436150312423706, 0.26868197321891785, -0.6013908386230469, 0.16698819398880005, -0.8286682367324829, -0.20237120985984802, -0.334206223487854, 0.8703353404998779, -0.7851094603538513, -0.5524247884750366, -0.8919976353645325, 0.12469416111707687, -0.5217639803886414, 0.5843075513839722, -0.6033019423484802, -0.3694160282611847, -0.28142639994621277, -0.13413949310779572, 0.13706175982952118, 0.27145886421203613, -0.0006462971214205027, -0.2246755212545395, 0.016767974942922592, 0.052144549787044525, -0.1592775285243988, 0.10099126398563385, 0.2234390676021576, 0.08547382056713104, -0.23480412364006042, -0.3370567858219147, -0.050695519894361496, -0.29378390312194824, -0.09324954450130463, -0.10526034235954285, 0.2708786725997925, -0.2470713108778, 0.41514062881469727, -0.2570918798446655, -0.4671383798122406, 0.053339116275310516, 0.1668214648962021, 0.27190881967544556, 0.06877925246953964, 0.21721859276294708, 0.06389391422271729, -0.09855403006076813, 0.4340948462486267, -0.3863176107406616, -0.1758524626493454, -0.11394411325454712, 0.3514872193336487, -0.019772643223404884, 0.360767662525177, 0.00018582858319859952, -0.0801217257976532, -0.01756724715232849, 0.1565435528755188, -0.0796104371547699, -0.3483220934867859, 0.17523616552352905, -0.07680302858352661, -0.07422469556331635, 0.19527465105056763, 0.06020485237240791, 0.05678747594356537, -0.14044305682182312, -0.18003270030021667, -0.2645885944366455, -0.034048326313495636, -0.07014073431491852, -0.029618870466947556, 0.19029501080513, 0.15253712236881256, 0.02368057332932949, 0.33327215909957886, 0.1357523798942566, -0.1919143944978714, 0.11747393012046814, 0.04520811513066292, 0.03899110481142998, 0.19284136593341827, -0.20369309186935425, -0.14566396176815033, 0.23882225155830383, -0.07597601413726807, 0.0764741450548172, 0.22696034610271454, 0.16541996598243713, -0.18663306534290314, -0.18857568502426147, 0.2328958660364151, -0.12434620410203934, -0.031704407185316086, -0.021599076688289642, -0.23449230194091797, -0.12918907403945923, 0.4666215181350708, -0.3425866663455963, -0.11200088262557983, 0.12220404297113419, -0.09481740742921829, -0.04973836988210678, -0.08165374398231506, -0.08887750655412674, 0.24023765325546265, -0.025659166276454926, -0.2994329333305359, -0.12599997222423553, 0.28855276107788086, -0.003641608403995633, 0.046328186988830566, 0.18448199331760406, -0.5659200549125671, -0.04734566807746887, -0.2397143691778183, 0.38594889640808105, 0.2747413218021393, -0.2833505868911743, -0.17772401869297028, 0.31136786937713623, -0.05220114812254906, -0.22675402462482452, 0.0648283064365387, 0.0369880236685276, 0.07798312604427338, -0.11799602210521698, 0.36532217264175415, 0.16746021807193756, 0.2547799348831177, 0.01780584454536438, 0.12190499156713486, 0.27778711915016174, -0.01546925213187933, -0.08140988647937775, 0.014161990024149418, -0.12307864427566528, 0.30126166343688965, -0.1984764188528061, 0.10306186974048615, -0.16889797151088715, 0.24039101600646973, 0.07123665511608124, 0.052671413868665695, 0.132733553647995, 0.18985041975975037, -0.054152194410562515, -0.15425367653369904, -0.18356138467788696, -0.1792307049036026, 0.22635850310325623, -0.10489611327648163, -0.12887771427631378, 0.04944143444299698, 0.20731289684772491, -0.1866907775402069, 0.00724433409050107, 0.010625309310853481, -0.23195061087608337, 0.28518742322921753, 0.10320637375116348, 0.027011781930923462, 0.027442187070846558, 0.011625098064541817, 0.2549671232700348, -0.20247237384319305, 0.18651258945465088, 0.09442795068025589, 0.39254990220069885, -0.14803873002529144, -0.0006526896031573415, 0.48875850439071655, -0.11605622619390488, 0.03764869272708893, 0.4566013514995575, -0.31893736124038696, -0.010771729052066803, -0.15391570329666138, -0.014601528644561768, 0.05668916180729866, 0.13941644132137299, -0.12926746904850006, -0.14715807139873505, 0.0300185214728117, 0.291596919298172, 0.29461371898651123, -0.23350562155246735, 0.059257522225379944, 0.11279113590717316, -0.22968515753746033, 0.07494743168354034, 0.08169998973608017, 0.3010019063949585, 0.2242104858160019, -0.20881055295467377, -0.13280576467514038, -0.1716637760400772, -0.22251152992248535, 0.34553420543670654, 0.21365928649902344, -0.27456051111221313, 0.17751739919185638, 0.2238888144493103, -0.27238330245018005, 0.14873962104320526, 0.017916372045874596, 0.009862169623374939, -0.07866717129945755, 0.13899795711040497, -0.3036303222179413, -0.05003707483410835, 0.18378174304962158, -0.007085363380610943, -0.08396359533071518, -0.029367830604314804, 0.1555054485797882, -0.0402231365442276, -0.026831727474927902, -0.25161677598953247, -0.3064229190349579, 0.2684989869594574, 0.0070943343453109264, -0.04903377592563629, 0.005482860375195742, 0.36729103326797485, -0.09152654558420181, -0.07205373793840408, 0.08212555199861526, -0.37545982003211975, -0.1839345544576645, 0.046692103147506714, 0.14928391575813293, 0.19434036314487457, 0.1014479398727417, -0.047243136912584305, -0.08124969154596329, 0.19458679854869843, -0.12698224186897278, -0.05760641768574715, -0.17541317641735077, 0.03324298933148384, 0.18759335577487946, 0.03707093745470047, -0.10312174260616302, -0.13109545409679413, -0.17469273507595062, -0.2599789798259735, -0.050568852573633194, -0.06902286410331726, 0.00496283732354641, -0.18775291740894318, -0.13197876513004303, 0.01016971841454506, 0.0981212630867958, -0.1858115792274475, 0.1399805098772049, 0.18095475435256958, -0.32106152176856995, 0.023056555539369583, -0.12997160851955414, -0.304484099149704, 0.04603312537074089, -0.17804938554763794, 0.15707522630691528, 0.3085384666919708, -0.2797803580760956, 0.06497897207736969, 0.13497687876224518, -0.2569442391395569, 0.33780840039253235, -0.6016913652420044, -0.23874527215957642, -0.002854980994015932, -0.06945916265249252, -0.04551348090171814, -0.105250783264637, -0.020656967535614967, 0.04534662142395973, 0.19863972067832947, 0.24102680385112762, 0.004310404881834984, 0.13465778529644012, -0.04909319058060646, -0.15917976200580597, -0.05643036961555481, -0.2763496935367584, -0.1105949804186821, -0.15341871976852417, 0.3738762438297272, -0.059956640005111694, -0.3560490608215332, -0.008497575297951698, -0.49665045738220215, 0.018990471959114075, 0.1128864511847496, -0.12987282872200012, -0.05472629517316818, 0.21592086553573608, -0.12917453050613403, -0.1446685642004013, 0.14963987469673157, 0.1780352145433426, 0.029840756207704544, -0.0798453763127327, -0.6441397666931152, 0.8948698043823242, -0.06349530816078186, -0.3728480935096741, 0.08490452915430069, -0.17566706240177155, 0.0734056755900383, -0.12610115110874176, -0.05212632939219475, -0.007818397134542465, -0.04903699830174446, 0.005911602638661861, 0.17557303607463837, -0.021036040037870407, -0.09993556141853333, -0.16065919399261475, -0.07293765246868134, -0.015625203028321266, -0.08591003715991974, -0.0416417270898819, 0.019238749518990517, -0.1493583470582962, -0.040811412036418915, 0.22511516511440277, -0.011309235356748104, 0.03684499114751816, 0.32265105843544006, 0.16590818762779236, -0.08654634654521942, 0.4603666663169861, -0.5003741383552551, -0.09723816812038422, -0.2961375415325165, -0.2274712324142456, 0.05779225006699562, -0.033010151237249374, 0.08167378604412079, -0.17813345789909363, 0.03754951432347298, 0.01052648201584816, 0.10394596308469772, -0.1491834670305252, -0.23740078508853912, -0.007273243740200996, 0.10887663066387177, -0.08120692521333694, -0.050000131130218506, 0.5316213965415955, 0.21293260157108307, -0.06607387214899063, 0.01777672953903675, -0.08579668402671814, -0.17200550436973572, 0.2249503880739212, 0.23327527940273285, 0.21975329518318176, 0.05043989047408104, -0.0024947456549853086, -0.17362858355045319, 0.11647806316614151, 0.19404123723506927, 0.22223886847496033, 0.3248022794723511, -0.1824224442243576, -0.42355093359947205, -0.13585345447063446, -0.11687179654836655, -0.2463451772928238, -0.062201227992773056, 0.056399501860141754, -0.1255301535129547, -0.26144224405288696, -0.13800211250782013, -0.41047340631484985, -0.18041366338729858, 0.11527242511510849, -0.08861926943063736, -0.3094884753227234, -0.26434314250946045, -0.13730072975158691, 0.20405736565589905, 0.045509207993745804, 0.003035553963854909, 0.006425649393349886, 0.04321766644716263, -0.01302171777933836, -0.069962278008461, 0.050364118069410324, 0.12561021745204926, -0.24137656390666962, 0.04354533553123474, 0.3545270562171936, 0.09844700247049332, -0.11035962402820587, 0.10133189707994461, 0.13895943760871887, 0.38627853989601135, -0.3486155867576599, 0.030392806977033615, 0.10153327137231827, -0.08658502250909805, 0.05778759717941284, 0.17238423228263855, -0.08589745312929153, -0.12924908101558685, -0.09720497578382492, -0.007179270964115858, 0.2061864286661148, 0.13390511274337769, -0.15481790900230408, -0.16170348227024078, 0.05359365791082382, 0.13748867809772491, -0.11097252368927002, 0.09248510003089905, 0.1950339376926422, -0.11413973569869995, -0.06271432340145111, 0.1675073355436325, -0.29316139221191406, -0.10320473462343216, 0.27658188343048096, 0.04228192940354347, -0.06298930943012238, -0.018349410966038704, 0.05812249332666397, 0.08666817843914032, 0.00047763597103767097, -0.06114707887172699, -0.03298114240169525, 0.5137887597084045, -0.09669438004493713, 0.3082796335220337, 0.0012410320341587067, -0.0661049410700798, 0.28054019808769226, 0.018305204808712006, -0.02243524044752121, -0.04780629649758339, -0.15480966866016388, 0.10622475296258926, -0.210992231965065, -0.19116507470607758, 0.006104958709329367, 0.15278860926628113, 0.07958652079105377, -0.0003325539000798017, -0.20016075670719147, 0.028009790927171707, 0.08790542185306549, -0.008864535950124264, 0.1345798671245575, -0.14074760675430298, 0.10450154542922974, 0.06828059256076813, -0.08658278733491898, -0.24499666690826416, -0.19658835232257843, -0.008393650874495506, 0.03665957227349281, -0.1145329549908638, -0.027066536247730255, 0.07018428295850754, -0.11569584161043167, -0.09658927470445633, 0.0033538758289068937, -0.08535070717334747, -0.21641363203525543, -0.026144670322537422, -0.06322333216667175, 0.019387757405638695, 0.2173529714345932, 0.2625744640827179, -0.004509451799094677, -0.3207223415374756, 0.2062494456768036, 0.2035810351371765, -0.056139025837183, -0.05468091741204262, 0.06649024039506912, 0.02959691360592842, 0.015230163000524044, 0.19882529973983765, 0.05575297027826309, -0.0651267021894455, 0.1800135374069214, 0.09017182886600494, -0.15879637002944946, -0.11347587406635284, 0.07742608338594437, -0.007558966521173716, 0.09128610044717789, -0.008079662919044495, 0.2258731871843338, 0.1486688256263733, -0.055716488510370255, -0.14998650550842285, -0.19795483350753784, -0.1955280303955078, 0.08430884033441544, 0.047298990190029144, -0.16537083685398102, 0.045275941491127014, 0.016734713688492775, 0.1165999174118042, 0.1214815154671669, 0.10406019538640976, -0.11974289268255234, -0.2295033186674118, 0.06702164560556412, 0.06350077688694, -0.16609612107276917, 0.06193791702389717, 0.09586234390735626, -0.15153798460960388, 0.1569022685289383, 0.008888330310583115, -0.020929796621203423, -0.004941024351865053, -0.0359976701438427, 0.19924646615982056, 0.05542626604437828, -0.16488367319107056, -0.01580900512635708, 0.517082691192627, -0.1975087821483612, -0.06020033359527588, 0.5968571901321411, 0.012191046960651875, 0.019714441150426865, 0.2839019298553467, -0.14794392883777618, -0.047322459518909454, 0.18758781254291534, -0.05524877458810806, 0.19114579260349274, -0.2915814518928528, -0.05209115520119667, 0.05694079026579857, 0.040749482810497284, -0.09565906226634979, -0.30644768476486206, -0.2508736848831177, -0.010071419179439545, 0.0428372360765934, -0.31283220648765564, -0.30521726608276367, 0.01288150716573, 0.2102264016866684, -0.012208115309476852, -0.1470569521188736, -0.32136309146881104, -0.0798209011554718, -0.04919310286641121, 0.15866318345069885, 0.10846161097288132, 0.17712265253067017, 0.07466787099838257, 0.11786718666553497, 0.2409312129020691, 0.23125939071178436, -0.044719260185956955, -0.18933847546577454, 0.36769044399261475, 0.1398797333240509, 0.24082890152931213, 0.17950139939785004, -0.09570065140724182, 0.0515039786696434, 0.09371888637542725, 0.21037577092647552, 0.09475843608379364, -0.2830570340156555, -0.08087228983640671, -0.02787511609494686, -0.05479860305786133, 0.16302813589572906, -0.09507888555526733, 0.08871450275182724, 0.06928464025259018, -0.12749741971492767, 0.02559131197631359, 0.20831286907196045, -0.012645728886127472, 0.019006239250302315, -0.17524096369743347, 0.03491576761007309, -0.0284234918653965, 0.1325962394475937, -0.01709018461406231, -0.21029070019721985, -0.10013862699270248, -0.06536500155925751, 0.20367707312107086, 0.009527109563350677, -0.11485406011343002, -0.15293654799461365, 0.12027023732662201, 0.18895602226257324, 0.12865616381168365, -0.03241606429219246, -0.10371565818786621, -0.2571854889392853, 0.23061522841453552, -0.10132431238889694, 0.027824940159916878, 0.1500195562839508, 0.030670776963233948, -0.13308055698871613, 0.09046977758407593, 0.19889673590660095, -0.16024667024612427, 0.07376474887132645, -0.18103989958763123, -0.15733492374420166, 0.17978137731552124, -0.007256501819938421, -0.07543888688087463, -0.0449841246008873, 0.1880672574043274, 0.152956023812294, 0.09575869143009186, -0.09918522089719772, 0.13270039856433868, -0.030406933277845383, 0.1593882143497467, 0.02540850080549717, 0.007280249614268541, 0.02024667337536812, -0.14182618260383606, -0.24814748764038086, 0.02678648941218853, -0.1926151067018509, 0.16810469329357147, -0.14577090740203857, 0.01082464400678873, 0.17453446984291077, 0.46987780928611755, 0.08837468177080154, 0.07602798193693161, -0.07545480132102966, -0.17494341731071472, 0.02623813785612583, 0.005913677159696817, 0.08086776733398438, 0.07485883682966232, -0.04606746509671211, -0.24803127348423004, 0.05549138784408569, -0.12725530564785004, 0.2894069254398346, -0.24793069064617157, -0.03925933316349983, 0.023285290226340294, -0.013398101553320885, -0.12058635801076889, 0.12093840539455414, 0.018256453797221184, -0.0008493903442285955, 0.10230016708374023, -0.11003035306930542, 0.2228027880191803, -0.014189046807587147, -0.08044265955686569, 0.10033604502677917, -0.1875104457139969, 0.12653052806854248, -0.050460513681173325, -0.3660164177417755, -0.17537923157215118, -0.0015331992181017995, 0.09933065623044968, 0.1719530075788498, 0.2620277404785156, 0.026764340698719025, 0.1729886531829834, 0.0787539929151535, -0.0641104057431221, 0.21057133376598358, 0.34050652384757996, -0.14228560030460358, -0.14252367615699768, -0.09539072960615158, -0.16965137422084808, -0.12748003005981445, 0.11831038445234299, 0.1117316335439682, -0.09979399293661118, -0.20616352558135986, 0.049008745700120926, -0.25398945808410645, -0.05613129213452339, 0.23565250635147095, 0.08640707284212112, 0.14248210191726685, -0.15530335903167725, -0.10096833854913712, 0.0017383870435878634, -0.0308383759111166, -0.3107697069644928, -0.05072811245918274, 0.10241229832172394, 0.13489679992198944, -0.0033469574991613626, -0.09883846342563629, 0.17339305579662323, -0.065804123878479, 0.0016616620123386383, -0.004109222441911697, 0.14696958661079407, 0.0799475908279419, 0.12798652052879333, 0.10099205374717712, -0.13474924862384796, 0.5432809591293335, 0.11619535833597183, 0.1062246561050415, 0.3120240569114685, -0.1217329278588295, 0.2752673625946045, 0.29124969244003296, -0.15535740554332733, 0.06527566909790039, 0.13269837200641632, -0.12242979556322098, 0.04410227760672569, 0.17426075041294098, -0.06684938073158264, -0.005243583582341671, -0.0802207887172699, 0.11101841181516647, -0.09987866878509521, 0.3658919930458069, -0.3838158845901489, -0.018672646954655647, 0.2474735677242279, -0.4278144836425781, -0.04859131574630737, -0.2987610697746277, -0.07268720120191574, -0.06695826351642609, -0.12169399112462997, -0.03562156483530998, 0.13405051827430725, -0.11681532114744186, 0.23025387525558472, 0.3526838421821594, 0.23948898911476135, -0.1692797690629959, 0.06268689781427383, 0.2547568380832672, -0.22643601894378662, 0.0678739920258522, 0.12303471565246582, -0.15193648636341095, 0.12179315835237503, 0.1496991366147995, -0.12792357802391052, -0.009785565547645092, 0.06362258642911911, -0.3584332764148712, 0.14986242353916168, -0.008708004839718342, -0.3422640264034271, -0.012583427131175995, 0.1579759269952774, 0.08281876146793365, 0.01449726615101099, 0.23257505893707275, 0.057067543268203735, -0.03973642364144325, -0.008439221419394016, -0.003576027462258935, 0.0906706228852272, 0.05189536139369011, 0.2082488238811493, 0.13374559581279755, -0.042518824338912964, 0.07073471695184708, 0.37120118737220764, 0.39827960729599, -0.13817591965198517, -0.07382263243198395, -0.15259812772274017, -0.25219595432281494, 0.15190018713474274, 0.09211699664592743, -0.03009853884577751, -0.10042241960763931, 0.1513964980840683, -0.0643557459115982, -0.022805100306868553, -0.13102848827838898, 0.06587148457765579, -0.021309869363904, 0.03404795005917549, 0.19666559994220734, 0.07244300097227097, -0.012861067429184914, 0.21496036648750305, -0.09979965537786484, 0.010543602518737316, -0.017680224031209946, -0.00375183904543519, -0.08113375306129456, -0.04797292873263359, -0.027688398957252502, 0.20090824365615845, -0.1404251754283905, -0.2358461618423462, 0.7177937626838684, -0.38135528564453125, -0.076832614839077, -0.26344409584999084, 0.21880841255187988, -0.010040363296866417, -0.13851115107536316, 0.06735739856958389, 0.06304366886615753, 0.0665092021226883, 0.10920397937297821, -0.19185452163219452, 0.07579188793897629, -0.06930708885192871, 0.0950213149189949, -0.1893816888332367, 0.04202336072921753, 0.0821060836315155, -0.005040602758526802, -0.06411252915859222, 0.04085556045174599, 0.22723740339279175, 0.11514776200056076, 0.11492738127708435, 0.024704085662961006, -0.16749680042266846, -0.17023365199565887, 0.056213509291410446, -0.2297361046075821, -0.05201460421085358, 0.019700204953551292, -0.08198730647563934, 0.015694784000515938, -0.1661253720521927, -0.14610500633716583, 0.0626097097992897, -0.11674248427152634, -0.001834305701777339, -0.002326373243704438, -0.041952453553676605, -0.004592605400830507, -0.06736761331558228, 0.0875808596611023, 0.0012224847450852394, 0.04276643693447113, -0.0745888501405716, -0.09646949172019958, -0.009681864641606808, -0.20123884081840515, -0.5002885460853577, 0.14068405330181122, 0.23453150689601898, 0.2207242250442505, -0.08008839935064316, -0.14271432161331177, -0.18229201436042786, -0.11178349703550339, -0.1170785054564476, 0.01871803216636181, -0.08438654243946075, 0.02979285642504692, -0.03637268766760826, 0.20892761647701263, 0.13042078912258148, 0.0675572007894516, 0.03319719433784485, 0.11892181634902954, -0.1753920018672943, -0.10249417275190353, 0.2703385651111603, -0.2093466818332672, 0.1150471419095993, 0.05537240579724312, -0.0255897156894207, -0.0953713059425354, -0.2839527130126953, 0.12145978212356567, 0.0804903656244278, 0.19083084166049957, -0.05542777106165886, 0.005295140668749809, 0.12579910457134247, 0.041457075625658035, -0.08136648684740067, -0.16420497000217438, 0.12006214261054993, -0.12564751505851746, 0.0011827817652374506, 0.0926344096660614, -0.13091574609279633, -0.015622985549271107, 0.04836404323577881, -0.10921774804592133, -0.0691898763179779, -0.18635477125644684, 0.04620986431837082, -0.2945075035095215, 0.22234725952148438, 0.20368808507919312, 0.22884774208068848, -1.1312307119369507, 0.18778598308563232, -0.1320372074842453, -0.5724655389785767, 0.22988969087600708, -0.16043666005134583, -0.5096731185913086, 0.11624257266521454, -0.30469053983688354, -0.12409578263759613, -0.2087353765964508, 0.3877415060997009, 0.28464141488075256, -0.07894303649663925, 0.49176105856895447, -0.7316755652427673, 0.11356334388256073, 0.2872074842453003, -0.3255263864994049, -0.13466262817382812, -0.0008382049854844809, 0.163857564330101, -0.11773805320262909, -0.11911439895629883, -0.1100940927863121, -0.014699386432766914, -0.122822105884552, 0.3237251937389374, -0.0207278560847044, 0.2045486569404602, 0.023213405162096024, -0.01976306363940239, -0.028319869190454483, 0.02926957607269287, -0.11430338025093079, -0.012077867053449154, -0.30143576860427856, 0.47782084345817566, 0.09493741393089294, -0.19628921151161194, 0.030913207679986954, -0.10219808667898178, -0.09264776110649109, 0.21955640614032745, 0.6917888522148132, -0.48720091581344604, -0.437867134809494, -0.19697627425193787, -0.009006274864077568, -0.060127273201942444, -0.188887819647789, 0.14566466212272644, -0.1278161108493805, 0.01323610171675682, 0.09861879050731659, -0.1291448324918747, -0.32050085067749023, -0.1966564804315567, -0.057111844420433044, -0.08328301459550858, -0.2806687653064728, 0.032014600932598114, 0.095462366938591, 0.28116217255592346, -0.6617650389671326, -0.13755786418914795, -0.15332092344760895, 0.1687529981136322, 0.06567942351102829, 0.049108825623989105, 0.09448886662721634, -0.0401993989944458, 0.17262990772724152, 0.07338716089725494, -0.006158874370157719, -0.01382429152727127, 0.04114615172147751, -0.0473966971039772, 0.012065940536558628, -0.05740700289607048, 0.0713292583823204, -0.16959813237190247, -0.21206283569335938, -0.005837099626660347, 0.03267879784107208, -0.22264431416988373, -0.1743370145559311, -0.09369592368602753, 0.13602910935878754, 0.13198719918727875, 0.003968010190874338, -0.4613397717475891, 0.08419471979141235, 0.058525796979665756, 0.2928321361541748, 0.2690134048461914, -0.029088031500577927, 0.0006076970603317022, -0.2662335932254791, 0.37485647201538086, -0.044546473771333694, -0.024717172607779503, 0.20566198229789734, -0.013352864421904087, 0.08415871858596802, 0.10132637619972229, 0.06974651664495468, 0.22792349755764008, -0.025731952860951424, -0.09540420025587082, -0.352525919675827, 0.10091165453195572, 0.14447303116321564, -0.03272262588143349, -0.5113950967788696, -0.0103103406727314, 0.016585281118750572, 0.005710807163268328, 0.009409868158400059, -0.22038117051124573, 0.1329275518655777, 0.012372608296573162, 0.2645187973976135, -0.08851002901792526, -0.12886019051074982, -0.2697211802005768, -0.21565361320972443, -0.1313793808221817, 0.050897251814603806, 0.1400417983531952, -0.0018042466836050153, 0.06622932851314545, -0.04222249239683151, 0.13412357866764069, -0.07191161066293716, 0.058346282690763474, -0.008187651634216309, -0.249129518866539, 0.02200079709291458, 0.3893466889858246, -1.240553855895996, 0.1952916830778122, 0.05930669605731964, 0.18419021368026733, -0.16860216856002808, 0.02993549406528473, 0.013770735822618008, -0.1005742996931076, -0.053057968616485596, -0.06839649379253387, 0.3167623281478882, -0.062366385012865067, -0.020243452861905098, 0.009388525038957596, -0.17659953236579895, -0.04908140376210213, -0.058218542486429214, -0.02115975134074688, 0.004884717520326376, -0.03253026306629181, 0.6472944617271423, 0.34617725014686584, -0.3864985406398773, -0.05196879059076309, -0.2806593179702759, 0.14563298225402832, 0.46773797273635864, -0.8172389268875122, 0.9396178722381592, 0.6370424628257751, -0.036566298454999924, -0.24680358171463013, 0.22554564476013184, -0.5943995714187622, 0.16412772238254547, -0.11127054691314697, -0.07508063316345215, -0.346757173538208, 0.1284255087375641, 0.07475841790437698, 0.11765085905790329, 0.03306004777550697, -0.01699327491223812, -0.06704214960336685, 0.040647171437740326, -0.22519314289093018, -0.07417445629835129, 0.3133712112903595, -0.14274762570858002, -0.2209085375070572, 0.19256222248077393, -0.043499905616045, -0.15769903361797333, 0.14490783214569092, 0.13859020173549652, 0.016783179715275764, -0.049173008650541306, -0.23715920746326447, -0.3277062773704529, 0.08085375279188156, -0.2408551424741745, -0.3560492992401123, 0.16231206059455872, 0.36644431948661804, -0.052942827343940735, 0.17563077807426453, 0.009003951214253902, -0.20343197882175446, 0.04310453683137894, -0.1554926484823227, -0.00323631358332932, -0.14034482836723328, 0.11007528007030487, -0.14806759357452393, -0.25077083706855774, 0.10793131589889526, -0.13122552633285522, 0.1507813185453415, 0.3088955283164978, -0.2194025218486786, 0.04505930840969086, 0.2815697491168976, 0.16780735552310944, 0.030226506292819977, 0.08099056035280228, 0.16062839329242706, -0.13348597288131714, 0.18820840120315552, -0.11610724031925201, 0.256731241941452, 0.30373209714889526, -0.026715079322457314, 0.0005425842828117311, 0.046977147459983826, 0.03592570871114731, 0.11487636715173721, 0.03607688099145889, -0.12789396941661835, -0.0619397833943367, -0.2478475570678711, 0.23988747596740723, -0.09089753776788712, -0.048568326979875565, -0.2342338114976883, 0.11123938858509064, -0.09636510163545609, -0.03505466878414154, 0.03386685624718666, -0.007236738223582506, 0.14376267790794373, 0.09557493031024933, -0.19239044189453125, 0.1436641663312912, -0.13903744518756866, -0.1933615505695343, -0.11793303489685059, 0.22424587607383728, 0.08305031061172485, -0.3181418478488922, 0.10667116940021515, 0.42402565479278564, -0.03239075466990471, -0.3779577910900116, -0.001854965346865356, -0.18941225111484528, 0.19578993320465088, 0.23831982910633087, 0.07128427922725677, 0.13059505820274353, 0.11859553307294846, -0.08641678094863892, -0.031057829037308693, -0.07275538891553879, 0.2507428228855133, 0.22540438175201416, -0.0675835832953453, -0.11811957508325577, 0.18183252215385437, -0.14336803555488586, 0.29024016857147217, 0.2463759034872055, 0.013718625530600548, 0.02421763353049755, -0.035021379590034485, 0.2316417396068573, 0.12163515388965607, 0.3932865262031555, -0.14905165135860443, -0.05764156952500343, -0.16035038232803345, 0.004180721007287502, -0.08671979606151581, -0.003460010513663292, -0.19002121686935425, -0.07051894813776016, -0.06126417964696884, 0.0008066045120358467, 0.20739372074604034, 0.13324707746505737, 0.08868604153394699, -0.03012644127011299, -0.06287132948637009, -0.19523079693317413, 0.2145250141620636, -0.23200972378253937, 0.3524572253227234, 0.12233133614063263, 0.07554395496845245, -0.12346683442592621, 0.07279354333877563, -0.023043379187583923, 0.16422398388385773, 0.009656657464802265, 0.11985214054584503, -0.37387439608573914, -0.030786724761128426, 0.035114042460918427, -0.07189720869064331, 0.2711723744869232, -0.21911202371120453, -0.09198139607906342, 0.06680119037628174, 0.08986613899469376, 0.2329375296831131, -0.22187364101409912, -0.05263589695096016, -0.10078589618206024, -0.07899757474660873, 0.08882105350494385, -0.17070730030536652, -0.02217959053814411, 0.10469608008861542, 0.15069714188575745, -0.14272713661193848, 0.3561391830444336, 0.01363514643162489, -0.09792643040418625, -0.17688456177711487, 0.22071197628974915, -0.19170187413692474, 0.05573606863617897, -0.02698008343577385, 0.31981372833251953, -0.052893366664648056, -0.18210075795650482, 0.13441550731658936, -0.1277485191822052, -0.21493445336818695, 0.09194985032081604, 0.363519549369812, 0.02816799096763134, 0.038116101175546646, -0.17917248606681824, 0.26996156573295593, -0.09252564609050751, 0.28829774260520935, 0.33495983481407166, -0.004804141819477081, -0.07555998861789703, -0.0773158073425293, -0.18657705187797546, 0.06133133918046951, -0.3581935465335846, -0.12299235165119171, 0.16870452463626862, 0.20735064148902893, -0.30099132657051086, -0.31446629762649536, -0.22024008631706238, 0.16594403982162476, 0.24590036273002625, 0.15751610696315765, -0.2340717315673828, -0.11813833564519882, 0.2999420464038849, 0.09386477619409561, -0.005392895545810461, -0.155915305018425, -0.18248027563095093, 0.09248800575733185, -0.025642529129981995, -0.2544651925563812, -0.45404356718063354, 0.3140101730823517, -0.1907888650894165, 0.1998801976442337, 0.2520199716091156, -0.20951344072818756, 0.1808830052614212, -0.060451604425907135, 0.07556746155023575, 0.0763665959239006, 0.1518658995628357, -0.3724832236766815, -0.1052761971950531, 0.11364568769931793, -0.1410822868347168, -0.11541718989610672, -0.11785145848989487, 0.13982552289962769, 0.20791761577129364, -0.09869980812072754, -0.4081643521785736, -0.1683482676744461, 0.2573044002056122, -0.4251713752746582, -0.024969706311821938, 0.19107431173324585, 0.13995271921157837, 0.2400076985359192, 0.2179802507162094, -0.005500437691807747, 0.1410907357931137, -0.09437591582536697, -0.11228906363248825, 0.06799051910638809, 0.06750287115573883, -0.20774924755096436, -0.2315177321434021, -0.15228290855884552, -0.10055353492498398, -0.044400405138731, 0.1327652484178543, 0.21541468799114227, 0.2976767122745514, 0.3267928659915924, -0.15799438953399658, -0.05352500081062317, -0.1876997947692871, 0.0961209312081337, 0.06888704746961594, 0.1795903891324997, 0.13733512163162231, 0.02493257448077202, -0.045412350445985794, 0.275860071182251, 0.1173148825764656, 0.09789517521858215, -0.13121654093265533, -0.0939103439450264, -0.15082643926143646, -0.03574863821268082, 0.12153320014476776, -0.012890763580799103, 0.10018332302570343, -0.026658009737730026, 0.1478433907032013, 0.11796741932630539, 0.12784366309642792, 0.28938010334968567, 0.005523958709090948, 0.11362387239933014, 0.08666367828845978, -0.3578431308269501, 0.2592652440071106, -0.11329176276922226, 0.007135341409593821, -0.03264603763818741, 0.05355444923043251, -0.07071886211633682, -0.026807298883795738, 0.2615637183189392, 0.044221799820661545, 0.4323069155216217, 0.22697006165981293, -0.18963243067264557, 0.06649014353752136, -0.16567036509513855, 0.3044079542160034, 0.19451817870140076, 0.06377878040075302, -0.26990532875061035, -0.08798091858625412, -0.08380097150802612, 0.33337926864624023, -0.10370530188083649, -0.16322119534015656, -0.6221185326576233, 0.1798502653837204, 0.13885436952114105, -0.5051283836364746, -0.11272038519382477, -0.0960574671626091, -0.043925125151872635, -0.13581299781799316, -0.12921954691410065, 0.43538254499435425, -0.25405266880989075, -0.01741427183151245, -0.05280762538313866, 0.3095475137233734, -0.5285858511924744, -0.05168192461133003, 0.3138096332550049, -0.10372216999530792, 0.15277329087257385, -0.015093839727342129, -0.18605655431747437, -0.2866615951061249, -0.3337036669254303, -0.02067572996020317, -0.02636634185910225, -0.08981592208147049, -0.039252571761608124, 0.030688177794218063, 0.06768330931663513, 0.01888013817369938, -0.0028689962346106768, 0.06610478460788727, 0.07407014071941376, -0.11160962283611298, -0.14752458035945892, 0.1425900012254715, -0.1676138937473297, -0.1321086883544922, 0.10236354172229767, -0.14888161420822144, -0.0741092637181282, -0.2741515040397644, 0.12264777719974518, -0.22564832866191864, 0.18522416055202484, -0.06693679094314575, 0.18881019949913025, -0.12150243669748306, 0.03497425466775894, -0.18980976939201355, -0.07744638621807098, 0.11413528025150299, -0.15479479730129242, -0.10133609920740128, 0.14096051454544067, 0.13486382365226746, -0.1641281396150589, 0.03426671028137207, -0.044702284038066864, 0.0012344118440523744, 0.2336868792772293, -0.02638307400047779, -0.17719848453998566, 0.2408299297094345, -0.4810197651386261, -0.5247677564620972, -0.2859605550765991, 0.08706198632717133, 0.6327235102653503, -1.0232151746749878, -0.20382650196552277, -0.4620164930820465, -0.37928131222724915, 0.030429471284151077, -0.17212837934494019, 0.16771432757377625, -0.0029274364933371544, 0.03624211996793747, -0.019047604873776436, 0.016253922134637833, -0.19115589559078217, -0.19022928178310394, -0.12437216937541962, -0.3675599694252014, -0.7546359896659851, -0.07932959496974945, 0.04321317747235298, 0.09015272557735443, 0.15040750801563263, 0.10135868936777115, -0.13798847794532776, -0.01951654441654682, -0.216806560754776, 0.10552816092967987, 0.07340214401483536, -0.04151405394077301, -0.18290114402770996, -0.02188378944993019, -0.09612578898668289, -0.4498324692249298, 0.0031459059100598097, -0.05552885681390762, -0.1323762834072113, -0.032158300280570984, -0.2603491544723511, -0.4551383852958679, -0.3024008274078369, 0.012017237953841686, -0.13693171739578247, -0.15545494854450226, -0.3990767300128937, 0.6077417135238647, 0.17148332297801971, 0.11312109231948853, -0.025192424654960632, -0.057120271027088165, 0.0035132453776896, -0.1890939176082611, 0.37565264105796814, 0.08489786088466644, 0.1037517562508583, 0.06184322386980057, 0.1131424531340599, -0.08725818246603012, 0.17566417157649994, -0.040048420429229736, 0.09593160450458527, -0.07169293612241745, -0.038185227662324905, -0.09904028475284576, 0.1732683628797531, 0.04977598786354065, -0.06747828423976898, 0.22592560946941376, -0.04600351303815842, -0.07638004422187805, 0.1654769778251648, 0.28994181752204895, -0.12239936739206314, -0.1439320296049118, -0.22717322409152985, -0.18896768987178802, 0.1836327612400055, -0.1829444319009781, 0.21628789603710175, -0.23082959651947021, -0.022535793483257294, 0.11678877472877502, -0.024055959656834602, 0.10560549795627594, 0.15261396765708923, -0.19198490679264069, 0.1626666635274887, 0.02551807090640068, -0.2366584837436676, -0.1828329712152481, 0.15701723098754883, 0.08412320911884308, -0.22124746441841125, -0.01836114376783371, 0.27487847208976746, -0.011296292766928673, 0.010725160129368305, -0.21032346785068512, 0.019511351361870766, 0.5670856237411499, 0.1999436467885971, -0.061346933245658875, 0.39754587411880493, -0.10459063947200775, 0.05073532834649086, -0.020632825791835785, -0.003304484998807311, 0.13559028506278992, -0.1992114633321762, -0.09071508795022964, -0.06360817700624466, 0.22278298437595367, 0.1798020303249359, -0.017981797456741333, -0.2692146301269531, 0.2982773780822754, 0.05687161162495613, -0.13709025084972382, -0.011655482463538647, -0.20382708311080933, 0.20554015040397644, -0.17240659892559052, -0.11333997547626495, -0.37329986691474915, 0.01907474733889103, -0.18387967348098755, 0.1405056267976761, -0.1105857565999031, -0.15223774313926697, 0.12161291390657425, -0.16114328801631927, -0.05576085299253464, 0.10734260082244873, -0.0370359905064106, -0.040200673043727875, -0.17586398124694824, 0.027914749458432198, 0.012317739427089691, 0.05717100948095322, 0.05770234018564224, 0.07625987380743027, -0.2470085173845291, -0.04589733108878136, -0.15799693763256073, 0.08378951996564865, -0.12305599451065063, 0.259220689535141, -0.0031154833268374205, -0.2623608410358429, 0.12197104841470718, 0.3828625977039337, 0.03743618354201317, -0.10920191556215286, 0.1572236269712448, -0.18111629784107208, 0.17315541207790375, -0.24816694855690002, 0.011248130351305008, 0.06187530234456062, -0.1971544623374939, 0.02469407394528389, -0.07253700494766235, 0.04802665486931801, 7.955395631142892e-06, 0.014911499805748463, -0.26531660556793213, -0.1023545190691948, -0.25466978549957275, 0.2713100016117096, -0.039943624287843704, -0.0862261950969696, -0.21925094723701477, -0.06439249217510223, 0.018118703737854958, 0.18383203446865082, -0.2524193823337555, -0.038083817809820175, 0.20710697770118713, 0.10061755031347275, -0.09090123325586319, 0.07668771594762802, -0.132161945104599, -0.05445818603038788, -0.12388037145137787, -0.02279697172343731, 0.09745214134454727, 0.10057725757360458, 0.0028304390143603086, 0.1895619034767151, 0.1495147943496704, 0.10408768802881241, 0.17449767887592316, 0.23413904011249542, 0.2248726636171341, 0.17323267459869385, -0.2861877381801605, -0.32283759117126465, 0.11897151917219162, -0.19817447662353516, 0.05243182182312012, -0.11984890699386597, -0.025561584159731865, -0.19170509278774261, -0.09123970568180084, 0.22145922482013702, 0.009379468858242035, -0.06089424341917038, -0.1080169752240181, 0.15167862176895142, 0.1080772653222084, -0.2763839662075043, -0.2525661587715149, 0.2282390594482422, 0.079391710460186, 0.35787859559059143, 0.15015561878681183, -0.05439689755439758, 0.029387779533863068, -0.018449528142809868, 0.2733360230922699, 0.27698948979377747, 0.19406378269195557, -0.5411631464958191, -0.1304396539926529, 0.03176528587937355, -0.3307964503765106, -0.24903717637062073, 0.18108372390270233, -0.00895653571933508, -0.07084690034389496, -0.040378741919994354, 0.2514059543609619, -0.4672527015209198, -0.012047861702740192, 0.2428840547800064, 0.042128805071115494, 0.023067981004714966, 0.19088679552078247, -0.059856608510017395, 0.0057540214620530605, -0.19577419757843018, 0.054703474044799805, -0.07528220862150192, -0.32459399104118347, 0.25080427527427673, -0.1944812536239624, -0.14052699506282806, 0.016126975417137146, -0.050724465399980545, -0.06042390689253807, 0.08117450773715973, 0.13416357338428497, 0.5190030932426453, -0.004409200046211481, -0.056007083505392075, -0.13571830093860626, -0.10416027158498764, 0.07398112118244171, -0.34441879391670227, 0.1212330088019371, -0.07882969081401825, 0.05911032855510712, -0.09395508468151093, 0.014673858880996704, -0.2444460242986679, 0.01600339077413082, 0.10289806127548218, 0.2591998279094696, 0.319973349571228, -0.006302698515355587, -0.1451786756515503, -0.11968342959880829, 0.03247649222612381, -0.24369856715202332, 0.05853194743394852, -0.013168428093194962, -0.19202467799186707, 0.06684895604848862, 0.01517544873058796, -0.4677041172981262, -0.22957929968833923, -0.13546039164066315, -0.35569337010383606, -0.27624017000198364, 0.12075547873973846, -0.006321463268250227, -0.10306913405656815, -0.11224620789289474, 0.18995435535907745, 0.06210479512810707, 0.026919271796941757, -0.0005084918811917305, -0.17827384173870087, 0.14739948511123657, -0.3634714186191559, -0.01735437847673893, -0.06992778182029724, 0.01445798296481371, -0.156864196062088, -0.15230506658554077, 0.058546122163534164, 0.028326859697699547, -0.02301105298101902, 0.06720423698425293, -0.06454486399888992, -0.10731340199708939, 0.0566624216735363, -0.1485995501279831, -0.10632093995809555, -0.009091141633689404, -0.06699090451002121, 0.06773512810468674, -0.106502965092659, -0.07863398641347885, 0.03194012865424156, 0.33540230989456177, 0.009982192888855934, 0.06480655074119568, -0.3129703998565674, -0.14151819050312042, 0.2487008422613144, -0.11239823698997498, -0.16839586198329926, 0.10176321864128113, -0.061310265213251114, -0.17057201266288757, -0.026141276583075523, 0.28532910346984863, 0.14205455780029297, 0.06334028393030167, -0.022970333695411682, -0.042808543890714645, 0.16726413369178772, -0.17605234682559967, 0.24071204662322998, 0.006731884554028511, -0.07372459769248962, 0.07086675614118576, 0.2463836967945099, -0.44483304023742676, 0.16923853754997253, 0.11121787875890732, -0.0930483415722847, 0.013947173953056335, 0.190677210688591, -0.2493710219860077, 0.0511990524828434, -0.02806052565574646, 0.2331518828868866, -0.07888190448284149, -0.11752074211835861, 0.046286243945360184, -0.19524799287319183, 0.3111594319343567, -0.36784911155700684, 0.038625314831733704, -0.110008604824543, 0.1771526336669922, 0.10344003140926361, 0.24506065249443054, -0.14635416865348816, 0.10213888436555862, -0.3560762405395508, 0.1642185002565384, 0.15354616940021515, -0.036378294229507446, -0.006497504189610481, 0.014631668105721474, 0.10262861847877502, -0.340384304523468, -0.12444094568490982, 0.15067079663276672, -0.18521657586097717, -0.08027181774377823, 0.0891040787100792, -0.0746840313076973, -0.1408405750989914, 0.012747731991112232, 0.08680491894483566, -0.2106786072254181, -0.1195707619190216, 0.13264323770999908, -0.18181423842906952, -0.2817714810371399, 0.11338730901479721, 0.027283381670713425, -0.3086034953594208, 0.15305116772651672, -0.014588600024580956, 0.47121649980545044, 0.13761869072914124, 0.09087108075618744, 0.09473442286252975, 0.42883196473121643, 0.04090007767081261, -0.02781551331281662, -0.37968891859054565, -0.12403404712677002, 0.289262592792511, -0.10360612720251083, 0.13083022832870483, -0.18152721226215363, 0.03769760951399803, 0.13243038952350616, -0.11345120519399643, -0.03322402760386467, 0.21099379658699036, 0.11989903450012207, 0.4244507849216461, 0.286496639251709, -0.7227960228919983, 0.09400859475135803, 0.03334565460681915, -0.07219860702753067, 0.01971473917365074, -0.08544628322124481, -0.0277237668633461, 0.05312562733888626, -0.08312170207500458, 0.19013015925884247, 0.36787715554237366, 0.15902777016162872, -0.09454791247844696, -0.06336529552936554, -0.2837076783180237, 0.2803960144519806, -0.054827045649290085, 0.058375436812639236, 0.35452958941459656, -0.18049117922782898, -0.04423721507191658, 0.05231495946645737, -0.017391590401530266, 0.16317951679229736, -0.19983434677124023, -0.2729477882385254, 0.001661954796873033, -0.07022903114557266, -0.14614519476890564, 0.171614408493042, -0.1218024492263794, -0.23572605848312378, 0.08900390565395355, -0.13103754818439484, 0.0569339282810688, -0.17218327522277832, -0.07960251718759537, -0.01258072443306446, -0.20136383175849915, -0.164046049118042, -0.11141034960746765, -0.0642610713839531, 0.15231184661388397, 0.13347698748111725, 0.10554198920726776, -0.11057645827531815, -0.25748711824417114, 0.16387106478214264, -0.03722020983695984, 0.28218427300453186, 0.146287739276886, 0.08175113052129745, -0.2578038275241852, 0.07455768436193466, 0.13918089866638184, -0.20613078773021698, 0.06729190051555634, 0.08091125637292862, 0.03281811624765396, 0.003912458661943674, 0.10584873706102371, -0.19342948496341705, 0.2667577266693115, -0.06531061977148056, -0.08228415250778198, -0.1308150291442871, 0.09560651332139969, 0.12757207453250885, -0.05225140228867531, -0.02723483182489872, -0.08205747604370117, -0.0741909071803093, -0.09851150959730148, -0.8327231407165527, 0.14862173795700073, 0.12006727606058121, -0.18812496960163116, -0.24725332856178284, -0.0949491411447525, -0.1276676207780838, -0.23012946546077728, 0.04960154369473457, 0.24400591850280762, -0.054135724902153015, 0.08240404725074768, -0.0421513170003891, -0.12161765992641449, 0.08859732002019882, 0.08462484925985336, -0.0612635537981987, 0.014219468459486961, 0.07483770698308945, 0.020622843876481056, -0.044323842972517014, 0.01166480965912342, -0.014702464453876019, -0.07419651001691818, 0.23925302922725677, -0.11077851802110672, 0.045383114367723465, -0.05620026960968971, 0.030706606805324554, 0.03271351754665375, 0.10890325903892517, 0.3658619225025177, 0.19777408242225647, 0.030405938625335693, -0.03628043085336685, -0.04164232686161995, -0.4227454662322998, 0.011377822607755661, -0.1582852303981781, -0.1436198502779007, -0.12258896976709366, -0.15638819336891174, 0.1590695083141327, 0.12798330187797546, -0.19761770963668823, 0.07008715718984604, -0.14307689666748047, 0.03172906115651131, -0.24524585902690887, -0.3980834186077118, -0.0002811614831443876, -0.2655947804450989, -0.21515196561813354, -0.013635775074362755, 0.2898065447807312, 0.19241651892662048, 0.11295948922634125, -0.1327153444290161, 0.142367422580719, -0.007646056357771158, -0.26171520352363586, -0.2584429681301117, -0.3038029372692108, -0.19053925573825836, 0.09087373316287994, -0.37180382013320923, -0.3471211791038513, -0.0664183497428894, -0.044459208846092224, 0.06676588952541351, -0.10124924033880234, -0.11625770479440689, 0.07919628173112869, 0.37542372941970825, -0.07369692623615265, -0.2129185050725937, 0.21238012611865997, 0.2049163281917572, 0.10195626318454742, -0.043081969022750854, 0.06903591752052307, 0.06751663237810135, -0.1324957013130188, -0.23093008995056152, 0.30631721019744873, -0.0805518850684166, -0.13458648324012756, -0.4112881124019623, -0.23962900042533875, 0.29075467586517334, -0.005266925785690546, 0.3441214859485626, -0.07096367329359055, -0.07610474526882172, 0.1732952743768692, -0.19671152532100677, -0.04261382669210434, 0.19169387221336365, -0.03800037503242493, 0.32716795802116394, 0.053726185113191605, -0.08744584769010544, 0.06889661401510239, 0.2506799101829529, -0.07788386195898056, -0.20669929683208466, -0.17869055271148682, 0.177742138504982, -0.10580503940582275, -0.09020043909549713, -0.062073759734630585, -0.3609743118286133, -0.13473759591579437, 0.0358244851231575, -0.09942245483398438, -0.06951361894607544, -0.1685469150543213, 0.20274169743061066, 0.141559436917305, 0.07922837138175964, -0.17368580400943756, -0.08425802737474442, 0.11265082657337189, 0.2357286959886551, 0.07898624986410141, -0.049660585820674896, 0.12515832483768463, -0.09068642556667328, -0.29406580328941345, 0.07494375854730606, -0.005031315144151449, -0.31730082631111145, 0.029034186154603958, 0.2266249656677246, -0.12416372448205948, 0.056674402207136154, -0.0971628874540329, 0.04878753796219826, 0.019402852281928062, -0.2574813663959503, -0.03151393309235573, 0.1271906942129135, 0.13404905796051025, -0.05884461849927902, -0.06353546679019928, 0.26550164818763733, -0.10535360127687454, -0.2785412073135376, -0.13015027344226837, 0.11204425990581512, -0.01876147650182247, 0.19550961256027222, -0.010664599947631359, 0.23961925506591797, -0.1817706674337387, -0.19924183189868927, -0.08606307953596115, -0.11893083900213242, 0.02263949066400528, -0.20693613588809967, 0.21835386753082275, -0.048145417124032974, 0.3137360215187073, -0.15152792632579803, 0.05667257308959961, -0.28568556904792786, 0.08855899423360825, -0.10596321523189545, 0.20414428412914276, 0.07205475866794586, -0.12723474204540253, -0.11391691863536835, 0.07052519917488098, 0.08145290613174438, -0.3518323004245758, -0.049821771681308746, -0.08286530524492264, -0.11702089756727219, 0.10132870078086853, -0.20296283066272736, -0.19416439533233643, 0.1542162150144577, 0.07934179902076721, 0.0035988599993288517, -0.15075761079788208, -0.12349828332662582, -0.046985071152448654, 0.06808425486087799, 0.09095609933137894, 0.009730319492518902, 0.08449237048625946, -0.05791207775473595, 0.1581721156835556, 0.04079071059823036, -0.01943383738398552, -0.5647683143615723, 0.09828323870897293, 0.1018943265080452, 0.13629530370235443, 0.0638711079955101, 0.10763069242238998, -0.05783168226480484, -0.03482344374060631, 0.10787172615528107, 0.4469012916088104, 0.11150727421045303, 0.10214465856552124, -0.6157351732254028, -0.30714723467826843, 0.371291846036911, 0.8929850459098816, -0.022981172427535057, 0.10453787446022034, 0.17757762968540192, -0.5550146102905273, 0.1616174876689911, 0.021462220698595047, -0.7505773901939392, 0.45392027497291565, -0.4096391201019287, -0.2324652075767517, -0.25655597448349, 0.14242829382419586, -0.18778350949287415, 0.2764965891838074, 0.2250407636165619, -0.09924978017807007, -0.26456236839294434, -0.31023406982421875, -0.0010231168707832694, -0.4009687602519989, 0.002568762516602874, 0.1349439173936844, 0.033752527087926865, 0.20718586444854736, -0.04824380949139595, -0.11958181113004684, 0.3773464262485504, 0.18164284527301788, -0.9297142624855042, 0.2841467559337616, 0.08760804682970047, 0.06758721172809601, -0.18121543526649475, -0.3980022668838501, -0.07166918367147446, -0.45553767681121826, -0.12354719638824463, -0.5049751400947571, 0.3559839427471161, 0.0013081461656838655, -0.15551410615444183, -0.07751192152500153, 0.2936200499534607, -0.18054214119911194, -0.36068832874298096, 0.13133755326271057, -0.14562615752220154, -0.15535952150821686, 0.20497097074985504, 0.28007805347442627, -0.17499221861362457, -0.08916857093572617, -0.11093894392251968, 0.21232099831104279, 0.1529693603515625, -0.04222683236002922, 0.17861641943454742, -0.14512628316879272, -0.13067397475242615, -0.017407618463039398, 0.29532143473625183, 0.07925506681203842, 0.13258293271064758, 0.3085770606994629, -0.05469568073749542, -0.10305716097354889, -0.10246375948190689, 0.01815336011350155, 0.08665994554758072, 0.7027586698532104, 0.13391174376010895, -0.030115587636828423, -0.08626212179660797, 0.22111628949642181, -0.04976058378815651, 0.05197707563638687, 0.27576160430908203, -0.16322769224643707, -0.13154134154319763, 0.13061682879924774, 0.10673384368419647, 0.23364891111850739, 0.4019085168838501, 0.21545399725437164, 0.3381116986274719, 0.05854276940226555, -0.044985923916101456, -0.19428126513957977, 0.20339681208133698, -0.4058312177658081, 0.17596420645713806, 0.0366387665271759, 0.13465969264507294, -0.17366111278533936, 0.12679703533649445, -0.19581946730613708, 0.16780413687229156, 0.20353220403194427, 0.26740097999572754, -0.2350616157054901, 0.32360732555389404, 0.10548844188451767, 0.06485934555530548, -0.24079464375972748, 0.2520219087600708, 0.03182194009423256, -0.23860947787761688, 0.03267253190279007, 0.0760297179222107, -0.15435576438903809, -0.056214820593595505, 0.18469537794589996, -0.009941214695572853, 0.2132055163383484, 0.09429610520601273, -0.06092347577214241, -0.0906246080994606, -0.1298733353614807, -0.013453821651637554, 0.027469947934150696, -0.4759139120578766, -0.17220847308635712, 0.26961323618888855, -0.20072901248931885, -0.050306160002946854, 0.37766361236572266, -0.1393735408782959, -0.23261238634586334, 0.16526435315608978, -0.01866723969578743, 0.0014714872231706977, -0.20907187461853027, -0.0847143903374672, 0.01152961328625679, 0.16835267841815948, 0.030391504988074303, -0.05005837231874466, -0.1465694010257721, -0.12782634794712067, -0.005179230123758316, 0.40409886837005615, 0.25110161304473877, -0.14161193370819092, -0.037413809448480606, -0.23705337941646576, 0.10732762515544891, -0.024528557434678078, -0.17444124817848206, 0.01746363192796707, 0.1718180775642395, 0.09878305345773697, 0.006403080187737942, -0.11368270218372345, -0.05075131356716156, -0.11199057102203369, 0.03158235177397728, -0.15353430807590485, 0.07085487246513367, 0.1346031129360199, -0.3376418948173523, 0.12867797911167145, -0.15456996858119965, -0.04807766526937485, -0.06194484978914261, -0.25584688782691956, -0.05983103811740875, -0.10303641855716705, 0.1004505604505539, 0.10355423390865326, -0.06608317792415619, 0.2480744868516922, -0.19227416813373566, -0.04017345979809761, -0.32927244901657104, 0.03326749429106712, -0.028103575110435486, -0.27407607436180115, 0.16961225867271423, -0.04538276791572571, -0.003435838036239147, -0.08660407364368439, 0.0782875269651413, 0.07759296149015427, 0.06528886407613754, -0.22744940221309662, -0.06685905903577805, 0.018217047676444054, 0.10639525949954987, -0.06193077564239502, 0.10594086349010468, -0.31729838252067566, 0.12993952631950378, 0.024013211950659752, -0.1749207228422165, 0.08906680345535278, 0.1342395693063736, 0.13972093164920807, -0.47913530468940735, 0.1395581066608429, -0.11869916319847107, 0.07799085974693298, 0.08211755007505417, 0.057336363941431046, 0.16234488785266876, 0.4082958698272705, -0.06281888484954834, -0.050365231931209564, -0.20883582532405853, -0.1066618338227272, 0.17668265104293823, 0.1397266387939453, -0.3277933895587921, -0.04225163534283638, -0.2766716778278351, 0.03152254596352577, 0.004366969224065542, -0.17400945723056793, 0.07294464111328125, 0.015145177021622658, -0.00627572275698185, 0.3476249575614929, 0.0117924390360713, 0.11995649337768555, 0.07002275437116623, -0.1112893670797348, -0.1033080667257309, 0.2713574469089508, 0.1422838419675827, -0.11648518592119217, -0.15289223194122314, -0.2103709876537323, -0.19917422533035278, 0.032658651471138, 0.24747827649116516, -0.11727569997310638, 0.09893153607845306, 0.04370644688606262, -0.18747226893901825, -0.29374462366104126, 0.13517896831035614, 0.2585831582546234, -0.12181928008794785, 0.08840950578451157, -0.13128720223903656, 0.062104906886816025, -0.013866928406059742, -0.049128517508506775, -0.0324305035173893, 0.3507106900215149, -0.1343630850315094, 0.32659104466438293, -0.18240027129650116, -0.2754581570625305, -0.06494220346212387, -0.09485902637243271, -0.05338423326611519, -0.07665472477674484, -0.49412623047828674, 0.19069068133831024, -0.11493482440710068, 0.07618290930986404, 0.4087839424610138, -0.10525918006896973, 0.1003531888127327, 0.12155836075544357, -0.11894825100898743, 0.146988183259964, 0.1702999323606491, -0.08691533654928207, -0.05336647480726242, 0.18929246068000793, 0.05625128373503685, 0.1450178176164627, -0.06934307515621185, 0.1401684731245041, -0.10845766961574554, -0.0002557184488978237, 0.05436233431100845, -0.25283142924308777, 0.04401412606239319, -0.03097715973854065, 0.13966943323612213, 0.008883874863386154, 0.004300379194319248, 0.08207999914884567, -0.14823868870735168, 0.23850637674331665, 0.18056970834732056, -0.1332380324602127, 0.012145237997174263, 0.01375523954629898, 0.07646773010492325, -0.12276919186115265, -0.13859038054943085, -0.08595295995473862, -0.14026187360286713, 0.13544562458992004, -0.03808286413550377, 0.20774231851100922, -0.024936579167842865, 0.06676379591226578, 0.018649447709321976, -0.03563154116272926, -0.09207747131586075, 0.07570411264896393, 0.08522090315818787, 0.03485409542918205, -0.07795468717813492, -0.046693503856658936, -0.19760145246982574, 0.13023793697357178, 0.11649484187364578, 0.1221211850643158, -0.1299634575843811, 0.12803998589515686, 0.08481863886117935, -0.19378241896629333, 0.12351805716753006, 0.2772500514984131, -0.04071734473109245, 0.08559221774339676, 0.032274119555950165, -0.0495632030069828, 0.12650837004184723, -0.17589524388313293, 0.15740367770195007, 0.11457168310880661, -0.007810922339558601, 0.3248211145401001, -0.19561858475208282, -0.13817903399467468, 0.26662763953208923, 0.10520285367965698, -0.11203861981630325, 0.012943361885845661, 0.020349130034446716, 0.056429944932460785, -0.13881869614124298, -0.055489614605903625, 0.0971331000328064, 0.11939223855733871, 0.16815027594566345, 0.019592979922890663, -0.11488600820302963, 0.07940560579299927, -0.0973421260714531, -0.011929105035960674, -0.20085150003433228, 0.1323959231376648, -0.005102031398564577, -0.02563287317752838, -0.07256066799163818, -0.24813832342624664, -0.06256379187107086, 0.10609236359596252, 0.3107372224330902, 0.056002046912908554, 0.20086394250392914, 0.08534010499715805, -0.06405586749315262, -0.14573846757411957, -0.12158901244401932, -0.15296570956707, -0.15510159730911255, 0.11366209387779236, -0.07846599072217941, -0.1254061758518219, 0.26234564185142517, -0.04533666744828224, -0.06809729337692261, 0.037776537239551544, 0.19749076664447784, 0.015505184419453144, -0.24975642561912537, 0.006255780812352896, -0.034531500190496445, -0.08524197340011597, -0.22514523565769196, -0.08264843374490738, -0.007941669784486294, 0.012351124547421932, 0.0858825147151947, 0.07608553022146225, 0.005708960350602865, 0.2111537605524063, -0.14074662327766418, -0.05475199222564697, -0.03130025416612625, -0.08043457567691803, -0.18429622054100037, -0.26388785243034363, -0.15522344410419464, 0.027557676658034325, 0.074814572930336, 0.15054264664649963, -0.172114297747612, -0.138320654630661, -0.36131468415260315, 0.14440922439098358, -0.06408172845840454, 0.07087153941392899, -0.0013764912728220224, 0.008570469915866852, -0.022624369710683823, 0.19247543811798096, -0.46652960777282715, 0.2318844199180603, 0.10537789016962051, 0.04213103652000427, -0.1842309683561325, -0.004700995981693268, 0.19685156643390656, 0.09277704358100891, -0.12650887668132782, 0.24734072387218475, 0.06973804533481598, -0.06307762116193771, 0.13937528431415558, 0.18766005337238312, 0.07238399982452393, 0.03131391108036041, 0.2310478836297989, 0.1737498939037323, 0.07446742057800293, 0.24479474127292633, 0.06707282364368439, 0.103584885597229, 0.10152892023324966, 0.10541120916604996, 0.19071213901042938, -0.5579899549484253, 0.2905808091163635, 0.0908784493803978, -0.2989211976528168, 0.056441910564899445, -0.026545776054263115, 0.0656232237815857, -0.049986083060503006, -0.11548232287168503, 0.022413000464439392, -0.31687548756599426, -0.2815466821193695, -0.1958896517753601, -0.10065018385648727, -0.020954953506588936, -0.017749974504113197, -0.3767729103565216, -0.23059624433517456, -0.49002549052238464, -0.014004138298332691, 0.10132971405982971, -0.17507928609848022, -0.182169109582901, 0.11624777317047119, 0.337817907333374, 0.19357171654701233, 0.2984178960323334, 0.2484075129032135, 0.0852806344628334, -0.12479306012392044, -0.09975571930408478, 0.055899061262607574, 0.22565941512584686, -0.1719544678926468, 0.4511291980743408, 0.5305302143096924, -0.09925590455532074, 0.036987997591495514, -0.13869385421276093, 0.06061036139726639, 0.20667731761932373, 0.3792850077152252, 0.10385087132453918, -0.10371661186218262, 0.22825026512145996, 0.018931280821561813, 0.03601077198982239, 0.08031883090734482, 0.21475794911384583, 0.5057258605957031, 0.11671844124794006, 0.38860929012298584, -0.038377758115530014, 0.7036617994308472, -0.036060940474271774, 0.015924066305160522, -0.17541158199310303, 0.09814394265413284, 0.08192905783653259, -0.20484310388565063, -0.11829567700624466, 0.14842775464057922, -0.15247271955013275, -0.15256638824939728, -0.012729307636618614, 0.3020312488079071, 0.36473768949508667, -0.010003861039876938, 0.27869564294815063, 0.24231845140457153, 0.06626294553279877, 0.06902556866407394, -0.11595473438501358, -0.0006952788680791855, 0.17722095549106598, -0.1777915358543396, 0.13324686884880066, 0.22613389790058136, -0.2652544379234314, -0.15386617183685303, 0.29920175671577454, 0.05271061509847641, -0.20176556706428528, -0.13231243193149567, -0.2720678150653839, -0.1186116486787796, -0.44809412956237793, 0.0852775126695633, -0.2121143639087677, -0.02024177648127079, 0.27492332458496094, -0.31767818331718445, -0.030186781659722328, -0.16607053577899933, -0.12361329793930054, 0.04530224949121475, -0.054950080811977386, 0.0031844335608184338, -0.18027617037296295, -0.04243915528059006, -0.10290348529815674, 0.07736868411302567, 0.0788159966468811, -0.04324401170015335, -0.0423198938369751, -0.08406930416822433, 0.038982123136520386, -0.017802992835640907, -0.05018375441431999, -0.16994662582874298, -0.006188353057950735, -0.17734165489673615, 0.15789367258548737, 0.1459398865699768, -0.11410962790250778, -0.21423466503620148, -0.01258936058729887, 0.16371238231658936, 0.005326622165739536, 0.012049119919538498, -0.2679692208766937, -0.02576732449233532, 0.026502612978219986, 0.01923225447535515, -0.1238555759191513, 0.14837564527988434, 0.0067169019021093845, 0.037550751119852066, -0.09975304454565048, -0.007742154411971569, -0.1793302297592163, -0.06433743983507156, -0.0061827609315514565, 0.09093282371759415, 0.16542278230190277, -0.13721579313278198, -0.036064513027668, -0.013233457691967487, 0.19878385961055756, -0.005390331149101257, -0.028929660096764565, -0.1002781018614769, 0.35327309370040894, 0.013868968933820724, -0.4306319057941437, 0.06317733228206635, -0.09540470689535141, -0.17784133553504944, -0.07123619318008423, -0.06578579545021057, 0.1653459370136261, 0.12618985772132874, 0.2662232220172882, -0.030065784230828285, 0.2077169269323349, 0.10950233042240143, 0.07422938942909241, -0.029209556058049202, 0.07918726652860641, -0.06355223059654236, -0.0751085951924324, -0.018059348687529564, -0.16595558822155, -0.13286232948303223, -0.17515790462493896, 0.17007970809936523, 0.13322925567626953, 0.07770758122205734, -0.17576712369918823, -0.10081085562705994, 0.05772881582379341, 0.029210103675723076, -0.041429899632930756, -0.1417159140110016, 0.08342035114765167, -0.11677141487598419, -0.05156772956252098, 0.26150405406951904, 0.005010339431464672, 